{
  "mlp_extractor.policy_net.0.weight": [
    [
      -0.005002519581466913,
      -0.07960934937000275,
      -0.1319866180419922,
      -0.26111748814582825,
      0.23413792252540588,
      0.03761410340666771,
      0.20706823468208313,
      0.5128791928291321,
      0.25300273299217224,
      0.0694856271147728,
      -0.18253208696842194,
      0.022861294448375702
    ],
    [
      0.057840779423713684,
      0.30849504470825195,
      -0.319043904542923,
      -0.001217536279000342,
      -0.10903014987707138,
      0.1602117419242859,
      0.33722731471061707,
      0.43527525663375854,
      0.20484261214733124,
      -0.097571462392807,
      -0.24848109483718872,
      -0.19058498740196228
    ],
    [
      -0.24427913129329681,
      0.08937796950340271,
      -0.167526975274086,
      -0.12897084653377533,
      -0.057016946375370026,
      0.14956003427505493,
      0.8285748958587646,
      0.046743351966142654,
      0.1745290756225586,
      -0.1816151738166809,
      -0.03275223821401596,
      -0.09685898572206497
    ],
    [
      0.16462045907974243,
      0.4126948416233063,
      0.06453131139278412,
      -0.09799927473068237,
      -0.30477404594421387,
      -0.4188973009586334,
      -0.16891710460186005,
      -0.2819891571998596,
      -0.20315392315387726,
      0.0039848340675234795,
      0.09614262729883194,
      -0.037655070424079895
    ],
    [
      0.2131691873073578,
      0.276888370513916,
      -0.2316918820142746,
      0.09848370403051376,
      0.04108858108520508,
      0.03617173433303833,
      0.6136362552642822,
      0.03249441832304001,
      0.32831162214279175,
      0.3982650637626648,
      -0.11163093894720078,
      0.16943855583667755
    ],
    [
      -0.0479435995221138,
      -0.15319493412971497,
      0.3507697880268097,
      -0.47912290692329407,
      -0.20827320218086243,
      -0.08945731073617935,
      -0.46970248222351074,
      0.07798074185848236,
      -0.31050828099250793,
      -0.3662582039833069,
      -0.002719427924603224,
      0.04347221180796623
    ],
    [
      -0.12969659268856049,
      0.20586629211902618,
      -0.43605688214302063,
      -0.15270546078681946,
      0.049715057015419006,
      0.10680300742387772,
      0.48691651225090027,
      0.25686731934547424,
      0.7986605167388916,
      0.16030669212341309,
      -0.07133682817220688,
      0.30690211057662964
    ],
    [
      0.12368518114089966,
      -0.36643466353416443,
      0.03617384284734726,
      -0.07881821691989899,
      -0.17966759204864502,
      -0.09473617374897003,
      -0.5736650228500366,
      -0.0739961788058281,
      0.041381075978279114,
      0.08033258467912674,
      0.24630893766880035,
      0.2581295967102051
    ],
    [
      -0.049168720841407776,
      -0.17892836034297943,
      0.3240872025489807,
      -0.13524647057056427,
      -0.4424060583114624,
      -0.434356689453125,
      -0.5930758714675903,
      0.01280171237885952,
      0.04565843567252159,
      -0.31219372153282166,
      0.32059791684150696,
      -0.11156853288412094
    ],
    [
      -0.06278431415557861,
      0.44702520966529846,
      -0.07859186083078384,
      0.01094095315784216,
      0.1068509891629219,
      0.34924665093421936,
      0.6720279455184937,
      0.2614730894565582,
      0.35861626267433167,
      0.5116215348243713,
      -0.33054593205451965,
      -0.06481701880693436
    ],
    [
      0.3507528305053711,
      -0.5425074696540833,
      0.23335403203964233,
      -0.12684106826782227,
      -0.07519124448299408,
      -0.42470449209213257,
      -0.17871691286563873,
      -0.06342446804046631,
      -0.19450809061527252,
      -0.10358776897192001,
      0.11949658393859863,
      0.07244709879159927
    ],
    [
      0.039974525570869446,
      -0.36851757764816284,
      -0.11416863650083542,
      -0.1661265641450882,
      -0.04556414112448692,
      0.21579518914222717,
      -0.11180252581834793,
      0.1285037398338318,
      0.043252620846033096,
      0.1511651873588562,
      0.13617420196533203,
      -0.04591715708374977
    ],
    [
      0.16300804913043976,
      -0.09469501674175262,
      -0.034301236271858215,
      -0.020105453208088875,
      0.07532791048288345,
      0.017843259498476982,
      -0.5789204239845276,
      -0.1780010610818863,
      -0.49783387780189514,
      0.10549627989530563,
      -0.047984812408685684,
      0.36296987533569336
    ],
    [
      -0.3745831549167633,
      -0.3509140908718109,
      -0.0655364915728569,
      -0.08205144852399826,
      -0.486814022064209,
      -0.1320752650499344,
      -0.7195450663566589,
      -0.29670917987823486,
      -0.49000048637390137,
      -0.09947841614484787,
      0.05475413426756859,
      0.0679924264550209
    ],
    [
      0.21275319159030914,
      -0.1860826462507248,
      -0.2855616509914398,
      -0.16889071464538574,
      0.1564909815788269,
      0.4594334065914154,
      0.07532228529453278,
      0.3472423851490021,
      0.5151093602180481,
      -0.04016618803143501,
      0.1631460338830948,
      0.14524783194065094
    ],
    [
      -0.2291128784418106,
      0.32968050241470337,
      -0.14894405007362366,
      0.23272907733917236,
      0.15773770213127136,
      0.7133561968803406,
      0.32773783802986145,
      -0.0067409430630505085,
      0.15514309704303741,
      0.04865420609712601,
      -0.33517229557037354,
      -0.058892253786325455
    ],
    [
      -0.09955987334251404,
      -0.4373680055141449,
      -0.06720779091119766,
      -0.015535625629127026,
      -0.2745802104473114,
      -0.30208420753479004,
      0.012404246255755424,
      0.3598982095718384,
      -0.355455607175827,
      -0.1368737667798996,
      -0.22771061956882477,
      0.1395711898803711
    ],
    [
      0.20533335208892822,
      0.15996922552585602,
      -0.2284122109413147,
      0.01805271953344345,
      0.36149361729621887,
      0.16438685357570648,
      0.6827982664108276,
      0.28556206822395325,
      0.18035373091697693,
      -0.027840733528137207,
      -0.14586734771728516,
      -0.113176129758358
    ],
    [
      0.07630903273820877,
      -0.33006879687309265,
      0.36458587646484375,
      -0.29053205251693726,
      -0.19593586027622223,
      -0.34385448694229126,
      -0.35831189155578613,
      -0.12771594524383545,
      -0.48583707213401794,
      -0.5421029329299927,
      0.06012629717588425,
      0.14663510024547577
    ],
    [
      -0.048544928431510925,
      0.20284272730350494,
      0.043510112911462784,
      -0.08422448486089706,
      0.2975248098373413,
      0.2565269470214844,
      0.47583532333374023,
      -0.038285382091999054,
      0.15004967153072357,
      0.32118794322013855,
      -0.06073196604847908,
      0.13691428303718567
    ],
    [
      -0.10920879244804382,
      -0.1674312949180603,
      0.26845547556877136,
      -0.3444644808769226,
      0.27905839681625366,
      0.16444550454616547,
      0.37838900089263916,
      0.3387784957885742,
      0.10815411806106567,
      0.038125455379486084,
      -0.1950538456439972,
      -0.2933189272880554
    ],
    [
      -0.13787536323070526,
      -0.07410523295402527,
      0.07130638509988785,
      -0.19584013521671295,
      0.32830557227134705,
      0.18226124346256256,
      0.1797526478767395,
      0.19485993683338165,
      0.329698771238327,
      -0.19357912242412567,
      -0.015211362391710281,
      0.013287035748362541
    ],
    [
      0.1683264672756195,
      0.29532214999198914,
      -0.17354562878608704,
      0.2068381905555725,
      0.21147827804088593,
      0.24744752049446106,
      0.1478460431098938,
      -0.3409731984138489,
      0.1344241052865982,
      0.38576972484588623,
      -0.2768053710460663,
      -0.029922563582658768
    ],
    [
      -0.21716010570526123,
      -0.43963921070098877,
      -0.01353207603096962,
      -0.38723933696746826,
      -0.23501360416412354,
      -0.0063908901065588,
      0.013755155727267265,
      0.07256616652011871,
      -0.07677523046731949,
      -0.2162502408027649,
      -0.044065218418836594,
      0.058927107602357864
    ],
    [
      0.0801752507686615,
      0.259646475315094,
      -0.09579481184482574,
      0.05506417527794838,
      -0.049762360751628876,
      0.3574676811695099,
      0.13829044997692108,
      -0.07123932987451553,
      -0.016739094629883766,
      0.47146445512771606,
      -0.1692754328250885,
      -0.05347171053290367
    ],
    [
      -0.051132138818502426,
      -0.3931424021720886,
      0.4328174293041229,
      -0.19879013299942017,
      -0.04546800255775452,
      -0.09595304727554321,
      -0.45046839118003845,
      -0.2925039827823639,
      -0.01708357036113739,
      -0.3135726749897003,
      0.015298648737370968,
      0.3544067144393921
    ],
    [
      0.1377967745065689,
      0.25036367774009705,
      0.03210955858230591,
      -0.18134541809558868,
      0.16165617108345032,
      0.05133844166994095,
      0.23199276626110077,
      -0.12676797807216644,
      -0.19268473982810974,
      0.12126883864402771,
      0.16336247324943542,
      0.16422222554683685
    ],
    [
      -0.2678839862346649,
      0.12077481299638748,
      0.15434789657592773,
      0.11216483265161514,
      -0.0655764639377594,
      0.23244857788085938,
      0.7806134819984436,
      0.2128576934337616,
      0.2371796816587448,
      0.3802597224712372,
      -0.45067939162254333,
      0.0645814761519432
    ],
    [
      -0.12742109596729279,
      0.3477209210395813,
      -0.2727036774158478,
      -0.08646440505981445,
      0.10629986226558685,
      0.05385827273130417,
      0.713259756565094,
      0.19592207670211792,
      0.4796423316001892,
      0.2910206913948059,
      -0.0012481434969231486,
      -0.26950594782829285
    ],
    [
      -0.15364240109920502,
      -0.15897850692272186,
      0.05419467017054558,
      0.009318343363702297,
      -0.15793481469154358,
      -0.34873443841934204,
      -0.13950304687023163,
      -0.048706162720918655,
      0.12957829236984253,
      0.09768465161323547,
      -0.27337920665740967,
      -0.20236779749393463
    ],
    [
      -0.15322154760360718,
      0.1106533408164978,
      -0.15397998690605164,
      0.4539378881454468,
      0.16775865852832794,
      0.1790696233510971,
      0.5572456121444702,
      0.0976833924651146,
      0.39540743827819824,
      0.3366856575012207,
      -0.06176546961069107,
      -0.07227025926113129
    ],
    [
      0.047606825828552246,
      -0.3343020975589752,
      -0.032220810651779175,
      -0.3914066553115845,
      -0.16071510314941406,
      -0.31101611256599426,
      0.007773819845169783,
      0.12954388558864594,
      -0.14989382028579712,
      -0.22477993369102478,
      -0.14255934953689575,
      0.08860249817371368
    ],
    [
      -0.3615017235279083,
      -0.2137555181980133,
      0.3435344994068146,
      -0.1442183405160904,
      -0.1629449725151062,
      -0.2837873697280884,
      -0.42976441979408264,
      -0.1419607251882553,
      -0.2493293136358261,
      -0.13049039244651794,
      -0.0026340559124946594,
      0.36660581827163696
    ],
    [
      0.07714798301458359,
      0.38969582319259644,
      0.23938561975955963,
      -0.21238259971141815,
      -0.1162542924284935,
      -0.26346954703330994,
      -0.6760938167572021,
      -0.17222201824188232,
      -0.713478147983551,
      0.053972501307725906,
      0.015308263711631298,
      -0.0927518680691719
    ],
    [
      0.05995621904730797,
      -0.19703282415866852,
      0.00840939860790968,
      -0.04220592975616455,
      -0.07034426927566528,
      -0.24904705584049225,
      -0.4729872941970825,
      -0.28754258155822754,
      -0.21335852146148682,
      -0.40611398220062256,
      0.25452086329460144,
      0.49354130029678345
    ],
    [
      -0.04378945752978325,
      -0.16141608357429504,
      0.23651330173015594,
      -0.3392798602581024,
      -0.1561061590909958,
      -0.22100277245044708,
      -0.693108856678009,
      -0.12142805010080338,
      -0.34118199348449707,
      -0.12005007266998291,
      0.03993888199329376,
      0.3939141035079956
    ],
    [
      -0.15317153930664062,
      0.08706981688737869,
      -0.3466950058937073,
      -0.028072498738765717,
      0.4398101568222046,
      -0.024287737905979156,
      0.4130443036556244,
      0.017824947834014893,
      0.026505544781684875,
      0.24631863832473755,
      -0.1383601278066635,
      -0.3790452778339386
    ],
    [
      -0.19241446256637573,
      -0.474383145570755,
      -0.04222266003489494,
      -0.22836995124816895,
      -0.23086856305599213,
      -0.5362731218338013,
      -0.244872584939003,
      0.1529264599084854,
      0.00704272510483861,
      -0.16076505184173584,
      0.17004814743995667,
      -0.034683916717767715
    ],
    [
      0.057814911007881165,
      0.3235836625099182,
      0.09367365390062332,
      0.06148859113454819,
      0.31635141372680664,
      -0.006966669578105211,
      0.03819974884390831,
      0.14057539403438568,
      -0.00444373581558466,
      -0.17850261926651,
      -0.18448187410831451,
      0.32092225551605225
    ],
    [
      -0.11887483298778534,
      0.10811054706573486,
      -0.02112048678100109,
      -0.005633154883980751,
      -0.021457694470882416,
      -0.0948895588517189,
      0.18339470028877258,
      -0.006118195131421089,
      0.20305606722831726,
      0.0050740838050842285,
      -0.24485072493553162,
      0.13032080233097076
    ],
    [
      -0.1851162612438202,
      -0.06871160864830017,
      0.3880101144313812,
      0.09545505046844482,
      -0.30812397599220276,
      -0.274320513010025,
      -0.5823144316673279,
      -0.1817512959241867,
      -0.06245759129524231,
      -0.46011385321617126,
      -0.12251801788806915,
      0.03178360313177109
    ],
    [
      -0.02407752349972725,
      0.414816677570343,
      -0.2585105001926422,
      -0.05566735193133354,
      -0.23018695414066315,
      0.3185740113258362,
      0.6249281167984009,
      0.14053723216056824,
      0.20869295299053192,
      0.09629273414611816,
      -0.16026753187179565,
      0.08841168135404587
    ],
    [
      -0.06730210781097412,
      -0.07157779484987259,
      -0.34828615188598633,
      -0.3722641170024872,
      -0.3007239103317261,
      -0.20813514292240143,
      -0.10141801834106445,
      0.23362629115581512,
      -0.1617790311574936,
      0.2689782977104187,
      0.12286290526390076,
      -0.15252959728240967
    ],
    [
      0.16678225994110107,
      0.14517202973365784,
      0.15522223711013794,
      0.25512996315956116,
      0.028722252696752548,
      0.16619563102722168,
      0.44989463686943054,
      0.0715862512588501,
      0.031660038977861404,
      0.008524155244231224,
      0.027235185727477074,
      0.08392957597970963
    ],
    [
      0.01726250909268856,
      -0.21595552563667297,
      -0.039436064660549164,
      0.17337529361248016,
      0.2887406349182129,
      0.4028504490852356,
      0.36115115880966187,
      0.22725751996040344,
      -0.08459426462650299,
      0.2171858549118042,
      0.011479535140097141,
      -0.17261070013046265
    ],
    [
      0.21135391294956207,
      -0.20208999514579773,
      0.07472453266382217,
      -0.033723246306180954,
      0.24538765847682953,
      0.0552043616771698,
      0.03336191549897194,
      -0.21658332645893097,
      0.17686839401721954,
      0.06402411311864853,
      0.06640905141830444,
      0.23122039437294006
    ],
    [
      0.37346014380455017,
      -0.36312732100486755,
      -0.023566391319036484,
      -0.008675726130604744,
      -0.42643123865127563,
      -0.41039830446243286,
      -0.047336380928754807,
      -0.04061639681458473,
      0.09093332290649414,
      -0.20388752222061157,
      -0.40102148056030273,
      0.04669366031885147
    ],
    [
      -0.33234402537345886,
      0.2179812490940094,
      0.13249486684799194,
      0.23326526582241058,
      0.12209844589233398,
      0.21007660031318665,
      -0.3610199987888336,
      0.053443022072315216,
      -0.21698293089866638,
      0.38413727283477783,
      -0.08931088447570801,
      0.022702684625983238
    ],
    [
      0.012515014968812466,
      -0.2225426882505417,
      0.054757628589868546,
      0.2732439637184143,
      0.04415617883205414,
      -0.13660229742527008,
      -0.22529926896095276,
      -0.052592504769563675,
      -0.03977045789361,
      -0.3624231219291687,
      0.2996005713939667,
      -0.03259562700986862
    ],
    [
      -0.3296787440776825,
      0.28887638449668884,
      -0.04305233806371689,
      0.5210199952125549,
      0.21089144051074982,
      -0.2092212289571762,
      0.46536245942115784,
      0.1794668436050415,
      0.43457770347595215,
      0.08376742154359818,
      -0.1102355346083641,
      -0.11258938908576965
    ],
    [
      0.2112264633178711,
      0.5084541440010071,
      -0.12761209905147552,
      0.22149385511875153,
      0.223979651927948,
      0.36462077498435974,
      0.36926743388175964,
      0.13462507724761963,
      0.12102212756872177,
      0.3872986435890198,
      -0.13501104712486267,
      -0.09454523026943207
    ],
    [
      0.2330874353647232,
      0.20163977146148682,
      -0.10740497708320618,
      0.05596212297677994,
      -0.03961397334933281,
      -0.1062985360622406,
      0.5222668647766113,
      0.4210665822029114,
      -0.021184643730521202,
      0.1711578220129013,
      0.05523018538951874,
      -0.2890229821205139
    ],
    [
      0.028666626662015915,
      -0.6766736507415771,
      0.3799873888492584,
      -0.35872775316238403,
      -0.35945019125938416,
      0.06584133952856064,
      -0.28253450989723206,
      0.014166264794766903,
      -0.14825627207756042,
      -0.3430609107017517,
      0.04762062430381775,
      -0.019084932282567024
    ],
    [
      0.06504189968109131,
      0.026964575052261353,
      0.17355379462242126,
      0.10605530440807343,
      -0.18822050094604492,
      -0.11106488108634949,
      -0.16533365845680237,
      -0.17241187393665314,
      -0.29604992270469666,
      0.3736761510372162,
      -0.20301733911037445,
      0.04109065607190132
    ],
    [
      0.22240276634693146,
      -0.008317915722727776,
      -0.07342671602964401,
      -0.04260721802711487,
      0.14408119022846222,
      0.07179803401231766,
      0.6822336316108704,
      0.3168366253376007,
      0.15938468277454376,
      0.157659113407135,
      -0.09067583829164505,
      0.018938105553388596
    ],
    [
      -0.17462676763534546,
      -0.38343045115470886,
      0.061092209070920944,
      -0.34535956382751465,
      0.05239509791135788,
      -0.7445647716522217,
      -0.2845478057861328,
      -0.19825787842273712,
      -0.27142781019210815,
      -0.06947674602270126,
      0.2117575705051422,
      0.2783770263195038
    ],
    [
      -0.08082184195518494,
      0.0881953164935112,
      0.16122737526893616,
      0.04401865601539612,
      -0.040152836591005325,
      -0.30860650539398193,
      -0.5733233690261841,
      -0.3255120813846588,
      -0.5328482985496521,
      -0.36348238587379456,
      0.10287369042634964,
      0.34028300642967224
    ],
    [
      -0.10159406810998917,
      -0.21370695531368256,
      0.27907195687294006,
      -0.15417981147766113,
      -0.3643307387828827,
      -0.08641579747200012,
      -0.19990773499011993,
      -0.5720396041870117,
      -0.3327876627445221,
      0.0202577393501997,
      0.3035043478012085,
      0.12742987275123596
    ],
    [
      -0.08561202138662338,
      0.3085074722766876,
      -0.2469334900379181,
      -0.2314417064189911,
      0.20274698734283447,
      0.3348703682422638,
      0.5100919008255005,
      0.20791040360927582,
      0.12276653945446014,
      0.3231680989265442,
      -0.0006146607920527458,
      -0.3370383679866791
    ],
    [
      -0.07338041812181473,
      -0.12934964895248413,
      0.3390097916126251,
      -0.5187768936157227,
      -0.12326181679964066,
      -0.27577903866767883,
      -0.8358609080314636,
      -0.08556865900754929,
      0.1646183282136917,
      -0.4392247498035431,
      0.21306119859218597,
      0.23357704281806946
    ],
    [
      -0.02271685004234314,
      -0.20172366499900818,
      -0.09740421175956726,
      -0.45860564708709717,
      -0.2632816731929779,
      -0.31369805335998535,
      -0.22669115662574768,
      0.008352796547114849,
      -0.3351484537124634,
      -0.15088967978954315,
      0.20667770504951477,
      -0.11441939324140549
    ],
    [
      -0.018800269812345505,
      -0.46465352177619934,
      -0.004864198621362448,
      -0.3211590647697449,
      -0.098580501973629,
      -0.34913191199302673,
      -0.027352934703230858,
      0.11258527636528015,
      -0.15141865611076355,
      -0.0992419496178627,
      0.026247762143611908,
      0.18303252756595612
    ],
    [
      -0.07221951335668564,
      0.40524202585220337,
      0.24794551730155945,
      0.06478556990623474,
      0.1431676745414734,
      0.14269135892391205,
      0.6701382398605347,
      0.019699472934007645,
      0.37666308879852295,
      0.6143937706947327,
      -0.14530886709690094,
      -0.23002366721630096
    ],
    [
      0.11694974452257156,
      0.0059653338976204395,
      0.15966159105300903,
      -0.1688942164182663,
      0.20112337172031403,
      -0.16109409928321838,
      -0.10601522773504257,
      -0.05493598058819771,
      -0.12552794814109802,
      0.2076931893825531,
      0.07567518949508667,
      -0.33430352807044983
    ]
  ],
  "mlp_extractor.policy_net.0.bias": [
    0.017340878024697304,
    -0.017702333629131317,
    -0.08428428322076797,
    0.1024116799235344,
    -0.042583391070365906,
    -0.02450300008058548,
    -0.10624762624502182,
    0.07638318091630936,
    -0.005426893942058086,
    -0.04681606590747833,
    -0.0378798171877861,
    0.07935021817684174,
    0.20191636681556702,
    0.12513995170593262,
    -0.13519828021526337,
    -0.0477580800652504,
    0.06863261014223099,
    -0.14015844464302063,
    0.008103648200631142,
    -0.08087176084518433,
    -0.057499513030052185,
    -0.15821608901023865,
    0.0190450269728899,
    -0.007133822422474623,
    0.09878575801849365,
    0.033986154943704605,
    -0.05894245207309723,
    -0.09952053427696228,
    -0.06823320686817169,
    0.09459154307842255,
    -0.029771309345960617,
    0.07891000807285309,
    0.0027533636894077063,
    0.15603210031986237,
    0.07331009954214096,
    0.04739164933562279,
    -0.035254254937171936,
    0.052282482385635376,
    0.13761106133460999,
    0.019952554255723953,
    0.07074428349733353,
    -0.06724116206169128,
    0.03894501551985741,
    -0.16833053529262543,
    -0.16722199320793152,
    -0.012978422455489635,
    0.018890460953116417,
    0.15337027609348297,
    0.04698074236512184,
    -0.0339142270386219,
    0.033755574375391006,
    -0.16481879353523254,
    -0.03593941032886505,
    0.03154034912586212,
    -0.1399429440498352,
    -0.08264633268117905,
    0.13280679285526276,
    0.038831643760204315,
    -0.08302422612905502,
    0.04043629765510559,
    -0.01671930029988289,
    -0.0003662866074591875,
    -0.09664382040500641,
    0.005353251472115517
  ],
  "mlp_extractor.policy_net.2.bias": [
    0.10737671703100204,
    0.04731117933988571,
    -0.2391224056482315,
    0.13829463720321655,
    0.056762684136629105,
    -0.15974347293376923,
    0.017567778006196022,
    -0.1558280885219574,
    0.06636696308851242,
    -0.013961737044155598,
    0.1011200025677681,
    0.06500545889139175,
    -0.093748539686203,
    -0.06318077445030212,
    0.0062224967405200005,
    -0.09952763468027115,
    -0.0008068667957559228,
    0.27985769510269165,
    -0.05979166552424431,
    -0.10461238026618958,
    -0.13710074126720428,
    0.03869467228651047,
    0.11688852310180664,
    -0.14622080326080322,
    -0.12204348295927048,
    -0.019079139456152916,
    0.23818112909793854,
    -0.23526687920093536,
    0.12020181864500046,
    0.109857477247715,
    0.14231444895267487,
    0.08813951909542084,
    -0.11276792734861374,
    0.041602931916713715,
    0.18652689456939697,
    0.00045503219007514417,
    -0.09201392531394958,
    -0.057620760053396225,
    0.10058587789535522,
    0.06785517930984497,
    0.22142523527145386,
    0.07121117413043976,
    -0.07837782800197601,
    0.027020076289772987,
    0.0943576842546463,
    -0.10667400807142258,
    0.019092757254838943,
    0.001393894082866609,
    0.09336254745721817,
    -0.17231319844722748,
    0.19780868291854858,
    0.017631622031331062,
    -0.0785992369055748,
    -0.12898492813110352,
    -0.19462543725967407,
    0.053829506039619446,
    0.009303978644311428,
    0.10890079289674759,
    0.11121226847171783,
    0.1420520395040512,
    -0.16311614215373993,
    -0.16660991311073303,
    -0.11130907386541367,
    0.057815827429294586
  ],
  "action_net.weight": [
    [
      -0.03250310197472572,
      -0.027646619826555252,
      -0.04565974324941635,
      -0.029982399195432663,
      0.015778351575136185,
      -0.06559660285711288,
      -0.1948724389076233,
      -0.11472958326339722,
      0.16711732745170593,
      -0.135896697640419,
      -0.08997318148612976,
      -0.1565660983324051,
      -0.029582304880023003,
      0.13749681413173676,
      -0.1423061043024063,
      -0.07788742333650589,
      -0.17722971737384796,
      -0.018874626606702805,
      0.13595661520957947,
      0.010161078535020351,
      -0.02314208447933197,
      -0.2086440771818161,
      -0.168059304356575,
      0.0945667251944542,
      -0.13904917240142822,
      0.0999404639005661,
      0.018145151436328888,
      0.012290922924876213,
      0.02023785375058651,
      -0.008217211812734604,
      -0.01116185076534748,
      0.011446367017924786,
      -0.029478609561920166,
      -0.16156186163425446,
      0.04383314400911331,
      0.18385156989097595,
      0.05830080434679985,
      -0.0737433210015297,
      -0.12208898365497589,
      -0.10304679721593857,
      0.02997346967458725,
      0.0702228769659996,
      -0.017366012558341026,
      -0.16762562096118927,
      -0.038885604590177536,
      0.02322077378630638,
      -0.20990654826164246,
      -0.12521281838417053,
      0.004982207901775837,
      0.06546305119991302,
      0.0021005950402468443,
      -0.1510603427886963,
      -0.20117302238941193,
      -0.04625114053487778,
      0.037662237882614136,
      0.1448107212781906,
      0.14693228900432587,
      -0.03986614570021629,
      0.09960983693599701,
      0.03428264334797859,
      -0.010831448249518871,
      -0.04118534177541733,
      0.036963049322366714,
      0.06289017200469971
    ],
    [
      0.22076423466205597,
      0.2517016530036926,
      -0.14369751513004303,
      0.07601352035999298,
      0.22097715735435486,
      -0.18359607458114624,
      0.09376472979784012,
      -0.04139798507094383,
      -0.00764067517593503,
      0.08590705692768097,
      0.25564488768577576,
      0.16274632513523102,
      -0.08007625490427017,
      -0.19395940005779266,
      0.04616419970989227,
      -0.13746313750743866,
      0.04162267968058586,
      0.1979987472295761,
      -0.09074173867702484,
      -0.2205524742603302,
      -0.21064426004886627,
      0.18440105020999908,
      0.14116953313350677,
      -0.15494860708713531,
      0.012639728374779224,
      -0.08660923689603806,
      0.15282899141311646,
      -0.1761167347431183,
      0.02066761627793312,
      0.19402602314949036,
      0.23759041726589203,
      0.19721172749996185,
      -0.21347293257713318,
      0.1802649050951004,
      0.18702420592308044,
      -0.10752657055854797,
      -0.1270098090171814,
      -0.099593386054039,
      0.09525695443153381,
      0.11766094714403152,
      0.1891971081495285,
      0.018500300124287605,
      -0.22167974710464478,
      0.15127255022525787,
      0.2507704794406891,
      -0.21081769466400146,
      0.11911900341510773,
      0.11286664754152298,
      0.25531232357025146,
      -0.20510226488113403,
      0.1904713213443756,
      0.1135735884308815,
      -0.009720471687614918,
      -0.2024127095937729,
      -0.17040669918060303,
      -0.08134626597166061,
      -0.10828278958797455,
      0.18512780964374542,
      0.010649207048118114,
      0.19247159361839294,
      -0.18872956931591034,
      -0.17784854769706726,
      -0.18677681684494019,
      0.020571384578943253
    ]
  ],
  "action_net.bias": [
    -0.056643709540367126,
    0.3214183747768402
  ],
  "mlp_extractor.policy_net.2.weight": [
    [
      -0.18923208117485046,
      -0.28421491384506226,
      -0.22154514491558075,
      0.3076777756214142,
      -0.3985246419906616,
      -0.24749280512332916,
      -0.1693410724401474,
      0.1301981657743454,
      -0.05355268716812134,
      -0.2932697534561157,
      -0.1073664054274559,
      0.10982074588537216,
      0.16935095191001892,
      0.24542072415351868,
      -0.4864156246185303,
      -0.15308812260627747,
      0.0859069898724556,
      -0.19200819730758667,
      0.2101406306028366,
      -0.10074827075004578,
      -0.4232397973537445,
      -0.0977366492152214,
      -0.05742676183581352,
      0.3531142771244049,
      0.08156619966030121,
      0.11124806851148605,
      -0.17092587053775787,
      -0.278718501329422,
      -0.2507614195346832,
      0.07555261999368668,
      -0.3636989891529083,
      0.40011510252952576,
      0.2619574964046478,
      0.5283493399620056,
      0.3311486542224884,
      -0.11593080312013626,
      -0.35349658131599426,
      -0.09984767436981201,
      -0.0680437684059143,
      0.2914379835128784,
      0.4704647660255432,
      0.07097046822309494,
      0.12289776653051376,
      -0.16064317524433136,
      -0.21530155837535858,
      -0.08204320818185806,
      0.2559223771095276,
      -0.005569263827055693,
      0.147044837474823,
      0.13417133688926697,
      -0.0917840301990509,
      -0.02428167127072811,
      0.09147243201732635,
      0.2176581770181656,
      -0.30906006693840027,
      0.0688348263502121,
      0.32613298296928406,
      -0.390689879655838,
      -0.04098627343773842,
      0.14187194406986237,
      -0.06409656256437302,
      -0.30393126606941223,
      -0.37306270003318787,
      -0.10288798809051514
    ],
    [
      -0.002103088889271021,
      -0.41465941071510315,
      -0.04427987337112427,
      0.00662677688524127,
      0.008402945473790169,
      0.09515087306499481,
      -0.4313390254974365,
      0.36325502395629883,
      0.35598739981651306,
      -0.0921950712800026,
      0.0306404996663332,
      0.21542580425739288,
      0.3107576370239258,
      0.43663597106933594,
      -0.08615311980247498,
      0.15707772970199585,
      -0.3270444869995117,
      -0.9590889811515808,
      0.3081737756729126,
      -0.14059239625930786,
      -0.45606622099876404,
      -0.23249824345111847,
      0.0014368306146934628,
      -0.005329494830220938,
      -0.11722095310688019,
      0.6158398985862732,
      -0.305288702249527,
      -0.41428494453430176,
      -0.5468279719352722,
      -0.10636843740940094,
      -0.15320055186748505,
      0.11990363150835037,
      0.19541652500629425,
      0.05970495939254761,
      0.3637780249118805,
      0.3151632249355316,
      -0.0920514389872551,
      -0.15700653195381165,
      0.10550595074892044,
      0.02687644585967064,
      0.23414376378059387,
      -0.07273087650537491,
      -0.07026650011539459,
      -0.22774755954742432,
      -0.07244395464658737,
      0.13458725810050964,
      -0.07525400817394257,
      0.15015220642089844,
      -0.02415599301457405,
      -0.5273727178573608,
      0.012051627039909363,
      -0.06360139697790146,
      0.02224794775247574,
      0.06478554010391235,
      -0.694962739944458,
      0.05516881123185158,
      0.43343034386634827,
      0.16878825426101685,
      -0.2786518633365631,
      0.40673115849494934,
      -0.014962862245738506,
      -0.008540993556380272,
      0.23142652213573456,
      0.01502200961112976
    ],
    [
      0.1709882766008377,
      0.13019025325775146,
      0.22872577607631683,
      0.005828332155942917,
      0.14782238006591797,
      -0.16838906705379486,
      0.19105863571166992,
      -0.0012022642185911536,
      -0.3076009750366211,
      -0.054998766630887985,
      -0.10860851407051086,
      -0.16533002257347107,
      -0.314844012260437,
      -0.19357557594776154,
      -0.06099570542573929,
      -0.2817405164241791,
      -0.2815399467945099,
      0.27527064085006714,
      0.2653850018978119,
      -0.01288687251508236,
      0.24245771765708923,
      0.406717985868454,
      -0.08203168958425522,
      0.48097050189971924,
      0.00614491943269968,
      0.2107444554567337,
      -0.08023837953805923,
      0.16723595559597015,
      0.4320445954799652,
      0.14746323227882385,
      0.06643414497375488,
      0.03583087399601936,
      0.11959075927734375,
      -0.568301796913147,
      -0.13678398728370667,
      -0.05697004869580269,
      0.25516125559806824,
      0.28615257143974304,
      -0.17870016396045685,
      0.06415274739265442,
      -0.03060377575457096,
      -0.12360969930887222,
      -0.004729928448796272,
      0.02896532230079174,
      0.30087679624557495,
      0.03027177043259144,
      0.019802460446953773,
      -0.23652197420597076,
      0.20598846673965454,
      0.06520862877368927,
      -0.7557854652404785,
      0.07447127997875214,
      0.18877142667770386,
      -0.2932569682598114,
      0.30448833107948303,
      0.311924010515213,
      -0.22239284217357635,
      -0.08921011537313461,
      -0.2034187912940979,
      0.1461237072944641,
      0.13569431006908417,
      0.21110545098781586,
      0.1330275684595108,
      -0.07526078075170517
    ],
    [
      0.07264711707830429,
      -0.2704313397407532,
      0.038240186870098114,
      0.1433097869157791,
      0.04668526351451874,
      0.5284954309463501,
      0.1399872750043869,
      0.10686478018760681,
      -0.17737939953804016,
      -0.01198865007609129,
      0.15717174112796783,
      0.30853864550590515,
      0.05144291743636131,
      0.295754998922348,
      0.046701617538928986,
      0.049632564187049866,
      0.12399698793888092,
      0.0020932138431817293,
      0.009726673364639282,
      0.02143554575741291,
      0.0058506266213953495,
      -0.2469317764043808,
      -0.12938448786735535,
      0.21343909204006195,
      -0.209520623087883,
      0.07769270241260529,
      -0.033501047641038895,
      0.23110400140285492,
      -0.23593774437904358,
      0.02385447733104229,
      -0.15798041224479675,
      0.12735024094581604,
      0.32329002022743225,
      0.22267667949199677,
      0.02431219257414341,
      0.07326532155275345,
      -0.06986425817012787,
      0.07793398946523666,
      0.29433131217956543,
      -0.013354876078665257,
      0.09755774587392807,
      -0.1973353773355484,
      0.420845091342926,
      -0.22532016038894653,
      -0.15304598212242126,
      -0.25368422269821167,
      0.20063841342926025,
      0.07482931017875671,
      -0.2570224106311798,
      -0.24532119929790497,
      -0.5831243395805359,
      -0.21204374730587006,
      -0.11036966741085052,
      0.023753371089696884,
      -0.1559424251317978,
      0.0034668969456106424,
      -0.0848742127418518,
      0.009842488914728165,
      -0.3213680684566498,
      0.07594764977693558,
      0.42150652408599854,
      0.17572128772735596,
      -0.34329313039779663,
      0.16492527723312378
    ],
    [
      -0.24412915110588074,
      -0.44582492113113403,
      -0.19211868941783905,
      0.19748073816299438,
      -0.15469487011432648,
      0.15588495135307312,
      -0.3858899474143982,
      0.1946689635515213,
      0.1440533995628357,
      -0.15658210217952728,
      0.1885434240102768,
      0.15000270307064056,
      0.19042326509952545,
      0.22304463386535645,
      -0.023433463647961617,
      -0.20512239634990692,
      -0.2602578103542328,
      -0.5579434633255005,
      0.1442798227071762,
      -0.3441431522369385,
      0.14342841506004333,
      -0.0766274556517601,
      0.10527294874191284,
      -0.03978334739804268,
      0.009853030554950237,
      0.37555843591690063,
      -0.13223502039909363,
      -0.20157890021800995,
      -0.07146987318992615,
      -0.20461441576480865,
      0.2425030618906021,
      -0.06534156948328018,
      0.2884766161441803,
      0.6091200113296509,
      -0.042778316885232925,
      0.16241523623466492,
      -0.27146852016448975,
      -0.11806517094373703,
      -0.0861549898982048,
      -0.3103935122489929,
      0.28394269943237305,
      -0.09559433907270432,
      -0.339353084564209,
      -0.34273430705070496,
      -0.283685564994812,
      0.025596236810088158,
      0.24472734332084656,
      0.19541211426258087,
      0.11289418488740921,
      -0.269248902797699,
      -0.20973517000675201,
      -0.3777587115764618,
      -0.16560310125350952,
      0.24592635035514832,
      -0.029504792764782906,
      0.07348169386386871,
      0.7653584480285645,
      0.3435613512992859,
      -0.30891793966293335,
      0.07859973609447479,
      -0.1715082824230194,
      -0.06075668707489967,
      -0.3754273056983948,
      -0.1732490062713623
    ],
    [
      0.24001145362854004,
      -0.12588272988796234,
      -0.1848805695772171,
      -0.1924091875553131,
      0.07705552875995636,
      0.19803738594055176,
      0.2507469952106476,
      -0.2740582525730133,
      0.05880790203809738,
      -0.2259533852338791,
      -0.1931028813123703,
      -0.3557208478450775,
      0.04479113593697548,
      -0.04346347227692604,
      0.20991411805152893,
      0.11301741749048233,
      0.2266489863395691,
      0.1903330385684967,
      -0.25073060393333435,
      0.30559301376342773,
      0.3807833790779114,
      0.3433666229248047,
      -0.26602691411972046,
      0.21120551228523254,
      -0.19736894965171814,
      -0.0030852342024445534,
      -0.04293123260140419,
      0.1751089096069336,
      0.3234820067882538,
      -0.24817627668380737,
      0.2804103195667267,
      0.08576049655675888,
      0.07393593341112137,
      -0.3782576620578766,
      -0.33535754680633545,
      -0.1388450264930725,
      0.09113398939371109,
      0.35577210783958435,
      -0.2499980330467224,
      0.1255110800266266,
      -0.12453868240118027,
      0.08592984080314636,
      0.2320256233215332,
      0.1932521015405655,
      0.09884800016880035,
      0.06283572316169739,
      -0.030712077394127846,
      -0.0726044550538063,
      -0.2856557071208954,
      0.0005588665953837335,
      0.07492167502641678,
      0.2949133813381195,
      0.2461228221654892,
      0.1273910254240036,
      0.1563827097415924,
      0.34683817625045776,
      -0.16030368208885193,
      -0.22812190651893616,
      0.3137807250022888,
      -0.08627644926309586,
      0.11972232162952423,
      -0.32261183857917786,
      -0.031365036964416504,
      0.11449246853590012
    ],
    [
      0.04638184234499931,
      -0.17202228307724,
      0.008830136619508266,
      -0.1637902408838272,
      -0.33955350518226624,
      0.24230535328388214,
      -0.27298393845558167,
      0.20186856389045715,
      0.2510647773742676,
      -0.05827811360359192,
      0.5468661785125732,
      -0.17675194144248962,
      0.2794565260410309,
      0.19961552321910858,
      -0.2225644439458847,
      -0.6280867457389832,
      0.1613713949918747,
      -0.1333341896533966,
      0.36616459488868713,
      -0.10320995002985,
      -0.22637248039245605,
      0.2202548235654831,
      0.2804701030254364,
      0.10843566805124283,
      -0.44153547286987305,
      0.2851017415523529,
      0.24815455079078674,
      -0.38717034459114075,
      -0.3160255253314972,
      -0.23604483902454376,
      -0.497714102268219,
      -0.014142983593046665,
      0.3480980694293976,
      0.3215516209602356,
      0.44681450724601746,
      0.46614569425582886,
      0.07381223887205124,
      0.4861193895339966,
      0.04818348214030266,
      -0.0515955425798893,
      0.10583294928073883,
      -0.5330755114555359,
      -0.22566184401512146,
      -0.26838570833206177,
      -0.14013159275054932,
      -0.05234843119978905,
      0.06843912601470947,
      -0.298595666885376,
      -0.24132086336612701,
      -0.02449057251214981,
      -0.4392971992492676,
      -0.06412670016288757,
      0.3617748022079468,
      0.1475667655467987,
      -0.345777690410614,
      0.4730873703956604,
      0.011607667431235313,
      0.22004017233848572,
      -0.38421985507011414,
      0.49596163630485535,
      0.0824628695845604,
      -0.032732222229242325,
      -0.3908733129501343,
      -0.06317724287509918
    ],
    [
      0.369698703289032,
      -0.12614166736602783,
      0.10895548015832901,
      -0.3526787757873535,
      -0.19153429567813873,
      0.3029550313949585,
      0.24604494869709015,
      -0.27563923597335815,
      0.4427754580974579,
      -0.0635494515299797,
      0.007740877103060484,
      -0.0982300192117691,
      -0.17675885558128357,
      0.0634249895811081,
      0.2297717183828354,
      -0.4828368127346039,
      -0.016336390748620033,
      0.28245729207992554,
      0.7125858068466187,
      -0.1412404626607895,
      0.2076779454946518,
      0.0666106641292572,
      -0.3251497447490692,
      0.16387979686260223,
      0.023778468370437622,
      -0.038620639592409134,
      0.09250809997320175,
      -0.0411839634180069,
      -0.18518735468387604,
      0.07531605660915375,
      -0.24868957698345184,
      0.2653484642505646,
      -0.10198449343442917,
      -0.007262218743562698,
      0.13866698741912842,
      0.3447326123714447,
      -0.054497022181749344,
      0.05603674054145813,
      -0.14198362827301025,
      0.3867880403995514,
      0.022914068773388863,
      -0.42043787240982056,
      0.21814118325710297,
      -0.013754995539784431,
      -0.030586594715714455,
      -0.058713722974061966,
      0.09307768940925598,
      -0.226629838347435,
      -0.23733386397361755,
      -0.015275099314749241,
      -0.11255129426717758,
      0.2694176435470581,
      0.39467015862464905,
      0.23560836911201477,
      0.2777583599090576,
      0.32792913913726807,
      0.3117245137691498,
      0.14601849019527435,
      -0.19437186419963837,
      0.40870147943496704,
      0.2809380292892456,
      0.29605814814567566,
      -0.2159738540649414,
      0.0636184960603714
    ],
    [
      0.1801040768623352,
      0.3050926625728607,
      0.09360913187265396,
      0.13896915316581726,
      0.04826045781373978,
      -0.35529711842536926,
      -0.13327372074127197,
      -0.22627218067646027,
      -0.26617661118507385,
      0.11683062463998795,
      -0.30043303966522217,
      -0.14030493795871735,
      -0.11936119943857193,
      -0.5060240030288696,
      -0.1401389092206955,
      0.4540891945362091,
      -0.23580722510814667,
      0.06102916970849037,
      -0.39691317081451416,
      -0.13972407579421997,
      -0.3014370799064636,
      0.059021253138780594,
      0.07954493165016174,
      -0.13738872110843658,
      -0.05093152076005936,
      -0.23802565038204193,
      0.11742296069860458,
      0.03696494176983833,
      0.08497843146324158,
      0.033699944615364075,
      0.5032399296760559,
      -0.29730871319770813,
      0.1679391860961914,
      -0.2899101972579956,
      -0.008841559290885925,
      -0.3033723533153534,
      0.12401267141103745,
      -0.10299370437860489,
      0.30883562564849854,
      0.12764333188533783,
      -0.04983193427324295,
      -0.20729880034923553,
      0.21120157837867737,
      0.16609765589237213,
      -0.044327374547719955,
      -0.25504690408706665,
      -0.06351979821920395,
      0.6888102889060974,
      0.00046737189404666424,
      0.29939189553260803,
      0.6537624001502991,
      -0.11155188083648682,
      -0.43619465827941895,
      0.05977291241288185,
      0.06300017237663269,
      -0.12514685094356537,
      0.22776293754577637,
      -0.28909096121788025,
      0.04152744635939598,
      -0.6428180932998657,
      -0.438251256942749,
      -0.29372262954711914,
      0.29261112213134766,
      -0.2543775141239166
    ],
    [
      0.11485199630260468,
      -0.09975221753120422,
      -0.2101016640663147,
      0.07713641226291656,
      -0.5901427268981934,
      0.24305157363414764,
      -0.2369653284549713,
      -0.2999264895915985,
      0.31723901629447937,
      -0.5135518908500671,
      0.11303669214248657,
      -0.15194366872310638,
      -0.09526555240154266,
      0.1687421202659607,
      -0.2517317235469818,
      -0.1914699375629425,
      0.29295387864112854,
      -0.17462775111198425,
      0.5564557909965515,
      -0.04889622703194618,
      -0.03812755271792412,
      0.19070477783679962,
      -0.1563117951154709,
      0.15068592131137848,
      -0.31881892681121826,
      0.2605644464492798,
      0.08932395279407501,
      -0.27346929907798767,
      -0.42957985401153564,
      0.21966779232025146,
      0.04381648078560829,
      0.194403737783432,
      -0.13145817816257477,
      0.0478479266166687,
      0.3303461968898773,
      0.10470468550920486,
      -0.08531399816274643,
      0.2916782796382904,
      0.07736427336931229,
      -0.04883138835430145,
      0.132348895072937,
      -0.1366262286901474,
      -0.017094653099775314,
      -0.011827616952359676,
      0.18402309715747833,
      0.015165654942393303,
      0.4366292655467987,
      -0.17774638533592224,
      0.006287543568760157,
      -0.4199066162109375,
      -0.33458441495895386,
      -0.4447855055332184,
      0.04467684403061867,
      -0.08750161528587341,
      -0.25769370794296265,
      0.049339327961206436,
      0.028158802539110184,
      0.29411113262176514,
      -0.0699499249458313,
      0.3489660322666168,
      0.07700924575328827,
      0.43542444705963135,
      -0.4143558442592621,
      0.199347585439682
    ],
    [
      -0.3059413731098175,
      -0.39735302329063416,
      -0.10558375716209412,
      0.21821972727775574,
      -0.1625223308801651,
      0.1279689222574234,
      -0.009554020129144192,
      0.4819423258304596,
      0.23297595977783203,
      -0.26938608288764954,
      -0.07282812148332596,
      -0.15112638473510742,
      0.11307069659233093,
      0.22422367334365845,
      -0.01973883993923664,
      -0.21842719614505768,
      0.216960608959198,
      -0.6933159828186035,
      0.1541633903980255,
      -0.1161983385682106,
      -0.30798467993736267,
      0.10544754564762115,
      -0.3040500283241272,
      0.1581752449274063,
      0.09906363487243652,
      0.17284059524536133,
      -0.00590434530749917,
      -0.7861866354942322,
      -0.25248607993125916,
      0.015151324681937695,
      -0.1630714237689972,
      -0.00367350853048265,
      0.2288845181465149,
      0.0744718611240387,
      0.661005973815918,
      0.1642318069934845,
      -0.28579750657081604,
      0.3037068843841553,
      0.0028145306278020144,
      0.11228271573781967,
      0.2926211953163147,
      -0.47242677211761475,
      -0.2720070481300354,
      -0.15156008303165436,
      -0.618049144744873,
      -0.14138288795948029,
      0.21209672093391418,
      0.0216098353266716,
      0.035083234310150146,
      -0.1948672980070114,
      -0.34790530800819397,
      -0.4233642816543579,
      0.10938315838575363,
      0.1714676469564438,
      -0.23768815398216248,
      0.2547513246536255,
      0.40940868854522705,
      0.6192426681518555,
      -0.2607410252094269,
      0.2952972948551178,
      0.014846039935946465,
      0.1430831104516983,
      -0.1256374567747116,
      0.207741379737854
    ],
    [
      -0.30753985047340393,
      -0.1402636170387268,
      -0.20234021544456482,
      0.03744107484817505,
      -0.30195698142051697,
      0.33331000804901123,
      0.03304377943277359,
      0.424083948135376,
      0.3541273772716522,
      -0.5733329653739929,
      0.07928250730037689,
      -0.19984623789787292,
      0.018609849736094475,
      0.3370513617992401,
      -0.1572398841381073,
      -0.3930937647819519,
      -0.012281252071261406,
      -0.5710525512695312,
      0.46636223793029785,
      -0.11472951620817184,
      -0.05195917189121246,
      0.026341291144490242,
      -0.13889305293560028,
      0.21778804063796997,
      -0.23174531757831573,
      0.08621998876333237,
      0.1455875188112259,
      -0.29034900665283203,
      0.16379182040691376,
      0.06777255982160568,
      -0.5226916670799255,
      0.07602071017026901,
      0.36972352862358093,
      0.0377516895532608,
      -0.012824993580579758,
      0.5589850544929504,
      -0.05477532744407654,
      0.12630009651184082,
      0.22290374338626862,
      -0.12888436019420624,
      -0.0036123504396528006,
      -0.34760192036628723,
      0.05513807758688927,
      -0.2975658178329468,
      -0.07805535197257996,
      -0.30595579743385315,
      0.023332279175519943,
      -0.2687530517578125,
      0.07166270911693573,
      -0.11298714578151703,
      0.11602937430143356,
      -0.4630199372768402,
      0.26282021403312683,
      -0.018549425527453423,
      -0.2657563090324402,
      -0.18641895055770874,
      0.3497803211212158,
      -0.005765626672655344,
      -0.25678297877311707,
      0.6850582957267761,
      0.49471765756607056,
      0.21981064975261688,
      -0.4187246263027191,
      0.14412973821163177
    ],
    [
      0.04033159837126732,
      0.07898596674203873,
      0.05623900145292282,
      -0.2106960266828537,
      -0.1214212104678154,
      0.11566466093063354,
      0.19533279538154602,
      -0.04289369657635689,
      0.1257157176733017,
      0.245717853307724,
      0.3343324065208435,
      -0.2360304743051529,
      -0.09692887961864471,
      -0.009171005338430405,
      0.19093550741672516,
      0.23505835235118866,
      0.07028533518314362,
      0.08296891301870346,
      -0.10280199348926544,
      0.16209807991981506,
      -0.17835161089897156,
      0.19786211848258972,
      0.21827663481235504,
      0.08431678265333176,
      0.27363139390945435,
      -0.05359978228807449,
      -0.3627576529979706,
      0.28625935316085815,
      -0.08508450537919998,
      0.0958627387881279,
      -0.11983101814985275,
      0.03407837823033333,
      0.24934682250022888,
      -0.36209648847579956,
      -0.4381779134273529,
      -0.254191517829895,
      0.005784272216260433,
      -0.051305558532476425,
      0.1313820779323578,
      0.02140067145228386,
      0.040098704397678375,
      -0.02674744464457035,
      0.1031712219119072,
      0.15186728537082672,
      0.26692256331443787,
      -0.20614442229270935,
      0.014492645859718323,
      -0.1708277463912964,
      0.16450989246368408,
      0.14917901158332825,
      -0.06594488024711609,
      0.04371309280395508,
      -0.10020945966243744,
      -0.10897022485733032,
      0.43243861198425293,
      -0.24606762826442719,
      0.11485577374696732,
      0.19341003894805908,
      0.3052103817462921,
      -0.17545080184936523,
      -0.15782217681407928,
      -0.3549104630947113,
      0.24212215840816498,
      -0.25058040022850037
    ],
    [
      0.03336239978671074,
      0.16383913159370422,
      0.3114502727985382,
      -0.10805411636829376,
      0.1614619493484497,
      0.057327695190906525,
      -0.06480852514505386,
      -0.4968625605106354,
      -0.33085715770721436,
      0.26223015785217285,
      -0.33144140243530273,
      0.3555912375450134,
      0.3424326777458191,
      -0.5445632934570312,
      0.23826055228710175,
      0.0994802713394165,
      0.1501164734363556,
      0.33178290724754333,
      -0.10520599037408829,
      0.08563627302646637,
      0.15652026236057281,
      0.31507548689842224,
      -0.03263809531927109,
      0.06333599984645844,
      0.11366424709558487,
      -0.0618961863219738,
      -0.10764206945896149,
      0.510368824005127,
      0.4711838364601135,
      -0.2394506186246872,
      0.1174907386302948,
      -0.09093817323446274,
      -0.3934940695762634,
      -0.28826671838760376,
      -0.395524263381958,
      -0.28019776940345764,
      0.07691781222820282,
      -0.5221863985061646,
      0.14954793453216553,
      0.13235001266002655,
      -0.5258621573448181,
      0.44209083914756775,
      0.07774337381124496,
      -0.28155043721199036,
      0.15519997477531433,
      -0.22977954149246216,
      -0.24014312028884888,
      0.15264150500297546,
      -0.025800786912441254,
      0.24409033358097076,
      0.2466650903224945,
      0.1127411499619484,
      -0.0064716762863099575,
      0.08394525945186615,
      0.2847276031970978,
      -0.3075958490371704,
      -0.47264787554740906,
      -0.15413500368595123,
      0.24122881889343262,
      -0.7255325317382812,
      -0.20413164794445038,
      -0.10953443497419357,
      0.47754350304603577,
      -0.00948762334883213
    ],
    [
      0.2289421707391739,
      -0.4423133134841919,
      -0.1589447557926178,
      -0.1112838089466095,
      0.11718013882637024,
      0.3059540092945099,
      -0.3561164438724518,
      0.23257994651794434,
      0.22063185274600983,
      -0.3033894896507263,
      0.32400959730148315,
      -0.02442714013159275,
      0.05874372273683548,
      0.16417087614536285,
      -0.10709408670663834,
      -0.42792579531669617,
      0.2513352930545807,
      -0.28468745946884155,
      0.5839771628379822,
      -0.05325578153133392,
      0.04148441553115845,
      -0.30098211765289307,
      -0.26533132791519165,
      0.08033058792352676,
      -0.22334891557693481,
      0.08486659824848175,
      0.11340799927711487,
      -0.26327967643737793,
      -0.23738709092140198,
      0.0571749322116375,
      -0.4607936441898346,
      -0.09672786295413971,
      -0.10693434625864029,
      0.008533806540071964,
      0.08267039805650711,
      0.11914053559303284,
      0.34611478447914124,
      0.18597573041915894,
      -0.43468931317329407,
      0.03804062306880951,
      0.12676633894443512,
      -0.4560353457927704,
      0.22007711231708527,
      -0.0005594521062448621,
      0.08228334784507751,
      -0.313997358083725,
      -0.09289154410362244,
      -0.16626769304275513,
      0.1792593002319336,
      -0.34772399067878723,
      -0.5651593208312988,
      -0.1684378832578659,
      0.19352442026138306,
      -0.006650020834058523,
      0.15905453264713287,
      0.29790034890174866,
      0.1858086884021759,
      -0.12449466437101364,
      -0.06393150240182877,
      0.3748480975627899,
      0.1765211522579193,
      0.2181028574705124,
      -0.32538944482803345,
      0.05862141400575638
    ],
    [
      0.0672319158911705,
      0.3060063123703003,
      0.03124907799065113,
      -0.02583615854382515,
      -0.029080133885145187,
      0.2684195935726166,
      0.28914564847946167,
      -0.19131290912628174,
      0.4763045608997345,
      -0.03929547965526581,
      0.2239396721124649,
      0.0884811282157898,
      -0.09717530757188797,
      -0.15380051732063293,
      0.23614363372325897,
      -0.3529677987098694,
      0.24088037014007568,
      0.14657798409461975,
      0.16255749762058258,
      -0.383098840713501,
      -0.11207839101552963,
      0.4683111310005188,
      -0.2252509444952011,
      0.19977471232414246,
      -0.27532821893692017,
      -0.10554661601781845,
      -0.12105625867843628,
      -0.058835431933403015,
      -0.00602163327857852,
      -0.00014382624067366123,
      -0.09088903665542603,
      0.34168484807014465,
      0.33873388171195984,
      -0.1622532159090042,
      0.16857489943504333,
      -0.039400864392519,
      0.3645384609699249,
      0.2601759135723114,
      -0.4173635244369507,
      -0.203575998544693,
      -0.02762833796441555,
      0.2463439255952835,
      0.11141954362392426,
      0.029642531648278236,
      0.04565468057990074,
      -0.21214443445205688,
      0.24561245739459991,
      -0.2657625079154968,
      0.013090439140796661,
      -0.0804300382733345,
      -0.45748189091682434,
      0.5416278839111328,
      0.21427461504936218,
      0.05233154073357582,
      0.17282164096832275,
      -0.0787583515048027,
      0.10961651802062988,
      -0.21324945986270905,
      0.20637595653533936,
      0.014816604554653168,
      0.5724429488182068,
      0.4513060748577118,
      -0.05110161378979683,
      0.07531674951314926
    ],
    [
      -0.26211798191070557,
      -0.23951052129268646,
      -0.15703023970127106,
      0.20293451845645905,
      -0.26080381870269775,
      0.6489436030387878,
      -0.22480125725269318,
      0.3160431385040283,
      0.30389603972435,
      -0.022657087072730064,
      0.24029627442359924,
      0.1290036141872406,
      0.14460156857967377,
      0.0014404490357264876,
      0.06562652438879013,
      -0.2711404263973236,
      0.005397446919232607,
      -0.03733907639980316,
      0.6003155708312988,
      -0.1362799108028412,
      0.13631202280521393,
      0.06997945159673691,
      0.3098220229148865,
      0.32317471504211426,
      -0.24336150288581848,
      0.14610044658184052,
      0.15877807140350342,
      -0.09594814479351044,
      -0.017044037580490112,
      -0.07023297995328903,
      -0.3134229779243469,
      0.17298641800880432,
      0.17207065224647522,
      -0.16792809963226318,
      0.09926757961511612,
      0.40044671297073364,
      -0.16410788893699646,
      0.30272185802459717,
      -0.3255787789821625,
      -0.06320217996835709,
      0.289499968290329,
      -0.5329808592796326,
      0.3672417402267456,
      -0.09294891357421875,
      -0.17401261627674103,
      0.4485223889350891,
      0.16461798548698425,
      -0.6431407928466797,
      0.19633953273296356,
      -0.34089145064353943,
      -0.21377837657928467,
      -0.03634566068649292,
      0.001439024112187326,
      0.17087619006633759,
      -0.2677801251411438,
      0.5216250419616699,
      0.14725996553897858,
      0.0958622619509697,
      -0.05478570610284805,
      0.324802964925766,
      0.17941993474960327,
      0.6231440901756287,
      -0.027079124003648758,
      -0.08091605454683304
    ],
    [
      0.275644987821579,
      0.1641531139612198,
      -0.041134610772132874,
      0.040886133909225464,
      0.06780783087015152,
      0.082205630838871,
      -0.15199214220046997,
      -0.040343157947063446,
      0.2531753480434418,
      0.22147217392921448,
      -0.42959752678871155,
      0.0897851213812828,
      0.610743522644043,
      0.5550151467323303,
      -0.47303467988967896,
      -0.010554028674960136,
      0.21709010004997253,
      -0.2996421456336975,
      -0.11517374217510223,
      -0.33654382824897766,
      -0.00721587473526597,
      -0.5220981240272522,
      0.07732482254505157,
      0.18789374828338623,
      0.3291030526161194,
      -0.17864303290843964,
      -0.2155914455652237,
      -0.015411973930895329,
      0.04242774099111557,
      0.048519257456064224,
      -0.19712801277637482,
      0.27230483293533325,
      0.03164677694439888,
      0.24843016266822815,
      0.06973817199468613,
      0.1009337529540062,
      0.08303521573543549,
      0.16541147232055664,
      0.08296432346105576,
      0.07267878204584122,
      0.16121378540992737,
      -0.09581248462200165,
      -0.1453818380832672,
      -0.3388271629810333,
      -0.06955329328775406,
      -0.10671944916248322,
      0.3402671813964844,
      0.14420785009860992,
      0.2508057951927185,
      0.0034514497965574265,
      0.24919790029525757,
      -0.2785913646221161,
      -0.2588714361190796,
      -0.12042932212352753,
      -0.19394274055957794,
      0.026369668543338776,
      0.04864764213562012,
      0.08510259538888931,
      0.07379873842000961,
      -0.3493759036064148,
      0.3580085039138794,
      0.04225023835897446,
      -0.370921790599823,
      -0.049302518367767334
    ],
    [
      -0.0032711506355553865,
      0.08192702382802963,
      -0.09076067060232162,
      -0.05891803652048111,
      0.26933789253234863,
      -0.35129955410957336,
      0.3387574553489685,
      -0.2567216455936432,
      -0.3482506573200226,
      0.3895604908466339,
      -0.16886985301971436,
      -0.20083564519882202,
      0.07222691923379898,
      -0.41437679529190063,
      0.30847305059432983,
      0.24749141931533813,
      0.042568620294332504,
      0.13808900117874146,
      -0.15440776944160461,
      0.46597084403038025,
      0.08137169480323792,
      0.11332118511199951,
      0.39085450768470764,
      -0.025890672579407692,
      0.1350288689136505,
      -0.17073214054107666,
      0.1374705582857132,
      0.2599017918109894,
      0.15894745290279388,
      0.05018235370516777,
      0.0027331202290952206,
      -0.17698895931243896,
      -0.1157444417476654,
      -0.15301097929477692,
      -0.19647733867168427,
      -0.034875329583883286,
      -0.05834534764289856,
      -0.2546176016330719,
      -0.21808123588562012,
      0.14207610487937927,
      -0.3004497289657593,
      0.14007866382598877,
      -0.34076452255249023,
      0.10042788088321686,
      0.1341180056333542,
      -0.2411699742078781,
      -0.07635929435491562,
      0.5138166546821594,
      0.29011330008506775,
      -0.23321202397346497,
      0.31906288862228394,
      0.29563939571380615,
      -0.4698021113872528,
      -0.09375672042369843,
      -0.039417508989572525,
      -0.4354959726333618,
      -0.18170319497585297,
      -0.31109705567359924,
      0.12959840893745422,
      -0.5105565190315247,
      -0.5299904346466064,
      -0.22182470560073853,
      0.0938519537448883,
      0.2632163166999817
    ],
    [
      0.38156720995903015,
      0.15714691579341888,
      0.14924949407577515,
      -0.42505544424057007,
      -0.1580515205860138,
      -0.0889572724699974,
      0.4179133176803589,
      0.11040832102298737,
      -0.2740948796272278,
      0.174252450466156,
      -0.1275646835565567,
      -0.25087636709213257,
      -0.1407589316368103,
      -0.408243328332901,
      0.13042497634887695,
      -0.11017324775457382,
      0.16509874165058136,
      0.33464130759239197,
      -0.3354150056838989,
      0.05202874168753624,
      0.31921035051345825,
      0.2683921456336975,
      -0.09323545545339584,
      -0.030461112037301064,
      -0.3108559846878052,
      0.010441732592880726,
      -0.2668641209602356,
      0.2956905663013458,
      0.1570291966199875,
      -0.3008144199848175,
      0.07974682748317719,
      -0.09312285482883453,
      -0.05395684018731117,
      0.027424205094575882,
      -0.40270760655403137,
      -0.10974806547164917,
      0.2888292670249939,
      -0.4728720784187317,
      0.04658591374754906,
      0.13658300042152405,
      -0.1640310287475586,
      0.072718046605587,
      0.17320960760116577,
      0.2592417895793915,
      0.14717921614646912,
      0.17796702682971954,
      0.14594359695911407,
      0.2434820532798767,
      0.2957574427127838,
      0.17015492916107178,
      0.1764226257801056,
      0.46978679299354553,
      -0.2815926671028137,
      -0.0859539732336998,
      0.3230266273021698,
      -0.004693435505032539,
      -0.4592669904232025,
      0.08474211394786835,
      0.42993661761283875,
      0.1347462385892868,
      -0.08736439049243927,
      0.2218458354473114,
      0.32994306087493896,
      0.18130460381507874
    ],
    [
      0.25249555706977844,
      0.036813296377658844,
      0.09346950054168701,
      -0.0001759865554049611,
      0.0015899308491498232,
      0.03857613727450371,
      0.08976078778505325,
      -0.24307365715503693,
      -0.08945583552122116,
      0.5896212458610535,
      -0.21937768161296844,
      0.10645613819360733,
      -0.2860821485519409,
      -0.1191406399011612,
      0.40368160605430603,
      0.11869995296001434,
      0.02921510860323906,
      0.326920747756958,
      -0.1713367998600006,
      0.10550868511199951,
      0.2800741493701935,
      0.30979394912719727,
      -0.18013262748718262,
      -0.029089516028761864,
      -0.20891502499580383,
      -0.3595118522644043,
      -0.04531947150826454,
      0.4053245484828949,
      0.17351531982421875,
      0.025016281753778458,
      0.10447882860898972,
      0.17299963533878326,
      0.26695138216018677,
      0.05488763749599457,
      -0.1266409307718277,
      -0.409152626991272,
      0.12422347813844681,
      0.11374948173761368,
      -0.17112311720848083,
      -0.07255308330059052,
      -0.6659793257713318,
      0.05933852866292,
      -0.03250646963715553,
      0.20438870787620544,
      0.3871101140975952,
      -0.0995391458272934,
      -0.19965505599975586,
      -0.14430037140846252,
      0.12255079299211502,
      0.011138567700982094,
      0.3271028697490692,
      0.10671325773000717,
      0.2940680682659149,
      -0.18645881116390228,
      0.533496081829071,
      0.11279520392417908,
      -0.3621610999107361,
      -0.23445725440979004,
      0.13825947046279907,
      0.18527884781360626,
      -0.4883972704410553,
      0.23841889202594757,
      0.2703483998775482,
      0.08796548843383789
    ],
    [
      -0.2797803282737732,
      -0.3563252389431,
      -0.31083211302757263,
      0.30553483963012695,
      -0.46037647128105164,
      0.25642991065979004,
      -0.21027079224586487,
      0.11893423646688461,
      0.19619576632976532,
      -0.2506929337978363,
      0.21733613312244415,
      0.15558373928070068,
      -0.1818201094865799,
      0.3418325185775757,
      0.015046224929392338,
      -0.45804542303085327,
      0.21327655017375946,
      -0.13455316424369812,
      0.361988365650177,
      -0.27994149923324585,
      -0.21959827840328217,
      -0.3008434772491455,
      -0.06899262964725494,
      -0.1240173876285553,
      -0.07833380997180939,
      0.40785932540893555,
      -0.00963584240525961,
      -0.4367440342903137,
      -0.3262730538845062,
      -0.3386034071445465,
      -0.591761589050293,
      -0.05113239213824272,
      0.34232547879219055,
      -0.24425427615642548,
      0.422781765460968,
      0.725454568862915,
      0.06931435316801071,
      0.2863297760486603,
      -0.010377173312008381,
      0.049633998423814774,
      0.5102536082267761,
      -0.21670418977737427,
      0.07704116404056549,
      -0.3038937449455261,
      -0.2856171429157257,
      0.26306280493736267,
      0.24068747460842133,
      0.0698380321264267,
      0.15135131776332855,
      -0.22390596568584442,
      -0.24219852685928345,
      -0.4110254645347595,
      0.6566261053085327,
      -0.39223742485046387,
      -0.09338148683309555,
      0.30519747734069824,
      0.4948846697807312,
      0.3194306790828705,
      -0.21137221157550812,
      0.558110773563385,
      0.18927784264087677,
      0.1324598789215088,
      -0.48011788725852966,
      0.2611357867717743
    ],
    [
      -0.033807095140218735,
      -0.1535952240228653,
      -0.004131081979721785,
      -0.15349970757961273,
      -0.1780896782875061,
      0.21053418517112732,
      -0.18276464939117432,
      0.11046364903450012,
      0.45695802569389343,
      -0.23842951655387878,
      0.04930070415139198,
      -0.09235261380672455,
      -0.2626314163208008,
      0.4127906262874603,
      -0.39489346742630005,
      -0.1937134712934494,
      0.2207864671945572,
      -0.36532747745513916,
      0.17136485874652863,
      -0.08427469432353973,
      -0.3061051368713379,
      -0.12109522521495819,
      0.15044716000556946,
      0.47650691866874695,
      -0.3123512864112854,
      0.3843632936477661,
      0.22546978294849396,
      0.01362792868167162,
      -0.11530765891075134,
      0.17147354781627655,
      -0.326382577419281,
      -0.03330269828438759,
      0.25200313329696655,
      0.19268161058425903,
      -0.05119381844997406,
      0.10935113579034805,
      -0.2025151550769806,
      0.1989537924528122,
      -0.42262062430381775,
      0.03414895012974739,
      0.254265159368515,
      -0.1398431360721588,
      0.08877836912870407,
      -0.4323691129684448,
      -0.47086578607559204,
      0.18567903339862823,
      0.1977594494819641,
      -0.042554669082164764,
      -0.1819717437028885,
      -0.2628117501735687,
      -0.1421218365430832,
      0.08624236285686493,
      0.416395902633667,
      -0.17770542204380035,
      0.12241965532302856,
      0.008819397538900375,
      0.09490276873111725,
      0.30396056175231934,
      -0.5546824336051941,
      0.19866915047168732,
      0.3290107250213623,
      0.5124757885932922,
      -0.20517367124557495,
      -0.22851026058197021
    ],
    [
      0.029526744037866592,
      0.14763249456882477,
      0.38126060366630554,
      -0.24106724560260773,
      -0.16138455271720886,
      0.021513283252716064,
      0.11850736290216446,
      -0.24518807232379913,
      -0.17191743850708008,
      0.426205039024353,
      -0.00709778955206275,
      -0.026775162667036057,
      -0.034579403698444366,
      -0.17397309839725494,
      0.3951079845428467,
      0.25222766399383545,
      0.11217762529850006,
      0.352780818939209,
      -0.2229449450969696,
      0.17808988690376282,
      -0.17263035476207733,
      -0.07954219728708267,
      -0.04994799941778183,
      0.1654844880104065,
      0.2769111096858978,
      0.08530232310295105,
      0.17583538591861725,
      0.07049588859081268,
      0.24040912091732025,
      -0.03374537080526352,
      0.49822983145713806,
      -0.421516478061676,
      -0.3145604729652405,
      -0.14147396385669708,
      -0.1703779101371765,
      -0.21241125464439392,
      0.017886394634842873,
      -0.17785391211509705,
      -0.04682619497179985,
      -0.18174953758716583,
      -0.37075331807136536,
      0.09114158153533936,
      -0.041905663907527924,
      0.44847074151039124,
      0.03612569347023964,
      -0.06285137683153152,
      0.352554589509964,
      0.017443396151065826,
      0.28100287914276123,
      0.26313453912734985,
      0.2351403534412384,
      0.12747979164123535,
      -0.16626130044460297,
      -0.0755300223827362,
      0.173614963889122,
      -0.1287684142589569,
      -0.2531384527683258,
      -0.6228637099266052,
      -0.0379195399582386,
      -0.09683958441019058,
      0.08608226478099823,
      -0.364008367061615,
      0.38382020592689514,
      0.06319143623113632
    ],
    [
      -0.11062074452638626,
      -0.011130201630294323,
      0.32633087038993835,
      0.009453739039599895,
      -0.16073372960090637,
      0.4118039608001709,
      -0.06409039348363876,
      0.37117457389831543,
      0.24971653521060944,
      -0.6147838830947876,
      0.6239398121833801,
      -0.00030248885741457343,
      0.23520706593990326,
      -0.05102108418941498,
      -0.071877621114254,
      -0.14879575371742249,
      -0.07724492251873016,
      0.06877367198467255,
      0.4585285782814026,
      0.15326935052871704,
      0.16413362324237823,
      -0.11739908158779144,
      -0.14057601988315582,
      0.030401211231946945,
      -0.3925803601741791,
      0.21539893746376038,
      -0.10041024535894394,
      -0.14906562864780426,
      0.002440557349473238,
      0.1272825300693512,
      -0.21384160220623016,
      0.17779693007469177,
      0.11999545991420746,
      0.1574123501777649,
      0.2887016534805298,
      0.008044783025979996,
      0.01180859375745058,
      0.3608943819999695,
      -0.32696253061294556,
      0.15198573470115662,
      0.013752873986959457,
      -0.35534656047821045,
      0.1366456151008606,
      -0.2619021534919739,
      0.08903181552886963,
      0.04588422179222107,
      0.3627471923828125,
      -0.36264950037002563,
      0.09184346348047256,
      -0.2877832055091858,
      -0.16574260592460632,
      0.3053363263607025,
      0.5968489050865173,
      -0.40593278408050537,
      -0.07091298699378967,
      0.4406828284263611,
      0.40144437551498413,
      0.2969784736633301,
      -0.24464376270771027,
      0.10751938819885254,
      0.27536946535110474,
      0.2692314684391022,
      -0.33201175928115845,
      0.2710348963737488
    ],
    [
      -0.23099984228610992,
      0.12084505707025528,
      0.20781248807907104,
      -0.08859952539205551,
      0.2830600142478943,
      -0.05926293134689331,
      0.2654742896556854,
      -0.4736543297767639,
      -0.23519563674926758,
      0.12099911272525787,
      -0.5411096215248108,
      -0.021584849804639816,
      -0.0676041916012764,
      -0.23838414251804352,
      -0.05399966612458229,
      0.11604633927345276,
      -0.047607988119125366,
      0.2170444279909134,
      -0.4960743486881256,
      -0.05035192146897316,
      0.028853215277194977,
      0.049465470016002655,
      0.22483256459236145,
      -0.35257408022880554,
      0.28873953223228455,
      -0.020279865711927414,
      -0.21421591937541962,
      -0.059128228574991226,
      -0.12268270552158356,
      0.06508795917034149,
      0.49898460507392883,
      -0.44859105348587036,
      0.022718146443367004,
      -0.13246791064739227,
      -0.17981640994548798,
      -0.2854436933994293,
      -0.23170210421085358,
      -0.044895097613334656,
      0.06835085898637772,
      0.30511292815208435,
      -0.16102059185504913,
      -0.13649427890777588,
      -0.016444463282823563,
      -0.13732734322547913,
      0.28320521116256714,
      -0.09767667949199677,
      -0.1768234372138977,
      -0.15104013681411743,
      0.04791220277547836,
      0.1175384595990181,
      0.22432439029216766,
      0.4476265013217926,
      -0.34477803111076355,
      -0.08213707059621811,
      0.2857981324195862,
      -0.3539448082447052,
      -0.3239556849002838,
      -0.4147232472896576,
      0.2867215573787689,
      -0.08708477765321732,
      -0.19355931878089905,
      -0.19330951571464539,
      0.07883065193891525,
      0.047761544585227966
    ],
    [
      -0.04567381739616394,
      0.04767570272088051,
      -0.416951060295105,
      0.08978810906410217,
      -0.3884525001049042,
      -0.006593756377696991,
      -0.13474714756011963,
      -0.07001153379678726,
      -0.3570396900177002,
      0.021580658853054047,
      0.08773268759250641,
      0.0023660962469875813,
      0.3261687457561493,
      0.46183156967163086,
      0.020824115723371506,
      0.0025196271017193794,
      -0.42852529883384705,
      -0.06271633505821228,
      -0.026339126750826836,
      -0.24535788595676422,
      -0.35271334648132324,
      -0.32299554347991943,
      -0.21161437034606934,
      -0.002482288284227252,
      0.29930877685546875,
      -0.020152397453784943,
      0.20829683542251587,
      -0.2947813868522644,
      0.10111550986766815,
      0.3247526288032532,
      -0.10826253890991211,
      -0.09292126446962357,
      0.0009475215338170528,
      0.1926717907190323,
      -0.08991940319538116,
      -0.0725155919790268,
      0.04435010999441147,
      -0.33112484216690063,
      -0.0387699194252491,
      0.16977575421333313,
      -0.14634452760219574,
      0.011768318712711334,
      -0.07856981456279755,
      -0.41095447540283203,
      -0.251999169588089,
      -0.03499452769756317,
      -0.11126985400915146,
      0.10476313531398773,
      -0.12675051391124725,
      -0.3768956661224365,
      -0.00294515211135149,
      -0.06802726536989212,
      -0.26245754957199097,
      -0.10697080194950104,
      -0.3759940266609192,
      0.1843835860490799,
      0.2001335769891739,
      0.23503834009170532,
      0.18157580494880676,
      -0.07418538630008698,
      0.11278463155031204,
      -0.08578599989414215,
      -0.04937496781349182,
      -0.06924145668745041
    ],
    [
      0.04474002122879028,
      0.04361917823553085,
      -0.029161514714360237,
      -0.22100947797298431,
      0.4066556394100189,
      0.06876032054424286,
      0.037379369139671326,
      -0.0028062397614121437,
      -0.17505687475204468,
      0.025339098647236824,
      0.11482468247413635,
      0.08776815980672836,
      -0.42311200499534607,
      -0.05257846415042877,
      0.30876144766807556,
      0.3300926983356476,
      -0.04958365857601166,
      0.11388596892356873,
      0.22222116589546204,
      -0.014297009445726871,
      0.07699543982744217,
      0.45296892523765564,
      -0.11754541099071503,
      -0.15939563512802124,
      0.05998869612812996,
      0.29429489374160767,
      0.4852677881717682,
      0.47896668314933777,
      0.07384760677814484,
      -0.033730894327163696,
      0.029046038165688515,
      0.14053235948085785,
      0.0583699606359005,
      -0.3621167838573456,
      -0.07003047317266464,
      -0.3442533612251282,
      0.11263518035411835,
      -0.15603414177894592,
      0.15151682496070862,
      0.026710551232099533,
      -0.2146088033914566,
      -0.29822757840156555,
      -0.37393873929977417,
      0.14530952274799347,
      0.16458120942115784,
      0.40470197796821594,
      -0.017631884664297104,
      0.002153291366994381,
      0.20306719839572906,
      0.306416392326355,
      0.1169126033782959,
      0.3802947402000427,
      -0.06248631328344345,
      0.060200825333595276,
      0.1373068243265152,
      0.03150402382016182,
      -0.32798251509666443,
      -0.03528609499335289,
      0.20508189499378204,
      -0.14638544619083405,
      -0.08310588449239731,
      -0.14252130687236786,
      -0.15876109898090363,
      0.1312045454978943
    ],
    [
      -0.14624954760074615,
      0.3147675693035126,
      -0.14753864705562592,
      -0.229729562997818,
      -0.1794121414422989,
      -0.03681917488574982,
      -0.05307945981621742,
      0.15851081907749176,
      -0.09191834926605225,
      0.28710606694221497,
      -0.3879532516002655,
      0.08775608241558075,
      0.32393568754196167,
      -0.07923033833503723,
      -0.17786860466003418,
      0.7101632356643677,
      -0.003743461798876524,
      -0.02670804038643837,
      -0.030129753053188324,
      -0.14486362040042877,
      0.32511216402053833,
      -0.158657968044281,
      0.04195806756615639,
      0.06261496245861053,
      0.1294049322605133,
      0.006091656628996134,
      0.2124912589788437,
      0.006917380262166262,
      -0.20247018337249756,
      -0.0726471021771431,
      0.21659280359745026,
      -0.14216937124729156,
      -0.07479928433895111,
      0.17556795477867126,
      0.07410914450883865,
      0.0055381376296281815,
      0.14565080404281616,
      -0.20186671614646912,
      -0.017295919358730316,
      -0.164518341422081,
      0.03355652466416359,
      -0.05430668219923973,
      -0.008569755591452122,
      -0.2546781897544861,
      -0.11572055518627167,
      -0.12200947850942612,
      -0.08559306710958481,
      0.22011445462703705,
      0.21143579483032227,
      -0.15353256464004517,
      -0.1931639313697815,
      -0.013050728477537632,
      0.33776500821113586,
      0.1506768763065338,
      -0.16284364461898804,
      -0.42935651540756226,
      0.18678691983222961,
      0.05072880536317825,
      0.22040575742721558,
      0.17221122980117798,
      -0.2460755705833435,
      -0.35079896450042725,
      0.10784266889095306,
      0.055757276713848114
    ],
    [
      -0.1578942984342575,
      -0.3040262758731842,
      -0.2676360309123993,
      0.24036045372486115,
      -0.016070840880274773,
      0.392836332321167,
      0.026852142065763474,
      0.03464668244123459,
      0.1650378406047821,
      -0.1779453307390213,
      -0.08666162192821503,
      -0.08850713819265366,
      0.10037132352590561,
      0.5912789702415466,
      -0.20692400634288788,
      -0.3283029794692993,
      -0.5420425534248352,
      -0.3976328372955322,
      0.0956488847732544,
      0.022671792656183243,
      -0.012802502140402794,
      0.10790786892175674,
      0.244219571352005,
      -0.058598730713129044,
      0.029403971508145332,
      0.13564898073673248,
      0.23906414210796356,
      -0.3439829647541046,
      -0.38302913308143616,
      -0.07373140752315521,
      -0.2640097141265869,
      0.092950738966465,
      -0.056477516889572144,
      0.5142624974250793,
      0.21035028994083405,
      0.008397073484957218,
      0.2546292245388031,
      0.08714782446622849,
      0.22623491287231445,
      -0.013371582143008709,
      0.19467271864414215,
      -0.029354004189372063,
      0.30156999826431274,
      -0.040390752255916595,
      -0.3307494521141052,
      0.15776707231998444,
      0.12484422326087952,
      -0.010768049396574497,
      0.3582116961479187,
      -0.1777990162372589,
      -0.11285772174596786,
      -0.29180869460105896,
      0.22474533319473267,
      -0.08713443577289581,
      -0.26747095584869385,
      -0.038136716932058334,
      0.29884570837020874,
      0.17183005809783936,
      -0.41792023181915283,
      -0.2612968385219574,
      0.06607597321271896,
      -0.05762779340147972,
      0.13124136626720428,
      0.0668909102678299
    ],
    [
      -0.16809450089931488,
      -0.20351055264472961,
      -0.06766586005687714,
      0.36232689023017883,
      -0.18446500599384308,
      -0.14460508525371552,
      -0.1487877070903778,
      -0.11364199221134186,
      0.2711740732192993,
      -0.22325901687145233,
      -0.08105236291885376,
      -0.17892040312290192,
      0.42334645986557007,
      0.3300507962703705,
      -0.24635355174541473,
      0.03919298201799393,
      -0.11220225691795349,
      -0.4326838254928589,
      0.16759607195854187,
      -0.23723359405994415,
      -0.4681074619293213,
      -0.18587280809879303,
      0.17499205470085144,
      -0.30743396282196045,
      -0.0433354526758194,
      0.40043729543685913,
      0.08731766790151596,
      -0.4902494251728058,
      0.20226497948169708,
      0.06119411811232567,
      -0.14174339175224304,
      0.15646815299987793,
      0.16169627010822296,
      0.021844707429409027,
      0.08170833438634872,
      -0.1315951943397522,
      -0.0029276644345372915,
      0.06694778800010681,
      -0.027369845658540726,
      -0.250712126493454,
      0.4000612497329712,
      -0.09520271420478821,
      0.1824483424425125,
      0.05340711399912834,
      -0.2470867931842804,
      -0.14506715536117554,
      0.09660911560058594,
      0.14487260580062866,
      0.04374183341860771,
      0.2016175538301468,
      -0.10078445822000504,
      -0.07315769046545029,
      -0.008416980504989624,
      0.02559959515929222,
      -0.1859816312789917,
      0.28068166971206665,
      0.16248063743114471,
      0.3210204243659973,
      -0.5414287447929382,
      0.4480206370353699,
      -0.12977008521556854,
      -0.06175173074007034,
      -0.43072545528411865,
      0.33780407905578613
    ],
    [
      -0.6930233836174011,
      0.05199967324733734,
      -0.30662891268730164,
      -0.25487664341926575,
      -0.021919449791312218,
      -0.20243389904499054,
      -0.24374748766422272,
      0.1207779124379158,
      0.05704938620328903,
      -0.08128942549228668,
      0.10642683506011963,
      0.24389751255512238,
      0.44012850522994995,
      0.5463681221008301,
      -0.1322551816701889,
      -0.07304918766021729,
      -0.07624629884958267,
      -0.32913899421691895,
      -0.00869994517415762,
      0.025334827601909637,
      -0.17920006811618805,
      0.05712730810046196,
      -0.33920854330062866,
      0.05651766061782837,
      -0.16450956463813782,
      0.2732686400413513,
      -0.045377470552921295,
      -0.46229466795921326,
      -0.2910522520542145,
      0.176309734582901,
      -0.2003600150346756,
      0.24122010171413422,
      0.07062698900699615,
      0.3135351240634918,
      0.30222180485725403,
      0.4798066020011902,
      -0.20368695259094238,
      -0.14893174171447754,
      -0.001410109456628561,
      -0.3808138370513916,
      0.4941369295120239,
      -0.44442102313041687,
      0.21532006561756134,
      -0.26361948251724243,
      0.017117872834205627,
      0.13705994188785553,
      0.03352833539247513,
      0.13200542330741882,
      0.032689280807971954,
      -0.3901865482330322,
      0.024418948218226433,
      -0.3162250518798828,
      -0.18693532049655914,
      0.1222497746348381,
      -0.022063907235860825,
      0.16010384261608124,
      0.2817199230194092,
      0.2772923707962036,
      -0.44968870282173157,
      -0.002214927924796939,
      -0.13803546130657196,
      -0.15327364206314087,
      -0.008073982782661915,
      0.07770352810621262
    ],
    [
      0.455901563167572,
      0.45810791850090027,
      -0.1874474436044693,
      -0.06408121436834335,
      0.2973286509513855,
      -0.23559075593948364,
      0.15774422883987427,
      -0.14885365962982178,
      -0.05231649428606033,
      0.3676869869232178,
      -0.054177138954401016,
      0.2951488792896271,
      -0.6055639982223511,
      -0.35803043842315674,
      0.08283061534166336,
      0.029306352138519287,
      0.12300407886505127,
      0.38741472363471985,
      -0.3781776428222656,
      0.4403405785560608,
      0.06939190626144409,
      0.2272409349679947,
      0.04173359274864197,
      -0.03482625260949135,
      -0.003880727104842663,
      0.09549213200807571,
      -0.09899663925170898,
      -0.10647285729646683,
      0.36271408200263977,
      -0.1903669238090515,
      0.21524517238140106,
      0.026012077927589417,
      -0.41440457105636597,
      -0.2566961944103241,
      -0.520436704158783,
      -0.11898476630449295,
      0.3405880331993103,
      -0.014097681269049644,
      0.1716335117816925,
      0.26252877712249756,
      -0.37213268876075745,
      0.007699667010456324,
      0.010511725209653378,
      0.05254456400871277,
      0.1133575588464737,
      -0.3266909718513489,
      0.1497836858034134,
      -0.46593865752220154,
      0.05288439244031906,
      0.04991273581981659,
      0.13229429721832275,
      0.2879032492637634,
      0.013061417266726494,
      0.08746553957462311,
      0.43534141778945923,
      0.044097695499658585,
      -0.25313523411750793,
      -0.2644175589084625,
      0.23134763538837433,
      -0.26121392846107483,
      -0.028547652065753937,
      0.012995497323572636,
      -0.030352922156453133,
      0.04340622201561928
    ],
    [
      -0.1630556285381317,
      -0.09832203388214111,
      0.01619633100926876,
      0.1963357925415039,
      -0.4166361689567566,
      0.28099438548088074,
      -0.27149999141693115,
      0.060105204582214355,
      0.48296716809272766,
      -0.5414356589317322,
      0.4261734187602997,
      -0.053411442786455154,
      -0.18466423451900482,
      0.5595933794975281,
      -0.5076065063476562,
      -0.24114122986793518,
      0.18082697689533234,
      -0.06958778947591782,
      0.12554879486560822,
      -0.21031594276428223,
      -0.06203655153512955,
      0.042974140495061874,
      -0.21649594604969025,
      -0.054219767451286316,
      0.2478034645318985,
      0.28582608699798584,
      -0.12136100232601166,
      -0.26096808910369873,
      0.043667271733284,
      -0.2215341031551361,
      -0.5149434804916382,
      0.027417680248618126,
      0.22666805982589722,
      0.15732796490192413,
      0.5595564842224121,
      0.29537656903266907,
      -0.15360528230667114,
      0.3017370104789734,
      -0.0043884022161364555,
      -0.09300120174884796,
      0.01844964548945427,
      -0.4861985146999359,
      0.23556877672672272,
      -0.0006564033683389425,
      -0.26627835631370544,
      -0.09095267951488495,
      -0.2118796855211258,
      0.1558668464422226,
      0.3614528179168701,
      -0.5373119115829468,
      -0.3110978901386261,
      -0.029458019882440567,
      0.23907868564128876,
      0.2722771167755127,
      -0.39635294675827026,
      0.17632664740085602,
      0.20071105659008026,
      0.3416055142879486,
      -0.35395023226737976,
      0.49030396342277527,
      0.1858178973197937,
      0.2662566304206848,
      -0.39780038595199585,
      -0.1056099459528923
    ],
    [
      0.16158327460289001,
      0.06950078159570694,
      -0.2029726505279541,
      0.6197620630264282,
      -0.0138458963483572,
      -0.08848297595977783,
      -0.37183305621147156,
      0.16871702671051025,
      0.012445538304746151,
      0.12254345417022705,
      -0.019368650391697884,
      -0.09655530750751495,
      0.6266995072364807,
      0.3850048780441284,
      -0.06470515578985214,
      -0.05632208660244942,
      -0.04173261672258377,
      -0.13468658924102783,
      0.033324748277664185,
      0.17371122539043427,
      -0.33596301078796387,
      -0.06195888668298721,
      0.05653304234147072,
      -0.3083875775337219,
      0.253190279006958,
      0.206588014960289,
      0.20096616446971893,
      -0.049342986196279526,
      -0.08519814163446426,
      -0.05957676097750664,
      -0.018734410405158997,
      0.033569201827049255,
      0.17625539004802704,
      0.4009929895401001,
      0.05972549319267273,
      -0.02773916721343994,
      -0.24819833040237427,
      -0.3092595934867859,
      -0.1691409945487976,
      0.033352166414260864,
      0.5787494778633118,
      -0.37671318650245667,
      0.006802587769925594,
      -0.2932182252407074,
      -0.015387848019599915,
      0.15009859204292297,
      0.049275703728199005,
      0.006018510088324547,
      -0.22944553196430206,
      -0.26282504200935364,
      -0.038945578038692474,
      -0.4009164273738861,
      0.14201761782169342,
      0.09078410267829895,
      -0.3373938202857971,
      -0.45565760135650635,
      0.3219335973262787,
      0.20793516933918,
      -0.22815877199172974,
      -0.01817900501191616,
      0.2886962592601776,
      0.13096512854099274,
      0.0783824622631073,
      0.11631572246551514
    ],
    [
      -0.18130488693714142,
      0.01602785475552082,
      0.13783425092697144,
      -0.01489169429987669,
      0.07496249675750732,
      -0.5474398136138916,
      0.13821540772914886,
      0.08056136220693588,
      -0.28797897696495056,
      0.3335913419723511,
      -0.4414485692977905,
      -0.10744866728782654,
      -0.14032289385795593,
      -0.21478968858718872,
      0.21258723735809326,
      0.270786315202713,
      -0.17805145680904388,
      0.21685485541820526,
      -0.4933505654335022,
      0.410156786441803,
      -0.042954690754413605,
      -0.07986713200807571,
      0.1914854645729065,
      -0.31041163206100464,
      0.18040624260902405,
      -0.3531116545200348,
      0.07283136993646622,
      0.2722800374031067,
      0.18147189915180206,
      -0.20510338246822357,
      0.5694316625595093,
      0.06286530196666718,
      -0.32091763615608215,
      -0.29106730222702026,
      -0.10603901743888855,
      -0.43780553340911865,
      0.3036578297615051,
      -0.36765775084495544,
      -0.0487191416323185,
      0.10151556879281998,
      -0.6144191026687622,
      0.17385680973529816,
      0.11942309886217117,
      -0.10485249757766724,
      0.48877209424972534,
      -0.11623828113079071,
      0.2873229682445526,
      0.331642210483551,
      0.004579187836498022,
      0.3930608928203583,
      0.2834164500236511,
      0.07747621834278107,
      -0.26431483030319214,
      0.27341991662979126,
      0.09266738593578339,
      -0.39424630999565125,
      -0.39007115364074707,
      -0.1864670217037201,
      0.3534347116947174,
      -0.3775085508823395,
      -0.11328590661287308,
      -0.18138527870178223,
      0.13716377317905426,
      -0.47936609387397766
    ],
    [
      0.21459996700286865,
      -0.08908843249082565,
      -0.21973256766796112,
      -0.25432881712913513,
      0.4179341793060303,
      0.1483936905860901,
      0.010512934066355228,
      -0.34850266575813293,
      -0.24883946776390076,
      0.39372286200523376,
      0.181671604514122,
      0.12074818462133408,
      -0.012820239178836346,
      -0.20466656982898712,
      0.1510995477437973,
      0.4608696401119232,
      -0.21650971472263336,
      0.08162501454353333,
      -0.345072865486145,
      0.3024503290653229,
      0.38347741961479187,
      0.0886453241109848,
      0.3173013925552368,
      0.20746678113937378,
      0.022828498855233192,
      -0.2890699505805969,
      0.06870883703231812,
      -0.1927451640367508,
      0.6280232071876526,
      -0.17685168981552124,
      0.056680478155612946,
      -0.09168889373540878,
      -0.10061272978782654,
      -0.15694400668144226,
      0.2505066394805908,
      -0.19574418663978577,
      -0.13569310307502747,
      -0.5705826282501221,
      0.06916657835245132,
      0.05727536976337433,
      -0.09363619238138199,
      0.1624155342578888,
      0.055904924869537354,
      0.19268804788589478,
      0.35938766598701477,
      0.09849923849105835,
      -0.02711378037929535,
      0.12473701685667038,
      -0.08907927572727203,
      0.2498641014099121,
      0.05095972493290901,
      0.22112907469272614,
      -0.14125220477581024,
      -0.20701289176940918,
      0.21511292457580566,
      -0.36575302481651306,
      -0.10582637041807175,
      0.025459950789809227,
      0.2216465324163437,
      -0.059390902519226074,
      -0.08781994134187698,
      0.08552604913711548,
      0.17251846194267273,
      -0.18819473683834076
    ],
    [
      0.27233415842056274,
      0.015175997279584408,
      -0.14352159202098846,
      -0.15401889383792877,
      0.08100353181362152,
      -0.1967310905456543,
      0.021229714155197144,
      -0.16039735078811646,
      -0.09028609842061996,
      0.14373016357421875,
      0.08650116622447968,
      -0.11000897735357285,
      -0.11533589661121368,
      -0.18430382013320923,
      0.312317818403244,
      0.26049965620040894,
      -0.05364692583680153,
      0.050546009093523026,
      -0.20534321665763855,
      -0.3422488272190094,
      0.2485308051109314,
      0.3360787630081177,
      -0.12625545263290405,
      -0.0619877427816391,
      -0.019969770684838295,
      0.02051691710948944,
      -0.2013067901134491,
      0.5737640857696533,
      0.37662044167518616,
      0.03637363016605377,
      -0.026015203446149826,
      0.036306533962488174,
      -0.28584837913513184,
      0.12328773736953735,
      0.14269861578941345,
      0.25155341625213623,
      0.08477360010147095,
      0.2674001157283783,
      -0.06363426148891449,
      0.18544776737689972,
      -0.2715047299861908,
      0.07106281816959381,
      0.3036710321903229,
      -0.18533621728420258,
      0.1606583446264267,
      -0.09184139966964722,
      0.2960154414176941,
      -0.17556482553482056,
      -0.09102833271026611,
      0.20768460631370544,
      0.028200233355164528,
      0.19575944542884827,
      -0.18472300469875336,
      -0.33764564990997314,
      0.28619515895843506,
      -0.1596570461988449,
      -0.26745912432670593,
      -0.35989677906036377,
      0.12918628752231598,
      -0.03980450704693794,
      0.04989667236804962,
      -0.08854029327630997,
      0.28438112139701843,
      0.010598752647638321
    ],
    [
      0.1083267405629158,
      0.01342808734625578,
      -0.014412942342460155,
      0.28502073884010315,
      -0.20906886458396912,
      0.09629250317811966,
      -0.15865972638130188,
      0.06289107352495193,
      0.15339043736457825,
      -0.3368750810623169,
      0.31630513072013855,
      0.022846415638923645,
      0.008128584362566471,
      0.4862765073776245,
      0.3415984511375427,
      -0.5778147578239441,
      0.18918050825595856,
      -0.4994775354862213,
      0.3460874557495117,
      0.013635026291012764,
      0.18597549200057983,
      -0.04471402242779732,
      0.1815764307975769,
      0.34170985221862793,
      -0.06710508465766907,
      0.12904077768325806,
      -0.03434494137763977,
      -0.0017502879491075873,
      -0.19519105553627014,
      0.31283578276634216,
      0.11421842873096466,
      0.0001095250845537521,
      0.15204189717769623,
      0.062169160693883896,
      0.48912137746810913,
      0.36266306042671204,
      0.03656657040119171,
      0.2348199188709259,
      0.14031441509723663,
      -0.1667906939983368,
      0.5074774026870728,
      -0.12098731845617294,
      0.26516011357307434,
      -0.25216421484947205,
      -0.14871947467327118,
      -0.2268395721912384,
      -0.02171720564365387,
      -0.010441764257848263,
      0.1901940107345581,
      -0.20553341507911682,
      -0.04839123785495758,
      0.16898484528064728,
      0.4117310047149658,
      0.09954103827476501,
      -0.03407588228583336,
      0.41923362016677856,
      0.03525308147072792,
      0.2596462070941925,
      -0.09257697314023972,
      0.3983643352985382,
      0.2471955120563507,
      0.18021991848945618,
      -0.3386944532394409,
      -0.043834492564201355
    ],
    [
      -0.29173851013183594,
      -0.005698849447071552,
      0.03135565295815468,
      -0.13747172057628632,
      -0.005697491113096476,
      0.3318239748477936,
      -0.48969587683677673,
      0.028562422841787338,
      0.2091931849718094,
      -0.29642319679260254,
      0.13452944159507751,
      -0.03279716148972511,
      0.12777847051620483,
      0.3292325735092163,
      -0.10625867545604706,
      -0.6774711608886719,
      -0.17471227049827576,
      -0.015677858144044876,
      0.2682592570781708,
      0.06838947534561157,
      -0.40907353162765503,
      -0.157576784491539,
      -0.30052441358566284,
      0.2123066484928131,
      -0.2376617044210434,
      0.23600660264492035,
      0.03798006847500801,
      -0.05572032928466797,
      -0.016122521832585335,
      -0.0267147496342659,
      0.040377214550971985,
      0.3406031131744385,
      0.1927444338798523,
      0.1568005383014679,
      0.22678257524967194,
      0.36231303215026855,
      -0.009902621619403362,
      0.6822370886802673,
      0.10235792398452759,
      0.30527371168136597,
      0.22655944526195526,
      -0.2018965184688568,
      0.039750657975673676,
      0.16827724874019623,
      -0.4289018511772156,
      -0.04411715269088745,
      0.16057361662387848,
      0.07343774288892746,
      0.027952903881669044,
      -0.20491811633110046,
      -0.30003196001052856,
      -0.03693005070090294,
      0.29581260681152344,
      -0.08325036615133286,
      -0.12620268762111664,
      -0.08205372840166092,
      0.25456902384757996,
      0.1451798528432846,
      0.228986456990242,
      0.6031161546707153,
      -0.010087508708238602,
      0.29683563113212585,
      -0.4200768768787384,
      0.06210855022072792
    ],
    [
      -0.30202287435531616,
      -0.024118628352880478,
      -0.06379222869873047,
      0.15986588597297668,
      -0.12378744035959244,
      0.143014058470726,
      -0.1744414120912552,
      -0.1669396609067917,
      0.23779089748859406,
      -0.3291032612323761,
      -0.09414000064134598,
      0.21514661610126495,
      -0.002546768169850111,
      0.22568629682064056,
      -0.014276590198278427,
      0.07880561798810959,
      -0.07375143468379974,
      -0.43296778202056885,
      -0.00987676065415144,
      -0.06934201717376709,
      -0.562033474445343,
      -0.3158133625984192,
      0.15403355658054352,
      0.15130479633808136,
      0.10314734280109406,
      -0.2302381694316864,
      -0.3945794701576233,
      -0.08173004537820816,
      0.08059334754943848,
      0.185885488986969,
      -0.2547849118709564,
      -0.19156517088413239,
