{
  "mlp_extractor.policy_net.0.weight": [
    [
      -0.08960911631584167,
      -0.13714157044887543,
      0.0468919463455677,
      -0.1966397762298584,
      0.24575383961200714,
      0.1626954972743988,
      0.09355973452329636,
      0.6834684610366821,
      0.015456153079867363,
      -0.0887458473443985,
      -0.019986024126410484,
      0.19340112805366516
    ],
    [
      -0.09080607444047928,
      0.3135051429271698,
      -0.32037976384162903,
      0.060670167207717896,
      -0.18444357812404633,
      0.16196173429489136,
      0.228550523519516,
      0.5054395794868469,
      0.04751601815223694,
      -0.32069849967956543,
      -0.18429358303546906,
      -0.0670161321759224
    ],
    [
      -0.3171096742153168,
      0.008835452608764172,
      -0.05033360421657562,
      -0.13089197874069214,
      -0.05512981116771698,
      0.2474687248468399,
      0.741113007068634,
      0.26539504528045654,
      0.06932594627141953,
      -0.36421793699264526,
      0.08108298480510712,
      -0.008172828704118729
    ],
    [
      0.24249137938022614,
      0.4597870409488678,
      0.013093508780002594,
      -0.09983127564191818,
      -0.3105475902557373,
      -0.4754466712474823,
      -0.07243001461029053,
      -0.41611456871032715,
      0.01237751916050911,
      0.08315131068229675,
      0.02651199698448181,
      -0.0984891802072525
    ],
    [
      0.08966372162103653,
      0.23452508449554443,
      -0.4087370038032532,
      0.01722792722284794,
      0.09848999232053757,
      0.05211903154850006,
      0.48425883054733276,
      -0.009304797276854515,
      0.17639470100402832,
      0.2532675862312317,
      -0.19191874563694,
      0.10296054929494858
    ],
    [
      -0.0032626595348119736,
      -0.02989168092608452,
      0.6430342197418213,
      -0.25404080748558044,
      -0.1773252785205841,
      0.0051486617885529995,
      -0.49589958786964417,
      0.2229132205247879,
      -0.2500073313713074,
      -0.3387454152107239,
      0.2007673978805542,
      0.23847568035125732
    ],
    [
      -0.22779600322246552,
      0.13653245568275452,
      -0.32981202006340027,
      -0.1395978182554245,
      0.0693899542093277,
      0.18841949105262756,
      0.39957940578460693,
      0.4228787422180176,
      0.6148815155029297,
      -0.00034822727320715785,
      0.04930483549833298,
      0.4117675721645355
    ],
    [
      0.20901089906692505,
      -0.33262899518013,
      0.11364822834730148,
      0.008215281181037426,
      -0.24703821539878845,
      -0.12899401783943176,
      -0.5029433965682983,
      -0.12111110985279083,
      0.19804330170154572,
      0.19857685267925262,
      0.25672492384910583,
      0.32102760672569275
    ],
    [
      0.030207833275198936,
      -0.137438103556633,
      0.6242285966873169,
      0.025494765490293503,
      -0.39606615900993347,
      -0.3547605276107788,
      -0.4948049783706665,
      0.14718765020370483,
      0.2045028954744339,
      -0.25355562567710876,
      0.49658969044685364,
      0.0775238648056984
    ],
    [
      -0.1779068559408188,
      0.41293594241142273,
      -0.12591563165187836,
      -0.009057702496647835,
      0.0401013121008873,
      0.3266700804233551,
      0.5513182282447815,
      0.34412387013435364,
      0.2189413160085678,
      0.29152947664260864,
      -0.3165774941444397,
      -0.04365665465593338
    ],
    [
      0.39880073070526123,
      -0.456066757440567,
      0.514109194278717,
      0.06307588517665863,
      -0.012959741987287998,
      -0.25448620319366455,
      -0.20157136023044586,
      0.06628669798374176,
      -0.14184650778770447,
      -0.0951085314154625,
      0.3175652027130127,
      0.27722546458244324
    ],
    [
      -0.01431440282613039,
      -0.32025039196014404,
      0.08218461275100708,
      -0.03738459572196007,
      -0.2573217749595642,
      0.0791938453912735,
      -0.2531588077545166,
      0.279432475566864,
      0.2890450954437256,
      -0.16429132223129272,
      0.31193938851356506,
      0.04819982871413231
    ],
    [
      0.27005118131637573,
      -0.000679201795719564,
      -0.17172685265541077,
      -0.023477602750062943,
      -0.03014707937836647,
      -0.06948751956224442,
      -0.5010490417480469,
      -0.3375757038593292,
      -0.3208339214324951,
      0.20988111197948456,
      -0.21087908744812012,
      0.22488056123256683
    ],
    [
      -0.2536991834640503,
      -0.2852807343006134,
      -0.10781314969062805,
      -0.08565068244934082,
      -0.5048244595527649,
      -0.18085235357284546,
      -0.6169487833976746,
      -0.43859219551086426,
      -0.30256572365760803,
      0.05825803801417351,
      -0.026945924386382103,
      -0.023372750729322433
    ],
    [
      0.15169312059879303,
      -0.24960140883922577,
      -0.15464448928833008,
      -0.15302583575248718,
      0.18194058537483215,
      0.5476477742195129,
      -0.025451697409152985,
      0.5428434014320374,
      0.304519385099411,
      -0.12514106929302216,
      0.29341843724250793,
      0.2558443546295166
    ],
    [
      -0.3153727054595947,
      0.3434951901435852,
      -0.42953577637672424,
      0.1519109159708023,
      0.08570167422294617,
      0.640720546245575,
      0.23819667100906372,
      -0.10688945651054382,
      -0.015110332518815994,
      -0.05664757639169693,
      -0.5125425457954407,
      -0.21634438633918762
    ],
    [
      -0.10551547259092331,
      -0.27640193700790405,
      0.09941782802343369,
      0.23587267100811005,
      -0.4206206202507019,
      -0.14619086682796478,
      -0.0022085465025156736,
      0.27880287170410156,
      -0.38349345326423645,
      -0.20938710868358612,
      -0.10398931801319122,
      0.3226804733276367
    ],
    [
      0.1185431256890297,
      0.09306498616933823,
      -0.11317885667085648,
      0.045100536197423935,
      0.3768300414085388,
      0.24286845326423645,
      0.5760502815246582,
      0.4864266812801361,
      -0.0007575942436233163,
      -0.19292932748794556,
      -0.028840739279985428,
      0.0060927486047148705
    ],
    [
      0.16267555952072144,
      -0.29128557443618774,
      0.5196811556816101,
      -0.22130689024925232,
      -0.18019604682922363,
      -0.37219297885894775,
      -0.2531434893608093,
      -0.06576581299304962,
      -0.30180424451828003,
      -0.37051117420196533,
      0.14730608463287354,
      0.19835548102855682
    ],
    [
      -0.1578666865825653,
      0.11785928905010223,
      0.046282149851322174,
      -0.10699059069156647,
      0.33265984058380127,
      0.2744373381137848,
      0.35582050681114197,
      0.11999377608299255,
      -0.008985775522887707,
      0.18066434562206268,
      -0.014091980643570423,
      0.22377456724643707
    ],
    [
      -0.1843593418598175,
      -0.1803247183561325,
      0.37716594338417053,
      -0.2881915867328644,
      0.2828506529331207,
      0.234648659825325,
      0.22962549328804016,
      0.518797755241394,
      -0.08419056236743927,
      -0.11854978650808334,
      -0.08144094049930573,
      -0.19317837059497833
    ],
    [
      -0.2442333847284317,
      -0.1364617496728897,
      0.17256192862987518,
      -0.1733080893754959,
      0.3842935562133789,
      0.27505096793174744,
      0.12005405873060226,
      0.3580735921859741,
      0.13317154347896576,
      -0.2540382444858551,
      0.12307684868574142,
      0.14781983196735382
    ],
    [
      0.1250242441892624,
      0.20833416283130646,
      -0.45994800329208374,
      0.0374394990503788,
      0.16280804574489594,
      0.09068860113620758,
      0.16624309122562408,
      -0.420840859413147,
      0.30268988013267517,
      0.3968244194984436,
      -0.48980310559272766,
      -0.18192355334758759
    ],
    [
      -0.2646517753601074,
      -0.31607693433761597,
      0.24782884120941162,
      -0.11963561922311783,
      -0.32568469643592834,
      0.15324056148529053,
      -0.0508844368159771,
      0.27416419982910156,
      -0.034333400428295135,
      -0.3026130497455597,
      0.19421422481536865,
      0.29969605803489685
    ],
    [
      0.024038605391979218,
      0.17478851974010468,
      -0.344531387090683,
      -0.1000967025756836,
      -0.18074604868888855,
      0.1481664776802063,
      0.14410872757434845,
      -0.21761591732501984,
      0.08027586340904236,
      0.5083230137825012,
      -0.3522334694862366,
      -0.18678879737854004
    ],
    [
      0.03771911934018135,
      -0.3351024091243744,
      0.3830552399158478,
      -0.20373104512691498,
      0.029507778584957123,
      -0.10451429337263107,
      -0.36702868342399597,
      -0.4260343909263611,
      0.11634408682584763,
      -0.09415582567453384,
      -0.05763307586312294,
      0.26772817969322205
    ],
    [
      0.11095807701349258,
      0.21509893238544464,
      -0.19916121661663055,
      -0.3399924635887146,
      0.3603983521461487,
      -0.09328072518110275,
      0.1574832946062088,
      -0.12134189903736115,
      -0.25667455792427063,
      0.2884886562824249,
      -0.02301408164203167,
      -0.08219799399375916
    ],
    [
      -0.37781643867492676,
      0.05744980275630951,
      0.17990528047084808,
      0.10925950855016708,
      -0.07319656759500504,
      0.28292781114578247,
      0.6684866547584534,
      0.35038477182388306,
      0.06845792382955551,
      0.1841151863336563,
      -0.387153685092926,
      0.14700409770011902
    ],
    [
      -0.248861625790596,
      0.27382346987724304,
      -0.2442372590303421,
      -0.08989708125591278,
      0.141004741191864,
      0.12063275277614594,
      0.5925654172897339,
      0.3067938983440399,
      0.2935565114021301,
      0.08682327717542648,
      0.06974083185195923,
      -0.17623452842235565
    ],
    [
      -0.09195508062839508,
      -0.07871294766664505,
      -0.015712520107626915,
      0.04251529648900032,
      -0.2107146680355072,
      -0.37911176681518555,
      -0.03887242451310158,
      -0.2313525229692459,
      0.3119952976703644,
      0.15478827059268951,
      -0.36728569865226746,
      -0.2579319477081299
    ],
    [
      -0.2469223141670227,
      0.05624004825949669,
      -0.36059796810150146,
      0.3167911171913147,
      0.11974481493234634,
      0.09936079382896423,
      0.43532121181488037,
      0.06120777502655983,
      0.2319948673248291,
      0.1576831340789795,
      -0.16975587606430054,
      -0.20499660074710846
    ],
    [
      0.026954062283039093,
      -0.23045024275779724,
      0.09902256727218628,
      -0.2445734292268753,
      -0.07358267158269882,
      -0.24877415597438812,
      0.06321138143539429,
      0.06871984153985977,
      0.0009596900781616569,
      -0.10808636993169785,
      -0.0034725742880254984,
      0.20184525847434998
    ],
    [
      -0.29070305824279785,
      -0.19876684248447418,
      0.2975999712944031,
      -0.17316026985645294,
      -0.09701196849346161,
      -0.2592518925666809,
      -0.28580379486083984,
      -0.2805710732936859,
      -0.10866353660821915,
      0.16026310622692108,
      -0.058091577142477036,
      0.2766682505607605
    ],
    [
      0.18494421243667603,
      0.4706703722476959,
      0.15724612772464752,
      -0.20695097744464874,
      -0.19065624475479126,
      -0.3262516260147095,
      -0.5688239336013794,
      -0.3059791922569275,
      -0.5175378918647766,
      0.17773202061653137,
      -0.09145380556583405,
      -0.20081833004951477
    ],
    [
      0.16506436467170715,
      -0.12099912762641907,
      -0.129608154296875,
      -0.08479732275009155,
      -0.0737270712852478,
      -0.3363839089870453,
      -0.3484809100627899,
      -0.4810144603252411,
      -0.050445832312107086,
      -0.15892072021961212,
      0.11994960904121399,
      0.34353694319725037
    ],
    [
      0.0714896097779274,
      -0.11252166330814362,
      0.32653671503067017,
      -0.3027728796005249,
      -0.1504581719636917,
      -0.22163990139961243,
      -0.574179470539093,
      -0.1935783326625824,
      -0.20993714034557343,
      0.10828173160552979,
      0.0559828020632267,
      0.38443946838378906
    ],
    [
      -0.28423571586608887,
      0.14799296855926514,
      -0.6068766713142395,
      -0.046626634895801544,
      0.4066179692745209,
      -0.04627375677227974,
      0.2720438241958618,
      -0.07677745819091797,
      -0.16593816876411438,
      0.2504828870296478,
      -0.2679593861103058,
      -0.47176748514175415
    ],
    [
      -0.19518595933914185,
      -0.41948407888412476,
      0.2592647075653076,
      -0.012717893347144127,
      -0.13728807866573334,
      -0.40718749165534973,
      -0.2112342119216919,
      0.19694487750530243,
      0.05900626257061958,
      -0.2091885507106781,
      0.3963756263256073,
      0.2312128245830536
    ],
    [
      0.2332814484834671,
      0.17704841494560242,
      0.19094641506671906,
      -0.10202164202928543,
      0.4071868360042572,
      -0.04610133543610573,
      0.023236846551299095,
      -0.06187375634908676,
      -0.21443021297454834,
      -0.2949007451534271,
      -0.20816570520401,
      0.2487037479877472
    ],
    [
      -0.08403880894184113,
      0.14783841371536255,
      -0.09940075874328613,
      -0.020916679874062538,
      -0.0594889298081398,
      -0.12529079616069794,
      0.3534058630466461,
      -0.2360762357711792,
      0.2542411983013153,
      0.1611621081829071,
      -0.31781914830207825,
      0.08900786191225052
    ],
    [
      -0.09276994317770004,
      0.0010449911933392286,
      0.3187085688114166,
      0.0951906144618988,
      -0.3122086822986603,
      -0.32463106513023376,
      -0.4514305293560028,
      -0.35764914751052856,
      0.1030370369553566,
      -0.2925819158554077,
      -0.2083464115858078,
      -0.06052311509847641
    ],
    [
      -0.14343953132629395,
      0.3688402473926544,
      -0.3486427962779999,
      -0.08297660201787949,
      -0.25531691312789917,
      0.350138783454895,
      0.540770411491394,
      0.16343358159065247,
      0.041032738983631134,
      -0.1087416484951973,
      -0.17321115732192993,
      0.11165551096200943
    ],
    [
      -0.05333753675222397,
      0.07903767377138138,
      -0.31607410311698914,
      -0.24059657752513885,
      -0.4538215696811676,
      -0.18721486628055573,
      -0.03257587552070618,
      0.08699534833431244,
      0.052067484706640244,
      0.21749499440193176,
      0.1484253704547882,
      -0.13524360954761505
    ],
    [
      0.07607425004243851,
      0.035944096744060516,
      0.23775413632392883,
      0.2148495316505432,
      0.1175726056098938,
      0.20227348804473877,
      0.34957942366600037,
      0.24076814949512482,
      -0.15289843082427979,
      -0.07992333918809891,
      0.14185698330402374,
      0.17037361860275269
    ],
    [
      -0.05861540883779526,
      -0.2830435633659363,
      0.07546019554138184,
      0.18324299156665802,
      0.3142666816711426,
      0.4632379412651062,
      0.23360101878643036,
      0.44352561235427856,
      -0.26339247822761536,
      0.10159125924110413,
      0.13745643198490143,
      -0.06168496608734131
    ],
    [
      0.2350343018770218,
      -0.2801085114479065,
      -0.03864825889468193,
      -0.08188009262084961,
      0.4757726192474365,
      0.15664896368980408,
      -0.02508714608848095,
      -0.2304244190454483,
      0.06640980392694473,
      0.20168018341064453,
      -0.049934543669223785,
      0.18061363697052002
    ],
    [
      0.4500781297683716,
      -0.23745328187942505,
      -0.01814555563032627,
      0.0824817568063736,
      -0.4916502833366394,
      -0.3575596213340759,
      0.07233546674251556,
      -0.1980825662612915,
      0.25572195649147034,
      -0.10579805821180344,
      -0.4326605796813965,
      0.022891158238053322
    ],
    [
      -0.31106889247894287,
      0.17926663160324097,
      0.06033961847424507,
      0.12320075184106827,
      0.031286537647247314,
      -0.08064737915992737,
      -0.3843613862991333,
      -0.09009240567684174,
      -0.022903958335518837,
      0.34933698177337646,
      -0.14696453511714935,
      -0.08480007201433182
    ],
    [
      0.06295094639062881,
      -0.15121524035930634,
      -0.2115446776151657,
      0.2994520962238312,
      0.2551102042198181,
      -0.0012860255083069205,
      -0.24073344469070435,
      -0.19382552802562714,
      -0.16905076801776886,
      -0.282703697681427,
      0.052759069949388504,
      -0.08693287521600723
    ],
    [
      -0.36526283621788025,
      0.1600358784198761,
      -0.1011711061000824,
      0.3824858069419861,
      0.3726559579372406,
      -0.11607059836387634,
      0.47705525159835815,
      0.17676076292991638,
      0.21493886411190033,
      -0.04602479562163353,
      -0.1512717604637146,
      -0.12883150577545166
    ],
    [
      0.21254676580429077,
      0.30687353014945984,
      -0.08812087029218674,
      -0.018612049520015717,
      0.2941148579120636,
      0.3470490276813507,
      0.2750624120235443,
      0.18662673234939575,
      -0.0404697023332119,
      0.25747090578079224,
      -0.11547296494245529,
      -0.18772543966770172
    ],
    [
      0.11842867732048035,
      0.1409151703119278,
      0.015472403727471828,
      0.09718237817287445,
      -0.007766437251120806,
      -0.02274029515683651,
      0.4172717332839966,
      0.6140875816345215,
      -0.2104300856590271,
      0.01574419066309929,
      0.19827574491500854,
      -0.14961299300193787
    ],
    [
      0.08872924745082855,
      -0.5016881227493286,
      0.579366147518158,
      -0.11213546246290207,
      -0.40758636593818665,
      0.17883943021297455,
      -0.2631671726703644,
      0.11205259710550308,
      -0.056310635060071945,
      -0.3454485237598419,
      0.17216746509075165,
      0.05667779967188835
    ],
    [
      0.06129167973995209,
      0.09389372169971466,
      -0.02120693400502205,
      0.03321985900402069,
      -0.2533148527145386,
      -0.2803160548210144,
      -0.020358115434646606,
      -0.4074785113334656,
      -0.05063457041978836,
      0.5670596957206726,
      -0.35658764839172363,
      -0.20280815660953522
    ],
    [
      0.11177197098731995,
      -0.07821420580148697,
      0.021304186433553696,
      -0.02243862673640251,
      0.18972063064575195,
      0.1558530330657959,
      0.576002836227417,
      0.47337988018989563,
      -0.04450858756899834,
      0.020518165081739426,
      0.029655715450644493,
      0.14200028777122498
    ],
    [
      -0.11454612016677856,
      -0.36094173789024353,
      0.30964091420173645,
      -0.2336401492357254,
      0.15845665335655212,
      -0.6142959594726562,
      -0.24190884828567505,
      -0.04544602707028389,
      -0.19856616854667664,
      0.05063397437334061,
      0.3888508379459381,
      0.42509743571281433
    ],
    [
      0.029449783265590668,
      0.16619589924812317,
      0.04368945583701134,
      0.011981957592070103,
      -0.07325134426355362,
      -0.40139126777648926,
      -0.44292593002319336,
      -0.49424049258232117,
      -0.33991754055023193,
      -0.1691615879535675,
      -0.029247136786580086,
      0.19226482510566711
    ],
    [
      -0.012024445459246635,
      -0.13123254477977753,
      0.1392771452665329,
      -0.1773926466703415,
      -0.3651426136493683,
      -0.1733650267124176,
      -0.1157093495130539,
      -0.7538133263587952,
      -0.13881362974643707,
      0.18685854971408844,
      0.16476264595985413,
      -0.003664999967440963
    ],
    [
      -0.18495789170265198,
      0.25452563166618347,
      -0.16130898892879486,
      -0.2061408907175064,
      0.17691054940223694,
      0.3870137631893158,
      0.36338913440704346,
      0.39412015676498413,
      -0.03013092465698719,
      0.13890720903873444,
      0.09914211928844452,
      -0.22754594683647156
    ],
    [
      0.007804668042808771,
      -0.04344971477985382,
      0.5084077715873718,
      -0.36742112040519714,
      -0.09324760735034943,
      -0.23078392446041107,
      -0.746778666973114,
      -0.08182428777217865,
      0.2830321490764618,
      -0.2784228026866913,
      0.27768078446388245,
      0.32958468794822693
    ],
    [
      -0.058826886117458344,
      -0.135184183716774,
      0.23783141374588013,
      -0.22224849462509155,
      -0.1937715858221054,
      -0.20326398313045502,
      -0.1487978845834732,
      0.1914673149585724,
      -0.12902778387069702,
      -0.2877250909805298,
      0.49087831377983093,
      0.19572630524635315
    ],
    [
      0.005312452558428049,
      -0.37886521220207214,
      0.3763367235660553,
      -0.0957719087600708,
      -0.037522412836551666,
      -0.17054735124111176,
      -0.03131065145134926,
      0.24111008644104004,
      -0.13649877905845642,
      -0.17383256554603577,
      0.3224243223667145,
      0.44604435563087463
    ],
    [
      -0.19471099972724915,
      0.33300596475601196,
      0.1838005632162094,
      -0.004200374241918325,
      0.12402878701686859,
      0.10153864324092865,
      0.4918155372142792,
      0.12808376550674438,
      0.24616146087646484,
      0.42158788442611694,
      -0.13777585327625275,
      -0.24171067774295807
    ],
    [
      -0.04752526059746742,
      0.17563067376613617,
      0.22253485023975372,
      0.08874531835317612,
      -0.017886772751808167,
      -0.26307857036590576,
      -0.2926270663738251,
      0.12094936519861221,
      0.04959122836589813,
      0.12392884492874146,
      0.2300233393907547,
      -0.18817932903766632
    ]
  ],
  "mlp_extractor.policy_net.0.bias": [
    -0.057771049439907074,
    -0.1090221181511879,
    -0.18216386437416077,
    0.19942037761211395,
    -0.20957881212234497,
    0.14150501787662506,
    -0.22209584712982178,
    0.21468061208724976,
    0.1515590399503708,
    -0.16899503767490387,
    0.12355861067771912,
    0.1826954334974289,
    0.3220600485801697,
    0.26028093695640564,
    -0.22230389714241028,
    -0.1762039214372635,
    0.2288714051246643,
    -0.24945706129074097,
    0.1691025197505951,
    -0.21953894197940826,
    -0.12697508931159973,
    -0.26725590229034424,
    -0.06939052790403366,
    0.1247754693031311,
    0.01830124296247959,
    0.1333029568195343,
    -0.15703421831130981,
    -0.2298678308725357,
    -0.21283209323883057,
    0.2016262412071228,
    -0.19050203263759613,
    0.1949029117822647,
    0.07891350239515305,
    0.2851715683937073,
    0.1950550228357315,
    0.20624999701976776,
    -0.10894330590963364,
    0.1726478487253189,
    0.09544770419597626,
    0.09599433094263077,
    0.1891142576932907,
    -0.2120274156332016,
    0.19624970853328705,
    -0.306084543466568,
    -0.2670765817165375,
    -0.06884115189313889,
    0.16917264461517334,
    0.09989111870527267,
    -0.019709531217813492,
    -0.22462967038154602,
    -0.15247848629951477,
    -0.27356502413749695,
    0.18030141294002533,
    0.06536947190761566,
    -0.25924792885780334,
    0.043558139353990555,
    0.25827229022979736,
    0.15178649127483368,
    -0.18903319537639618,
    0.21371236443519592,
    0.09054142981767654,
    0.1624557226896286,
    -0.254738450050354,
    0.1566230058670044
  ],
  "mlp_extractor.policy_net.2.bias": [
    0.253402978181839,
    0.13167114555835724,
    -0.3910219967365265,
    0.22879119217395782,
    0.1234261766076088,
    -0.32137414813041687,
    0.2105592042207718,
    -0.03498890995979309,
    -0.12749534845352173,
    0.1772671341896057,
    0.20055831968784332,
    0.22552630305290222,
    -0.09776989370584488,
    -0.18262171745300293,
    0.15880876779556274,
    -0.1749507039785385,
    0.17548778653144836,
    0.40203621983528137,
    -0.23324602842330933,
    -0.15878641605377197,
    -0.17208018898963928,
    0.21648165583610535,
    0.19227539002895355,
    -0.23097003996372223,
    0.07067686319351196,
    -0.1905914843082428,
    0.31004008650779724,
    -0.3653871417045593,
    0.221882626414299,
    0.1511363536119461,
    0.16809947788715363,
    0.1621062308549881,
    -0.19068749248981476,
    0.19158369302749634,
    0.3507199287414551,
    -0.2055831402540207,
    -0.20505258440971375,
    -0.036472879350185394,
    0.25908777117729187,
    0.22437484562397003,
    0.3321107029914856,
    -0.014971630647778511,
    -0.1463722586631775,
    0.22165898978710175,
    0.16985851526260376,
    -0.1656094342470169,
    0.22071270644664764,
    0.17331624031066895,
    0.08133839070796967,
    -0.3309868574142456,
    0.37840700149536133,
    0.18565623462200165,
    0.03240334242582321,
    -0.21354125440120697,
    -0.2600884735584259,
    -0.07648048549890518,
    -0.18227331340312958,
    0.19995751976966858,
    -0.015995200723409653,
    0.23232363164424896,
    -0.2408187985420227,
    -0.24191536009311676,
    -0.1952606588602066,
    -0.06080587953329086
  ],
  "action_net.weight": [
    [
      -0.02287885546684265,
      0.03048163838684559,
      0.016187453642487526,
      0.03019978478550911,
      0.06081624701619148,
      -0.031153123825788498,
      -0.017533548176288605,
      0.06562215834856033,
      -0.09093178808689117,
      0.02635572850704193,
      0.02987815998494625,
      -0.0063340188935399055,
      -0.13223297894001007,
      0.012724609114229679,
      0.08477327972650528,
      0.042318638414144516,
      0.05603547766804695,
      -0.051551107317209244,
      -0.03760036826133728,
      0.012193677015602589,
      0.030609404668211937,
      -0.05747479200363159,
      -0.06770993769168854,
      0.005382860079407692,
      0.1194903701543808,
      -0.051943741738796234,
      -0.031737007200717926,
      0.004156836308538914,
      -0.1396787017583847,
      0.02338840253651142,
      -0.011710111051797867,
      0.07037106156349182,
      -0.08761878311634064,
      -0.016586799174547195,
      0.009969368577003479,
      -0.001289854641072452,
      -0.047871362417936325,
      -0.169900044798851,
      0.04759954661130905,
      0.04166558384895325,
      -0.012404662556946278,
      -0.2538190186023712,
      -0.057958342134952545,
      -0.020294055342674255,
      0.034442413598299026,
      0.0006802492425777018,
      -0.02628248743712902,
      0.044189970940351486,
      -0.03450422361493111,
      0.027101973071694374,
      -0.016234619542956352,
      0.0177905410528183,
      0.10425831377506256,
      -0.044188059866428375,
      0.009079838171601295,
      -0.060460805892944336,
      -0.018115468323230743,
      0.09119505435228348,
      -0.22443246841430664,
      -0.003168349852785468,
      -0.04009857028722763,
      -0.003495659213513136,
      -0.05126198008656502,
      -0.12794294953346252
    ],
    [
      0.2228815108537674,
      0.23101530969142914,
      -0.1423588991165161,
      0.07513923197984695,
      0.1995067596435547,
      -0.18538795411586761,
      0.076719269156456,
      -0.20394814014434814,
      0.037782538682222366,
      0.06658034771680832,
      0.25045478343963623,
      0.14558608829975128,
      -0.03121238946914673,
      -0.18903693556785583,
      0.02103043533861637,
      -0.09069336205720901,
      0.015578897669911385,
      0.23060278594493866,
      -0.07056359946727753,
      -0.214833602309227,
      -0.2169421762228012,
      0.17291544377803802,
      0.17092548310756683,
      -0.16137023270130157,
      -0.03383466228842735,
      -0.06473536789417267,
      0.1607806235551834,
      -0.20075008273124695,
      0.27542513608932495,
      0.19460445642471313,
      0.2541027069091797,
      0.17378021776676178,
      -0.18686816096305847,
      0.16868457198143005,
      0.1901240348815918,
      -0.07661783695220947,
      -0.11556345969438553,
      -0.02036324515938759,
      0.07502485066652298,
      0.10366436839103699,
      0.1856604814529419,
      0.11169128865003586,
      -0.1997239738702774,
      0.13681921362876892,
      0.23754964768886566,
      -0.20036783814430237,
      0.09714636206626892,
      0.08447670936584473,
      0.2624039947986603,
      -0.21839363873004913,
      0.19540147483348846,
      0.09460336714982986,
      -0.052451953291893005,
      -0.18165476620197296,
      -0.19283299148082733,
      -0.031330034136772156,
      -0.08617748320102692,
      0.15208378434181213,
      0.0625067725777626,
      0.19462130963802338,
      -0.17331597208976746,
      -0.17107492685317993,
      -0.17743372917175293,
      0.09467954933643341
    ]
  ],
  "action_net.bias": [
    -0.08960282057523727,
    0.3798059821128845
  ],
  "mlp_extractor.policy_net.2.weight": [
    [
      -0.07960066944360733,
      -0.17675894498825073,
      -0.029545370489358902,
      0.3539287745952606,
      -0.23848026990890503,
      -0.33531638979911804,
      -0.012126738205552101,
      0.009852755814790726,
      -0.11656403541564941,
      -0.1568211317062378,
      -0.15518629550933838,
      0.12914960086345673,
      0.1285659223794937,
      0.11137089878320694,
      -0.5121351480484009,
      -0.07290150225162506,
      0.18671022355556488,
      -0.09240833669900894,
      0.10251939296722412,
      -0.06395037472248077,
      -0.40596386790275574,
      -0.1627720296382904,
      -0.06423243135213852,
      0.3328189551830292,
      0.08783304691314697,
      0.01487991027534008,
      -0.24324648082256317,
      -0.06061553582549095,
      -0.05713161453604698,
      0.1197555661201477,
      -0.21539312601089478,
      0.4169616103172302,
      0.1565386950969696,
      0.45296770334243774,
      0.17621377110481262,
      -0.2770512104034424,
      -0.32925945520401,
      -0.1475829780101776,
      -0.003945599775761366,
      0.3914449214935303,
      0.3381337523460388,
      0.23574373126029968,
      0.1339113712310791,
      -0.176552876830101,
      -0.26820895075798035,
      -0.11037860065698624,
      0.2916593551635742,
      -0.067717045545578,
      0.1057160496711731,
      0.29439952969551086,
      0.03946731984615326,
      0.04738854244351387,
      0.019120806828141212,
      0.08684274554252625,
      -0.21315157413482666,
      -0.014780454337596893,
      0.20190909504890442,
      -0.45740753412246704,
      0.08892283588647842,
      0.03129022568464279,
      -0.1446196585893631,
      -0.32551226019859314,
      -0.21343041956424713,
      -0.250820130109787
    ],
    [
      -0.1178947389125824,
      -0.43667080998420715,
      -0.12830598652362823,
      0.16411858797073364,
      0.11828114837408066,
      -0.03762337937951088,
      -0.5392703413963318,
      0.28939783573150635,
      0.2633146047592163,
      -0.07238887995481491,
      -0.04147183522582054,
      0.1697799563407898,
      0.3830862045288086,
      0.5597489476203918,
      -0.26398220658302307,
      0.18093769252300262,
      -0.3043351173400879,
      -1.149998664855957,
      0.2121608853340149,
      -0.1917305886745453,
      -0.5206400156021118,
      -0.3226688504219055,
      0.13485683500766754,
      -0.17134203016757965,
      -0.04146161302924156,
      0.5853022933006287,
      -0.2843669652938843,
      -0.5051738023757935,
      -0.4467692971229553,
      0.045525576919317245,
      -0.10016211122274399,
      0.15948976576328278,
      0.14969663321971893,
      0.20042940974235535,
      0.35942256450653076,
      0.266252726316452,
      0.07529266923666,
      -0.2797561287879944,
      0.07980584353208542,
      0.11702556908130646,
      0.2930373549461365,
      -0.08878966420888901,
      0.005556304939091206,
      -0.3723936676979065,
      -0.24204856157302856,
      0.13039344549179077,
      0.017312638461589813,
      0.19006793200969696,
      -0.07299084216356277,
      -0.48654526472091675,
      0.12575580179691315,
      -0.20600035786628723,
      -0.12856991589069366,
      0.20563745498657227,
      -0.8361576199531555,
      0.04874405637383461,
      0.5017677545547485,
      0.2889285385608673,
      -0.2776092290878296,
      0.3526151776313782,
      -0.10504688322544098,
      -0.12995126843452454,
      0.32819685339927673,
      0.05773548409342766
    ],
    [
      0.1284865438938141,
      0.14814025163650513,
      0.35980960726737976,
      -0.06163164973258972,
      0.24387210607528687,
      -0.28201213479042053,
      0.2867703139781952,
      -0.049771782010793686,
      -0.406067818403244,
      -0.007293022237718105,
      -0.16915838420391083,
      -0.21023091673851013,
      -0.42338964343070984,
      -0.2790582478046417,
      -0.0010931798024103045,
      -0.23726579546928406,
      -0.34331658482551575,
      0.36378583312034607,
      0.21053335070610046,
      0.05001414194703102,
      0.27246180176734924,
      0.5132313370704651,
      -0.0024991966784000397,
      0.47144371271133423,
      0.04797188565135002,
      0.16311118006706238,
      -0.016339808702468872,
      0.25033172965049744,
      0.49448907375335693,
      0.08211498707532883,
      0.1731463223695755,
      -0.018844900652766228,
      0.09765803068876266,
      -0.7033118605613708,
      -0.15144044160842896,
      -0.13806861639022827,
      0.32805776596069336,
      0.24997220933437347,
      -0.19702991843223572,
      0.0755443125963211,
      -0.09651671350002289,
      -0.049582064151763916,
      -0.05851830542087555,
      0.11476830393075943,
      0.38395097851753235,
      0.0012775174109265208,
      -0.0470966175198555,
      -0.18130376935005188,
      0.1675628274679184,
      0.12831427156925201,
      -0.7701639533042908,
      0.12732721865177155,
      0.12906339764595032,
      -0.27092424035072327,
      0.3951905369758606,
      0.3214842677116394,
      -0.263775110244751,
      -0.10851048678159714,
      -0.16499334573745728,
      0.047317635267972946,
      0.1152268722653389,
      0.1880730241537094,
      0.19984187185764313,
      -0.0702594444155693
    ],
    [
      0.09267567098140717,
      -0.022958332672715187,
      0.1197027787566185,
      0.24972712993621826,
      0.23344016075134277,
      0.28605952858924866,
      0.210155189037323,
      -0.049555402249097824,
      -0.29599660634994507,
      0.1898520588874817,
      -0.04666650667786598,
      0.25400060415267944,
      0.06449597328901291,
      0.23442161083221436,
      -0.049857303500175476,
      0.1895916759967804,
      0.21012838184833527,
      0.05452093854546547,
      -0.175853431224823,
      -0.034881386905908585,
      -0.07133661955595016,
      -0.33654263615608215,
      0.050891246646642685,
      0.06809116154909134,
      -0.03132655844092369,
      -0.14973759651184082,
      -0.11220688372850418,
      0.3880313038825989,
      -0.08450198918581009,
      0.16572655737400055,
      0.033701058477163315,
      0.11513318121433258,
      0.13277697563171387,
      0.2438080608844757,
      -0.1153126060962677,
      -0.14089468121528625,
      -0.004418328870087862,
      -0.03535335883498192,
      0.3851565718650818,
      0.15273244678974152,
      0.0909290760755539,
      0.04006706923246384,
      0.460082471370697,
      -0.312931090593338,
      -0.25632545351982117,
      -0.3983793258666992,
      0.31591689586639404,
      0.12150586396455765,
      -0.1782083660364151,
      0.02915024571120739,
      -0.43561261892318726,
      -0.18693064153194427,
      -0.3345564901828766,
      0.02945941872894764,
      -0.15558619797229767,
      -0.1456586867570877,
      -0.10477567464113235,
      -0.12241320312023163,
      -0.26254191994667053,
      -0.13112527132034302,
      0.27962276339530945,
      -0.02194291353225708,
      -0.2538869380950928,
      0.09494851529598236
    ],
    [
      -0.31692513823509216,
      -0.4659731388092041,
      -0.23620830476284027,
      0.35620662569999695,
      -0.03999147191643715,
      0.027194716036319733,
      -0.4699409008026123,
      0.11773669719696045,
      0.052413638681173325,
      -0.13015763461589813,
      0.1304430365562439,
      0.09571439027786255,
      0.23194272816181183,
      0.2971125543117523,
      -0.1963844746351242,
      -0.20519140362739563,
      -0.23294614255428314,
      -0.6740779876708984,
      0.054238323122262955,
      -0.39567863941192627,
      0.12115255743265152,
      -0.15297962725162506,
      0.2518872320652008,
      -0.1896185427904129,
      0.09228216111660004,
      0.35004809498786926,
      -0.10805594176054001,
      -0.26388654112815857,
      0.054042961448431015,
      -0.034219130873680115,
      0.281648725271225,
      -0.010912541300058365,
      0.25174230337142944,
      0.7364664673805237,
      -0.07273109257221222,
      0.09925546497106552,
      -0.0909416452050209,
      -0.2233959138393402,
      -0.10964123159646988,
      -0.2064366340637207,
      0.3205278217792511,
      -0.10283105820417404,
      -0.2529739439487457,
      -0.48872265219688416,
      -0.4490010440349579,
      0.026273518800735474,
      0.35744595527648926,
      0.19810524582862854,
      0.05947772413492203,
      -0.22162047028541565,
      -0.0852893590927124,
      -0.4505874812602997,
      -0.3033568263053894,
      0.40553200244903564,
      -0.10482191294431686,
      0.08050286024808884,
      0.7858588695526123,
      0.4568943679332733,
      -0.27691712975502014,
      0.009365040808916092,
      -0.26756101846694946,
      -0.17400150001049042,
      -0.26363715529441833,
      -0.13128258287906647
    ],
    [
      0.047287553548812866,
      -0.2429991215467453,
      -0.29970186948776245,
      -0.2410426288843155,
      -0.011364197358489037,
      0.18850435316562653,
      0.1253870278596878,
      -0.2135482132434845,
      0.03745492175221443,
      -0.3018821179866791,
      -0.23564018309116364,
      -0.420515775680542,
      0.08398231863975525,
      0.05855698883533478,
      0.2223852127790451,
      0.1491604894399643,
      0.10830007493495941,
      0.10320299863815308,
      -0.22436948120594025,
      0.3176470994949341,
      0.28652068972587585,
      0.406980961561203,
      -0.20097464323043823,
      0.12985102832317352,
      -0.18845945596694946,
      0.04944894090294838,
      0.060509782284498215,
      0.06504908949136734,
      0.18608300387859344,
      -0.34559330344200134,
      0.24140514433383942,
      -0.020318543538451195,
      0.15203864872455597,
      -0.33925655484199524,
      -0.2156457006931305,
      -0.0524931326508522,
      0.07024842500686646,
      0.2763405442237854,
      -0.28982865810394287,
      0.03144993260502815,
      -0.05763719603419304,
      0.0038148551248013973,
      0.144988551735878,
      0.24288733303546906,
      0.15416014194488525,
      0.1088184267282486,
      -0.14741171896457672,
      0.03995513543486595,
      -0.2615552544593811,
      -0.07900989800691605,
      0.001850541797466576,
      0.1766301691532135,
      0.22984814643859863,
      0.2248479574918747,
      0.04783223569393158,
      0.4091756045818329,
      -0.035310421139001846,
      -0.11507385224103928,
      0.2351529896259308,
      -0.06057101488113403,
      0.09302348643541336,
      -0.4115154445171356,
      -0.11081266403198242,
      0.1437908411026001
    ],
    [
      -0.2606109082698822,
      -0.13564051687717438,
      -0.12707620859146118,
      0.04522944986820221,
      -0.1369970589876175,
      -0.15901358425617218,
      -0.46181076765060425,
      0.036863792687654495,
      -0.11720558255910873,
      0.147990882396698,
      0.1956528276205063,
      -0.25217297673225403,
      0.5175892114639282,
      0.28785112500190735,
      -0.5046475529670715,
      -0.3266740143299103,
      0.1340591162443161,
      -0.27766507863998413,
      -0.01829330064356327,
      -0.12120069563388824,
      -0.4364585876464844,
      0.01557844690978527,
      0.7245813608169556,
      -0.27168720960617065,
      -0.1255461871623993,
      0.09632448107004166,
      0.23454418778419495,
      -0.44165685772895813,
      -0.2677261233329773,
      -0.07652202993631363,
      -0.2848722040653229,
      -0.09550956636667252,
      0.09778670966625214,
      0.5425978302955627,
      0.41919466853141785,
      0.24758589267730713,
      0.2672233283519745,
      0.07851441949605942,
      0.25198832154273987,
      0.15639537572860718,
      0.12070930004119873,
      -0.39685913920402527,
      -0.20195938646793365,
      -0.4644166827201843,
      -0.3347271680831909,
      -0.0941256582736969,
      0.11701299250125885,
      -0.04886088892817497,
      -0.32227689027786255,
      0.06868496537208557,
      -0.03658977895975113,
      -0.3688756823539734,
      -0.02053472027182579,
      0.43383240699768066,
      -0.5750097632408142,
      0.24313591420650482,
      0.16289359331130981,
      0.3575219511985779,
      -0.3230476975440979,
      0.18614502251148224,
      -0.26281610131263733,
      -0.4266524612903595,
      -0.2571762800216675,
      -0.15639275312423706
    ],
    [
      0.4038684368133545,
      -0.12216649204492569,
      0.1742166429758072,
      -0.3586377799510956,
      -0.08904167264699936,
      0.15004076063632965,
      0.25045618414878845,
      -0.3299065828323364,
      0.3988190293312073,
      0.05013527348637581,
      -0.09788007289171219,
      -0.1062084436416626,
      -0.20553231239318848,
      -0.07254461199045181,
      0.24666555225849152,
      -0.4384048581123352,
      -0.002223333576694131,
      0.32521742582321167,
      0.5955855846405029,
      -0.11004514247179031,
      0.2481144368648529,
      0.0496416874229908,
      -0.4184361398220062,
      0.04041486606001854,
      0.07097148895263672,
      -0.11475586146116257,
      0.12620501220226288,
      0.07995180785655975,
      -0.1254986822605133,
      0.03698616474866867,
      -0.0824563205242157,
      0.22174158692359924,
      -0.16040702164173126,
      -0.03033500909805298,
      0.09388410300016403,
      0.20102953910827637,
      -0.1191338524222374,
      -0.07550285756587982,
      -0.02720675803720951,
      0.36449167132377625,
      -0.012067483738064766,
      -0.318560391664505,
      0.23094195127487183,
      0.06926282495260239,
      -0.004236311186105013,
      -0.12425076961517334,
      0.02370794117450714,
      -0.10361792892217636,
      -0.317189484834671,
      0.16891399025917053,
      0.11983597278594971,
      0.33269527554512024,
      0.2826533019542694,
      0.13465218245983124,
      0.324714720249176,
      0.13443279266357422,
      0.2984240651130676,
      0.11343061923980713,
      -0.17543840408325195,
      0.2573457658290863,
      0.11772582679986954,
      0.1955888271331787,
      -0.08817628026008606,
      0.030840003862977028
    ],
    [
      0.18661347031593323,
      0.28182587027549744,
      0.31595373153686523,
      0.0004973967443220317,
      0.133515864610672,
      -0.45981061458587646,
      0.04043416678905487,
      -0.4236295819282532,
      -0.6301414370536804,
      0.21059942245483398,
      -0.35816138982772827,
      -0.18306095898151398,
      -0.27849632501602173,
      -0.549513578414917,
      -0.021901994943618774,
      0.6980257630348206,
      -0.3906269669532776,
      0.19931961596012115,
      -0.5134343504905701,
      0.04482110217213631,
      -0.16463907063007355,
      0.20117506384849548,
      0.17318755388259888,
      -0.026791447773575783,
      -0.10663945227861404,
      -0.23938073217868805,
      0.2900436520576477,
      0.1761249452829361,
      0.2781292498111725,
      -0.06047796458005905,
      0.6639612913131714,
      -0.36924663186073303,
      0.11249194294214249,
      -0.4580577313899994,
      -0.14392277598381042,
      -0.4984742999076843,
      0.38003072142601013,
      -0.20520555973052979,
      0.019077463075518608,
      0.1039525493979454,
      -0.23002290725708008,
      -0.009227861650288105,
      0.12832283973693848,
      0.2504037916660309,
      0.09012514352798462,
      -0.12816254794597626,
      -0.12258903682231903,
      0.5435411930084229,
      -0.06695827096700668,
      0.19367264211177826,
      0.46348705887794495,
      -0.04358607530593872,
      -0.30786192417144775,
      0.04480670765042305,
      0.16089719533920288,
      -0.004603245761245489,
      0.053708840161561966,
      -0.234132319688797,
      0.3199886381626129,
      -0.8011620044708252,
      -0.3575550317764282,
      -0.28712350130081177,
      0.4398156702518463,
      -0.1763666719198227
    ],
    [
      -0.061609089374542236,
      -0.12937238812446594,
      -0.4093760550022125,
      0.2552263140678406,
      -0.5616825819015503,
      0.10254806280136108,
      -0.4370989203453064,
      -0.23884394764900208,
      0.24218641221523285,
      -0.4933374524116516,
      0.025460032746195793,
      -0.16922211647033691,
      0.10996122658252716,
      0.33291012048721313,
      -0.4479639232158661,
      -0.13504618406295776,
      0.32693228125572205,
      -0.3988588750362396,
      0.44374075531959534,
      -0.13250339031219482,
      -0.20913735032081604,
      0.027466602623462677,
      0.017801133915781975,
      -0.03702089190483093,
      -0.17683973908424377,
      0.23279833793640137,
      -0.010369893163442612,
      -0.39176803827285767,
      -0.5281869173049927,
      0.34634411334991455,
      0.029723241925239563,
      0.1756001114845276,
      -0.22078250348567963,
      0.2466019093990326,
      0.40692785382270813,
      0.11730901151895523,
      -0.13426774740219116,
      0.161553293466568,
      0.23039297759532928,
      0.08689721673727036,
      0.2785918116569519,
      -0.1684529036283493,
      -0.013528082519769669,
      -0.16785983741283417,
      1.6840100215631537e-05,
      -0.0011135037057101727,
      0.5123168230056763,
      -0.017503803595900536,
      0.006979241035878658,
      -0.38803744316101074,
      -0.16369523108005524,
      -0.6781792044639587,
      -0.11431549489498138,
      0.05390654876828194,
      -0.4601984918117523,
      -0.05963343009352684,
      0.2031257301568985,
      0.4230763912200928,
      -0.208677276968956,
      0.2863049805164337,
      -0.05424574017524719,
      0.2847488820552826,
      -0.4529883861541748,
      0.13809671998023987
    ],
    [
      -0.5230889320373535,
      -0.4552587568759918,
      -0.12520460784435272,
      0.37242424488067627,
      0.03694415092468262,
      -0.11684735864400864,
      -0.11179602146148682,
      0.33675721287727356,
      0.04612318053841591,
      -0.21931575238704681,
      -0.20185966789722443,
      -0.2514578402042389,
      0.19577191770076752,
      0.293167382478714,
      -0.23225149512290955,
      -0.1360941231250763,
      0.18211759626865387,
      -0.8393420577049255,
      0.0031028154771775007,
      -0.09242603182792664,
      -0.42212751507759094,
      0.0033737756311893463,
      -0.1011987254023552,
      -0.07541190087795258,
      0.21377913653850555,
      0.14082403481006622,
      0.06909996271133423,
      -0.8192786574363708,
      -0.1402345597743988,
      0.1347576081752777,
      -0.0034776770044118166,
      -0.02121998369693756,
      0.16675180196762085,
      0.1753106266260147,
      0.7061152458190918,
      0.023995105177164078,
      -0.08778374642133713,
      0.10972525179386139,
      0.022605596110224724,
      0.23453015089035034,
      0.2872980833053589,
      -0.4470263123512268,
      -0.26136016845703125,
      -0.25626319646835327,
      -0.7742785215377808,
      -0.09160805493593216,
      0.2620980441570282,
      0.08710117638111115,
      0.017118247225880623,
      -0.0744396448135376,
      -0.20035752654075623,
      -0.6289293169975281,
      -0.1258489042520523,
      0.3294556140899658,
      -0.3718430697917938,
      0.22532491385936737,
      0.5246431231498718,
      0.8025228381156921,
      -0.2517082095146179,
      0.15796725451946259,
      -0.16479560732841492,
      -0.03447277843952179,
      0.043485939502716064,
      0.18904641270637512
    ],
    [
      -0.5817087888717651,
      -0.17721648514270782,
      -0.31255343556404114,
      0.2106381207704544,
      -0.10017003864049911,
      0.028493555262684822,
      -0.14388996362686157,
      0.30248451232910156,
      0.08616462349891663,
      -0.45655882358551025,
      -0.11744000762701035,
      -0.28258106112480164,
      0.20458397269248962,
      0.44581758975982666,
      -0.3867568075656891,
      -0.21348688006401062,
      -0.059837706387043,
      -0.7593626379966736,
      0.23199868202209473,
      -0.09959473460912704,
      -0.21219702064990997,
      -0.1337796300649643,
      0.14937305450439453,
      -0.07261194288730621,
      -0.03339581564068794,
      0.006339260842651129,
      0.17930853366851807,
      -0.3160240352153778,
      0.19093525409698486,
      0.17918220162391663,
      -0.33765843510627747,
      0.0028769797645509243,
      0.2267041653394699,
      0.21437834203243256,
      0.01279250904917717,
      0.40655946731567383,
      0.09115593135356903,
      -0.16950562596321106,
      0.33508944511413574,
      0.020123539492487907,
      0.013500113971531391,
      -0.28202447295188904,
      0.03882564604282379,
      -0.4313506782054901,
      -0.2477887123823166,
      -0.2847585380077362,
      0.05383409559726715,
      -0.09337690472602844,
      0.040436577051877975,
      -0.024802640080451965,
      0.3627922534942627,
      -0.7377551794052124,
      0.006128723733127117,
      0.1752384603023529,
      -0.4671674072742462,
      -0.31748226284980774,
      0.49317628145217896,
      0.17275935411453247,
      -0.2502221167087555,
      0.48325207829475403,
      0.2549643814563751,
      -0.0469784289598465,
      -0.2614423632621765,
      0.07748543471097946
    ],
    [
      -0.14442066848278046,
      0.09138180315494537,
      -0.010412466712296009,
      -0.21483154594898224,
      -0.09009498357772827,
      -0.06277857720851898,
      0.1266191452741623,
      -0.056108258664608,
      -0.14144228398799896,
      0.373407244682312,
      0.06058044359087944,
      -0.29552793502807617,
      -0.012388315983116627,
      0.06448127329349518,
      0.16197045147418976,
      0.558506965637207,
      0.03916192427277565,
      0.028558433055877686,
      -0.33089813590049744,
      0.18647834658622742,
      -0.2916705310344696,
      0.14618702232837677,
      0.420708030462265,
      -0.10563111305236816,
      0.4213322401046753,
      -0.1297280639410019,
      -0.30083200335502625,
      0.3046184778213501,
      -0.16939406096935272,
      0.04099097102880478,
      -0.026687806472182274,
      -0.04019007831811905,
      0.1535940170288086,
      -0.3255375623703003,
      -0.40705057978630066,
      -0.29506561160087585,
      0.07179103046655655,
      -0.35616210103034973,
      0.18727651238441467,
      0.013927566818892956,
      0.04663126543164253,
      0.08653663843870163,
      0.10385860502719879,
      0.18225322663784027,
      0.28722962737083435,
      -0.2518094480037689,
      -0.028203770518302917,
      0.00036442335112951696,
      0.10062149167060852,
      0.007553598377853632,
      0.031467147171497345,
      -0.07148617506027222,
      -0.23252052068710327,
      0.01620219461619854,
      0.34649282693862915,
      -0.3914155066013336,
      0.17192374169826508,
      0.26122626662254333,
      0.31699639558792114,
      -0.36179178953170776,
      -0.39078259468078613,
      -0.6062676906585693,
      0.23902662098407745,
      -0.2929835319519043
    ],
    [
      0.31739291548728943,
      0.18044722080230713,
      0.3165970742702484,
      -0.25216829776763916,
      -0.1484840363264084,
      0.4534496068954468,
      0.01284304540604353,
      -0.28095752000808716,
      0.01866009645164013,
      0.08138720691204071,
      -0.05137074738740921,
      0.4962884485721588,
      0.2264871448278427,
      -0.561099648475647,
      0.46614935994148254,
      -0.15016359090805054,
      0.24493825435638428,
      0.41695016622543335,
      0.20889058709144592,
      0.018047917634248734,
      0.3228149116039276,
      0.43927669525146484,
      -0.38519927859306335,
      0.3936125934123993,
      -0.11105147004127502,
      0.07244262844324112,
      -0.18943752348423004,
      0.4416933059692383,
      0.3254815936088562,
      -0.3265473544597626,
      -0.1537948101758957,
      0.01601073518395424,
      -0.24039329588413239,
      -0.38939380645751953,
      -0.35867172479629517,
      -0.013706914149224758,
      -0.15141561627388,
      -0.1712716966867447,
      0.02296626940369606,
      -0.034331634640693665,
      -0.4738249182701111,
      0.27756577730178833,
      0.13087868690490723,
      -0.1999819576740265,
      0.28556108474731445,
      -0.27924874424934387,
      -0.23792897164821625,
      0.047031790018081665,
      -0.017188044264912605,
      0.059209536761045456,
      -0.08001093566417694,
      0.34557533264160156,
      0.3339020609855652,
      -0.12948594987392426,
      0.4248304069042206,
      -0.17524556815624237,
      -0.572710394859314,
      -0.2992190718650818,
      0.1518409252166748,
      -0.4169367253780365,
      0.11488904803991318,
      0.2010371834039688,
      0.23275581002235413,
      0.11563052982091904
    ],
    [
      0.27972131967544556,
      -0.47655239701271057,
      -0.40071284770965576,
      -0.06809842586517334,
      -0.022360224276781082,
      0.4247359037399292,
      -0.43808627128601074,
      0.42916321754455566,
      0.4605811536312103,
      -0.41223233938217163,
      0.3731810748577118,
      -0.024225929751992226,
      0.20046557486057281,
      0.20365403592586517,
      -0.12257685512304306,
      -0.5259936451911926,
      0.30500519275665283,
      -0.4009496569633484,
      0.6007139086723328,
      -0.15523552894592285,
      -0.07205823808908463,
      -0.37451574206352234,
      -0.36381733417510986,
      0.05509186163544655,
      -0.22322817146778107,
      0.1274627149105072,
      -0.12319371849298477,
      -0.4425906836986542,
      -0.44198909401893616,
      0.07768134027719498,
      -0.5801738500595093,
      -0.16709265112876892,
      -0.06609149277210236,
      0.1185983270406723,
      0.2354222536087036,
      0.3072625696659088,
      0.06693775951862335,
      0.25655633211135864,
      -0.2232578545808792,
      0.03650249168276787,
      0.26459065079689026,
      -0.6008507609367371,
      0.17660367488861084,
      -0.060159724205732346,
      0.022077225148677826,
      -0.298037052154541,
      -0.11021868884563446,
      -0.08143547177314758,
      0.2995976209640503,
      -0.2194574624300003,
      -0.4584682881832123,
      -0.23477010428905487,
      0.07883227616548538,
      -0.08160065114498138,
      0.06485404074192047,
      0.23283608257770538,
      0.3361523449420929,
      -0.2052558809518814,
      -0.30882760882377625,
      0.4897884428501129,
      0.13938096165657043,
      0.2416122406721115,
      -0.5205134153366089,
      -0.11268205940723419
    ],
    [
      -0.019268393516540527,
      0.32606709003448486,
      0.15882711112499237,
      -0.08785486966371536,
      0.02271270751953125,
      0.23126891255378723,
      0.32671573758125305,
      -0.20373709499835968,
      0.4604509174823761,
      0.0322476364672184,
      0.18841472268104553,
      0.08690625429153442,
      -0.20495125651359558,
      -0.20997177064418793,
      0.2937689423561096,
      -0.2956084907054901,
      0.2022278904914856,
      0.1728273630142212,
      0.1211770549416542,
      -0.30214613676071167,
      -0.12352405488491058,
      0.5171356797218323,
      -0.26222923398017883,
      0.2204434871673584,
      -0.2622140645980835,
      -0.16982507705688477,
      -0.06965960562229156,
      0.07237254828214645,
      0.04270080849528313,
      -0.1201561912894249,
      -0.015193400904536247,
      0.2529297173023224,
      0.29395803809165955,
      -0.25101447105407715,
      0.11761119216680527,
      -0.11098453402519226,
      0.3116505444049835,
      0.21637298166751862,
      -0.6005011200904846,
      -0.21789181232452393,
      -0.09522442519664764,
      0.343630850315094,
      0.07713693380355835,
      0.16832561790943146,
      0.14950214326381683,
      -0.3241386115550995,
      0.11833377927541733,
      -0.1418621838092804,
      -0.06373707950115204,
      -0.03675530105829239,
      -0.4502675533294678,
      0.6202329993247986,
      0.2286231517791748,
      -0.02613731101155281,
      0.2410387098789215,
      -0.14310376346111298,
      0.05824677273631096,
      -0.16893211007118225,
      0.25310030579566956,
      -0.0602610744535923,
      0.5589759349822998,
      0.4253609776496887,
      0.051757991313934326,
      0.12612302601337433
    ],
    [
      -0.34891319274902344,
      -0.31040501594543457,
      -0.48793190717697144,
      0.2996893525123596,
      -0.4524795413017273,
      0.665894627571106,
      -0.4073953330516815,
      0.5199299454689026,
      0.45623815059661865,
      -0.17378823459148407,
      0.19014635682106018,
      0.10052737593650818,
      0.3512038588523865,
      0.13942186534404755,
      -0.026381677016615868,
      -0.26481449604034424,
      0.02691229246556759,
      -0.26047179102897644,
      0.5833537578582764,
      -0.24442532658576965,
      -0.08870366215705872,
      -0.04956918954849243,
      0.3154674470424652,
      0.17335405945777893,
      -0.19942814111709595,
      0.20813968777656555,
      -0.04654760658740997,
      -0.3925815224647522,
      -0.3506664037704468,
      -0.048770543187856674,
      -0.3798912465572357,
      0.04218973591923714,
      0.20051033794879913,
      -0.0009836778044700623,
      0.3706068694591522,
      0.6255919933319092,
      -0.444299578666687,
      0.2277093231678009,
      -0.06376761943101883,
      -0.054205190390348434,
      0.5415871739387512,
      -0.711999237537384,
      0.26513543725013733,
      -0.17246219515800476,
      -0.29606154561042786,
      0.4941674470901489,
      0.13530676066875458,
      -0.5007715225219727,
      0.3749709129333496,
      -0.21543768048286438,
      -0.10593675822019577,
      -0.23180685937404633,
      -0.2032388299703598,
      0.14587712287902832,
      -0.4749941825866699,
      0.42180535197257996,
      0.4436526596546173,
      0.07546478509902954,
      -0.4387410283088684,
      0.42348209023475647,
      0.015032908879220486,
      0.5021275877952576,
      -0.3024851381778717,
      -0.2736978232860565
    ],
    [
      0.24457001686096191,
      0.15746673941612244,
      -0.08267918229103088,
      0.08849067986011505,
      0.011833655647933483,
      0.09675750136375427,
      -0.1645345538854599,
      -0.03077642247080803,
      0.30197930335998535,
      0.20572738349437714,
      -0.44788920879364014,
      0.022409791126847267,
      0.6712256073951721,
      0.6006027460098267,
      -0.5302094221115112,
      0.039310965687036514,
      0.2557258903980255,
      -0.34670960903167725,
      -0.13131916522979736,
      -0.37577781081199646,
      -0.09380495548248291,
      -0.6071823239326477,
      0.02693938836455345,
      0.09600924700498581,
      0.2818607687950134,
      -0.16952280700206757,
      -0.22645246982574463,
      -0.030616583302617073,
      0.010926270857453346,
      0.020223749801516533,
      -0.18933160603046417,
      0.22272363305091858,
      0.04144791141152382,
      0.2943137586116791,
      0.09334199130535126,
      0.12057489156723022,
      -0.00026281180907972157,
      0.12721000611782074,
      0.15410751104354858,
      0.036730945110321045,
      0.20580072700977325,
      -0.10075055062770844,
      -0.19197675585746765,
      -0.33769139647483826,
      -0.1442790925502777,
      -0.0770735964179039,
      0.32071682810783386,
      0.12213622778654099,
      0.34420859813690186,
      0.06123039498925209,
      0.30892854928970337,
      -0.3294704556465149,
      -0.2975350618362427,
      -0.24045537412166595,
      -0.2557889521121979,
      -0.027258671820163727,
      0.09777084738016129,
      0.10087011754512787,
      0.0386885367333889,
      -0.3165210783481598,
      0.26522040367126465,
      -0.011221512220799923,
      -0.42574313282966614,
      -0.19622023403644562
    ],
    [
      0.18865112960338593,
      0.12839363515377045,
      0.04736723378300667,
      -0.21373838186264038,
      0.16550098359584808,
      -0.1394684612751007,
      0.4953654408454895,
      -0.2524838447570801,
      -0.20647111535072327,
      0.35172006487846375,
      -0.047664765268564224,
      -0.13014796376228333,
      -0.11448984593153,
      -0.5329837203025818,
      0.5015020966529846,
      0.1467113345861435,
      0.05981456860899925,
      0.32566580176353455,
      0.0010317489504814148,
      0.4927365779876709,
      0.24700404703617096,
      0.2597123086452484,
      0.19784660637378693,
      0.196227565407753,
      -0.008929233066737652,
      -0.15089043974876404,
      0.16454435884952545,
      0.32883766293525696,
      0.20675750076770782,
      -0.051041629165410995,
      -0.10762601345777512,
      -0.11018718034029007,
      -0.03113129921257496,
      -0.305986613035202,
      -0.2821371555328369,
      0.014328205026686192,
      -0.07747087627649307,
      -0.07141575217247009,
      -0.3575451374053955,
      0.008613022044301033,
      -0.39521321654319763,
      0.14460352063179016,
      -0.2937978208065033,
      0.22605431079864502,
      0.30564790964126587,
      -0.2824046313762665,
      -0.11793967336416245,
      0.3770291209220886,
      0.2607249319553375,
      -0.34148773550987244,
      0.13609816133975983,
      0.5362691283226013,
      -0.26064956188201904,
      -0.20991250872612,
      0.14034783840179443,
      -0.3355993330478668,
      -0.3526645600795746,
      -0.45904025435447693,
      0.24043938517570496,
      -0.3981730043888092,
      -0.3318468928337097,
      -0.0406217984855175,
      0.07231338322162628,
      0.36020269989967346
    ],
    [
      0.4129848778247833,
      0.15431369841098785,
      0.04899873957037926,
      -0.491487592458725,
      -0.34806644916534424,
      0.1006549820303917,
      0.354006290435791,
      0.26887083053588867,
      -0.10582615435123444,
      0.08798579126596451,
      -0.031239589676260948,
      -0.1312139630317688,
      -0.12779028713703156,
      -0.31226861476898193,
      0.25187522172927856,
      -0.18778809905052185,
      0.17849624156951904,
      0.285452663898468,
      -0.21799050271511078,
      -0.01659047231078148,
      0.31615719199180603,
      0.3002340793609619,
      -0.2606793940067291,
      0.1539861261844635,
      -0.38640934228897095,
      0.0566677562892437,
      -0.3732517659664154,
      0.20362789928913116,
      0.0027589884120970964,
      -0.3683614730834961,
      -0.07986587285995483,
      -0.056880224496126175,
      0.0025681699626147747,
      0.044272530823946,
      -0.35966265201568604,
      0.019793782383203506,
      0.11900954693555832,
      -0.32487839460372925,
      -0.01068606972694397,
      0.043637778609991074,
      -0.08780026435852051,
      -0.008192515932023525,
      0.21583938598632812,
      0.2839979827404022,
      0.23552705347537994,
      0.07682090997695923,
      0.11848660558462143,
      0.29812800884246826,
      0.25635436177253723,
      -0.024417288601398468,
      0.018992913886904716,
      0.48921436071395874,
      -0.1066044420003891,
      -0.1351546198129654,
      0.28280389308929443,
      0.023042157292366028,
      -0.43330860137939453,
      0.048856113106012344,
      0.3715118169784546,
      0.27735888957977295,
      0.08775673061609268,
      0.34875011444091797,
      0.1642574518918991,
      0.28088948130607605
    ],
    [
      0.2891775369644165,
      0.03318781033158302,
      -0.04616052284836769,
      -0.050592225044965744,
      -0.19795653223991394,
      0.2298583686351776,
      -0.004956986755132675,
      -0.05704084411263466,
      0.07497414201498032,
      0.49664807319641113,
      -0.11226262897253036,
      0.24785839021205902,
      -0.24884285032749176,
      -0.023088842630386353,
      0.5281772613525391,
      0.022539569064974785,
      0.06571675837039948,
      0.25241219997406006,
      -0.057671330869197845,
      0.009089915081858635,
      0.2856491804122925,
      0.32962745428085327,
      -0.34266698360443115,
      0.16493216156959534,
      -0.2896909713745117,
      -0.3176569938659668,
      -0.18123112618923187,
      0.2809799313545227,
      0.005171528551727533,
      -0.0012015776010230184,
      -0.06397663801908493,
      0.2311425656080246,
      0.3146590292453766,
      0.10098351538181305,
      -0.07360780984163284,
      -0.27303892374038696,
      -0.06517995148897171,
      0.26925820112228394,
      -0.22926220297813416,
      -0.1654055267572403,
      -0.5554659962654114,
      -0.042171187698841095,
      0.032767102122306824,
      0.18443013727664948,
      0.45856228470802307,
      -0.21692007780075073,
      -0.20273354649543762,
      -0.05290195345878601,
      0.060740742832422256,
      -0.1822504997253418,
      0.17744380235671997,
      0.1035812571644783,
      0.46460068225860596,
      -0.23459208011627197,
      0.46336716413497925,
      0.1481621414422989,
      -0.3048810660839081,
      -0.2843036949634552,
      0.051284950226545334,
      0.3310283124446869,
      -0.295031875371933,
      0.37670624256134033,
      0.0944574698805809,
      0.24769409000873566
    ],
    [
      -0.6014910340309143,
      -0.36277514696121216,
      -0.4401724934577942,
      0.48881590366363525,
      -0.204055517911911,
      -0.13955432176589966,
      -0.4107441008090973,
      -0.0649716705083847,
      -0.16849356889724731,
      -0.08374477922916412,
      -0.09757723659276962,
      0.05281858891248703,
      0.043559569865465164,
      0.4641798138618469,
      -0.2519291341304779,
      -0.18396399915218353,
      0.1440889686346054,
      -0.32918640971183777,
      0.03945944085717201,
      -0.25242191553115845,
      -0.4257737398147583,
      -0.4817844033241272,
      0.3096964955329895,
      -0.4902328550815582,
      0.1771520972251892,
      0.2799730896949768,
      0.04972640052437782,
      -0.47847047448158264,
      -0.2891359329223633,
      -0.2339942306280136,
      -0.3306785821914673,
      -0.13968907296657562,
      0.1525188684463501,
      -0.05262177065014839,
      0.4429527521133423,
      0.5032452940940857,
      0.27470698952674866,
      -0.08643099665641785,
      0.14584021270275116,
      0.22018837928771973,
      0.5221123695373535,
      -0.09246505051851273,
      0.0458962582051754,
      -0.43948596715927124,
      -0.46444132924079895,
      0.27432915568351746,
      0.24658545851707458,
      0.3005255460739136,
      0.09992383420467377,
      -0.10576727986335754,
      0.06787531822919846,
      -0.7756962180137634,
      0.3147852122783661,
      -0.15911221504211426,
      -0.3601815402507782,
      0.1204596608877182,
      0.677444338798523,
      0.48003435134887695,
      -0.17774248123168945,
      0.2836245596408844,
      -0.13344377279281616,
      -0.22282174229621887,
      -0.31995075941085815,
      0.1531282514333725
    ],
    [
      -0.25264376401901245,
      -0.12945090234279633,
      0.15321320295333862,
      -0.07413479685783386,
      0.16417180001735687,
      -0.22055557370185852,
      -0.11422069370746613,
      -0.19407109916210175,
      0.0692681297659874,
      -0.044187285006046295,
      -0.2579975426197052,
      -0.3356466293334961,
      -0.22810938954353333,
      0.3241625130176544,
      -0.5757408142089844,
      0.11026590317487717,
      0.07595953345298767,
      -0.29983437061309814,
      -0.12743520736694336,
      0.0840953066945076,
      -0.4255063235759735,
      -0.19102858006954193,
      0.5336207747459412,
      0.11620048433542252,
      -0.1073685809969902,
      0.24785131216049194,
      0.3674485683441162,
      0.19555091857910156,
      0.07815828919410706,
      0.17434777319431305,
      0.03839627653360367,
      -0.22555895149707794,
      0.0955006405711174,
      0.17107972502708435,
      -0.10896848142147064,
      -0.16996818780899048,
      0.03959598392248154,
      -0.1618419885635376,
      -0.27106973528862,
      0.20738787949085236,
      0.14206653833389282,
      0.096234992146492,
      -0.10193771868944168,
      -0.41827499866485596,
      -0.5535330772399902,
      0.34104490280151367,
      0.13421714305877686,
      -0.036809924989938736,
      -0.09326937794685364,
      0.07207100838422775,
      0.16196225583553314,
      -0.030937204137444496,
      0.03609200939536095,
      -0.06786487251520157,
      0.10837748646736145,
      -0.1400265246629715,
      0.1054890900850296,
      0.39342379570007324,
      -0.4453546404838562,
      -0.13497589528560638,
      -0.030225422233343124,
      0.1615782529115677,
      0.03886924684047699,
      -0.5022530555725098
    ],
    [
      0.20055332779884338,
      0.15913254022598267,
      0.32001081109046936,
      -0.34228548407554626,
      -0.4065207540988922,
      0.3190169930458069,
      0.12128902226686478,
      -0.056012991815805435,
      0.07530353218317032,
      0.3037039637565613,
      0.164484903216362,
      0.13919897377490997,
      -0.08459725230932236,
      -0.12443878501653671,
      0.5731977224349976,
      0.1124795600771904,
      0.18952667713165283,
      0.36016157269477844,
      -0.03414415195584297,
      0.09376633167266846,
      -0.10296561568975449,
      -0.0071274153888225555,
      -0.30517545342445374,
      0.43124014139175415,
      0.13450029492378235,
      0.15888887643814087,
      0.0616651214659214,
      -0.02048194780945778,
      0.1067608892917633,
      -0.10651259869337082,
      0.2637154161930084,
      -0.3317950367927551,
      -0.22212840616703033,
      -0.1688852608203888,
      -0.15930046141147614,
      -0.022236330434679985,
      -0.1659480333328247,
      0.050155069679021835,
      -0.14745527505874634,
      -0.326587438583374,
      -0.33133336901664734,
      -0.024756520986557007,
      0.04583467170596123,
      0.494924932718277,
      0.14959445595741272,
      -0.1768779307603836,
      0.34381353855133057,
      0.013051065616309643,
      0.23456013202667236,
      0.03238094225525856,
      0.01958475634455681,
      0.25238940119743347,
      0.08863455802202225,
      -0.19514025747776031,
      0.21657107770442963,
      -0.06155133247375488,
      -0.3062072694301605,
      -0.7265216112136841,
      -0.07491032779216766,
      0.11628840118646622,
      0.33559733629226685,
      -0.1413932889699936,
      0.19801858067512512,
      0.19236624240875244
    ],
    [
      -0.07489770650863647,
      0.028976822271943092,
      0.10364872962236404,
      0.14373508095741272,
      -0.26098141074180603,
      0.5858967304229736,
      -0.23300737142562866,
      0.5674912929534912,
      0.6679240465164185,
      -0.7379211187362671,
      0.7064380645751953,
      0.06943190097808838,
      0.3902285099029541,
      0.00567612936720252,
      -0.17257888615131378,
      -0.426177978515625,
      0.09637050330638885,
      -0.07571545988321304,
      0.6033990383148193,
      -0.05312279239296913,
      0.044303447008132935,
      -0.2517019212245941,
      -0.2707946002483368,
      -0.03459141403436661,
      -0.3526221215724945,
      0.23473767936229706,
      -0.29868608713150024,
      -0.3120993375778198,
      -0.17611028254032135,
      0.24690796434879303,
      -0.4495353698730469,
      0.3013061285018921,
      0.18678465485572815,
      0.3284071981906891,
      0.4128597676753998,
      0.23763632774353027,
      -0.22344879806041718,
      0.5062255263328552,
      -0.05583314970135689,
      0.19241832196712494,
      0.20136749744415283,
      -0.5633833408355713,
      0.264331191778183,
      -0.37864696979522705,
      -0.05195187032222748,
      -0.07470719516277313,
      0.4548565149307251,
      -0.23786596953868866,
      0.18221454322338104,
      -0.23048053681850433,
      -0.009723012335598469,
      0.24266654253005981,
      0.49370601773262024,
      -0.4131283462047577,
      -0.16875334084033966,
      0.33198562264442444,
      0.5607711672782898,
      0.24788519740104675,
      -0.5173604488372803,
      0.3247791528701782,
      0.2479553520679474,
      0.3076111376285553,
      -0.49809882044792175,
      0.20225748419761658
    ],
    [
      -0.10437953472137451,
      0.14643846452236176,
      0.35773250460624695,
      -0.24398818612098694,
      0.25145846605300903,
      0.05834360793232918,
      0.4039725959300995,
      -0.5262969136238098,
      -0.20580792427062988,
      0.13419432938098907,
      -0.4762710928916931,
      0.03207850828766823,
      -0.235359326004982,
      -0.38978326320648193,
      0.11661579459905624,
      0.08528155088424683,
      -0.0712360292673111,
      0.4137362539768219,
      -0.403550386428833,
      0.02639821544289589,
      0.19072508811950684,
      0.18887971341609955,
      0.10532039403915405,
      -0.20559075474739075,
      0.18978340923786163,
      -0.00892163347452879,
      -0.12614941596984863,
      0.05008259415626526,
      -0.054485075175762177,
      -0.05426555871963501,
      0.4795421063899994,
      -0.4196474254131317,
      0.06932418793439865,
      -0.2874264121055603,
      -0.27149152755737305,
      -0.2968634366989136,
      -0.189012348651886,
      0.026319390162825584,
      -0.04549413546919823,
      0.1697869598865509,
      -0.2978280186653137,
      -0.11079743504524231,
      0.0018743672408163548,
      0.0072074574418365955,
      0.4601574242115021,
      -0.10569236427545547,
      -0.2447228580713272,
      -0.2567080557346344,
      0.0032817767933011055,
      0.016948364675045013,
      0.10780507326126099,
      0.6503618359565735,
      -0.18415290117263794,
      -0.1632463037967682,
      0.4584229588508606,
      -0.28447699546813965,
      -0.4935681223869324,
      -0.5218704342842102,
      0.4366901218891144,
      -0.04991110414266586,
      -0.08187684416770935,
      -0.08732621371746063,
      0.13735827803611755,
      0.14067693054676056
    ],
    [
      -0.05463051050901413,
      0.03940080478787422,
      -0.36671391129493713,
      0.1535734385251999,
      -0.31396055221557617,
      -0.06665443629026413,
      -0.11342251300811768,
      -0.15665383636951447,
      -0.39173242449760437,
      0.007035695947706699,
      0.0786457285284996,
      -0.09626301378011703,
      0.317211776971817,
      0.45905616879463196,
      -0.06910520792007446,
      0.012420912273228168,
      -0.431057333946228,
      -0.055067356675863266,
      -0.02583671733736992,
      -0.22797386348247528,
      -0.3696081042289734,
      -0.3646465241909027,
      -0.16673122346401215,
      -0.07903575152158737,
      0.2919765114784241,
      0.014272747561335564,
      0.2248491793870926,
      -0.28922221064567566,
      0.15220285952091217,
      0.3704272508621216,
      -0.06885427236557007,
      -0.09448148310184479,
      0.016649382188916206,
      0.19436880946159363,
      -0.07191885262727737,
      -0.10223569720983505,
      0.10974536836147308,
      -0.36044982075691223,
      0.025018824264407158,
      0.2157844752073288,
      -0.1457124501466751,
      0.039691343903541565,
      -0.11037391424179077,
      -0.43185845017433167,
      -0.3259575068950653,
      0.03882458060979843,
      -0.058366648852825165,
      -0.02072114497423172,
      -0.03262699395418167,
      -0.2939380705356598,
      0.03298727050423622,
      -0.07991266995668411,
      -0.3358715772628784,
      -0.08811885863542557,
      -0.36587539315223694,
      0.1730237752199173,
      0.20465590059757233,
      0.26898103952407837,
      0.17938609421253204,
      -0.0951375663280487,
      0.04834379628300667,
      -0.11987316608428955,
      -0.013214276172220707,
      -0.20834839344024658
    ],
    [
      -0.04228286072611809,
      -0.13056698441505432,
      -0.1467777043581009,
      -0.2933029234409332,
      0.27177271246910095,
      0.16659265756607056,
      -0.08250874280929565,
      0.07744228839874268,
      -0.13327661156654358,
      -0.12803716957569122,
      0.19195739924907684,
      0.058282479643821716,
      -0.4055075943470001,
      0.03153170272707939,
      0.3416256606578827,
      0.24678026139736176,
      -0.19733676314353943,
      0.04381047934293747,
      0.34483492374420166,
      0.03763759136199951,
      0.10465418547391891,
      0.52911776304245,
      -0.1396341323852539,
      -0.15428844094276428,
      0.0119766341522336,
      0.42755037546157837,
      0.5853555798530579,
      0.2963177263736725,
      -0.06449617445468903,
      -0.10481660068035126,
      -0.10370306670665741,
      0.09333103150129318,
      0.19990861415863037,
      -0.328816294670105,
      0.055442072451114655,
      -0.18973694741725922,
      0.12867693603038788,
      -0.11175168305635452,
      0.06291165947914124,
      -0.040265318006277084,
      -0.1785126030445099,
      -0.491209477186203,
      -0.4006982445716858,
      0.18488797545433044,
      0.24620985984802246,
      0.5001869797706604,
      -0.12489596754312515,
      0.015549532137811184,
      0.20068113505840302,
      0.1538446545600891,
      -0.011353852227330208,
      0.3120442032814026,
      0.005144613329321146,
      0.18750354647636414,
      0.07901948690414429,
      0.17475526034832,
      -0.25190556049346924,
      0.07517530024051666,
      0.14589466154575348,
      -0.012556135654449463,
      -0.004205634351819754,
      -0.09672985970973969,
      -0.24599842727184296,
      0.22009365260601044
    ],
    [
      -0.28827017545700073,
      0.5033241510391235,
      -0.21715977787971497,
      0.014730595052242279,
      -0.07665098458528519,
      -0.13735197484493256,
      -0.08894215524196625,
      0.08618824928998947,
      -0.16732896864414215,
      0.4264211356639862,
      -0.43477651476860046,
      0.12194104492664337,
      0.4292137622833252,
      -0.014119903557002544,
      -0.4399760365486145,
      0.7304172515869141,
      0.12892842292785645,
      -0.0462593138217926,
      -0.13017411530017853,
      -0.26659661531448364,
      0.11121875047683716,
      -0.3647209405899048,
      0.3572976887226105,
      -0.004911909811198711,
      0.34052571654319763,
      -0.23537884652614594,
      0.004046609625220299,
      -0.014262634329497814,
      -0.10690397024154663,
      0.1983005255460739,
      0.19706963002681732,
      -0.008200500160455704,
      -0.28615984320640564,
      0.3457387387752533,
      -0.009029317647218704,
      -0.09561752527952194,
      0.25095659494400024,
      -0.16725674271583557,
      0.13744014501571655,
      0.1583937257528305,
      0.10615246742963791,
      0.06553961336612701,
      0.16330204904079437,
      -0.45040684938430786,
      -0.3180151879787445,
      -0.33917954564094543,
      0.1325208842754364,
      0.3900738060474396,
      0.11537440121173859,
      -0.13848736882209778,
      -0.13252975046634674,
      -0.05456977337598801,
      0.12945714592933655,
      0.47914642095565796,
      -0.26333087682724,
      -0.45134076476097107,
      0.24428480863571167,
      0.019153589382767677,
      0.22395063936710358,
      -0.0053815580904483795,
      -0.19886133074760437,
      -0.3741547763347626,
      0.10487061738967896,
      0.2202187180519104
    ],
    [
      -0.20174603164196014,
      -0.3043699562549591,
      -0.19401241838932037,
      0.3130935728549957,
      0.16696690022945404,
      0.206016406416893,
      0.07134561985731125,
      -0.1045163944363594,
      0.027817007154226303,
      -0.09964197129011154,
      -0.16111084818840027,
      -0.19546905159950256,
      0.08613796532154083,
      0.5156155228614807,
      -0.31970638036727905,
      -0.29330894351005554,
      -0.5693482756614685,
      -0.3678189516067505,
      -0.015958016738295555,
      0.06468192487955093,
      -0.003966555930674076,
      0.08283335715532303,
      0.3982788324356079,
      -0.21872910857200623,
      0.10447796434164047,
      0.0913664922118187,
      0.3234773874282837,
      -0.2706727683544159,
      -0.23088377714157104,
      0.013639062643051147,
      -0.11668814718723297,
      0.07583814859390259,
      -0.10580626130104065,
      0.5169720649719238,
      0.16830192506313324,
      -0.12544944882392883,
      0.4156518876552582,
      -0.024779563769698143,
      0.28148189187049866,
      0.08276430517435074,
      0.15096953511238098,
      0.04190876707434654,
      0.2781164348125458,
      -0.08363485336303711,
      -0.41635510325431824,
      0.24142152070999146,
      0.17476050555706024,
      -0.07635948807001114,
      0.38096877932548523,
      0.008549998514354229,
      0.03519175201654434,
      -0.3101104497909546,
      0.06128241494297981,
      -0.008454516530036926,
      -0.24589575827121735,
      -0.05347377806901932,
      0.2795807123184204,
      0.22835589945316315,
      -0.3658079504966736,
      -0.3946165442466736,
      -0.07648303359746933,
      -0.15645240247249603,
      0.2846839427947998,
      0.0023586549796164036
    ],
    [
      -0.26261794567108154,
      -0.21698306500911713,
      0.048214659094810486,
      0.4237109124660492,
      0.03362762928009033,
      -0.36345812678337097,
      -0.08530126512050629,
      -0.30078795552253723,
      0.05894249677658081,
      -0.1271081417798996,
      -0.1874590665102005,
      -0.30983248353004456,
      0.3913027048110962,
      0.22311453521251678,
      -0.3755181133747101,
      0.1445845067501068,
      -0.16577529907226562,
      -0.3689364194869995,
      0.03412129729986191,
      -0.14604218304157257,
      -0.4775938093662262,
      -0.1992417424917221,
      0.37777432799339294,
      -0.489579439163208,
      0.039502840489149094,
      0.35325953364372253,
      0.2102070301771164,
      -0.38551875948905945,
      0.36788517236709595,
      0.11089102178812027,
      0.028423970565199852,
      0.10331550985574722,
      0.10617880523204803,
      -0.004347613081336021,
      0.04481341689825058,
      -0.28361281752586365,
      0.19941292703151703,
      -0.10928051173686981,
      0.05448871850967407,
      -0.15953876078128815,
      0.31461021304130554,
      0.010117755271494389,
      0.11370399594306946,
      0.04704156517982483,
      -0.31853795051574707,
      -0.015939684584736824,
      0.11432284116744995,
      0.0606948658823967,
      0.10330639779567719,
      0.3768426775932312,
      0.06310580670833588,
      -0.09603990614414215,
      -0.19390183687210083,
      0.10610856860876083,
      -0.13996367156505585,
      0.2563749849796295,
      0.13521571457386017,
      0.3966656029224396,
      -0.46992290019989014,
      0.27128487825393677,
      -0.31987372040748596,
      -0.19554170966148376,
      -0.2347460240125656,
      0.2360617071390152
    ],
    [
      -0.784086287021637,
      -0.004738138057291508,
      -0.3702058494091034,
      -0.0931963101029396,
      0.03040742501616478,
      -0.2646976709365845,
      -0.36105307936668396,
      0.11416817456483841,
      0.043786779046058655,
      -0.09823448210954666,
      0.11650870740413666,
      0.20676372945308685,
      0.48315921425819397,
      0.6784431338310242,
      -0.2967240810394287,
      -0.12465567141771317,
      -0.03684107959270477,
      -0.5091185569763184,
      -0.03510089963674545,
      -0.03853602334856987,
      -0.2154092937707901,
      -0.021595008671283722,
      -0.2583257853984833,
      -0.040717702358961105,
      -0.11882249265909195,
      0.2880214750766754,
      -0.04726659879088402,
      -0.5493198037147522,
      -0.23246251046657562,
      0.3383442461490631,
      -0.2268749326467514,
      0.30539992451667786,
      0.06554599851369858,
      0.4458165764808655,
      0.3208688795566559,
      0.4867657423019409,
      -0.11333874613046646,
      -0.1904647946357727,
      -0.04490222781896591,
      -0.28353795409202576,
      0.5689760446548462,
      -0.49070417881011963,
      0.30145543813705444,
      -0.40500640869140625,
      -0.1480545848608017,
      0.13985760509967804,
      0.1531064212322235,
      0.12612466514110565,
      -0.007750310935080051,
      -0.380370169878006,
      0.08708903193473816,
      -0.4000404477119446,
      -0.2571302056312561,
      0.25345632433891296,
      -0.11270692199468613,
      0.1851356029510498,
      0.33391791582107544,
      0.4410841464996338,
      -0.48717832565307617,
      -0.010099509730935097,
      -0.16893889009952545,
      -0.2059580385684967,
      0.0636676698923111,
      0.11671662330627441
    ],
    [
      0.4952448606491089,
      0.4844711124897003,
      -0.11851025372743607,
      -0.23579250276088715,
      0.26828116178512573,
      -0.21176515519618988,
      0.26930513978004456,
      -0.16550123691558838,
      -0.066886305809021,
      0.39307206869125366,
      -0.08621864020824432,
      0.28746524453163147,
      -0.6484543681144714,
      -0.4998946487903595,
      0.24284806847572327,
      0.10307194292545319,
      0.04287845268845558,
      0.5722265839576721,
      -0.38096046447753906,
      0.5388067364692688,
      0.0901975929737091,
      0.30610063672065735,
      -0.01389904785901308,
      0.020521923899650574,
      -0.0360441692173481,
      0.08638896048069,
      -0.0657242089509964,
      0.0031606254633516073,
      0.29798734188079834,
      -0.3772047162055969,
      0.28130239248275757,
      -0.08049295842647552,
      -0.4015568494796753,
      -0.3970583975315094,
      -0.5165099501609802,
      -0.14604102075099945,
      0.2356487214565277,
      -0.003640343900769949,
      0.22952568531036377,
      0.16443562507629395,
      -0.46289169788360596,
      0.06748505681753159,
      -0.11334889382123947,
      0.21632950007915497,
      0.29411596059799194,
      -0.2954448461532593,
      -0.0037169766146689653,
      -0.4440072476863861,
      0.12399618327617645,
      0.07685510069131851,
      0.09969521313905716,
      0.359199583530426,
      0.05585888773202896,
      -0.04243006929755211,
      0.5191301703453064,
      0.009640977717936039,
      -0.2878144681453705,
      -0.3935788869857788,
      0.27104175090789795,
      -0.2802214026451111,
      -0.029966270551085472,
      0.029829908162355423,
      -0.06824369728565216,
      -0.038953233510255814
    ],
    [
      -0.4402044415473938,
      -0.12499471008777618,
      -0.06754790246486664,
      0.35983988642692566,
      -0.1616479903459549,
      -0.08690731972455978,
      -0.4312889873981476,
      -0.11526111513376236,
      0.14683197438716888,
      -0.4045310318470001,
      0.16411574184894562,
      -0.18765759468078613,
      -0.009702255949378014,
      0.6204957365989685,
      -0.7520596981048584,
      -0.012145165354013443,
      0.10155242681503296,
      -0.19973048567771912,
      -0.1603977084159851,
      -0.17248356342315674,
      -0.2267095446586609,
      -0.10874497145414352,
      0.12618842720985413,
      -0.415182888507843,
      0.46849676966667175,
      0.18770700693130493,
      -0.042590636759996414,
      -0.27976253628730774,
      0.11205001175403595,
      -0.1232084259390831,
      -0.2660011053085327,
      -0.06703123450279236,
      0.07968194037675858,
      0.31481271982192993,
      0.5815197229385376,
      0.07987255603075027,
      0.04505040869116783,
      -0.04365699365735054,
      0.12425629049539566,
      0.0539359487593174,
      0.0044302488677203655,
      -0.3858182430267334,
      0.18994858860969543,
      -0.1140844076871872,
      -0.42699897289276123,
      -0.04367335885763168,
      -0.20745854079723358,
      0.32868432998657227,
      0.3559131622314453,
      -0.3879547119140625,
      -0.0124272545799613,
      -0.3023046851158142,
      -0.09017908573150635,
      0.48142343759536743,
      -0.5831629037857056,
      0.03455819562077522,
      0.3380371928215027,
      0.4932582974433899,
      -0.31878069043159485,
      0.23062123358249664,
      -0.13078714907169342,
      -0.05619899928569794,
      -0.21131403744220734,
      -0.21158429980278015
    ],
    [
      0.2920791506767273,
      0.15054473280906677,
      -0.11215616762638092,
      0.6913166642189026,
      0.05167582258582115,
      -0.07403652369976044,
      -0.2842285633087158,
      0.11458282917737961,
      0.0535123385488987,
      0.18151575326919556,
      0.011376984417438507,
      -0.07163172960281372,
      0.6034174561500549,
      0.31459444761276245,
      -0.11371689289808273,
      -0.07983686774969101,
      0.06157590076327324,
      -0.08728168159723282,
      0.019738221541047096,
      0.1630028784275055,
      -0.30439311265945435,
      -0.14960427582263947,
      -0.007058265153318644,
      -0.2876760959625244,
      0.2477787584066391,
      0.1706506609916687,
      0.12398593127727509,
      0.04222647100687027,
      0.018344884738326073,
      0.015843361616134644,
      0.006521221250295639,
      0.09698045998811722,
      0.11690963804721832,
      0.38306358456611633,
      -0.027093254029750824,
      -0.08705617487430573,
      -0.25995177030563354,
      -0.26782336831092834,
      -0.11230224370956421,
      0.1179131269454956,
      0.531645655632019,
      -0.318575382232666,
      0.06786145269870758,
      -0.32868897914886475,
      -0.09342416375875473,
      0.11095423996448517,
      0.136416956782341,
      -0.08214112371206284,
      -0.25090742111206055,
      -0.18283981084823608,
      0.051060114055871964,
      -0.32263749837875366,
      0.13700881600379944,
      -0.01674029603600502,
      -0.26718971133232117,
      -0.5250877737998962,
      0.23711217939853668,
      0.1420380026102066,
      -0.17532742023468018,
      -0.02551247365772724,
      0.27214592695236206,
      0.16829989850521088,
      0.143281951546669,
      0.0005844678380526602
    ],
    [
      0.10311945527791977,
      0.035128600895404816,
      0.3032039701938629,
      -0.2162734717130661,
      -0.06121109053492546,
      -0.24802175164222717,
      0.35289523005485535,
      0.1405748724937439,
      -0.035299234092235565,
      0.20531706511974335,
      -0.23193609714508057,
      -0.07368118315935135,
      -0.37006738781929016,
      -0.3580482006072998,
      0.4548903703689575,
      0.0831025168299675,
      -0.17914071679115295,
      0.4381413161754608,
      -0.2427239567041397,
      0.4482499063014984,
      0.1522558480501175,
      0.11129716038703918,
      -0.11439713090658188,
      -0.022819485515356064,
      -0.04809100180864334,
      -0.2497379034757614,
      0.123309426009655,
      0.3430366516113281,
      0.2056916505098343,
      -0.34341883659362793,
      0.44548532366752625,
      0.11352533102035522,
      -0.1315440833568573,
      -0.5128328204154968,
      -0.139678493142128,
      -0.31277477741241455,
      0.20749248564243317,
      -0.08052416145801544,
      -0.21739472448825836,
      -0.0684882253408432,
      -0.6823893785476685,
      0.12079713493585587,
      0.10218719393014908,
      0.06678891181945801,
      0.6804975271224976,
      -0.08330970257520676,
      0.22636669874191284,
      0.10651177912950516,
      0.07093537598848343,
      0.35679060220718384,
      0.014630249701440334,
      0.3724682927131653,
      0.004200765863060951,
      0.06290276348590851,
      0.327902227640152,
      -0.2237996608018875,
      -0.5610296726226807,
      -0.36517611145973206,
      0.383597731590271,
      -0.17680495977401733,
      0.10811983793973923,
      0.09476591646671295,
      0.06085515394806862,
      -0.4232502579689026
    ],
    [
      0.22210316359996796,
      -0.10623711347579956,
      -0.2896464169025421,
      -0.35279127955436707,
      0.27882710099220276,
      0.2411651313304901,
      -0.012658839114010334,
      -0.26000913977622986,
      -0.19412441551685333,
      0.3395549952983856,
      0.18303802609443665,
      0.15654157102108002,
      -0.03380896896123886,
      -0.17103323340415955,
      0.2551872432231903,
      0.47016242146492004,
      -0.23256585001945496,
      0.08927030116319656,
      -0.2947479784488678,
      0.29779672622680664,
      0.40114372968673706,
      0.16019384562969208,
      0.257416307926178,
      0.26203757524490356,
      -0.028436055406928062,
      -0.2633248567581177,
      0.08740371465682983,
      -0.27641555666923523,
      0.5197479724884033,
      -0.26870250701904297,
      -0.04002634808421135,
      -0.07691360265016556,
      -0.041339240968227386,
      -0.18362940847873688,
      0.29812878370285034,
      -0.09134384244680405,
      -0.17205271124839783,
      -0.5449694991111755,
      0.023722771555185318,
      -0.06217383220791817,
      -0.0822032243013382,
      0.09567375481128693,
      0.0724867731332779,
      0.25932878255844116,
      0.4694904088973999,
      0.07247518002986908,
      -0.08778779953718185,
      0.1313025951385498,
      -0.11812125146389008,
      0.09922686219215393,
      -0.043079923838377,
      0.24980023503303528,
      -0.0706697329878807,
      -0.2161901295185089,
      0.22305555641651154,
      -0.32829639315605164,
      -0.10773575305938721,
      -0.017127858474850655,
      0.20301553606987,
      0.014684119261801243,
      -0.04087011143565178,
      0.11211474984884262,
      0.06294453889131546,
      -0.12399645149707794
    ],
    [
      -0.08403058350086212,
      -0.025149034336209297,
      -0.14801229536533356,
      -0.11958824098110199,
      0.26493382453918457,
      -0.627253532409668,
      -0.07756951451301575,
      -0.32342907786369324,
      -0.610863983631134,
      0.29265525937080383,
      -0.30211716890335083,
      -0.27908167243003845,
      0.007253761403262615,
      -0.12724295258522034,
      0.1942226141691208,
      0.7120744585990906,
      -0.16845880448818207,
      -0.006914590019732714,
      -0.475687712430954,
      -0.2629927396774292,
      0.047279831022024155,
      0.23866629600524902,
      0.2248939871788025,
      -0.4021398425102234,
      0.21004445850849152,
      -0.02713995799422264,
      -0.031698357313871384,
      0.6623820662498474,
      0.288886696100235,
      -0.02691420167684555,
      0.24217043817043304,
      -0.1023644208908081,
      -0.3855409622192383,
      0.13941088318824768,
      0.24862180650234222,
      0.07815178483724594,
      0.24675166606903076,
      -0.1978185623884201,
      0.06140013039112091,
      0.2357364445924759,
      -0.26719728112220764,
      0.28219106793403625,
      0.20635737478733063,
      -0.13862907886505127,
      0.14576846361160278,
      -0.07454682886600494,
      0.23738306760787964,
      0.044038478285074234,
      -0.05254700779914856,
      0.1673354208469391,
      0.13524684309959412,
      -0.036221545189619064,
      -0.4222847521305084,
      -0.16590319573879242,
      0.15965598821640015,
      -0.35835322737693787,
      -0.1286657601594925,
      -0.16867412626743317,
      0.10955452919006348,
      -0.3692384362220764,
      -0.32133540511131287,
      -0.49386727809906006,
      0.3360404968261719,
      -0.12184453010559082
    ],
    [
      -0.03239309787750244,
      -0.04532140865921974,
      -0.15006308257579803,
      0.4156966805458069,
      -0.14799092710018158,
      -0.039469361305236816,
      -0.29704010486602783,
      0.09855306893587112,
      0.08606654405593872,
      -0.32760921120643616,
      0.2611945569515228,
      -0.04187735542654991,
      0.16476210951805115,
      0.5929765701293945,
      0.18843503296375275,
      -0.5351415276527405,
      0.1827143281698227,
      -0.6688371896743774,
      0.2410968691110611,
      -0.017228439450263977,
      0.05241946876049042,
      -0.16710200905799866,
      0.30407434701919556,
      0.1774693876504898,
      0.032545145601034164,
      0.12982246279716492,
      -0.07914131134748459,
      -0.0712943747639656,
      -0.2563551962375641,
      0.38737979531288147,
      0.16295139491558075,
      -0.07628588378429413,
      0.1015525609254837,
      0.19887252151966095,
      0.5662896037101746,
      0.3566589057445526,
      -0.00730533292517066,
      0.13184618949890137,
      0.26435738801956177,
      -0.059640202671289444,
      0.6033965349197388,
      -0.14543192088603973,
      0.20809614658355713,
      -0.351261705160141,
      -0.2907673418521881,
      -0.17724718153476715,
      0.0023609648924320936,
      0.10683149844408035,
      0.2442460060119629,
      -0.11149905622005463,
      0.08753260225057602,
      -0.017460182309150696,
      0.2690621614456177,
      0.1707802414894104,
      -0.18025237321853638,
      0.3441079258918762,
      0.17942868173122406,
      0.3891989588737488,
      -0.21144185960292816,
      0.33567067980766296,
      0.12255196273326874,
      0.06513452529907227,
      -0.33494943380355835,
      -0.13160482048988342
    ],
    [
      -0.4592127203941345,
      -0.050087764859199524,
      -0.05827788636088371,
      0.023842785507440567,
      0.1065693199634552,
      0.15005601942539215,
      -0.6263067126274109,
      0.002903866348788142,
      0.08832582831382751,
      -0.26975223422050476,
      0.05309077724814415,
      -0.10387301445007324,
      0.2764268219470978,
      0.4395821988582611,
      -0.30203917622566223,
      -0.620295524597168,
      -0.18161773681640625,
      -0.18092593550682068,
      0.16741430759429932,
      0.04037269204854965,
      -0.5370649099349976,
      -0.29095369577407837,
      -0.13178060948848724,
      0.027889741584658623,
      -0.12113666534423828,
      0.2216464728116989,
      0.021963903680443764,
      -0.10629380494356155,
      -0.02569824457168579,
      0.09239190071821213,
      0.11682458221912384,
      0.3102577328681946,
      0.12483170628547668,
      0.2958309054374695,
      0.2964591085910797,
      0.31180188059806824,
      0.03697020187973976,
      0.546836256980896,
      0.19796499609947205,
      0.4495196044445038,
      0.3054247498512268,
      -0.20086297392845154,
      0.016034074127674103,
      0.04101685434579849,
      -0.6059077382087708,
      -0.013003412634134293,
      0.2258116602897644,
      0.16817964613437653,
      0.04355258122086525,
      -0.10970327258110046,
      -0.16609399020671844,
      -0.2414674162864685,
      0.12844720482826233,
      0.03746061772108078,
      -0.27527451515197754,
      -0.1476210504770279,
      0.3946765065193176,
      0.2969920039176941,
      0.14232896268367767,
      0.5092189311981201,
      -0.15428082644939423,
      0.15390925109386444,
      -0.3775250017642975,
      -0.010177518241107464
    ],
    [
      -0.23693282902240753,
      0.011595096439123154,
      0.03275008127093315,
      0.23822614550590515,
      -0.03446574881672859,
      0.10904664546251297,
      -0.09645796567201614,
      -0.2635350823402405,
      0.2350205034017563,
      -0.2933775782585144,
      -0.10319414734840393,
      0.1764989197254181,
      -0.03953920677304268,
      0.1642543524503708,
      -0.0979551151394844,
      0.0955527052283287,
      -0.023368805646896362,
      -0.38999778032302856,
      -0.037626441568136215,
      -0.0385516993701458,
      -0.5509960055351257,
      -0.3811173737049103,
      0.1510966718196869,
      0.10214462131261826,
      0.09584514051675797,
      -0.24120274186134338,
      -0.40545088052749634,
      -0.004951836075633764,
      0.18981805443763733,
      0.24745124578475952,
      -0.19517385959625244,
      -0.1766178011894226,
      -0.04373938962817192,
      0.622750461101532,
      0.07776128500699997,
      0.03212256729602814,
      0.31195732951164246,
