{
  "mlp_extractor.policy_net.0.weight": [
    [
      0.13339591026306152,
      0.10498926043510437,
      -0.1453186571598053,
      0.21343763172626495,
      0.1519438773393631,
      0.026339611038565636,
      -0.17431986331939697,
      -0.507841169834137,
      0.16192685067653656,
      0.34584882855415344,
      -0.44642823934555054,
      0.11982792615890503
    ],
    [
      0.09537237882614136,
      -0.15438157320022583,
      -0.22314682602882385,
      0.5826854109764099,
      0.27127400040626526,
      0.16118989884853363,
      -0.22373943030834198,
      -0.21501389145851135,
      0.13433563709259033,
      -0.03418999910354614,
      -0.30530497431755066,
      0.27426210045814514
    ],
    [
      -0.2096577286720276,
      0.09437420219182968,
      -0.10349620878696442,
      -0.2511598765850067,
      0.19090163707733154,
      -0.21838824450969696,
      0.45035699009895325,
      -0.09807557612657547,
      -0.45801448822021484,
      -0.009959246963262558,
      0.40815022587776184,
      -0.0012955601559951901
    ],
    [
      0.4863487184047699,
      -0.08222082257270813,
      0.2970464527606964,
      0.06998420506715775,
      0.08933144807815552,
      0.044729240238666534,
      -0.2125178426504135,
      -0.14411726593971252,
      -0.05702848359942436,
      0.023947546258568764,
      -0.532825767993927,
      0.3690474331378937
    ],
    [
      0.33249565958976746,
      -0.03320346027612686,
      -0.36113089323043823,
      -0.0005564352031797171,
      -0.08618908375501633,
      -0.33237704634666443,
      -0.07644302397966385,
      0.23942844569683075,
      0.438605397939682,
      -0.09143422544002533,
      -0.25848859548568726,
      -0.09745192527770996
    ],
    [
      -0.2551106810569763,
      0.024857426062226295,
      0.07129130512475967,
      0.23269781470298767,
      0.11780627071857452,
      -0.36228758096694946,
      0.29995298385620117,
      -0.08618628233671188,
      -0.49761056900024414,
      -0.7766331434249878,
      0.10548413544893265,
      -0.3892049193382263
    ],
    [
      -0.09050562977790833,
      -0.0477062463760376,
      0.014427043497562408,
      0.02551734447479248,
      -0.05375133454799652,
      0.16029056906700134,
      -0.2573263347148895,
      -0.4783833622932434,
      0.05860977992415428,
      0.37298595905303955,
      0.20582100749015808,
      0.19382794201374054
    ],
    [
      0.11783342808485031,
      0.042756445705890656,
      -0.1704169511795044,
      0.18594211339950562,
      -0.02714434638619423,
      -0.1980278640985489,
      -0.5989121198654175,
      -0.025179436430335045,
      0.2499411702156067,
      0.49811428785324097,
      0.06377719342708588,
      0.36510586738586426
    ],
    [
      -0.04063229262828827,
      0.10451503843069077,
      0.2052639126777649,
      0.28040575981140137,
      0.09530009329319,
      -0.18014119565486908,
      0.15594938397407532,
      -0.019336123019456863,
      -0.08567019551992416,
      -0.5152594447135925,
      0.13727237284183502,
      -0.35772785544395447
    ],
    [
      0.024335721507668495,
      -0.3361958861351013,
      0.09490618109703064,
      0.4990120828151703,
      -0.44995880126953125,
      0.07751128822565079,
      -0.3562086522579193,
      -0.18529464304447174,
      0.37805622816085815,
      -0.1766321212053299,
      -0.06553561985492706,
      0.6085090041160583
    ],
    [
      0.17358846962451935,
      -0.3955284655094147,
      0.2432297170162201,
      0.4019775986671448,
      -0.38933756947517395,
      -0.4413662552833557,
      0.016091156750917435,
      0.11050021648406982,
      0.29853230714797974,
      0.26700955629348755,
      -0.22709915041923523,
      0.05574078857898712
    ],
    [
      0.2436024695634842,
      0.296091765165329,
      0.06372696161270142,
      -0.02162604033946991,
      0.06772579997777939,
      -0.07400839030742645,
      0.12094844877719879,
      0.650591254234314,
      -0.2789478600025177,
      -0.5739061236381531,
      0.41540616750717163,
      -0.33451974391937256
    ],
    [
      -0.04001433402299881,
      -0.03978154808282852,
      -0.06795062869787216,
      -0.1804170310497284,
      -0.2947125732898712,
      -0.5572535395622253,
      0.16505032777786255,
      0.38924315571784973,
      0.03228931874036789,
      0.5512984395027161,
      -0.2828018367290497,
      -0.2805772125720978
    ],
    [
      -0.21392722427845,
      -0.05667683854699135,
      -0.08681552112102509,
      -0.07579905539751053,
      -0.3830731213092804,
      -0.19554714858531952,
      -0.4230906367301941,
      0.5745523571968079,
      0.007391272112727165,
      -0.215142160654068,
      -0.020721906796097755,
      0.030494583770632744
    ],
    [
      -0.011916902847588062,
      -0.4581336975097656,
      0.0740167424082756,
      -0.32947543263435364,
      0.007002810947597027,
      0.059895649552345276,
      -0.23779436945915222,
      -0.2316475808620453,
      0.037160541862249374,
      0.323577880859375,
      0.1565050184726715,
      -0.4314074218273163
    ],
    [
      0.28959891200065613,
      0.25877174735069275,
      0.06749983131885529,
      0.003944592550396919,
      0.15721380710601807,
      -0.007429360877722502,
      0.3104443848133087,
      0.2597522735595703,
      -0.15149147808551788,
      -0.11114083975553513,
      0.036443378776311874,
      -0.5208598375320435
    ],
    [
      -0.15426428616046906,
      0.014013958163559437,
      -0.11912548542022705,
      -0.03225633129477501,
      0.34013795852661133,
      -0.07127798348665237,
      0.6952157020568848,
      0.2526857256889343,
      -0.13160721957683563,
      -0.2228049635887146,
      0.020097477361559868,
      -0.10371667891740799
    ],
    [
      -0.2364303469657898,
      -0.1582990288734436,
      -0.1710498332977295,
      0.053891539573669434,
      0.035125069320201874,
      0.1261359602212906,
      0.16907478868961334,
      0.30316874384880066,
      -0.020422829315066338,
      -0.2578194737434387,
      0.08399796485900879,
      -0.1655658781528473
    ],
    [
      -0.07948324829339981,
      -0.1256629377603531,
      -0.4276503920555115,
      0.27254045009613037,
      0.08576124161481857,
      0.07275047898292542,
      -0.08190067112445831,
      -0.2263265997171402,
      -0.18454566597938538,
      0.02573014609515667,
      0.05293260142207146,
      0.4208592474460602
    ],
    [
      -0.041223593056201935,
      -0.16123613715171814,
      -0.09738802164793015,
      -0.4584011137485504,
      -0.05661262944340706,
      0.030931411311030388,
      0.48024529218673706,
      -0.12067467719316483,
      -0.03544945269823074,
      0.3895394206047058,
      0.032535482197999954,
      0.04019457846879959
    ],
    [
      -0.18009091913700104,
      0.016698675230145454,
      0.09203048050403595,
      -0.3992091417312622,
      -0.022160109132528305,
      0.03310703858733177,
      0.4757218360900879,
      0.25125399231910706,
      -0.17072604596614838,
      -0.06401552259922028,
      0.36599165201187134,
      -0.2085128128528595
    ],
    [
      0.0917324498295784,
      0.14485222101211548,
      -0.10350239276885986,
      -0.2814944088459015,
      0.06140107661485672,
      -0.4302271902561188,
      0.31101083755493164,
      -0.04380371421575546,
      0.18369631469249725,
      0.13136284053325653,
      0.29858794808387756,
      -0.04158317297697067
    ],
    [
      0.27709415555000305,
      -0.06748662143945694,
      0.04854216054081917,
      -0.10852628201246262,
      -0.43474361300468445,
      -0.4028351902961731,
      -0.18860168755054474,
      0.3976294994354248,
      0.37276503443717957,
      0.36884719133377075,
      -0.23430097103118896,
      0.11374067515134811
    ],
    [
      -0.13919109106063843,
      0.05807001143693924,
      -0.30437609553337097,
      -0.5842834115028381,
      -0.1958627551794052,
      -0.47258663177490234,
      0.04706010967493057,
      0.12168411165475845,
      -0.128393292427063,
      0.2712048590183258,
      -0.09429428726434708,
      -0.4130387008190155
    ],
    [
      0.1688825637102127,
      -0.184520423412323,
      0.19461002945899963,
      0.32575881481170654,
      0.21270760893821716,
      -0.25382888317108154,
      -0.3010348677635193,
      0.2139924317598343,
      0.40036100149154663,
      0.053666163235902786,
      -0.04080469161272049,
      0.3701503574848175
    ],
    [
      0.0787324532866478,
      0.3270719349384308,
      -0.033563945442438126,
      -0.08145750313997269,
      0.01713564619421959,
      0.16433940827846527,
      0.21896882355213165,
      0.23418603837490082,
      -0.3908653259277344,
      -0.045358601957559586,
      0.14001676440238953,
      -0.37392663955688477
    ],
    [
      -0.048672374337911606,
      0.09332399815320969,
      -0.051096200942993164,
      -0.20855168998241425,
      0.10003858804702759,
      -0.13727472722530365,
      0.37678974866867065,
      0.10824272036552429,
      0.10443028807640076,
      -0.14250372350215912,
      0.24326319992542267,
      -0.13628971576690674
    ],
    [
      0.13177593052387238,
      0.17893080413341522,
      -0.17270272970199585,
      0.03989024832844734,
      -0.16145773231983185,
      0.13631029427051544,
      0.36006227135658264,
      -0.6126841306686401,
      0.3668406307697296,
      0.4508865773677826,
      0.016962433233857155,
      0.412687212228775
    ],
    [
      -0.10888877511024475,
      0.3668532371520996,
      0.2485162913799286,
      0.19390366971492767,
      -0.39355000853538513,
      -0.048091236501932144,
      -0.13670291006565094,
      0.1879081428050995,
      -0.18063266575336456,
      -0.533560037612915,
      0.13363447785377502,
      -0.21041248738765717
    ],
    [
      0.3514573276042938,
      -0.2399711012840271,
      -0.007066313177347183,
      0.05101315677165985,
      -0.025477144867181778,
      0.02491387352347374,
      0.22343209385871887,
      -0.2550080716609955,
      0.2602043151855469,
      0.23725974559783936,
      -0.05600310489535332,
      0.16762322187423706
    ],
    [
      -0.1529243141412735,
      0.03360537439584732,
      -0.337482213973999,
      -0.04063485190272331,
      0.3178882598876953,
      -0.03671300783753395,
      0.2961152493953705,
      0.17605425417423248,
      -0.2042846977710724,
      -0.40036216378211975,
      0.47592392563819885,
      -0.06814735382795334
    ],
    [
      0.6143978238105774,
      -0.10916458070278168,
      -0.23870082199573517,
      -0.00030454169609583914,
      -0.43149444460868835,
      -0.23982180655002594,
      -0.3277791738510132,
      -0.0067402636632323265,
      0.13125218451023102,
      -0.05850757658481598,
      -0.0012483446625992656,
      0.23407502472400665
    ],
    [
      0.04030388593673706,
      0.12890945374965668,
      0.12548375129699707,
      0.60307377576828,
      -0.06047794967889786,
      -0.22818748652935028,
      -0.3117254972457886,
      0.2296362668275833,
      0.28778722882270813,
      0.22310444712638855,
      -0.041458845138549805,
      0.39352917671203613
    ],
    [
      0.014878868125379086,
      0.11047770828008652,
      -0.06793048977851868,
      0.2702217698097229,
      0.36597344279289246,
      0.23371022939682007,
      0.25316715240478516,
      -0.11566638946533203,
      -0.1224735677242279,
      -0.10198241472244263,
      0.2205021232366562,
      -0.22893761098384857
    ],
    [
      0.023417171090841293,
      -0.2654794752597809,
      -0.06720749288797379,
      -0.1483711451292038,
      -0.27144086360931396,
      0.25443699955940247,
      0.005807721056044102,
      -0.3771776854991913,
      0.4106367528438568,
      0.16587235033512115,
      0.07757197320461273,
      0.14116144180297852
    ],
    [
      0.19860439002513885,
      -0.1365417242050171,
      -0.201960951089859,
      0.20742380619049072,
      -0.21343141794204712,
      0.0060850391164422035,
      -0.27818605303764343,
      -0.5064083337783813,
      -0.27376052737236023,
      0.4366154670715332,
      -0.11013276129961014,
      -0.12636707723140717
    ],
    [
      0.3627398908138275,
      0.03361206129193306,
      -0.0825626403093338,
      -0.16121166944503784,
      0.17449384927749634,
      0.03769133985042572,
      -0.39667609333992004,
      -0.34960508346557617,
      -0.06259763985872269,
      0.007197809871286154,
      -0.2341361939907074,
      0.48911920189857483
    ],
    [
      -0.033628590404987335,
      -0.2304162234067917,
      -0.38607552647590637,
      -0.12317097187042236,
      -0.07683897763490677,
      -0.07710512727499008,
      -0.07663287222385406,
      0.056639786809682846,
      0.10592687129974365,
      0.5539742112159729,
      -0.019752083346247673,
      -0.4671385884284973
    ],
    [
      -0.24828296899795532,
      0.14379623532295227,
      0.2577563226222992,
      0.03521173074841499,
      0.06707234680652618,
      -0.36456409096717834,
      -0.15441665053367615,
      0.34710693359375,
      -0.13904432952404022,
      -0.012645997107028961,
      0.03890015929937363,
      0.04749559611082077
    ],
    [
      0.3069151043891907,
      0.06499135494232178,
      0.07092516124248505,
      0.038626428693532944,
      -0.007148018106818199,
      -0.21543526649475098,
      -0.35719361901283264,
      0.3421323895454407,
      0.46742668747901917,
      -0.10710694640874863,
      -0.23552244901657104,
      -0.2883636951446533
    ],
    [
      0.03124075010418892,
      0.14877167344093323,
      -0.14358916878700256,
      0.030933242291212082,
      0.15454231202602386,
      -0.1600082516670227,
      0.22900454699993134,
      0.27492669224739075,
      0.1251194030046463,
      -0.65575110912323,
      -0.005179396830499172,
      -0.30685970187187195
    ],
    [
      0.402995228767395,
      -0.29777270555496216,
      -0.054931771010160446,
      -0.12738730013370514,
      0.22893685102462769,
      -0.05586937442421913,
      -0.09320460259914398,
      -0.2154567688703537,
      0.3298959732055664,
      0.30227959156036377,
      -0.1078571230173111,
      -0.03702590987086296
    ],
    [
      -0.004397285170853138,
      -0.14689786732196808,
      -0.27843326330184937,
      0.15380635857582092,
      -0.22920529544353485,
      -0.19090457260608673,
      -0.11027702689170837,
      -0.2583617568016052,
      0.49378490447998047,
      0.19616106152534485,
      -0.2926337420940399,
      -0.03839096799492836
    ],
    [
      -0.2982728183269501,
      -0.11595933139324188,
      0.08546241372823715,
      -0.07926222681999207,
      0.23854611814022064,
      -0.09619558602571487,
      0.5585028529167175,
      -0.2717638909816742,
      0.005544796120375395,
      0.046295467764139175,
      0.3176901340484619,
      -0.26227229833602905
    ],
    [
      -0.05412345379590988,
      -0.09889321774244308,
      0.07661547511816025,
      0.12865476310253143,
      0.38424623012542725,
      0.06316439807415009,
      0.12498261034488678,
      -0.36059433221817017,
      -0.4899134933948517,
      0.3596845269203186,
      0.2862611413002014,
      -0.26932328939437866
    ],
    [
      -0.17792357504367828,
      0.24610430002212524,
      0.15716983377933502,
      -0.2745871841907501,
      0.07954338192939758,
      0.18729360401630402,
      -0.004244812298566103,
      0.09814446419477463,
      -0.2503775954246521,
      -0.23092150688171387,
      0.19897142052650452,
      -0.2617200016975403
    ],
    [
      0.09789439290761948,
      0.39413782954216003,
      -0.03330899029970169,
      0.5813409090042114,
      -0.11784426122903824,
      0.2635246217250824,
      -0.4983961284160614,
      -0.13343583047389984,
      0.09885840117931366,
      -0.3207281827926636,
      -0.08724010735750198,
      0.3581942319869995
    ],
    [
      -0.14952778816223145,
      0.16605646908283234,
      -0.06520143896341324,
      -0.2081119269132614,
      0.3196762800216675,
      -0.39627525210380554,
      0.34747737646102905,
      0.0119492681697011,
      -0.1350151151418686,
      -0.49235737323760986,
      -0.09977629035711288,
      -0.21593494713306427
    ],
    [
      0.029866620898246765,
      -0.1733006089925766,
      -0.15477490425109863,
      -0.255258172750473,
      0.04386904463171959,
      0.2931598722934723,
      0.6513596177101135,
      -0.10257796943187714,
      0.10304325073957443,
      0.5903221964836121,
      0.16565941274166107,
      -0.2152584344148636
    ],
    [
      -0.01941504515707493,
      -0.3967735469341278,
      -0.15267451107501984,
      0.3123607635498047,
      -0.15927045047283173,
      0.05307164788246155,
      -0.23281864821910858,
      0.04789416119456291,
      0.26081031560897827,
      0.09889977425336838,
      -0.6076502799987793,
      0.43248113989830017
    ],
    [
      -0.08830193430185318,
      -0.20582695305347443,
      0.16744090616703033,
      -0.2815279960632324,
      0.18587876856327057,
      -0.10930170118808746,
      -0.06464911252260208,
      -0.02195064164698124,
      -0.05740169808268547,
      0.5503523349761963,
      -0.008565419353544712,
      -0.05483647808432579
    ],
    [
      -0.3517392575740814,
      0.33357512950897217,
      0.17878389358520508,
      0.024647388607263565,
      0.1926582008600235,
      -0.22839586436748505,
      0.3531950116157532,
      0.08038913458585739,
      -0.3469928801059723,
      -0.10601088404655457,
      0.13427849113941193,
      -0.1674395352602005
    ],
    [
      0.23433463275432587,
      -0.11101048439741135,
      0.22804027795791626,
      0.5001623034477234,
      -0.12837514281272888,
      0.03883083537220955,
      0.04473443329334259,
      -0.09511524438858032,
      0.004499596077948809,
      -0.07077698409557343,
      -0.054371632635593414,
      0.6306978464126587
    ],
    [
      -0.3748772144317627,
      -0.09537242352962494,
      0.1767585575580597,
      -0.47308236360549927,
      0.07352229952812195,
      0.015926102176308632,
      0.3792591094970703,
      -0.40545567870140076,
      -0.04049975797533989,
      0.3583286702632904,
      0.12411259114742279,
      -0.30298078060150146
    ],
    [
      -0.351243257522583,
      0.27776288986206055,
      0.028807712718844414,
      -0.21325424313545227,
      0.20786863565444946,
      0.383953332901001,
      0.2445676028728485,
      0.2515362799167633,
      -0.29025915265083313,
      -0.18458950519561768,
      -0.25304675102233887,
      -0.33166852593421936
    ],
    [
      -0.03515256941318512,
      -0.022453995421528816,
      -0.003541827667504549,
      -0.12215791642665863,
      -0.16989129781723022,
      -0.5117695927619934,
      0.11999136954545975,
      0.45566511154174805,
      0.36976858973503113,
      -0.07452159374952316,
      0.11911077797412872,
      -0.3593743145465851
    ],
    [
      -0.35642126202583313,
      0.3119911551475525,
      -0.12057137489318848,
      0.12990599870681763,
      -0.199791818857193,
      -0.195967897772789,
      0.13956379890441895,
      0.24465256929397583,
      -0.2584632635116577,
      -0.09458575397729874,
      -0.1307997703552246,
      -0.25227418541908264
    ],
    [
      -0.08300551772117615,
      0.20595106482505798,
      0.4360469579696655,
      -0.08030318468809128,
      0.15029335021972656,
      -0.21055594086647034,
      -0.1678835153579712,
      0.2082655429840088,
      0.03228038176894188,
      -0.461681067943573,
      -0.19311299920082092,
      0.06740668416023254
    ],
    [
      -0.020371168851852417,
      0.08021490275859833,
      0.027093367651104927,
      -0.024337971583008766,
      -0.045501627027988434,
      -0.1357150822877884,
      -0.0034035632852464914,
      0.14147645235061646,
      -0.14925527572631836,
      0.5547903776168823,
      -0.0017516629304736853,
      -0.13050593435764313
    ],
    [
      0.18736296892166138,
      0.2794978618621826,
      0.03431541100144386,
      0.1493324488401413,
      -0.023299342021346092,
      -0.0896751657128334,
      -0.055328402668237686,
      0.29180070757865906,
      -0.3728936016559601,
      -0.2348095327615738,
      -0.0515202060341835,
      0.2063656449317932
    ],
    [
      0.16744226217269897,
      -0.290900856256485,
      -0.09094858914613724,
      0.5447095036506653,
      -0.044310178607702255,
      -0.492573618888855,
      -0.6799728870391846,
      0.4309776723384857,
      0.10077645629644394,
      -0.343109130859375,
      -0.10147933661937714,
      0.44466501474380493
    ],
    [
      0.0595325268805027,
      0.0900377482175827,
      -0.30021658539772034,
      0.44966423511505127,
      -0.12798306345939636,
      -0.1914341151714325,
      -0.4386235475540161,
      0.33735960721969604,
      0.19158513844013214,
      -0.07391444593667984,
      0.03247470036149025,
      0.28440478444099426
    ],
    [
      0.23914748430252075,
      -0.45656031370162964,
      0.268894225358963,
      0.2955561876296997,
      -0.1357158124446869,
      0.2411353439092636,
      -0.14561296999454498,
      0.003245050786063075,
      -0.532978355884552,
      0.1220863088965416,
      -0.024953758344054222,
      0.06416729092597961
    ],
    [
      0.23289692401885986,
      -0.10812961310148239,
      0.004568776581436396,
      0.2513781487941742,
      -0.1069021224975586,
      -0.3719782829284668,
      -0.34466075897216797,
      -0.24988596141338348,
      0.36342430114746094,
      0.4692125618457794,
      -0.23645153641700745,
      0.2650694251060486
    ]
  ],
  "mlp_extractor.policy_net.0.bias": [
    0.01155838742852211,
    0.06002882122993469,
    -0.05165407061576843,
    -0.0023919788654893637,
    0.08268041908740997,
    -0.0540379174053669,
    -0.04612979665398598,
    0.003923668060451746,
    -0.001151167438365519,
    -0.029252655804157257,
    -0.005409924313426018,
    0.06212520971894264,
    -0.057904135435819626,
    -0.01866498962044716,
    -0.0687481239438057,
    -0.02348209358751774,
    0.06753180921077728,
    0.06790542602539062,
    -0.0356094129383564,
    -0.08742189407348633,
    0.0007485003443434834,
    -0.025321925058960915,
    0.019913004711270332,
    -0.04274136200547218,
    0.04479591175913811,
    -0.05901480093598366,
    0.04735531657934189,
    -0.10438486188650131,
    -0.01700574718415737,
    0.006672736257314682,
    0.01704104244709015,
    0.04501495882868767,
    0.01997784525156021,
    0.058985982090234756,
    -0.044693849980831146,
    -0.041393354535102844,
    0.02602505311369896,
    -0.01078707817941904,
    0.0007294986862689257,
    0.03506395220756531,
    0.03682577982544899,
    -0.029850006103515625,
    0.013642698526382446,
    -0.055954769253730774,
    0.041437678039073944,
    0.010136207565665245,
    0.06780900806188583,
    0.014699715189635754,
    -0.11157660186290741,
    0.04801883548498154,
    -0.04767824336886406,
    -0.02460295893251896,
    0.017539504915475845,
    -0.13748162984848022,
    0.03003317303955555,
    -0.02585969679057598,
    0.029583916068077087,
    0.05171806365251541,
    -0.07371751219034195,
    0.10930045694112778,
    0.05149663984775543,
    0.07754916697740555,
    -0.01036481000483036,
    0.028505440801382065
  ],
  "mlp_extractor.policy_net.2.bias": [
    0.01038154773414135,
    -0.006339406594634056,
    0.05063576251268387,
    0.014756346121430397,
    0.06465684622526169,
    -0.02301105111837387,
    -0.10060972720384598,
    -0.09344979375600815,
    0.08956451714038849,
    0.05760924890637398,
    -0.1360149085521698,
    -0.07764986902475357,
    -0.010035177692770958,
    0.09705010056495667,
    0.01888350211083889,
    0.01176540832966566,
    -0.12446358054876328,
    0.01795855164527893,
    -0.00945619773119688,
    0.07110646367073059,
    -0.02414844185113907,
    -0.0770803838968277,
    -0.035223789513111115,
    0.09612508863210678,
    0.10013904422521591,
    0.016429288312792778,
    -0.06432193517684937,
    -0.026944071054458618,
    -0.03391103073954582,
    -0.06786271929740906,
    -0.058634791523218155,
    0.014752592891454697,
    -0.041780851781368256,
    -0.12648074328899384,
    -0.12605389952659607,
    -0.006826817989349365,
    0.07694334536790848,
    0.08241371065378189,
    0.043141115456819534,
    0.10656643658876419,
    -0.08903728425502777,
    -0.0029974395874887705,
    -0.030695000663399696,
    -0.06752289086580276,
    0.04629705846309662,
    -0.03295557573437691,
    0.024066880345344543,
    0.019552605226635933,
    -0.06962330639362335,
    0.011308777146041393,
    0.02783331274986267,
    -0.03677868843078613,
    -0.012127703987061977,
    0.08402369916439056,
    -0.09831338375806808,
    -0.05713977292180061,
    -0.053332746028900146,
    -0.10285543650388718,
    -0.0029668889474123716,
    -0.015755707398056984,
    0.035781800746917725,
    -0.008749786764383316,
    0.07776480168104172,
    0.036462172865867615
  ],
  "action_net.weight": [
    [
      0.10205988585948944,
      -0.06972194463014603,
      0.13554039597511292,
      -0.1586609035730362,
      0.03829079121351242,
      0.06418364495038986,
      -0.024533413350582123,
      -0.07707430422306061,
      0.21948382258415222,
      0.1800631731748581,
      -0.018955808132886887,
      0.020933128893375397,
      0.05079221352934837,
      -0.1461358368396759,
      0.021326987072825432,
      0.008909381926059723,
      -0.13943183422088623,
      -0.04629230126738548,
      -0.09170909225940704,
      0.11378317326307297,
      0.027142245322465897,
      0.014571068808436394,
      -0.011069564148783684,
      0.017354831099510193,
      0.01621038280427456,
      -0.08155294507741928,
      -0.11342856287956238,
      0.10073596239089966,
      0.0953671783208847,
      -0.08086223900318146,
      -0.0636761337518692,
      0.1691175401210785,
      0.1180308386683464,
      0.035038139671087265,
      -0.07381299138069153,
      0.08173526078462601,
      -0.03861561045050621,
      0.04741641506552696,
      -0.09950778633356094,
      0.06104148179292679,
      -0.12471753358840942,
      0.10942765325307846,
      0.030145833268761635,
      0.06176281347870827,
      -0.029579946771264076,
      0.06851661950349808,
      -0.0390840508043766,
      0.13060152530670166,
      -0.19785460829734802,
      -0.12026847898960114,
      -0.0890807956457138,
      -0.13184459507465363,
      -0.2027142196893692,
      -0.13351398706436157,
      0.017461378127336502,
      -0.06564714014530182,
      0.06116066873073578,
      -0.025793129578232765,
      0.015305649489164352,
      -0.0642337054014206,
      -0.05193912610411644,
      -0.0410451702773571,
      0.05516333878040314,
      -0.03544214367866516
    ],
    [
      0.08805938065052032,
      -0.060637932270765305,
      -0.1493431180715561,
      -0.20423774421215057,
      -0.024486854672431946,
      0.2453545778989792,
      0.11160243302583694,
      0.22263282537460327,
      0.17424462735652924,
      0.21063248813152313,
      0.08183491975069046,
      0.15857836604118347,
      0.025149870663881302,
      -0.05737403780221939,
      0.07762356102466583,
      0.012090981006622314,
      0.17802071571350098,
      -0.19234295189380646,
      -0.12187077850103378,
      0.18172167241573334,
      0.03792545571923256,
      0.12567618489265442,
      -0.005665462929755449,
      -0.046475719660520554,
      -0.17042022943496704,
      -0.10163867473602295,
      0.0461999885737896,
      0.0362095832824707,
      0.2478846162557602,
      -0.00366960559040308,
      -0.029006239026784897,
      -0.1208474189043045,
      -0.003779143560677767,
      0.02053407020866871,
      0.12356426566839218,
      0.17488858103752136,
      -0.11402339488267899,
      -0.11428699642419815,
      -0.09935801476240158,
      -0.13035333156585693,
      0.08712045103311539,
      0.12007733434438705,
      -0.01662500388920307,
      0.28764718770980835,
      -0.006807768251746893,
      0.1811530739068985,
      -0.157112255692482,
      -0.13659028708934784,
      -0.21886831521987915,
      -0.23297712206840515,
      -0.1410595178604126,
      0.07824824750423431,
      0.17245730757713318,
      -0.07024244219064713,
      0.04378610849380493,
      0.06249842792749405,
      0.14242422580718994,
      0.2212463766336441,
      -0.02650034986436367,
      -0.18355995416641235,
      -0.12987887859344482,
      -0.06861327588558197,
      -0.06790659576654434,
      -0.12545785307884216
    ]
  ],
  "action_net.bias": [
    -0.0337766632437706,
    -0.053635552525520325
  ],
  "mlp_extractor.policy_net.2.weight": [
    [
      -0.2774147391319275,
      -0.3837701380252838,
      0.4390386939048767,
      -0.03139336034655571,
      -0.20668788254261017,
      0.17258982360363007,
      -0.23168863356113434,
      -0.3288268744945526,
      0.03909924626350403,
      -0.28827357292175293,
      -0.282459020614624,
      0.12243667989969254,
      -0.15244577825069427,
      -0.007414685096591711,
      0.07598133385181427,
      0.21023708581924438,
      -0.044232167303562164,
      0.07516976445913315,
      -0.024181900545954704,
      0.024236751720309258,
      0.023013053461909294,
      -0.008147802203893661,
      -0.14040835201740265,
      -0.08610253781080246,
      0.11568251252174377,
      0.11467354744672775,
      0.13367977738380432,
      -0.2914947271347046,
      -0.013646307401359081,
      -0.06717492640018463,
      0.2770460247993469,
      -0.2860701084136963,
      -0.028352094814181328,
      -0.1028975173830986,
      -0.5745351314544678,
      -0.08857189863920212,
      -0.08941716700792313,
      0.12064861506223679,
      -0.07348871976137161,
      0.018740642815828323,
      -0.11484023183584213,
      0.22979411482810974,
      -0.30222874879837036,
      0.2039654552936554,
      0.2687091529369354,
      0.5941981077194214,
      0.20530280470848083,
      0.3746609389781952,
      -0.20227888226509094,
      0.07906569540500641,
      0.40268030762672424,
      -0.0322311669588089,
      -0.19938643276691437,
      -0.10952956229448318,
      0.233223095536232,
      0.13552945852279663,
      0.33912214636802673,
      0.05779707059264183,
      0.12622365355491638,
      -0.14313888549804688,
      0.13843931257724762,
      -0.1181621104478836,
      0.2106369584798813,
      -0.16426685452461243
    ],
    [
      -0.09019692987203598,
      -0.08062838017940521,
      0.12246707826852798,
      -0.02214624360203743,
      0.05513036251068115,
      -0.6126654744148254,
      -0.02742648310959339,
      -0.12618885934352875,
      -0.04423895105719566,
      0.33189892768859863,
      0.2914578914642334,
      -0.02367512881755829,
      -0.022945724427700043,
      -0.058631982654333115,
      -0.14697635173797607,
      0.0632295235991478,
      -0.06682466715574265,
      0.18107156455516815,
      -0.24613666534423828,
      0.024098031222820282,
      -0.31922653317451477,
      -0.16099819540977478,
      0.2518100142478943,
      0.07180459052324295,
      0.28188008069992065,
      0.00045163926552049816,
      -0.06011025980114937,
      0.06429852545261383,
      0.15559250116348267,
      0.19035044312477112,
      -0.4180462658405304,
      0.32371145486831665,
      -0.048499174416065216,
      0.20229537785053253,
      0.06894891709089279,
      -0.008741353638470173,
      -0.13639122247695923,
      0.1822866052389145,
      -0.19457349181175232,
      0.19473059475421906,
      -0.16474777460098267,
      0.04787907749414444,
      -0.024448713287711143,
      -0.2540784776210785,
      -0.042372290045022964,
      -0.24028176069259644,
      -0.15185761451721191,
      0.22583453357219696,
      0.38311058282852173,
      -0.003265899373218417,
      0.15023498237133026,
      -0.113609179854393,
      0.18476468324661255,
      -0.042238302528858185,
      -0.07911934703588486,
      0.16694965958595276,
      -0.10237335413694382,
      -0.20480147004127502,
      -0.2556978166103363,
      0.31075844168663025,
      0.28203949332237244,
      0.09300170093774796,
      0.1915179193019867,
      -0.21400025486946106
    ],
    [
      0.04641303792595863,
      0.11080434918403625,
      -0.3728277087211609,
      0.2882985770702362,
      0.3537662625312805,
      0.059187568724155426,
      -0.05568059906363487,
      0.10146096348762512,
      0.3516991138458252,
      0.09838780015707016,
      0.2248918116092682,
      0.23327228426933289,
      -0.009846529923379421,
      0.40069788694381714,
      -0.22046121954917908,
      0.14838404953479767,
      -0.3321567475795746,
      0.2893678545951843,
      -0.10587026178836823,
      -0.7024981379508972,
      -0.21440096199512482,
      -0.2324993908405304,
      0.24923892319202423,
      0.12600144743919373,
      0.41175732016563416,
      0.15079014003276825,
      0.11697443574666977,
      -0.47071632742881775,
      0.06322319805622101,
      0.011534345336258411,
      -0.2141813188791275,
      0.1690223515033722,
      0.7267031073570251,
      -0.11321274936199188,
      -0.4494156241416931,
      -0.0526873804628849,
      0.22956719994544983,
      -0.13439670205116272,
      0.31088823080062866,
      0.3658360242843628,
      0.3132226765155792,
      -0.12069297581911087,
      0.02296299673616886,
      -0.16155023872852325,
      -0.2217073291540146,
      -0.2061852216720581,
      0.326377809047699,
      -0.20498988032341003,
      -0.4015360474586487,
      0.22084538638591766,
      -0.32996219396591187,
      -0.46684375405311584,
      0.1277557760477066,
      -0.5007851123809814,
      -0.6548666954040527,
      0.3290611803531647,
      -0.02827603742480278,
      0.2916264533996582,
      0.10912278294563293,
      0.3167110085487366,
      0.6124361157417297,
      0.2636043131351471,
      0.22664105892181396,
      -0.088715560734272
    ],
    [
      0.09947728365659714,
      0.35497763752937317,
      0.15019826591014862,
      0.022027993574738503,
      -0.19427089393138885,
      -0.06626847386360168,
      0.25797387957572937,
      0.1338067352771759,
      -0.009242906235158443,
      0.41903528571128845,
      0.470124214887619,
      -0.2550392150878906,
      -0.21440689265727997,
      0.2752346992492676,
      -0.4282062351703644,
      -0.1857633739709854,
      0.39197003841400146,
      -0.008940797299146652,
      0.3401670455932617,
      0.014857988804578781,
      -0.026827765628695488,
      0.13784247636795044,
      0.1603931337594986,
      -0.5753992199897766,
      0.43301814794540405,
      0.07886122912168503,
      -0.2364540696144104,
      0.14702290296554565,
      -0.057745665311813354,
      0.186306431889534,
      0.204505056142807,
      0.3559807538986206,
      0.5540237426757812,
      -0.0821768045425415,
      0.22221677005290985,
      0.15803398191928864,
      0.3505372703075409,
      -0.3374914228916168,
      0.29484400153160095,
      -0.1262841820716858,
      -0.24895568192005157,
      0.21296939253807068,
      -0.07805255055427551,
      0.2051495909690857,
      0.02817501313984394,
      -0.3288068175315857,
      0.46255430579185486,
      -0.20868855714797974,
      -0.09737090021371841,
      0.2025618553161621,
      0.06538813561201096,
      -0.03377680107951164,
      0.5521648526191711,
      -0.22573581337928772,
      -0.38923749327659607,
      -0.13529622554779053,
      -0.3976652920246124,
      -0.3358931839466095,
      -0.10822959244251251,
      0.007980488240718842,
      0.381009578704834,
      0.08325231820344925,
      0.3673103451728821,
      0.27036941051483154
    ],
    [
      0.05563215911388397,
      -0.22962838411331177,
      -0.33326223492622375,
      -0.2242189347743988,
      0.21783365309238434,
      0.11831465363502502,
      0.016033001244068146,
      0.237920880317688,
      -0.18377161026000977,
      -0.0520719476044178,
      0.16500064730644226,
      0.2702493369579315,
      0.32007914781570435,
      0.5132476687431335,
      -0.1342325210571289,
      -0.08349799364805222,
      0.16586291790008545,
      0.24442030489444733,
      -0.1065843254327774,
      -0.22214171290397644,
      0.147383451461792,
      -0.044051025062799454,
      -0.0867631733417511,
      -0.14643822610378265,
      -0.218952938914299,
      -0.1528322696685791,
      0.20617163181304932,
      -0.7224314212799072,
      0.30173471570014954,
      -0.25191062688827515,
      0.023423736914992332,
      -0.11837465316057205,
      0.38620930910110474,
      -0.05904991179704666,
      -0.5598625540733337,
      -0.17332345247268677,
      -0.2890150845050812,
      -0.17075012624263763,
      -0.09940223395824432,
      0.3848639726638794,
      -0.007456796243786812,
      -0.06478844583034515,
      0.06308025121688843,
      -0.4097728729248047,
      -0.06504806131124496,
      -0.032090723514556885,
      0.2531992197036743,
      0.038716379553079605,
      -0.17992377281188965,
      -0.15681613981723785,
      0.03720485791563988,
      -0.016914427280426025,
      0.024822648614645004,
      -0.2999817132949829,
      0.11872348934412003,
      -0.054332438856363297,
      0.07526446878910065,
      0.016189252957701683,
      0.03360655531287193,
      0.35209131240844727,
      0.2320386916399002,
      0.4257383346557617,
      0.12869581580162048,
      -0.09864978492259979
    ],
    [
      -0.15229925513267517,
      -0.4357006251811981,
      0.33619341254234314,
      -0.09755109250545502,
      0.06402013450860977,
      0.24681812524795532,
      -0.49263522028923035,
      -0.09966125339269638,
      0.2745784521102905,
      -0.3867938220500946,
      -0.06637939065694809,
      0.6405898928642273,
      0.18807804584503174,
      -0.09071305394172668,
      0.035212740302085876,
      -7.877181633375585e-05,
      0.12377086281776428,
      0.210069477558136,
      -0.0991813912987709,
      0.3280538320541382,
      0.20343929529190063,
      0.05155445262789726,
      0.1410515457391739,
      0.3582374155521393,
      0.013000838458538055,
      0.11613332480192184,
      0.4578406512737274,
      -0.42030608654022217,
      0.03698442503809929,
      -0.3609006106853485,
      0.18759046494960785,
      -0.014913487248122692,
      0.1625225991010666,
      0.22278422117233276,
      -0.08257880061864853,
      -0.35469067096710205,
      -0.13284610211849213,
      0.449435293674469,
      -0.12794098258018494,
      -0.002030235482379794,
      0.2571490406990051,
      -0.1115252897143364,
      0.029817260801792145,
      0.43662524223327637,
      0.07450234144926071,
      -0.08442173898220062,
      -0.2843259572982788,
      0.018525630235671997,
      0.06393297761678696,
      -0.29785147309303284,
      0.26599252223968506,
      0.2923150062561035,
      -0.4623742997646332,
      0.38484033942222595,
      0.2363978624343872,
      0.45145997405052185,
      0.11618578433990479,
      -0.3674677014350891,
      0.16320644319057465,
      0.0473145991563797,
      -0.3534758985042572,
      -0.03341412544250488,
      -0.3356078863143921,
      -0.061948541551828384
    ],
    [
      0.0314447246491909,
      -0.4200496971607208,
      -0.12449956685304642,
      -0.2911132872104645,
      -0.17622599005699158,
      0.21542063355445862,
      0.0397646427154541,
      -0.17288655042648315,
      0.1045636460185051,
      -0.19956646859645844,
      -0.1069960966706276,
      0.08369271457195282,
      -0.05819011852145195,
      -0.09072629362344742,
      0.16213099658489227,
      0.046378105878829956,
      0.24623838067054749,
      0.02253049984574318,
      -0.023295026272535324,
      0.398904949426651,
      0.294114351272583,
      0.3604254722595215,
      -0.21165110170841217,
      0.2631918489933014,
      0.15441018342971802,
      -0.0793052464723587,
      0.13880197703838348,
      -0.034598831087350845,
      -0.35239091515541077,
      -0.238204687833786,
      0.12402459979057312,
      -0.10003139078617096,
      -0.2793179452419281,
      0.3101913630962372,
      -0.13762341439723969,
      -0.03190242871642113,
      0.04812762513756752,
      -0.05333130806684494,
      0.10898324847221375,
      -0.0023155042435973883,
      0.3633822500705719,
      0.12572522461414337,
      -0.15632468461990356,
      -0.1296253353357315,
      -0.008933637291193008,
      0.17338187992572784,
      -0.25910043716430664,
      0.4509783089160919,
      0.3531719446182251,
      -0.4754678010940552,
      0.3105767071247101,
      0.10069651901721954,
      -0.42999303340911865,
      0.1819794476032257,
      0.23476466536521912,
      0.49510031938552856,
      -0.18958762288093567,
      0.2102586030960083,
      0.17732642590999603,
      0.13656489551067352,
      -0.4432280957698822,
      -0.22781433165073395,
      0.05024448037147522,
      -0.10888271778821945
    ],
    [
      -0.4172557592391968,
      -0.2334156185388565,
      -0.11070602387189865,
      -0.12691693007946014,
      -0.10870639979839325,
      0.22768466174602509,
      -0.029295584186911583,
      -0.4829167127609253,
      -0.02320967987179756,
      -0.7304670810699463,
      0.09558214992284775,
      -0.26115819811820984,
      -0.1679726392030716,
      0.18890690803527832,
      0.2534710168838501,
      0.15140338242053986,
      0.20899972319602966,
      0.03140921890735626,
      0.1894557774066925,
      0.43460747599601746,
      0.3543143570423126,
      -0.06182868033647537,
      -0.07921748608350754,
      0.3656635284423828,
      -0.1920432448387146,
      0.3387739658355713,
      0.2542007267475128,
      0.347632497549057,
      -0.3492846190929413,
      -0.0921364352107048,
      0.24551518261432648,
      -0.36843472719192505,
      -0.3204232156276703,
      0.12746647000312805,
      0.2726273536682129,
      -0.1324547678232193,
      -0.11158881336450577,
      0.1005023866891861,
      -0.24994714558124542,
      0.21607115864753723,
      -0.025145921856164932,
      0.3259357810020447,
      -0.13121344149112701,
      0.23177674412727356,
      0.25483307242393494,
      0.0373353473842144,
      -0.5519538521766663,
      -0.10342510789632797,
      0.5630158185958862,
      -0.4453487694263458,
      0.39578643441200256,
      0.23923708498477936,
      -0.20146456360816956,
      0.1838074028491974,
      0.2520250976085663,
      0.08286605775356293,
      0.34305065870285034,
      -0.11198949813842773,
      0.00021277533960528672,
      -0.20851990580558777,
      -0.39064669609069824,
      -0.06211237609386444,
      -0.15606532990932465,
      -0.5937630534172058
    ],
    [
      -0.16177190840244293,
      -0.1307702213525772,
      0.15998266637325287,
      -0.10522027313709259,
      -0.055852293968200684,
      0.0870860293507576,
      -0.5023049712181091,
      -0.3405444324016571,
      0.1751498430967331,
      -0.422897607088089,
      0.06033749505877495,
      0.5931888222694397,
      0.10706301778554916,
      0.12846411764621735,
      0.141658753156662,
      0.22486945986747742,
      0.3473750054836273,
      0.018064111471176147,
      -0.1790016144514084,
      0.10268323868513107,
      0.4206162989139557,
      0.07572896033525467,
      0.1827487349510193,
      0.24989020824432373,
      -0.18982312083244324,
      0.059879034757614136,
      0.18373410403728485,
      -0.25530457496643066,
      0.18738426268100739,
      0.009111426770687103,
      0.26542147994041443,
      0.12950453162193298,
      -0.14564353227615356,
      0.10401453822851181,
      -0.19739513099193573,
      -0.14748844504356384,
      -0.40751075744628906,
      -0.09244609624147415,
      0.15084308385849,
      0.12029996514320374,
      0.4028591215610504,
      -0.16446815431118011,
      -0.1225869208574295,
      0.2992804944515228,
      0.19656968116760254,
      0.15608219802379608,
      -0.2608868479728699,
      0.7131396532058716,
      -0.13767242431640625,
      -0.5386556386947632,
      0.10874489694833755,
      -0.15714247524738312,
      0.03635495901107788,
      -0.23772118985652924,
      0.11314410716295242,
      -0.12128158658742905,
      0.20263037085533142,
      0.22279347479343414,
      -0.19169051945209503,
      0.12502877414226532,
      -0.5030388832092285,
      -0.45423462986946106,
      -0.2535390555858612,
      -0.21674397587776184
    ],
    [
      -0.16169095039367676,
      -0.42982596158981323,
      0.14989259839057922,
      -0.319905549287796,
      0.1135391816496849,
      0.10400368273258209,
      -0.10770431905984879,
      -0.29912132024765015,
      0.2598229646682739,
      -0.5008604526519775,
      -0.2668016850948334,
      0.3741167485713959,
      0.005558525677770376,
      0.11469864845275879,
      -0.2823276221752167,
      0.3801800310611725,
      0.3123781383037567,
      -0.2678861916065216,
      -0.5217916965484619,
      -0.1694437861442566,
      0.4753643274307251,
      0.3504343628883362,
      0.16345536708831787,
      -0.06051325798034668,
      -0.1620352864265442,
      0.31925061345100403,
      0.312512069940567,
      -0.5542426705360413,
      -0.04861081764101982,
      0.02292170748114586,
      0.41441288590431213,
      -0.2361387461423874,
      -0.3455885648727417,
      -0.0074605792760849,
      -0.18141824007034302,
      -0.262273907661438,
      -0.12516283988952637,
      0.14910779893398285,
      0.2113247662782669,
      0.07324552536010742,
      0.16388773918151855,
      -0.42859014868736267,
      -0.07466549426317215,
      0.10394918918609619,
      0.09026571363210678,
      0.45742174983024597,
      -0.5116150379180908,
      0.06544007360935211,
      -0.00661108922213316,
      -0.4881921112537384,
      0.2439553439617157,
      0.39262035489082336,
      -0.19430209696292877,
      -0.0015119706513360143,
      0.2624813914299011,
      0.6585292220115662,
      0.08170674741268158,
      0.08835575729608536,
      -0.03395235538482666,
      -0.004746666643768549,
      0.06431669741868973,
      -0.18809925019741058,
      -0.3434771001338959,
      -0.26981112360954285
    ],
    [
      -0.23319335281848907,
      -0.47062188386917114,
      0.11947832256555557,
      -0.05046449229121208,
      0.12301567196846008,
      0.13114964962005615,
      0.16796763241291046,
      0.15251658856868744,
      -0.05212530493736267,
      -0.004573909565806389,
      0.017206456512212753,
      0.0942009836435318,
      0.3773411512374878,
      -0.19288334250450134,
      0.06141714006662369,
      0.10633251816034317,
      0.052143145352602005,
      -0.2310972958803177,
      0.19640596210956573,
      0.12291796505451202,
      -0.08405961841344833,
      0.3839406371116638,
      0.17550496757030487,
      0.42361265420913696,
      -0.12613821029663086,
      0.24564923346042633,
      -0.11829868704080582,
      0.13628800213336945,
      -0.25377023220062256,
      0.23922520875930786,
      -0.0006735691567882895,
      -0.5465590357780457,
      -0.14902804791927338,
      0.025627989321947098,
      0.006038540042936802,
      -0.2968619763851166,
      -0.15417051315307617,
      -0.1705015003681183,
      -0.03086906298995018,
      0.0075941383838653564,
      0.12167561799287796,
      -0.06757552176713943,
      -0.1109820306301117,
      0.10945907980203629,
      0.07351097464561462,
      -0.009206403978168964,
      0.2217252254486084,
      0.14838632941246033,
      0.21604664623737335,
      -0.14082281291484833,
      0.13126534223556519,
      0.08917085081338882,
      0.1708701103925705,
      0.493289589881897,
      -0.07626336067914963,
      0.04421691969037056,
      -0.10226627439260483,
      -0.34952184557914734,
      -0.03917831555008888,
      -0.23007333278656006,
      -0.28662368655204773,
      -0.26651862263679504,
      -0.12745235860347748,
      -0.2844027280807495
    ],
    [
      -0.17420345544815063,
      -0.06174098327755928,
      0.27855050563812256,
      -0.30455806851387024,
      0.11888644844293594,
      0.043381355702877045,
      -0.39585280418395996,
      -0.17240387201309204,
      0.24761904776096344,
      -0.42526885867118835,
      -0.0788392499089241,
      0.13264219462871552,
      -0.03761053457856178,
      0.09404809772968292,
      0.06635557115077972,
      0.1307385116815567,
      0.043497491627931595,
      -0.0696469247341156,
      -0.2562766671180725,
      0.5315795540809631,
      0.12442585080862045,
      0.06819704920053482,
      0.3080611526966095,
      0.2640681862831116,
      -0.6081894636154175,
      -0.1099405586719513,
      -0.19782069325447083,
      -0.3470451831817627,
      -0.1339745819568634,
      -0.1341915875673294,
      0.09055712819099426,
      -0.3903506100177765,
      -0.045187145471572876,
      0.046259805560112,
      -0.006875348277390003,
      0.14723454415798187,
      -0.3444667160511017,
      0.11659950017929077,
      -0.007313426584005356,
      -0.2639920115470886,
      0.10064836591482162,
      0.33781710267066956,
      0.03738851472735405,
      0.02864754945039749,
      -0.011065162718296051,
      0.06597061455249786,
      -0.30709952116012573,
      0.11017676442861557,
      0.3664628267288208,
      -0.05047233775258064,
      -0.13923756778240204,
      0.2103479504585266,
      -0.2214294672012329,
      0.042861636728048325,
      0.24102149903774261,
      0.2279663234949112,
      -0.22976110875606537,
      0.035158853977918625,
      0.28373220562934875,
      -0.1837514042854309,
      -0.10407128930091858,
      -0.22459180653095245,
      0.020362963899970055,
      -0.6161007285118103
    ],
    [
      -0.049278952181339264,
      0.27673304080963135,
      -0.15501835942268372,
      -0.2476719617843628,
      -0.19484131038188934,
      0.07420731335878372,
      -0.23218625783920288,
      -0.20607265830039978,
      -0.013650410808622837,
      -0.2532290518283844,
      -0.2725989520549774,
      0.024040520191192627,
      -0.09260515123605728,
      -0.38036277890205383,
      -0.07037590444087982,
      -0.03326266258955002,
      0.27207791805267334,
      0.2470400482416153,
      -0.1639299839735031,
      -0.32386887073516846,
      0.20604221522808075,
      -0.1814448982477188,
      -0.040947381407022476,
      0.022646484896540642,
      -0.13976532220840454,
      0.025713402777910233,
      -0.024559173732995987,
      0.11853177100419998,
      -0.08898192644119263,
      0.0020687272772192955,
      0.15686184167861938,
      -0.19164519011974335,
      -0.206538587808609,
      -0.003051029285416007,
      -0.3474934995174408,
      -0.18653947114944458,
      -0.020275525748729706,
      -0.23972009122371674,
      0.015634533017873764,
      -0.3214469254016876,
      0.022129058837890625,
      0.13794977962970734,
      -0.4238724708557129,
      -0.0643557757139206,
      0.17781981825828552,
      0.1914963275194168,
      -0.1830877810716629,
      0.026889421045780182,
      -0.14668278396129608,
      -0.20979543030261993,
      -0.11126227676868439,
      0.13185542821884155,
      -0.24917498230934143,
      0.16584913432598114,
      -0.24467673897743225,
      -0.027871299535036087,
      0.09909693151712418,
      -0.5451046228408813,
      0.039329566061496735,
      0.35778194665908813,
      0.08247816562652588,
      -0.07615315914154053,
      -0.033310096710920334,
      -0.1396816372871399
    ],
    [
      0.054440177977085114,
      -0.387101411819458,
      -0.3065429627895355,
      0.28025200963020325,
      0.38531142473220825,
      -0.16332057118415833,
      -0.15302366018295288,
      -0.05035009980201721,
      -0.1159619688987732,
      -0.09269878268241882,
      0.10953749716281891,
      -0.3180290162563324,
      0.30549755692481995,
      -0.07600226998329163,
      0.38661274313926697,
      0.17365716397762299,
      0.03813132643699646,
      0.024304935708642006,
      -0.19025065004825592,
      0.19017831981182098,
      0.15034103393554688,
      -0.06377910822629929,
      0.5717920660972595,
      0.3437393605709076,
      0.006688654888421297,
      -0.0859241709113121,
      0.012295330874621868,
      -0.17888540029525757,
      0.03806110844016075,
      0.02682250365614891,
      -0.18923571705818176,
      0.3584328591823578,
      0.042187727987766266,
      -0.11305371671915054,
      -0.027921751141548157,
      0.21432499587535858,
      0.473722904920578,
      0.18393893539905548,
      -0.10050997138023376,
      0.2092568427324295,
      0.084874726831913,
      0.08922009915113449,
      0.3976442813873291,
      -0.21562068164348602,
      -0.13422684371471405,
      -0.16161185503005981,
      0.2621122896671295,
      0.2494252771139145,
      -0.1394636183977127,
      0.09359259158372879,
      -0.43771401047706604,
      0.3104293644428253,
      0.004752070643007755,
      -0.34816980361938477,
      -0.1589992195367813,
      0.1270335167646408,
      0.09219872951507568,
      -0.09966126829385757,
      -0.034614041447639465,
      0.24799522757530212,
      0.28421273827552795,
      -0.17419789731502533,
      -0.10702889412641525,
      0.46701762080192566
    ],
    [
      -0.39378467202186584,
      -0.21968305110931396,
      0.276890367269516,
      -0.28590089082717896,
      0.04376641660928726,
      0.31105837225914,
      0.04538346827030182,
      -0.4174547791481018,
      0.1501084268093109,
      -0.34003859758377075,
      0.0690213218331337,
      -0.13047809898853302,
      0.1659785956144333,
      -0.22474102675914764,
      -0.01708618737757206,
      0.016863064840435982,
      0.014050970785319805,
      -0.04778484255075455,
      -0.29755234718322754,
      0.05970453843474388,
      0.2449851632118225,
      0.235802561044693,
      0.0970054417848587,
      -0.03631091117858887,
      -0.031126029789447784,
      0.09716290980577469,
      0.189527228474617,
      -0.24525092542171478,
      -0.26917093992233276,
      -0.22126080095767975,
      -0.021908286958932877,
      -0.03826705738902092,
      -0.035517338663339615,
      -0.12357647716999054,
      -0.120704784989357,
      -0.26465660333633423,
      0.07613328844308853,
      0.2575805187225342,
      -0.015672050416469574,
      -0.041595663875341415,
      0.05035336688160896,
      -0.2798502445220947,
      -0.3484993875026703,
      0.11703207343816757,
      -0.4401682913303375,
      0.0037698012311011553,
      -0.16728618741035461,
      0.06737438589334488,
      -0.03116021305322647,
      -0.413307249546051,
      -0.2315274327993393,
      -0.147855743765831,
      -0.2211800217628479,
      0.0468197762966156,
      0.33706119656562805,
      -0.2733679711818695,
      0.06317867338657379,
      0.15277093648910522,
      -0.25865739583969116,
      0.02639750950038433,
      -0.14842692017555237,
      -0.2533140480518341,
      0.14834320545196533,
      -0.2848491668701172
    ],
    [
      0.10907477885484695,
      0.01578003540635109,
      0.2097465544939041,
      -0.17000854015350342,
      -0.21262986958026886,
      -0.073240265250206,
      0.015463989228010178,
      0.1501249521970749,
      0.5044412016868591,
      -0.30018746852874756,
      -0.03727221488952637,
      -0.22389784455299377,
      0.012498385272920132,
      0.0943046361207962,
      0.10677611827850342,
      0.3366602063179016,
      0.05330074205994606,
      -0.16484861075878143,
      0.1304277777671814,
      -0.08846891671419144,
      -0.15398535132408142,
      -0.23214244842529297,
      -0.206546813249588,
      0.01691856049001217,
      -0.18518689274787903,
      -0.031964030116796494,
      -0.055113423615694046,
      0.07826774567365646,
      0.0603836365044117,
      -0.15964794158935547,
      -0.09617937356233597,
      0.02184986136853695,
      0.1932017207145691,
      0.1623666137456894,
      0.14756910502910614,
      -0.14144840836524963,
      0.046521879732608795,
      0.019838349893689156,
      -0.06469634920358658,
      0.1584472805261612,
      0.0653824731707573,
      -0.28468355536460876,
      -0.4836053252220154,
      -0.048578355461359024,
      0.28276583552360535,
      0.3373509645462036,
      0.3997543156147003,
      0.17427761852741241,
      -0.21176199615001678,
      -0.06972786039113998,
      -0.028433961793780327,
      0.14865921437740326,
      -0.3312072455883026,
      0.06990700215101242,
      -0.12473943829536438,
      -0.13392342627048492,
      -0.18018266558647156,
      0.19334110617637634,
      -0.09896129369735718,
      0.1988770216703415,
      0.11091160774230957,
      0.09001874178647995,
      -0.31210047006607056,
      -0.08178844302892685
    ],
    [
      0.33229735493659973,
      0.1475132405757904,
      0.25023868680000305,
      -0.015430647879838943,
      -0.1976204216480255,
      0.16161777079105377,
      0.2115149348974228,
      -0.24687692523002625,
      -0.12192390859127045,
      -0.10013005882501602,
      -0.689408004283905,
      -0.4476829469203949,
      -0.3387242257595062,
      -0.32059717178344727,
      0.12911130487918854,
      -0.0485265888273716,
      0.04859190806746483,
      -0.043695975095033646,
      0.5589454770088196,
      0.5332245826721191,
      0.17298050224781036,
      -0.13152556121349335,
      -0.5152149796485901,
      0.06472159177064896,
      -0.11959663033485413,
      -0.01744532771408558,
      0.1833948940038681,
      0.055261820554733276,
      -0.283984899520874,
      0.2886747419834137,
      -0.02617500349879265,
      -0.2975456118583679,
      -0.713179886341095,
      0.045030996203422546,
      0.30145248770713806,
      0.4896087944507599,
      0.19364577531814575,
      0.07652536034584045,
      -0.18853339552879333,
      -0.16558529436588287,
      -0.4307193160057068,
      0.15547417104244232,
      0.1322975605726242,
      0.5750729441642761,
      0.042940497398376465,
      0.17308907210826874,
      -0.0623556487262249,
      0.18138620257377625,
      0.7255833148956299,
      -0.08912467956542969,
      0.23580504953861237,
      0.19280126690864563,
      0.07138939946889877,
      0.7922312617301941,
      0.05205835774540901,
      -0.41716450452804565,
      -0.2866780161857605,
      -0.2708507478237152,
      -0.3383726477622986,
      -0.29809895157814026,
      -0.6065748333930969,
      -0.4730614423751831,
      -0.3875236511230469,
      -0.5299017429351807
    ],
    [
      0.5968049168586731,
      0.26155948638916016,
      -0.12140406668186188,
      0.05544862151145935,
      0.26388800144195557,
      -0.23348884284496307,
      0.23562771081924438,
      0.11424742639064789,
      -0.19552968442440033,
      0.10538401454687119,
      -0.04184044897556305,
      -0.14451201260089874,
      -0.12537452578544617,
      0.030754460021853447,
      -0.10754626244306564,
      -0.38266435265541077,
      -0.3982531726360321,
      -0.25823959708213806,
      0.13765329122543335,
      0.008320954628288746,
      -0.025051116943359375,
      -0.4471845328807831,
      0.1722395122051239,
      0.11803163588047028,
      -0.08750993013381958,
      0.14272229373455048,
      -0.030171053484082222,
      0.3365657329559326,
      0.046140287071466446,
      0.06725306808948517,
      -0.15292856097221375,
      0.16217032074928284,
      0.027754586189985275,
      0.009866694919764996,
      0.102128766477108,
      0.18006303906440735,
      0.382237046957016,
      -0.268033504486084,
      -0.515037477016449,
      -0.4305979013442993,
      -0.2624237537384033,
      -0.0760333240032196,
      -0.19592070579528809,
      -0.180558979511261,
      -0.0734129324555397,
      -0.434095561504364,
      0.32622697949409485,
      -0.22946543991565704,
      -0.22725798189640045,
      0.3864251673221588,
      0.31450870633125305,
      -0.4634431004524231,
      0.3398137092590332,
      -0.29664936661720276,
      -0.08320602774620056,
      -0.13426804542541504,
      -0.3056880831718445,
      0.04733230546116829,
      -0.04115920513868332,
      0.060604020953178406,
      0.2615538239479065,
      -0.03720356523990631,
      0.13461104035377502,
      0.33270835876464844
    ],
    [
      0.16686101257801056,
      0.01893310621380806,
      -0.048026930540800095,
      -0.0634099617600441,
      0.05238037556409836,
      -0.010548503138124943,
      0.017529793083667755,
      0.1874765157699585,
      -0.2591480314731598,
      0.08106029033660889,
      0.38081496953964233,
      -0.33688992261886597,
      -0.08622445166110992,
      0.025623247027397156,
      -0.17915305495262146,
      -0.21782656013965607,
      -0.1646166294813156,
      -0.286787211894989,
      -0.036755528301000595,
      0.14427337050437927,
      -0.34001702070236206,
      -0.37497377395629883,
      -0.03939228504896164,
      -0.17509569227695465,
      -0.18611247837543488,
      -0.39243364334106445,
      -0.22654783725738525,
      0.07716415077447891,
      0.06741422414779663,
      0.5401738286018372,
      -0.16886134445667267,
      0.016466815024614334,
      0.034191831946372986,
      0.35978466272354126,
      0.03598765656352043,
      0.0696910098195076,
      0.37090620398521423,
      0.2238585501909256,
      -0.07428792864084244,
      0.032279856503009796,
      0.16283324360847473,
      0.27117475867271423,
      0.13150323927402496,
      -0.04941331222653389,
      -0.5516535639762878,
      -0.10498341917991638,
      0.14662422239780426,
      -0.05227278545498848,
      -0.05920521169900894,
      0.0710015818476677,
      0.00415966147556901,
      -0.3014935851097107,
      0.19381631910800934,
      -0.12260997295379639,
      -0.430368572473526,
      0.12727679312229156,
      0.20353618264198303,
      -0.21065540611743927,
      -0.23062629997730255,
      -0.13289840519428253,
      0.013911368325352669,
      0.12450089305639267,
      -0.19831250607967377,
      0.4409601092338562
    ],
    [
      -0.22333121299743652,
      -0.5357331037521362,
      0.19350820779800415,
      -0.010026474483311176,
      0.06186789646744728,
      0.20376887917518616,
      -0.15187770128250122,
      -0.24433539807796478,
      -0.0050340937450528145,
      -0.483471155166626,
      0.11756585538387299,
      0.39941659569740295,
      0.0414360836148262,
      0.005934772547334433,
      0.026878539472818375,
      0.17576567828655243,
      0.23614540696144104,
      0.024318352341651917,
      -0.23741304874420166,
      0.24559646844863892,
      0.6133714914321899,
      0.24759931862354279,
      -0.11115740239620209,
      0.20443220436573029,
      -0.052345987409353256,
      0.17443591356277466,
      0.4376237094402313,
      -0.42337045073509216,
      0.2513153553009033,
      -0.3230358064174652,
      0.0289534293115139,
      -0.2855958342552185,
      -0.5032415986061096,
      -0.1809617578983307,
      0.14240604639053345,
      -0.009411904960870743,
      -0.6943395733833313,
      0.17748579382896423,
      0.0748402327299118,
      0.11165519058704376,
      0.7709870338439941,
      0.3035877048969269,
      -0.3826882243156433,
      0.29734405875205994,
      0.011765262112021446,
      0.33000868558883667,
      -0.3014078736305237,
      -0.0035666569601744413,
      0.07978692650794983,
      -0.15326835215091705,
      -0.06842057406902313,
      0.10411431640386581,
      -0.2126733958721161,
      0.1940813809633255,
      0.07709049433469772,
      0.3031972348690033,
      0.06313006579875946,
      0.07556505501270294,
      -0.20352762937545776,
      0.32073771953582764,
      0.1274755597114563,
      -0.2572449743747711,
      -0.03216245025396347,
      -0.07010123878717422
    ],
    [
      -0.19710105657577515,
      -0.1936396211385727,
      0.15358124673366547,
      -0.10005756467580795,
      0.09509853273630142,
      -0.2552114725112915,
      0.25036799907684326,
      -0.0337294340133667,
      0.08518780767917633,
      -0.4082947373390198,
      0.015291502699255943,
      0.07817326486110687,
      -0.18905802071094513,
      0.14473724365234375,
      0.19669084250926971,
      -0.013608436100184917,
      -0.386430025100708,
      -0.09944793581962585,
      -0.09301027655601501,
      0.26143404841423035,
      0.11501297354698181,
      -0.12748022377490997,
      -0.13418865203857422,
      -0.17963692545890808,
      0.21414877474308014,
      -0.05574264004826546,
      0.10220399498939514,
      0.07120689749717712,
      -0.07108675688505173,
      -0.130113884806633,
      0.1025988832116127,
      0.06218601390719414,
      -0.3388095200061798,
      0.12208426743745804,
      -0.061658378690481186,
      0.22379037737846375,
      0.019273221492767334,
      -0.24962110817432404,
      0.3665674328804016,
      0.029925495386123657,
      -0.24263222515583038,
      -0.021867653355002403,
      0.07213073968887329,
      -0.19930149614810944,
      0.12142433971166611,
      0.076514832675457,
      0.07233733683824539,
      -0.05638856813311577,
      -0.2192736119031906,
      -0.11326676607131958,
      -0.1320561170578003,
      -0.10438590496778488,
      0.207320898771286,
      0.26437243819236755,
      0.026225410401821136,
      -0.019249962642788887,
      -0.03642646223306656,
      -0.340851366519928,
      0.3087518811225891,
      -0.013515274971723557,
      -0.3339364230632782,
      -0.07258336991071701,
      -0.14692455530166626,
      -0.12029635906219482
    ],
    [
      -0.15487678349018097,
      -0.3603881895542145,
      -0.15256574749946594,
      -0.12277039885520935,
      0.2996242642402649,
      0.24685119092464447,
      0.07483243197202682,
      -0.013740134425461292,
      0.00665008882060647,
      -0.02427450381219387,
      0.11886683106422424,
      0.09224122762680054,
      0.195802703499794,
      0.25527653098106384,
      0.007583918981254101,
      -0.2118472307920456,
      -0.21438971161842346,
      0.34616225957870483,
      0.002271219389513135,
      0.17235897481441498,
      0.109860859811306,
      -0.05677420273423195,
      -0.0864880308508873,
      0.11884506046772003,
      0.07243683934211731,
      0.13833114504814148,
      -0.1330399215221405,
      -0.011631980538368225,
      -0.06380409002304077,
      0.08060965687036514,
      -0.2752835750579834,
      -0.11873207986354828,
      0.14073941111564636,
      -0.19837525486946106,
      0.036398496478796005,
      0.09089404344558716,
      -0.41193318367004395,
      0.09997829794883728,
      0.1081959679722786,
      -0.4058257043361664,
      -0.19258975982666016,
      -0.05828754976391792,
      -0.12041815370321274,
      0.2942131757736206,
      0.19925151765346527,
      0.5038154721260071,
      -0.28346315026283264,
      0.11104375123977661,
      0.1396055370569229,
      -0.46542131900787354,
      -0.05637330561876297,
      0.2540302276611328,
      -0.24648211896419525,
      -0.10106988996267319,
      0.2092367708683014,
      0.36190423369407654,
      0.0986732617020607,
      -0.07282199710607529,
      -0.16638214886188507,
      -0.1291281133890152,
      -0.2027462124824524,
      -0.3012818694114685,
      -0.2521437406539917,
      0.018443666398525238
    ],
    [
      -0.16965100169181824,
      0.06455805897712708,
      0.18427674472332,
      -0.14484582841396332,
      0.24153117835521698,
      0.046021491289138794,
      -0.08295194059610367,
      -0.07598508149385452,
      -0.29545554518699646,
      0.40073221921920776,
      0.3782087564468384,
      -0.1683124452829361,
      0.06468696147203445,
      0.053125251084566116,
      0.23151946067810059,
      -0.013064652681350708,
      -0.024261802434921265,
      -0.062202088534832,
      0.0919649749994278,
      -0.37362101674079895,
      0.022586191073060036,
      -0.15426136553287506,
      0.22214457392692566,
      -0.17232874035835266,
      0.026617642492055893,
      -0.01898021623492241,
      0.1891993135213852,
      -0.06908035278320312,
      -0.1461360901594162,
      0.24786606431007385,
      -0.13507835566997528,
      0.018031088635325432,
      0.06327009946107864,
      -0.153288796544075,
      0.056430160999298096,
      0.25340571999549866,
      -0.16637559235095978,
      0.26974397897720337,
      0.22331593930721283,
      0.022026389837265015,
      0.13265901803970337,
      -0.018472323194146156,
      -0.05826065316796303,
      -0.12406144291162491,
      -0.06388761103153229,
      -0.1807023584842682,
      0.17619892954826355,
      -0.13968278467655182,
      -0.030523674562573433,
      0.19510167837142944,
      0.34979918599128723,
      0.07170439511537552,
      -0.22766105830669403,
      -0.08348871022462845,
      0.043699923902750015,
      -0.0068277535028755665,
      -0.15629203617572784,
      -0.0039027477614581585,
      0.4770893454551697,
      0.3181365430355072,
      -0.20478512346744537,
      -0.1155443862080574,
      -0.19046851992607117,
      0.04702712967991829
    ],
    [
      -0.13359351456165314,
      0.18414025008678436,
      -0.11184826493263245,
      -0.10287772864103317,
      0.21538610756397247,
      -0.04990873858332634,
      -0.28939640522003174,
      -0.07158281654119492,
      0.121395543217659,
      0.11872425675392151,
      0.4362182915210724,
      0.3349003493785858,
      -0.11158446967601776,
      0.11483019590377808,
      -0.24329063296318054,
      0.16308878362178802,
      0.04632682353258133,
      -0.17004257440567017,
      -0.40088504552841187,
      -0.07770854234695435,
      0.11478818207979202,
      -0.11625250428915024,
      -0.11294395476579666,
      0.35943174362182617,
      0.11550022661685944,
      0.17366857826709747,
      0.05112850293517113,
      -0.0034800854045897722,
      -0.12150007486343384,
      -0.37728604674339294,
      -0.15864425897598267,
      -0.24830378592014313,
      0.283615380525589,
      -0.04869767650961876,
      -0.5279812216758728,
      -0.21669074892997742,
      -0.027422994375228882,
      0.09302972257137299,
      0.38027262687683105,
      -0.047920066863298416,
      0.04817219823598862,
      -0.1048639565706253,
      0.4505315124988556,
      -0.15505985915660858,
      -0.0795251727104187,
      0.2236037403345108,
      0.28688278794288635,
      -0.0774521753191948,
      -0.12752175331115723,
      0.17399229109287262,
      0.0954647809267044,
      0.10309968143701553,
      0.03908919170498848,
      -0.2650824785232544,
      -0.05530756711959839,
      -0.18632102012634277,
      -0.010684768669307232,
      0.21326829493045807,
      -0.24571485817432404,
      0.434653103351593,
      0.21486856043338776,
      0.336744099855423,
      -0.057396575808525085,
      0.2949802279472351
    ],
    [
      0.2264758199453354,
      0.22020366787910461,
      -0.09096485376358032,
      0.05918026715517044,
      0.20328553020954132,
      0.011522850021719933,
      0.11814769357442856,
      0.02298642136156559,
      0.058204032480716705,
      0.255058228969574,
      0.10299428552389145,
      -0.15004658699035645,
      -0.2720074951648712,
      0.04242170229554176,
      0.06891033053398132,
      0.25630873441696167,
      0.06691256910562515,
      0.1253102421760559,
      0.07699897885322571,
      -0.5946013331413269,
      -0.5336806178092957,
      -0.2109588086605072,
      0.216950461268425,
      -0.20165669918060303,
      0.36714625358581543,
      -0.42177125811576843,
      -0.3005305826663971,
      -0.16265229880809784,
      -0.143079936504364,
      -0.2181803286075592,
      -0.060250911861658096,
      0.06400226801633835,
      0.03485610708594322,
      -0.20016609132289886,
      0.06802620738744736,
      -0.1496487557888031,
      0.25891581177711487,
      -0.19446729123592377,
      -0.22274848818778992,
      -0.1477307677268982,
      0.09502368420362473,
      0.17189134657382965,
      -0.06497108191251755,
      0.04060863330960274,
      -0.011672334745526314,
      -0.13101942837238312,
      0.14116916060447693,
      -0.050902582705020905,
      -0.2843036949634552,
      0.293366014957428,
      -0.06484086811542511,
      -0.1359352022409439,
      0.8235126733779907,
      -0.30250367522239685,
      0.08760111778974533,
      -0.07354951649904251,
      -0.20594991743564606,
      0.03413040190935135,
      -0.12553073465824127,
      0.14630542695522308,
      0.06503914296627045,
      0.45727595686912537,
      -0.1357782930135727,
      0.43891993165016174
    ],
    [
      -0.009393085725605488,
      0.20745036005973816,
      -0.09878828376531601,
      0.01690720021724701,
      0.02362319640815258,
      -0.21840332448482513,
      0.2948130667209625,
      0.015203646384179592,
      0.12358373403549194,
      0.219915509223938,
      0.43181344866752625,
      0.04592202231287956,
      0.21413373947143555,
      -0.316270112991333,
      0.1453055590391159,
      -0.003568685380741954,
      -0.012987201102077961,
      0.21003037691116333,
      0.23547542095184326,
      -0.018132369965314865,
      0.3095471262931824,
      -0.13410305976867676,
      -0.09504013508558273,
      0.05710667371749878,
      -0.03976627066731453,
      -0.2194025218486786,
      -0.34953078627586365,
      -0.10412620007991791,
      -0.3578561544418335,
      0.4706125557422638,
      0.14205127954483032,
      0.4312947988510132,
      0.03736116364598274,
      0.07429759204387665,
      0.22600892186164856,
      0.0639970600605011,
      0.046420950442552567,
      -0.022928114980459213,
      -0.20874692499637604,
      0.022694598883390427,
      -0.1599898487329483,
      0.052971791476011276,
      0.2841430604457855,
      -0.15981104969978333,
      -0.061723411083221436,
      -0.04895810782909393,
      0.0687781423330307,
      -0.22243346273899078,
      -0.26815393567085266,
      0.6244994401931763,
      0.11996279656887054,
      -0.15002717077732086,
      0.2374642789363861,
      -0.018545059487223625,
      -0.18116559088230133,
      0.05936931446194649,
      0.036024175584316254,
      0.05153385549783707,
      -0.19956055283546448,
      -0.061523474752902985,
      0.20531921088695526,
      0.08944009244441986,
      -0.0770479366183281,
      0.06992869824171066
    ],
    [
      0.09909367561340332,
      -0.23673905432224274,
      0.028064997866749763,
      0.02328271046280861,
      0.1061997041106224,
      -0.044644489884376526,
      -0.2054169625043869,
      0.22959163784980774,
      -0.41071051359176636,
      0.12254174798727036,
      0.3417227864265442,
      0.2021661400794983,
      0.3123926520347595,
      0.3349815905094147,
      0.043318916112184525,
      0.1301911622285843,
      -0.18928906321525574,
      -0.16422128677368164,
      -0.1071196123957634,
      0.1364276260137558,
      -0.14029404520988464,
      0.10134251415729523,
      0.4647964537143707,
      0.06682168692350388,
      0.45737364888191223,
      -0.021910278126597404,
      -0.016997234895825386,
      -0.06166747584939003,
      -0.11116541177034378,
      -0.06082591414451599,
      -0.015133271925151348,
      0.007213013246655464,
      0.2101704478263855,
      -0.21747398376464844,
      0.19120144844055176,
      0.10669200122356415,
      0.1117149144411087,
      -0.29316267371177673,
      0.007744808215647936,
      -0.04519881308078766,
      -0.08241331577301025,
      0.2972342371940613,
      0.07951567322015762,
      -0.22738483548164368,
      -0.2953941822052002,
      -0.03730788826942444,
      -0.38503944873809814,
      0.08478334546089172,
      -0.11546437442302704,
      0.14953181147575378,
      -0.025728221982717514,
      -0.08027259260416031,
      -0.39062947034835815,
      0.1619023084640503,
      -0.4399135708808899,
      -0.09162061661481857,
      0.19055867195129395,
      0.19616682827472687,
      0.05397067219018936,
      -0.07632178068161011,
      0.16652561724185944,
      0.14579671621322632,
      -0.3719072937965393,
      -0.024001015350222588
    ],
    [
      0.20123359560966492,
      -0.19023679196834564,
      0.4257720708847046,
      0.11110131442546844,
      -0.26595938205718994,
      0.27524131536483765,
      0.1855899691581726,
      -0.11727775633335114,
      0.05386759713292122,
      -0.20155394077301025,
      -0.1601419597864151,
      0.3055513799190521,
      -0.4034379720687866,
      0.09153370559215546,
      0.05649273842573166,
      -0.06573033332824707,
      -0.14482004940509796,
      0.255884051322937,
      -0.1319568157196045,
      -0.3149004578590393,
      0.14064237475395203,
      0.0885239765048027,
      -0.3879593312740326,
      0.1962732970714569,
      -0.14389687776565552,
      -0.030671244487166405,
      -0.19841155409812927,
      0.09275946766138077,
      0.18649055063724518,
      0.0399746336042881,
      0.26120418310165405,
      -0.3700380325317383,
      0.25890305638313293,
      -0.0026469584554433823,
      -0.030518146231770515,
      0.05628374591469765,
      0.20305857062339783,
      0.15014711022377014,
      0.1716160774230957,
      -0.011350748129189014,
      0.017619501799345016,
      -0.018723037093877792,
      -0.3251555860042572,
      -0.31203019618988037,
      0.08077401667833328,
      -0.04365028068423271,
      -0.14923684298992157,
      0.009143047966063023,
      -0.13125766813755035,
      0.0012063292087987065,
      -0.04238409548997879,
      0.46747809648513794,
      0.09822511672973633,
      0.030313970521092415,
      0.2251812219619751,
      -0.13489769399166107,
      0.06448967754840851,
      -0.015835221856832504,
      -0.22741279006004333,
      0.19679272174835205,
      -0.32823604345321655,
      -0.1848883032798767,
      0.08368244767189026,
      -0.25700536370277405
    ],
    [
      -0.03512655571103096,
      -0.4202871024608612,
      0.17525480687618256,
      -0.11730066686868668,
      -0.16421402990818024,
      0.04261581599712372,
      -0.012648344971239567,
      -0.047539275139570236,
      0.21437808871269226,
      -0.8597759008407593,
      -0.07059677690267563,
      0.4030715227127075,
      0.39165258407592773,
      0.28322309255599976,
      -0.0426914282143116,
      0.44316422939300537,
      0.13106407225131989,
      0.15955141186714172,
      -0.1179140955209732,
      0.15286868810653687,
      0.07633047550916672,
      -0.08118275552988052,
      -0.029542330652475357,
      0.3567090928554535,
      -0.058505840599536896,
      0.018225092440843582,
      -0.03339644521474838,
      -0.15308474004268646,
      -0.19928304851055145,
      -0.04439931735396385,
      0.05425427481532097,
      0.013596181757748127,
      -0.4583790898323059,
      -0.22457240521907806,
      -0.6253780722618103,
      0.16669601202011108,
      -0.373218834400177,
      0.30614757537841797,
      -0.09195058047771454,
      -0.186619371175766,
      0.508621096611023,
      -0.12850713729858398,
      0.006611328572034836,
      0.01676015928387642,
      -0.01971040479838848,
      0.06436686962842941,
      -0.2311968058347702,
      -0.191816508769989,
      0.4378676414489746,
      -0.48103269934654236,
      0.12329353392124176,
      0.2863343358039856,
      -0.6660064458847046,
      0.08094566315412521,
      0.23562650382518768,
      -0.14410988986492157,
      0.14623649418354034,
      -0.07219582796096802,
      0.08930868655443192,
      -0.16166123747825623,
      -0.31549373269081116,
      -0.16559317708015442,
      -0.053606245666742325,
      -0.08829473704099655
    ],
    [
      -0.11876191943883896,
      -0.1712207794189453,
      0.13843165338039398,
      -0.11069556325674057,
      -0.28941774368286133,
      -0.03598581254482269,
      -0.14660444855690002,
      -0.22266507148742676,
      -0.3286563456058502,
      -0.002290345262736082,
      0.1869838535785675,
      -0.13015227019786835,
      -0.12096462398767471,
      0.018888214603066444,
      0.3341101109981537,
      0.019406786188483238,
      0.2243836373090744,
      0.2181609570980072,
      -0.2026679813861847,
      0.37939104437828064,
      -0.13107550144195557,
      0.07738905400037766,
      -0.3321416676044464,
      0.02153146266937256,
      -0.2972531020641327,
      0.1578103005886078,
      0.27794238924980164,
      0.0846281573176384,
      -0.09481912106275558,
      0.3984285891056061,
      -0.11312992125749588,
      -0.07006273418664932,
      -0.5755370259284973,
      -0.20788848400115967,
      0.2268919050693512,
      -0.16541145741939545,
      0.3101297616958618,
      -0.03368143364787102,
      -0.18359710276126862,
      0.022531472146511078,
      -0.25029653310775757,
      0.026596181094646454,
      0.02633661963045597,
      0.29972565174102783,
      0.33281219005584717,
      -0.19131946563720703,
      -0.2877148985862732,
      0.00710108270868659,
      0.19899959862232208,
      0.022286031395196915,
      0.02356194704771042,
      0.1417986899614334,
      -0.03670329973101616,
      0.2598821222782135,
      -0.3080918788909912,
      0.07559400051832199,
      -0.6198301315307617,
      0.09877966344356537,
      -0.00589765515178442,
      -0.5653812885284424,
      -0.3395892381668091,
      -0.3468824625015259,
      -0.07717479020357132,
      0.0969531238079071
    ],
    [
      0.27306967973709106,
      0.24794147908687592,
      0.04673145338892937,
      -0.008074115961790085,
      -0.07447268068790436,
      -0.052189961075782776,
      0.07571127265691757,
      0.34751489758491516,
      -0.15222494304180145,
      0.22866201400756836,
      0.17521756887435913,
      -0.1997450292110443,
      0.2894057333469391,
      -0.2988080382347107,
      0.041291311383247375,
      0.1400703340768814,
      0.054040297865867615,
      -0.16250360012054443,
      -0.16867104172706604,
      0.057898472994565964,
      -0.34361836314201355,
      -0.21513156592845917,
      -0.3152447044849396,
      0.22571779787540436,
      0.30186524987220764,
      -0.1494612991809845,
      0.06275992840528488,
      0.012255264446139336,
      -0.06404844671487808,
      -0.024705808609724045,
      0.09607423841953278,
      0.01576615497469902,
      0.3406042456626892,
      -0.3797801733016968,
      0.32116883993148804,
      0.2700742185115814,
      -0.09624633193016052,
      0.07080623507499695,
      -0.022759228944778442,
      -0.010734553448855877,
      -0.4190625846385956,
      -0.01510139461606741,
      0.15919415652751923,
      -0.057990770787000656,
      -0.17781119048595428,
      -0.19820484519004822,
      0.07071025669574738,
      -0.1344885379076004,
      -0.28415969014167786,
      -0.2236884981393814,
      0.07290848344564438,
      -0.1343620866537094,
      0.46215948462486267,
      -0.2211591601371765,
      -0.4278266727924347,
      0.1522383689880371,
      0.07142043113708496,
      -0.04018734022974968,
      0.23982074856758118,
      0.03686348721385002,
      0.1038285344839096,
      -0.017181599512696266,
      0.24886751174926758,
      0.05808231979608536
    ],
    [
      -0.21179039776325226,
      0.11836957186460495,
      -0.13126949965953827,
      0.37385886907577515,
      -0.21235141158103943,
      0.07940208166837692,
      -0.36799943447113037,
      0.6391620635986328,
      -0.14604562520980835,
      0.23576265573501587,
      0.4349692165851593,
      0.27062469720840454,
      0.4780566096305847,
      0.44305890798568726,
      -0.033588308840990067,
      -0.020284216850996017,
      -0.1262168139219284,
      0.08970542252063751,
      -0.17497853934764862,
      -0.2411121428012848,
      -0.1973515897989273,
      -0.09901051223278046,
      0.5677049160003662,
      0.0006872705998830497,
      0.27490586042404175,
      0.1573919951915741,
      0.020529139786958694,
      -0.20179511606693268,
      0.11303597688674927,
      -0.30486130714416504,
      -0.31422680616378784,
      0.2419956773519516,
      0.3651584982872009,
      -0.2959766983985901,
      -0.5832692980766296,
      0.1931690275669098,
      -0.08585035800933838,
      -0.08823718875646591,
      0.4407438635826111,
      0.16878454387187958,
      0.3360016644001007,
      -0.42604902386665344,
      -0.06681395322084427,
      -0.5238274335861206,
      -0.46188369393348694,
      -0.09790022671222687,
      0.21552826464176178,
      -0.18568094074726105,
      -0.6628202199935913,
      0.3287201523780823,
      0.03759795427322388,
      -0.02166556753218174,
      0.28979015350341797,
      -0.8052093386650085,
      -0.011852562427520752,
      0.6893883347511292,
      0.11186101287603378,
      0.11889766901731491,
      -0.18019811809062958,
      0.36576545238494873,
      0.6434890627861023,
      0.7522828578948975,
      0.14688250422477722,
      -0.04081279784440994
    ],
    [
      -0.037781573832035065,
      -0.2797156870365143,
      -0.06614650785923004,
      0.20249861478805542,
      -0.4929404556751251,
      0.31844496726989746,
      0.20919467508792877,
      -0.21004316210746765,
      0.24115902185440063,
      0.0077582295052707195,
      0.06393135339021683,
      -0.028701186180114746,
      -0.43025967478752136,
      -0.49032559990882874,
      -0.08589310944080353,
      -0.2449503391981125,
      0.3379003703594208,
      -0.16347365081310272,
      -0.18098777532577515,
      -0.16891899704933167,
      0.1273333579301834,
      -0.29986056685447693,
      -0.030062900856137276,
      -0.21605487167835236,
      0.19740773737430573,
      -0.07181208580732346,
      0.06532173603773117,
      0.04570648819208145,
      0.31193962693214417,
      -0.20228707790374756,
      0.22238574922084808,
      -0.17803092300891876,
      0.0985490009188652,
      0.24668394029140472,
      -0.33555349707603455,
      0.019982321187853813,
      -0.2794632911682129,
      -0.24944248795509338,
      -0.2538553476333618,
      -0.1659979671239853,
      -0.07576408237218857,
      -0.2024417519569397,
      -0.15153567492961884,
      0.12016108632087708,
      0.13695348799228668,
      0.20701269805431366,
      0.11598790436983109,
      -0.18368349969387054,
      0.20378805696964264,
      -0.032493121922016144,
      -0.09558115154504776,
      0.24183788895606995,
      0.015319694764912128,
      0.038317810744047165,
      0.11638930439949036,
      -0.18615208566188812,
      -0.13132068514823914,
      0.15055955946445465,
      0.05763843655586243,
      -0.2351357638835907,
      -0.20765727758407593,
      -0.2335754632949829,
      -0.26441603899002075,
      -0.5084196329116821
    ],
    [
      0.027358312159776688,
      0.2242424339056015,
      0.34682342410087585,
      -0.01337079145014286,
      -0.20792493224143982,
      0.30464112758636475,
      0.33298996090888977,
      -0.20953230559825897,
      -0.15728448331356049,
      -0.014230973087251186,
      -0.36945784091949463,
      -0.0670103132724762,
      0.15205764770507812,
      0.2097756266593933,
      0.18225103616714478,
      -0.4135437309741974,
      0.027632761746644974,
      -0.14714175462722778,
      -0.2959437370300293,
      0.3608037233352661,
      -0.08149739354848862,
      0.08134213089942932,
      0.04197024926543236,
      -0.1538403481245041,
      0.16237246990203857,
      -0.2486310750246048,
      -0.09418141096830368,
      0.21576383709907532,
      -0.23646678030490875,
      0.13869908452033997,
      -0.14792871475219727,
      -0.05115221068263054,
      -0.026881257072091103,
      -0.06669962406158447,
      0.2879730463027954,
      -0.014497963711619377,
      0.19943486154079437,
      -0.02531314082443714,
      -0.32369863986968994,
      0.1613387167453766,
      -0.054718129336833954,
      0.1081448346376419,
      0.214275524020195,
      0.07395346462726593,
      0.5111830830574036,
      0.22160042822360992,
      -0.01673453114926815,
      -0.22846455872058868,
      0.016300564631819725,
      -0.06778493523597717,
      0.2550268769264221,
      0.0501582995057106,
      0.10193010419607162,
      0.2996944785118103,
      -0.10913240909576416,
      -0.2412307858467102,
      -0.17414042353630066,
      -0.18906670808792114,
      -0.06305357068777084,
      0.04404357075691223,
      0.04821571707725525,
      -0.21283665299415588,
      -0.03992300480604172,
      -0.0807444229722023
    ],
    [
      -0.2335406392812729,
      -0.30338409543037415,
      0.43743959069252014,
      0.012535308487713337,
      0.17530880868434906,
      0.1858510822057724,
      -0.0009126639924943447,
      -0.2511342465877533,
      -0.2734408974647522,
      -0.42896586656570435,
      -0.27070438861846924,
      -0.2324412614107132,
      0.21238884329795837,
      -0.11819691956043243,
      0.08197183161973953,
      0.23240144550800323,
      0.13299056887626648,
      -0.024123067036271095,
      -0.07300043851137161,
      0.3931988775730133,
      0.24641183018684387,
      0.10034505277872086,
      -0.17833837866783142,
      -0.1325574517250061,
      -0.22012238204479218,
      0.1299905776977539,
      0.011612767353653908,
      0.24128293991088867,
      -0.2521241307258606,
      -0.117501400411129,
      -0.03932156786322594,
      0.2234223484992981,
      0.30289775133132935,
      -0.08032058924436569,
      -0.13407129049301147,
      -0.2023770809173584,
      -0.5706757307052612,
      -0.09542004019021988,
      0.08718019723892212,
      -0.028210671618580818,
      0.021078411489725113,
      0.20940262079238892,
      0.061306826770305634,
      0.06491739302873611,
      0.014134956523776054,
      -0.19127969443798065,
      -0.3758493959903717,
      0.10668295621871948,
      0.3797188997268677,
      -0.10154186934232712,
      0.18129895627498627,
      0.17713050544261932,
      -0.06122615560889244,
      0.5682529211044312,
      -0.1431475132703781,
      0.49216458201408386,
      -0.12911240756511688,
      0.1522047072649002,
      -0.12528271973133087,
      -0.18713605403900146,
      -0.3772362470626831,
      -0.3293306529521942,
      -0.2761467397212982,
      0.04209564998745918
    ],
    [
      0.24930277466773987,
      -0.37045082449913025,
      -0.008439683355391026,
      -0.26221418380737305,
      0.06009627506136894,
      -0.08017049729824066,
      -0.4455741345882416,
      -0.45865264534950256,
      0.08103882521390915,
      -0.21749600768089294,
      -0.11762142926454544,
      0.33552613854408264,
      0.2814587354660034,
      0.21647903323173523,
      0.22376057505607605,
      0.20405854284763336,
      0.2865215837955475,
      -0.03157931566238403,
      -0.306069016456604,
      0.06749764084815979,
      0.5039911270141602,
      -0.22055812180042267,
      -0.11876757442951202,
      0.0940357893705368,
      0.1197621300816536,
      0.38246801495552063,
      0.015702838078141212,
      0.17523819208145142,
      -0.10627131164073944,
      0.03372105211019516,
      0.14230984449386597,
      -0.2404179871082306,
      -0.18470197916030884,
      -0.11641300469636917,
      0.0328020341694355,
      -0.1413549929857254,
      -0.27473536133766174,
      0.3763779103755951,
      -0.17255619168281555,
      0.09189853072166443,
      0.44252869486808777,
      0.17926190793514252,
      0.05176425725221634,
      -0.08849611133337021,
      -0.2385844886302948,
      0.07614723592996597,
      0.008167443796992302,
      0.31579238176345825,
      0.11610328406095505,
      -0.35583654046058655,
      -0.13045433163642883,
      0.14390268921852112,
      -0.42410796880722046,
      0.3399975895881653,
      0.5223997235298157,
      0.32666951417922974,
      0.007092940621078014,
      -0.06510433554649353,
      -0.024063512682914734,
      -0.45296135544776917,
      -0.1030060276389122,
      -0.2023741602897644,
      -0.09045422822237015,
      -0.40426573157310486
    ],
    [
      0.12386080622673035,
      0.19167371094226837,
      -0.3294389545917511,
      0.5384791493415833,
      0.1872805953025818,
      -0.23180176317691803,
      -0.22943943738937378,
      0.2261168658733368,
      0.17566682398319244,
      -0.046161066740751266,
      0.03830133005976677,
      -0.06142065301537514,
      0.2342611849308014,
      0.1129876896739006,
      -0.0077596367336809635,
      -0.21716631948947906,
      0.16798703372478485,
      -0.38274911046028137,
      -0.054375000298023224,
      0.014977565966546535,
      -0.14474917948246002,
      -0.2299061417579651,
      -0.003029752755537629,
      -0.196485236287117,
      0.16630464792251587,
      0.05546662211418152,
      -0.10405707359313965,
      -0.14078737795352936,
      -0.31226325035095215,
      0.3057354986667633,
      -0.21007919311523438,
      0.09861248731613159,
      -0.04308357089757919,
      -0.014076611958444118,
      0.15601296722888947,
      -0.1408420205116272,
      0.10957080125808716,
      0.0018609317485243082,
      -0.06454648077487946,
      0.2814212739467621,
      -0.37552013993263245,
      0.23075802624225616,
      -0.14181861281394958,
      -0.01816701330244541,
      -0.2968765199184418,
      -0.09686286747455597,
      -0.1906673014163971,
      0.06676248461008072,
      -0.0544101856648922,
      0.5631683468818665,
      -0.07595741003751755,
      -0.019102176651358604,
      -0.004482356831431389,
      -0.22522121667861938,
      0.024856960400938988,
      -0.08695297688245773,
      -0.17632660269737244,
      -0.16290375590324402,
      -0.0579419806599617,
      0.25551968812942505,
      -0.27616167068481445,
      -0.015715578570961952,
      0.19921164214611053,
      0.23921963572502136
    ],
    [
      0.1973372995853424,
      0.06525730341672897,
      -0.14268790185451508,
      -0.32545432448387146,
      -0.16578033566474915,
      0.3206988275051117,
      -0.11614388972520828,
      0.6593390703201294,
      0.13821116089820862,
      0.19187922775745392,
      0.08734367042779922,
      -0.00905181560665369,
      -0.07560523599386215,
      -0.1126788929104805,
      -0.09638490527868271,
      -0.21385696530342102,
      -0.5164997577667236,
      -0.11063499003648758,
      0.19204090535640717,
      -0.37597110867500305,
      -0.180332213640213,
      -0.2313341647386551,
      0.398495078086853,
      -0.1858106255531311,
      0.3261089026927948,
      -0.07524143159389496,
      -0.11973077803850174,
      0.07738518714904785,
      0.0809042677283287,
      0.1782340407371521,
      0.03823241963982582,
      0.20829586684703827,
      0.15207277238368988,
      -0.3933556377887726,
      -0.12979434430599213,
      -0.21219874918460846,
      -0.04700267314910889,
      0.05086018145084381,
      0.24073080718517303,
      0.27821585536003113,
      -0.17847158014774323,
      0.1507515013217926,
      0.37191396951675415,
      -0.26105114817619324,
      0.14031004905700684,
      -0.3793397843837738,
      0.35053563117980957,
      -0.13829274475574493,
      -0.276221364736557,
      0.24502834677696228,
      -0.3753572702407837,
      -0.34449777007102966,
      0.1858745962381363,
      -0.5567637085914612,
      -0.1166721060872078,
      0.06155678257346153,
      -0.14349576830863953,
      0.1282147765159607,
      -0.216241717338562,
      0.40070274472236633,
      0.37763649225234985,
      0.2743159532546997,
      0.04908980429172516,
      0.3219655454158783
    ],
    [
      0.04704681783914566,
      0.35727137327194214,
      -0.17483729124069214,
      0.278931587934494,
      0.3021112382411957,
      -0.4102207124233246,
      -0.18124039471149445,
      0.1421133130788803,
      -0.31942927837371826,
      0.024514373391866684,
      0.06655684858560562,
      -0.07540913671255112,
      0.08004610240459442,
      -0.06953701376914978,
      0.21849416196346283,
      0.14907704293727875,
      -0.15877440571784973,
      -0.16528399288654327,
      -0.15357846021652222,
      -0.054799553006887436,
      0.08859142661094666,
      0.3309951722621918,
      0.25923606753349304,
      0.031571678817272186,
      0.16183656454086304,
      -0.5091275572776794,
      0.06453444063663483,
      0.2625170946121216,
      0.1720430999994278,
      0.4720841646194458,
      0.004877846222370863,
      0.20686419308185577,
      0.23322908580303192,
      -0.2903052270412445,
      0.15975619852542877,
      0.10196619480848312,
      0.23856337368488312,
      -0.028736302629113197,
      -0.09950056672096252,
      0.04622834920883179,
      -0.16329242289066315,
      0.10871104896068573,
      0.0022272197529673576,
      0.06261330842971802,
      -0.11038745939731598,
      -0.08052220195531845,
      0.4047757089138031,
      -0.2477131187915802,
      0.36844977736473083,
      0.12225893139839172,
      0.05995464324951172,
      -0.23770305514335632,
      -0.06141960620880127,
      -0.21680274605751038,
      -0.17373211681842804,
      0.24543651938438416,
      -0.1096668541431427,
      -0.019626108929514885,
      -0.25834980607032776,
      -0.005892661865800619,
      -0.21002234518527985,
      0.36272212862968445,
      0.023484835401177406,
      0.12872302532196045
    ],
    [
      0.23883581161499023,
      0.44302669167518616,
      0.023067597299814224,
      0.1770876944065094,
      -0.2657383978366852,
      -0.115165114402771,
      -0.014078226871788502,
      -0.03489256277680397,
      -0.28701475262641907,
      -0.0743924230337143,
      0.25229084491729736,
      0.4132680296897888,
      0.18631623685359955,
      -0.24709755182266235,
      -0.3952750861644745,
      0.07988560944795609,
      -0.334481805562973,
      -0.20397530496120453,
      0.3029230535030365,
      -0.6981720328330994,
      -0.08354421705007553,
      -0.19882197678089142,
      -0.02873820997774601,
      -0.3551666736602783,
      0.055007316172122955,
      -0.057894907891750336,
      -0.011403809301555157,
      -0.1325874924659729,
      -0.09238355606794357,
      -0.11353332549333572,
      -0.29456138610839844,
      0.012425033375620842,
      0.15534326434135437,
      0.3664811849594116,
      -0.16696354746818542,
      0.01680794171988964,
      0.37633779644966125,
      -0.11926968395709991,
      -0.02281404286623001,
      0.08473015576601028,
      -0.13954947888851166,
      0.03451785817742348,
      0.02022409997880459,
      0.028818272054195404,
      0.2151191532611847,
      -0.14450380206108093,
      0.3631163537502289,
      0.002165409503504634,
      -0.17094752192497253,
      -0.006781106814742088,
      -0.45844992995262146,
      0.10601145029067993,
      0.31099697947502136,
      -0.3258100748062134,
      0.11696942150592804,
      0.0013909428380429745,
      0.07602133601903915,
      0.3421652019023895,
      0.01776854693889618,
      0.25404733419418335,
      0.3762381672859192,
      0.15089869499206543,
      0.06394558399915695,
      0.13620096445083618
    ],
    [
      -0.048990510404109955,
      -0.16157948970794678,
      -0.05421135947108269,
      -0.18324795365333557,
      -0.2464243769645691,
      -0.1301087588071823,
      -0.20584893226623535,
      0.08219848573207855,
      0.025015272200107574,
      -0.06028759106993675,
      0.36086371541023254,
      -0.06988067924976349,
      0.06265830248594284,
      0.20900756120681763,
      -0.024139687418937683,
      -0.15608839690685272,
      -0.2516920566558838,
      -0.24246856570243835,
      0.061047498136758804,
      -0.27219316363334656,
      0.05436437204480171,
      0.2569035291671753,
      0.0755571722984314,
      0.48480919003486633,
      -0.03704572841525078,
      -0.271022766828537,
      0.1406838446855545,
