{"log_std": [-0.6699013113975525, -0.8707215189933777], "mlp_extractor.policy_net.0.weight": [[-0.011940445750951767, -0.04352882131934166, 0.17055107653141022, 0.1779014617204666, -0.02539624460041523, 0.17703519761562347, -0.04921445995569229, 0.17413447797298431, -0.06657063215970993, 0.024561254307627678, 0.16940565407276154, -0.03127513825893402, 0.08936957269906998, 0.12549781799316406, -0.34162014722824097, 0.21927224099636078, 0.14581070840358734], [0.25602224469184875, 0.011458578519523144, -0.12565550208091736, -0.11628959327936172, -0.08994084596633911, 0.29198238253593445, -0.1872098743915558, -0.13717171549797058, 0.11987452208995819, 0.01781308650970459, -0.19757674634456635, -0.01383186411112547, -0.3502984344959259, -0.3001537024974823, 0.0230522770434618, -0.1953871101140976, -0.11278513073921204], [0.2052898406982422, 0.16712383925914764, 0.19270360469818115, -0.029373643919825554, 0.2158474177122116, -0.17119912803173065, -0.035250745713710785, -0.03707914799451828, -0.12802854180335999, -0.0056535834446549416, -0.06337955594062805, -0.07137978076934814, 0.4042341113090515, -0.3558606207370758, -0.10628118366003036, -0.16240757703781128, -0.02564859762787819], [-0.17832644283771515, 0.18437382578849792, 0.04346947744488716, 0.07976478338241577, -0.11083389073610306, 0.15431520342826843, -0.19987039268016815, -0.06608153134584427, 0.18256613612174988, 0.10996153950691223, 0.05317164957523346, 0.12922155857086182, 0.015218447893857956, -0.15248017013072968, -0.20435737073421478, 0.23059724271297455, -0.4778146743774414], [0.22053274512290955, 0.11730832606554031, -1.4739442121936008e-05, 0.2711741030216217, 0.10975444316864014, 0.06580249220132828, -0.07894876599311829, -0.229523703455925, -0.18340644240379333, -0.19936564564704895, -0.17717604339122772, -0.32140666246414185, -0.0076838587410748005, 0.2654600143432617, 0.08874204009771347, 0.03713865205645561, -0.14371325075626373], [-0.12660004198551178, 0.21180255711078644, -0.0636071264743805, 0.08963612467050552, 0.3480931222438812, 0.13463416695594788, -0.3710513710975647, 0.11174196004867554, -0.1399262398481369, -0.05941152572631836, -0.02321362867951393, 0.13257165253162384, 0.031034110113978386, -0.24093486368656158, -0.28033021092414856, 0.17591266334056854, -0.03968266025185585], [0.06821928918361664, 0.39295870065689087, 0.06145346164703369, -0.2580672800540924, 0.027738748118281364, 0.08653862029314041, 0.43436357378959656, 0.1640923023223877, 0.25698721408843994, 0.2996097207069397, -0.21461454033851624, 0.026952963322401047, -0.13484451174736023, -0.3996327519416809, -0.03078204020857811, 0.16347381472587585, 0.03188050538301468], [-0.014989900402724743, -0.12774129211902618, 0.1751793771982193, -0.06389940530061722, -0.1887865513563156, 0.13940417766571045, 0.12475250661373138, 0.13466554880142212, -0.12006635218858719, 0.1828344762325287, 0.30869728326797485, 0.12077870965003967, 0.4141308665275574, 0.0514262393116951, 0.050986919552087784, 0.06649105250835419, 0.14884574711322784], [-0.035372670739889145, -0.30492478609085083, 0.036680545657873154, -0.19379036128520966, 0.2288351207971573, -0.09057243168354034, 0.3404666483402252, -0.16609357297420502, 0.06603650003671646, -0.46835750341415405, -0.03873724862933159, 0.429531991481781, 0.37435898184776306, -0.05188891664147377, 0.1581231653690338, 0.16308075189590454, -0.027571292594075203], [-0.048241544514894485, -0.20322662591934204, 0.16159506142139435, 0.13941513001918793, -0.09046554565429688, 0.017719242721796036, 0.30580657720565796, 0.07263565063476562, -0.02387925051152706, -0.05677028000354767, 0.14748512208461761, -0.05724042281508446, 0.44952642917633057, 0.11096130311489105, 0.19416199624538422, -0.1169273778796196, 0.18019242584705353], [-0.018551941961050034, -0.24979965388774872, -0.2577723562717438, 0.24433211982250214, -0.016262345016002655, -0.07697547227144241, -0.22485341131687164, -0.2220924198627472, 0.17200304567813873, -0.09759094566106796, 0.17047438025474548, -0.052299994975328445, -0.189971923828125, 0.3617103397846222, 0.06590170413255692, 0.15049812197685242, 0.0010178056545555592], [-0.17178544402122498, -0.06008640304207802, 0.02921750210225582, 0.20956750214099884, -0.1272619068622589, 0.12245113402605057, -0.0873512402176857, 0.2082587033510208, -0.13496695458889008, 0.12041892856359482, 0.39011725783348083, -0.1357848048210144, 0.077384814620018, 0.15507839620113373, -0.039139363914728165, -0.12380916625261307, -0.08126498013734818], [0.4298531711101532, 0.03748181462287903, -0.04331129416823387, 0.11413867026567459, -0.11203774809837341, -0.03531122952699661, -0.02966121770441532, -0.013807196170091629, 0.1090877503156662, -0.06303256750106812, 0.12176915258169174, -0.004009373486042023, -0.10878264158964157, 0.06348662823438644, 0.07383203506469727, 3.982590351370163e-05, 0.11766776442527771], [0.16195893287658691, -0.030344726517796516, -0.08859022706747055, -0.07783453911542892, -0.19071325659751892, -0.27895134687423706, -0.39058712124824524, -0.287156343460083, 0.07097820192575455, -0.1302691251039505, 0.12974433600902557, -0.03187410905957222, -0.12083269655704498, 0.13471081852912903, -0.16598768532276154, -0.11766164749860764, 0.178492933511734], [0.137353777885437, 0.271822988986969, 0.037592146545648575, -0.11981455236673355, -0.009728723205626011, 0.05203050747513771, 0.07365056872367859, -0.1313353180885315, -0.08643974363803864, -0.13911674916744232, -0.006263585761189461, -0.34172433614730835, 0.013225816190242767, -0.14811208844184875, 0.2679709494113922, 0.011078810319304466, 0.09531016647815704], [-0.21629278361797333, 0.26022404432296753, -0.19288228452205658, -0.039970144629478455, -0.04083899408578873, -0.09069716185331345, -0.2609344720840454, -0.018021460622549057, 0.02025831677019596, 0.3052714467048645, 0.04102825000882149, -0.042474452406167984, 0.11468030512332916, -0.2770475745201111, -0.37261679768562317, -0.023614058271050453, 0.14813867211341858], [-0.2151835411787033, 0.04795762524008751, 0.11604562401771545, 0.04392756149172783, -0.02474140003323555, 0.04977298155426979, 0.1615249365568161, 0.04189315438270569, 0.012290720827877522, -0.09968682378530502, 0.26334139704704285, 0.052114032208919525, 0.5307298898696899, 0.03915323689579964, 0.028215229511260986, -0.011429404839873314, 0.20891207456588745], [0.03919382020831108, 0.08945562690496445, 0.06793352961540222, -0.20550474524497986, -0.05411331355571747, 0.13719391822814941, 0.024134226143360138, 0.04881838709115982, 0.27026164531707764, 0.19317777454853058, 0.019627990201115608, -0.3508809506893158, -0.038661688566207886, -0.31345435976982117, 0.0822305977344513, -0.32259926199913025, 0.06560225039720535], [0.25301313400268555, -0.19502466917037964, 0.28324416279792786, -0.02372325211763382, 0.13254296779632568, -0.04942083731293678, 0.07375402748584747, -0.14145086705684662, 0.12486886978149414, -0.16812752187252045, 0.08786572515964508, -0.20272524654865265, -0.33315300941467285, 0.2528119683265686, 0.017909064888954163, 0.43980368971824646, 0.09040133655071259], [-0.029866233468055725, -0.12152311205863953, 0.27311593294143677, 0.21406549215316772, -0.09105238318443298, 0.032731931656599045, 0.047164931893348694, -0.06211322918534279, 0.1673697531223297, 0.17144836485385895, 0.060175731778144836, -0.02823502942919731, 0.269411563873291, 0.33120644092559814, 0.07403566688299179, 0.010798067785799503, 0.34028559923171997], [0.14351439476013184, 0.16561149060726166, -0.12881475687026978, 0.029460225254297256, 0.10174945741891861, 0.24550755321979523, 0.6077022552490234, 0.35758131742477417, 0.1257449835538864, 0.3081177771091461, 0.019851787015795708, -0.04301954805850983, -0.18995796144008636, -0.022421451285481453, 0.2480229139328003, 0.14576610922813416, 0.08910168707370758], [0.1128247082233429, 0.04877084866166115, 0.2177405208349228, -0.02745511755347252, -0.053328316658735275, 0.045902226120233536, -0.3349967896938324, -0.03004191443324089, -0.02392074652016163, 0.028699085116386414, -0.1955558955669403, -0.30402278900146484, -0.19941452145576477, 0.0017144838348031044, -0.06078037992119789, 0.031062979251146317, 0.07884613424539566], [-0.6006870269775391, -0.23899897933006287, -0.04462594911456108, 0.1823410838842392, -0.025409145280718803, -0.052755869925022125, 0.17675188183784485, -0.09068407118320465, 0.13152974843978882, 0.232190802693367, -0.2689208686351776, -0.08161496371030807, -0.07650386542081833, -0.06901001930236816, 0.09086723625659943, -0.15389370918273926, 0.026167279109358788], [0.05284688621759415, 0.12515713274478912, -0.08481230586767197, 0.06078613921999931, 0.061296749860048294, 0.12390050292015076, -0.32664525508880615, -0.27906858921051025, -0.14184819161891937, -0.22945530712604523, 0.27491825819015503, -0.3193957805633545, -0.07465403527021408, 0.40184542536735535, -0.340099960565567, -0.08139865845441818, -0.09521447867155075], [0.1344568133354187, 0.10531758517026901, -0.08295337855815887, -0.09859772026538849, -0.08974204212427139, 0.11466655880212784, 0.11302392184734344, -0.002724230522289872, -0.040878839790821075, -0.11593573540449142, -0.24307598173618317, -0.04556155577301979, -0.03601742908358574, -0.19359607994556427, -0.15619079768657684, 0.1907997727394104, 0.24875567853450775], [-0.14380086958408356, -0.2033463418483734, -0.07479502260684967, -0.055601801723241806, 0.10355887562036514, -0.26458314061164856, -0.21854636073112488, -0.050734203308820724, -0.10142733156681061, -0.19353681802749634, 0.15737590193748474, -0.10807950049638748, -0.3063822388648987, -0.11995232105255127, -0.23679710924625397, -0.08636407554149628, 0.21464864909648895], [0.24093694984912872, 0.14859440922737122, 0.14869439601898193, -0.08997395634651184, 0.02831917256116867, 0.16037099063396454, -0.3594101071357727, 0.0904189944267273, -0.23611782491207123, 0.22008885443210602, -0.15803323686122894, -0.19575552642345428, 0.014402753673493862, -0.19599297642707825, 0.21041437983512878, -0.017205283045768738, 0.02343710884451866], [0.2255944162607193, -0.1674247831106186, 0.11286837607622147, 0.11652179062366486, -0.07236141711473465, 0.013226308859884739, 0.02040625363588333, 0.013111087493598461, 0.004966560285538435, -0.08951640129089355, 0.07842409610748291, -0.03362544625997543, -0.030960451811552048, -0.07994432747364044, 0.060296814888715744, -0.058690447360277176, -0.04881962016224861], [0.18048356473445892, -0.17545245587825775, -0.11144085973501205, 0.04502139240503311, -0.18669334053993225, 0.13606661558151245, -0.39238083362579346, 0.06884362548589706, -0.27400973439216614, 0.15263192355632782, 0.16310463845729828, -0.07474252581596375, -0.5243434309959412, 0.10427164286375046, -0.09506388008594513, -0.021243859082460403, -0.1650903820991516], [-0.40917855501174927, -0.1694869101047516, -0.22619220614433289, 0.09208734333515167, 0.011976988054811954, -0.2982538044452667, -0.1348319947719574, 0.1795850694179535, -0.20087900757789612, -0.07464466243982315, 0.29273658990859985, 0.11647949367761612, -0.20890235900878906, 0.05321967974305153, 0.02736717276275158, 0.2805158495903015, 0.12101734429597855], [-0.112022764980793, 0.0015873020747676492, -0.02520282007753849, 0.1393485963344574, -0.15609648823738098, 0.19668887555599213, -0.07406756281852722, 0.009276513010263443, -0.23149357736110687, 0.1131293922662735, 0.201607808470726, 0.13332271575927734, 0.23387256264686584, 0.2981816828250885, 0.06796590983867645, 0.06252240389585495, 0.024487940594553947], [0.31497496366500854, -0.1250476986169815, -0.007798824459314346, 0.16067148745059967, -0.04095035046339035, -0.18834266066551208, -0.19227401912212372, -0.19960308074951172, -0.08709375560283661, -0.006595298182219267, 0.10776299238204956, 0.1258164644241333, -0.2148713320493698, 0.13427849113941193, -0.07097045332193375, 0.0029605552554130554, 0.07634484022855759], [-0.015863461419939995, 0.00835144892334938, -0.366348534822464, 0.07548460364341736, -0.020639192312955856, 0.09871526062488556, 0.14274713397026062, -0.24308264255523682, 0.2279277741909027, 0.06439515203237534, -0.1468961387872696, 0.12457519769668579, -0.2089262753725052, -0.07158160954713821, -0.12745988368988037, -0.013860720209777355, -0.20627926290035248], [0.13105851411819458, -0.14225926995277405, -0.3973305821418762, 0.006860250141471624, -0.057606227695941925, -0.011443166993558407, 0.5654252767562866, -0.08468592911958694, -0.11691594868898392, 0.14607436954975128, 0.128042072057724, -0.015745174139738083, 0.028501098975539207, 0.049431055784225464, 0.049404170364141464, -0.08064879477024078, 0.06608739495277405], [0.13482438027858734, -0.1540265828371048, -0.22410380840301514, -0.16777415573596954, 0.11845973134040833, 0.10193086415529251, -0.14572234451770782, 0.15440554916858673, 0.09579235315322876, 0.20427700877189636, 0.10580896586179733, 0.0024060558062046766, -0.22190892696380615, -0.2691308557987213, 0.22754330933094025, 0.08596322685480118, 0.11466456949710846], [-0.1482275128364563, -0.298728346824646, 0.2680184841156006, 0.10028493404388428, -0.09963657706975937, 0.08901166915893555, 0.04992881044745445, -0.20838859677314758, 0.062073249369859695, -0.11572872847318649, -0.06552626192569733, 0.22106653451919556, 0.5184158086776733, -0.03253977745771408, 0.0609847791492939, 0.12986338138580322, -0.14195524156093597], [-0.19819897413253784, 0.14322832226753235, -0.2453925758600235, 0.044916436076164246, 0.13893330097198486, 0.2374269664287567, 0.16081680357456207, -0.3576888144016266, -0.08699394017457962, 0.03654724732041359, 0.15986743569374084, -0.06094568967819214, -0.22176775336265564, 0.023410435765981674, -0.04236609488725662, -0.18799471855163574, 0.05562989413738251], [0.06644610315561295, -0.35653796792030334, 0.11858727782964706, 0.09751764684915543, -0.056744616478681564, 0.20099730789661407, 0.038353580981492996, -0.059433143585920334, 0.12489678710699081, -0.08441570401191711, 0.1565868854522705, 0.14202643930912018, 0.25010454654693604, -0.0024748374707996845, 0.2450442910194397, -0.1036674976348877, 0.16903625428676605], [0.09524434059858322, 0.4010102152824402, 0.06005673110485077, -0.2799206078052521, 0.04657938331365585, -0.19195376336574554, 0.032682906836271286, 0.032270580530166626, -0.2665973901748657, -0.01701277680695057, 0.20391546189785004, 0.01249015238136053, -0.15197168290615082, -0.38084909319877625, -0.14906145632266998, 0.27362823486328125, 0.1319294422864914], [0.3106769621372223, 0.2531481981277466, -0.13845573365688324, -0.1742856204509735, 0.009578208439052105, 0.262349009513855, 0.07489404082298279, -0.009422192350029945, 0.10706252604722977, -0.1044391468167305, -0.25950947403907776, -0.06580378860235214, -0.2796359658241272, -0.13401749730110168, 0.08400730043649673, 0.08797933906316757, 0.05960775911808014], [-0.15446366369724274, 0.02253110148012638, 0.055774785578250885, -0.16052207350730896, -0.1309698075056076, -0.04479273781180382, -0.09534882009029388, -0.1477804183959961, -0.11577016115188599, -0.09978723526000977, 0.1512266993522644, 0.10049081593751907, 0.3072323501110077, 0.2463655024766922, 0.1997465044260025, 0.14845068752765656, 0.06967436522245407], [-0.0018723508110269904, -0.0814792662858963, -0.18967720866203308, 0.3863462805747986, 0.026533354073762894, -0.006833250634372234, -0.4580979645252228, -0.10533003509044647, -0.14882351458072662, 0.009284473024308681, 0.022739512845873833, 0.08027314394712448, -0.007277356460690498, 0.11722671240568161, -0.1659664809703827, 0.1512526124715805, 0.16708874702453613], [0.16098690032958984, -0.27375370264053345, 0.045336153358221054, -0.13289034366607666, 0.15236935019493103, -0.08162622898817062, 0.33374905586242676, 0.07296589016914368, -0.23602668941020966, 0.020095424726605415, -0.22492258250713348, 0.10684466361999512, 0.131084606051445, -0.17493373155593872, 0.20837858319282532, 0.15387992560863495, -0.23301057517528534], [0.020595667883753777, 0.15491217374801636, -0.43206632137298584, -0.045287903398275375, -0.012049049139022827, 0.04973260313272476, 0.10748475044965744, 0.20590931177139282, 0.2027527242898941, 0.26331815123558044, -0.24994142353534698, 0.026872726157307625, -0.13761091232299805, -0.18410955369472504, 0.04208330437541008, -0.1943373680114746, -0.04444199427962303], [0.22418515384197235, 0.10055069625377655, -0.25928783416748047, -0.06000550091266632, -0.03998913988471031, 0.07055733352899551, -0.19574126601219177, -0.02849261462688446, -0.10718964785337448, -0.024355299770832062, 0.0016425717622041702, 0.14121876657009125, -0.5687574148178101, -0.05601620674133301, -0.1075344830751419, -0.27815431356430054, -0.025121187791228294], [0.005438016261905432, -0.18281340599060059, 0.15101538598537445, 0.1962936818599701, -0.0932379737496376, -0.06187167763710022, 0.07557179778814316, -0.0062783644534647465, 0.025468824431300163, 0.03860553726553917, 0.02106912061572075, 0.03816074877977371, 0.37691959738731384, 0.3363659083843231, 0.06037571281194687, -0.14512939751148224, -0.06776069849729538], [-0.15343283116817474, 0.3503035008907318, 0.27969807386398315, -0.2914479672908783, -0.07456652820110321, 0.0294125247746706, 0.024668071419000626, 0.22013026475906372, 0.12023548781871796, 0.17504584789276123, -0.0015866311732679605, 0.06675444543361664, 0.3082120418548584, -0.447954922914505, -0.06508144736289978, 0.10499394685029984, 0.05056106299161911], [0.1304008811712265, 0.2606414556503296, -0.16559287905693054, -0.23334071040153503, 0.011917763389647007, -0.05991397425532341, 0.05948092043399811, 0.3136550486087799, 0.33451566100120544, 0.30707255005836487, -0.1532151997089386, 0.019835134968161583, -0.1128629818558693, -0.37670233845710754, -0.08509920537471771, -0.13545569777488708, -0.06396601349115372], [-0.03191693499684334, -0.20014365017414093, 0.09632483124732971, 0.11672209203243256, 0.011450251564383507, -0.07020413130521774, 0.10659607499837875, -0.049947865307331085, -0.08417830616235733, 0.12800344824790955, -0.07151586562395096, 0.1625758409500122, 0.11588650941848755, 0.3125399053096771, 0.22965571284294128, -0.02385360188782215, -0.03513753414154053], [-0.14269933104515076, -0.04792239889502525, -0.08608318865299225, -0.1406029462814331, -0.03861087188124657, -0.2593460977077484, 0.008647853508591652, -0.3947574496269226, 0.059564776718616486, 0.024993421509861946, 0.361507385969162, 0.15328679978847504, -0.03134274482727051, 0.2464417964220047, -0.05477337911725044, -0.20149803161621094, -0.0017743485514074564], [0.06798793375492096, -0.22306181490421295, 0.13659171760082245, -0.08216559141874313, -0.22456172108650208, -0.029693806543946266, -0.26293107867240906, 0.07673467695713043, -0.05887752026319504, 0.09656686335802078, -0.0620243176817894, -0.19326217472553253, 0.25035855174064636, -0.12010149657726288, 0.03142789006233215, 0.0627911314368248, -0.04497038200497627], [-0.2148539274930954, -0.08142923563718796, -0.23900409042835236, 0.09074531495571136, 0.06361427903175354, -0.29119381308555603, -0.40182170271873474, -0.23362453281879425, -0.26790857315063477, -0.17967060208320618, -0.2640202045440674, -0.07993263006210327, -0.07680407166481018, -0.22341430187225342, -0.2325664758682251, 0.19660580158233643, -0.03616214171051979], [0.01943480223417282, -0.056319158524274826, 0.018445083871483803, 0.28553617000579834, 0.13425952196121216, 0.07788559794425964, -0.37669792771339417, -0.04337920993566513, -0.29873695969581604, 0.07506617903709412, 0.11602234095335007, -0.039960529655218124, 0.10511839389801025, 0.21985168755054474, -0.24354670941829681, -0.07541096210479736, 0.15324518084526062], [0.10782423615455627, -0.07365669310092926, -0.08512319624423981, 0.1214139387011528, -0.014416898600757122, 0.209079772233963, -0.012614885345101357, -0.08310052752494812, -0.05300215631723404, -0.24107922613620758, -0.01774447225034237, -0.04663972556591034, -0.14228785037994385, 0.32686400413513184, -0.13146354258060455, -0.005107770208269358, 0.1883193850517273], [-0.1986684948205948, 0.04332810640335083, 0.13091683387756348, -0.017475418746471405, -0.0195438452064991, -0.03035030886530876, 0.04739958792924881, 0.1661253273487091, -0.09123566746711731, 0.11687914282083511, -0.07592062652111053, 0.28553256392478943, 0.3899907171726227, 0.11231116950511932, -0.1907583326101303, -0.038508616387844086, 0.2906767427921295], [-0.24208208918571472, 0.21720345318317413, -0.4377327859401703, -0.11784419417381287, -0.06492407619953156, 0.08554152399301529, 0.036847248673439026, 0.11290591210126877, 0.1003483384847641, 0.20753268897533417, 0.052919432520866394, -0.0717913806438446, 0.08140701055526733, -0.12063542753458023, 0.21109101176261902, -0.2025984227657318, 0.1022358387708664], [-0.08566787093877792, -0.028045525774359703, 0.30990564823150635, -0.0524383969604969, -0.01967868208885193, -0.0010465179802849889, 0.28380247950553894, -0.0778072252869606, 0.16596850752830505, 0.11376294493675232, -0.13546966016292572, 0.29822948575019836, 0.9477800726890564, 0.375059574842453, 0.4015493094921112, 0.11302968859672546, 0.024633457884192467], [0.12694181501865387, 0.03713708370923996, -0.04355068504810333, -0.25878867506980896, 0.20178158581256866, -0.018659008666872978, -0.28188556432724, 0.06392274051904678, 0.21895629167556763, 0.2215113490819931, 0.32870209217071533, -0.051157914102077484, 0.1759868860244751, -0.0008084714645519853, -0.04345216974616051, -0.16050675511360168, 0.22284461557865143], [0.13257147371768951, -0.15559829771518707, -0.08416808396577835, 0.2330811321735382, 0.1536072939634323, 0.21024827659130096, -0.36082369089126587, 0.22378778457641602, -0.22873112559318542, 0.3039892017841339, -0.0203552283346653, 0.023673664778470993, 0.006228890269994736, 0.2678622901439667, -0.18797332048416138, 0.05834167078137398, 0.07261434942483902], [-0.2990025579929352, -0.026904350146651268, -0.29052141308784485, -0.1078178882598877, 0.10536570101976395, 0.06482841074466705, 0.05898417532444, -0.16030403971672058, -0.12271750718355179, 0.3687480390071869, 0.18406891822814941, 0.019160429015755653, -0.1448715180158615, -0.22722594439983368, 0.07621283084154129, -0.1335768848657608, 0.2937593460083008], [-0.2938317358493805, 0.22467140853405, -0.20625430345535278, -0.2302299588918686, -0.09429232776165009, -0.08925846219062805, 0.16998769342899323, 0.11715426295995712, -0.09644860029220581, 0.2221805453300476, -0.021585499867796898, -0.21632520854473114, 0.1372050642967224, -0.2968149185180664, 0.37594664096832275, -0.028311777859926224, 0.032276518642902374], [0.12704284489154816, 0.021676380187273026, 0.023494374006986618, 0.040662072598934174, -0.09351681917905807, 0.18951021134853363, -0.03451799228787422, 0.13448753952980042, -0.2834627330303192, -0.00599349569529295, -0.37702783942222595, -0.070006363093853, -0.39901527762413025, 0.027840089052915573, 0.08754289895296097, 0.15599457919597626, 0.1556924283504486], [-0.12261208146810532, 0.024140533059835434, 0.10425391048192978, -0.014521639794111252, 0.14316481351852417, 0.42306584119796753, 0.07948510348796844, 0.1841268688440323, -0.20640338957309723, -0.2253231406211853, -0.041650671511888504, 0.12288854271173477, 0.18786145746707916, -0.09328725934028625, 0.15074099600315094, 0.11464633792638779, 0.3245704472064972], [-0.15133699774742126, 0.14911334216594696, 0.10888707637786865, -0.11984272301197052, 0.013173357583582401, -0.13631632924079895, 0.1364879012107849, -0.5606802701950073, 0.12645408511161804, 0.09368926286697388, -0.4905547499656677, -0.2727300822734833, -0.05436985194683075, -0.02480185218155384, -0.005224891472607851, -0.4405011236667633, 0.1393500119447708], [0.07666227966547012, -0.1254132241010666, -0.07051998376846313, 0.24689117074012756, 0.017074067145586014, 0.2130986750125885, -0.05139875411987305, -0.10132676362991333, 0.2502167522907257, -0.05998934805393219, 0.061463650315999985, 0.19524767994880676, -0.09785908460617065, 0.3161817491054535, -0.10043355822563171, 0.20131328701972961, -0.08850571513175964], [0.2957909107208252, -0.0900992602109909, -0.19775158166885376, -0.07921813428401947, -0.09261421859264374, 0.009953722357749939, -0.05141819268465042, -0.14413094520568848, -0.06606913357973099, 0.0030050401110202074, -0.056495729833841324, -0.1994123011827469, -0.4698437452316284, -0.1790415346622467, -0.18735526502132416, -0.06040922552347183, -0.03187137469649315], [-0.11077769100666046, 0.10631243139505386, -0.10641354322433472, 0.044593729078769684, 0.06579270213842392, -0.28960397839546204, 0.019031690433621407, -0.016289424151182175, 0.19701611995697021, 0.1427800953388214, 0.15338067710399628, 0.08480040729045868, -0.09493841975927353, -0.34401094913482666, -0.016164319589734077, -0.17054234445095062, 0.12287652492523193], [-0.08762767910957336, -0.1666940152645111, 0.12007386237382889, 0.1326178014278412, -0.14620348811149597, 0.12024632096290588, -0.2482185959815979, 0.33993256092071533, -0.2680409252643585, 0.25597575306892395, -0.15574784576892853, -0.2700101137161255, 0.15984635055065155, 0.1758151352405548, -0.22554747760295868, 0.1704997718334198, -0.004034738522022963], [0.045832689851522446, -0.14405588805675507, 0.24916009604930878, -0.05339107662439346, 0.10596960037946701, 0.0023985649459064007, 0.3147631883621216, -0.07528126984834671, 0.029244815930724144, 0.05131978169083595, -0.0885951817035675, 0.11488715559244156, 0.45766526460647583, 0.16393280029296875, -0.02006899006664753, 0.21449249982833862, 0.024415522813796997], [0.12582255899906158, 0.13165855407714844, -0.020571868866682053, 0.18449217081069946, 0.11635400354862213, 0.14072658121585846, 0.11944185942411423, -0.03486589714884758, -0.38274529576301575, -0.10535234957933426, 0.1086134985089302, -0.11075583100318909, 0.09080822765827179, 0.008056738413870335, 0.2261444628238678, 0.06234726682305336, 0.041170768439769745], [0.07577542960643768, 0.0038052191957831383, 0.20248284935951233, 0.0013049319386482239, 0.0396534726023674, -0.07519880682229996, 0.07404324412345886, -0.16411025822162628, 0.10227692127227783, 0.05606769025325775, -0.15725839138031006, -0.12338472902774811, 0.9344841837882996, 0.08454515784978867, -0.08966362476348877, 0.005354140419512987, 0.10355812311172485], [-0.2772190570831299, 0.24625560641288757, -0.07507102191448212, 0.1867639273405075, 0.09404546767473221, 0.24756494164466858, -0.11947932094335556, 0.1446242332458496, 0.1530299186706543, -0.10713076591491699, 0.025220220908522606, 0.013959374278783798, -0.30464091897010803, 0.21719200909137726, -0.30196893215179443, 0.10976186394691467, -0.0766008123755455], [-0.12733720242977142, 0.07023841887712479, -0.21803778409957886, 0.10736118257045746, -0.04088698327541351, 0.139217346906662, 0.1952843964099884, -0.5101386904716492, 0.035937149077653885, -0.34930410981178284, -0.05754418671131134, -0.11648274958133698, -0.43355461955070496, -0.060903191566467285, 0.10716608166694641, -0.18759799003601074, -0.09064202755689621], [0.3432987630367279, -0.12918642163276672, 0.07685408741235733, 0.10753170400857925, 0.09855793416500092, 0.13402768969535828, 0.018249234184622765, 0.02697194553911686, 0.002125757047906518, -0.1769511103630066, 0.0376664437353611, -0.06756715476512909, -0.24863243103027344, 0.2734326720237732, -0.12692290544509888, -0.22322112321853638, 0.1977137327194214], [0.04679376631975174, 0.18131713569164276, 0.15016527473926544, 0.04022056609392166, -0.11853238940238953, 0.20694144070148468, -0.16092129051685333, -0.21948747336864471, -0.4187709093093872, -0.09296160191297531, -0.12476100772619247, -0.0833699032664299, -0.0704842060804367, -0.1742374449968338, 0.05491463094949722, 0.06751426309347153, 0.08383211493492126], [-0.20147281885147095, -0.0369764119386673, 0.19418923556804657, -0.06339284777641296, -0.08967598527669907, 0.17363059520721436, 0.3449876308441162, 0.007922546938061714, -0.12986941635608673, -0.04695849493145943, -0.06320521980524063, 0.12674358487129211, 0.5340572595596313, -0.29349640011787415, 0.07496315985918045, 0.1116371899843216, -0.08175688236951828], [-0.007201933301985264, 0.22029097378253937, -0.0909380167722702, 0.04298422858119011, 0.16663487255573273, 0.08563104271888733, 0.2325671911239624, 0.1760656088590622, -0.05502357706427574, 0.19523519277572632, 0.4353673756122589, 0.1903495192527771, 0.234898179769516, -0.6213784217834473, 0.1620214283466339, -0.024231519550085068, 0.09261669218540192], [0.11748198419809341, 0.07286136597394943, 0.38086023926734924, -0.0721345841884613, 0.0011552713112905622, 0.011368175968527794, 0.19701983034610748, -0.28607651591300964, -0.04170825332403183, 0.03359891101717949, 0.08229886740446091, -0.20404106378555298, 0.13471880555152893, -0.4641587734222412, 0.024777686223387718, -0.3679397702217102, -0.115298330783844], [-0.04400033876299858, 0.3033900856971741, 0.011562017723917961, 0.11693485081195831, 0.02794521488249302, -0.17110243439674377, 0.12291468679904938, 0.30510419607162476, 0.04887862503528595, -0.3709769546985626, 0.0604734793305397, 0.15655852854251862, -0.063058041036129, -0.03721169754862785, 0.1502462774515152, -0.1028611809015274, -0.11963103711605072], [0.08748967945575714, -0.1512354463338852, 0.16955572366714478, 0.06283766776323318, -0.01947864145040512, 0.00024134002160280943, -0.20878763496875763, 0.020780161023139954, -0.07534012943506241, -0.049556054174900055, 0.1264631599187851, -0.25224605202674866, 0.4365839958190918, 0.27877795696258545, 0.08630235493183136, 0.18413099646568298, -0.09200707823038101], [-0.11084316670894623, -0.007130511570721865, -0.42158859968185425, -0.05113548785448074, -0.05116891860961914, 0.04426421597599983, -0.18482699990272522, 0.2689456641674042, -0.1249614804983139, -0.1059185191988945, 0.15005528926849365, -0.1001405268907547, -0.26587218046188354, -0.2185787707567215, -0.03520330414175987, 0.1656017303466797, 0.1818743199110031], [-0.21940940618515015, 0.16849826276302338, 0.1338251531124115, -0.16032126545906067, -0.03542932868003845, -0.018899790942668915, 0.29230085015296936, 0.3395146429538727, 0.13947539031505585, 0.010819747112691402, -0.11509565263986588, 0.14230990409851074, 0.9022943377494812, -0.30162206292152405, 0.04105988144874573, -0.12671300768852234, -0.01677893102169037], [-0.21785104274749756, -0.056507665663957596, 0.16376812756061554, -0.06689837574958801, 0.01492591854184866, 0.022770658135414124, -0.1616324484348297, -0.3535340428352356, -0.1404038518667221, -0.03511713445186615, -0.18117865920066833, -0.43910959362983704, 0.1347527652978897, 0.11685996502637863, -0.007586721796542406, -0.0838630199432373, 0.013536141254007816], [-0.23934334516525269, 0.29711779952049255, -0.28666815161705017, -0.05044936388731003, -0.003164505586028099, 0.15013842284679413, 0.108949214220047, -0.3342917859554291, 0.2866603434085846, 0.11338796466588974, -0.07700566947460175, 0.05991116538643837, -0.3222604990005493, -0.021929791197180748, -0.04877645522356033, -0.136554554104805, 0.05127725005149841], [0.2742950916290283, 0.08241382986307144, -0.13113363087177277, 0.001873939298093319, -0.2792687714099884, -0.08134620636701584, -0.05792408436536789, 0.029736964032053947, 0.07004429399967194, 0.1136837974190712, -0.013061183504760265, 0.07509534060955048, -0.3062306046485901, -0.1492723524570465, -0.09425666928291321, -0.10060584545135498, -0.027507496997714043], [0.0835421159863472, -0.02378356270492077, 0.16321486234664917, -0.2003130167722702, 0.26288583874702454, 0.3606560230255127, -0.08673017472028732, -0.056629639118909836, 0.3077242374420166, -0.12972484529018402, 0.12618006765842438, -0.05957341566681862, -0.017839262261986732, -0.0626322329044342, -0.008202777244150639, 0.12474462389945984, 0.0332767590880394], [-0.0027358951047062874, -0.13577871024608612, 0.008502974174916744, -0.2486041784286499, -0.06537870317697525, 0.17787045240402222, 0.45634496212005615, -0.016907691955566406, 0.15670976042747498, -0.33591917157173157, -0.2662676274776459, -0.08239111304283142, 0.042560283094644547, 0.007181528024375439, 0.06893350929021835, 0.017229948192834854, 0.01956532523036003], [0.13334958255290985, -0.11417125165462494, 0.04960130900144577, 0.1973300278186798, 0.07803606986999512, -0.20533467829227448, -0.11717243492603302, -0.11250332742929459, 0.057741302996873856, 0.04432615637779236, 0.27305111289024353, 0.05060673877596855, -0.1379067748785019, 0.3796027898788452, 0.07496051490306854, -0.1465727984905243, -0.03549598902463913], [-0.1359153389930725, -0.04122526943683624, 0.4098499119281769, 0.003722743596881628, 0.11164029687643051, -0.08341901004314423, -0.10419664531946182, 0.0028911305125802755, 0.01295693963766098, -0.10408589988946915, -0.04737914726138115, -0.15651221573352814, 0.5930020213127136, 0.006063174456357956, 0.19167955219745636, -0.06313668936491013, -0.046636078506708145], [0.19350260496139526, 0.4260871410369873, -0.23194830119609833, 0.06370297819375992, 0.175011545419693, -0.1304587721824646, 0.39644908905029297, -0.04508305713534355, 0.05243348702788353, -0.12648004293441772, 0.07481896132230759, -0.49476170539855957, 0.1541031002998352, -0.10953923314809799, 0.4124983549118042, 0.13937745988368988, -0.04626172408461571], [0.3059220016002655, 0.02062656544148922, -0.1484416276216507, -0.3353363573551178, 0.2068186104297638, -0.05916447192430496, 0.302668958902359, 0.13941916823387146, -0.20505279302597046, 0.2248196303844452, -0.1710153967142105, 0.2036120444536209, -0.3657088875770569, -0.24977537989616394, 0.15042681992053986, -0.18135930597782135, -0.03493225947022438], [0.018864309415221214, -0.002459837356582284, -0.012514490634202957, -0.0015324440319091082, -0.07711567729711533, -0.17700748145580292, -0.098634272813797, -0.2900029122829437, -0.09620559960603714, -0.21723276376724243, -0.08849092572927475, -0.1514904648065567, -0.17217323184013367, 0.15949437022209167, 0.08982846885919571, -0.008234786801040173, 0.21179844439029694], [-0.23162750899791718, -0.10825806856155396, -0.06890811771154404, 0.22407561540603638, -0.1794595867395401, 0.09181313961744308, -0.022327808663249016, 0.07679980993270874, -0.09924042224884033, 0.053115472197532654, 0.09450282901525497, -0.23040877282619476, 0.0310054998844862, 0.16095054149627686, -0.2805044651031494, -0.1809656322002411, 0.16396304965019226], [-0.14165948331356049, -0.11667780578136444, -0.2464638352394104, 0.0930924043059349, 0.1270153671503067, 0.17008161544799805, -0.42382675409317017, -0.1528308093547821, -0.0582440048456192, 0.015486261807382107, -0.25994575023651123, 0.5531846880912781, 0.0016437916783615947, -0.09041736274957657, 0.052844032645225525, -0.024838266894221306, 0.002969098975881934], [-0.26107168197631836, 0.2421611100435257, -0.284770131111145, -0.17225216329097748, 0.2033310979604721, -0.11640849709510803, -0.2966631054878235, 0.024849724024534225, -0.5366960763931274, 0.17431896924972534, 0.08184124529361725, -0.0963425487279892, 0.033913303166627884, -0.05594772845506668, -0.0635577142238617, 0.11689260601997375, 0.03413636237382889], [-0.2708572447299957, -0.18620474636554718, -0.08012424409389496, -0.20970526337623596, 0.12405218183994293, -0.05813635140657425, 0.011134229600429535, 0.09810857474803925, 0.4195866286754608, 0.14018045365810394, 0.295417845249176, 0.14007994532585144, -0.1531275510787964, 0.02235340140759945, -0.22555656731128693, 0.033718377351760864, 0.027008691802620888], [0.20330922305583954, 0.00422338442876935, -0.3221733868122101, -0.11882396787405014, -0.2676343619823456, 0.044851578772068024, -0.1365552693605423, -0.043548550456762314, 0.1423574537038803, -0.1265963464975357, 0.022512029856443405, 0.2656424343585968, -0.2145741730928421, -0.0471319817006588, -0.18406108021736145, 0.0820949450135231, 0.05116087943315506], [-0.04595416411757469, -0.18976540863513947, 0.32607463002204895, 0.14089158177375793, 0.16439735889434814, 0.1752827912569046, 0.36535578966140747, 0.025356540456414223, -0.14721782505512238, -0.008838999085128307, 0.09832340478897095, 0.1762390434741974, 0.6288482546806335, 0.2309345006942749, 0.1396242380142212, 0.010878734290599823, -0.09498816728591919], [0.07112625241279602, 0.07277944684028625, -0.062373172491788864, 0.05828792601823807, -0.07578359544277191, -0.16194671392440796, 0.253069132566452, 0.11109814047813416, 0.3297004699707031, -0.25133150815963745, 0.09165390580892563, 0.17935548722743988, -0.0691034123301506, -0.16726800799369812, 0.06305266171693802, 0.3426284193992615, -0.058537185192108154], [-0.15304496884346008, -0.04604519531130791, -0.18965396285057068, -0.09500084072351456, 0.04419487714767456, -0.06257975846529007, -0.3260122239589691, 0.1406409591436386, -0.21997687220573425, -0.20480579137802124, 0.2807171642780304, 0.1576399952173233, 0.14279766380786896, 0.05284583196043968, 0.00043777248356491327, 0.2866818308830261, 0.1724255084991455], [-0.03284183889627457, 0.0595649890601635, -0.14889037609100342, -0.1601177304983139, -0.2185245156288147, 0.05798589810729027, 0.3131149411201477, -0.09794093668460846, 0.010411527007818222, -0.043820325285196304, -0.15543630719184875, -0.1796434372663498, 0.08717446774244308, -0.1532713621854782, 0.13862141966819763, -0.18927660584449768, -0.23534712195396423], [0.051133669912815094, -0.021603642031550407, -0.41673585772514343, 0.15689367055892944, 0.017474088817834854, 0.16330668330192566, 0.12939123809337616, -0.21460402011871338, 0.24693700671195984, 0.09572000056505203, 0.0874309092760086, -0.09454204142093658, 0.029473958536982536, -0.02863340824842453, -0.16979220509529114, 0.02656794711947441, -0.06288737803697586], [-0.17242661118507385, 0.21401070058345795, 0.2421920895576477, -0.14584673941135406, -0.13738420605659485, 0.06578456610441208, 0.10281167179346085, 0.0029662842862308025, 0.04914550855755806, -0.019214298576116562, 0.001962166279554367, 0.0834309533238411, 0.38493338227272034, -0.5960363149642944, 0.03755689412355423, -0.1825660914182663, 0.02230936475098133], [0.23484668135643005, 0.030392611399292946, 0.16641952097415924, -0.07033105939626694, -0.29155904054641724, -0.308676540851593, -0.17594195902347565, 0.3217238187789917, -0.08456674963235855, -0.06480030715465546, -5.2688090363517404e-05, -0.1613234579563141, -0.031275857239961624, -0.25417089462280273, -0.06031326204538345, -0.06971471011638641, 0.060188159346580505], [-0.1425732672214508, 0.06074333190917969, 0.29702475666999817, -0.14692163467407227, 0.004579603206366301, 0.021419651806354523, 0.3538094758987427, 0.12062595784664154, -0.09474120289087296, -0.09338336437940598, -0.10483939945697784, -0.08627483993768692, 0.9247658252716064, 0.05321092531085014, 0.08322352170944214, 0.14985999464988708, -0.07335713505744934], [-0.06589578837156296, 0.27285292744636536, 0.11542651802301407, -0.11458747088909149, -0.02492857351899147, -0.006721004378050566, 0.07325512170791626, -0.06963341683149338, 0.013994673267006874, 0.20597955584526062, 0.3922443389892578, 0.04615602269768715, 0.16073665022850037, -0.5301889777183533, -0.12818656861782074, -0.065118208527565, 0.04721026495099068], [-0.12892574071884155, 0.0034749838523566723, -0.11210525035858154, 0.1342570185661316, -0.15292981266975403, 0.02689173072576523, -0.1086699515581131, 0.08372805267572403, -0.054112955927848816, -0.0060422406531870365, 0.3497995138168335, -0.03340009227395058, -0.2025192379951477, 0.11069368571043015, -0.12662923336029053, -0.1825547218322754, -0.3021828532218933], [0.2566176950931549, 0.11947223544120789, -0.06408056616783142, -0.1320042610168457, 0.014583932235836983, 0.0739651471376419, -0.41047412157058716, -0.06443668901920319, -0.2333284616470337, 0.15334442257881165, -0.20015621185302734, 0.15195125341415405, -0.06818829476833344, -0.3680410087108612, -0.24669082462787628, -0.03400512412190437, 0.1095738559961319], [0.07393545657396317, -0.21095481514930725, 0.21787439286708832, -0.08866588771343231, 0.14123715460300446, -0.12748771905899048, 0.32190823554992676, 0.04186691716313362, 0.10936196893453598, -0.07650776207447052, -0.35180792212486267, 0.2721902132034302, -0.061917297542095184, 0.3270803689956665, 0.1074376255273819, 0.11359523981809616, 0.2417096197605133], [0.1263757050037384, -0.02874428778886795, -0.2102109044790268, 0.09758947044610977, 0.16183748841285706, -0.03906404227018356, 0.052355095744132996, 0.11360179632902145, 0.18447162210941315, -0.04586096853017807, 0.2556900978088379, -0.04603004455566406, -0.4473753571510315, 0.047793563455343246, 0.3294615149497986, -0.011105954647064209, 0.07020793110132217], [-0.33951205015182495, 0.343204140663147, 0.16848249733448029, -0.27953824400901794, -0.2650650143623352, -0.05928025022149086, -0.08311839401721954, -0.1309921145439148, -0.03344007208943367, 0.016897140070796013, 0.020000295713543892, 0.1781311184167862, 0.2388511598110199, -0.02320156991481781, -0.35738450288772583, -0.11002103239297867, 0.024186434224247932], [0.05284145846962929, 0.15430685877799988, 0.015773562714457512, 0.10331174731254578, -0.015268830582499504, -0.04224039241671562, -0.4550715386867523, 0.126576229929924, -0.11519204080104828, -0.16901513934135437, -0.2351849377155304, -0.059395208954811096, -0.10235118865966797, 0.13605506718158722, -0.165836900472641, 0.17914019525051117, 0.29025450348854065], [0.21037647128105164, -0.26707470417022705, 0.09237731993198395, 0.1353195309638977, -0.05598532408475876, -0.05571766197681427, 0.2608412802219391, -0.03608362376689911, 0.035935383290052414, -0.2651219367980957, 0.2272307276725769, 0.3275521397590637, 0.08105038851499557, 0.5121957063674927, -0.10858871787786484, 0.3069832921028137, -0.15447449684143066], [0.15114592015743256, -0.18540123105049133, -0.026459824293851852, 0.1049714982509613, 0.0012271679006516933, -0.0026237755082547665, -0.07334396243095398, 0.06266148388385773, 0.2926529049873352, -0.21177701652050018, 0.017234185710549355, 0.2966519594192505, -0.0965162143111229, 0.427740216255188, -0.18589848279953003, 0.05159496143460274, 0.16303066909313202], [-0.26265862584114075, -0.21670891344547272, -0.052732549607753754, -0.2536121904850006, -0.008122902363538742, -0.09358347952365875, 0.32716822624206543, -0.13065148890018463, 0.16551227867603302, -0.12265729159116745, 0.13674797117710114, 0.047855351120233536, 0.1325404793024063, 0.12571340799331665, 0.07852696627378464, 0.25714609026908875, 0.011869393289089203], [0.2699756622314453, -0.16707855463027954, -0.13024674355983734, -0.13547825813293457, -0.09343358129262924, -0.14434680342674255, -0.2771534025669098, -0.1750246286392212, -0.23214077949523926, 0.19717739522457123, -0.11324535310268402, 0.279428631067276, -0.2904534935951233, 0.12182324379682541, -0.09845344722270966, -0.20069752633571625, 0.01538934838026762], [0.03399352356791496, 0.18005076050758362, 0.27459320425987244, -0.11414392292499542, 0.048363666981458664, -0.13600535690784454, -0.2025453746318817, -0.10508174449205399, 0.020450351759791374, -0.016035491600632668, 0.27888983488082886, 0.22409717738628387, 0.502265989780426, -0.2633359432220459, 0.206346794962883, -0.05214913189411163, -0.08027002215385437], [-0.07809385657310486, -0.15320244431495667, 0.17195716500282288, -0.2610892653465271, -0.10683547705411911, 0.040026403963565826, -0.1591067612171173, -0.28489944338798523, 0.18842701613903046, -0.14818233251571655, -0.18738962709903717, -0.007551952730864286, 0.28444188833236694, -0.09318742156028748, -0.05884154886007309, -0.10515031963586807, -0.02810247242450714], [-0.14999009668827057, 0.37458518147468567, -0.06226221099495888, 0.07717140018939972, 0.011205990798771381, -0.19607937335968018, 0.19165639579296112, -0.2403317093849182, 0.22759974002838135, -0.12089390307664871, 0.03583263233304024, 0.003179993014782667, -0.10195387154817581, -0.24401113390922546, 0.1611330807209015, -0.11535142362117767, -0.11910209059715271], [-0.11655112355947495, -0.013669930398464203, 0.11435461789369583, -0.0178636834025383, -0.05758855864405632, -0.059162773191928864, 0.2379099577665329, -0.16619804501533508, 0.05064444616436958, 0.04681932181119919, -0.15942561626434326, -0.12734384834766388, 1.1021891832351685, -0.015600441955029964, 0.18110619485378265, 0.018500348553061485, -0.014890889637172222], [-0.12090176343917847, 0.01837862655520439, 0.08793820440769196, -0.08085574954748154, -0.0737573429942131, -0.0632973238825798, -0.025947870686650276, 0.1320113092660904, -0.057086240500211716, 0.058712489902973175, 0.1307247281074524, 0.1422303318977356, 0.4092511832714081, 0.4466572105884552, 0.0351606085896492, -0.1431867480278015, 0.07677023857831955], [-0.024257821962237358, 0.25054845213890076, 0.20005038380622864, -0.010601782239973545, 0.04889693111181259, -0.16813071072101593, -0.039881736040115356, 0.17770323157310486, -0.025566130876541138, -0.4549250900745392, -0.040445830672979355, 0.1869165301322937, 0.340972900390625, -0.6180933713912964, -0.10207901149988174, -0.19083239138126373, -0.17473812401294708], [0.11160663515329361, -0.05319962650537491, 0.06629537045955658, -0.24764946103096008, -0.12620900571346283, -0.14828111231327057, 0.022083021700382233, 0.033639565110206604, 0.016488267108798027, 0.030557557940483093, -0.25908389687538147, -0.030225008726119995, 0.06693573296070099, -0.026134638115763664, 0.019428756088018417, 0.18212172389030457, 0.031299155205488205], [-0.12286794185638428, 0.07194898277521133, 0.30459603667259216, 0.1758931577205658, -0.11509162932634354, -0.12126151472330093, -0.0360979326069355, -0.23985660076141357, -0.0786566361784935, 0.09280848503112793, 0.3189299404621124, 0.21761347353458405, 0.3426874876022339, -0.31205320358276367, 0.1965181678533554, 0.27251288294792175, 0.09803059697151184], [0.12526091933250427, 0.10264018923044205, -0.2077965885400772, 0.1143040582537651, -0.3068126142024994, -0.13848254084587097, -0.11117558181285858, -0.17366597056388855, -0.2480512410402298, -0.10029736906290054, -0.020481491461396217, -0.06633816659450531, -0.21320341527462006, 0.19736899435520172, 0.08699854463338852, 0.08978977054357529, -0.1913653463125229], [-0.08919878304004669, -0.192665234208107, -0.16780498623847961, -0.14056496322155, -0.09840664267539978, -0.11700582504272461, 0.41322585940361023, -0.19763830304145813, 0.0785871297121048, -0.21550863981246948, -0.24406608939170837, -0.003603629069402814, 0.3475416302680969, -0.2775719463825226, -0.06616047769784927, 0.34219518303871155, -0.02034386433660984], [0.02559114247560501, 0.11443398147821426, -0.001849972060881555, 0.0943586453795433, 0.2616649568080902, 0.1170039251446724, 0.28674814105033875, 0.25895214080810547, -0.23824234306812286, 0.12681923806667328, 0.11885391920804977, 0.09700579196214676, 0.2123570442199707, -0.09251104295253754, 0.1186966821551323, 0.03244319185614586, 0.2829168140888214], [0.012223972007632256, 0.06594140082597733, -0.09805846959352493, -0.033394068479537964, -0.03413064032793045, 0.37254729866981506, 0.12937115132808685, -0.15275736153125763, 0.3291337490081787, 0.17441752552986145, 0.3155609965324402, -0.03332195430994034, 0.005034963134676218, 0.2002963125705719, -0.04895487427711487, -0.05759505555033684, 0.008137756027281284]], "mlp_extractor.policy_net.0.bias": [0.0691872090101242, 0.04141515493392944, 0.0018015041714534163, -0.011694313026964664, 0.049802303314208984, 0.014735795557498932, 0.06023453176021576, 0.10500168800354004, -0.056938886642456055, -0.031399019062519073, 0.04619739577174187, 0.07231675833463669, 0.00826015044003725, -0.05806633457541466, -0.016072599217295647, 0.09498709440231323, 0.09127804636955261, 0.019065679982304573, 0.009802903048694134, 0.05296192690730095, 0.05096534267067909, -0.020899023860692978, -0.010654890909790993, 0.032561466097831726, -0.05570239946246147, 0.000964782782830298, 0.010108625516295433, 0.03791860118508339, 0.06823098659515381, -0.006490794010460377, 0.05992407724261284, 0.0157107412815094, 0.06443172693252563, 0.05878414958715439, -0.03069537691771984, 0.07151450961828232, 0.0465087816119194, 0.0050974152982234955, -0.04039042443037033, 0.03291868045926094, 0.11611134558916092, -0.15723712742328644, 0.04870045930147171, 0.0600816011428833, 0.08084219694137573, 0.04518970847129822, 0.00010330909572076052, 0.039620157331228256, 0.06492357701063156, -0.027219342067837715, 0.0662929117679596, 0.05775133892893791, -0.046037182211875916, -0.0027214670553803444, 0.09845875203609467, 0.003445782233029604, 0.07083756476640701, -0.049119796603918076, -0.02603178098797798, 0.09328260272741318, 0.10029317438602448, -0.02885027416050434, 0.05383024364709854, 0.061442889273166656, -0.048097237944602966, -0.030925387516617775, 0.09522797167301178, -0.04030990973114967, 0.04321945831179619, 0.0069315312430262566, 0.04122714698314667, -0.07699798792600632, 0.019227828830480576, 0.019709983840584755, 0.02550237812101841, -0.012237642891705036, 0.05584108084440231, 0.009861337020993233, 0.12654149532318115, 0.09092951565980911, -0.07856962084770203, 0.04829802364110947, 0.15835462510585785, 0.04783714935183525, -0.005979490466415882, -0.04838348925113678, 0.07855615764856339, 0.006145027931779623, 0.1067628487944603, 0.04049015790224075, 0.08378737419843674, 0.04126356542110443, -0.014246286824345589, 0.06853821873664856, 0.1218971461057663, -0.005369182676076889, -0.01978459022939205, 0.05433076620101929, 0.03391489014029503, -0.014227909967303276, 0.004297152627259493, 0.059359729290008545, -0.01581387408077717, 0.027496162801980972, 0.0464947335422039, 0.004559079650789499, 0.14177164435386658, -0.021584538742899895, 0.003487460082396865, 0.10368917882442474, 0.013501124456524849, -0.06791797280311584, 0.033370450139045715, -0.00495712086558342, 0.05576100945472717, -0.010329662822186947, 0.0795665979385376, 0.05413487181067467, -0.04236438497900963, 0.0604204386472702, 0.016367118805646896, 0.06636891514062881, 0.06253837049007416, 0.0879448875784874, -0.044614940881729126, 0.07671085000038147, -0.008912874385714531, 0.033258747309446335], "mlp_extractor.policy_net.2.weight": [[0.06097761169075966, 0.1546262800693512, -0.06043492257595062, -0.17930589616298676, -0.10007857531309128, 0.1568932980298996, 0.168547123670578, 0.13089703023433685, -0.133878692984581, -0.20882800221443176, 0.11154649406671524, -0.12465615570545197, 0.12653635442256927, 0.08513003587722778, 0.02429383620619774, 0.08272494375705719, 0.1946767121553421, -0.1688065081834793, -0.019129551947116852, -0.06326022744178772, -0.051768429577350616, 0.15517280995845795, -0.23651756346225739, 0.03619971498847008, -0.015285920351743698, 0.06751095503568649, 0.13365395367145538, -0.05356093496084213, 0.006037096027284861, -0.07495591044425964, -0.09947128593921661, 0.14767040312290192, 0.05959320068359375, 0.1411115974187851, -0.17731618881225586, 0.009894788265228271, 0.08682055026292801, 0.04981563985347748, -0.24691753089427948, 0.13969801366329193, 0.22087202966213226, -0.1544334441423416, 0.056484635919332504, -0.02235802635550499, 0.12410896271467209, -0.034283652901649475, 0.2978808879852295, -0.06118808686733246, -0.07290174067020416, 0.2566598355770111, -0.0724494680762291, 0.29005032777786255, -0.22395336627960205, 0.0006677921628579497, 0.07465685904026031, -0.01747926138341427, -0.10488145798444748, 0.025454161688685417, 0.001261252793483436, -0.041844818741083145, 0.02584327943623066, 0.062166452407836914, -0.3186076283454895, -0.2518206536769867, -0.13622742891311646, -0.07725422829389572, 0.14179325103759766, 0.06024178862571716, 0.13170203566551208, 0.1512676179409027, 0.24178770184516907, 0.020105436444282532, 0.09704912453889847, 0.08854568004608154, -0.09060467034578323, 0.02460748516023159, 0.2117021381855011, 0.14473488926887512, -0.03661759942770004, 0.03185288980603218, -0.06515894830226898, 0.05821524187922478, 0.13060128688812256, -0.1322031021118164, 0.052653662860393524, 0.07713764160871506, -0.0277769286185503, -0.07205316424369812, 0.14645010232925415, 0.031759049743413925, 0.08922162652015686, -0.005898247007280588, -0.13276556134223938, -0.07440287619829178, -0.0719548910856247, 0.17174649238586426, -0.12718766927719116, -0.1748896837234497, 0.13944824039936066, -0.023196415975689888, -0.11797648668289185, -0.05949154868721962, 0.1273135095834732, 0.2686691880226135, -0.09927128255367279, 0.33947595953941345, -0.19538407027721405, 0.12230215221643448, 0.262306809425354, 0.0884711891412735, 0.05696966126561165, -0.0033928239718079567, -0.15778931975364685, 0.06436730921268463, 0.01343589462339878, 0.30393993854522705, 0.022044144570827484, 0.18490639328956604, 0.01716558262705803, -0.1833156943321228, -0.004311566706746817, 0.14226797223091125, 0.12771782279014587, 0.17490893602371216, -0.15124797821044922, 0.12938137352466583, 0.09936250746250153, 0.23783043026924133], [-0.09286603331565857, 0.07062831521034241, 0.16273514926433563, -0.008430506102740765, -0.04788094013929367, 0.27224430441856384, 0.09823685884475708, -0.026045801118016243, 0.20674309134483337, 0.11754216253757477, 0.18600864708423615, -0.02414030209183693, -0.14805619418621063, 0.07535845041275024, 0.1094154417514801, -0.005694319028407335, 0.00204009423032403, 0.06477475166320801, -0.08622708171606064, -0.0277885552495718, -0.04664196819067001, 0.048285070806741714, 0.0011023522820323706, -0.27616867423057556, 0.02535226196050644, 0.3331160545349121, -0.21342380344867706, -0.0011726386146619916, 0.1137872263789177, 0.30913209915161133, -0.07792732864618301, 0.01515828724950552, -0.24503184854984283, -0.25110742449760437, 0.1364474892616272, 0.04416920244693756, -0.2826187312602997, -0.09283524751663208, 0.1492246687412262, -0.036186669021844864, -0.028503431007266045, -0.07973290234804153, -0.098624087870121, -0.009702629409730434, 0.1328614205121994, 0.1645156890153885, 0.15343491733074188, 0.04562453180551529, 0.030640926212072372, 0.273232638835907, 0.07486835867166519, 0.3239857256412506, -0.010464285500347614, -0.24742716550827026, 0.07636932283639908, -0.1669146716594696, 0.05943213403224945, 0.03632701560854912, -0.07833870500326157, -0.14442771673202515, -0.2423705756664276, -0.07686413824558258, -0.10080334544181824, 0.24742087721824646, -0.1330416351556778, 0.0613115057349205, -0.17940998077392578, -0.0019173602340742946, -0.11999437212944031, -0.03589688986539841, 0.19642853736877441, 0.03290233016014099, -0.08303169161081314, -0.1369898021221161, -0.03842724487185478, 0.26336365938186646, 0.05110219120979309, 0.18442745506763458, 0.34113243222236633, 0.06404377520084381, 0.019048606976866722, 0.3518558144569397, 0.05370713397860527, -0.02819809317588806, -0.1841534674167633, -0.07674329727888107, -0.032858628779649734, -0.33074840903282166, 0.1562626212835312, 0.056903477758169174, -0.17126008868217468, 0.22665433585643768, -0.374836266040802, 0.13376052677631378, 0.01624051295220852, 0.014914647676050663, -0.06270883977413177, -0.02402699925005436, -0.09089714288711548, -0.12467440962791443, -0.18774081766605377, -0.011950255371630192, 0.17317575216293335, 0.1661555916070938, 0.21864113211631775, 0.17232786118984222, -0.01111003290861845, 0.09716051071882248, 0.18217018246650696, -0.06857931613922119, 0.07146726548671722, 0.11737987399101257, -0.28220024704933167, -0.06301227957010269, 0.2447579950094223, 0.21924208104610443, 0.03315887600183487, 0.3185153603553772, 0.1287839263677597, 0.0984349474310875, -0.06890857964754105, 0.020531393587589264, 0.022168343886733055, 0.10599210113286972, 0.10267529636621475, 0.3324395716190338, 0.2766440808773041, 0.1359858363866806], [0.2351422905921936, 0.08903608471155167, -0.16210037469863892, -0.003678384702652693, 0.3925069570541382, 0.09653507173061371, -0.010196307674050331, -0.05536459758877754, -0.23452846705913544, -0.0967087522149086, 0.19860801100730896, 0.17779496312141418, -0.07879682630300522, -0.12638132274150848, 0.20671917498111725, 0.04470464959740639, 0.23176971077919006, -0.0011383723467588425, 0.12923215329647064, 0.031476810574531555, 0.14101892709732056, 0.15598765015602112, -0.08547155559062958, 0.30923518538475037, 0.22123239934444427, 0.01920880191028118, 0.21033252775669098, 0.047166746109724045, 0.16071662306785583, 0.029346244409680367, -0.15861468017101288, -0.05924728512763977, -0.1379624754190445, -0.12854978442192078, 0.009207351133227348, -0.03323504701256752, -0.10037989169359207, 0.06492253392934799, -0.021656468510627747, 0.42192405462265015, 0.004874563310295343, 0.09622456133365631, -0.20795217156410217, 0.06941848993301392, 0.02763337455689907, -0.062387775629758835, 0.06764519959688187, -0.03989068791270256, -0.030986515805125237, -0.13055546581745148, -0.025216376408934593, 0.34372347593307495, 0.024196727201342583, 0.08048092573881149, -0.04109159857034683, -0.024632729589939117, -0.32806503772735596, 0.25674012303352356, 0.06548914313316345, 0.16480368375778198, -0.2366495579481125, 0.05381714552640915, 0.14710292220115662, 0.04519343748688698, 0.1013246402144432, -0.18936771154403687, -0.04542450234293938, -0.07218042761087418, 0.16424691677093506, 0.06993889063596725, -0.24464842677116394, 0.09363772720098495, -0.10454265028238297, -0.07523291558027267, -0.25133955478668213, 0.2556631565093994, 0.28691381216049194, 0.051353659480810165, 0.08598443865776062, 0.18980778753757477, 0.08007937669754028, 0.18958680331707, 0.27553412318229675, -0.15253996849060059, 0.19987358152866364, 0.29977357387542725, 0.023493364453315735, -0.03806646540760994, 0.09383826702833176, 0.16084477305412292, -0.05127120018005371, 0.10530518740415573, -0.05771614983677864, 0.033846184611320496, 0.09542693942785263, -0.04826134815812111, 0.06426525861024857, 0.29290205240249634, -0.1949576884508133, 0.2038140594959259, -0.12162072956562042, -0.17841903865337372, 0.1937476247549057, -0.03145575895905495, -0.235460564494133, -0.14138422906398773, 0.010426018387079239, -0.12014548480510712, 0.10920911282300949, 0.06822139024734497, -0.037406496703624725, 0.026447776705026627, -0.03405352309346199, -0.06994626671075821, 0.21726587414741516, 0.04772638529539108, -0.14324964582920074, 0.08017908781766891, 0.08472711592912674, 0.05895261466503143, 0.06632286310195923, -0.09317868202924728, 0.06396762281656265, -0.08128275722265244, 0.029067911207675934, 0.2107975035905838, 0.24444670975208282, -0.21802496910095215], [0.210083469748497, 0.05031170696020126, 0.3557538688182831, 0.08660531789064407, -0.11022166162729263, 0.08390737324953079, 0.14475442469120026, -0.10967577993869781, 0.055626031011343, -0.07246852666139603, 0.15140841901302338, 0.15486302971839905, -0.1493178755044937, 0.033073682337999344, 0.12606005370616913, -0.2024996280670166, -0.13454264402389526, 0.053029365837574005, -0.18644395470619202, -0.021696092560887337, -0.11323171108961105, 0.12190387398004532, 0.1657564789056778, 0.011914966627955437, 0.08821491152048111, -0.1336306929588318, 0.06960263848304749, -0.15327467024326324, -0.05465158820152283, -0.12597030401229858, 0.12414208054542542, -0.2785947024822235, 0.12109998613595963, 0.0424562431871891, -0.13444186747074127, 0.1660788357257843, 0.04432209953665733, -0.10585486143827438, 0.050449028611183167, -0.1623774766921997, 0.11377789080142975, -0.16205987334251404, -0.09627548605203629, -0.12040171027183533, -0.03113947995007038, -0.0005530534544959664, 0.29978570342063904, -0.11377952992916107, -0.39280346035957336, 0.1132529005408287, -0.05261732265353203, 0.14573048055171967, 0.10375211387872696, 0.03580382093787193, -0.07809391617774963, 0.06180289015173912, 0.09959015995264053, -0.19809271395206451, -0.2751777172088623, -0.10008861124515533, -0.11203913390636444, -0.07735730707645416, 0.01942371390759945, 0.3870916962623596, -0.2295636683702469, -0.1489911824464798, -0.024098258465528488, -0.15646255016326904, -0.26217642426490784, -0.026147382333874702, 0.07029791176319122, -0.21186253428459167, 0.14217013120651245, -0.24902567267417908, 0.058364301919937134, 0.11590893566608429, 0.148082435131073, -0.0968274474143982, 0.16052408516407013, -0.10474783927202225, -0.0711355060338974, 0.3539551794528961, 0.2263171374797821, 0.0653969943523407, 0.20901170372962952, 0.062100060284137726, 0.11392906308174133, -0.5670550465583801, 0.38197895884513855, 0.3486121892929077, -0.09202805906534195, -0.08190548419952393, 0.014418371021747589, -0.2017427533864975, 0.07388856261968613, 0.0851704478263855, -0.11510374397039413, 0.012999645434319973, -0.05695607140660286, -0.10451020300388336, 0.01676417887210846, 0.12218334525823593, 0.24413469433784485, -0.18522103130817413, -0.17823609709739685, 0.5666481256484985, -0.16639435291290283, 0.2745392322540283, -0.25830528140068054, -0.027552621439099312, 0.2211412787437439, -0.13571926951408386, -0.04826268181204796, -0.13993459939956665, 0.10759922116994858, -0.000730062136426568, 0.20865102112293243, 0.25183701515197754, -0.05865180864930153, 0.08245725184679031, -0.03263352811336517, 0.35413044691085815, 0.1383691430091858, 0.09770609438419342, -0.31448695063591003, 0.035608965903520584, 0.16910433769226074, -0.03275968134403229], [-0.013919053599238396, -0.1716669350862503, 0.005673650186508894, -0.281503289937973, 0.14319367706775665, -0.030101221054792404, 0.11332128196954727, -0.002557700267061591, 0.1033066138625145, 0.1500682681798935, -0.040607281029224396, -0.10835427790880203, 0.08144330233335495, 0.08090876787900925, -0.041639890521764755, 0.28699883818626404, 0.32706546783447266, -0.12216471135616302, -0.10520179569721222, 0.1807636022567749, -0.23944519460201263, -0.04156297445297241, 0.20813801884651184, -0.13472461700439453, -0.05853956192731857, 0.2032405585050583, 0.1464400589466095, 0.06608080118894577, 0.07948672771453857, 0.1491430699825287, -0.051952239125967026, -0.028913522139191628, 0.026384400203824043, 0.14542658627033234, -0.05419657751917839, -0.004401479382067919, 0.1001325249671936, -0.014618350192904472, -0.0012647088151425123, -0.32607829570770264, 0.33870255947113037, -0.02691451460123062, 0.04870310053229332, 0.0892370343208313, -0.06925814598798752, 0.10991710424423218, 0.38642647862434387, -0.09557041525840759, -0.2468777894973755, 0.17913277447223663, -0.17003141343593597, -0.013439529575407505, 0.10975757241249084, -0.046986691653728485, 0.23779909312725067, 0.378538578748703, 0.1648303121328354, 0.29826053977012634, -0.2603394091129303, 0.310746967792511, 0.23709191381931305, -0.10627716034650803, -0.199130579829216, 0.33627501130104065, -0.07557092607021332, -0.29766780138015747, 0.05880134552717209, -0.14604434370994568, 0.05988897755742073, -0.08039471507072449, 0.11211474984884262, -0.13341020047664642, 0.1838192343711853, -0.01343198399990797, 0.0434279702603817, 0.2229478508234024, 0.15638691186904907, -0.0213066004216671, 0.24118629097938538, 0.21440522372722626, 0.06428538262844086, 0.17458464205265045, 0.1664341688156128, 0.1276863068342209, -0.19146645069122314, -0.19357247650623322, -0.08739805966615677, -0.18210168182849884, 0.16381265223026276, 0.12146179378032684, -0.08649970591068268, -0.13303308188915253, -0.023573603481054306, -0.010725374333560467, 0.4409868121147156, 0.05749163404107094, 0.07468196004629135, 0.07327868044376373, -0.35241976380348206, 0.2722223997116089, 0.054784923791885376, 0.1373794674873352, 0.15567760169506073, -0.08331074565649033, 0.1906084567308426, 0.14540326595306396, 0.15203090012073517, -0.06734906882047653, -0.13711003959178925, -0.15658535063266754, 0.13954594731330872, -0.12663185596466064, -0.13063748180866241, -0.2061171531677246, -0.07685866951942444, -0.32760605216026306, 0.20000261068344116, 0.049509525299072266, 0.14949803054332733, 0.20441816747188568, -0.03807508200407028, 0.17913781106472015, -0.09196485579013824, 0.3573424220085144, -0.17768894135951996, 0.23151299357414246, 0.06807544082403183, -0.2061777114868164], [-0.19622434675693512, 0.26472023129463196, 0.12415586411952972, 0.01584753766655922, 0.18237866461277008, 0.038877278566360474, 0.08880060166120529, 0.10738685727119446, -0.34987106919288635, 0.1161547303199768, 0.5881220102310181, 0.16531097888946533, -0.041940174996852875, 0.18250353634357452, 0.031581275165081024, -0.10619209706783295, 0.05727105960249901, 0.08461926877498627, -0.08739809691905975, 0.06894298642873764, 0.06851185858249664, -0.014242841862142086, -0.05966823175549507, -0.18284916877746582, -0.033826813101768494, 0.07317480444908142, -0.032580163329839706, 0.12102247029542923, -0.08325217664241791, 0.07686653733253479, 0.203043594956398, -0.2823482155799866, -0.03305777162313461, -0.012390543706715107, -0.06157437711954117, 0.026349550113081932, 0.05886412784457207, -0.05236373841762543, 0.19694070518016815, 0.08452603220939636, 0.23327748477458954, -0.16942740976810455, -0.2740378677845001, -0.041571661829948425, 0.092074915766716, -0.08283033221960068, 0.1741829216480255, 0.11984479427337646, -0.09000249952077866, 0.11753855645656586, 0.14239634573459625, 0.25739118456840515, -0.31312525272369385, 0.1953822374343872, -0.2660634517669678, -0.11265333741903305, -0.12417890876531601, 0.37316712737083435, -0.13209544122219086, -0.0001725086767692119, 0.06805840134620667, 0.17293418943881989, -0.004963329061865807, 0.13531167805194855, -0.11711401492357254, 0.049199428409338, 0.22794181108474731, -0.04374789819121361, 0.09692361950874329, -0.1861797422170639, -0.05272402986884117, -0.260221004486084, -0.05031348019838333, -0.11586757749319077, 0.20772920548915863, 0.13594301044940948, 0.3498791754245758, 0.11410723626613617, 0.09583085775375366, -0.05891675874590874, -0.18642960488796234, 0.15061673521995544, 0.10254567116498947, 0.058563679456710815, -0.10617337375879288, -0.15604719519615173, 0.09326467663049698, -0.21546274423599243, -0.264042466878891, 0.30290043354034424, -0.26759859919548035, 0.0013261111453175545, -0.16422967612743378, 0.19170543551445007, 0.30857977271080017, 0.12057753652334213, -0.21680130064487457, -0.05037790164351463, -0.08987052738666534, 0.0842791274189949, -0.16950976848602295, 0.1834942251443863, 0.06265795975923538, 0.15102221071720123, -0.030477268621325493, 0.29702478647232056, -0.21246477961540222, 0.08247145265340805, -0.04807139188051224, -0.12647812068462372, 0.35002052783966064, -0.001470897113904357, -0.161781445145607, -0.08721139281988144, 0.05638476088643074, 0.032782599329948425, 0.37634190917015076, 0.28596773743629456, 0.0995374545454979, -0.0034597620833665133, 0.002500188769772649, 0.39408767223358154, -0.02126244269311428, 0.10721316188573837, -0.04906628653407097, 0.22114084661006927, 0.13256840407848358, -0.032475173473358154], [-0.09157775342464447, -0.06376276910305023, 0.12258445471525192, 0.20535562932491302, 0.12016040831804276, -0.12672708928585052, 0.005390573758631945, -0.012089707888662815, 0.027387723326683044, -0.1226692646741867, 0.26742106676101685, -0.22434233129024506, 0.03363790735602379, 0.13473181426525116, 0.3549385070800781, 0.05578656122088432, -0.22803331911563873, -0.03173030912876129, 0.24561364948749542, -0.08324093371629715, -0.1413148045539856, 0.11111652851104736, -0.06001119688153267, -0.03487860783934593, -0.16613411903381348, 0.23424211144447327, 0.17804445326328278, 0.2637577950954437, -0.17703308165073395, 0.17700280249118805, -0.019453678280115128, 0.005964080337435007, 0.01223344262689352, 0.052768535912036896, 0.033188771456480026, 0.029761124402284622, -0.09042926132678986, 0.033420246094465256, 0.1102040559053421, 0.2600960433483124, -0.20900557935237885, 0.17560473084449768, -0.30646082758903503, -0.26942455768585205, 0.06705131381750107, -0.20102663338184357, 0.23177555203437805, 0.42645835876464844, -0.11785753071308136, 0.15387101471424103, 0.10985709726810455, 0.21036946773529053, -0.03962503746151924, 0.09898358583450317, 0.018074575811624527, -0.09192916005849838, 0.050809815526008606, 0.009171973913908005, -0.2205766886472702, 0.009032359346747398, -0.23619060218334198, 0.26913803815841675, -0.019370369613170624, 0.013459266163408756, -0.01745837740600109, 0.1673041433095932, -0.15015250444412231, -0.1666220724582672, 0.09867017716169357, 0.1795194298028946, 0.14201250672340393, -0.016199050471186638, 0.31044870615005493, -0.0689328983426094, -0.28592491149902344, 0.2011338323354721, 0.05594981089234352, 0.4172748029232025, 0.1239168643951416, 0.08994625508785248, 0.05305415764451027, 0.05499937757849693, 0.19733543694019318, -0.23705677688121796, 0.06412465870380402, 0.00048123233136720955, -0.05120757222175598, 0.0005781676736660302, -0.2035272717475891, 0.31942662596702576, -0.02121918462216854, 0.013640583492815495, -0.08648265153169632, -0.20100224018096924, 0.14769059419631958, 0.3251442015171051, 0.08029807358980179, -0.273273229598999, -0.011769969016313553, -0.029103390872478485, -0.34070125222206116, 0.15170221030712128, 0.05617298558354378, 0.10714317858219147, -0.08920516818761826, 0.10561556369066238, -0.027404161170125008, 0.24507708847522736, 0.1968560814857483, 0.012964862398803234, 0.14945173263549805, -0.16831572353839874, 0.09661420434713364, -0.0675244927406311, 0.11282259225845337, 0.05519847944378853, 0.25319987535476685, -0.02504371851682663, -0.007805874105542898, -0.14265216886997223, -0.0782533809542656, -0.04446009546518326, 0.10316977649927139, 0.0005158901331014931, -0.02422591857612133, -0.026865554973483086, 0.07580551505088806, 0.05954741686582565], [-0.09940224885940552, -0.04564273729920387, -0.05707909166812897, 0.10078687965869904, 0.04595077410340309, -0.15032580494880676, 0.11918991804122925, 0.22335976362228394, 0.0835162028670311, 0.08445059508085251, -0.005965563002973795, -0.10812877118587494, 0.23681803047657013, 0.13711152970790863, 0.19377663731575012, 0.006584139075130224, -0.12125859409570694, 0.17351512610912323, -0.13489973545074463, 0.018697423860430717, -0.0744670107960701, 0.1691126674413681, -0.23235109448432922, 0.3778752088546753, 0.007904301397502422, 0.2617219388484955, 0.07790312170982361, 0.356543630361557, 0.2542574405670166, 0.11892413347959518, -0.12229453772306442, 0.06935910135507584, -0.260937362909317, -0.09182394295930862, -0.029707930982112885, 0.21071669459342957, -0.21409271657466888, 0.02539047971367836, 0.14435981214046478, 0.0921386256814003, -0.021109972149133682, 0.12043782323598862, -0.22100874781608582, -0.32966625690460205, 0.07036227732896805, 0.01880117505788803, 0.08779483288526535, 0.11036459356546402, -0.02457079291343689, -0.06740356236696243, -0.07031048834323883, 0.1082783117890358, -0.18303245306015015, 0.17339080572128296, 0.0889616459608078, -0.3039379417896271, -0.17564800381660461, 0.20181764662265778, 0.03153083473443985, -0.21791104972362518, 0.0372752882540226, 0.08772912621498108, -0.15102611482143402, 0.02627519890666008, -0.18534521758556366, 0.22409836947917938, -0.0230740774422884, 0.06175735592842102, -0.064571812748909, 0.04628913104534149, -0.12127844989299774, 0.05708404630422592, -0.17136181890964508, 0.18497520685195923, 0.21299438178539276, 0.04750272259116173, 0.019022053107619286, 0.17796461284160614, 0.0778026357293129, 0.18323922157287598, 0.06727240234613419, -0.04592540115118027, 0.05158057063817978, -0.19798815250396729, -0.09657204151153564, 0.3054085969924927, -0.09961359202861786, -0.17442741990089417, -0.13938426971435547, 0.14096151292324066, 0.20970869064331055, -0.10894996672868729, -0.10110330581665039, -0.19772276282310486, -0.2622421681880951, -0.0070805056020617485, 0.27586355805397034, -0.16976894438266754, 0.2767266035079956, 0.09139434248209, 0.16346654295921326, -0.2538400888442993, 0.08666272461414337, 0.03208509832620621, -0.36562639474868774, 0.044798705726861954, 0.027405627071857452, 0.09836499392986298, -0.05727223679423332, 0.009886081330478191, 0.06859519332647324, 0.08335144817829132, -0.2128039002418518, 0.19118395447731018, 0.10021241009235382, 0.02711632288992405, -0.03189527988433838, 0.03726242482662201, 0.1498841643333435, -0.03794087842106819, 0.06980422139167786, -0.039033375680446625, 0.0847558006644249, -0.2916063368320465, 0.1150616854429245, -0.08449376374483109, -0.17218804359436035, 0.03227166458964348], [0.09301673620939255, 0.23746059834957123, 0.06651084870100021, 0.07083403319120407, 0.03818381205201149, -0.1385868489742279, -0.07977225631475449, -0.0030799112282693386, 0.0200564656406641, 0.10913896560668945, -0.21507422626018524, -0.10927847772836685, 0.2490924894809723, -0.113130584359169, -0.17487503588199615, -0.11834792047739029, -0.047712888568639755, 0.151058629155159, 0.025134949013590813, 0.10365590453147888, -0.11816699057817459, -0.07481683790683746, 0.0813557356595993, 0.056687526404857635, 0.043246254324913025, -0.1262063831090927, -0.16897405683994293, 0.3263956308364868, 0.043449293822050095, -0.20229491591453552, 0.02545526809990406, 0.109716035425663, -0.24541744589805603, -0.189574733376503, -0.00536069180816412, 0.13559499382972717, -0.10076498985290527, 0.033022984862327576, -0.035090286284685135, -0.09263347834348679, -0.058588966727256775, 0.1514769196510315, 0.03062177076935768, -0.2526986002922058, 0.036772970110177994, 0.12066347151994705, -0.4279310405254364, -0.07533238083124161, 0.0693131685256958, -0.26692086458206177, 0.0797361508011818, -0.16027358174324036, 0.05473415181040764, -0.18738074600696564, -0.14576572179794312, 0.1757975071668625, 0.03216511383652687, 0.1140860840678215, 0.1255234032869339, -0.09118147939443588, -0.06942343711853027, 0.14547032117843628, 0.014893198385834694, 0.023523954674601555, 0.19164560735225677, 0.0006919539300724864, -0.1246342882514, 0.05277450382709503, -0.010059780441224575, -0.13561154901981354, -0.1277582049369812, -0.1194482371211052, -0.13363799452781677, 0.2301918864250183, -0.281063973903656, -0.007984789088368416, -0.04943345487117767, -0.09344937652349472, -0.10692083090543747, 0.1716909557580948, -0.06545154750347137, -0.2850486934185028, -0.07729876041412354, 0.011560139246284962, 0.042123835533857346, 0.10708031803369522, 0.06380530446767807, 0.08447843044996262, 0.21697065234184265, -0.09942331165075302, 0.25026917457580566, -0.3602897524833679, 0.02474464662373066, -0.29696589708328247, -0.3015348017215729, -0.011165249161422253, -0.07494258880615234, -0.06381899118423462, 0.187131866812706, -0.056041162461042404, 0.06254149228334427, -0.25443020462989807, -0.12961643934249878, 0.05518870800733566, 0.20111866295337677, -0.2998598515987396, -0.16533854603767395, -0.18260090053081512, 0.4479072690010071, 0.0686655268073082, -0.25825774669647217, 0.02714485116302967, 0.10489316284656525, -0.016221677884459496, 0.06076926738023758, -0.05748184397816658, -0.1768019199371338, -0.1285998523235321, -0.04361140727996826, -0.383822500705719, -0.12190715968608856, -0.049745336174964905, 0.2687239348888397, 0.024136314168572426, -0.029948683455586433, 0.05498836934566498, 0.04669328033924103, -0.026909150183200836], [0.09063010662794113, -0.011679306626319885, -0.12967872619628906, 0.07170318067073822, 0.11752712726593018, -0.09786506742238998, -0.11641406267881393, 0.14101389050483704, -0.009880807250738144, -0.08079368621110916, 0.0800897553563118, 0.09100282192230225, 0.17945027351379395, -0.3665527403354645, -0.03198065236210823, 0.06472213566303253, 0.17444820702075958, -0.020335396751761436, -0.080234594643116, 0.04012530297040939, 0.11845724284648895, -0.16862505674362183, -0.06769910454750061, 0.2228173017501831, 0.2907194495201111, -0.13428200781345367, -0.15808507800102234, 0.15384157001972198, -0.07618439942598343, -0.1693004071712494, 0.17842546105384827, -0.07283516973257065, -0.3697690963745117, 0.10267050564289093, -0.08646877110004425, 0.1575654000043869, -0.08745697140693665, 0.26690858602523804, -0.17554396390914917, 0.1202155277132988, -0.030250394716858864, 0.08545840531587601, -0.1863618791103363, -0.09846417605876923, 0.046244364231824875, 0.0447189062833786, -0.10693974792957306, -0.3058207631111145, -0.10225498676300049, -0.11941248178482056, 0.08156943321228027, -0.10415506362915039, 0.23686110973358154, 0.12211259454488754, 0.11472532898187637, 0.09025927633047104, -0.056777048856019974, -0.13776107132434845, 0.019006166607141495, 0.15919527411460876, 0.13546733558177948, 0.145224928855896, -0.04633057117462158, -0.19646942615509033, 0.1271822452545166, -0.08841061592102051, -0.042577583342790604, -0.059503570199012756, -0.3320995569229126, 0.14820733666419983, 0.02020343393087387, 0.11268103122711182, 0.020258929580450058, 0.15024670958518982, 0.13583971560001373, -0.04671117663383484, -0.0010983058018609881, -0.026612039655447006, 0.006119409576058388, -0.1398763507604599, 0.10671254247426987, -0.304505854845047, -0.12857666611671448, 0.14706942439079285, 0.02854386903345585, -0.20374946296215057, -0.008531326428055763, -0.20177221298217773, -0.1279478669166565, -0.31338077783584595, -0.19236049056053162, -0.013173552230000496, 0.2597039043903351, 0.13552816212177277, 0.04743765667080879, -0.1771290898323059, 0.017490774393081665, -0.052699293941259384, -0.1864391714334488, -0.16983003914356232, 0.009493416175246239, 0.20254673063755035, -0.25293293595314026, -0.1507783681154251, 0.12976837158203125, -0.20166943967342377, -0.12430419772863388, -0.1953822523355484, 0.07347701489925385, -0.13384924829006195, 0.2080472856760025, -0.09344099462032318, 0.10131358355283737, 0.12982071936130524, -0.2072845697402954, -0.12946243584156036, -0.18134662508964539, 0.0850774422287941, 0.18276473879814148, 0.1732744425535202, 0.09052019566297531, -0.03903738781809807, -0.4105982780456543, 0.17254486680030823, 0.10066737234592438, -0.4602181911468506, 0.2832559645175934, 0.02034272812306881], [-0.04890517517924309, 0.029312362894415855, 0.04867304861545563, 0.15093643963336945, 0.14694099128246307, 0.33051615953445435, -0.27864912152290344, 0.05519842356443405, -0.037137679755687714, -0.004794238600879908, -0.2508813440799713, -0.06049837917089462, -0.09406202286481857, -0.02390917018055916, -0.04956553131341934, -0.06655596941709518, 0.02036762610077858, -0.0206155963242054, -0.0037427637726068497, 0.05881183221936226, -0.1797584593296051, 0.10178001970052719, 0.014575326815247536, 0.20261377096176147, 0.0008354050223715603, -0.1295960694551468, -0.07655330002307892, 0.09628158807754517, 0.21749569475650787, 0.08180130273103714, 0.06228373199701309, -0.3221897482872009, -0.07714329659938812, 0.13986732065677643, 0.11116114258766174, -0.10733189433813095, -0.09536247700452805, -0.01868581399321556, 0.03645089268684387, -0.19582943618297577, -0.15159177780151367, 0.16103288531303406, 0.048850782215595245, -0.17038792371749878, -0.2863352298736572, 0.14123938977718353, -0.12498646229505539, -0.22421064972877502, -0.11974584311246872, -0.11943923681974411, -0.03571392968297005, 0.07798857241868973, -0.04715424403548241, -0.026124238967895508, 0.06915881484746933, 0.17791874706745148, -0.013016189448535442, 0.13047094643115997, 0.3956422209739685, 0.26859745383262634, 0.20786166191101074, 0.1961200088262558, -0.22092503309249878, -0.4385984539985657, 0.13707804679870605, -0.014908813871443272, -0.3387003540992737, 0.37700197100639343, 0.05037767440080643, -0.08235754072666168, -0.08125703781843185, -0.08762084692716599, 0.061774082481861115, 0.019545383751392365, 0.1635420322418213, -0.1761389523744583, -0.4087337255477905, -0.0662647932767868, -0.13082456588745117, 0.07389409095048904, 0.17450840771198273, 0.038460828363895416, -0.10876452922821045, 0.002346843248233199, 0.008243490941822529, -0.05871281400322914, 0.061525218188762665, 0.3160136938095093, 0.17223335802555084, -0.5139153003692627, 0.0676899403333664, -0.16540873050689697, 0.07578197121620178, 0.18818232417106628, 0.03564818948507309, 0.23280386626720428, 0.0607365183532238, 0.2478846311569214, 0.0021856436505913734, -0.07262744754552841, 0.1335221230983734, -0.06334245949983597, -0.06910043954849243, -0.07213375717401505, 0.09930942207574844, -0.06764344125986099, -0.04922737553715706, -0.008315961807966232, -0.04447139799594879, -0.3629309833049774, 0.1100810095667839, 0.10812940448522568, 0.007612557150423527, 0.10525079071521759, -0.11250787228345871, 0.03980664536356926, -0.005318130366504192, -0.1883431375026703, -0.125336691737175, -0.08950629830360413, 0.1918599009513855, -0.38395562767982483, 0.25738266110420227, -0.03134310245513916, -0.058390047401189804, -0.05587517097592354, -0.2553577721118927, -0.12932728230953217], [0.16651476919651031, -0.13471247255802155, -0.06783906370401382, 0.10292154550552368, -0.37223392724990845, 0.4285629391670227, 0.08602480590343475, 0.14214752614498138, -0.03350219875574112, -0.036424919962882996, 0.09514033049345016, -0.09811852872371674, -0.03805439919233322, 0.06997780501842499, -0.08519291132688522, 0.3172495365142822, 0.08574984967708588, 0.07313103973865509, -0.07766483724117279, -0.09335600584745407, -0.005764950066804886, -0.008719406090676785, 0.13720841705799103, 0.006900405045598745, 0.09872345626354218, -0.16550272703170776, -0.24735043942928314, -0.09019362181425095, -0.09795622527599335, -0.011952432803809643, 0.18940043449401855, -0.26426342129707336, 0.22455884516239166, 0.2508237957954407, -0.02587749995291233, -0.019909730181097984, 0.38033220171928406, 0.06515798717737198, 0.16709589958190918, -0.17175981402397156, 0.295072466135025, -0.19962546229362488, 0.175520658493042, 0.11896482855081558, 0.14468888938426971, -0.013594246469438076, -0.08581560105085373, 0.08804687857627869, -0.12533500790596008, -0.2484835386276245, -0.022095244377851486, 0.08585818856954575, 0.1707753986120224, -0.13383758068084717, 0.025822140276432037, 0.4659588932991028, 0.2177455574274063, -0.11257242411375046, -0.20872890949249268, 0.35980212688446045, 0.11761154979467392, -0.04386371001601219, 0.23417481780052185, 0.13414955139160156, -0.0746675506234169, -0.2950114607810974, 0.19206549227237701, -0.0891895741224289, -0.1270640343427658, 0.09636767208576202, -0.19711199402809143, -0.053843580186367035, -0.09107460826635361, 0.009875643998384476, -0.1280391663312912, -0.0260818712413311, 0.08686500042676926, -0.16318462789058685, -0.007534376345574856, -0.010924367234110832, -0.08689939230680466, 0.34932541847229004, 0.12485095113515854, 0.197079598903656, 0.0635976791381836, -0.07407329231500626, -0.12894077599048615, -0.019269412383437157, -0.08815371245145798, -0.12450814992189407, 0.031577691435813904, -0.10127079486846924, -0.016621090471744537, 0.431790828704834, 0.06369586288928986, -0.00741278612986207, -0.15507784485816956, 0.17174260318279266, 0.02330288104712963, 0.08164738118648529, -0.14679189026355743, 0.1896694153547287, -0.12783651053905487, -0.017947467043995857, 0.14582614600658417, -0.25812432169914246, 0.2783905565738678, -0.05991888418793678, -0.11376035958528519, -0.08272537589073181, 0.3866196870803833, 0.024873245507478714, -0.34689339995384216, 0.118290975689888, 0.02270686626434326, -0.32874226570129395, 0.09718002378940582, -0.10009746998548508, 0.1397651731967926, 0.39660540223121643, -0.027607999742031097, -0.01937643438577652, -0.059746406972408295, -0.05844893306493759, -0.1511605829000473, 0.08793821185827255, 0.03927658498287201, 0.00863621849566698], [0.21102045476436615, 0.0606398805975914, -0.22187687456607819, -0.07239401340484619, -0.01993335783481598, 0.046050623059272766, -0.1439717561006546, 0.05292510613799095, 0.22131304442882538, 0.3203144669532776, -0.0007970702135935426, -0.1010327860713005, -0.11230594664812088, -0.008423293009400368, -0.24416081607341766, -0.09442608803510666, 0.07600365579128265, -0.027000922709703445, -0.07640959322452545, 0.14194101095199585, 0.08984573185443878, -0.09192410856485367, 0.10209927707910538, 0.13560837507247925, -0.21544234454631805, -0.24934528768062592, -0.1732475310564041, -0.108312226831913, -0.17699496448040009, -0.29994338750839233, 0.17144756019115448, -0.23206108808517456, 0.11083702743053436, -0.11428523808717728, -0.18635952472686768, 0.13559786975383759, 0.21971704065799713, 0.0742761492729187, -0.10525843501091003, -0.007291108835488558, -0.08659522980451584, -0.020969266071915627, 0.3715684413909912, 0.0783872902393341, 0.05208137258887291, -0.12521477043628693, -0.3587793707847595, -0.1252911537885666, -0.09631192684173584, 0.06416802108287811, 0.027977127581834793, -0.014541181735694408, 0.3631223440170288, 0.024485796689987183, 0.10275349766016006, 0.10141248255968094, 0.062158532440662384, 0.05840199068188667, 0.12101256102323532, 0.06470400840044022, 0.06688523292541504, 0.07440119981765747, -0.10324452817440033, 0.12765051424503326, 0.1566891074180603, 0.01932499185204506, -0.2901216149330139, 0.06930935382843018, 0.004374215379357338, -0.03148461505770683, 0.053506702184677124, 0.011563015170395374, 0.08377362042665482, 0.08427489548921585, 0.005309148691594601, -0.012534117326140404, 0.0784275010228157, -0.16010244190692902, -0.6370193958282471, 0.20878052711486816, -0.059867486357688904, 0.09330100566148758, 0.044691819697618484, 0.07562601566314697, -0.32033541798591614, -0.08980672806501389, 0.2866067886352539, 0.27912890911102295, 0.2241458147764206, -0.46901077032089233, 0.22589528560638428, 0.013034675270318985, 0.11616313457489014, 0.13400141894817352, -0.1650809645652771, 0.028844065964221954, 0.08831127732992172, -0.2021482139825821, -0.05640954524278641, 0.06373844295740128, 0.004258474335074425, -0.21131758391857147, -0.18408998847007751, -0.43495428562164307, 0.0006675766780972481, -0.13534250855445862, 0.09735310077667236, 0.05165209621191025, 0.05783568695187569, -0.32273170351982117, 0.09042790532112122, 0.18697242438793182, -0.10631818324327469, -0.06718716770410538, -0.06457506865262985, -0.0944175273180008, -0.015544476918876171, 0.0362556129693985, -0.14892980456352234, 0.1075955331325531, 0.31204795837402344, -0.3171162009239197, -0.17218713462352753, -0.0808945894241333, -0.07247941941022873, -0.015764089301228523, 0.11595243215560913, 0.04055461287498474], [-0.15821734070777893, 0.01787629723548889, -0.16626572608947754, 0.23307983577251434, -0.09454048424959183, 0.00196974934078753, 0.1073937863111496, -0.09786590933799744, 0.31698307394981384, -0.06284573674201965, -0.16240231692790985, 0.10672210901975632, -0.02491980791091919, -0.029210485517978668, -0.00043394736712798476, -0.019094737246632576, -0.02190694957971573, 0.01604401133954525, 0.015643136575818062, -0.11624620109796524, 0.133021742105484, 0.19710727035999298, -0.051441166549921036, 0.11481260508298874, 0.047600746154785156, 0.05726325884461403, -0.15794681012630463, 0.1340300738811493, -0.1308051198720932, -0.1480279415845871, -0.07277506589889526, 0.027185453101992607, 0.03563259541988373, -0.017474664375185966, 0.09136556833982468, 0.2357945442199707, 0.2777014970779419, 0.2916092574596405, -0.15211021900177002, -0.03853434696793556, -0.029089301824569702, 0.07228835672140121, 0.2965056002140045, -0.004620877094566822, -0.30379152297973633, 0.14349843561649323, -0.1339225172996521, -0.13656970858573914, 0.38131293654441833, 0.062351420521736145, 0.12446483224630356, -0.07276038825511932, -0.020046669989824295, -0.05043712630867958, -0.21818481385707855, 0.2094699740409851, 0.2311343550682068, -0.12351338565349579, 0.0767199844121933, -0.11153902113437653, 0.20205630362033844, 0.027391767129302025, 0.08791830390691757, -0.11377716064453125, -0.03635868802666664, -0.2745543122291565, -0.24078769981861115, 0.22103774547576904, 0.049573883414268494, 0.07135449349880219, 0.2088925838470459, 0.07067122310400009, 0.07261035591363907, 0.09874111413955688, 0.04962015524506569, 0.205245703458786, 0.14163096249103546, -0.06302482634782791, -0.1665211170911789, 0.08112463355064392, -0.3284755051136017, -0.1566133201122284, 0.21091228723526, 0.1583888679742813, -0.09265261143445969, -0.08352773636579514, 0.07940918207168579, 0.10451066493988037, -0.06219611316919327, -0.2657288908958435, 0.18623100221157074, -0.07124462723731995, 0.08668692409992218, 0.1473020762205124, -0.019734593108296394, 0.0478360578417778, -0.14106760919094086, 0.2274579405784607, -0.08168995380401611, -0.20120161771774292, 0.22031475603580475, -0.12180450558662415, -0.15189838409423828, -0.3969081938266754, 0.20979148149490356, -0.07949507981538773, 0.3001808226108551, -0.12781314551830292, 0.1778290867805481, -0.31583431363105774, -0.2093481719493866, -0.09216907620429993, -0.08663052320480347, 0.08763807266950607, -0.13075412809848785, -0.0005914359353482723, -0.0489986427128315, 0.25038692355155945, -0.29630088806152344, 0.09156954288482666, -0.15533043444156647, -0.16835561394691467, 0.0031143869273364544, 0.12820923328399658, 0.09010199457406998, 0.07010581344366074, -0.047529853880405426, -0.10463577508926392], [0.11070429533720016, 0.041344087570905685, 0.13832710683345795, -0.06977375596761703, 0.019790202379226685, 0.0067435940727591515, 0.2992297410964966, 0.08069454878568649, 0.027763651683926582, -0.0835401639342308, 0.2593919038772583, 0.000589609204325825, 0.16963151097297668, 0.0010790260275825858, -0.13280089199543, 0.0022455337457358837, -0.1587587296962738, -0.17344847321510315, 0.1976769119501114, 0.03321777284145355, 0.08378665149211884, -0.03308190405368805, -0.03591061383485794, 0.14702053368091583, 0.1655522733926773, 0.2187696099281311, 0.01852697692811489, 0.1382552832365036, 0.14051733911037445, 0.24474699795246124, -0.028294706717133522, 0.03318129479885101, -0.26592615246772766, -0.03967947140336037, 0.07774114608764648, -0.24885505437850952, -0.06231485679745674, -0.13565103709697723, 0.07762982696294785, -0.07510698586702347, 0.02611779421567917, 0.07781799137592316, -0.19860219955444336, -0.19748003780841827, -0.09473545849323273, -0.05727226287126541, 0.15629078447818756, 0.23233552277088165, -0.11242779344320297, -0.08135819435119629, 0.20415456593036652, 0.2302320897579193, -0.068422332406044, -0.02153801918029785, 0.03406006097793579, -0.18450236320495605, -0.30712252855300903, 0.15676794946193695, -0.20822763442993164, -0.2781435549259186, 0.12925170361995697, -0.09284204989671707, -0.09469090402126312, 0.08943740278482437, -0.1155867949128151, -0.009618048556149006, -0.1410505771636963, 0.2703413665294647, 0.08614521473646164, 0.21381300687789917, 0.10538423806428909, -0.07974656671285629, -0.06814255565404892, 0.04328551143407822, 0.15453481674194336, 0.14157897233963013, 0.1697201430797577, 0.22137302160263062, 0.18878115713596344, -0.12468014657497406, 0.19501617550849915, -0.07787740975618362, -0.045512743294239044, -0.05916281044483185, 0.22944873571395874, 0.2058192938566208, 0.22059385478496552, -0.019720349460840225, -0.028471287339925766, 0.2128077745437622, 0.04633074626326561, 0.07660817354917526, 0.20269842445850372, -0.055566564202308655, 0.008028150536119938, 0.2925584316253662, -0.07041889429092407, -0.33379730582237244, 0.1174643486738205, 0.22371619939804077, -0.09148949384689331, -0.28642889857292175, -0.11113569140434265, 0.3500107526779175, -0.10004433244466782, -0.03311661258339882, 0.06210501864552498, 0.3199777901172638, 0.2416657656431198, 0.05233628302812576, -0.022632095962762833, 0.022829635068774223, 0.28838419914245605, 0.08363114297389984, 0.0006798568647354841, 0.3220480680465698, 0.2556743919849396, 0.2369069755077362, -0.16067691147327423, 0.0369575209915638, 0.04590307176113129, -0.013764381408691406, 0.14311988651752472, -0.16056163609027863, 0.08562742173671722, 0.2566276490688324, -0.10564997792243958, -0.16013376414775848], [0.2832919657230377, 0.32536590099334717, -0.26513785123825073, 0.021229630336165428, 0.20384477078914642, -0.26252299547195435, -0.2702486515045166, -0.19816768169403076, 0.22053109109401703, 0.07864873856306076, -0.3643965721130371, 0.01420654822140932, 0.21384969353675842, 0.07791917771100998, -0.05544429272413254, 0.08932458609342575, -0.16168232262134552, -0.03617304936051369, 0.24560114741325378, 0.27949491143226624, -0.10330009460449219, 0.03210559859871864, -0.29203465580940247, 0.05843617767095566, -0.0454460047185421, -0.1585635393857956, -0.017362933605909348, 0.25246769189834595, 0.23131299018859863, -0.15182338654994965, -0.10707629472017288, 0.08089222759008408, -0.07783301174640656, -0.09527406096458435, 0.3724535405635834, 0.02959323115646839, -0.23066020011901855, 0.11331222951412201, -0.06997285783290863, -0.09860222041606903, -0.1619737148284912, 0.09589573740959167, 0.030240803956985474, -0.1767425388097763, 0.007506249938160181, 0.03061896562576294, -0.07529332488775253, -0.298724889755249, 0.12747442722320557, -0.17645291984081268, 0.18323969841003418, -0.15459589660167694, 0.03905636444687843, 0.06333088129758835, 0.07856269925832748, -0.1432807594537735, -0.10022014379501343, -0.2709724009037018, 0.1918131411075592, 0.07072930783033371, -0.08803106844425201, -0.08122923225164413, 0.12136518955230713, -0.13290023803710938, -0.25512364506721497, -0.15486489236354828, 0.07864335179328918, -0.13750049471855164, 0.04864751547574997, -0.032690346240997314, -0.10055519640445709, -0.1836373507976532, -0.12188860774040222, 0.18012535572052002, 0.06678268313407898, 0.14364932477474213, -0.10198898613452911, -0.2296157032251358, -0.1536361128091812, -0.12147663533687592, -0.015354753471910954, -0.26280513405799866, -0.028223590925335884, -0.16071927547454834, -0.09905532002449036, -0.041883282363414764, 0.35380977392196655, 0.26716259121894836, -0.1419040709733963, -0.19069746136665344, 0.13035330176353455, -0.08047699928283691, -0.01698826625943184, -0.09837543964385986, -0.1654268205165863, 0.07420498877763748, 0.13595782220363617, 0.030825667083263397, 0.2651892900466919, 0.026401208713650703, -0.06685986369848251, -0.12198613584041595, -0.3521893322467804, -0.0818687155842781, -0.18771526217460632, -0.2112526148557663, 0.009126393124461174, 0.1626913696527481, 0.07677160203456879, -0.06952264904975891, -0.06367335468530655, 0.04000356048345566, -0.187760129570961, 0.1497073769569397, 0.23536737263202667, 0.10748416930437088, -0.12982651591300964, -0.19289171695709229, -0.09810390323400497, -0.13269902765750885, 0.22097161412239075, -0.17798292636871338, 0.0028633223846554756, 0.2533842921257019, 0.07571952044963837, 0.11654078960418701, -0.2651757001876831, -0.07579711079597473], [0.045196205377578735, -0.0694945827126503, 0.24765519797801971, -0.04200449213385582, 0.04453239217400551, 0.1147489994764328, 0.2960149943828583, 0.003064191434532404, 0.1371089071035385, -0.18706214427947998, 0.10476400703191757, -0.06432104110717773, 0.14505112171173096, 0.07701658457517624, 0.06804568320512772, 0.15187031030654907, -0.08093220740556717, 0.19733068346977234, 0.2546326816082001, -0.07558637112379074, 0.058880072087049484, 0.04804017022252083, 0.014606019482016563, -0.11803296208381653, -0.15834489464759827, 0.05219603702425957, -0.1008126363158226, 0.03348241746425629, 0.029667871072888374, -0.1168280690908432, -0.11663556098937988, -0.22181402146816254, -0.20051726698875427, -0.4272915720939636, -0.13614407181739807, -0.10374829918146133, -0.017031289637088776, 0.10451093316078186, 0.357228547334671, 0.15345045924186707, 0.036029305309057236, -0.20474062860012054, -0.07696879655122757, 0.052840206772089005, -0.10281544923782349, -0.23412379622459412, 0.2160947024822235, 0.050306156277656555, -0.2733011543750763, -0.2531137466430664, 0.05493331700563431, 0.3102363049983978, -0.07184451818466187, 0.0914243683218956, 0.05892354995012283, -0.040854185819625854, -0.2488638311624527, -0.12117726355791092, 0.2946040630340576, -0.16097554564476013, -0.23273475468158722, 0.08836650848388672, 0.13078418374061584, 0.14809978008270264, 0.10808896273374557, 0.07220334559679031, 0.08371222019195557, -0.10565008223056793, 0.1038609966635704, 0.3141493797302246, -0.038960669189691544, 0.048713669180870056, 0.04798804223537445, -0.05068845674395561, 0.20065155625343323, 0.19250909984111786, 0.17488175630569458, 0.3585706055164337, 0.116084523499012, 0.10923761874437332, -0.1841762214899063, -0.17311282455921173, 0.21889738738536835, -0.1591338962316513, 0.005628861486911774, 0.21440757811069489, 0.013561034575104713, -0.14199647307395935, 0.049899596720933914, 0.24640144407749176, -0.27475467324256897, 0.16490355134010315, -0.23586709797382355, -0.009861388243734837, 0.3990757167339325, -0.0033510199282318354, -0.09671157598495483, 0.08376733958721161, 0.12071122974157333, -0.11224866658449173, 0.19472019374370575, -0.16602778434753418, 0.1744043529033661, 0.08889925479888916, -0.013793895952403545, 0.49268388748168945, 0.07491637021303177, 0.17252516746520996, -0.13160331547260284, 0.14932219684123993, 0.13465328514575958, 0.10109317302703857, 0.028990132734179497, -0.08944833278656006, -0.026857048273086548, -0.05882599949836731, 0.12073889374732971, 0.02038734406232834, 0.15494604408740997, 0.14619068801403046, -0.21034562587738037, 0.2188100516796112, -0.14656654000282288, 0.1599728912115097, -0.05158834531903267, 0.03939931467175484, 0.1948244273662567, 0.20174939930438995], [-0.03283712640404701, -0.0351940281689167, 0.1769230216741562, -0.06384534388780594, -0.015062310732901096, 0.19489096105098724, 0.12357811629772186, 0.09499996900558472, -0.14474251866340637, -0.13050371408462524, -0.2097761183977127, -0.02276075817644596, 0.08991321176290512, 0.18939001858234406, -0.12809167802333832, 0.1305823177099228, -0.08749251067638397, 0.06426028162240982, -0.09168979525566101, -0.048575159162282944, -0.09273660182952881, -0.2653336524963379, 0.06580393016338348, 0.07035841047763824, -0.20472197234630585, -0.10416027158498764, -0.11048882454633713, -0.038327816873788834, 0.2732185125350952, -0.01949063315987587, 0.1300530880689621, -0.033391281962394714, 0.05976368114352226, -0.1271761804819107, 0.0422976091504097, 0.07917223125696182, 0.17755910754203796, -0.053961534053087234, -0.30346331000328064, 0.23620712757110596, -0.027968881651759148, 0.17365707457065582, 0.08115434646606445, 0.12859298288822174, 0.043890926986932755, 0.006016479339450598, -0.18959882855415344, 0.22218665480613708, 0.12340210378170013, 0.030160624533891678, 0.23892173171043396, 0.03217456489801407, -0.017587069422006607, -0.2768223285675049, 0.05651848763227463, 0.13141441345214844, 0.1028938889503479, -0.14634323120117188, -0.0027404490392655134, 0.22707727551460266, 0.20506183803081512, 0.18479688465595245, -0.05123395472764969, 0.18153758347034454, -0.19106805324554443, 0.04465259984135628, 0.207982137799263, 0.16176865994930267, 0.13001738488674164, -0.0963427722454071, -0.13059812784194946, -0.018677378073334694, 0.29449212551116943, -0.20099809765815735, -0.08671174198389053, -0.04331827536225319, -0.12391705065965652, -0.23944362998008728, 0.04889407753944397, 0.10945506393909454, -0.01071114931255579, -0.1650053858757019, -0.2687966525554657, 0.171787828207016, 0.08057714253664017, -0.053036708384752274, 0.00178049155510962, 0.15485061705112457, 0.21484041213989258, 0.12756745517253876, 0.14507277309894562, -0.08622239530086517, 0.04435956850647926, 0.22121775150299072, 0.06551449745893478, -0.3456779718399048, 0.1431640088558197, 0.010275102220475674, 0.11018992215394974, -0.42873114347457886, 0.4261549115180969, 0.13891837000846863, -0.11160632222890854, -0.029996555298566818, 0.009171992540359497, -0.1679694950580597, -0.007885427214205265, -0.06642648577690125, -0.23354798555374146, -0.11353655159473419, 0.07134459912776947, -0.11618831008672714, -0.21095682680606842, -0.1387496292591095, -0.2533703148365021, 0.08352426439523697, 0.08211948722600937, -0.05516957491636276, -0.037160661071538925, 0.10709263384342194, 0.3408389389514923, -0.0041141388937830925, -0.026131095364689827, -0.08029761910438538, -0.1746586561203003, -0.05674583837389946, -0.02841411903500557, -0.15721610188484192], [-0.1632843166589737, -0.1978742778301239, 0.017095662653446198, 0.06501368433237076, 0.06373859196901321, 0.05185886472463608, -0.1545129418373108, -0.049090031534433365, -0.014754047617316246, 0.0725320354104042, -0.1576002985239029, 0.069883793592453, 0.1012563407421112, -0.0003968075616285205, 0.07344863563776016, -0.05404479801654816, -0.0914139598608017, -0.03131581097841263, -0.07149288058280945, 0.1187431737780571, 0.2122385948896408, -0.054699089378118515, -0.007351217791438103, -0.12183404713869095, 0.1474764198064804, -0.0531364306807518, -0.07741125673055649, 0.07708154618740082, -0.14464260637760162, -0.01128411665558815, 0.06895080953836441, -0.007024410180747509, 0.07090922445058823, -0.012213368900120258, -0.05177249759435654, -0.055884819477796555, 0.049802266061306, -0.0031411750242114067, -0.1317562758922577, -0.06135930120944977, 