{"log_std": [-1.3041276931762695, -2.1624135971069336], "mlp_extractor.policy_net.0.weight": [[0.07180608808994293, -0.17360039055347443, 0.13308462500572205, 0.03518940135836601, -0.09121321886777878, 0.13722139596939087, -0.3851628601551056, 0.39658430218696594, -0.23233965039253235, -0.23423190414905548, 0.017376191914081573, 0.24898967146873474, -0.013874421827495098, 0.094481460750103, -0.4785774052143097, 0.5914697051048279, 0.03951764851808548], [0.2406599372625351, 0.06885446608066559, 0.038444388657808304, -0.09136030077934265, 0.1186358630657196, 0.5542559027671814, -0.3703984320163727, -0.057260993868112564, 0.032420698553323746, -0.0940091535449028, -0.21827219426631927, 0.4092652499675751, -0.220419242978096, -0.3783431351184845, -0.035460203886032104, -0.05076197534799576, -0.45182856917381287], [0.062151163816452026, 0.46312415599823, 0.29575005173683167, 0.12996970117092133, 0.3102589547634125, 0.03723866492509842, -0.0313648022711277, -0.3676438629627228, -0.3623940646648407, -0.23723089694976807, -0.40302008390426636, -0.18546433746814728, 0.6839439868927002, -0.5830527544021606, 0.10956279188394547, -0.2054261714220047, -0.0062676300294697285], [-0.18906062841415405, 0.3426721394062042, -0.2645573914051056, 0.22425951063632965, -0.3229133188724518, 0.08384928107261658, -0.2882860600948334, -0.021803006529808044, 0.16706272959709167, 0.30025699734687805, -0.16437211632728577, 0.2603380084037781, -0.16524918377399445, -0.16968217492103577, -0.3191602826118469, 0.13950897753238678, -0.5594597458839417], [0.3470875322818756, 0.41108858585357666, 0.3915071487426758, 0.42234233021736145, -0.11075539141893387, -0.042515333741903305, -0.1441888064146042, -0.2897490859031677, -0.4186512529850006, -0.4946523606777191, -0.0574362687766552, -0.5000404119491577, 0.1678204983472824, 0.14089278876781464, 0.16802383959293365, 0.2383986860513687, -0.15914320945739746], [-0.16042950749397278, 0.2681104242801666, -0.07431092113256454, 0.19066429138183594, 0.27922505140304565, 0.1685655266046524, -0.6008347272872925, 0.3337315320968628, -0.19221515953540802, -0.032272301614284515, 0.10308606177568436, 0.18489478528499603, 0.026618102565407753, -0.3019646108150482, -0.47708314657211304, 0.2957365810871124, 0.042068012058734894], [0.09551019966602325, 0.40346547961235046, -0.14119379222393036, -0.6037736535072327, -0.08784932643175125, 0.08402760326862335, 0.3309021592140198, 0.5429792404174805, 0.2019723802804947, 0.26515451073646545, 0.004543861839920282, 0.19800274074077606, -0.2931014895439148, -1.1858806610107422, -0.07670678943395615, 0.4009092450141907, -0.03264445811510086], [0.1865972876548767, -0.03596172481775284, 0.61761075258255, -0.14858080446720123, -0.12811659276485443, 0.24968568980693817, 0.373754620552063, 0.338245689868927, 0.14588917791843414, 0.48992228507995605, 0.3731171786785126, 0.48478424549102783, 0.5865676999092102, -0.12191034108400345, 0.06804873794317245, -0.04703633859753609, 0.17746439576148987], [-0.16834509372711182, -0.46975693106651306, -0.10243014991283417, -0.1711101233959198, 0.3797394037246704, -0.20233038067817688, 0.5992417335510254, -0.4517868757247925, 0.07490931451320648, 0.04487380385398865, 0.18266481161117554, 0.43915632367134094, 0.3977677822113037, 0.3137036859989166, 0.3720022737979889, -0.48812294006347656, 0.03927941992878914], [-0.09416083991527557, -0.11223423480987549, 0.5086866021156311, 0.292092889547348, 0.06602039188146591, -0.032714977860450745, 0.3894036114215851, 0.14021585881710052, -0.04778258129954338, 0.1751846969127655, 0.3127000033855438, 0.18170297145843506, 1.2349010705947876, 0.1899569183588028, 0.26002395153045654, -0.2750408351421356, 0.08713582903146744], [0.04734070226550102, -0.3890555202960968, -0.35821205377578735, 0.22136791050434113, -0.04930846393108368, -0.1160588189959526, -0.37069597840309143, -0.3499443531036377, 0.11779292672872543, -0.05747237056493759, 0.18796879053115845, -0.29198092222213745, -0.29457804560661316, 0.46926215291023254, -0.041247185319662094, 0.0446033738553524, 0.015578731894493103], [-0.04013948142528534, -0.2664191722869873, 0.19903884828090668, 0.15185722708702087, -0.09972833096981049, -0.0556248240172863, -0.20700739324092865, 0.0645940899848938, -0.1285795420408249, 0.0655830055475235, 0.5702834129333496, -0.256320983171463, 0.1785348504781723, 0.501297116279602, -0.1105627566576004, -0.16541244089603424, -0.0002759571361821145], [0.5262858271598816, 0.000685382226947695, 0.17493349313735962, 0.11256725341081619, -0.04936566203832626, -0.04506169632077217, 0.0794721245765686, -0.04869213327765465, 0.25300133228302, 0.09983821213245392, 0.10236204415559769, 0.14514362812042236, -0.035501714795827866, 0.0767749696969986, 0.06280427426099777, -0.1477774977684021, 0.12197574973106384], [0.2620964050292969, -0.26031410694122314, -0.18340067565441132, -0.22175678610801697, -0.1979966014623642, -0.38971424102783203, -0.2405155748128891, -0.4534556567668915, 0.014363128691911697, 0.01093771867454052, 0.31856364011764526, -0.04680805280804634, -0.22175392508506775, 0.17845536768436432, -0.023155566304922104, -0.34256890416145325, 0.016674524173140526], [0.14611274003982544, 0.6702920198440552, 0.1208169162273407, 0.0017115212976932526, 0.009627497754991055, 0.22970904409885406, 0.20566703379154205, 0.09007369726896286, 0.08475066721439362, -0.1616910845041275, -0.3843019902706146, -0.1278167963027954, 0.04068505018949509, -0.4745136499404907, 0.257100909948349, 0.1999524086713791, -0.0215025432407856], [-0.21213464438915253, 0.018333563581109047, -0.1003342792391777, -0.1571386456489563, -0.10213848203420639, -0.17651163041591644, -0.46446216106414795, -0.23693297803401947, 0.11520666629076004, 0.8379223346710205, -0.27032920718193054, 0.08659790456295013, 0.15416046977043152, -0.15494504570960999, -0.6226423382759094, -0.5984380841255188, 0.3742150664329529], [-0.19005027413368225, -0.004306469578295946, 0.5139220952987671, 0.012853364460170269, 0.07579313963651657, -0.10244718194007874, 0.46568983793258667, 0.26784366369247437, 0.23090215027332306, 0.10842172801494598, -0.06515490263700485, 0.14213086664676666, 1.3357875347137451, 0.05258558690547943, 0.08966576308012009, -0.02348323166370392, 0.03094935603439808], [0.18602125346660614, 0.11922018975019455, -0.018601685762405396, -0.15944667160511017, -0.2036568820476532, 0.24000786244869232, -0.33711087703704834, 0.146365687251091, 0.2360830456018448, 0.3281542956829071, -0.07821675390005112, -0.32919013500213623, -0.16603052616119385, -0.3249465823173523, -0.21827319264411926, -0.36998116970062256, 0.3075897693634033], [0.3638283312320709, -0.23751667141914368, 0.21450507640838623, 0.015853824093937874, 0.0691409781575203, 0.07360265403985977, 0.2653094530105591, -0.39736291766166687, 0.07406305521726608, -0.13653628528118134, 0.25705158710479736, -0.31031763553619385, -0.43448489904403687, 0.31586435437202454, 0.2070610672235489, 0.2520216107368469, 0.16986183822155], [0.0895170047879219, -0.05177691578865051, 0.254451721906662, 0.29629698395729065, -0.1768394559621811, 0.09607231616973877, 0.11259325593709946, 0.10331042110919952, 0.1365591138601303, 0.20142537355422974, -0.2258729338645935, 0.09766668826341629, 0.1509692370891571, 0.3853916823863983, 0.14934247732162476, 0.07328832149505615, 0.37224289774894714], [-0.10918440669775009, 0.17813700437545776, -0.1262047439813614, -0.0828898549079895, 0.3431323170661926, 0.3684275448322296, 0.4560599625110626, 0.9062573909759521, 0.050521064549684525, 0.4042762815952301, -0.27174702286720276, 0.03451025113463402, -0.04466213285923004, -0.1441502720117569, 0.20889011025428772, 0.4339049458503723, -0.062253303825855255], [-0.17739562690258026, -0.15885260701179504, 0.2909663915634155, -0.10924256592988968, -0.06454458087682724, 0.13801123201847076, -0.5054090023040771, -0.1010257750749588, -0.26441797614097595, 0.27970755100250244, -0.024653185158967972, -0.2867342531681061, 0.03840268403291702, 0.13848820328712463, -0.05196067690849304, -0.22326137125492096, -0.3287855088710785], [-0.5917041897773743, -0.2266211360692978, 0.3804287612438202, 0.4635753631591797, -0.06508827954530716, 0.09615646302700043, 0.5409033298492432, 0.2097698152065277, 0.30336591601371765, 0.1796990931034088, -0.33733880519866943, 0.462334543466568, 0.27339649200439453, 0.22941818833351135, 0.33036038279533386, 0.06393743306398392, -0.14573466777801514], [-0.07418470084667206, 0.36358368396759033, 0.28384149074554443, 0.13571521639823914, 0.3152761459350586, 0.19024360179901123, -0.16598094999790192, -0.09943366795778275, -0.2254718393087387, -0.5349658727645874, 0.19861961901187897, -0.6770848035812378, 0.3103087544441223, 0.23980258405208588, -0.09864097088575363, 0.305055171251297, -0.18421949446201324], [0.1791519671678543, 0.13013488054275513, 0.20640595257282257, -0.41104790568351746, -0.05714671313762665, 0.13025623559951782, 0.18231064081192017, 0.0026311257388442755, -0.10448867082595825, -0.21075323224067688, -0.046008817851543427, 0.1106153056025505, 0.1444980353116989, -0.7487552165985107, -0.03720646724104881, 0.29035887122154236, -0.0909113958477974], [-0.22909203171730042, -0.11615432798862457, -0.18506188690662384, 0.3626425266265869, 0.1808730959892273, 0.019851407036185265, -0.2976686358451843, -0.32518333196640015, 0.022237611934542656, -0.295660138130188, 0.03901134431362152, -0.07981525361537933, -0.34887272119522095, 0.23012922704219818, -0.3971213698387146, -0.18126069009304047, 0.04131554067134857], [0.43786200881004333, 0.24976935982704163, 0.15372909605503082, 0.12065929174423218, 0.06183516979217529, 0.4878345727920532, -0.2009444236755371, 0.05464625358581543, -0.21130721271038055, 0.11254715174436569, -0.35884517431259155, -0.20288486778736115, -0.1045401394367218, -0.092583566904068, 0.34488627314567566, 0.021492721512913704, -0.022467920556664467], [0.41840898990631104, -0.2529211938381195, 0.28916463255882263, -0.03783323988318443, -0.004319142084568739, -0.10565460473299026, 0.23084238171577454, 0.03430226072669029, -0.0430271178483963, -0.04290096089243889, 0.14091765880584717, 0.4033687114715576, -0.04871451109647751, -0.1981198787689209, 0.2621449828147888, -0.06579079478979111, 0.00393564673140645], [0.1770845502614975, -0.1181366890668869, -0.11767888069152832, -0.06111586093902588, -0.05651929974555969, 0.16193129122257233, -0.6032726764678955, 0.47724124789237976, -0.48942941427230835, 0.02420138381421566, 0.12741762399673462, 0.1341053545475006, -0.49465978145599365, -0.08816906809806824, -0.10765121877193451, 0.33732476830482483, -0.5433907508850098], [-0.2644384801387787, -0.18575464189052582, -0.2283051609992981, 0.216526061296463, 0.12055466324090958, -0.5717605948448181, -0.2821124196052551, 0.40682414174079895, -0.5825432538986206, -0.23203374445438385, 0.1799318790435791, 0.09373264759778976, -0.2759985327720642, 0.13096332550048828, 0.13438914716243744, 0.5457671284675598, -0.08160896599292755], [-0.0698983296751976, 0.09281878173351288, -0.07612461596727371, 0.206650510430336, -0.2406311184167862, 0.2960685193538666, -0.03731165826320648, 0.15815581381320953, -0.3121814727783203, 0.013540233485400677, 0.18397782742977142, 0.2531765401363373, 0.19086773693561554, 0.3375571668148041, 0.17260493338108063, 0.21902860701084137, -0.1219327300786972], [0.3404460847377777, -0.143223837018013, -0.1363600343465805, 0.15247675776481628, 0.00011696419824147597, -0.12805990874767303, -0.19353343546390533, -0.32278671860694885, -0.3586874008178711, -0.2811254560947418, -0.04671187698841095, 0.4019521176815033, -0.291736900806427, 0.1297522783279419, 0.1009087860584259, 0.14364419877529144, -0.015549824573099613], [-0.22965969145298004, -0.024600068107247353, -0.525391161441803, -0.10548938810825348, 0.0930284857749939, 0.06121281906962395, 0.39145147800445557, -0.11000259220600128, 0.3923458456993103, 0.2573070228099823, 0.023841947317123413, 0.28467899560928345, -0.2019902914762497, -0.22794374823570251, -0.06219291314482689, -0.08450290560722351, -0.17344918847084045], [-0.11800841987133026, -0.2931445240974426, -0.33179232478141785, -0.040171459317207336, 0.2972237467765808, -0.24952387809753418, 0.6060547232627869, -0.0650084912776947, 0.18511691689491272, -0.008236288093030453, 0.1771700382232666, -0.10229349881410599, 0.18266846239566803, 0.29491865634918213, -0.11558174341917038, 0.018084442242980003, 0.2319556176662445], [-0.167183980345726, -0.11743625998497009, -0.24281591176986694, -0.20758315920829773, 0.2594757378101349, 0.4487150311470032, 0.2849758565425873, 0.634573757648468, 0.13543187081813812, 0.2629736363887787, 0.2729266285896301, 0.24712952971458435, -0.06595014780759811, -0.33100178837776184, 0.5226569175720215, 0.4191095232963562, -0.14955712854862213], [-0.19938121736049652, -0.3678591549396515, 0.3855595290660858, -0.00438414653763175, -0.1422967165708542, 0.10235828906297684, -0.21895648539066315, 0.03486817702651024, -0.34692174196243286, -0.08282288908958435, 0.1615636795759201, 0.5700011849403381, 0.8173820376396179, -0.026860952377319336, 0.1201544776558876, 0.26495760679244995, -0.1072581484913826], [-0.3184158205986023, 0.19713512063026428, -0.41096508502960205, -0.030394114553928375, 0.10314371436834335, 0.10355882346630096, 0.26005011796951294, -0.2385178953409195, 0.04579158499836922, 0.04718395322561264, 0.2566460072994232, 0.058114442974328995, -0.2581494152545929, -0.13507898151874542, -0.06959729641675949, -0.1388435810804367, 0.27179309725761414], [0.2488073706626892, -0.3422280550003052, 0.007139001972973347, 0.17890574038028717, -0.17450305819511414, 0.4435594081878662, 0.3570256531238556, -0.29022863507270813, 0.4648332893848419, -0.061711352318525314, 0.5037472248077393, 0.25258398056030273, 0.06947288662195206, 0.15208083391189575, 0.2203914374113083, -0.31276801228523254, 0.4369940161705017], [0.2033882588148117, 0.3393478989601135, -0.015588391572237015, -0.6386138796806335, 0.07415523380041122, -0.26652535796165466, 0.06026914715766907, 0.5275322198867798, -0.19532136619091034, 0.2634120285511017, 0.0308703500777483, 0.13060103356838226, -0.2889941334724426, -1.1350209712982178, -0.140707865357399, 0.2987351417541504, -0.01234259270131588], [0.36394932866096497, 0.45725327730178833, 0.026484889909625053, -0.14109306037425995, 0.15786409378051758, 0.3554207980632782, 0.42057016491889954, -0.018284885212779045, -0.016500992700457573, -0.1599026471376419, -0.47308337688446045, 0.22204150259494781, -0.21744875609874725, -0.31271183490753174, 0.47743505239486694, 0.15106700360774994, -0.1178647056221962], [-0.29456719756126404, -0.2136443853378296, -0.009963949210941792, -0.1840588003396988, -0.07565691322088242, -0.19174493849277496, 0.24704469740390778, -0.36471375823020935, 0.1668473780155182, -0.42458680272102356, 0.37047895789146423, -0.3182648718357086, 0.37389445304870605, 0.5475764870643616, 0.2831048369407654, 0.30887094140052795, 0.009061954915523529], [0.19722457230091095, -0.2522751986980438, -0.3766769766807556, 0.48025065660476685, -0.09998401254415512, -0.011129532940685749, -0.39372822642326355, 0.017405202612280846, -0.3337468206882477, 0.2916819155216217, -0.0849418118596077, -0.04601975902915001, -0.1998485028743744, 0.43479976058006287, -0.008587717078626156, 0.007333684246987104, 0.2344212532043457], [0.38034170866012573, -0.41673868894577026, 0.12371524423360825, -0.07682933658361435, 0.11860376596450806, -0.24759335815906525, 0.40523669123649597, 0.003836424555629492, -0.08834560215473175, 0.14847253262996674, -0.4820316433906555, 0.1624716967344284, -0.035817377269268036, 0.11977747082710266, 0.18090541660785675, -0.0362328439950943, -0.1263604462146759], [-0.11900516599416733, -0.017096728086471558, -0.5623928904533386, -0.2862609028816223, 0.057361871004104614, -0.012061703018844128, 0.03425971046090126, 0.46418264508247375, 0.30995556712150574, 0.24896207451820374, -0.036682404577732086, 0.24218259751796722, -0.1503732055425644, -0.30212846398353577, -0.10375204682350159, -0.02178984321653843, -0.04764217883348465], [0.2743449807167053, 0.0024874114897102118, -0.30644768476486206, -0.11853954941034317, -0.024074412882328033, 0.27192223072052, -0.360119104385376, 0.23259074985980988, 0.05849664658308029, 0.28677672147750854, 0.17117249965667725, 0.21840690076351166, -0.6705572009086609, -0.03597650304436684, -0.3436371088027954, -0.356769859790802, 0.04490882158279419], [-0.056986864656209946, -0.14124171435832977, 0.3072265386581421, 0.2989272475242615, -0.005796845071017742, 0.009722372516989708, 0.047516196966171265, -0.02288641221821308, 0.16770192980766296, 0.06019952893257141, -0.060746148228645325, 0.09885168820619583, 0.7177140712738037, 0.4804563820362091, -0.05014045909047127, -0.16791951656341553, -0.0644935816526413], [-0.24467425048351288, 0.4854680895805359, 0.40620851516723633, -0.47335106134414673, -0.18895678222179413, 0.0011187740601599216, 0.2947450876235962, 0.22926752269268036, 0.1916646510362625, -0.02177012525498867, 0.023793945088982582, 0.20232373476028442, 0.6151890754699707, -0.9612486958503723, 0.11765968799591064, 0.29600366950035095, -0.020083367824554443], [0.21235419809818268, 0.4571998417377472, -0.344736784696579, -0.4398094713687897, 0.04013662040233612, 0.10121980309486389, 0.10988109558820724, 0.824385404586792, 0.09251619130373001, 0.3626747131347656, 0.007981356233358383, 0.33181554079055786, -0.3199828565120697, -1.211490511894226, 0.13784265518188477, 0.09409268200397491, -0.11698425561189651], [0.03524954989552498, -0.250759094953537, 0.14503875374794006, 0.2562201917171478, 0.007472001016139984, -0.12035415321588516, 0.11590031534433365, 0.036550480872392654, -0.3392847776412964, 0.05490955710411072, 0.20907172560691833, 0.32485976815223694, 0.1082911342382431, 0.5732450485229492, 0.4118932783603668, 0.07087071985006332, -0.05195378139615059], [-0.34946349263191223, -0.08375365287065506, -0.31025630235671997, -0.20237953960895538, 0.263992577791214, -0.42550161480903625, -0.0929451435804367, -0.49719011783599854, -0.18089936673641205, 0.006059931591153145, 0.29477664828300476, 0.07214789092540741, -0.06174309924244881, 0.13138888776302338, 0.008139756508171558, -0.2511902153491974, -0.3906484544277191], [-0.08856408298015594, -0.38599446415901184, 0.20924349129199982, -0.2301662564277649, -0.014321708120405674, -0.12694860994815826, -0.384805828332901, 0.1834092140197754, -0.13980352878570557, 0.015062989667057991, 0.08026599884033203, -0.3553278148174286, 0.436175674200058, -0.11775336414575577, -0.006644295062869787, 0.1947927176952362, -0.019503381103277206], [-0.30891597270965576, -0.02464771829545498, -0.34040313959121704, 0.09169583767652512, 0.34529101848602295, -0.5373412370681763, -0.40220892429351807, -0.30034366250038147, -0.05388044938445091, -0.23247897624969482, -0.3469820022583008, -0.3932945430278778, -0.06950521469116211, -0.22181633114814758, -0.34328392148017883, 0.18415185809135437, -0.4022138714790344], [0.17294056713581085, 0.1345171332359314, 0.11408194899559021, 0.48012369871139526, 0.014644531533122063, -0.2102022022008896, -0.14341582357883453, 0.005762639921158552, -0.27846330404281616, -0.14688466489315033, 0.5634634494781494, -0.06317450851202011, 0.08325929939746857, 0.35546520352363586, -0.04062357172369957, 0.12056096643209457, 0.2665013372898102], [0.012472850270569324, -0.22459092736244202, -0.3113304674625397, 0.1604984551668167, 0.013224581256508827, 0.11762552708387375, 0.12050945311784744, -0.23489953577518463, -0.42072010040283203, -0.5936670899391174, 0.1826867163181305, -0.4018349349498749, -0.22045432031154633, 0.48990046977996826, 0.20792916417121887, 0.2078220397233963, 0.05452577769756317], [-0.28526702523231506, -0.10537144541740417, -0.10110796988010406, -0.3141463100910187, 0.031645193696022034, -0.08262617141008377, -0.0010126624256372452, 0.4374237060546875, -0.08850719779729843, 0.04185187816619873, -0.4606342315673828, 0.5069965720176697, 0.2501256763935089, -0.1917012333869934, -0.22735202312469482, 0.22517569363117218, 0.47406166791915894], [-0.43640047311782837, 0.26231861114501953, -0.6142616271972656, -0.21153172850608826, -0.037389788776636124, 0.06323839724063873, -0.13985876739025116, 0.08775977045297623, 0.10412194579839706, 0.2464202642440796, 0.19762636721134186, -0.07727113366127014, 0.0731845498085022, -0.2758268713951111, 0.06868331879377365, -0.27219390869140625, 0.18420976400375366], [-0.12086071819067001, 0.05041775107383728, 0.5290359258651733, -0.06977356225252151, 0.007650189101696014, 0.06096755340695381, 0.48523905873298645, 0.1520611047744751, 0.15763916075229645, 0.1065683513879776, -0.12090514600276947, 0.4182012677192688, 1.4824689626693726, 0.2711179554462433, 0.5564074516296387, 0.2721261978149414, -0.0045355865731835365], [0.3833257257938385, 0.01769687421619892, 0.10729863494634628, 0.06037557125091553, 0.10586903989315033, 0.3012549877166748, -0.2445068508386612, 0.1540733426809311, 0.5462867021560669, 0.29110458493232727, -0.018384192138910294, -0.06894253939390182, 0.0676492303609848, 0.3473517596721649, -0.2694747745990753, -0.17671483755111694, 0.3412896692752838], [0.14677293598651886, -0.010002085007727146, -0.1290176808834076, 0.38273918628692627, 0.19121716916561127, 0.4093954861164093, -0.3458036482334137, 0.3079400062561035, -0.31243467330932617, 0.11866121739149094, -0.18535731732845306, -0.14488522708415985, 0.01614939607679844, 0.3265981376171112, -0.11343574523925781, 0.25097745656967163, 0.006293029058724642], [-0.47026827931404114, 0.015627389773726463, -0.4066789150238037, -0.2159499228000641, 0.14265477657318115, 0.18229231238365173, -0.24845869839191437, -0.07873685657978058, -0.24063226580619812, 0.16208259761333466, 0.280283123254776, -0.09284252673387527, -0.13953885436058044, -0.37363871932029724, -0.07995200157165527, 0.08596782386302948, 0.309247225522995], [-0.3824813663959503, 0.34191206097602844, -0.5411615967750549, -0.25333917140960693, -0.1488891988992691, 0.03709828108549118, 0.13543245196342468, 0.15557131171226501, 0.2196716070175171, 0.15710902214050293, 0.10085733234882355, 0.08832550793886185, -0.024038897827267647, -0.4971315562725067, 0.1147172600030899, 0.0260932520031929, 0.004006074741482735], [0.059094298630952835, -0.018178829923272133, -0.033739399164915085, 0.06994210928678513, -0.10146846622228622, 0.4793560206890106, -0.13475151360034943, 0.271747350692749, -0.5748869180679321, -0.025743763893842697, -0.33744633197784424, 0.2076864093542099, -0.37435176968574524, 0.14642775058746338, 0.18866375088691711, 0.23572316765785217, 0.07322759926319122], [-0.13792964816093445, -0.07456444203853607, 0.31817492842674255, -0.23586887121200562, 0.25564125180244446, 0.518782913684845, 0.18642495572566986, 0.49477192759513855, 0.44268226623535156, -0.1250792294740677, 0.08285149186849594, 0.2798387110233307, 0.36374565958976746, -0.29522472620010376, -0.22255516052246094, 0.22877413034439087, 0.45884963870048523], [-0.24050773680210114, 0.0884021446108818, -0.21505466103553772, -0.17011737823486328, -0.12773151695728302, -0.03753658011555672, 0.15635955333709717, -0.8424102067947388, 0.5240355730056763, -0.016811508685350418, -0.701122522354126, -0.45581939816474915, -0.20529189705848694, 0.03688100725412369, -0.25555887818336487, -0.5040698647499084, 0.10575287789106369], [0.02011536993086338, -0.4409725069999695, -0.006355006247758865, 0.3027896583080292, 0.06326752156019211, -0.184395432472229, 0.28773826360702515, -0.22283552587032318, 0.3219384253025055, -0.02590734139084816, 0.1277276873588562, 0.007472645491361618, -0.003238504286855459, 0.8086448311805725, 0.14852899312973022, 0.09476994723081589, -0.16501545906066895], [0.22988657653331757, -0.48017847537994385, -0.16337494552135468, -0.19653624296188354, -0.018365539610385895, 0.05188540741801262, -0.04152343422174454, -0.19052398204803467, 0.10748034715652466, 0.528084933757782, 0.11873987317085266, -0.2923564612865448, -0.3721366226673126, 0.14830592274665833, -0.32077619433403015, -0.5262284874916077, -0.22610615193843842], [-0.06678307801485062, 0.31121429800987244, 0.019968321546912193, 0.2963583469390869, 0.224058598279953, -0.34153932332992554, 0.22589701414108276, 0.18894249200820923, -0.05960635468363762, 0.24055354297161102, -0.06554048508405685, -0.0903543159365654, -0.05655031278729439, -0.2020706981420517, 0.3348349928855896, -0.11084488034248352, 0.25415030121803284], [0.09967534244060516, -0.19668985903263092, 0.18444667756557465, 0.14520926773548126, -0.3068218529224396, 0.29596590995788574, -0.25720369815826416, 0.4785335063934326, -0.5204136371612549, 0.020189203321933746, -0.32865193486213684, -0.33771446347236633, 0.08543190360069275, 0.32088378071784973, 0.020716389641165733, 0.44525644183158875, 0.008772396482527256], [0.03726065531373024, -0.2478557974100113, 0.2024291604757309, -0.05217372626066208, 0.10815645754337311, -0.05979057773947716, 0.6227077841758728, -0.16399982571601868, 0.1302369087934494, 0.23233602941036224, -0.148477703332901, 0.5245140194892883, 0.4844397008419037, 0.37985605001449585, 0.1479596197605133, -0.022108079865574837, 0.11917362362146378], [0.26901277899742126, 0.2144310474395752, 0.08691931515932083, 0.3036453127861023, 0.19768303632736206, 0.13002777099609375, 0.2194805145263672, -0.3436378836631775, -0.5821895003318787, -0.19933921098709106, -0.010410048998892307, -0.03566412627696991, 0.05437220633029938, 0.03521760553121567, 0.45568957924842834, -0.14620012044906616, 0.14533105492591858], [0.12091640383005142, 0.08722537010908127, 0.5812960267066956, 0.16147641837596893, -0.060430143028497696, 0.12046397477388382, 0.0027770858723670244, -0.34193044900894165, 0.03440922126173973, 0.041163813322782516, -0.015373012982308865, -0.22110231220722198, 1.7654362916946411, 0.2640242278575897, -0.06686149537563324, -0.10210663080215454, 0.1005617305636406], [-0.47506043314933777, 0.30870336294174194, -0.3336424231529236, 0.23241659998893738, -0.0034304484724998474, 0.34661930799484253, -0.2985696792602539, 0.24518755078315735, 0.09339849650859833, -0.38870686292648315, -0.20933930575847626, -0.07337669283151627, -0.3643346130847931, 0.3033379912376404, -0.38906341791152954, 0.40160608291625977, -0.06635209172964096], [-0.24939890205860138, 0.00975941400974989, -0.32927006483078003, 0.08422596752643585, -0.03857734799385071, -0.020712722092866898, -0.2105354219675064, -0.8783254623413086, 0.22790639102458954, -0.20431067049503326, -0.34878262877464294, -0.09592055529356003, -0.44115808606147766, -0.04251028597354889, -0.40676209330558777, -0.5344176292419434, -0.03429090604186058], [0.44192469120025635, -0.2907956540584564, 0.26720404624938965, 0.05662833899259567, 0.16898833215236664, 0.24424126744270325, 0.05568075180053711, -0.03558613732457161, 0.02736649103462696, -0.06657197326421738, 0.10303297638893127, 0.1585165411233902, -0.18163667619228363, 0.41521960496902466, -0.12537188827991486, -0.35831418633461, 0.21143457293510437], [0.19210588932037354, 0.41880857944488525, 0.5373057126998901, 0.13591225445270538, -0.0730314627289772, 0.10950788110494614, 0.3422536849975586, -0.3530604839324951, -0.296678751707077, -0.19928984344005585, 0.03872992470860481, -0.1289147287607193, 0.06599973142147064, -0.36907127499580383, 0.41137948632240295, 0.03601761907339096, 0.18480415642261505], [0.10806199163198471, 0.08184396475553513, 0.2437824308872223, -0.10780731588602066, -0.29690706729888916, 0.37752020359039307, 0.5976118445396423, -0.07792209088802338, -0.19886650145053864, 0.012253332883119583, 0.03250197321176529, 0.2075003832578659, 0.2474442571401596, -0.5622768402099609, 0.3307333290576935, 0.009634505957365036, 0.09212595969438553], [-0.03308595344424248, 0.04403592273592949, -0.04302137345075607, -0.22956234216690063, 0.18659992516040802, -0.15402045845985413, 0.31773316860198975, 0.42873987555503845, -0.09553240239620209, 0.2304222583770752, 0.5344657897949219, 0.3823739290237427, 0.22210314869880676, -0.8791624903678894, 0.27833330631256104, 0.09713956713676453, 0.08696522563695908], [0.11560406535863876, 0.25318580865859985, 0.5411016345024109, -0.05824705585837364, -0.15597131848335266, 0.17547766864299774, 0.3388100564479828, -0.5045105814933777, 0.1422092169523239, -0.280097097158432, 0.1298128068447113, -0.4007251262664795, 0.22683307528495789, -0.6824472546577454, -0.005950095131993294, -0.2417953461408615, -0.040650736540555954], [0.051939014345407486, 0.2749841511249542, 0.10293262451887131, 0.09753885865211487, -0.005538868717849255, -0.3306503891944885, 0.17845335602760315, 0.1685960292816162, 0.2518989145755768, -0.24191823601722717, 0.2646400034427643, 0.09816140681505203, -0.08768445253372192, -0.08409130573272705, 0.0635879635810852, -0.326911985874176, -0.21689848601818085], [0.07550448179244995, -0.30476313829421997, 0.42682352662086487, -0.2574324309825897, 0.21339431405067444, 0.16919970512390137, 0.012936169281601906, 0.27657026052474976, -0.1271699219942093, 0.2556098997592926, 0.15344925224781036, 0.13547278940677643, 1.0977572202682495, -0.005460027139633894, 0.3277410864830017, 0.09269818663597107, -0.10221458226442337], [-0.3778190612792969, 0.007148439530283213, -0.5046712160110474, -0.3554456830024719, 0.1299433410167694, -0.013744992204010487, 0.047477588057518005, 0.5303255915641785, 0.08984909951686859, -0.28825175762176514, 0.4143225848674774, 0.0860237255692482, -0.18915428221225739, -0.5627419352531433, -0.013031727634370327, 0.4617180824279785, 0.288020521402359], [-0.18523240089416504, 0.2866586446762085, 0.21599316596984863, -0.43937504291534424, -0.04004307836294174, -0.0816715881228447, 0.1968117356300354, 0.5069518685340881, 0.16627462208271027, 0.009505433030426502, -0.05208452045917511, 0.3376738131046295, 0.8262162804603577, -1.0260511636734009, -0.06602569669485092, 0.021578676998615265, -0.0484287329018116], [-0.335066020488739, -0.33086687326431274, -0.055365052074193954, 0.07109672576189041, 0.012813839130103588, 0.0683816447854042, -0.12037556618452072, -0.5280255675315857, -0.2281884104013443, -0.16944386065006256, -0.15960216522216797, -1.1102081537246704, -0.009195376187562943, 0.5606988668441772, 0.07640612870454788, -0.09075921028852463, -0.2152438759803772], [-0.23596924543380737, 0.5126379728317261, -0.27797195315361023, 0.07358235865831375, 0.09673041105270386, -0.08137277513742447, 0.1634233444929123, -0.42004552483558655, 0.5885511636734009, 0.44924455881118774, 0.05219945311546326, -0.05031745135784149, -0.3341490924358368, -0.11451680958271027, -0.22055640816688538, -0.4919103980064392, 0.005599081050604582], [0.31494271755218506, 0.0921739786863327, -0.034614209085702896, 0.06975539773702621, -0.24945823848247528, -0.0062470692209899426, 0.1054283007979393, 0.13423234224319458, 0.1538519561290741, 0.1921936273574829, -0.026902630925178528, 0.1470663696527481, -0.26767677068710327, -0.05979451909661293, -0.021961906924843788, -0.08839321881532669, -0.028359394520521164], [0.2645159661769867, 0.10931608825922012, 0.3487037122249603, -0.2029634714126587, 0.170475572347641, 0.6110798120498657, 0.13763178884983063, -0.19106034934520721, 0.6504647135734558, -0.24835757911205292, 0.33947572112083435, 0.5328227877616882, -0.04492415487766266, -0.22614328563213348, -0.017713332548737526, 0.1194014772772789, 0.17447783052921295], [-0.01111848559230566, -0.0010891933925449848, -0.1157521978020668, -0.2448820173740387, -0.11037158966064453, 0.39488911628723145, 0.38146209716796875, 0.3557336628437042, 0.16835682094097137, -0.5387668013572693, -0.5717169642448425, 0.017820464447140694, -0.03492669388651848, -0.10670929402112961, 0.00603753887116909, 0.3968493938446045, -0.3891240954399109], [0.12565435469150543, -0.21786083281040192, 0.07783970981836319, 0.321331262588501, -0.04004038870334625, -0.2452688068151474, -0.026968996971845627, -0.2709266245365143, 0.1401395946741104, -0.1098748967051506, 0.1666853129863739, 0.15947486460208893, -0.12429489940404892, 0.7684820294380188, 0.08237241953611374, -0.11367961019277573, 0.20723223686218262], [-0.09669933468103409, 0.06023888289928436, 0.7718746066093445, 0.1874874085187912, 0.0645306408405304, 0.011627866886556149, 0.007240654900670052, -0.29307830333709717, 0.19628028571605682, -0.14921292662620544, -0.05191623792052269, -0.46034833788871765, 1.3176891803741455, 0.230890691280365, 0.15056200325489044, -0.25328922271728516, -0.02374308370053768], [0.18825121223926544, 0.322908878326416, -0.133378803730011, -0.21417899429798126, 0.11570507287979126, -0.46772417426109314, 0.5747398734092712, -0.007269478868693113, -0.1853630095720291, -0.23097790777683258, -0.09738299250602722, -0.6071692705154419, 0.19996377825737, -0.3839021623134613, 0.7149527072906494, 0.22156129777431488, -0.11085674166679382], [0.5207124352455139, 0.03539542108774185, -0.07721725851297379, -0.47855085134506226, 0.238214910030365, -0.18411490321159363, 0.5149081945419312, 0.28085827827453613, -0.14142106473445892, 0.06428244709968567, -0.1574724316596985, 0.1710405796766281, -0.47158363461494446, -0.420887291431427, 0.30713340640068054, 0.07680102437734604, -0.21324960887432098], [-0.04837270453572273, 0.0900929644703865, -0.19257912039756775, -0.038620587438344955, -0.10686138272285461, -0.22607146203517914, -0.008493217639625072, -0.5465362668037415, -0.2735132873058319, -0.4618270695209503, 0.451524019241333, -0.189787819981575, -0.24988049268722534, 0.07042423635721207, 0.2564549744129181, 0.06684800237417221, 0.30445775389671326], [-0.1950247585773468, 0.06415312737226486, -0.014300820417702198, 0.4260721206665039, -0.23092004656791687, -0.03885430470108986, 0.5347906351089478, 0.16903461515903473, 0.19573700428009033, 0.02726324088871479, 0.10851111263036728, -0.17972031235694885, 0.09291117638349533, 0.33316075801849365, -0.020088501274585724, -0.10024064034223557, -0.0296917911618948], [-0.3589722216129303, -0.00954761728644371, -0.4317631423473358, 0.06883905082941055, 0.20307424664497375, 0.18052369356155396, -0.4660206735134125, -0.33479875326156616, 0.08001378923654556, 0.033891625702381134, -0.5187837481498718, 0.6622633337974548, -0.03831147029995918, -0.2638264000415802, -0.09339503198862076, -0.144545778632164, 0.08962292224168777], [-0.3845033049583435, 0.3887317478656769, -0.43476831912994385, 0.0024167520459741354, 0.3056086003780365, -0.05020416900515556, -0.4279787540435791, -0.2193540334701538, -0.2616835832595825, 0.24813982844352722, 0.21198377013206482, 0.022205065935850143, -0.002643846208229661, -0.028721969574689865, -0.33567872643470764, -0.09807348996400833, 0.2147308588027954], [-0.3364202380180359, -0.27935147285461426, -0.06850245594978333, -0.33843573927879333, 0.11999927461147308, 0.18178091943264008, -0.09157229214906693, 0.16927173733711243, 0.7537316679954529, 0.16502153873443604, 0.32178419828414917, 0.327645480632782, -0.09070994704961777, -0.03610676899552345, -0.5528033971786499, 0.08927717804908752, -0.06813482195138931], [0.22892938554286957, 0.00480989832431078, -0.1671750545501709, -0.2271391749382019, -0.01367401983588934, 0.30283820629119873, -0.33049505949020386, -0.19611361622810364, 0.10165641456842422, 0.15374056994915009, 0.03732112795114517, 0.3142813444137573, -0.10220187902450562, -0.23115938901901245, -0.2837671637535095, -0.22703634202480316, 0.07090058922767639], [0.026864176616072655, -0.2932640612125397, 0.5170449018478394, 0.10273178666830063, 0.23285815119743347, 0.023586224764585495, 0.4805409014225006, 0.06193718686699867, -0.40533769130706787, -0.004296527709811926, 0.354024201631546, 0.39497384428977966, 0.7896213531494141, 0.402352511882782, 0.35643506050109863, -0.0004690550558734685, -0.045022062957286835], [0.24993640184402466, 0.0836435854434967, 0.025970052927732468, 0.1100412905216217, -0.08724209666252136, -0.0492476262152195, 0.4939671456813812, 0.053620416671037674, 0.45509472489356995, -0.44949871301651, 0.0233695637434721, 0.45600786805152893, -0.1245337501168251, -0.054467249661684036, 0.16760744154453278, 0.47113513946533203, 0.0897117555141449], [-0.45686477422714233, 0.2436372935771942, -0.25067612528800964, -0.11780551820993423, 0.08726923912763596, 0.039321549236774445, -0.4707484245300293, 0.1546453982591629, 0.2146397978067398, 0.11831013113260269, 0.3367820978164673, 0.34844186902046204, 0.23195868730545044, -0.4048374891281128, -0.4012722671031952, 0.0343744158744812, 0.28947940468788147], [-0.12830443680286407, 0.05134912580251694, -0.32235926389694214, 0.0645948201417923, -0.19394536316394806, 0.23905183374881744, 0.5962895154953003, 0.16843293607234955, 0.15627101063728333, -0.03574332222342491, 0.36079874634742737, -0.37208664417266846, 0.014018370769917965, 0.19070810079574585, 0.2936946749687195, -0.08670401573181152, -0.521368145942688], [-0.027958963066339493, 0.10788018256425858, -0.5346248745918274, 0.33982688188552856, 0.0721442773938179, 0.08792984485626221, 0.07365114241838455, -0.12106317281723022, 0.37131267786026, 0.4799450933933258, 0.3388651907444, -0.2146642804145813, -0.014907941222190857, 0.024976680055260658, -0.3174514174461365, -0.19754886627197266, -0.1340036392211914], [-0.18252822756767273, 0.40499529242515564, 0.4204004108905792, -0.1426510512828827, -0.21451136469841003, -0.05641139671206474, 0.12194310128688812, 0.3077777326107025, -0.044606033712625504, 0.2996443510055542, 0.221555694937706, 0.43347883224487305, 0.5039101243019104, -0.9046057462692261, 0.11038525402545929, -0.2626367509365082, -0.04444366320967674], [0.24501562118530273, -0.12081938236951828, 0.326090544462204, -0.13582393527030945, -0.14761018753051758, -0.5054755806922913, -0.11973011493682861, 0.5584574937820435, -0.2135593742132187, -0.10175549238920212, -0.1501714438199997, -0.29552343487739563, 0.035816386342048645, -0.1771979182958603, 0.1208483949303627, 0.0953996405005455, -0.25601834058761597], [-0.06899476796388626, 0.10692688822746277, 0.734685480594635, -0.13159756362438202, -0.05764837935566902, 0.06164583936333656, 0.3504652678966522, 0.24146027863025665, 0.012673646211624146, -0.026317168027162552, -0.23752790689468384, 0.3641606867313385, 1.830619215965271, -0.011617550626397133, -0.020456308498978615, 0.17185290157794952, 0.07548657059669495], [-0.0849510133266449, 0.38172802329063416, 0.32419824600219727, -0.08566215634346008, -0.002660927828401327, 0.2033074051141739, 0.34071093797683716, 0.14131909608840942, -0.25683003664016724, 0.360799103975296, 0.36941903829574585, 0.12620387971401215, 0.30953770875930786, -0.6471208333969116, 0.3216381072998047, -0.06341736018657684, -0.16440792381763458], [-0.29385754466056824, 0.0563780777156353, -0.39227867126464844, 0.17238780856132507, -0.19717422127723694, -0.13498565554618835, -0.22896653413772583, -0.18846021592617035, 0.08125051856040955, -0.17763139307498932, 0.2663727104663849, -0.23695307970046997, -0.27913519740104675, 0.1132364273071289, -0.33339640498161316, -0.23100535571575165, -0.27551013231277466], [0.2440742701292038, -0.0865463837981224, -0.2438231110572815, -0.214272141456604, 0.01798676699399948, 0.07356732338666916, -0.35140180587768555, -0.18964199721813202, -0.24778681993484497, 0.5072260499000549, 0.2980049252510071, 0.4773556888103485, -0.1839779019355774, -0.21792703866958618, -0.17227807641029358, -0.4048224687576294, -0.07823657989501953], [0.24285899102687836, -0.5089017748832703, 0.14317792654037476, -0.256213903427124, 0.10068228840827942, -0.18125471472740173, 0.23070591688156128, -0.10069224238395691, -0.022157514467835426, 0.16776709258556366, -0.44238555431365967, 0.24275602400302887, -0.2556818127632141, 0.4860329031944275, 0.1080837994813919, -0.184921994805336, 0.16356129944324493], [0.15471632778644562, 0.16290447115898132, -0.027365101501345634, 0.19564686715602875, 0.2130797654390335, 0.43097060918807983, -0.15204572677612305, 0.4909171760082245, 0.09930642694234848, 0.2928111255168915, -0.22727712988853455, -0.21482820808887482, -0.3312940299510956, -0.027435116469860077, 0.23998378217220306, -0.0527951642870903, 0.11328106373548508], [-0.34838980436325073, 0.5004412531852722, 0.1545034497976303, -0.276888370513916, -0.3798848092556, -0.06376475840806961, -0.09923673421144485, -0.2755618393421173, 0.23495279252529144, 0.02209487557411194, -0.06266212463378906, -0.09408091008663177, 0.25823381543159485, -0.28038543462753296, -0.6064472794532776, -0.22665593028068542, 0.06010851263999939], [0.1385798305273056, 0.30144941806793213, 0.28801465034484863, 0.3030272126197815, 0.1901656836271286, 0.2156730741262436, -0.4361760914325714, 0.1938236653804779, -0.012458554469048977, 0.11624939739704132, -0.04782482981681824, -0.09203885495662689, -0.016537677496671677, 0.22371846437454224, -0.2049095332622528, -0.01237206719815731, 0.387683242559433], [0.3968702256679535, -0.5768086314201355, 0.10421761125326157, 0.032469864934682846, -0.10853225737810135, -0.12283162027597427, -0.006141909398138523, -0.03353298082947731, -0.05657265707850456, -0.038356486707925797, 0.08390268683433533, 0.6142312288284302, -0.0064063179306685925, 0.7983935475349426, -0.26361212134361267, 0.11728131026029587, -0.1844448298215866], [0.26559439301490784, -0.31920570135116577, -0.037433236837387085, 0.18567632138729095, 0.04759824275970459, -0.10286962240934372, 0.18592342734336853, -0.09728669375181198, 0.4759872853755951, -0.08659352362155914, -0.02674221806228161, 0.4180270731449127, -0.19776460528373718, 0.7569697499275208, -0.06371952593326569, -0.14615778625011444, 0.382662832736969], [-0.18222883343696594, -0.33331677317619324, -0.19938036799430847, -0.17465998232364655, -0.08225821703672409, -0.15131057798862457, 0.6006487011909485, -0.31271499395370483, 0.4154733121395111, -0.09967236965894699, 0.08116424828767776, -0.32423052191734314, -0.06602282077074051, 0.2994246780872345, 0.08817232400178909, 0.1128927543759346, 0.11511867493391037], [0.4120563268661499, -0.2749086618423462, -0.11977946758270264, -0.15318860113620758, 0.00832619983702898, -0.08135441690683365, -0.37354958057403564, -0.262012779712677, -0.0931578278541565, 0.4426230490207672, 0.0429682619869709, 0.309015691280365, -0.37384602427482605, 0.19825884699821472, -0.28319504857063293, -0.4582560062408447, -0.1796293407678604], [-0.16263194382190704, 0.2676808536052704, 0.38747385144233704, -0.18936434388160706, 0.10002321004867554, -0.13100045919418335, -0.23657846450805664, 0.06323432922363281, -0.09287000447511673, -0.1357392966747284, 0.4034673869609833, 0.2860143482685089, 1.0971659421920776, -0.6229969263076782, 0.3040969967842102, 0.16076235473155975, 0.24159397184848785], [-0.2453252375125885, -0.2205057293176651, 0.13006360828876495, -0.396333247423172, -0.0017702115001156926, -0.11436363309621811, 0.14315621554851532, -0.28220370411872864, 0.1590665727853775, -0.12033364176750183, -0.5972378253936768, -0.23779228329658508, 0.33801382780075073, -0.20020271837711334, 0.222018763422966, -0.1388860046863556, -0.5338854789733887], [-0.2062002718448639, 0.31531354784965515, -0.12420984357595444, 0.11375891417264938, -0.160960391163826, -0.386821985244751, -0.05396948754787445, -0.5713034272193909, -0.0769752487540245, -0.1518973857164383, -0.308913916349411, -0.3619250953197479, -0.13319268822669983, -0.1505001336336136, 0.16194115579128265, -0.34311336278915405, -0.32740461826324463], [-0.07924601435661316, 0.04759421572089195, 0.4754115045070648, 0.12331362813711166, -0.09275197237730026, 0.11655554175376892, 0.05627055466175079, -0.21223419904708862, 0.07971333712339401, 0.1628669947385788, -0.3461498022079468, -0.14494097232818604, 1.9019196033477783, 0.2049134075641632, 0.007905232720077038, -0.1674305498600006, 0.11019070446491241], [-0.20253419876098633, -0.15778106451034546, 0.286512166261673, -0.0642058476805687, -0.15239711105823517, -0.06134559214115143, -0.043316878378391266, 0.32120004296302795, -0.03486694023013115, -0.062089141458272934, -0.12579895555973053, 0.6924337148666382, 0.895383894443512, 0.7738250494003296, 0.01638391613960266, 0.06325935572385788, 0.022160856053233147], [0.06355805695056915, 0.48784515261650085, 0.48260384798049927, 0.07605133205652237, 0.03680893033742905, -0.0639432892203331, 0.060722559690475464, -0.11309532821178436, -0.06080605462193489, -0.6018514633178711, -0.2764133810997009, -0.04232170060276985, 0.5868524312973022, -0.8485429883003235, 0.022760776802897453, -0.26868897676467896, -0.11430460959672928], [0.21635626256465912, -0.10394801199436188, 0.32267460227012634, -0.36455467343330383, -0.06918716430664062, -0.060688018798828125, -0.07497638463973999, 0.42268383502960205, 0.10645540058612823, -0.1786123663187027, -0.5102983117103577, -0.019740696996450424, 0.12033312022686005, -0.2277219444513321, -0.09385307133197784, 0.6142918467521667, -0.1981552243232727], [0.018696505576372147, 0.2674572467803955, 0.4899550676345825, 0.3082582354545593, -0.3335561156272888, -0.08515675365924835, -0.22437883913516998, -0.36149969696998596, 0.03560924530029297, -0.056646641343832016, 0.47207409143447876, 0.45657747983932495, 0.4386528730392456, -0.3536788523197174, -0.08483238518238068, 0.31385597586631775, 0.2218935787677765], [-0.26352259516716003, 0.09794352948665619, -0.09957541525363922, 0.28279173374176025, -0.03568679839372635, -0.09519869089126587, -0.16111980378627777, -0.2024776190519333, -0.31524965167045593, 0.03556874394416809, -0.2178647667169571, -0.20707102119922638, 0.1116308644413948, 0.44770145416259766, 0.07391294836997986, -0.02662132866680622, -0.3955070972442627], [-0.2972165048122406, -0.156044140458107, -0.35337695479393005, -0.14433249831199646, -0.04651288315653801, -0.14159289002418518, 0.4159277081489563, -0.4060616195201874, 0.5222177505493164, -0.3401467800140381, -0.2538752257823944, 0.17608296871185303, 0.311109721660614, -0.22462297976016998, -0.40803611278533936, 0.34518855810165405, -0.024795901030302048], [-0.12039171904325485, -0.38473063707351685, -0.12549683451652527, -0.23118792474269867, 0.4447353780269623, -0.14804552495479584, 0.3025267422199249, 0.30748456716537476, -0.020434988662600517, 0.31803107261657715, 0.3953423500061035, 0.23140347003936768, 0.21158839762210846, 0.1232391819357872, -0.03526804596185684, -0.07978519052267075, 0.41308191418647766], [0.12862123548984528, 0.21737787127494812, -0.2005617469549179, 0.04492238163948059, -0.19509294629096985, 0.3029089868068695, 0.3885643780231476, -0.12870793044567108, 0.3639144003391266, 0.20529086887836456, 0.6268618702888489, 0.1927046924829483, -0.13059185445308685, 0.15265978872776031, 0.13028916716575623, -0.08107168227434158, 0.2584303319454193]], "mlp_extractor.policy_net.0.bias": [-0.0004043316876050085, -0.06473253667354584, -0.09067582339048386, 0.10034198313951492, 0.14915859699249268, 0.05046087130904198, 0.03245393559336662, 0.1670588105916977, -0.04439223185181618, -0.07165342569351196, 0.08113408088684082, 0.07277503609657288, 0.006640801206231117, -0.10011405497789383, -0.11623729765415192, 0.15598773956298828, -0.002856257138773799, 0.1389981210231781, 0.0657685175538063, 0.17680682241916656, -0.17085552215576172, -0.2812582552433014, 0.05551087483763695, -0.09419235587120056, -0.0373380109667778, -0.09278655797243118, 0.02811017818748951, 0.12539257109165192, -0.15544448792934418, -0.03249701112508774, 0.19407309591770172, -0.1269693225622177, -0.09029346704483032, -0.015208564698696136, -0.06307615339756012, 0.0572599321603775, 0.1520068645477295, 0.14079001545906067, 0.09260566532611847, 0.06420546025037766, 0.05589762702584267, -0.14104534685611725, 0.17284929752349854, 0.18327122926712036, 0.10013440996408463, 0.004905764013528824, 0.042892880737781525, 0.056371305137872696, 0.05464011803269386, -0.1617828905582428, -0.10746674984693527, -0.07571835070848465, -0.07154825329780579, -0.11276256293058395, 0.0865277647972107, 0.009439218789339066, 0.07058775424957275, 0.09615814685821533, -0.09504209458827972, 0.1057746559381485, 0.1606287956237793, -0.012743484228849411, -0.0789257138967514, 0.026524299755692482, -0.10309211164712906, -0.17117908596992493, 0.15499842166900635, 0.09251006692647934, 0.060462016612291336, -0.006631392985582352, -0.032959163188934326, 0.03667294979095459, -0.07083306461572647, 0.055262695997953415, 0.020820410922169685, 0.13979683816432953, 0.1296316385269165, 0.03859378397464752, 0.13973361253738403, -0.029801124706864357, -0.08116008341312408, 0.06939790397882462, 0.06130916252732277, 0.030596185475587845, -0.012087112292647362, -0.06709136813879013, 0.04773186892271042, 0.048051074147224426, 0.009230934083461761, 0.03785845637321472, 0.22727224230766296, -0.09229084104299545, -0.02945413440465927, -0.05162651091814041, 0.14825887978076935, -0.021664410829544067, -0.26125726103782654, 0.07500465959310532, 0.19330446422100067, -0.20619285106658936, -0.07815186679363251, -0.001401539077050984, -0.06786111742258072, 0.03534044697880745, 0.06346220523118973, -0.0067074112594127655, 0.13507933914661407, -0.09194831550121307, 0.08878296613693237, 0.015827491879463196, 0.1269901990890503, -0.24542808532714844, 0.14031916856765747, -0.013165812008082867, 0.28450530767440796, -0.09282506257295609, 0.10823575407266617, -0.04642211273312569, 0.03898186981678009, 0.08790604025125504, 0.0024699089117348194, 0.09586451947689056, 0.12196653336286545, 0.15453878045082092, -0.4332486391067505, 0.08103425055742264, -0.006468919105827808, 0.20590080320835114], "mlp_extractor.policy_net.2.weight": [[-0.1359875202178955, 0.046494998037815094, -0.03362715616822243, -0.5222011804580688, -0.1257384568452835, -0.005354004912078381, 0.3630883991718292, 0.25130072236061096, -0.24176077544689178, -0.4671938717365265, -0.021489067003130913, -0.22730571031570435, 0.15881426632404327, -0.016049370169639587, 0.05856622755527496, -0.07053261250257492, 0.02564116008579731, -0.33593282103538513, 0.10000981390476227, -0.011134225875139236, 0.12824639678001404, 0.0491020642220974, -0.5037800073623657, -0.023291300982236862, -0.012599226087331772, 0.0233157966285944, -0.035890694707632065, 0.07458126544952393, -0.1448514610528946, -0.18828865885734558, -0.2368019074201584, 0.03239089623093605, 0.06240234896540642, 0.2451786994934082, -0.034919362515211105, -0.29642802476882935, -0.08685792237520218, 0.16583950817584991, -0.23553258180618286, 0.20702379941940308, 0.022943226620554924, 0.06906455755233765, 0.17207209765911102, -0.04879436641931534, 0.0530247688293457, -0.07220019400119781, 0.2869683504104614, 0.07029449939727783, -0.13251109421253204, 0.25490590929985046, -0.21487705409526825, 0.2190665304660797, -0.2923234701156616, -0.007551330141723156, -0.20238004624843597, -0.1906803995370865, -0.28715357184410095, 0.04986496642231941, -0.12145985662937164, -0.20663751661777496, -0.046530429273843765, -0.10971438139677048, -0.3070860207080841, -0.3564794361591339, -0.18210117518901825, 0.0420234352350235, 0.044614750891923904, -0.13905273377895355, 0.15953099727630615, 0.09447570145130157, 0.08813447505235672, -0.2688264548778534, 0.01913491077721119, 0.26268813014030457, -0.19065485894680023, 0.2617722451686859, 0.24898970127105713, 0.2098516821861267, -0.07312007993459702, -0.23614919185638428, -0.1521763652563095, 0.1351412683725357, 0.05738270655274391, -0.36782029271125793, 0.016349293291568756, 0.4800040125846863, 0.13467197120189667, -0.08034495264291763, -0.09874358028173447, 0.19173812866210938, 0.27611836791038513, -0.053268250077962875, -0.22678160667419434, -0.6561959385871887, -0.299003928899765, 0.34921351075172424, -0.20259661972522736, -0.4159849286079407, 0.28382518887519836, -0.11072642356157303, -0.31305745244026184, -0.23031474649906158, 0.263744592666626, 0.19325178861618042, -0.31297731399536133, 0.3385781943798065, -0.4156123399734497, -0.04182857647538185, 0.2714599668979645, 0.03934936225414276, -0.03918958827853203, 0.13603776693344116, -0.06937447935342789, 0.2280583381652832, -0.0034322431311011314, 0.23947080969810486, -0.16262595355510712, 0.1686728149652481, -0.21159596741199493, -0.4180666506290436, -0.20478732883930206, 0.16291671991348267, 0.12161504477262497, 0.16725823283195496, -0.2917761206626892, 0.1523178666830063, 0.12740105390548706, 0.25523802638053894], [-0.25857046246528625, 0.05189802497625351, 0.3214196562767029, 0.02946385368704796, 0.06979604065418243, 0.39320024847984314, 0.21229234337806702, 0.0662919282913208, 0.09385216981172562, 0.21349656581878662, 0.2959648072719574, -0.0862266942858696, -0.09569121152162552, 0.11673533171415329, 0.00947040319442749, 0.05967308208346367, 0.04766963794827461, 0.021051878109574318, -0.03172489255666733, -0.016362477093935013, -0.011843843385577202, -0.02688487619161606, 0.29581379890441895, -0.261889785528183, 0.048948027193546295, 0.4385652542114258, -0.30795687437057495, 0.02869422361254692, 0.09189664572477341, 0.5127261877059937, -0.06918947398662567, 0.13498757779598236, -0.2095850706100464, -0.16546650230884552, 0.1421320140361786, -0.07171767950057983, -0.31795740127563477, 0.13669537007808685, 0.20116671919822693, -0.07284250855445862, 0.04571487382054329, 0.14014051854610443, -0.009922399185597897, 0.05334128066897392, 0.15877318382263184, 0.24554021656513214, 0.19600450992584229, 0.14492039382457733, 0.13496115803718567, 0.2854968309402466, -0.0479634627699852, 0.5090740323066711, 0.17324982583522797, -0.034859079867601395, 0.05626251548528671, -0.16557170450687408, 0.1195305660367012, -0.03752898424863815, -0.09574488550424576, -0.14181160926818848, -0.2304592877626419, -0.1329626441001892, -0.049458980560302734, 0.2649146020412445, 0.0038981465622782707, 0.19608163833618164, -0.22412127256393433, -0.06521841138601303, -0.08553028106689453, 0.05628401041030884, 0.2898504137992859, 0.0849488154053688, 0.20056834816932678, -0.05280575156211853, 0.035745881497859955, 0.3823566138744354, 0.09914406388998032, 0.24811436235904694, 0.27458804845809937, -0.2318345457315445, 0.056326646357774734, 0.4107776880264282, 0.24752841889858246, -0.0698494091629982, -0.13316233456134796, 0.16088342666625977, -0.09980981796979904, -0.21222147345542908, 0.18928417563438416, 0.05632961913943291, -0.11986082792282104, 0.38727444410324097, -0.3801046311855316, 0.21112126111984253, 0.05444091558456421, 0.11886079609394073, 0.04261985793709755, -0.07298913598060608, -0.16179987788200378, 0.19124829769134521, -0.10654142498970032, 0.07726554572582245, 0.46750643849372864, 0.11942899972200394, 0.2830752432346344, 0.34485337138175964, 0.09397954493761063, 0.11621344089508057, 0.20191922783851624, -0.2157537341117859, 0.28303828835487366, 0.3589302599430084, -0.34487345814704895, 0.0029535323847085238, 0.2856944501399994, 0.33440640568733215, 0.0066084605641663074, 0.3457522988319397, 0.22440320253372192, 0.1803615242242813, 0.05958016216754913, 0.11320526152849197, -0.05343814194202423, 0.17274557054042816, 0.29082193970680237, 0.3831982910633087, 0.23920240998268127, 0.10214316844940186], [0.3458397686481476, 0.08601064234972, -0.21307940781116486, -0.08574699610471725, 0.39101386070251465, 0.21235033869743347, 0.09927903860807419, 0.1170196384191513, -0.253831148147583, -0.22021745145320892, 0.1633494794368744, 0.20572638511657715, -0.07471521943807602, -0.15152141451835632, 0.2592160105705261, -0.06531894952058792, 0.1789330095052719, -0.12079320847988129, 0.220700204372406, 0.1164991483092308, 0.2797295153141022, 0.1797143965959549, -0.14291608333587646, 0.1573307067155838, 0.2696671485900879, 0.010021751746535301, 0.14097337424755096, 0.14557620882987976, 0.270373672246933, 0.22433577477931976, -0.11216935515403748, -0.046439096331596375, -0.30527791380882263, -0.03069981001317501, 0.057420507073402405, -0.3446308672428131, -0.29842326045036316, 0.22969138622283936, -0.05766303837299347, 0.5277872085571289, 0.03399474918842316, 0.35674506425857544, -0.030270008370280266, 0.04919056221842766, -0.003411058336496353, 0.021113436669111252, 0.07976459711790085, 0.053884610533714294, 0.08807988464832306, -0.027249634265899658, -0.1515497863292694, 0.4751237630844116, 0.1624917984008789, 0.19281740486621857, -0.03366747498512268, -0.20922289788722992, -0.45130491256713867, 0.2760913074016571, 0.10970040410757065, -0.015415497124195099, -0.31945353746414185, 0.07242822647094727, 0.2439083606004715, -0.033289987593889236, 0.1076076328754425, -0.15094521641731262, -0.20383769273757935, 0.021113650873303413, 0.25564077496528625, 0.16473165154457092, -0.2576519250869751, 0.08019135147333145, -0.1483827829360962, 0.03446641191840172, -0.21502842009067535, 0.5002751350402832, 0.32237204909324646, 0.07774237543344498, 0.026231249794363976, -0.08393605798482895, -0.010680519044399261, 0.2730470299720764, 0.31819626688957214, -0.5812559127807617, 0.13813082873821259, 0.6956409215927124, 0.10970726609230042, -0.0393042229115963, -0.04338474199175835, 0.300466924905777, 0.08851170539855957, 0.12366905808448792, -0.05803179740905762, -0.006184160243719816, 0.1030237153172493, 0.05825931951403618, 0.031083006411790848, 0.0989852026104927, -0.11879157274961472, 0.2651573717594147, -0.24079912900924683, -0.3054407238960266, 0.4102744460105896, -0.08010327816009521, -0.4074372351169586, -0.0744016170501709, -0.06525548547506332, -0.20016266405582428, 0.19681772589683533, 0.002473958767950535, -0.09626535326242447, 0.21272574365139008, 0.08434361964464188, 0.04960886761546135, 0.28362101316452026, 0.07033252716064453, -0.3118009865283966, 0.2022673636674881, -0.05611694976687431, -0.01856127195060253, -0.04165755212306976, -0.06817489862442017, 0.1361587941646576, 0.04247592017054558, 0.03633810579776764, 0.25355756282806396, 0.34870854020118713, -0.3161797821521759], [0.03229165077209473, 0.16120868921279907, 0.5620749592781067, 0.2414226084947586, 0.13495977222919464, 0.25877320766448975, -0.0597696490585804, -0.08683747053146362, -0.18623462319374084, 0.10619308054447174, 0.39063432812690735, 0.020809460431337357, -0.1251537799835205, 0.107658252120018, -0.04846164584159851, -0.2613409757614136, -0.05399622395634651, -0.09901881217956543, -0.06992454081773758, -0.13258479535579681, -0.6975388526916504, 0.05136018618941307, 0.44374197721481323, 0.1330016553401947, -0.03800680488348007, 0.04724540561437607, 0.005593666806817055, -0.21031427383422852, -0.10171283036470413, 0.16069737076759338, 0.040160514414310455, -0.10778961330652237, 0.2489982545375824, 0.07098638266324997, -0.47531038522720337, 0.24570220708847046, -0.10739146918058395, -0.06138889119029045, -0.06636130809783936, -0.30264076590538025, 0.3290150761604309, -0.10109491646289825, -0.16172891855239868, -0.1831311285495758, -0.10073870420455933, 0.1704174280166626, 0.153816819190979, -0.2097693234682083, -0.6022666692733765, 0.25428420305252075, -0.30321991443634033, 0.3012365698814392, 0.30625104904174805, 0.2254449725151062, -0.559575617313385, -0.006831266451627016, 0.1961091160774231, -0.42853865027427673, -0.3217453956604004, -0.276789128780365, -0.21721751987934113, -0.24187593162059784, -0.22386665642261505, 0.5469512939453125, -0.01126010064035654, 0.03503023833036423, -0.38380157947540283, -0.29082152247428894, -0.3749716877937317, -0.12146815657615662, 0.4338185489177704, -0.10562103986740112, 0.49955490231513977, -0.27119651436805725, 0.21183253824710846, 0.008605756796896458, -0.17672386765480042, -0.011563693173229694, -0.009010394103825092, -0.21954360604286194, -0.028573550283908844, 0.05442258343100548, 0.4997926950454712, 0.13385222852230072, 0.23082195222377777, -0.08356534689664841, 0.05039379745721817, -0.40786197781562805, 0.6893044710159302, 0.19659557938575745, -0.28920188546180725, 0.051069535315036774, 8.375310426345095e-05, -0.1812802255153656, 0.14245714247226715, 0.17699159681797028, -0.02686043456196785, -0.1745930016040802, -0.17938299477100372, 0.26785001158714294, 0.24643439054489136, 0.2665707468986511, 0.4094546139240265, -0.39302608370780945, -0.07697135955095291, 0.4159311354160309, 0.06345862150192261, 0.11955088376998901, -0.44612282514572144, -0.38708722591400146, 0.4619210362434387, 0.16705980896949768, 0.004434847738593817, -0.22072291374206543, 0.23378436267375946, 0.05367400497198105, 0.27441564202308655, 0.3209822177886963, 0.09682837128639221, 0.38071075081825256, -0.21517527103424072, 0.47568899393081665, -0.08464641869068146, 0.1864839345216751, 0.09106258302927017, 0.161488339304924, -0.32461968064308167, -0.24010741710662842], [-0.30933868885040283, -0.21013404428958893, 0.3102962374687195, -0.25988632440567017, 0.41211825609207153, -0.07870396971702576, 0.33253973722457886, 0.11755964159965515, 0.02925954759120941, 0.44932374358177185, 0.04268667846918106, -0.2650611400604248, 0.1695500910282135, 0.07819633930921555, -0.08879364281892776, 0.22738096117973328, 0.5777376294136047, -0.08626703172922134, 0.03896625339984894, 0.24096240103244781, -0.24851523339748383, -0.15141762793064117, 0.802919864654541, -0.04451854154467583, 0.11746927350759506, 0.2506526708602905, 0.14382711052894592, 0.1346513032913208, -0.1765391230583191, 0.25146546959877014, -0.24419604241847992, 0.10493123531341553, 0.043710287660360336, 0.20697113871574402, -0.06649229675531387, 0.10180869698524475, 0.0576653890311718, 0.1557016372680664, 0.11695598810911179, -0.35232436656951904, 0.5936688184738159, -0.2582457363605499, 0.0799548476934433, 0.17023299634456635, -0.13300636410713196, 0.22466512024402618, 0.6082115769386292, -0.002198717324063182, -0.12993231415748596, 0.12884099781513214, -0.2403501272201538, 0.07942061871290207, 0.17010129988193512, 0.06055941432714462, 0.3843693733215332, 0.4858025312423706, 0.3770757019519806, 0.15750102698802948, -0.5388178825378418, 0.40375274419784546, 0.3050176501274109, -0.22645634412765503, 0.05593854561448097, 0.45026445388793945, 0.08843772858381271, -0.1948091834783554, 0.036051664501428604, -0.45611679553985596, 0.12049095332622528, -0.11590889096260071, 0.46305614709854126, -0.2499297708272934, 0.4316738545894623, 0.07495186477899551, 0.18126212060451508, 0.10009120404720306, 0.2820500135421753, 0.10154538601636887, 0.2061845064163208, 0.10250398516654968, 0.14722588658332825, 0.30837973952293396, 0.4965953528881073, 0.14423663914203644, -0.1179327666759491, -0.2164425402879715, -0.13184446096420288, -0.019812913611531258, 0.46170949935913086, -0.06122656911611557, 0.009135856293141842, 0.04141414538025856, -0.15453191101551056, 0.08857686817646027, 0.42725569009780884, 0.09790443629026413, 0.08880384266376495, 0.14642617106437683, -0.35602736473083496, 0.477528840303421, 0.27289214730262756, 0.17866584658622742, 0.5208486318588257, -0.03926798328757286, 0.41940051317214966, 0.3168433606624603, 0.15458443760871887, -0.0933905839920044, -0.0718107596039772, -0.35725125670433044, 0.31158244609832764, -0.07962339371442795, -0.22683978080749512, -0.17277857661247253, 0.07235260307788849, -0.338275283575058, 0.3323984742164612, 0.06610168516635895, 0.2782042920589447, 0.4839196801185608, 0.2678788900375366, 0.38815727829933167, -0.1319834589958191, 0.41502341628074646, -0.09141645580530167, 0.2957231402397156, 0.08639269322156906, -0.4215024411678314], [-0.30960848927497864, 0.27495619654655457, 0.2935187518596649, -0.2076158970594406, 0.2831133306026459, -0.09277692437171936, 0.16585054993629456, 0.35583165287971497, -0.5618617534637451, 0.17821523547172546, 0.41817739605903625, 0.06295297294855118, -0.05109507963061333, 0.10114791244268417, 0.1281857043504715, -0.08310747891664505, 0.200252503156662, 0.1218583881855011, -0.13010665774345398, 0.08099915832281113, 0.2037590593099594, -0.1326848417520523, 0.0852900967001915, -0.34788891673088074, 0.011183898895978928, 0.11322735995054245, -0.03969116136431694, 0.24570178985595703, -0.14845581352710724, 0.362180233001709, 0.2742878794670105, -0.26629793643951416, -0.24441121518611908, 0.05014386773109436, -0.052067939192056656, -0.047928933054208755, -0.049953531473875046, 0.022872263565659523, 0.2646786868572235, 0.026028182357549667, 0.2191079705953598, -0.39055582880973816, -0.20695823431015015, 0.028277944773435593, 0.08515307307243347, -0.054359450936317444, 0.22055794298648834, 0.23893293738365173, 0.04731453210115433, 0.05008074641227722, 0.07943880558013916, 0.39548903703689575, -0.234322190284729, -0.0031122774817049503, -0.1803733855485916, -0.07368066161870956, -0.03814200684428215, 0.3821660280227661, -0.3851270377635956, 0.013531687669456005, 0.16596977412700653, 0.12324119359254837, 0.12092360109090805, 0.030638564378023148, -0.40850207209587097, 0.11753394454717636, 0.22724944353103638, -0.03790334612131119, 0.0777454599738121, -0.10132323205471039, 0.12995703518390656, -0.49379831552505493, 0.0015189407858997583, -0.123331718146801, 0.3297879695892334, 0.3917810022830963, 0.48738640546798706, 0.3372839093208313, 0.13213767111301422, -0.23864281177520752, -0.20970812439918518, 0.19534561038017273, -0.021113434806466103, -0.085450679063797, -0.08399414271116257, 0.12196534126996994, 0.042545758187770844, -0.30527564883232117, -0.216718852519989, 0.510185718536377, -0.10233514755964279, -0.04928341880440712, 0.03572874516248703, 0.15989094972610474, 0.40137624740600586, 0.16446663439273834, -0.2740768790245056, -0.09648892283439636, -0.2145773470401764, 0.23766450583934784, -0.16249412298202515, 0.07950511574745178, 0.3520718514919281, 0.18577419221401215, 0.06434720754623413, 0.47293803095817566, -0.22631612420082092, 0.08687067776918411, -0.07534348964691162, -0.2910555303096771, 0.4061896502971649, -0.002262938767671585, -0.20376452803611755, -0.2972427308559418, 0.10783475637435913, 0.0975395143032074, 0.4206530451774597, 0.40115800499916077, 0.2920195162296295, 0.15354886651039124, 0.1551736295223236, 0.5452033877372742, 0.03489144891500473, 0.23683179914951324, 0.08799957484006882, 0.23616310954093933, 0.21739092469215393, -0.0469864159822464], [-0.0981653481721878, -0.10925158113241196, 0.1778327375650406, 0.11688411980867386, 0.14932973682880402, -0.08789461851119995, 0.08147827535867691, 0.16666918992996216, -0.06954967975616455, -0.1874052882194519, 0.27822935581207275, -0.21158573031425476, 0.03083108738064766, 0.17412203550338745, 0.35684970021247864, 0.052372898906469345, -0.24953150749206543, -0.10615077614784241, 0.31307587027549744, -0.014330127276480198, -0.02935975231230259, 0.041102658957242966, -0.08049968630075455, -0.1833566278219223, -0.14714138209819794, 0.29745349287986755, 0.10079853236675262, 0.37771421670913696, -0.14483904838562012, 0.39158138632774353, -0.006804688833653927, 0.03314114362001419, -0.07673831284046173, 0.1213829442858696, 0.06067736819386482, -0.11491704732179642, -0.18727511167526245, 0.20733939111232758, 0.07901757955551147, 0.274456650018692, -0.22246995568275452, 0.3639428913593292, -0.17633628845214844, -0.2936844527721405, 0.03992214426398277, -0.12030450254678726, 0.2535489797592163, 0.4817972183227539, 0.015706628561019897, 0.2709251344203949, -0.038154374808073044, 0.35859647393226624, 0.0686822459101677, 0.2254267781972885, -0.044114988297224045, -0.17673742771148682, -0.01822212152183056, -0.008633834309875965, -0.2548081874847412, -0.04436583071947098, -0.29021918773651123, 0.227712944149971, 0.07249133288860321, -0.016460616141557693, -0.017954742535948753, 0.27196553349494934, -0.23361274600028992, -0.1556742787361145, 0.15067248046398163, 0.27852651476860046, 0.12522317469120026, -0.14879873394966125, 0.39169543981552124, 0.021925045177340508, -0.22543658316135406, 0.4625282287597656, 0.10644975304603577, 0.5109425783157349, 0.011665827594697475, -0.1326325386762619, -0.0400637648999691, 0.15006521344184875, 0.25319409370422363, -0.4433984160423279, 0.026796789839863777, 0.409506231546402, 0.0068917847238481045, 0.026004647836089134, -0.289736807346344, 0.4890941083431244, 0.10911643505096436, 0.07643334567546844, -0.10020343959331512, -0.2943572402000427, 0.14006531238555908, 0.46874359250068665, 0.09921874105930328, -0.39260464906692505, -0.018252791836857796, 0.08117115497589111, -0.393667608499527, 0.06443517655134201, 0.26934123039245605, 0.05834361910820007, -0.14552360773086548, 0.21330080926418304, -0.05938773229718208, 0.20353932678699493, 0.2739841938018799, -0.10113639384508133, 0.2211369127035141, -0.007774607744067907, 0.18158884346485138, 0.005662959069013596, 0.15050095319747925, 0.1570640653371811, 0.16712403297424316, 0.07174274325370789, -0.033704355359077454, -0.1359482854604721, -0.11330541223287582, -0.003031947650015354, 0.1130547896027565, 0.07373499870300293, 0.012381182983517647, 0.06889189779758453, 0.11841067671775818, 0.0688186064362526], [0.016933498904109, -0.07878229022026062, 0.08659004420042038, -0.022857623174786568, 0.003271676367148757, -0.1266074925661087, 0.11882302165031433, 0.32650262117385864, 0.1153431311249733, -0.32563796639442444, -0.25144484639167786, -0.20301367342472076, 0.17217713594436646, 0.013615630567073822, 0.18164455890655518, -0.16209375858306885, -0.4696146249771118, 0.041983745992183685, -0.15828493237495422, 0.09307549148797989, 0.12803533673286438, 0.22431598603725433, -0.708312451839447, 0.31682637333869934, -0.11268453299999237, 0.08554692566394806, -0.023643309250473976, 0.43574848771095276, 0.31810542941093445, 0.013187048025429249, -0.20353618264198303, -0.06761791557073593, -0.34292393922805786, -0.03590850532054901, 0.05060999467968941, -0.05577980354428291, -0.5252885818481445, 0.1505025327205658, 0.02598114125430584, 0.14417263865470886, -0.342380166053772, 0.16078710556030273, -0.09074237197637558, -0.46694955229759216, -0.03713337332010269, 0.02420610561966896, -0.07327762246131897, 0.11439445614814758, -0.00768691161647439, 0.12071064859628677, -0.24904070794582367, -0.019859999418258667, -0.048458002507686615, 0.033956773579120636, -0.030095290392637253, -0.7602622509002686, -0.5098825097084045, 0.3014378845691681, 0.11387603729963303, -0.664222240447998, -0.24810433387756348, -0.04318878427147865, -0.22557616233825684, -0.20244383811950684, -0.35551437735557556, 0.26938921213150024, -0.15084493160247803, 0.055044274777173996, -0.014764509163796902, 0.04252946004271507, -0.44452381134033203, -0.0626036673784256, -0.41763994097709656, 0.3242344260215759, 0.0659564882516861, 0.1992846578359604, -0.058126308023929596, 0.10169561207294464, -0.032277002930641174, -0.18363824486732483, -0.17158442735671997, -0.04789667949080467, -0.2767817974090576, -0.6248831152915955, -0.23176322877407074, 0.679180383682251, 0.05999687686562538, -0.39360329508781433, -0.5610440969467163, 0.21898691356182098, 0.2897985577583313, -0.36816105246543884, -0.1798350214958191, -0.4799637794494629, -0.6202058792114258, 0.15484274923801422, 0.2517935037612915, -0.4023827910423279, 0.35481610894203186, -0.04065810516476631, -0.2482258528470993, -0.4710661470890045, 0.01688828319311142, -0.04564948007464409, -0.8257659077644348, -0.1408984661102295, -0.40703049302101135, -0.06499138474464417, 0.008977852761745453, 0.06811470538377762, -0.14270034432411194, 0.29041755199432373, -0.09436742216348648, 0.2734914720058441, 0.05365949124097824, -0.027077671140432358, -0.25716152787208557, -0.027059068903326988, -0.3718840479850769, -0.35945025086402893, -0.2246861457824707, -0.03329719230532646, 0.15708844363689423, -0.2721610963344574, 0.01889990083873272, -0.08896228671073914, -0.20525924861431122, 0.0024723513051867485], [0.22294335067272186, 0.3408008813858032, -0.02161754108965397, 0.22654186189174652, -0.10360165685415268, -0.2516186535358429, -0.48850226402282715, 0.03207887336611748, 0.31579574942588806, -0.14913974702358246, -0.03736911714076996, 0.007845933549106121, 0.4006078839302063, 0.24711385369300842, -0.3725976049900055, -0.19296273589134216, -0.06382543593645096, 0.19599224627017975, 0.24543870985507965, 0.22229430079460144, 0.03823457285761833, 0.11642099171876907, -0.28701910376548767, -0.3556399941444397, 0.14249849319458008, 0.07268433272838593, -0.12994113564491272, 0.44686299562454224, 0.21456316113471985, -0.4465451240539551, 0.05147860199213028, 0.3211402893066406, -0.2953996956348419, -0.08080121129751205, -0.28830602765083313, 0.18189798295497894, -0.1544300615787506, 0.07727988064289093, -0.19742244482040405, 0.0869884043931961, -0.13461586833000183, 0.3191564977169037, 0.12873618304729462, -0.5747585892677307, 0.057804882526397705, 0.12909960746765137, -0.8486608266830444, -0.5072555541992188, 0.08006627857685089, 0.27590641379356384, 0.2541406750679016, 0.011081453412771225, -0.20525048673152924, -0.27575406432151794, -0.2677799463272095, -0.32865339517593384, -0.013393023051321507, 0.35909488797187805, 0.05873870104551315, -0.17856673896312714, -0.549765408039093, 0.1853296011686325, 0.010532519780099392, 0.17401623725891113, 0.0006248679128475487, 0.0960332527756691, -0.014278982765972614, -0.0200900137424469, 0.13508111238479614, -0.13889361917972565, -0.2586553394794464, 0.10649771988391876, -0.25005003809928894, 0.41970521211624146, -0.4114968776702881, 0.054310526698827744, -0.1387522667646408, -0.06790156662464142, 0.1396801918745041, 0.17069143056869507, -0.3521547019481659, -0.6552866101264954, -0.26033684611320496, -0.10264990478754044, 0.12501108646392822, 0.11692622303962708, 0.19920480251312256, 0.21171967685222626, 0.09463569521903992, 0.0877368301153183, 0.321438729763031, -0.14151541888713837, -0.1336040049791336, -0.14037105441093445, -0.6158608794212341, 0.23878835141658783, -0.04631541296839714, 0.008119745180010796, 0.45266804099082947, -0.24096311628818512, -0.43335098028182983, -0.4865834712982178, -0.729590654373169, 0.19562457501888275, 0.1140904575586319, -0.9363299608230591, -0.04610973969101906, -0.0944552943110466, 0.6615636348724365, 0.3304010331630707, -0.40570923686027527, 0.10868410021066666, 0.29674872756004333, 0.19918832182884216, 0.2993927001953125, 0.07902147620916367, -0.14457230269908905, 0.002976382151246071, -0.19452136754989624, -0.5684857368469238, -0.24614763259887695, -0.32410353422164917, 0.47029995918273926, 0.1374952793121338, 0.04730880632996559, 0.25701674818992615, 0.1462789922952652, -0.0839318335056305], [0.0111183887347579, -0.1783544272184372, -0.3091146647930145, 0.046485599130392075, 0.225662499666214, -0.10481764376163483, -0.4502783417701721, 0.18023088574409485, 0.3491920530796051, 0.300834059715271, 0.20403535664081573, 0.23038002848625183, 0.2994878888130188, -0.2900087833404541, -0.2227092683315277, 0.12335675209760666, 0.4762026071548462, -0.08562207967042923, 0.07303501665592194, 0.21306148171424866, -0.05870679393410683, -0.06965264678001404, 0.2275744080543518, 0.3847862780094147, 0.04404508322477341, -0.007230868563055992, -0.2554590404033661, 0.319186270236969, -0.1927230954170227, -0.21903032064437866, 0.21628151834011078, 0.03711021691560745, -0.27069005370140076, 0.27721691131591797, -0.3957027196884155, 0.3814169466495514, -0.0844855085015297, 0.33253470063209534, -0.5258511304855347, -0.08225013315677643, 0.12536440789699554, 0.021812548860907555, -0.022564195096492767, -0.06124632805585861, 0.07373953610658646, 0.251153826713562, -0.4685083329677582, -0.6109610199928284, -0.06991898268461227, -0.056011274456977844, 0.1836702525615692, -0.08481647819280624, 0.2812252342700958, 0.12574857473373413, 0.39561209082603455, 0.09023306518793106, 0.32903769612312317, 0.07458621263504028, 0.03943226858973503, 0.3422679305076599, -0.0335615836083889, -0.0018490911461412907, 0.06151983141899109, -0.259602427482605, 0.2857283651828766, -0.06426317244768143, 0.06439409404993057, -0.11785021424293518, 0.051881976425647736, 0.08869066834449768, 0.32927241921424866, 0.1295190453529358, -0.08647621423006058, 0.3089449405670166, 0.06834465265274048, -0.16143332421779633, -0.0011302453931421041, 0.1153855100274086, 0.1930931955575943, 0.04394570738077164, 0.18123859167099, -0.5756130218505859, -0.04237161949276924, 0.2947385907173157, 0.13315854966640472, -0.448740154504776, -0.10950367152690887, -0.10461387038230896, 0.03923435136675835, -0.4148472547531128, -0.3635876476764679, -0.016023119911551476, 0.3922463059425354, 0.3192761540412903, 0.2215164452791214, -0.017698004841804504, -0.0408305898308754, 0.3369572162628174, 0.04178304225206375, -0.12588272988796234, 0.035078831017017365, 0.34205132722854614, -0.5423799157142639, -0.19743162393569946, 0.3849125802516937, -0.5406935811042786, -0.006616703700274229, -0.10353822261095047, 0.10952921956777573, -0.16341371834278107, 0.25053057074546814, -0.06596149504184723, 0.3448980450630188, 0.4787605106830597, 0.13145503401756287, -0.05894197151064873, -0.12208428233861923, -0.05234656482934952, -0.08902661502361298, 0.26968568563461304, 0.5149819254875183, -0.3200213611125946, -0.8561463356018066, 0.16815294325351715, 0.13566996157169342, -0.5353755950927734, 0.4884907603263855, 0.1342065930366516], [0.15756608545780182, 0.16072911024093628, 0.028627140447497368, -0.02809281274676323, -0.22243405878543854, 0.4358392357826233, -0.13366787135601044, 0.010272846557199955, 0.2789992392063141, 0.02120254933834076, -0.2936984896659851, -0.25290217995643616, -0.196660578250885, -0.11579135805368423, -0.5966426134109497, -0.6245152354240417, 0.1890612244606018, -0.08594478666782379, 0.07778732478618622, -0.13859127461910248, -0.1640799641609192, -0.004889482632279396, -0.01288449577987194, 0.1061495691537857, 0.2934894561767578, -0.38920632004737854, -0.1875777691602707, 0.23015196621418, 0.2507341802120209, 0.3406415581703186, -0.001143043045885861, -0.2896776795387268, 0.07893727719783783, 0.16918419301509857, 0.06957497447729111, 0.14945685863494873, -0.3460703492164612, -0.07963448017835617, 0.37081965804100037, -0.34530842304229736, -0.09628861397504807, 0.10332729667425156, 0.4236238896846771, -0.18686877191066742, -0.33081701397895813, 0.14088527858257294, 0.1188906878232956, -0.12265302240848541, -0.025143450126051903, -0.375800222158432, 0.1543990671634674, 0.18762199580669403, -0.3393031358718872, 0.2958211600780487, 0.14518898725509644, 0.0018906662007793784, 0.2259763479232788, -0.06562567502260208, 0.3806180953979492, 0.23353970050811768, 0.5157033205032349, 0.2701360285282135, -0.3332427442073822, -0.6530688405036926, 0.341909795999527, -0.15282247960567474, -0.8910964727401733, 0.5071238875389099, 0.21155637502670288, -0.45321935415267944, 0.07760298252105713, 0.37831640243530273, -0.35099586844444275, -0.038988325744867325, -0.5783948302268982, -0.1631578505039215, -0.22400161623954773, -0.3111124038696289, -0.18898296356201172, 0.36918941140174866, 0.364269495010376, 0.3158794939517975, -0.10900478065013885, -0.030721208080649376, -0.09437519311904907, 0.173651784658432, 0.368974894285202, 0.1940440535545349, 0.5397881865501404, -0.7636480927467346, 0.3239002227783203, -0.2217804342508316, -0.23295560479164124, 0.08615914732217789, -0.07461132109165192, -0.06238703057169914, -0.058618541806936264, 0.4435008764266968, 0.17782174050807953, 0.17917677760124207, 0.24060335755348206, -0.157859668135643, -0.3878142833709717, 0.16264918446540833, 0.35942554473876953, -0.5982064604759216, -0.06755226850509644, 0.02297191694378853, 0.18177659809589386, -0.6057231426239014, -0.2711147367954254, 0.14251437783241272, 0.24753034114837646, 0.1330350935459137, 0.018662625923752785, -0.11549535393714905, 0.2336968332529068, 0.24522387981414795, -0.16846142709255219, 0.14139141142368317, 0.17842334508895874, -0.4196621775627136, 0.6042925715446472, -0.057228460907936096, -0.07812818139791489, 0.1281471997499466, -0.12661001086235046, -0.463521808385849], [-0.1687411367893219, -0.2576603591442108, -1.1289907693862915, 0.12287331372499466, -0.7980544567108154, 0.2619398534297943, 0.11870719492435455, -0.017098814249038696, 0.046645790338516235, -0.17463591694831848, 0.1494210809469223, -0.22461076080799103, -0.07591613382101059, -0.017325302585959435, -0.3756091594696045, 0.37273040413856506, 0.1032223179936409, -0.009351423010230064, -0.14220480620861053, -0.3763684630393982, -0.05664987117052078, -0.39268383383750916, 0.4499658942222595, -0.0571281798183918, 0.18397276103496552, -0.2818465530872345, -0.554815948009491, -0.23764710128307343, -0.3913757801055908, -0.03607379272580147, 0.17398874461650848, -0.5024667978286743, 0.2915920913219452, 0.3673125207424164, -0.17516276240348816, -0.1249692440032959, 0.5012031197547913, -0.19652357697486877, 0.1626250296831131, -0.2777768075466156, 0.5629718899726868, -0.5436837077140808, 0.37792444229125977, 0.22408780455589294, 0.16943204402923584, -0.29581230878829956, -0.04978138953447342, 0.15731202065944672, -0.40811407566070557, -0.35130512714385986, -0.20871400833129883, -0.22400787472724915, 0.209329292178154, -0.1909736692905426, 0.16118690371513367, 0.6180658340454102, 0.2852212190628052, -0.4605013430118561, -0.40751755237579346, 0.4375503659248352, 0.2553779184818268, -0.17794835567474365, 0.3957419693470001, 0.2730351984500885, -0.18708908557891846, -0.23319371044635773, 0.21769031882286072, -0.30109289288520813, -0.1841428130865097, -0.1341211348772049, -0.3699660897254944, 0.02688000351190567, 0.01947169005870819, -0.2391374111175537, -0.40393269062042236, -0.06022926792502403, 0.11478380113840103, -0.4325980246067047, 0.11925386637449265, -0.05354677885770798, 0.07617471367120743, 0.4713405668735504, 0.46364709734916687, 0.3624946177005768, 0.12454956769943237, -0.5590711236000061, -0.024391712620854378, -0.3169603943824768, -0.007005096413195133, -0.1531357616186142, 0.10932834446430206, -0.08024022728204727, 0.08857709914445877, 0.620406448841095, 0.10820101946592331, 0.2268316000699997, -0.13879504799842834, 0.07566184550523758, 0.2658065855503082, 0.42075592279434204, 0.3642478287220001, 0.35440656542778015, -0.12007427215576172, -0.04698477312922478, 0.40169045329093933, -0.14629022777080536, 0.31064170598983765, 0.01159268245100975, -0.01537560485303402, -0.16729168593883514, 0.4605146050453186, -0.2786516845226288, -0.5420500636100769, 0.12416935712099075, 0.3062051832675934, -0.35396888852119446, 0.03591965138912201, 0.09512750059366226, 0.10928723216056824, 0.6382982134819031, 0.06655550003051758, -0.4062843918800354, -0.10226757824420929, -0.23958544433116913, -0.25278499722480774, 0.40369507670402527, 0.11113189160823822, 0.046297989785671234], [0.10006943345069885, -0.03902148827910423, -0.06365591287612915, -0.2223362922668457, 0.0573650486767292, -0.04291301965713501, -0.8699901700019836, 0.26703906059265137, 0.29023900628089905, 0.1861957609653473, 0.03840469568967819, -0.051105886697769165, -0.13491958379745483, -0.12841428816318512, -0.2685692012310028, -0.17911148071289062, 0.09329919517040253, -0.0904412791132927, -0.3066028654575348, 0.2959527373313904, 0.12933464348316193, -0.0023012314923107624, 0.24201884865760803, 0.3228127360343933, -0.5348557233810425, -0.3091592788696289, 0.008443605154752731, -0.04796265438199043, -0.07647921144962311, -0.31666991114616394, 0.24816524982452393, -0.17254675924777985, -0.1351778507232666, -0.2910413444042206, -0.4386393427848816, 0.3239887058734894, -0.33264341950416565, 0.011401593685150146, -0.8166239261627197, -0.328031063079834, -0.08308928459882736, 0.030500834807753563, 0.6225751638412476, -0.32115355134010315, -0.014670252799987793, -0.07270877063274384, -0.6156787872314453, -0.5182428359985352, -0.003034901339560747, -0.05496666207909584, 0.040492743253707886, -0.3007637560367584, 0.4831324815750122, -0.03476235643029213, -0.008782961405813694, -0.21572107076644897, 0.12274038046598434, 0.19994695484638214, 0.27227410674095154, -0.13651102781295776, -0.13554608821868896, 0.12876419723033905, -0.07058720290660858, -0.4405847191810608, -0.023257609456777573, -0.17142626643180847, -0.3368137776851654, 0.31354832649230957, -0.028513194993138313, 0.04981992766261101, 0.05075855180621147, -0.1494395136833191, -0.47782793641090393, 0.16189360618591309, 0.2065081149339676, 0.13166305422782898, -0.1546992063522339, -0.4371747076511383, -0.8546158075332642, 0.22793130576610565, -0.2616077661514282, -0.3332759141921997, 0.013671951368451118, -0.474131315946579, -0.28602170944213867, -0.3717575669288635, 0.17075565457344055, 0.19034352898597717, 0.309244841337204, -0.8653539419174194, 0.17389516532421112, -0.039785418659448624, 0.3907225430011749, 0.10502435266971588, -0.2486368864774704, -0.25908514857292175, -0.05681850388646126, -0.07296014577150345, -0.30754193663597107, -0.11333934217691422, 0.23520879447460175, -0.5848371982574463, -0.2655024230480194, -0.5146365165710449, 0.16787412762641907, -0.045554377138614655, -0.1084677204489708, 0.08568956702947617, 0.069255530834198, -0.3733401596546173, 0.08493340015411377, 0.3772042393684387, -0.14620617032051086, -0.1377941220998764, -0.2232634276151657, -0.048964496701955795, 0.00016486785898450762, -0.03466865420341492, -0.7453447580337524, 0.21834255754947662, 0.42916980385780334, -0.3235759735107422, -0.5148081183433533, -0.09403780847787857, 0.17795194685459137, -0.38716772198677063, -0.2993182837963104, -0.09493822604417801], [-0.27689141035079956, -0.14936798810958862, -0.7449340224266052, 0.0106659522280097, -0.07417668402194977, -0.38708147406578064, -0.3090333342552185, -0.020860303193330765, 0.4063023030757904, -0.01827600598335266, -0.2232023924589157, 0.23891009390354156, -0.057514891028404236, -0.17153844237327576, 0.04935893043875694, -0.7714772820472717, 0.09606150537729263, -0.10707808285951614, 0.08392346650362015, -0.11519423127174377, 0.07713644206523895, -0.04173077642917633, -0.17222540080547333, 0.23914240300655365, 0.08561966568231583, 0.11319288611412048, -0.2135247141122818, 0.16533902287483215, -0.30640509724617004, -0.0371248684823513, -0.09032423049211502, 0.08941216766834259, -0.30547428131103516, 0.010455301962792873, -0.26636791229248047, 0.5239483714103699, 0.2721925675868988, 0.3764517307281494, -0.7738954424858093, -0.0737295001745224, -0.028110288083553314, -0.26108038425445557, 0.3007142245769501, -0.2580261528491974, -0.4974113404750824, 0.022704312577843666, -0.24242417514324188, -0.9913273453712463, 0.4006796181201935, -0.13721556961536407, 0.25742411613464355, -0.11358823627233505, 0.03672721982002258, 0.20484218001365662, -0.08515617251396179, 0.14905284345149994, 0.32923078536987305, -0.3583270013332367, 0.06541703641414642, -0.2050667554140091, -0.07843638211488724, 0.11334489285945892, 0.31629207730293274, -0.41943833231925964, -0.18598850071430206, -0.5784003734588623, -0.40776050090789795, 0.3715740442276001, 0.10042553395032883, 0.14713872969150543, 0.16404980421066284, 0.0629916861653328, -0.03337772190570831, 0.15758562088012695, 0.1826527863740921, 0.21177320182323456, -0.016340425238013268, -0.1557493507862091, -0.374859482049942, 0.364227294921875, -0.5938730835914612, -0.17233721911907196, 0.13362817466259003, -0.15039357542991638, -0.23551003634929657, 0.2201368659734726, -0.002760452451184392, 0.006372606847435236, -0.09802910685539246, -0.5804420113563538, 0.05459599196910858, 0.019758740440011024, -0.05032135546207428, -0.03417351841926575, 0.07178860157728195, -0.04050305858254433, -0.2196854054927826, 0.4129329323768616, -0.17206551134586334, -0.3613007068634033, -0.08858879655599594, -0.44780826568603516, -0.41833317279815674, -0.6128429770469666, 0.32890060544013977, -0.3215920925140381, 0.26289787888526917, -0.313838928937912, 0.19920389354228973, -0.33514538407325745, -0.5957363843917847, -0.25528407096862793, -0.024107560515403748, 0.1436089724302292, -0.020463421940803528, -0.26369509100914, -0.14391419291496277, 0.2623525857925415, -0.5693393349647522, -0.009396775625646114, 0.10566997528076172, -0.839028537273407, -0.01958470605313778, 0.03258393332362175, -0.03347014635801315, -0.053168125450611115, 0.03102978691458702, -0.17385122179985046], [-0.07155757397413254, -0.12239683419466019, 0.15150190889835358, -0.31432729959487915, -0.16565676033496857, -0.27171245217323303, 0.37089821696281433, 0.2547706067562103, -0.04549529030919075, -0.3843119442462921, 0.2059965431690216, 0.0051672570407390594, 0.10927607119083405, 0.04972528666257858, -0.1355944275856018, -0.08968530595302582, -0.3237731456756592, -0.33766430616378784, 0.2119654268026352, 0.03065934218466282, 0.23829801380634308, 0.017276575788855553, -0.3209058344364166, -0.21994437277317047, 0.07619017362594604, 0.1658492535352707, -0.3271954357624054, 0.23806913197040558, 0.08311992138624191, 0.31388425827026367, -0.15248450636863708, 0.008354711346328259, -0.29759272933006287, 0.019744643941521645, 0.14390593767166138, -0.5673617124557495, -0.19807633757591248, -0.04545312747359276, 0.009575027041137218, -0.03599466383457184, -0.1012568473815918, 0.19706512987613678, -0.05172860249876976, -0.24600949883460999, -0.18825259804725647, -0.03253476321697235, 0.10220037400722504, 0.28238022327423096, -0.0715179517865181, 0.10125695168972015, 0.07360813766717911, 0.3892706632614136, -0.13105814158916473, -0.15277859568595886, -0.14282187819480896, -0.37966352701187134, -0.5015977025032043, 0.09274279326200485, -0.47820767760276794, -0.4485117197036743, 0.0003526181390043348, -0.3130929172039032, -0.15515951812267303, 0.008841907605528831, -0.18745426833629608, 0.14150682091712952, -0.18339230120182037, 0.08199840784072876, 0.09957277774810791, 0.19832350313663483, -0.13498756289482117, -0.4541707932949066, -0.12335864454507828, 0.07649876922369003, 0.07867152243852615, 0.4022197127342224, 0.17038893699645996, 0.29839450120925903, 0.13808798789978027, -0.44810259342193604, 0.0326540470123291, -0.09695953130722046, -0.012352866120636463, -0.33583375811576843, 0.16605329513549805, 0.6454720497131348, 0.3045775592327118, -0.06474830955266953, -0.2997016906738281, 0.3909591734409332, 0.15195401012897491, 0.009123369120061398, 0.15030844509601593, -0.37381020188331604, -0.09864142537117004, 0.37490230798721313, -0.15376682579517365, -0.5575562715530396, 0.17537324130535126, 0.10554424673318863, -0.38974466919898987, -0.448097288608551, -0.06303086131811142, 0.29263266921043396, -0.34841808676719666, -0.09370281547307968, -0.04235270991921425, 0.290382444858551, 0.2979933023452759, -0.10756564885377884, -0.17810110747814178, -0.10766233503818512, 0.37962326407432556, 0.1589009314775467, 0.02040274254977703, 0.38654959201812744, 0.018104558810591698, 0.3200864791870117, -0.3173305094242096, -0.22641488909721375, -0.1814243197441101, -0.008882008492946625, 0.11013729870319366, -0.16472755372524261, 0.27736982703208923, 0.3687361478805542, -0.10654564201831818, -0.17811724543571472], [0.5252870917320251, 0.32394641637802124, -0.2505646347999573, -0.3345005214214325, 0.16481658816337585, -0.4605925381183624, -0.6830787062644958, -0.0042184144258499146, 0.21518412232398987, -0.4105950891971588, -0.6014258861541748, 0.016858430579304695, 0.2281971275806427, 0.06581026315689087, 0.025367939844727516, 0.03388449177145958, -0.5980722904205322, -0.05624253675341606, 0.22215045988559723, 0.4147586524486542, 0.02594543993473053, 0.1981220841407776, -0.5359011888504028, -0.0042034233920276165, 0.04101718217134476, -0.5497313737869263, 0.16900533437728882, 0.22668853402137756, 0.24077080190181732, -0.25394919514656067, -0.0535304993391037, 0.0693356916308403, -0.03677329048514366, -0.2351352423429489, 0.4217648208141327, 0.03284316509962082, -0.2562347948551178, 0.09804356843233109, -0.3682934641838074, 0.1383097916841507, -0.45445141196250916, -0.1291385293006897, -0.019974347203969955, -0.5881710052490234, -0.13554687798023224, 0.08650383353233337, -0.5679872035980225, -0.5768137574195862, 0.07734940201044083, -0.32400819659233093, 0.4220864474773407, -0.19477368891239166, -0.025893419981002808, -0.11337338387966156, -0.02026255615055561, -0.2708436846733093, -0.4575851857662201, -0.24693532288074493, 0.09554942697286606, -0.24456676840782166, -0.3013440668582916, 0.05059770494699478, -0.20732638239860535, -0.09141160547733307, -0.462689071893692, -0.3489993214607239, 0.27897322177886963, 0.10205391049385071, -0.0065061068162322044, -0.09540313482284546, -0.2952214777469635, -0.25681063532829285, -0.49985310435295105, 0.18969383835792542, 0.12655769288539886, 0.28305181860923767, -0.47995853424072266, -0.0436965748667717, -0.15746213495731354, -0.11302871257066727, -0.3224632740020752, -0.900815486907959, -0.44398537278175354, -0.08000071346759796, -0.13916553556919098, -0.0707022175192833, 0.48939505219459534, 0.11183658242225647, -0.2837671935558319, -0.39758941531181335, -0.011744122952222824, -0.09268206357955933, 0.29484400153160095, -0.47235560417175293, -0.4604049026966095, -0.44229188561439514, 0.08726616203784943, -0.090550497174263, 0.37072670459747314, -0.08698595315217972, -0.20046371221542358, -0.34926989674568176, -0.8019999861717224, 0.06141796335577965, -0.7023818492889404, -0.41743922233581543, -0.20381760597229004, -0.0009185834787786007, 0.06107214093208313, 0.07702302187681198, -0.09482380747795105, 0.00407670671120286, -0.27845215797424316, 0.2173866331577301, 0.14435411989688873, 0.0048930468037724495, -0.10081137716770172, -0.12911538779735565, -0.3704434633255005, -0.4271247386932373, -0.10095106810331345, -0.3542982339859009, 0.05406148359179497, 0.4786794185638428, 0.13705551624298096, 0.11202539503574371, -0.6855477094650269, -0.005044534336775541], [0.04379567876458168, -0.14856545627117157, 0.3515816330909729, -0.07435281574726105, -0.017495855689048767, 0.09310132265090942, 0.42332980036735535, 0.15231388807296753, 0.004857180640101433, -0.3812530040740967, -0.014112015254795551, -0.16934655606746674, 0.20780855417251587, 0.1799776405096054, 0.10135730355978012, 0.2444324940443039, 0.01587383821606636, 0.21325147151947021, 0.28708067536354065, -0.056710127741098404, 0.1880774348974228, 0.0445772185921669, -0.24348315596580505, -0.3087564706802368, -0.15428347885608673, 0.12813542783260345, -0.20609508454799652, 0.22074998915195465, -0.036534182727336884, 0.17500907182693481, -0.19764216244220734, -0.1496267169713974, -0.2754720151424408, -0.3857234716415405, -0.2323397994041443, -0.29380401968955994, -0.1614350974559784, 0.1590844690799713, 0.3975149393081665, 0.1825370490550995, -0.07628411799669266, -0.19111090898513794, 0.018801094964146614, 0.07650092244148254, -0.15324735641479492, -0.2005983293056488, 0.23849166929721832, 0.1585116982460022, -0.24602758884429932, -0.02371322549879551, -0.024456704035401344, 0.5134537816047668, -0.07751764357089996, -0.07484523952007294, -0.013720834627747536, -0.06239903345704079, -0.21972912549972534, -0.11674157530069351, 0.05791778117418289, -0.20117059350013733, -0.22835057973861694, -0.08497143536806107, 0.2669995129108429, 0.2392716109752655, -0.0599241629242897, 0.15522737801074982, 0.11464408040046692, -0.25273898243904114, 0.206363245844841, 0.3017335534095764, 0.036522623151540756, -0.12415962666273117, -0.012624664232134819, 0.009373805485665798, 0.2771434485912323, 0.45368510484695435, 0.3569942116737366, 0.47318509221076965, 0.1470760852098465, -0.13633987307548523, -0.24707449972629547, -0.059234779328107834, 0.2708025872707367, -0.24856719374656677, 0.04133148118853569, 0.5984686017036438, -0.07152620702981949, -0.17179149389266968, 0.03141460195183754, 0.4171547591686249, -0.0947774350643158, 0.23068052530288696, -0.23628933727741241, -0.16920779645442963, 0.5230993032455444, 0.0904613733291626, -0.10996294021606445, -0.09527258574962616, 0.1742974817752838, 0.0777818039059639, 0.21029923856258392, -0.3463487923145294, 0.35910922288894653, 0.1143551766872406, -0.0029540564864873886, 0.5568122267723083, 0.015669552609324455, 0.18909990787506104, -0.09959573298692703, -0.11582888662815094, 0.28443560004234314, 0.1943735033273697, 0.10883967578411102, -0.04693583399057388, 0.08500625193119049, 0.05440777912735939, 0.0683116763830185, 0.18148481845855713, 0.24896937608718872, 0.24852924048900604, -0.4153798520565033, 0.22992242872714996, -0.2113875299692154, 0.32493722438812256, -0.04965628311038017, 0.08708223700523376, 0.24629639089107513, 0.26871830224990845], [-0.21597306430339813, 0.050448570400476456, 0.18615223467350006, -0.023131128400564194, 0.006255487911403179, 0.09537848830223083, 0.20259860157966614, -0.3627702593803406, -0.38225889205932617, -0.22197143733501434, -0.20828762650489807, -0.24339692294597626, 0.21444568037986755, 0.2606278657913208, -0.12265759706497192, 0.2572104036808014, -0.0649392381310463, 0.18673768639564514, -0.14089234173297882, 0.035790253430604935, -0.021593397483229637, -0.10791049897670746, 0.45188239216804504, 0.12464730441570282, -0.143285870552063, -0.10504703223705292, -0.08690863847732544, -0.0944955050945282, 0.20610180497169495, -0.2789584696292877, 0.14439177513122559, -0.04823934659361839, 0.2053128033876419, -0.08398205786943436, 0.16173598170280457, 0.056298911571502686, 0.299033522605896, -0.28231459856033325, -0.27833107113838196, 0.35934674739837646, -0.10256002098321915, 0.10924405604600906, -0.10079701989889145, 0.2450554519891739, 0.16178911924362183, -0.18864166736602783, -0.5173153877258301, 0.2821614444255829, -0.44783759117126465, -0.15162573754787445, 0.14533762633800507, -0.004950813949108124, -0.11676398664712906, -0.4570116698741913, 0.1162659078836441, 0.24460284411907196, 0.03570960462093353, -0.05780067294836044, -0.052919499576091766, 0.40235957503318787, 0.2661551237106323, 0.19260601699352264, -0.42579054832458496, 0.40800419449806213, -0.1255219280719757, 0.15479663014411926, 0.33590948581695557, -0.05897806957364082, 0.19533824920654297, -0.3222348093986511, -0.04490134119987488, 0.03363746404647827, 0.2830221652984619, -0.16778260469436646, -0.17588508129119873, -0.31197303533554077, -0.17816871404647827, -0.5121201872825623, 0.18991708755493164, -0.15140920877456665, 0.06855875998735428, -0.43995901942253113, -0.188730388879776, 0.34177491068840027, 0.18746377527713776, -0.25746333599090576, 0.03583122417330742, 0.14237089455127716, 0.34625303745269775, -0.10635676980018616, 0.09540233761072159, -0.1231481209397316, 0.29333269596099854, 0.2537864148616791, 0.15054833889007568, -0.36151084303855896, 0.28987106680870056, -0.07223587483167648, 0.2755168080329895, -0.5886184573173523, 0.6568748950958252, 0.22689613699913025, -0.42975080013275146, -0.1763383150100708, -0.14240367710590363, -0.5388089418411255, -0.04279826581478119, 0.10632751137018204, -0.41975075006484985, 0.04725661501288414, 0.1284317821264267, -0.24836193025112152, -0.3853689432144165, -0.1184958815574646, -0.3903920650482178, 0.1055348590016365, -0.06573224067687988, -0.12656106054782867, -0.0843748077750206, 0.19559833407402039, 0.023984501138329506, -0.1111249029636383, -0.049059007316827774, -0.14745011925697327, -0.40418538451194763, -0.02694467455148697, 0.15016712248325348, -0.05482140928506851], [-0.06398390233516693, -0.09500156342983246, 0.32549455761909485, 0.15655314922332764, -0.05819368734955788, 0.19338162243366241, 0.007030860520899296, -0.08509767055511475, -0.17112407088279724, 0.0008931979537010193, -0.13504917919635773, -0.20730727910995483, 0.12016969919204712, -0.07092132419347763, -0.19741716980934143, 0.05449500307440758, -0.012504443526268005, 0.030706120654940605, -0.18060924112796783, 0.025953348726034164, 0.15988373756408691, 0.06759358942508698, 0.373220831155777, 0.07661628723144531, 0.4699740409851074, -0.15889544785022736, 0.13120952248573303, -0.028413597494363785, -0.22430875897407532, -0.09274741262197495, 0.01669931225478649, -0.17876116931438446, 0.17926256358623505, -0.19667589664459229, 0.03207191452383995, 0.22540290653705597, 0.04795786365866661, -0.3247825801372528, 0.08150836825370789, -0.04396913945674896, 0.27670758962631226, -0.2443225383758545, -0.11309412121772766, 0.1302928924560547, 0.19671691954135895, -0.09307939559221268, 0.43172210454940796, 0.13726601004600525, -0.16439540684223175, -0.361582487821579, 0.191312775015831, -0.004902420099824667, 0.006080119404941797, -0.3159846067428589, 0.4328868091106415, 0.17231741547584534, 0.2063424438238144, -0.15591514110565186, 0.16499435901641846, 0.339087575674057, 0.4143666923046112, 0.042063307017087936, 0.1798507273197174, 0.08685478568077087, -0.15527914464473724, -0.3736283779144287, 0.1833665817975998, 0.0013553218450397253, -0.016606740653514862, -0.15752877295017242, 0.5183027386665344, 0.5132279992103577, 0.14009027183055878, -0.32272857427597046, -0.02629304677248001, -0.5583217740058899, 0.3029562532901764, -0.2836892604827881, 0.07654298096895218, 0.34390759468078613, 0.2207929491996765, 