{"log_std": [-0.7221154570579529, -1.1879247426986694], "mlp_extractor.policy_net.0.weight": [[0.005426197778433561, 0.008590815588831902, 0.19607092440128326, 0.16262002289295197, -0.020555615425109863, 0.258857399225235, -0.048092059791088104, 0.24493403732776642, -0.10767089575529099, 0.03053954429924488, 0.12589304149150848, 0.12414783984422684, 0.09783882647752762, 0.041359793394804, -0.3148990273475647, 0.2660106420516968, 0.14140202105045319], [0.26459380984306335, 0.009554418735206127, -0.07666508853435516, -0.11928129196166992, -0.10928919166326523, 0.2332685887813568, -0.2067253291606903, -0.18496589362621307, 0.016954470425844193, -0.04106784239411354, -0.16742481291294098, 0.023551128804683685, -0.3102928698062897, -0.3052842617034912, 0.08862555772066116, -0.17805354297161102, -0.10702420026063919], [0.19649958610534668, 0.21013501286506653, 0.20870530605316162, 0.008467081934213638, 0.2131936103105545, -0.16109323501586914, -0.032616931945085526, -0.06356143206357956, -0.20604954659938812, -0.0836123451590538, -0.0803111344575882, -0.09831737726926804, 0.40810272097587585, -0.366152822971344, -0.02327502705156803, -0.11345275491476059, 0.020331721752882004], [-0.13164861500263214, 0.2451513409614563, 0.006151033099740744, 0.14123404026031494, -0.16441981494426727, 0.12514148652553558, -0.08386633545160294, 0.020297227427363396, 0.2185354083776474, 0.01401585154235363, 0.07067173719406128, 0.17728982865810394, -0.033316634595394135, -0.14206552505493164, -0.12096969783306122, 0.3760669529438019, -0.5097144246101379], [0.2364763617515564, 0.07485558092594147, 0.05535228177905083, 0.2968948185443878, 0.09367223083972931, 0.08289386332035065, -0.05288461968302727, -0.1922847181558609, -0.12575624883174896, -0.16981564462184906, -0.11522971838712692, -0.3975154757499695, 0.014708680100739002, 0.38459765911102295, 0.07212096452713013, 0.04153301194310188, -0.18511052429676056], [-0.14871619641780853, 0.21641968190670013, -0.0589204803109169, 0.14581315219402313, 0.34876301884651184, 0.17027989029884338, -0.36990898847579956, 0.16337193548679352, -0.12818826735019684, 0.0190032459795475, 0.033395130187273026, 0.11384978145360947, 0.044757917523384094, -0.16137127578258514, -0.2916133999824524, 0.1491895467042923, 0.009404221549630165], [0.06639617681503296, 0.4041336178779602, 0.10115606337785721, -0.2627851068973541, 0.0007988056167960167, 0.0767350122332573, 0.4461234509944916, 0.2206113040447235, 0.21560698747634888, 0.3705988824367523, -0.23461827635765076, 0.06919028609991074, -0.08128271251916885, -0.44823357462882996, 0.010278643108904362, 0.13384662568569183, 0.06399516016244888], [-0.0474940687417984, -0.008677352219820023, 0.23992282152175903, 0.04399992525577545, -0.13736648857593536, 0.17876823246479034, 0.08305225521326065, 0.1646685153245926, -0.036482710391283035, 0.10141049325466156, 0.2056545466184616, 0.18029235303401947, 0.5505518317222595, 0.07446005195379257, -0.04821139574050903, 0.16427329182624817, 0.09574424475431442], [-0.04987477511167526, -0.3186168074607849, 0.015002652071416378, -0.1982889473438263, 0.23213507235050201, -0.12555566430091858, 0.3219784200191498, -0.20342734456062317, 0.029688889160752296, -0.40234363079071045, -0.01927804760634899, 0.5726961493492126, 0.3816471993923187, -0.014186602085828781, 0.16820216178894043, 0.07289711385965347, -0.03672733157873154], [-0.038704197853803635, -0.21388961374759674, 0.20161516964435577, 0.12797275185585022, -0.02650151215493679, 0.06313127279281616, 0.2821871340274811, 0.043060846626758575, 0.0072189015336334705, -0.11025670915842056, 0.13755665719509125, -0.1204867959022522, 0.5300530195236206, 0.12113455682992935, 0.15169532597064972, -0.08999886363744736, 0.18626785278320312], [-0.02086745761334896, -0.2928006649017334, -0.29316943883895874, 0.1932401806116104, -0.0038876004982739687, -0.049215253442525864, -0.20435836911201477, -0.21254292130470276, 0.18255232274532318, -0.06664396077394485, 0.2371538281440735, -0.07678920775651932, -0.2125873863697052, 0.3547437787055969, 0.08031758666038513, 0.13173115253448486, 0.004899870604276657], [-0.19347615540027618, -0.1578768491744995, 0.0034883543848991394, 0.12617217004299164, -0.09271617233753204, 0.07569871097803116, -0.14013852179050446, 0.18448886275291443, -0.21519708633422852, 0.12235474586486816, 0.3854403793811798, -0.16059917211532593, 0.08715520054101944, 0.18271295726299286, -0.029254445806145668, -0.14086505770683289, -0.12004008889198303], [0.4404279291629791, 0.027614325284957886, -0.021100467070937157, 0.0895867794752121, -0.11036858707666397, -0.02508607879281044, -0.03394191339612007, -0.04317530244588852, 0.13679368793964386, -0.057679347693920135, 0.11484921723604202, 0.027367297559976578, -0.09718851000070572, 0.042982589453458786, 0.05065387114882469, -0.025027252733707428, 0.11189131438732147], [0.21109545230865479, -0.05481436476111412, -0.059098441153764725, -0.10515309125185013, -0.17058157920837402, -0.2977352440357208, -0.3468879759311676, -0.3113524615764618, 0.11948113143444061, -0.09992881119251251, 0.18033643066883087, -0.020035097375512123, -0.12544794380664825, 0.12778747081756592, -0.1580343395471573, -0.16159893572330475, 0.14308322966098785], [0.13827793300151825, 0.28466811776161194, 0.0781693309545517, -0.09609027951955795, 0.015669088810682297, 0.012398315593600273, 0.05842920392751694, -0.24975156784057617, -0.02532036229968071, -0.2401341199874878, -0.029022973030805588, -0.3710305988788605, 0.03130669519305229, -0.14446638524532318, 0.20265305042266846, 0.009717030450701714, 0.08927183598279953], [-0.21065844595432281, 0.2792452871799469, -0.22018499672412872, -0.010186721570789814, -0.061866920441389084, -0.0805945172905922, -0.2427028864622116, -0.01651131547987461, 0.003863569814711809, 0.3620823919773102, -0.043040718883275986, -0.03127438947558403, 0.09476538747549057, -0.2674037516117096, -0.3439011573791504, -0.0696110650897026, 0.11391903460025787], [-0.20568373799324036, 0.044674161821603775, 0.15896722674369812, 0.03285297751426697, -0.026509106159210205, 0.03772471845149994, 0.14198751747608185, 0.0837099477648735, -0.030892012640833855, -0.0922360047698021, 0.2154078483581543, 0.06767307966947556, 0.5885074138641357, 0.020189521834254265, 0.04007886350154877, 0.01203445065766573, 0.18177539110183716], [0.0870591476559639, 0.15437522530555725, 0.11673149466514587, -0.16715790331363678, -0.10726598650217056, 0.09996619075536728, -0.018866589292883873, 0.054796114563941956, 0.28347480297088623, 0.18870043754577637, 0.052151165902614594, -0.3476681113243103, -0.03518236055970192, -0.3563980162143707, 0.03032262995839119, -0.31527796387672424, 0.09917324036359787], [0.26082730293273926, -0.18004925549030304, 0.26033052802085876, -0.013657018542289734, 0.11178186535835266, 0.04800313338637352, 0.10206571966409683, -0.2244008630514145, 0.18316364288330078, -0.11859853565692902, 0.07240672409534454, -0.3067166805267334, -0.34971559047698975, 0.2458314597606659, 0.0003728230076376349, 0.3478323519229889, 0.14701621234416962], [-0.030543383210897446, -0.1639235019683838, 0.2216421216726303, 0.1891629695892334, -0.131755530834198, 0.050483062863349915, 0.002095072763040662, -0.03212238848209381, 0.11240235716104507, 0.17064467072486877, 0.0022098408080637455, -0.028146563097834587, 0.23144316673278809, 0.3732753098011017, 0.0683555155992508, 0.032154589891433716, 0.34554287791252136], [0.12489347159862518, 0.1849285215139389, -0.08808929473161697, 0.03095819801092148, 0.15308646857738495, 0.20804642140865326, 0.66191565990448, 0.4291761517524719, 0.04205883666872978, 0.32462894916534424, -0.03939557820558548, 0.036930181086063385, -0.15596209466457367, -0.05986738204956055, 0.351667582988739, 0.18167783319950104, 0.1752159148454666], [0.1291312277317047, 0.043978214263916016, 0.19834458827972412, -0.04547664895653725, -0.06585164368152618, 0.04390975087881088, -0.36908209323883057, -0.03347812965512276, 0.006740926764905453, 0.0013455291045829654, -0.15731200575828552, -0.32969924807548523, -0.2197100669145584, -0.012766027823090553, -0.11394038051366806, 0.05054941400885582, 0.09825964272022247], [-0.6714543104171753, -0.23075485229492188, -0.028405550867319107, 0.19265836477279663, 0.044400785118341446, 0.0011607316555455327, 0.2434399127960205, 0.019987985491752625, 0.10436373949050903, 0.26019641757011414, -0.19082683324813843, -0.12891817092895508, -0.04981636628508568, -0.0679854154586792, 0.16453894972801208, -0.12125428020954132, -0.018179362639784813], [0.057298753410577774, 0.16982339322566986, -0.04193415865302086, 0.08870958536863327, 0.064850352704525, 0.16698867082595825, -0.3172643780708313, -0.23999495804309845, -0.20961549878120422, -0.21678821742534637, 0.2976681888103485, -0.3321402668952942, -0.04081227630376816, 0.3813636004924774, -0.28413134813308716, -0.06456911563873291, -0.05304349586367607], [0.0968150943517685, 0.10110983997583389, -0.07297538965940475, -0.0994478389620781, -0.06988993287086487, 0.1018509492278099, 0.021048493683338165, -0.028270874172449112, -0.13341425359249115, -0.0596156120300293, -0.37190139293670654, 0.008496955037117004, -0.004828431643545628, -0.1837775558233261, -0.173837348818779, 0.11996128410100937, 0.2719195783138275], [-0.19345048069953918, -0.23313204944133759, -0.11461865901947021, -0.09339790046215057, 0.1383727639913559, -0.2514154314994812, -0.1545761227607727, 0.004964157473295927, -0.026889245957136154, -0.23906981945037842, 0.1268649399280548, -0.06673908233642578, -0.3172021508216858, -0.1261231005191803, -0.22048510611057281, -0.019079063087701797, 0.1935301572084427], [0.26494407653808594, 0.2174399495124817, 0.1532498002052307, -0.05538934841752052, 0.04816100746393204, 0.16535373032093048, -0.34425801038742065, 0.12424547970294952, -0.2230641394853592, 0.1968265026807785, -0.08496477454900742, -0.26813390851020813, 0.0011698721209540963, -0.2606104016304016, 0.21608442068099976, 0.02385297231376171, 0.0021715951152145863], [0.2254968136548996, -0.12689606845378876, 0.13645672798156738, 0.13769905269145966, -0.029453065246343613, 0.03318667784333229, 0.045237839221954346, 0.005794880911707878, 0.052546773105859756, -0.09326944500207901, -0.006666249129921198, 0.011854064650833607, -0.008960775099694729, -0.09812594205141068, 0.04416941851377487, -0.06078102067112923, -0.05040721967816353], [0.16560648381710052, -0.15543316304683685, -0.10146576166152954, 0.061646968126297, -0.19280195236206055, 0.11665738373994827, -0.45045706629753113, 0.07370493561029434, -0.31616413593292236, 0.18372392654418945, 0.213401198387146, -0.06785605102777481, -0.5087061524391174, 0.09718286991119385, -0.1216982752084732, -0.04650533199310303, -0.20865927636623383], [-0.35686394572257996, -0.12956969439983368, -0.2654349207878113, 0.08308994024991989, 0.03651944547891617, -0.274143785238266, -0.162117600440979, 0.18483567237854004, -0.3420718014240265, -0.08317533135414124, 0.25707268714904785, 0.11896900832653046, -0.25532066822052, -0.028325190767645836, 0.09614519029855728, 0.2906893491744995, 0.1001836434006691], [-0.10903798788785934, -0.01693674735724926, -0.06573266535997391, 0.11825164407491684, -0.17215237021446228, 0.1843883991241455, -0.08482299745082855, 0.03755421191453934, -0.3144836723804474, 0.20056304335594177, 0.22164255380630493, 0.1489524096250534, 0.21254971623420715, 0.3054358959197998, 0.11868827044963837, 0.005108628422021866, -0.027890929952263832], [0.3211423456668854, -0.11532634496688843, -0.016955627128481865, 0.16227369010448456, -0.03551779314875603, -0.15303078293800354, -0.20513762533664703, -0.2413032054901123, -0.03149496018886566, -0.008522018790245056, 0.0918165072798729, 0.11567077040672302, -0.22274021804332733, 0.12421787530183792, -0.12128147482872009, -0.02039077691733837, 0.09170503914356232], [-0.04296237230300903, 0.010230271145701408, -0.4032180607318878, 0.1015142872929573, -0.026404352858662605, 0.09786230325698853, 0.20831727981567383, -0.18021173775196075, 0.1989956647157669, 0.0697847232222557, -0.08653952926397324, 0.17063313722610474, -0.22054046392440796, -0.04940180107951164, -0.05543547868728638, 0.01900934800505638, -0.18069212138652802], [0.10101992636919022, -0.16828490793704987, -0.37913978099823, -0.02734566479921341, -0.027153950184583664, -0.07934825122356415, 0.6198927760124207, -0.03698582202196121, -0.21007274091243744, 0.18239346146583557, 0.19082731008529663, -0.012875436805188656, 0.053548961877822876, 0.042937021702528, 0.16506730020046234, -0.07982108741998672, 0.06222647428512573], [0.13793210685253143, -0.17867359519004822, -0.2292831838130951, -0.1781211644411087, 0.09918688237667084, 0.0702551081776619, -0.13557952642440796, 0.08171971142292023, 0.11224056780338287, 0.1699618250131607, 0.09712748229503632, 0.008640165440738201, -0.22723081707954407, -0.2441258281469345, 0.22589465975761414, 0.06977827847003937, 0.129078671336174], [-0.17161525785923004, -0.31924745440483093, 0.2454889863729477, 0.11834924668073654, -0.11521457880735397, 0.1075032651424408, -0.08220046013593674, -0.15564261376857758, -0.11794580519199371, -0.024867437779903412, -0.029178041964769363, 0.2507709264755249, 0.5455067753791809, 0.05946676805615425, 0.07621140033006668, 0.08839243650436401, -0.24226540327072144], [-0.21030867099761963, 0.1374422311782837, -0.2645573318004608, 0.010376444086432457, 0.11084934324026108, 0.227701336145401, 0.20412887632846832, -0.30687546730041504, -0.1335287243127823, 0.1482834666967392, 0.11478737741708755, -0.07613067328929901, -0.22856606543064117, -0.01325900387018919, 0.02734735794365406, -0.25032004714012146, 0.07128201425075531], [0.06854062527418137, -0.39042308926582336, 0.10716225206851959, 0.07640819251537323, -0.051760587841272354, 0.18044793605804443, 0.021151557564735413, -0.15201956033706665, 0.14098073542118073, -0.09798062592744827, 0.10302980989217758, 0.12477142363786697, 0.25495821237564087, 0.04584939405322075, 0.21563374996185303, -0.1544766128063202, 0.1635749191045761], [0.07073226571083069, 0.39424434304237366, 0.05903774872422218, -0.2986048460006714, 0.05781957879662514, -0.19662213325500488, 0.03726109862327576, 0.06558600813150406, -0.3128017485141754, -0.0191519632935524, 0.12951718270778656, 0.027338963001966476, -0.12789638340473175, -0.4169743061065674, -0.10895270109176636, 0.2991763949394226, 0.12459949404001236], [0.3187776505947113, 0.2568383812904358, -0.11908447742462158, -0.15378674864768982, -0.0025691858027130365, 0.23438464105129242, 0.09928546100854874, -0.1189384013414383, 0.13355213403701782, -0.10248701274394989, -0.3192811608314514, -0.08727326989173889, -0.2617160677909851, -0.10261771827936172, 0.08623085916042328, 0.001503563835285604, 0.03606941178441048], [-0.16637246310710907, 0.01846529170870781, 0.09763594716787338, -0.13260698318481445, -0.1161080002784729, -0.0479603037238121, -0.015050164423882961, -0.12288420647382736, -0.05009599030017853, -0.2058074176311493, 0.19070997834205627, 0.01209969911724329, 0.35647106170654297, 0.3096727132797241, 0.22758762538433075, 0.25874975323677063, 0.03197165206074715], [0.03665710240602493, -0.03486401215195656, -0.2048300951719284, 0.41747549176216125, 0.007695247884839773, 0.076101154088974, -0.4526314437389374, -0.08423697203397751, -0.11275201290845871, 0.028157655149698257, 0.010124404914677143, 0.03880493342876434, -0.02825765125453472, 0.10435252636671066, -0.18396955728530884, 0.1518694907426834, 0.1623033881187439], [0.20115084946155548, -0.20755311846733093, 0.12706375122070312, -0.08006514608860016, 0.2267313301563263, -0.04720403626561165, 0.3826511800289154, 0.06269019842147827, -0.1622621864080429, 0.008967910893261433, -0.2220868021249771, 0.178973987698555, 0.18016229569911957, -0.2022293359041214, 0.20039355754852295, 0.1571628302335739, -0.22812387347221375], [-0.004709798842668533, 0.15051665902137756, -0.47098007798194885, -0.04833634942770004, 0.001860022428445518, 0.017970293760299683, 0.14765743911266327, 0.2209874391555786, 0.1742004007101059, 0.27478379011154175, -0.22865504026412964, 0.040689028799533844, -0.15142786502838135, -0.18479718267917633, 0.09548915922641754, -0.1953386813402176, -0.0642436146736145], [0.247777059674263, 0.07620476186275482, -0.22988219559192657, -0.11523597687482834, -0.0519014410674572, 0.07175132632255554, -0.22519800066947937, 0.004753062501549721, -0.11091343313455582, 0.09751033782958984, -0.08110495656728745, 0.16402965784072876, -0.5599505305290222, -0.11924302577972412, -0.12903046607971191, -0.35514527559280396, -0.057804208248853683], [0.016632039099931717, -0.21626505255699158, 0.14647525548934937, 0.17960232496261597, -0.11050016433000565, -0.02988419681787491, 0.057829052209854126, 0.04476543888449669, 0.005964120849967003, 0.04349909722805023, -0.006528494413942099, 0.06189652904868126, 0.3768252432346344, 0.37814605236053467, 0.05795067548751831, -0.10992990434169769, -0.06605030596256256], [-0.16417312622070312, 0.26731789112091064, 0.3113223910331726, -0.35768356919288635, -0.09991131722927094, 0.05453548580408096, 0.09885931015014648, 0.23909597098827362, 0.15752549469470978, 0.16844934225082397, -0.039353013038635254, -0.08525455743074417, 0.34484943747520447, -0.43944022059440613, -0.01949404552578926, 0.125920370221138, 0.03948017209768295], [0.0891110822558403, 0.22217892110347748, -0.18560056388378143, -0.3043593168258667, 0.058957260102033615, -0.14098642766475677, -0.004388668108731508, 0.38240846991539, 0.25406622886657715, 0.4066595435142517, -0.16186821460723877, 0.014192657545208931, -0.09838421642780304, -0.4791471064090729, -0.09117750823497772, -0.188435360789299, -0.09860354661941528], [-0.002863651141524315, -0.2112586945295334, 0.11330930143594742, 0.12851576507091522, 0.00830199383199215, -0.02893679030239582, 0.0602567158639431, -0.057004667818546295, -0.169403076171875, 0.1526196449995041, -0.08331011235713959, 0.17084059119224548, 0.1288200169801712, 0.378314346075058, 0.2517448961734772, -0.05157604068517685, -0.004173224326223135], [-0.22804318368434906, -0.08421109616756439, -0.07070261985063553, -0.168176531791687, 0.008112266659736633, -0.2179681807756424, -0.01711101271212101, -0.34903621673583984, 0.02029493823647499, 0.00268352753482759, 0.3323010802268982, 0.12268149107694626, 0.010375258512794971, 0.26749810576438904, -0.05162176117300987, -0.15950191020965576, -0.08333911001682281], [-0.014565401710569859, -0.23873470723628998, 0.10327646136283875, -0.01162196509540081, -0.17661894857883453, -0.07590948790311813, -0.3275483548641205, 0.06658729910850525, -0.03597897291183472, 0.01207177247852087, -0.11711263656616211, -0.09938210248947144, 0.2706732451915741, 0.031155772507190704, -0.04338390380144119, 0.13372094929218292, -0.03454147279262543], [-0.20496580004692078, -0.08830906450748444, -0.2247288078069687, 0.04833922162652016, 0.09853619337081909, -0.3095526397228241, -0.41293129324913025, -0.19029323756694794, -0.3632386028766632, -0.18085187673568726, -0.2703552842140198, -0.0443277433514595, -0.07039585709571838, -0.2665615677833557, -0.1763073056936264, 0.22487331926822662, -0.07205349951982498], [0.0707102119922638, 0.016814539209008217, 0.06543134897947311, 0.3695012927055359, 0.0959690660238266, 0.14473572373390198, -0.3528939485549927, -0.009897551499307156, -0.22883252799510956, 0.0419870987534523, 0.04544368386268616, -0.02757296897470951, 0.11898278445005417, 0.25892186164855957, -0.26658061146736145, -0.0233877245336771, 0.12010122090578079], [0.06523579359054565, -0.09593718498945236, -0.09054692834615707, 0.10192441940307617, -0.0011892191832885146, 0.24657519161701202, -0.012121939100325108, -0.14476574957370758, -0.04047190025448799, -0.2730487585067749, -0.044820040464401245, -0.1031276062130928, -0.11662808060646057, 0.3393765389919281, -0.13938726484775543, -0.0194788109511137, 0.20975685119628906], [-0.22381696105003357, 0.05345994979143143, 0.05367198958992958, -0.01949843391776085, -0.04180673137307167, -0.0068200272507965565, 0.022567616775631905, 0.25962549448013306, -0.1003810316324234, 0.12912146747112274, -0.07230851799249649, 0.32502204179763794, 0.3312402069568634, 0.09083288162946701, -0.2097579836845398, 0.01197997760027647, 0.30973419547080994], [-0.27727439999580383, 0.20204363763332367, -0.4577746093273163, -0.14879830181598663, -0.0585281103849411, 0.05068095773458481, 0.09612488746643066, 0.09781675040721893, 0.0699380487203598, 0.28830686211586, 0.0207331832498312, -0.08931006491184235, 0.08222244679927826, -0.13998615741729736, 0.28070348501205444, -0.2789546251296997, 0.07346642017364502], [-0.10051417350769043, -0.047967374324798584, 0.2964414954185486, -0.04196171835064888, 0.020154356956481934, -0.0031443345360457897, 0.2770175635814667, -0.07062338292598724, 0.13549494743347168, 0.12304164469242096, -0.12784802913665771, 0.20949429273605347, 0.9784765243530273, 0.457248330116272, 0.4170148968696594, 0.10883405804634094, 0.05343753471970558], [0.17786681652069092, 0.09470559656620026, -0.09876903146505356, -0.24087724089622498, 0.18005649745464325, 0.006667056120932102, -0.2891872823238373, 0.08291498571634293, 0.31876322627067566, 0.244683176279068, 0.34323301911354065, 0.07056055217981339, 0.08532857149839401, -0.09092094749212265, -0.12703685462474823, -0.16879001259803772, 0.2169882208108902], [0.14009205996990204, -0.11976819485425949, -0.06433691084384918, 0.296088308095932, 0.16920627653598785, 0.24620230495929718, -0.3294403553009033, 0.12346188724040985, -0.1714925467967987, 0.232904314994812, -0.09166848659515381, -0.05778546258807182, 0.0350986123085022, 0.3228147625923157, -0.18884073197841644, 0.045512039214372635, 0.04626423865556717], [-0.30686748027801514, -0.031216369941830635, -0.297078013420105, -0.1417369693517685, 0.08391381055116653, 0.04132332280278206, 0.07530860602855682, -0.12526093423366547, -0.18697546422481537, 0.4504382908344269, 0.2115471363067627, 0.09098578244447708, -0.14505676925182343, -0.27048924565315247, 0.13427798449993134, -0.17955777049064636, 0.2696134150028229], [-0.3103897273540497, 0.2426886409521103, -0.24401655793190002, -0.23493961989879608, -0.11122965812683105, -0.0521906353533268, 0.15826451778411865, 0.1535564512014389, -0.11171608418226242, 0.3011118471622467, 0.019443772733211517, -0.28152430057525635, 0.11886219680309296, -0.3341948091983795, 0.3733634054660797, -0.07714784890413284, 0.008941460400819778], [0.10687253624200821, 0.009819628670811653, -0.0012882587034255266, 0.03101211227476597, -0.09781506657600403, 0.1908588409423828, -0.038195326924324036, 0.12835605442523956, -0.31726253032684326, 0.0034935446456074715, -0.37469151616096497, -0.03408358618617058, -0.4052940011024475, 0.03478314355015755, 0.11112968623638153, 0.14503270387649536, 0.18442492187023163], [-0.10240530967712402, -0.014646897092461586, 0.08841927349567413, -0.0751427710056305, 0.14493045210838318, 0.5377004146575928, 0.1513054221868515, 0.19326193630695343, -0.08736227452754974, -0.23647469282150269, 0.03432583436369896, 0.11336130648851395, 0.16295626759529114, -0.1302623152732849, 0.1271495521068573, 0.12983264029026031, 0.3268089294433594], [-0.1902047097682953, 0.1223796084523201, 0.06456229090690613, -0.10311395674943924, 0.033320773392915726, -0.16750630736351013, 0.23380745947360992, -0.6962977051734924, 0.17331400513648987, 0.07858213037252426, -0.42948997020721436, -0.37415358424186707, -0.0727534070611, 0.035751987248659134, 0.05981375649571419, -0.506294310092926, -0.0036705550737679005], [0.0570375919342041, -0.14619073271751404, -0.06766054034233093, 0.2735343873500824, 0.024191964417696, 0.22250832617282867, -0.007505527697503567, -0.05459780991077423, 0.2953279912471771, 0.031708236783742905, -0.05568709969520569, 0.20216964185237885, -0.07232305407524109, 0.4166334271430969, -0.08659891784191132, 0.1555330455303192, -0.11166071146726608], [0.3121680021286011, -0.10088091343641281, -0.17675140500068665, -0.09608622640371323, -0.08355879783630371, -0.02301984652876854, -0.10619312524795532, -0.1925702691078186, -0.0139735983684659, 0.03981827199459076, -0.0449320413172245, -0.21752513945102692, -0.46333038806915283, -0.19199292361736298, -0.2842928171157837, -0.1258060187101364, -0.07368114590644836], [-0.07145551592111588, 0.1388242542743683, -0.05778883025050163, 0.0724148377776146, 0.035085875540971756, -0.3125128448009491, 0.05289744958281517, 0.07027570903301239, 0.16139811277389526, 0.2616260349750519, 0.16172993183135986, 0.14800363779067993, -0.0830894336104393, -0.35400205850601196, 0.046109285205602646, -0.21075305342674255, 0.07805318385362625], [-0.09012908488512039, -0.18247456848621368, 0.13378691673278809, 0.14376212656497955, -0.16269436478614807, 0.13388186693191528, -0.2133704274892807, 0.36969396471977234, -0.33470237255096436, 0.22291241586208344, -0.1567102074623108, -0.30657094717025757, 0.18658630549907684, 0.23448394238948822, -0.1307157725095749, 0.21904215216636658, -0.0044437008909881115], [0.060814231634140015, -0.14754410088062286, 0.25565093755722046, -0.028231827542185783, 0.11248666793107986, 0.03243574872612953, 0.3400849997997284, -0.1065882220864296, 0.04027816280722618, 0.06748615950345993, -0.12026592344045639, 0.12760980427265167, 0.4997270107269287, 0.26975342631340027, -0.0022177451755851507, 0.17528514564037323, 0.08599784225225449], [0.16025421023368835, 0.17401503026485443, -0.04162817448377609, 0.19910596311092377, 0.13834424316883087, 0.2113807201385498, 0.0664997547864914, -0.034379616379737854, -0.4393657147884369, -0.1388499140739441, 0.1778545379638672, -0.053497254848480225, 0.055422116070985794, -0.0576016828417778, 0.2246805727481842, 0.0831422209739685, -0.005140774883329868], [0.0682634636759758, 0.030461648479104042, 0.22516915202140808, 0.013326061889529228, 0.08149177581071854, -0.0586627759039402, 0.07730070501565933, -0.17610561847686768, 0.16967546939849854, 0.04486498236656189, -0.09837217628955841, -0.201137974858284, 1.065534234046936, 0.06783317774534225, -0.14663434028625488, 0.009895226918160915, 0.07984583079814911], [-0.2534402012825012, 0.21572640538215637, -0.09928897023200989, 0.22389495372772217, 0.024662930518388748, 0.2432018667459488, -0.13614708185195923, 0.15171898901462555, 0.19633153080940247, -0.09151385724544525, -0.03647869452834129, 0.07209031283855438, -0.33052247762680054, 0.32271769642829895, -0.34475287795066833, 0.10193511098623276, -0.023833876475691795], [-0.1884024739265442, 0.08861523866653442, -0.23123018443584442, 0.16739079356193542, -0.04345142841339111, 0.0744946151971817, 0.1405819058418274, -0.5715153813362122, -0.024610910564661026, -0.3536299467086792, -0.06421133130788803, -0.07645977288484573, -0.41256311535835266, -0.012324869632720947, 0.10065480321645737, -0.2311636358499527, -0.09682603925466537], [0.36764615774154663, -0.12107986956834793, 0.11563371866941452, 0.1071898564696312, 0.11326728016138077, 0.144979789853096, 0.021153569221496582, 0.01165322307497263, 0.04544108733534813, -0.16403359174728394, 0.00877324678003788, -0.08466026932001114, -0.22998759150505066, 0.2628725469112396, -0.15331092476844788, -0.24413152039051056, 0.20905278623104095], [0.01444704644382, 0.25958213210105896, 0.17951981723308563, 0.08709172159433365, -0.04802008718252182, 0.18125328421592712, -0.11637086421251297, -0.2597595155239105, -0.2870315909385681, -0.15581132471561432, -0.06756987422704697, -0.14202812314033508, -0.03500779718160629, -0.23375825583934784, -0.003128972603008151, 0.08842048794031143, 0.04376984387636185], [-0.22398222982883453, 0.03908700868487358, 0.156468465924263, -0.018757473677396774, -0.11350805312395096, 0.2163461148738861, 0.35853713750839233, 0.01514878123998642, -0.27171772718429565, -0.13975712656974792, -0.06672020256519318, 0.1716768890619278, 0.4739033877849579, -0.37538015842437744, 0.19124306738376617, 0.19848302006721497, -0.0997544676065445], [0.0012246979167684913, 0.17633706331253052, -0.06110323220491409, -0.0009673505555838346, 0.16383178532123566, 0.04808893799781799, 0.22791218757629395, 0.2843509316444397, -0.08890645205974579, 0.24883747100830078, 0.4397140443325043, 0.4524414539337158, 0.24698132276535034, -0.6325826048851013, 0.18580275774002075, 0.009443383663892746, 0.12353474646806717], [0.13290560245513916, 0.10100998729467392, 0.4482666254043579, -0.01384873315691948, -0.025212248787283897, 0.04197024554014206, 0.17876699566841125, -0.24718686938285828, -0.005632708314806223, 0.031258512288331985, 0.03104044869542122, -0.26178306341171265, 0.17637991905212402, -0.41390976309776306, -0.021973853930830956, -0.338429719209671, -0.07662203907966614], [-0.05264655128121376, 0.3114854097366333, 0.017555465921759605, 0.10512755811214447, 0.0476832278072834, -0.2281605303287506, 0.10435403138399124, 0.27700620889663696, 0.049398262053728104, -0.3850337266921997, 0.08475034683942795, 0.20106467604637146, -0.06857502460479736, -0.10108374059200287, 0.13108649849891663, -0.11250815540552139, -0.13608315587043762], [0.07905720174312592, -0.18717050552368164, 0.19172222912311554, 0.02263130433857441, 0.011017505079507828, -0.012574387714266777, -0.140986829996109, 0.050387680530548096, -0.1349673718214035, -0.07135318219661713, 0.14465829730033875, -0.27320486307144165, 0.5153409838676453, 0.2783849537372589, 0.2188843935728073, 0.2276304066181183, -0.09721291810274124], [-0.14833490550518036, -0.026951700448989868, -0.4397857189178467, -0.09509872645139694, -0.038424111902713776, 0.008330058306455612, -0.10577549040317535, 0.2700698971748352, -0.12257718294858932, -0.08150700479745865, 0.28570038080215454, -0.07847734540700912, -0.2614046633243561, -0.23700572550296783, 0.03803914412856102, 0.14691217243671417, 0.1407574862241745], [-0.24187129735946655, 0.2600940763950348, 0.09147096425294876, -0.11036074906587601, -0.08535172790288925, 0.05912993103265762, 0.2663479149341583, 0.4526796340942383, 0.14180919528007507, 0.025225447490811348, -0.08471614122390747, 0.22515948116779327, 0.802401602268219, -0.40202587842941284, 0.013107922859489918, -0.049394600093364716, -0.056645072996616364], [-0.2298874408006668, -0.05165230482816696, 0.05141376703977585, -0.08017575740814209, 0.011678672395646572, 0.035086192190647125, -0.19787117838859558, -0.36674267053604126, -0.16734085977077484, -0.004272604826837778, -0.13596099615097046, -0.5690281391143799, 0.0294236708432436, 0.07370613515377045, -0.027602877467870712, -0.11837012320756912, -0.017732739448547363], [-0.28535303473472595, 0.2987199127674103, -0.3062955439090729, -0.0392756313085556, 0.028629453852772713, 0.10878531634807587, 0.1875888705253601, -0.33637499809265137, 0.22032321989536285, 0.1624535471200943, -0.07918831706047058, 0.028161073103547096, -0.31447336077690125, -0.013592185452580452, 0.06407244503498077, -0.17980195581912994, 0.021093318238854408], [0.2774498164653778, 0.0567602701485157, -0.10401371121406555, -0.027934685349464417, -0.27013859152793884, -0.12146907299757004, -0.031312353909015656, -0.014515720307826996, 0.10746421664953232, 0.10340164601802826, 0.0035018243361264467, 0.06760486960411072, -0.28540506958961487, -0.1567084789276123, -0.09589453041553497, -0.12281528115272522, -0.04016215726733208], [0.03348742052912712, 0.014820457436144352, -0.011467271484434605, -0.21772584319114685, 0.2942982316017151, 0.34218865633010864, 0.0049015432596206665, -0.08298838138580322, 0.29437264800071716, -0.02544994279742241, 0.20910689234733582, -0.024566764011979103, -0.09502028673887253, -0.13304628431797028, 0.08144816011190414, -0.0016000964678823948, 0.08981271088123322], [-0.01703246496617794, -0.16059507429599762, -0.055243607610464096, -0.2595560848712921, -0.07893826812505722, 0.1745332032442093, 0.3662755489349365, -0.04135233536362648, 0.2393648326396942, -0.30525654554367065, -0.29150018095970154, -0.04151035472750664, 0.011151358485221863, 0.03942497819662094, -0.07005219906568527, -0.021944576874375343, 0.051206059753894806], [0.12877804040908813, -0.14738957583904266, 0.06056872010231018, 0.19075366854667664, 0.07015644013881683, -0.205823615193367, -0.1649688184261322, -0.14627350866794586, 0.10469910502433777, 0.013319592922925949, 0.1395716667175293, 0.03981947526335716, -0.10843367874622345, 0.45171287655830383, -0.017423255369067192, -0.14222849905490875, -0.017494404688477516], [-0.12848685681819916, -0.14073625206947327, 0.41512346267700195, -0.03608182445168495, 0.1070823147892952, -0.06654561311006546, -0.12614168226718903, -0.07867516577243805, 0.028465639799833298, -0.05137692764401436, -0.0512821339070797, -0.25536075234413147, 0.5906355977058411, 0.12499607354402542, 0.15231554210186005, -0.17397671937942505, -0.05453196540474892], [0.10243654251098633, 0.3479997217655182, -0.21097633242607117, 0.00473281554877758, 0.2505059540271759, -0.23403970897197723, 0.44741857051849365, 0.013801215216517448, 0.012060310691595078, -0.18142074346542358, -0.03469037637114525, -0.4730082154273987, 0.21591982245445251, -0.10897354036569595, 0.48961079120635986, 0.22973166406154633, -0.05376299470663071], [0.2858670651912689, 0.0068747554905712605, -0.08474132418632507, -0.3712940514087677, 0.23567280173301697, -0.11031936854124069, 0.2778322696685791, 0.1457303762435913, -0.21882086992263794, 0.1961016207933426, -0.1616360992193222, 0.19643379747867584, -0.30366307497024536, -0.2844262421131134, 0.14002791047096252, -0.15374961495399475, -0.06141023337841034], [-0.0003385733289178461, -0.03699486702680588, 0.02093948982656002, -0.029260437935590744, -0.04815947636961937, -0.182841494679451, -0.10694453865289688, -0.3167836666107178, -0.061198703944683075, -0.2292652428150177, -0.08541024476289749, -0.1601080447435379, -0.14207272231578827, 0.16525092720985413, 0.05658077448606491, -0.014747392386198044, 0.19732631742954254], [-0.2972828447818756, -0.09707161039113998, -0.09027128666639328, 0.2482990175485611, -0.14496737718582153, 0.10292791575193405, 0.004794711712747812, 0.013012249022722244, -0.08001872897148132, 0.047647275030612946, 0.03441191092133522, -0.20792043209075928, 0.06195474788546562, 0.19660024344921112, -0.26508912444114685, -0.21997426450252533, 0.10743961483240128], [-0.21586672961711884, -0.06953313201665878, -0.2235189825296402, 0.16544964909553528, 0.19641759991645813, 0.2433623969554901, -0.4474186599254608, -0.08851375430822372, -0.024899797514081, 0.01745634153485298, -0.32678449153900146, 0.5851297378540039, 0.04490033537149429, -0.06935396045446396, 0.005011672619730234, 0.009964589029550552, -0.021590696647763252], [-0.35543161630630493, 0.19262954592704773, -0.3173372745513916, -0.18165400624275208, 0.2308655083179474, -0.18331113457679749, -0.22761739790439606, 0.055530864745378494, -0.4976046085357666, 0.23187702894210815, 0.16555660963058472, -0.06462918221950531, 0.04729766026139259, 0.007973258383572102, -0.017816724255681038, 0.08763285726308823, -0.008548684418201447], [-0.26298996806144714, -0.1929924190044403, -0.04789838194847107, -0.24805216491222382, 0.16118310391902924, -0.08163470774888992, -0.0399225652217865, 0.07012756913900375, 0.48672759532928467, 0.07413023710250854, 0.2501998841762543, 0.1663176417350769, -0.12906306982040405, -0.026698090136051178, -0.3277233839035034, 0.07215318083763123, -0.007489308714866638], [0.22730150818824768, 0.024817118421196938, -0.26573246717453003, -0.09502210468053818, -0.2630517780780792, 0.07681963592767715, -0.11724020540714264, -0.07055185735225677, 0.0972215086221695, -0.07456851750612259, 0.06271318346261978, 0.2495904564857483, -0.18725049495697021, -0.04405881091952324, -0.12818597257137299, 0.020705735310912132, 0.06946107000112534], [-0.03791937604546547, -0.2663866877555847, 0.32106128334999084, 0.10983703285455704, 0.19091905653476715, 0.15840403735637665, 0.35281726717948914, 0.010582692921161652, -0.24319395422935486, 0.004009643103927374, 0.17181432247161865, 0.15406988561153412, 0.6193313002586365, 0.3233843147754669, 0.19956955313682556, -0.012577086687088013, -0.04664614051580429], [0.06606892496347427, 0.06465815752744675, -0.06924539804458618, 0.040583036839962006, -0.06886250525712967, -0.1767181009054184, 0.26889920234680176, 0.15214216709136963, 0.4449024200439453, -0.20379795134067535, 0.002073223004117608, 0.2626381516456604, -0.0632842406630516, -0.17126308381557465, -0.0022729767952114344, 0.33197417855262756, -0.07232204079627991], [-0.17104336619377136, 0.05248067155480385, -0.155677929520607, 0.02635214850306511, 0.14384596049785614, -0.059784453362226486, -0.37435075640678406, 0.22571393847465515, -0.16063068807125092, -0.2069053202867508, 0.23733402788639069, 0.12088797241449356, 0.1759263575077057, 0.06526980549097061, -0.09951719641685486, 0.34456339478492737, 0.11830171942710876], [-0.05718715861439705, 0.09111698716878891, -0.18050530552864075, -0.11941999942064285, -0.20824836194515228, 0.09404613077640533, 0.36760464310646057, -0.04006935656070709, -0.027653822675347328, -0.11585601419210434, -0.10499205440282822, -0.12962283194065094, 0.07755113393068314, -0.14775048196315765, 0.20957347750663757, -0.09853453189134598, -0.21627521514892578], [-0.017565911635756493, -0.03875671699643135, -0.4690079092979431, 0.1667328178882599, 0.05548866093158722, 0.10450971871614456, 0.1778830885887146, -0.11860036104917526, 0.19579027593135834, 0.1124054417014122, 0.10671732574701309, -0.08682827651500702, 0.026360152289271355, 0.006290361750870943, -0.09433960914611816, 0.07066769152879715, -0.05099842697381973], [-0.17325858771800995, 0.24928522109985352, 0.2774297595024109, -0.10552385449409485, -0.16805608570575714, 0.06331470608711243, 0.03861697018146515, -0.055352479219436646, 0.07261154055595398, -0.03848519176244736, 0.0064018950797617435, 0.13052091002464294, 0.40505334734916687, -0.592258095741272, -0.0558004267513752, -0.2107672542333603, -0.0297870971262455], [0.24626553058624268, 0.06180915981531143, 0.2237626612186432, -0.07672333717346191, -0.25933215022087097, -0.31315577030181885, -0.13705569505691528, 0.34446802735328674, -0.07946226000785828, -0.07465910166501999, 0.006856238469481468, -0.13171935081481934, -0.0020367575343698263, -0.32446590065956116, -0.02721501514315605, -0.04821154102683067, 0.008320389315485954], [-0.11883026361465454, 0.0598730705678463, 0.3499937951564789, -0.13241633772850037, 0.0034856689162552357, 0.02408795803785324, 0.28111696243286133, 0.08694762736558914, -0.17481808364391327, -0.0686076432466507, -0.07712481170892715, -0.20182731747627258, 1.053952932357788, 0.09996480494737625, 0.0845315232872963, 0.09886886179447174, -0.026359060779213905], [-0.08021415024995804, 0.23502035439014435, 0.17911583185195923, -0.12921161949634552, -0.024291150271892548, 0.01199715118855238, 0.03617481142282486, -0.04275720566511154, -0.061942726373672485, 0.2848413288593292, 0.41424307227134705, 0.06833893060684204, 0.21655994653701782, -0.5122050046920776, -0.09608510136604309, -0.12818868458271027, -0.015771687030792236], [-0.13796724379062653, -0.034754011780023575, -0.10743079334497452, 0.11806114763021469, -0.16849634051322937, -0.02306528389453888, -0.09524215012788773, 0.09726549685001373, -0.10991056263446808, -0.026211922988295555, 0.32397696375846863, -0.01991567574441433, -0.19470947980880737, 0.14522887766361237, -0.07503842562437057, -0.15769901871681213, -0.28389501571655273], [0.2534051239490509, 0.09864582866430283, -0.0673174262046814, -0.11895152926445007, -0.017080729827284813, 0.035324908792972565, -0.42216020822525024, -0.10625264048576355, -0.3168048560619354, 0.2566783130168915, -0.06827207654714584, 0.21492882072925568, -0.06978218257427216, -0.30632877349853516, -0.19013255834579468, -0.1483568400144577, 0.09381866455078125], [-0.025723498314619064, -0.326583594083786, 0.15616469085216522, -0.16132256388664246, 0.08955781906843185, -0.1631968915462494, 0.259311705827713, -0.014054170809686184, 0.10964047163724899, -0.05895303562283516, -0.3864787518978119, 0.3036341667175293, -0.05450476333498955, 0.4316371977329254, 0.046106938272714615, 0.06537104398012161, 0.24517743289470673], [0.1463460773229599, 0.01602601446211338, -0.18037430942058563, 0.13435205817222595, 0.1844053566455841, 0.023228975012898445, 0.110712431371212, 0.11616365611553192, 0.19718918204307556, 0.04056670889258385, 0.2638101875782013, 0.026522893458604813, -0.4320114254951477, 0.038065627217292786, 0.3746156692504883, -0.08637263625860214, 0.0441230945289135], [-0.37832826375961304, 0.38198092579841614, 0.14007414877414703, -0.23465649783611298, -0.27146944403648376, -0.01991688273847103, -0.16003543138504028, -0.1839013397693634, 0.03931097686290741, 0.012756604701280594, -0.045521821826696396, 0.062487080693244934, 0.2378453016281128, -0.02363705262541771, -0.49241167306900024, -0.14512212574481964, -0.018452079966664314], [0.04840238392353058, 0.1942797154188156, 0.019716082140803337, 0.09595053642988205, 0.028522688895463943, -0.018971556797623634, -0.46857479214668274, 0.06968491524457932, -0.06773108243942261, -0.14685142040252686, -0.15253162384033203, -0.07564243674278259, -0.10006120800971985, 0.07281957566738129, -0.21504716575145721, 0.11989343166351318, 0.3103605806827545], [0.22280162572860718, -0.2765235900878906, 0.10594435036182404, 0.1468658298254013, -0.06721939146518707, 0.009366519749164581, 0.2154720276594162, -0.012622116133570671, 0.00691659189760685, -0.22173482179641724, 0.15999473631381989, 0.3892992436885834, 0.11171385645866394, 0.5791129469871521, -0.12584827840328217, 0.2831690013408661, -0.1709921956062317], [0.14686039090156555, -0.1828443557024002, -0.02301018312573433, 0.1306992918252945, 0.02678574062883854, 0.021578900516033173, -0.03256600350141525, 0.03324761241674423, 0.3411136269569397, -0.2164621502161026, -0.009496995247900486, 0.31489214301109314, -0.08063866943120956, 0.49974554777145386, -0.17959874868392944, 0.034038808196783066, 0.1527695208787918], [-0.35621389746665955, -0.253521591424942, -0.04367762431502342, -0.28912273049354553, 0.024415967985987663, -0.13638345897197723, 0.3310798108577728, -0.105157271027565, 0.1977517008781433, -0.14949598908424377, 0.10696525871753693, 0.04939305782318115, 0.16659195721149445, 0.12513498961925507, 0.059389229863882065, 0.29268696904182434, -0.06544918566942215], [0.29165518283843994, -0.13522250950336456, -0.13135038316249847, -0.13173411786556244, -0.08848346769809723, -0.1616029590368271, -0.34016457200050354, -0.17631900310516357, -0.1839357316493988, 0.21804605424404144, -0.09612776339054108, 0.26895949244499207, -0.30301764607429504, 0.07600168138742447, -0.19242875277996063, -0.2202291637659073, -0.027853550389409065], [0.016168609261512756, 0.12249141931533813, 0.30564084649086, -0.18372851610183716, 0.06138044595718384, -0.06702497601509094, -0.18067830801010132, -0.17746131122112274, 0.057347603142261505, -0.07611243426799774, 0.2747635245323181, 0.16760852932929993, 0.6269254088401794, -0.35622480511665344, 0.20116959512233734, -0.05661489814519882, -0.09994857758283615], [-0.023855967447161674, -0.14994972944259644, 0.19113291800022125, -0.23548871278762817, -0.1288413256406784, 0.09582143276929855, -0.07488756626844406, -0.3168331980705261, 0.27682897448539734, -0.11996214836835861, -0.2012629508972168, -0.07168499380350113, 0.273273229598999, -0.04707235470414162, -0.04167058318853378, -0.14509086310863495, -0.0462748259305954], [-0.18483862280845642, 0.338300883769989, -0.10193141549825668, 0.04455730691552162, -0.000753732630982995, -0.34152665734291077, 0.18066179752349854, -0.32564395666122437, 0.1172405332326889, -0.13671627640724182, -0.11609457433223724, -0.012397544458508492, -0.10857263207435608, -0.23996567726135254, 0.23540599644184113, -0.17334407567977905, -0.052596766501665115], [-0.08005198836326599, -0.02914726547896862, 0.17669585347175598, -0.023875601589679718, -0.037251364439725876, -0.022858470678329468, 0.23131100833415985, -0.1580652892589569, 0.0125395143404603, 0.1181153953075409, -0.1539432853460312, -0.14183421432971954, 1.2043099403381348, 0.007051196414977312, 0.20403695106506348, -0.04450422152876854, 0.028481582179665565], [-0.11987949907779694, 0.01547878049314022, 0.09830090403556824, -0.05900653079152107, -0.05699213594198227, -0.12483654171228409, -0.034164052456617355, 0.0912676602602005, -0.0710332840681076, -0.011321987956762314, 0.07808345556259155, 0.21192196011543274, 0.44148775935173035, 0.5165355205535889, 0.03880349546670914, -0.1092560663819313, 0.025385193526744843], [-0.03232754021883011, 0.26677992939949036, 0.22517916560173035, -0.015016643330454826, 0.10830852389335632, -0.1807800531387329, -0.002280778018757701, 0.0926881730556488, 0.0045583657920360565, -0.44265449047088623, -0.0941741019487381, 0.10173141956329346, 0.3758547604084015, -0.6663829684257507, -0.08563360571861267, -0.272561639547348, -0.1965135782957077], [0.06698940694332123, -0.029664132744073868, 0.06916209310293198, -0.22258098423480988, -0.0924665555357933, -0.11151857674121857, -0.016799988225102425, 0.007639370393007994, 0.10705796629190445, 0.018770841881632805, -0.4003870487213135, -0.033488884568214417, 0.09009702503681183, -0.03190067782998085, -0.08601479232311249, 0.17477242648601532, 0.06541967391967773], [-0.1185922846198082, 0.001593841821886599, 0.35937994718551636, 0.14025567471981049, -0.11062012612819672, -0.20453861355781555, -0.01720234379172325, -0.2219872921705246, -0.10695376992225647, 0.01670924946665764, 0.31989866495132446, 0.1386614441871643, 0.4525410532951355, -0.25724849104881287, 0.2322520762681961, 0.3581695556640625, 0.04264765977859497], [0.05147162452340126, 0.07393809407949448, -0.22819136083126068, 0.08626531809568405, -0.29155102372169495, -0.15294714272022247, -0.14463834464550018, -0.1198650524020195, -0.2534942030906677, -0.04839266091585159, 0.02152538299560547, -0.16799621284008026, -0.19054417312145233, 0.20124244689941406, 0.05568042770028114, 0.08245304226875305, -0.21796369552612305], [-0.1191762387752533, -0.2321973741054535, -0.14304904639720917, -0.15940387547016144, -0.050087060779333115, -0.21584846079349518, 0.3813158869743347, -0.230000838637352, 0.18522746860980988, -0.2648443877696991, -0.27586647868156433, -0.04154111444950104, 0.37909138202667236, -0.2451714724302292, -0.1787128448486328, 0.3695084750652313, -0.028610950335860252], [-0.004790804348886013, 0.03593415766954422, -0.06110185384750366, 0.07862742245197296, 0.3442612588405609, 0.15192264318466187, 0.4210450053215027, 0.2831607460975647, -0.1430518478155136, 0.03850112482905388, 0.2167765200138092, 0.11068228632211685, 0.18924939632415771, 0.03181490674614906, 0.15788908302783966, 0.12999281287193298, 0.3093140125274658], [-0.03201805055141449, 0.1204303726553917, -0.09184393286705017, -0.021020932123064995, -0.010613749735057354, 0.426310271024704, 0.15594884753227234, -0.058902282267808914, 0.3547866940498352, 0.2621295750141144, 0.36504167318344116, 0.022660112008452415, 0.02960277535021305, 0.14135506749153137, -0.040968991816043854, -0.06684423238039017, -0.03759809583425522]], "mlp_extractor.policy_net.0.bias": [0.0421464666724205, 0.058894019573926926, 0.013861022889614105, 0.02619723603129387, 0.06893916428089142, 0.05265280604362488, 0.06246550753712654, 0.06405302882194519, -0.03752930089831352, -0.04945198819041252, 0.0391324982047081, 0.08937672525644302, -0.0007160802488215268, -0.04678529500961304, -0.02535982057452202, 0.10721146315336227, 0.08162359893321991, 0.04054949805140495, 0.020300021395087242, 0.08220144361257553, 0.04066024348139763, -0.005009198561310768, -0.04740496724843979, 0.006881998851895332, -0.10361212491989136, -0.010172729380428791, -0.0013927505351603031, 0.011379001662135124, 0.011723015457391739, -0.017021419480443, 0.06181926280260086, 0.00444902665913105, 0.0715060755610466, 0.03379717469215393, -0.03930738568305969, 0.06069489195942879, 0.07226388901472092, 0.024884864687919617, -0.04894963651895523, 0.04464716091752052, 0.08800214529037476, -0.16682225465774536, 0.05450849607586861, 0.06206098571419716, 0.0630577951669693, 0.08458911627531052, 0.024850502610206604, 0.009600182995200157, 0.09969917684793472, -0.05232517421245575, 0.06757483631372452, 0.052478156983852386, -0.03596099093556404, -0.045677829533815384, 0.0989663153886795, -0.019330253824591637, 0.074888214468956, -0.025730714201927185, -0.08189711719751358, 0.09426430612802505, 0.09428328275680542, -0.042656898498535156, 0.08386658132076263, 0.008056876249611378, -0.07884897291660309, -0.02140606939792633, 0.12794403731822968, -0.04695989564061165, 0.08720582723617554, 0.005964668933302164, -0.024116158485412598, -0.03752612695097923, -0.003170120296999812, 0.015155005268752575, -0.05782150849699974, -0.01582184061408043, 0.06473168730735779, 0.03412379324436188, 0.12422291934490204, 0.0905940979719162, -0.1407570093870163, 0.03519958630204201, 0.15358637273311615, 0.010757396928966045, -0.013148423284292221, -0.11537756025791168, 0.07834930717945099, 0.0074905455112457275, 0.11342065036296844, -0.028082551434636116, 0.06076034530997276, 0.01777748204767704, -0.09415088593959808, 0.02016391232609749, 0.11615219712257385, -0.02612355165183544, -0.038783565163612366, 0.09258933365345001, 0.037146713584661484, -0.04213660582900047, -0.03682500869035721, 0.04216386377811432, -0.014354575425386429, 0.008867514319717884, 0.03696603700518608, -0.01933998428285122, 0.17367374897003174, -0.006233536172658205, 0.04052802920341492, 0.08669234067201614, -0.004484246484935284, -0.1241045594215393, 0.05163673311471939, -0.013890065252780914, 0.060284025967121124, -0.02484280616044998, 0.02754298970103264, 0.0932658240199089, -0.05202798917889595, 0.04839412868022919, 0.029344769194722176, 0.0007814514683559537, 0.044490087777376175, 0.08227390795946121, -0.08953924477100372, 0.0663292333483696, -0.01656513474881649, -0.0021723806858062744], "mlp_extractor.policy_net.2.weight": [[0.049827463924884796, 0.13690614700317383, -0.03692351281642914, -0.16665315628051758, -0.10595537722110748, 0.1877189576625824, 0.14598612487316132, 0.11889147013425827, -0.13658741116523743, -0.19774910807609558, 0.08804502338171005, -0.13267284631729126, 0.10265874117612839, 0.06934509426355362, -0.003806727472692728, 0.08444951474666595, 0.1832909882068634, -0.18928486108779907, -0.02815794013440609, -0.061528611928224564, -0.08162564039230347, 0.14719992876052856, -0.21229025721549988, 0.03934856876730919, -0.03906731680035591, 0.056621696799993515, 0.12122508883476257, -0.06658531725406647, -0.007983559742569923, -0.07114515453577042, -0.1122327446937561, 0.1312648057937622, 0.03737550973892212, 0.11719705909490585, -0.17964555323123932, -0.05045537278056145, 0.04966653510928154, 0.07024428993463516, -0.2783442735671997, 0.12083208560943604, 0.21037180721759796, -0.14303447306156158, 0.06315851211547852, -0.05203298479318619, 0.11235319077968597, -0.05035034567117691, 0.22994603216648102, -0.07244699448347092, -0.08164430409669876, 0.24920807778835297, -0.09311055392026901, 0.29705291986465454, -0.2138482630252838, -0.008077835664153099, 0.06387677043676376, -0.05577358603477478, -0.1115354374051094, 0.026538550853729248, -0.008906582370400429, -0.06183548644185066, -0.011834951117634773, 0.03573962301015854, -0.3570334315299988, -0.2765769958496094, -0.17940214276313782, -0.08953839540481567, 0.11457618325948715, 0.05763842910528183, 0.1188298761844635, 0.1658492535352707, 0.219929039478302, -0.00681799603626132, 0.07039701193571091, 0.08171956986188889, -0.0929642841219902, 0.0790567472577095, 0.192268967628479, 0.1518961638212204, -0.04036113619804382, 0.008129479363560677, -0.06938854604959488, 0.029266418889164925, 0.13366039097309113, -0.16699661314487457, 0.02383086271584034, 0.09562147408723831, -0.0005243273917585611, -0.0718708336353302, 0.12949088215827942, -0.006246834062039852, 0.08263646811246872, -0.029854338616132736, -0.1527324914932251, -0.053932543843984604, -0.05589394271373749, 0.19476333260536194, -0.15103285014629364, -0.20015555620193481, 0.09484667330980301, 0.030792348086833954, -0.12463200837373734, -0.08325018733739853, 0.09758984297513962, 0.24662372469902039, -0.08698389679193497, 0.2821313738822937, -0.20904290676116943, 0.10802239924669266, 0.2818220257759094, 0.049487341195344925, 0.05466402322053909, 0.02925247699022293, -0.1885412037372589, 0.04560115560889244, 0.023308753967285156, 0.2970927655696869, 0.012823057360947132, 0.19163724780082703, -0.003959687426686287, -0.18433424830436707, -0.007551359012722969, 0.17923147976398468, 0.10841961950063705, 0.18064402043819427, -0.18495340645313263, 0.1377187818288803, 0.07492827624082565, 0.21450567245483398], [-0.06392589956521988, 0.07756010442972183, 0.18041668832302094, 0.06154429540038109, -0.0041180569678545, 0.31924813985824585, 0.12338033318519592, 0.0005081091076135635, 0.20977509021759033, 0.15289010107517242, 0.13609035313129425, -0.026110555976629257, -0.14146336913108826, 0.05714970827102661, 0.11410025507211685, 0.04077095538377762, -0.011997864581644535, 0.08844819664955139, -0.11654593050479889, -0.023707730695605278, 2.8868837034679018e-05, 0.07546376436948776, 0.0346197783946991, -0.2729698717594147, 0.04270266741514206, 0.3073546886444092, -0.1633874475955963, 0.023303523659706116, 0.11013954132795334, 0.30662673711776733, -0.06332900375127792, -0.0010776222916319966, -0.258417546749115, -0.2629886269569397, 0.13811612129211426, -0.005205823108553886, -0.33040234446525574, -0.09345170855522156, 0.1488686203956604, -0.008342515677213669, -0.04718349874019623, -0.057342950254678726, -0.07912418991327286, 0.005335656926035881, 0.13976021111011505, 0.14817962050437927, 0.11738263815641403, 0.07165965437889099, 0.020260902121663094, 0.24926000833511353, 0.05884690210223198, 0.3217058479785919, 0.02475856803357601, -0.28145232796669006, 0.08665692806243896, -0.1622282862663269, 0.06374916434288025, 0.016733087599277496, -0.050258323550224304, -0.16077733039855957, -0.23246091604232788, -0.0537605881690979, -0.09419571608304977, 0.2568317651748657, -0.2715167701244354, 0.056219037622213364, -0.16851070523262024, 0.016762517392635345, -0.1251213103532791, 0.06261494755744934, 0.18227212131023407, 0.034866753965616226, -0.11796876043081284, -0.14394186437129974, 0.024466050788760185, 0.3083586096763611, 0.06303879618644714, 0.21321432292461395, 0.366966187953949, 0.04617689549922943, 0.023594148457050323, 0.33155345916748047, 0.04158613458275795, -0.04602227732539177, -0.17785590887069702, -0.06405045092105865, -0.02864311821758747, -0.36773428320884705, 0.15725162625312805, 0.025618277490139008, -0.1485309600830078, 0.19534870982170105, -0.3883249759674072, 0.17513608932495117, 0.04393868148326874, 0.03783800080418587, -0.06965398788452148, 0.010502626188099384, -0.14599555730819702, -0.08765152096748352, -0.1873149424791336, -0.05112909898161888, 0.1970132291316986, 0.17882505059242249, 0.2588137686252594, 0.13755880296230316, -0.013168481178581715, 0.1169494092464447, 0.17891927063465118, -0.1009548157453537, 0.17183056473731995, 0.18779096007347107, -0.3416709899902344, -0.15484943985939026, 0.25065678358078003, 0.21369902789592743, 0.03847045078873634, 0.3152396082878113, 0.1331496387720108, 0.10921956598758698, -0.053767163306474686, 0.0728912204504013, 0.0073661888018250465, 0.11325115710496902, 0.09393246471881866, 0.3268336355686188, 0.33937159180641174, 0.1309269517660141], [0.2362048327922821, 0.0849667489528656, -0.1506561040878296, 0.03932208940386772, 0.3990437984466553, 0.13102149963378906, -0.021841997280716896, -0.05858906731009483, -0.23848329484462738, -0.058771807700395584, 0.18976260721683502, 0.1864980161190033, -0.08159341663122177, -0.13174067437648773, 0.1950386017560959, 0.06310107558965683, 0.25107043981552124, -0.00917581096291542, 0.1335044503211975, 0.05458560585975647, 0.13843338191509247, 0.15106211602687836, -0.07452433556318283, 0.32646626234054565, 0.2091945856809616, 0.017489012330770493, 0.21157775819301605, 0.04534623771905899, 0.16057829558849335, 0.04358748719096184, -0.14779403805732727, -0.06622696667909622, -0.13988985121250153, -0.13135968148708344, 0.011369887739419937, -0.11529645323753357, -0.1068432480096817, 0.10122540593147278, -0.046186432242393494, 0.41991549730300903, 0.0015018584672361612, 0.11179528385400772, -0.2297457903623581, 0.05563667416572571, 0.03111666440963745, -0.07190925627946854, 0.003922575619071722, -0.049885496497154236, -0.04154842346906662, -0.14522477984428406, -0.05559951066970825, 0.35336825251579285, 0.03881413862109184, 0.0820380374789238, -0.030138539150357246, -0.0467396043241024, -0.32149404287338257, 0.2688431143760681, 0.05192222073674202, 0.15515492856502533, -0.27543357014656067, 0.044650815427303314, 0.12316504865884781, 0.04570208489894867, 0.07029155641794205, -0.19158083200454712, -0.059094011783599854, -0.07584365457296371, 0.15867924690246582, 0.1098034605383873, -0.24952693283557892, 0.08524492383003235, -0.1036231741309166, -0.0627981498837471, -0.24224454164505005, 0.32713043689727783, 0.277850866317749, 0.050473373383283615, 0.10207629948854446, 0.16260753571987152, 0.08902981877326965, 0.16465651988983154, 0.28523150086402893, -0.16362853348255157, 0.18653057515621185, 0.32382750511169434, 0.053165603429079056, -0.03658473491668701, 0.07469109445810318, 0.14112190902233124, -0.06497708708047867, 0.0923994854092598, -0.0653284564614296, 0.045968249440193176, 0.11648712307214737, -0.018157679587602615, 0.056843340396881104, 0.27831870317459106, -0.21767054498195648, 0.2697177231311798, -0.12072687596082687, -0.17733745276927948, 0.18080349266529083, -0.04514779895544052, -0.20940576493740082, -0.19797760248184204, 0.014061631634831429, -0.11905322968959808, 0.13573305308818817, 0.05364955589175224, -0.0280666034668684, 0.06601159274578094, -0.0591709278523922, -0.08041445910930634, 0.22934924066066742, 0.03826088830828667, -0.15638038516044617, 0.09350696206092834, 0.08681340515613556, 0.07636530697345734, 0.06868370622396469, -0.05698671564459801, 0.04734238609671593, -0.06668777018785477, 0.010001689195632935, 0.22505079209804535, 0.24954275786876678, -0.20943766832351685], [0.2414143830537796, 0.08973315358161926, 0.34772932529449463, 0.15648174285888672, -0.036618828773498535, 0.13014711439609528, 0.08965590596199036, -0.09250541776418686, 0.035769980400800705, -0.12229181826114655, 0.2593177258968353, 0.20322713255882263, -0.11894474178552628, 0.0628744587302208, 0.19086113572120667, -0.20616862177848816, -0.15652093291282654, 0.03666263446211815, -0.10058119148015976, -0.0576326847076416, -0.23060300946235657, 0.1857588142156601, 0.11084920167922974, 0.122245192527771, 0.0617961622774601, -0.12605340778827667, 0.09547121822834015, -0.08671697229146957, -0.020480414852499962, -0.08468595147132874, 0.1056315153837204, -0.23485134541988373, 0.16868460178375244, -0.047543708235025406, -0.1538766771554947, 0.2288629114627838, -0.012214301154017448, -0.12898460030555725, 0.007215052377432585, -0.1387442797422409, 0.0721956118941307, -0.18195581436157227, -0.12424487620592117, -0.1397121697664261, -0.037479035556316376, -0.001214406918734312, 0.30846521258354187, -0.14712560176849365, -0.5012184381484985, 0.1823439747095108, -0.041202619671821594, 0.16000305116176605, 0.1551588475704193, 0.04370785132050514, -0.23763182759284973, 0.05629287660121918, 0.095063216984272, -0.24290889501571655, -0.24513068795204163, -0.21485702693462372, -0.1867903769016266, -0.1056656688451767, 0.015281838364899158, 0.40441015362739563, -0.26117193698883057, -0.0961393415927887, -0.14073972404003143, -0.161928191781044, -0.2816099226474762, -0.014847449958324432, 0.08963222801685333, -0.2096264362335205, 0.231295645236969, -0.22908605635166168, 0.14192354679107666, 0.14980639517307281, 0.05335536599159241, -0.03363494947552681, 0.1925293207168579, -0.01979176141321659, -0.060172226279973984, 0.32236090302467346, 0.2303396612405777, 0.09129117429256439, 0.2421983778476715, 0.1496427059173584, 0.1327580213546753, -0.5136316418647766, 0.4083378314971924, 0.3499472439289093, -0.1344866007566452, -0.10556966811418533, -0.02114325575530529, -0.2024945467710495, 0.06403957307338715, 0.1280851513147354, -0.08360320329666138, 0.006962934508919716, -0.037711042910814285, -0.09236118197441101, 0.021216057240962982, 0.12943370640277863, 0.3085476756095886, -0.17786872386932373, -0.1453728824853897, 0.5208570957183838, -0.08356447517871857, 0.2596101462841034, -0.3472552001476288, -0.09805162996053696, 0.3002917766571045, -0.09573028981685638, 0.04013664275407791, -0.1382066011428833, 0.11420118063688278, 0.01487033162266016, 0.2558669447898865, 0.29104334115982056, 0.006907122675329447, 0.04204696789383888, -0.083649180829525, 0.45242899656295776, 0.12167573720216751, 0.1396085023880005, -0.2189105898141861, 0.0486927293241024, 0.11777409166097641, -0.03537216782569885], [-0.013139989227056503, -0.16066637635231018, 0.017303649336099625, -0.21897150576114655, 0.19669987261295319, -0.051315467804670334, 0.14695563912391663, 0.039921849966049194, 0.1294146180152893, 0.18482378125190735, -0.046951279044151306, -0.15497389435768127, 0.09437201172113419, 0.06352817267179489, -0.021504420787096024, 0.22789965569972992, 0.3197919428348541, -0.10356822609901428, -0.07222358137369156, 0.18160176277160645, -0.22186358273029327, -0.037644725292921066, 0.3014972507953644, -0.23987676203250885, -0.02025446854531765, 0.19757117331027985, 0.15949119627475739, 0.11052925884723663, 0.05104658007621765, 0.17720994353294373, -0.12824174761772156, -0.01864662580192089, 0.047500427812337875, 0.1734868288040161, -0.02262914553284645, 0.03512062504887581, 0.030951805412769318, 0.02798628993332386, 0.027116529643535614, -0.29329928755760193, 0.31204864382743835, -0.1722024381160736, 0.06374361366033554, 0.12399238348007202, -0.0733039379119873, 0.16085782647132874, 0.44349947571754456, -0.056278035044670105, -0.1959029883146286, 0.1878649890422821, -0.19003601372241974, -0.033253125846385956, 0.07620078325271606, -0.13935700058937073, 0.21225059032440186, 0.40151581168174744, 0.17491911351680756, 0.2381039559841156, -0.3399381637573242, 0.31437966227531433, 0.2967796325683594, -0.12205731868743896, -0.2008390575647354, 0.38353630900382996, -0.1439305692911148, -0.27842801809310913, 0.05693700537085533, -0.24679310619831085, 0.06866046041250229, -0.09395210444927216, 0.13563315570354462, -0.1736806184053421, 0.18208815157413483, -0.01551344059407711, 0.06438029557466507, 0.20743969082832336, 0.15537168085575104, 0.024532025679945946, 0.2632230222225189, 0.26597923040390015, 0.07178790122270584, 0.18664151430130005, 0.14904993772506714, 0.10823284089565277, -0.1612977236509323, -0.16912057995796204, -0.03455253317952156, -0.15350699424743652, 0.21054765582084656, 0.12168745696544647, -0.017058856785297394, -0.12204240262508392, -0.1486925184726715, -0.023912973701953888, 0.44704470038414, 0.06683173030614853, 0.07359334826469421, 0.11752048879861832, -0.3243359625339508, 0.09251735359430313, 0.054156314581632614, 0.12974700331687927, 0.235981285572052, -0.0513986200094223, 0.22750656306743622, 0.15133289992809296, 0.13726894557476044, -0.09302995353937149, -0.08773483335971832, -0.15905700623989105, 0.1451416164636612, -0.17843008041381836, -0.10887498408555984, -0.24617958068847656, -0.015175072476267815, -0.3242393136024475, 0.22962474822998047, 0.04316319152712822, 0.20195479691028595, 0.2306557297706604, -0.044499024748802185, 0.25974175333976746, -0.06329379230737686, 0.3493552505970001, -0.1695663183927536, 0.26565036177635193, 0.07234352827072144, -0.3007946312427521], [-0.21415354311466217, 0.2620602250099182, 0.12458530813455582, -0.043420758098363876, 0.20618613064289093, 0.004026944283396006, 0.09228009730577469, 0.13185931742191315, -0.3235470652580261, 0.1613924205303192, 0.6029808521270752, 0.12539170682430267, -0.03952684625983238, 0.16720204055309296, -0.002372531220316887, -0.12250825017690659, 0.03208649903535843, 0.08550669997930527, -0.06473561376333237, 0.0667654350399971, 0.08679093420505524, -0.043833840638399124, -0.010270195081830025, -0.1894412487745285, -0.05340278148651123, 0.061391957104206085, -0.07709930837154388, 0.15317445993423462, -0.08853211998939514, 0.11435525864362717, 0.16308459639549255, -0.27626386284828186, -0.009998324327170849, 0.018950965255498886, -0.03852669149637222, 0.02428511157631874, 0.05584920570254326, -0.020408613607287407, 0.17198050022125244, 0.08818992972373962, 0.24840731918811798, -0.1902255117893219, -0.24793578684329987, -0.03529128432273865, 0.09635954350233078, -0.04054117947816849, 0.15249912440776825, 0.12637704610824585, -0.041418515145778656, 0.11606307327747345, 0.12818382680416107, 0.25113537907600403, -0.3476528823375702, 0.18717250227928162, -0.296379417181015, -0.11844564974308014, -0.0990256667137146, 0.3646821081638336, -0.19647516310214996, 0.007595739793032408, 0.0796317607164383, 0.15371662378311157, -0.019100362434983253, 0.148659810423851, -0.1536957174539566, 0.059922955930233, 0.22449995577335358, -0.09532202035188675, 0.09850248694419861, -0.18815024197101593, -0.04552348703145981, -0.2763211727142334, -0.029640236869454384, -0.10115308314561844, 0.180154487490654, 0.1828083097934723, 0.3611510097980499, 0.1534544825553894, 0.12454590946435928, -0.03882954642176628, -0.1798291653394699, 0.1592874526977539, 0.10115426033735275, 0.05381818115711212, -0.1117137148976326, -0.10598360002040863, 0.14782245457172394, -0.1894366592168808, -0.23566021025180817, 0.3026413917541504, -0.23269344866275787, -0.003624155418947339, -0.20647358894348145, 0.21953417360782623, 0.33537209033966064, 0.16933786869049072, -0.21894434094429016, -0.026175249367952347, -0.0845009833574295, 0.11106059700250626, -0.14406977593898773, 0.2017497718334198, 0.06768769770860672, 0.14141912758350372, 0.028584972023963928, 0.2583048939704895, -0.20324809849262238, 0.05189540237188339, -0.024822795763611794, -0.11204645037651062, 0.3701382577419281, -0.003686114214360714, -0.11801110208034515, -0.0867532268166542, 0.09387141466140747, 0.0367678664624691, 0.3988303244113922, 0.3069480061531067, 0.1403227597475052, 0.04609833285212517, 0.06409624218940735, 0.43237656354904175, -0.026271086186170578, 0.09481947124004364, -0.05773855000734329, 0.23508436977863312, 0.1693115085363388, -0.024830233305692673], [-0.08182615041732788, -0.06364152580499649, 0.15423569083213806, 0.2383027970790863, 0.13860838115215302, -0.08684922009706497, -0.0018360860412940383, -0.006041721440851688, 0.036948803812265396, -0.08705642074346542, 0.2605942487716675, -0.21214793622493744, 0.033309053629636765, 0.13052047789096832, 0.3365892767906189, 0.07365032285451889, -0.21742361783981323, -0.030837005004286766, 0.25669145584106445, -0.06277479231357574, -0.13737858831882477, 0.11243744194507599, -0.029261143878102303, -0.01262812688946724, -0.17758572101593018, 0.23126572370529175, 0.1835613250732422, 0.2727050185203552, -0.17552433907985687, 0.19675423204898834, -0.0027824724093079567, 0.004899416584521532, 0.01309498306363821, 0.06092052161693573, 0.04558177292346954, -0.02046286128461361, -0.09296251088380814, 0.0724029615521431, 0.09159736335277557, 0.25960573554039, -0.2014884352684021, 0.19683773815631866, -0.29033732414245605, -0.27803269028663635, 0.07321885973215103, -0.19968923926353455, 0.17746886610984802, 0.4266889691352844, -0.10778941959142685, 0.1533339023590088, 0.09307196736335754, 0.2195081114768982, -0.015575075522065163, 0.1059330478310585, 0.02804027497768402, -0.10741162300109863, 0.06003611534833908, 0.023123256862163544, -0.22265614569187164, 0.01058900449424982, -0.2514263391494751, 0.26190662384033203, -0.030641835182905197, 0.012733051553368568, -0.04517276585102081, 0.1705498993396759, -0.1572803407907486, -0.16394354403018951, 0.10005726665258408, 0.2234114557504654, 0.13783717155456543, -0.0214963648468256, 0.31026068329811096, -0.05354774743318558, -0.2737340033054352, 0.2788747549057007, 0.056581996381282806, 0.43262770771980286, 0.13815750181674957, 0.07968930900096893, 0.06234995275735855, 0.04614740237593651, 0.21211756765842438, -0.24721258878707886, 0.054329030215740204, 0.03460667282342911, -0.008920657448470592, 0.01232834905385971, -0.20243731141090393, 0.3034753203392029, -0.009855561889708042, 0.0024970537051558495, -0.08909791707992554, -0.17807944118976593, 0.17684300243854523, 0.36050376296043396, 0.07419212907552719, -0.2757744789123535, -0.042460810393095016, 0.03946804627776146, -0.3169020414352417, 0.15508829057216644, 0.04701773822307587, 0.10097452253103256, -0.04991345480084419, 0.05164555460214615, -0.02079167403280735, 0.24644410610198975, 0.23069477081298828, 0.004238979425281286, 0.1698041558265686, -0.12628471851348877, 0.08652105182409286, -0.08026231825351715, 0.13596047461032867, 0.05764107406139374, 0.2604493200778961, -0.004141578916460276, -0.007176351733505726, -0.11734860390424728, -0.056544750928878784, 0.0016076188767328858, 0.09574030339717865, 0.009720022790133953, -0.04257022961974144, -0.009604226797819138, 0.0948372334241867, 0.07375507056713104], [-0.11511334031820297, -0.05340125039219856, -0.013612736016511917, 0.16717936098575592, 0.038810718804597855, -0.13386589288711548, 0.11154945939779282, 0.22656364738941193, 0.12460146099328995, 0.13992840051651, -0.01686110906302929, -0.09395147114992142, 0.2328580617904663, 0.14257822930812836, 0.19991618394851685, 0.021537702530622482, -0.07251602411270142, 0.17525959014892578, -0.12335382401943207, 0.05496728792786598, -0.07828906923532486, 0.1600106805562973, -0.2051767110824585, 0.38078463077545166, -0.012033602222800255, 0.2768850326538086, 0.08411604166030884, 0.35330522060394287, 0.2523071765899658, 0.1316201239824295, -0.09812336415052414, 0.06669212132692337, -0.2645573019981384, -0.07582500576972961, -0.03363243490457535, 0.14582358300685883, -0.21414507925510406, 0.0864347368478775, 0.13354715704917908, 0.08161639422178268, 0.004418140277266502, 0.1274527609348297, -0.17271028459072113, -0.3451400101184845, 0.06872443109750748, 0.028458090499043465, 0.01063203252851963, 0.09947176277637482, 2.740183481364511e-05, -0.040436938405036926, -0.07787667214870453, 0.11827220022678375, -0.1763157695531845, 0.1781417727470398, 0.10806898027658463, -0.3219303488731384, -0.14259742200374603, 0.22255270183086395, 0.006890286225825548, -0.21388156712055206, 0.010392861440777779, 0.07556930929422379, -0.18737392127513885, 0.034265581518411636, -0.1961369514465332, 0.22212395071983337, -0.011472456157207489, 0.07358398288488388, -0.029828321188688278, 0.0854974091053009, -0.1195615902543068, 0.0363774411380291, -0.17060531675815582, 0.19464589655399323, 0.2191883623600006, 0.12378480285406113, -0.004459541756659746, 0.19928596913814545, 0.09123795479536057, 0.1611144244670868, 0.07215959578752518, -0.08117522299289703, 0.07222554832696915, -0.20661261677742004, -0.10637035965919495, 0.29140305519104004, -0.04669720679521561, -0.17504367232322693, -0.15744878351688385, 0.13071641325950623, 0.20562483370304108, -0.11636732518672943, -0.09635162353515625, -0.23298542201519012, -0.2465018481016159, 0.009657171554863453, 0.26031097769737244, -0.175981342792511, 0.24988441169261932, 0.13567037880420685, 0.19716423749923706, -0.25086212158203125, 0.05530334636569023, 0.031927675008773804, -0.34387636184692383, -0.013865114189684391, 0.03591429814696312, 0.09350499510765076, 0.014895020984113216, -0.002727884566411376, 0.03714827448129654, 0.11254464089870453, -0.22134244441986084, 0.18132339417934418, 0.1384659707546234, 0.03313567116856575, -0.03395397588610649, 0.06699550896883011, 0.13951830565929413, -0.01217542216181755, 0.06837137043476105, -0.0036954267416149378, 0.09838075935840607, -0.2516013979911804, 0.10160673409700394, -0.0325915701687336, -0.2080315798521042, 0.03639322146773338], [0.1104833111166954, 0.20389211177825928, 0.01681341603398323, 0.13119857013225555, 0.04098016768693924, -0.06311529874801636, -0.1514376997947693, -0.030189169570803642, 0.12330504506826401, 0.09494199603796005, -0.2315230816602707, -0.06891129910945892, 0.25878816843032837, -0.07045218348503113, -0.20643730461597443, 0.0019378217402845621, -0.028798991814255714, 0.07611899822950363, 0.03747270256280899, 0.11903748661279678, -0.1446491777896881, -0.08829903602600098, -0.010739408433437347, 0.0667698085308075, 0.04380582645535469, -0.050966549664735794, -0.15771248936653137, 0.2928048074245453, 0.03183755278587341, -0.26031485199928284, 0.09860667586326599, 0.14712470769882202, -0.3279056251049042, -0.18660341203212738, -0.06548482924699783, 0.1478859782218933, -0.10872264206409454, 0.035697050392627716, -0.11522557586431503, -0.10362477600574493, -0.04401877149939537, 0.2290826141834259, -0.002890239004045725, -0.39950162172317505, 0.006151045206934214, 0.130315363407135, -0.5638429522514343, -0.23394893109798431, 0.07682409882545471, -0.137337327003479, 0.05989055708050728, -0.09585527330636978, 0.09547547250986099, -0.15134668350219727, -0.12570619583129883, 0.061458706855773926, 0.02639489807188511, 0.14351221919059753, 0.19089338183403015, -0.1328589916229248, -0.15458089113235474, 0.21516701579093933, 0.048807039856910706, 0.013700735755264759, 0.20360399782657623, -0.06405051797628403, -0.04321274161338806, 0.10519321262836456, -0.01152288168668747, -0.09638331830501556, -0.16151045262813568, 0.0016893052961677313, -0.18944889307022095, 0.24358108639717102, -0.256802499294281, -0.03723364695906639, -0.12303335219621658, -0.16879597306251526, -6.771990592824295e-05, 0.1502435952425003, -0.2611393630504608, -0.41015276312828064, -0.10863717645406723, -0.0320747084915638, 0.02310282178223133, 0.013334407471120358, 0.06904146075248718, 0.12467489391565323, 0.175664022564888, -0.019933084025979042, 0.20812584459781647, -0.3368542194366455, -0.010159636847674847, -0.23158039152622223, -0.3865351974964142, -0.00136766757350415, -0.10528546571731567, -0.07316677272319794, 0.23416686058044434, -0.10101686418056488, 0.007648946717381477, -0.3433239161968231, -0.25805115699768066, 0.021489549428224564, 0.10233794897794724, -0.38760122656822205, -0.17770199477672577, -0.14137870073318481, 0.48461952805519104, 0.1190691739320755, -0.3435952365398407, 0.1257941722869873, 0.12244938313961029, 0.03629725053906441, 0.11922801285982132, -0.03785034641623497, -0.20229783654212952, -0.13822057843208313, 0.011233621276915073, -0.4488205015659332, -0.08221792429685593, -0.1490570604801178, 0.2493509203195572, 0.046726495027542114, -0.07454557716846466, 0.10909584164619446, 0.04507020115852356, -0.10354642570018768], [0.05119655281305313, -0.013797738589346409, -0.19639335572719574, -0.03261951357126236, 0.0854465514421463, -0.09636224806308746, -0.16477002203464508, 0.011665158905088902, -0.024561960250139236, -0.18243077397346497, 0.12345266342163086, 0.022821011021733284, 0.16988687217235565, -0.27013683319091797, -0.07164670526981354, 0.1408139318227768, 0.03734029829502106, -0.035895925015211105, -0.14475774765014648, 0.0086323581635952, 0.07029283791780472, -0.1640823930501938, -0.021731246262788773, 0.2154480218887329, 0.322017103433609, -0.06825455278158188, -0.19357386231422424, 0.06531521677970886, -0.05775075778365135, -0.12842172384262085, 0.1362585425376892, -0.04841579496860504, -0.3562844693660736, 0.08775551617145538, -0.07319758087396622, 0.20541098713874817, -0.08179619163274765, 0.14166153967380524, -0.17036890983581543, 0.1095244511961937, -0.14036762714385986, 0.17894133925437927, -0.2612069845199585, -0.06195615231990814, 0.07027481496334076, 0.004829796496778727, -0.22443412244319916, -0.2666555345058441, -0.1927742063999176, -0.0717690959572792, 0.02517625130712986, -0.07199734449386597, 0.25718918442726135, 0.1427025943994522, 0.07645247131586075, 0.17984342575073242, -0.10391835123300552, -0.14304424822330475, 0.07357233762741089, 0.2188829630613327, 0.16366657614707947, 0.15076258778572083, -0.10241834819316864, -0.17665566504001617, 0.10612237453460693, -0.06678947806358337, 0.026084795594215393, -0.08143030852079391, -0.32087042927742004, 0.1038975864648819, 0.05812453851103783, 0.11927145719528198, 0.024761514738202095, 0.1307714283466339, 0.09876339882612228, -0.27066031098365784, -0.049267761409282684, -0.10087443143129349, -0.06134019419550896, -0.18862079083919525, 0.20233054459095, -0.4094129502773285, -0.1866186410188675, 0.18333478271961212, 0.050691138952970505, -0.29922786355018616, -0.09461257606744766, -0.22767506539821625, -0.15055227279663086, -0.3543255627155304, -0.26993095874786377, 0.031175602227449417, 0.2997313439846039, 0.22102323174476624, 0.03068617172539234, -0.07708648592233658, 0.05469978600740433, -0.06081031262874603, -0.19848372042179108, -0.1120608001947403, -0.006865107920020819, 0.21477994322776794, -0.37971436977386475, -0.1730920970439911, 0.08485568314790726, -0.2899858355522156, -0.14710725843906403, -0.16085439920425415, -0.030269969254732132, -0.12835758924484253, 0.2645502984523773, -0.030266964808106422, 0.091463603079319, 0.16928672790527344, -0.2305918186903, -0.06651847064495087, -0.28168535232543945, -0.030387677252292633, 0.13547714054584503, 0.1407172828912735, 0.004035185091197491, -0.15254469215869904, -0.5083404779434204, 0.08718850463628769, 0.13704320788383484, -0.41508811712265015, 0.265622615814209, -0.0157617274671793], [-0.08289401233196259, -0.027686743065714836, 0.006100607570260763, 0.057301655411720276, 0.07210047543048859, 0.3226025402545929, -0.37938693165779114, 0.04703643545508385, -0.023599443957209587, 0.03681258484721184, -0.2792247235774994, -0.11113568395376205, -0.15469321608543396, -0.07958348840475082, -0.0979294627904892, -0.09596838057041168, 0.04049641638994217, -0.07596534490585327, -0.0044740610755980015, 0.03851092606782913, -0.2654435932636261, 0.07570111006498337, -0.002805201569572091, 0.15583059191703796, 0.025495495647192, -0.12511956691741943, -0.10669002681970596, 0.05743657797574997, 0.16417597234249115, 0.11044151335954666, 0.024187704548239708, -0.3933120369911194, -0.1218356341123581, 0.11591921746730804, 0.07621893286705017, -0.011024780571460724, -0.1390012502670288, -0.01704038679599762, 0.08288010209798813, -0.26021265983581543, -0.1197388768196106, 0.161384716629982, 0.06579224765300751, -0.19557930529117584, -0.35604387521743774, 0.14728200435638428, -0.10581562668085098, -0.3261982798576355, -0.11545637995004654, -0.17489683628082275, -0.05471869558095932, 0.0658441036939621, -0.07970864325761795, -0.047413282096385956, 0.04900519177317619, 0.18934106826782227, 0.05043816938996315, 0.16598647832870483, 0.3538033068180084, 0.3033199906349182, 0.24045389890670776, 0.16256193816661835, -0.2376413494348526, -0.5125252604484558, 0.10347907990217209, -0.04563253000378609, -0.4419468939304352, 0.35497111082077026, 0.09849418699741364, -0.16073785722255707, -0.03890010714530945, -0.08785490691661835, 0.028570638969540596, -0.026676006615161896, 0.13388289511203766, -0.2030591368675232, -0.48271799087524414, -0.08380713313817978, -0.16232337057590485, 0.12436360865831375, 0.2056107223033905, 0.019642135128378868, -0.09367372840642929, -0.012111453339457512, -0.06557021290063858, -0.02666516974568367, 0.024434970691800117, 0.21160705387592316, 0.2697252631187439, -0.4338293671607971, 0.015352576039731503, -0.20036634802818298, 0.05991818755865097, 0.13475607335567474, 0.006640383042395115, 0.1572127342224121, 0.013380206190049648, 0.31079185009002686, 0.0027438572142273188, -0.006484908517450094, 0.10083042085170746, -0.08363353461027145, -0.15085865557193756, -0.1080704852938652, 0.1425747275352478, -0.1578746736049652, -0.12531673908233643, -0.038822174072265625, -0.02954971417784691, -0.3593512773513794, 0.08498624712228775, 0.09668313711881638, 0.033903818577528, 0.0618310384452343, -0.1339966356754303, -0.00892655085772276, 0.002821601927280426, -0.1853306144475937, -0.2338164746761322, -0.014543180353939533, 0.2116914987564087, -0.4538266658782959, 0.24275852739810944, -0.07637586444616318, -0.07581683248281479, -0.0921526700258255, -0.2744786739349365, -0.2353927195072174], [0.16080647706985474, -0.13064193725585938, -0.3187398612499237, 0.06724338978528976, -0.4252096712589264, 0.3458365201950073, 0.13129325211048126, 0.13751821219921112, -0.019467681646347046, -0.1781824827194214, 0.0910574197769165, -0.06700528413057327, -0.04474323242902756, 0.02626868151128292, -0.10319563001394272, 0.28009748458862305, 0.014289259910583496, 0.0865563154220581, -0.11814668029546738, -0.1793757677078247, 0.0195009745657444, -0.1011422872543335, 0.16684705018997192, -0.028551623225212097, 0.12450356036424637, -0.1782512217760086, -0.29292500019073486, -0.0724891945719719, -0.11733244359493256, -0.009260030463337898, 0.2012636512517929, -0.31444069743156433, 0.2288762480020523, 0.28509634733200073, -0.01953309215605259, -0.04967578127980232, 0.37132787704467773, -0.09563370794057846, 0.17065812647342682, -0.1564023345708847, 0.26767173409461975, -0.23206959664821625, 0.21753418445587158, 0.14401400089263916, 0.14029660820960999, -0.016656724736094475, 0.02354242280125618, 0.1222524419426918, -0.189713716506958, -0.2963181436061859, -0.09352655708789825, 0.04510220140218735, 0.10622640699148178, -0.15199220180511475, -0.019963018596172333, 0.4937797784805298, 0.19171148538589478, -0.16420280933380127, -0.24870668351650238, 0.35894355177879333, 0.20051607489585876, -0.03344409540295601, 0.2595970332622528, 0.1448686271905899, -0.1261591613292694, -0.2994033396244049, 0.19196951389312744, -0.11578988283872604, -0.1247032880783081, 0.0426928773522377, -0.3164937198162079, -0.041244056075811386, -0.10038561373949051, -0.04577123373746872, -0.16275888681411743, 0.0562964603304863, 0.14923246204853058, -0.11771831661462784, 0.009017989970743656, 0.04796271026134491, -0.06622834503650665, 0.49761372804641724, 0.053184427320957184, 0.20286163687705994, 0.07885222882032394, -0.28338903188705444, -0.05698643624782562, -0.1133723109960556, -0.1292421966791153, -0.135843887925148, 0.07023349404335022, -0.11711834371089935, -0.038610972464084625, 0.4052763879299164, 0.054087668657302856, 0.027025269344449043, -0.14592818915843964, 0.1565563976764679, 0.09779063612222672, -0.03792734071612358, -0.08017543703317642, 0.1740596890449524, -0.035898543894290924, -0.008521892130374908, 0.19675442576408386, -0.2044619619846344, 0.2819099426269531, -0.0987907201051712, -0.14176534116268158, -0.07346101105213165, 0.389835387468338, -0.039952829480171204, -0.3306778073310852, 0.09705214947462082, 0.05377012491226196, -0.368765264749527, 0.056330375373363495, -0.18618105351924896, 0.13902030885219574, 0.43313267827033997, -0.045460447669029236, -0.09099718183279037, -0.04635148495435715, -0.12217716127634048, -0.14313839375972748, 0.13119319081306458, 0.08634402602910995, 0.00041347095975652337], [0.23088686168193817, 0.06907543540000916, -0.13812074065208435, -0.09157491475343704, 0.01849093846976757, 0.06528988480567932, -0.2979104518890381, 0.1085238829255104, 0.17063111066818237, 0.3083542287349701, 0.004268627613782883, -0.06196797266602516, -0.1383078694343567, 0.01530634704977274, -0.29345032572746277, -0.062189165502786636, 0.08005780726671219, -0.063462994992733, -0.19799767434597015, 0.1640755534172058, -0.01934203691780567, -0.03616977110505104, 0.16600893437862396, 0.12603865563869476, -0.2400365173816681, -0.2504621744155884, -0.11325463652610779, -0.11903607100248337, -0.1399359554052353, -0.2597449719905853, 0.2410513013601303, -0.21088595688343048, 0.0996609553694725, -0.15486496686935425, -0.23417755961418152, 0.2328052967786789, 0.19334757328033447, 0.048842936754226685, -0.2047135978937149, -0.07001318037509918, -0.051647067070007324, 0.013048874214291573, 0.3644615411758423, 0.08112980425357819, 0.060218796133995056, -0.0835503488779068, -0.3815576732158661, -0.3103565573692322, -0.03822077810764313, 0.12704239785671234, 0.09356630593538284, -0.016961710527539253, 0.40707719326019287, 0.0035052914172410965, 0.15979315340518951, 0.0950980931520462, 0.09004610776901245, 0.008228222839534283, 0.17442366480827332, 0.08663780242204666, 0.09554650634527206, 0.08388301730155945, -0.12618009746074677, 0.16913752257823944, 0.16639944911003113, 0.006890494376420975, -0.3082488775253296, 0.17762894928455353, -0.0255221389234066, -0.05668753758072853, 0.11291342973709106, 0.004091480281203985, 0.07833892107009888, 0.045614466071128845, 0.05598621070384979, 0.10477424412965775, -0.028451725840568542, -0.13117678463459015, -0.7060271501541138, 0.24618546664714813, -0.10531747341156006, 0.05681292340159416, 0.09822613000869751, 0.03495253250002861, -0.3114320933818817, -0.10680107027292252, 0.2112056165933609, 0.31996485590934753, 0.30622100830078125, -0.5311808586120605, 0.19775767624378204, 0.024807119742035866, 0.16024188697338104, 0.1870688796043396, -0.11507982760667801, -0.0723705142736435, 0.08479855209589005, -0.18205077946186066, -0.21681515872478485, 0.06446222215890884, -0.0014762917999178171, -0.22981251776218414, -0.11115158349275589, -0.4165818691253662, 0.02159365452826023, -0.1491023302078247, 0.10577572137117386, 0.12728489935398102, -0.03145606815814972, -0.4117269217967987, 0.21737350523471832, 0.24582673609256744, -0.15550492703914642, -0.09796679019927979, -0.11401917040348053, -0.039821725338697433, 0.08998122066259384, 0.04855675622820854, -0.05911688134074211, 0.1826348453760147, 0.4033483564853668, -0.307749480009079, -0.2013234794139862, -0.03138410672545433, -0.04224714636802673, -0.10496345162391663, -0.02948664501309395, -0.001224181498400867], [-0.11808404326438904, 0.02785448171198368, -0.1333198845386505, 0.13897013664245605, -0.03494317829608917, -0.01787698082625866, 0.03486243635416031, -0.09864269196987152, 0.33278200030326843, -0.05648267641663551, -0.09748142957687378, 0.1224435567855835, 0.004050089046359062, 0.019245725125074387, 0.011803804896771908, -0.07380042225122452, -0.006463863421231508, -0.04128999635577202, 0.0629216730594635, -0.04931889474391937, 0.12316017597913742, 0.2584795653820038, -0.07194110751152039, 0.12657110393047333, 0.06100369989871979, 0.11976131051778793, -0.1475307196378708, 0.146495059132576, -0.13095054030418396, -0.12005814164876938, -0.05318691208958626, 0.09334170073270798, 0.013499549590051174, -0.051044534891843796, 0.04022775962948799, 0.2878274917602539, 0.3001362979412079, 0.30305829644203186, -0.24012595415115356, -0.036423590034246445, -0.02446211874485016, 0.08405295014381409, 0.2269006222486496, -0.04664182290434837, -0.3236050605773926, 0.1820220649242401, -0.17540544271469116, -0.3385026156902313, 0.416779100894928, 0.08371094614267349, 0.15972906351089478, -0.04151386022567749, 0.051969271153211594, 0.005904312711209059, -0.19714193046092987, 0.1788371205329895, 0.24869796633720398, -0.17460966110229492, 0.2094789743423462, -0.14380377531051636, 0.06742757558822632, 0.09000255167484283, 0.10664891451597214, -0.09167846292257309, 0.03762241452932358, -0.2901611626148224, -0.27507317066192627, 0.2920096814632416, 0.06183355301618576, 0.11602485924959183, 0.2605207562446594, 0.06696511059999466, 0.08921691030263901, 0.16255877912044525, 0.07368113100528717, 0.10652754455804825, 0.012471536174416542, -0.07215100526809692, -0.19410544633865356, 0.12038014829158783, -0.39328527450561523, -0.23298555612564087, 0.2645017206668854, 0.1727857142686844, -0.10619526356458664, -0.03343900665640831, 0.024184903129935265, 0.15026123821735382, -0.030745988711714745, -0.26623132824897766, 0.07343340665102005, -0.02060108631849289, 0.1409662812948227, 0.1809663623571396, -0.043905168771743774, 0.015867359936237335, -0.14955973625183105, 0.25512635707855225, -0.10048138350248337, -0.1835269331932068, 0.08545180410146713, -0.12425801157951355, -0.20677252113819122, -0.43247437477111816, 0.17293281853199005, -0.1144070103764534, 0.25926509499549866, -0.1149357408285141, 0.14553244411945343, -0.2968309819698334, -0.2969687879085541, -0.026867039501667023, -0.06775251030921936, 0.1763838678598404, -0.14186742901802063, 0.014735008589923382, -0.046919770538806915, 0.2663165032863617, -0.35392165184020996, 0.08143534511327744, -0.1413070410490036, -0.22349382936954498, -0.005534366704523563, 0.1426035612821579, 0.09311236441135406, 0.05648154392838478, -0.034237656742334366, -0.0806526318192482], [0.10834450274705887, 0.0311016496270895, 0.17365169525146484, -0.03835539147257805, 0.013371877372264862, 0.04428483173251152, 0.2873114347457886, 0.07931753993034363, 0.032855261117219925, -0.057243961840867996, 0.23990820348262787, 0.006367100402712822, 0.15892145037651062, -0.00601303530856967, -0.15741927921772003, 0.015162487514317036, -0.14872649312019348, -0.1784985363483429, 0.19871193170547485, 0.05320437252521515, 0.07627266645431519, -0.035510994493961334, -0.0177387036383152, 0.14885970950126648, 0.15307454764842987, 0.219567209482193, 0.02614702098071575, 0.13597753643989563, 0.13576547801494598, 0.26109403371810913, -0.013970749452710152, 0.024680033326148987, -0.28327298164367676, -0.04133318364620209, 0.08573722839355469, -0.31090474128723145, -0.08131285756826401, -0.09770605713129044, 0.06103115528821945, -0.08728931844234467, 0.03164421766996384, 0.09077341109514236, -0.1787884384393692, -0.217658132314682, -0.0973704531788826, -0.06402736902236938, 0.0876503437757492, 0.22801664471626282, -0.10718384385108948, -0.07720697671175003, 0.1881880760192871, 0.23737530410289764, -0.052407994866371155, -0.023894090205430984, 0.04363289102911949, -0.21080774068832397, -0.3055245578289032, 0.1751798391342163, -0.21857526898384094, -0.2811066508293152, 0.10273152589797974, -0.10389158129692078, -0.11960352957248688, 0.06746254116296768, -0.15579238533973694, -0.01567160338163376, -0.15080928802490234, 0.2754218578338623, 0.08310624212026596, 0.25107136368751526, 0.08998239040374756, -0.10343781113624573, -0.09127737581729889, 0.048730168491601944, 0.1584455668926239, 0.21051239967346191, 0.16042636334896088, 0.23528838157653809, 0.1941257268190384, -0.14561563730239868, 0.20257695019245148, -0.1081107035279274, -0.03329979628324509, -0.08656434714794159, 0.21239584684371948, 0.21937189996242523, 0.25804075598716736, -0.02050662413239479, -0.04255278408527374, 0.17524591088294983, 0.049506429582834244, 0.058959946036338806, 0.19289138913154602, -0.05214502662420273, 0.030672501772642136, 0.3210611045360565, -0.08670797199010849, -0.35609567165374756, 0.07664895802736282, 0.2868086099624634, -0.0823543518781662, -0.30160537362098694, -0.13464467227458954, 0.34584498405456543, -0.08307525515556335, -0.09378676861524582, 0.05785940960049629, 0.3198831379413605, 0.2796734869480133, 0.029376676306128502, -0.02439894527196884, 0.06286299973726273, 0.26750296354293823, 0.06590715050697327, 0.02049633301794529, 0.32417482137680054, 0.25514495372772217, 0.2575570046901703, -0.1938808262348175, 0.044412028044462204, 0.04742736369371414, 0.02952643670141697, 0.14011836051940918, -0.14585131406784058, 0.056631531566381454, 0.2789594531059265, -0.11410129815340042, -0.17154432833194733], [0.2597365975379944, 0.3074614703655243, -0.3064902126789093, -0.05512323975563049, 0.18505622446537018, -0.3384450674057007, -0.3207037150859833, -0.21595412492752075, 0.1713927537202835, -0.008776427246630192, -0.3131817579269409, 0.07454787939786911, 0.22135008871555328, 0.10161621868610382, -0.08652572333812714, 0.08342042565345764, -0.2127644568681717, -0.11683103442192078, 0.238831028342247, 0.2696629762649536, -0.16305109858512878, -0.0012523262994363904, -0.2690223753452301, 0.03714340552687645, -0.05283522978425026, -0.10857971757650375, -0.06934214383363724, 0.23002733290195465, 0.2400997281074524, -0.08852542191743851, -0.0788903534412384, 0.10835433006286621, -0.05696601793169975, -0.08258923888206482, 0.3726590871810913, -0.024034233763813972, -0.2032366394996643, 0.10292242467403412, -0.07215531170368195, -0.12610530853271484, -0.19027310609817505, 0.1076279804110527, 0.02466565929353237, -0.15889209508895874, 0.018839629366993904, -0.0014287979574874043, -0.14166055619716644, -0.38975706696510315, 0.11532758176326752, -0.14847713708877563, 0.18547110259532928, -0.10525105893611908, 0.012916848063468933, 0.07998119294643402, 0.08408516645431519, -0.11212548613548279, -0.1350652426481247, -0.27815285325050354, 0.1601700335741043, 0.11657270044088364, -0.10427460074424744, -0.07263041287660599, 0.0647469311952591, -0.18263940513134003, -0.24396449327468872, -0.15424929559230804, 0.11219153553247452, -0.12262596935033798, 0.009190648794174194, -0.045485302805900574, -0.16457393765449524, -0.20920313894748688, -0.11632569879293442, 0.18684342503547668, 0.03206503763794899, 0.18626026809215546, -0.13617025315761566, -0.250673770904541, -0.12383690476417542, -0.13458630442619324, 0.024772245436906815, -0.41277560591697693, -0.024766307324171066, -0.12733255326747894, -0.07593770325183868, -0.10342549532651901, 0.3325256407260895, 0.2710542678833008, -0.20606504380702972, -0.3044236898422241, 0.07309646904468536, -0.06002475321292877, 0.014766011387109756, -0.17384448647499084, -0.13280703127384186, 0.06356089562177658, 0.14791789650917053, -0.06753848493099213, 0.2916945219039917, 0.0481441393494606, -0.10534533858299255, -0.09646856039762497, -0.4433262348175049, -0.07974449545145035, -0.3491775095462799, -0.3982279896736145, 0.03879318758845329, 0.1295527070760727, 0.08447666466236115, -0.031922657042741776, -0.1719675064086914, 0.03195572271943092, -0.18050368130207062, 0.2015668749809265, 0.22822311520576477, 0.12060093134641647, -0.18737494945526123, -0.21884968876838684, -0.14249543845653534, -0.2839406430721283, 0.14428886771202087, -0.20463337004184723, 0.013495122082531452, 0.2521945834159851, 0.10932755470275879, 0.12366760522127151, -0.40252232551574707, -0.10429304093122482], [0.04767918586730957, -0.062341202050447464, 0.26033294200897217, -0.02313871681690216, 0.02879735641181469, 0.1495446264743805, 0.2962116301059723, 0.0008388914866372943, 0.16654685139656067, -0.18270732462406158, 0.10218176990747452, -0.07199029624462128, 0.15859059989452362, 0.10584573447704315, 0.045722901821136475, 0.18977992236614227, -0.07905736565589905, 0.20403705537319183, 0.2991239130496979, -0.08266973495483398, 0.06690586358308792, 0.04366884008049965, -0.1362244337797165, -0.10160530358552933, -0.1548847109079361, 0.06539231538772583, -0.10227330029010773, 0.041057948023080826, 0.034471411257982254, -0.07413898408412933, -0.12421136349439621, -0.2059258669614792, -0.18240134418010712, -0.4086169898509979, -0.12207106500864029, -0.14431457221508026, -0.013459221459925175, 0.13806401193141937, 0.3588186502456665, 0.16003163158893585, 0.014432675205171108, -0.22386880218982697, -0.11604420840740204, 0.06198412925004959, -0.08503343909978867, -0.2635062038898468, 0.17717768251895905, 0.06176469475030899, -0.3611246943473816, -0.20715190470218658, 0.04777580499649048, 0.2934316098690033, -0.08534171432256699, 0.08460129797458649, 0.037070322781801224, -0.03279273211956024, -0.24673837423324585, -0.11713072657585144, 0.24980707466602325, -0.17088699340820312, -0.2616918981075287, 0.07917015999555588, 0.11596167832612991, 0.14418697357177734, 0.07731664180755615, 0.09527478367090225, 0.08455022424459457, -0.12951421737670898, 0.11464037746191025, 0.3473617434501648, -0.044189512729644775, 0.03795437887310982, 0.05469677969813347, -0.03799979016184807, 0.1968035101890564, 0.2662466764450073, 0.16711366176605225, 0.355690598487854, 0.13347864151000977, 0.10172133147716522, -0.16424866020679474, -0.20401093363761902, 0.21291272342205048, -0.140403613448143, 0.01677330583333969, 0.26099053025245667, 0.06015561521053314, -0.11715206503868103, 0.06643106043338776, 0.24048565328121185, -0.28609907627105713, 0.15910881757736206, -0.24607080221176147, -0.006272166036069393, 0.4100921154022217, 0.08664463460445404, -0.0766097903251648, 0.062471408396959305, 0.1277511864900589, -0.04392404109239578, 0.19417627155780792, -0.14479485154151917, 0.1606903076171875, 0.07994438707828522, 0.01860499195754528, 0.40157023072242737, 0.08010027557611465, 0.181132972240448, -0.11948758363723755, 0.14909817278385162, 0.16384685039520264, 0.11743567883968353, 0.04313942417502403, -0.08317356556653976, 0.03477994725108147, -0.05833618342876434, 0.1251365691423416, 0.06098132207989693, 0.16669407486915588, 0.15850864350795746, -0.2632743716239929, 0.26236286759376526, -0.15900884568691254, 0.16201944649219513, -0.057316139340400696, 0.07641647756099701, 0.20031775534152985, 0.23472799360752106], [-0.004153207875788212, -0.027851900085806847, 0.19399040937423706, -0.09886805713176727, -0.025745971128344536, 0.16789765655994415, 0.13132339715957642, 0.08573661744594574, -0.2974519431591034, -0.2719419300556183, -0.2023288458585739, -0.015288228169083595, 0.10457496345043182, 0.17127473652362823, -0.10515379905700684, 0.13319551944732666, -0.05028704181313515, 0.05295142903923988, -0.20426300168037415, -0.018631987273693085, -0.0984794870018959, -0.2551153898239136, 0.009338665753602982, 0.09119336307048798, -0.16870927810668945, -0.15504829585552216, -0.09596413373947144, -0.02806483395397663, 0.27650511264801025, -0.06367851793766022, 0.19665051996707916, -0.03197731822729111, 0.05351324379444122, -0.15987256169319153, -0.0049392846412956715, 0.17891131341457367, 0.18107196688652039, -0.1433696448802948, -0.2809627652168274, 0.24326933920383453, -0.07329758256673813, 0.20545990765094757, 0.03203215450048447, 0.1301041692495346, 0.04620163515210152, 0.002360544865950942, -0.1504199504852295, 0.21210001409053802, 0.06257962435483932, -0.02362901344895363, 0.22212499380111694, 0.007329744752496481, 0.035080354660749435, -0.2396089881658554, 0.08156256377696991, 0.14080995321273804, 0.12805840373039246, -0.21074146032333374, 0.012740185484290123, 0.19961540400981903, 0.1918020397424698, 0.21716701984405518, 0.0018014980014413595, 0.1788991391658783, -0.15187762677669525, 0.03848022595047951, 0.19762374460697174, 0.16578154265880585, 0.10463982075452805, -0.11466926336288452, -0.09780897200107574, -0.004904741887003183, 0.3072401285171509, -0.20999591052532196, -0.05990930646657944, -0.04511202126741409, -0.129391610622406, -0.23824012279510498, 0.024284617975354195, 0.11151245981454849, -0.014457824639976025, -0.12993308901786804, -0.3007223904132843, 0.17613695561885834, 0.08902694284915924, -0.1355232149362564, -0.07679011672735214, 0.13653896749019623, 0.25672388076782227, 0.12373771518468857, 0.10098873823881149, -0.07813973724842072, 0.11368003487586975, 0.2161458432674408, 0.0008229805389419198, -0.4695851504802704, 0.15944136679172516, 0.06350290030241013, 0.11539453268051147, -0.49377328157424927, 0.41962456703186035, 0.138657346367836, -0.013191652484238148, -0.04316408932209015, 0.03603510186076164, -0.15562063455581665, -0.010259045287966728, -0.05340966582298279, -0.3702295124530792, -0.126242533326149, 0.11139261722564697, -0.10774730145931244, -0.173573836684227, -0.11366544663906097, -0.38585445284843445, 0.05306961387395859, 0.10499811917543411, -0.0982384979724884, -0.02670496515929699, 0.16345654428005219, 0.27764594554901123, -0.06097722426056862, -0.06666457653045654, -0.024868924170732498, -0.1474425196647644, -0.13730725646018982, -0.005228910595178604, -0.17020462453365326], [-0.18514971435070038, -0.24536427855491638, -0.020018817856907845, -0.0086232740432024, 0.040803536772727966, 0.01318056508898735, -0.16088667511940002, -0.09167863428592682, -0.018978560343384743, 0.05505795404314995, -0.11627143621444702, 0.010372428223490715, 0.06507733464241028, -0.012648185715079308, 0.02024099789559841, -0.062216851860284805, -0.13414378464221954, -0.07423104345798492, -0.09009099006652832, 0.10632795095443726, 0.20846682786941528, -0.09090898185968399, 0.04457646235823631, -0.14959841966629028, 0.17131417989730835, -0.03494563698768616, -0.1521933376789093, 0.023119617253541946, -0.2024066150188446, 0.0348692387342453, 0.016811983659863472, -0.03548990190029144, 0.07384829968214035, -0.005388809368014336, -0.020968377590179443, -0.05072071775794029, 0.022127291187644005, -0.059299666434526443, -0.14451023936271667, -0.08695432543754578, 0.16853021085262299, -0.05746537446975708, -0.04586348310112953, 0.07369092106819153, 0.09240186214447021, 0.12785612046718597, 