{"log_std": [-1.3507061004638672, -2.2725746631622314], "mlp_extractor.policy_net.0.weight": [[0.06565515697002411, -0.17181627452373505, 0.1277388036251068, 0.03853645175695419, -0.08725947886705399, 0.14076857268810272, -0.3817279636859894, 0.4133133590221405, -0.2370268553495407, -0.22180616855621338, 0.00906979851424694, 0.22118933498859406, -0.01221528835594654, 0.09676264971494675, -0.4717092514038086, 0.5952452421188354, 0.029526393860578537], [0.24883535504341125, 0.0587492436170578, 0.05512486398220062, -0.10363450646400452, 0.11348345875740051, 0.5513978004455566, -0.361666738986969, -0.038894928991794586, 0.041006434708833694, -0.09025869518518448, -0.24284964799880981, 0.3909589350223541, -0.21506112813949585, -0.3822947144508362, -0.03271089121699333, -0.03963303565979004, -0.4492507576942444], [0.06339613348245621, 0.4679185152053833, 0.2872084975242615, 0.12310232222080231, 0.290804922580719, 0.017550043761730194, -0.0294045303016901, -0.3709350824356079, -0.36744987964630127, -0.2597584128379822, -0.42528820037841797, -0.17820729315280914, 0.6708695888519287, -0.6050320863723755, 0.11508401483297348, -0.18612462282180786, 0.012701098807156086], [-0.19124627113342285, 0.3477270007133484, -0.26588088274002075, 0.24538053572177887, -0.32973766326904297, 0.10177595913410187, -0.2951490581035614, -0.02869713306427002, 0.15645767748355865, 0.28226420283317566, -0.1497700959444046, 0.25590771436691284, -0.1649169772863388, -0.15417495369911194, -0.31815314292907715, 0.14666491746902466, -0.5540671348571777], [0.34848761558532715, 0.40084949135780334, 0.38084501028060913, 0.41548842191696167, -0.11242388188838959, -0.04397179186344147, -0.1331498771905899, -0.2655543386936188, -0.4299280643463135, -0.5231015086174011, -0.05110626295208931, -0.48495247960090637, 0.1601850837469101, 0.14372023940086365, 0.1842033714056015, 0.2756514251232147, -0.1361612230539322], [-0.16703598201274872, 0.27461084723472595, -0.08477862924337387, 0.1926528960466385, 0.2817235291004181, 0.14769554138183594, -0.587600827217102, 0.3585352897644043, -0.1905219852924347, -0.028530418872833252, 0.0970550999045372, 0.22790095210075378, 0.025162911042571068, -0.3062298893928528, -0.4666363298892975, 0.31174537539482117, 0.047149959951639175], [0.10341577231884003, 0.4010210931301117, -0.12935125827789307, -0.6106908321380615, -0.08753277361392975, 0.08453217148780823, 0.32814228534698486, 0.5229514837265015, 0.19384948909282684, 0.2868746817111969, 0.007323323283344507, 0.19836993515491486, -0.29218316078186035, -1.1986384391784668, -0.07412498444318771, 0.3722134828567505, -0.0620228536427021], [0.18330352008342743, -0.04808565974235535, 0.6254373788833618, -0.18587057292461395, -0.1341758370399475, 0.23175868391990662, 0.35073432326316833, 0.3337967097759247, 0.1556735783815384, 0.4890994131565094, 0.35717514157295227, 0.4860233664512634, 0.5932825803756714, -0.1533389538526535, 0.04460340365767479, -0.05074898898601532, 0.18034705519676208], [-0.17603015899658203, -0.47101786732673645, -0.09479325264692307, -0.17208854854106903, 0.3920333683490753, -0.2042853683233261, 0.5925171375274658, -0.4699660539627075, 0.0762147605419159, 0.030575918033719063, 0.1960829496383667, 0.4489368200302124, 0.4128512442111969, 0.31405335664749146, 0.36597296595573425, -0.49385714530944824, 0.03605107218027115], [-0.10554265230894089, -0.1260853260755539, 0.49862778186798096, 0.27140888571739197, 0.0657690167427063, -0.03223271295428276, 0.39748695492744446, 0.13052460551261902, -0.06342994421720505, 0.16015006601810455, 0.31712186336517334, 0.18660202622413635, 1.2413605451583862, 0.171597421169281, 0.2753980755805969, -0.2711993455886841, 0.09205702692270279], [0.03691139817237854, -0.39043480157852173, -0.36307305097579956, 0.21912765502929688, -0.041181549429893494, -0.114966481924057, -0.38000842928886414, -0.34311994910240173, 0.11416015774011612, -0.044583916664123535, 0.17110370099544525, -0.28155502676963806, -0.29015499353408813, 0.467995285987854, -0.047141872346401215, 0.04140446335077286, 0.025072593241930008], [-0.04063425958156586, -0.2780377268791199, 0.22013218700885773, 0.14310604333877563, -0.08270768076181412, -0.06679266691207886, -0.2120123654603958, 0.05671348795294762, -0.13643880188465118, 0.06796018779277802, 0.5615751147270203, -0.2276569902896881, 0.20141327381134033, 0.5026594996452332, -0.10996779799461365, -0.1730092614889145, 0.011637838557362556], [0.5222471356391907, -0.012555566616356373, 0.17387838661670685, 0.12092190235853195, -0.04586354270577431, -0.05716691538691521, 0.09002164006233215, -0.048977430909872055, 0.2622981071472168, 0.10285601764917374, 0.11594489961862564, 0.13372348248958588, -0.03266715258359909, 0.09964627027511597, 0.06520700454711914, -0.15012672543525696, 0.11358148604631424], [0.27485305070877075, -0.2660263180732727, -0.16388337314128876, -0.22152699530124664, -0.20778575539588928, -0.3850897550582886, -0.2418043464422226, -0.44752150774002075, 0.0025839644949883223, 0.002879586536437273, 0.30170154571533203, -0.07525159418582916, -0.2200942188501358, 0.18449875712394714, -0.016928309574723244, -0.33148249983787537, 0.03664211556315422], [0.14805005490779877, 0.6620411276817322, 0.13241545855998993, 0.005627327598631382, 0.00894108135253191, 0.21306461095809937, 0.22051368653774261, 0.06660167127847672, 0.05657409504055977, -0.19433315098285675, -0.3604988753795624, -0.12527933716773987, 0.04666869714856148, -0.4603843092918396, 0.28835102915763855, 0.20394441485404968, -0.002947717672213912], [-0.199243426322937, 0.030496304854750633, -0.08929523080587387, -0.15217013657093048, -0.10078262537717819, -0.20051267743110657, -0.45779651403427124, -0.21984192728996277, 0.1647057980298996, 0.8455499410629272, -0.2311401516199112, 0.09126773476600647, 0.1509738713502884, -0.16190871596336365, -0.6474067568778992, -0.5903332829475403, 0.39268749952316284], [-0.1927727907896042, -0.006843192037194967, 0.5216288566589355, 0.006963948253542185, 0.07291198521852493, -0.09751147776842117, 0.4617990255355835, 0.2720489203929901, 0.2152714729309082, 0.09634852409362793, -0.05762278288602829, 0.11515484750270844, 1.3599658012390137, 0.044157639145851135, 0.09609175473451614, -0.008716590702533722, 0.031763989478349686], [0.18660156428813934, 0.13071013987064362, -0.020647292956709862, -0.1535876840353012, -0.20141471922397614, 0.2322070449590683, -0.33455896377563477, 0.14809882640838623, 0.2595653235912323, 0.32886168360710144, -0.05744766443967819, -0.3370942175388336, -0.16730313003063202, -0.3293549418449402, -0.22847558557987213, -0.3686971068382263, 0.31103095412254333], [0.3567114472389221, -0.23821507394313812, 0.22683048248291016, 0.030143849551677704, 0.06733619421720505, 0.08598796278238297, 0.2577114701271057, -0.4005276560783386, 0.06424739956855774, -0.1465206891298294, 0.22879678010940552, -0.31769320368766785, -0.421645849943161, 0.3346010744571686, 0.2071661502122879, 0.2574925720691681, 0.164927676320076], [0.08962791413068771, -0.051869407296180725, 0.2601656913757324, 0.3003147840499878, -0.17554955184459686, 0.09169114381074905, 0.11719466000795364, 0.10597166419029236, 0.14348764717578888, 0.19962522387504578, -0.21730604767799377, 0.07894939184188843, 0.15378998219966888, 0.390501469373703, 0.1492711752653122, 0.0765005350112915, 0.36914190649986267], [-0.09831460565328598, 0.16035671532154083, -0.1411147266626358, -0.09166625887155533, 0.3255947530269623, 0.3789657950401306, 0.45552006363868713, 0.908566415309906, 0.03275870531797409, 0.4033416509628296, -0.2752523124217987, 0.049092140048742294, -0.06415441632270813, -0.136990025639534, 0.2196132242679596, 0.4357311427593231, -0.07052187621593475], [-0.20091253519058228, -0.17914718389511108, 0.2853843569755554, -0.1360866278409958, -0.06559619307518005, 0.09963054209947586, -0.49958986043930054, -0.11580042541027069, -0.25119614601135254, 0.2645745575428009, -0.05359436944127083, -0.27611514925956726, 0.05592016130685806, 0.1310369074344635, -0.053075794130563736, -0.2247481346130371, -0.3229038119316101], [-0.5872924327850342, -0.22734829783439636, 0.3856687545776367, 0.46914803981781006, -0.07339474558830261, 0.10585600882768631, 0.5364526510238647, 0.2002078741788864, 0.3046844005584717, 0.16964399814605713, -0.3661360442638397, 0.44283199310302734, 0.27262046933174133, 0.23842878639698029, 0.32579946517944336, 0.06371517479419708, -0.11755049228668213], [-0.08249799907207489, 0.38073045015335083, 0.27983129024505615, 0.1570224165916443, 0.32118040323257446, 0.215056911110878, -0.16098128259181976, -0.05609040707349777, -0.21016550064086914, -0.5071706175804138, 0.19523589313030243, -0.6536881327629089, 0.31718704104423523, 0.2545369565486908, -0.1065230518579483, 0.3127295672893524, -0.19651848077774048], [0.1938662976026535, 0.1196298897266388, 0.20668506622314453, -0.41450923681259155, -0.06339479982852936, 0.1180928498506546, 0.1717551350593567, 0.002165115438401699, -0.13252399861812592, -0.2240586131811142, -0.0714779794216156, 0.09723393619060516, 0.1286565512418747, -0.7373941540718079, -0.029429495334625244, 0.3037542998790741, -0.10284329950809479], [-0.23470847308635712, -0.09692709892988205, -0.17589345574378967, 0.3600981533527374, 0.19875280559062958, 0.033193234354257584, -0.3002840280532837, -0.32945898175239563, 0.03534233197569847, -0.27888309955596924, 0.048086199909448624, -0.06643867492675781, -0.34064432978630066, 0.21259747445583344, -0.40646791458129883, -0.19557970762252808, 0.03252733126282692], [0.45072683691978455, 0.24021948873996735, 0.1553766280412674, 0.11888683587312698, 0.05299245938658714, 0.48693418502807617, -0.20386412739753723, 0.04957537725567818, -0.23048460483551025, 0.10645692050457001, -0.345217764377594, -0.2111288458108902, -0.11234693229198456, -0.08469855785369873, 0.3537191152572632, 0.02173401042819023, -0.019269853830337524], [0.4280080497264862, -0.23460298776626587, 0.2762424349784851, -0.03647828474640846, -0.013175015337765217, -0.10029961913824081, 0.2277349978685379, 0.03827010095119476, -0.06090725585818291, -0.04204010218381882, 0.14267824590206146, 0.3985412120819092, -0.06406412273645401, -0.21272826194763184, 0.27143821120262146, -0.06306202709674835, 0.0040275296196341515], [0.1845189929008484, -0.1236676573753357, -0.1411474198102951, -0.06881511956453323, -0.05783655866980553, 0.16659162938594818, -0.596779465675354, 0.48395371437072754, -0.46564623713493347, 0.03816112130880356, 0.10604261606931686, 0.14230814576148987, -0.512833833694458, -0.09109745174646378, -0.1161341443657875, 0.33299389481544495, -0.5219574570655823], [-0.26915106177330017, -0.18473787605762482, -0.22266672551631927, 0.21293066442012787, 0.12747007608413696, -0.5556914210319519, -0.3022782802581787, 0.40593191981315613, -0.5817978382110596, -0.23799124360084534, 0.19638383388519287, 0.06903307884931564, -0.2703510820865631, 0.12650519609451294, 0.11496119201183319, 0.5490432977676392, -0.0777287632226944], [-0.06347518414258957, 0.0705922469496727, -0.08699945360422134, 0.1959136575460434, -0.2496027648448944, 0.27174925804138184, -0.044529058039188385, 0.15602947771549225, -0.3257455825805664, 0.017270902171730995, 0.19193874299526215, 0.2508763074874878, 0.17963412404060364, 0.34539756178855896, 0.175343319773674, 0.21451249718666077, -0.12933506071567535], [0.3351035416126251, -0.14860831201076508, -0.13873302936553955, 0.15473589301109314, -0.0034511859994381666, -0.11393500864505768, -0.1989823877811432, -0.31309106945991516, -0.36879318952560425, -0.278531014919281, -0.045367322862148285, 0.3994993269443512, -0.2894781529903412, 0.1380331814289093, 0.10208172351121902, 0.14967133104801178, -0.004283010959625244], [-0.22895745933055878, -0.03750825300812721, -0.5224131941795349, -0.11120821535587311, 0.09693033248186111, 0.07172510772943497, 0.3904341161251068, -0.10618003457784653, 0.4088701009750366, 0.29094719886779785, 0.02472500503063202, 0.2362351268529892, -0.2007150501012802, -0.22438782453536987, -0.07363426685333252, -0.10584435611963272, -0.19330629706382751], [-0.10983629524707794, -0.2964552938938141, -0.31446197628974915, -0.02715136483311653, 0.29164138436317444, -0.2512117028236389, 0.5917429327964783, -0.08894632011651993, 0.19676320254802704, -0.018454506993293762, 0.15178954601287842, -0.09385926276445389, 0.1861342191696167, 0.31639325618743896, -0.1354970633983612, 0.0035649696364998817, 0.24447685480117798], [-0.140168234705925, -0.10577595233917236, -0.24960318207740784, -0.2013852447271347, 0.2555702328681946, 0.4450482726097107, 0.28758108615875244, 0.6450977325439453, 0.1428680717945099, 0.2768445611000061, 0.3052436113357544, 0.2049248069524765, -0.089220330119133, -0.3355655372142792, 0.5201411247253418, 0.41593897342681885, -0.14691029489040375], [-0.1997484713792801, -0.36103856563568115, 0.37690550088882446, -0.001083860406652093, -0.13795748353004456, 0.11953825503587723, -0.22136318683624268, 0.039509065449237823, -0.3405067026615143, -0.04614285007119179, 0.18378274142742157, 0.590474009513855, 0.8033713698387146, -0.03220324590802193, 0.11364845186471939, 0.23791123926639557, -0.11138413846492767], [-0.32375362515449524, 0.18213868141174316, -0.41356953978538513, -0.03469592332839966, 0.10459177941083908, 0.09710615128278732, 0.24536149203777313, -0.26289886236190796, 0.021790843456983566, 0.027720486745238304, 0.2839847803115845, 0.05015778914093971, -0.25635817646980286, -0.12417244166135788, -0.06727976351976395, -0.14462518692016602, 0.27665093541145325], [0.2608981132507324, -0.3120681941509247, 0.01137041486799717, 0.17738541960716248, -0.18860848248004913, 0.4504075050354004, 0.34677132964134216, -0.285915732383728, 0.472110390663147, -0.07242459803819656, 0.49573925137519836, 0.2757355570793152, 0.06342887878417969, 0.12067060172557831, 0.20843012630939484, -0.2998511791229248, 0.4465092420578003], [0.20403596758842468, 0.3385631740093231, -0.009636315517127514, -0.6354656219482422, 0.08076726645231247, -0.2581173777580261, 0.06974058598279953, 0.5334692001342773, -0.21256764233112335, 0.26493820548057556, 0.024192335084080696, 0.1422608494758606, -0.2864735722541809, -1.1229591369628906, -0.12333178520202637, 0.30149704217910767, -0.02457018569111824], [0.3661233186721802, 0.44787678122520447, 0.03641965985298157, -0.14239944517612457, 0.163888618350029, 0.3494339883327484, 0.42097967863082886, -0.03033336065709591, -0.008156557567417622, -0.1483251005411148, -0.4737005829811096, 0.24169045686721802, -0.2115919142961502, -0.30215150117874146, 0.47256165742874146, 0.13059523701667786, -0.12664641439914703], [-0.2842850685119629, -0.22515855729579926, 0.0006952025578357279, -0.17987310886383057, -0.07287026196718216, -0.21479536592960358, 0.2506450414657593, -0.3597300946712494, 0.14734449982643127, -0.42348647117614746, 0.33382943272590637, -0.312362402677536, 0.3709154427051544, 0.5667544007301331, 0.29805415868759155, 0.3121148645877838, 0.01935923472046852], [0.20569981634616852, -0.24999894201755524, -0.38845646381378174, 0.47255852818489075, -0.10646156221628189, -0.00787036307156086, -0.4009001851081848, 0.016757110133767128, -0.3529534935951233, 0.2629060447216034, -0.06722503900527954, -0.0476059727370739, -0.21115027368068695, 0.4246154725551605, -0.003309176303446293, 0.025200987234711647, 0.24751485884189606], [0.3787187337875366, -0.40624797344207764, 0.12203065305948257, -0.06976990401744843, 0.11916231364011765, -0.2547926604747772, 0.41156071424484253, 0.011438618414103985, -0.07935886085033417, 0.1510389894247055, -0.4799380600452423, 0.16955922544002533, -0.035778287798166275, 0.11845050752162933, 0.18054024875164032, -0.03126446530222893, -0.1276274025440216], [-0.11291953176259995, -0.008505351841449738, -0.5527639389038086, -0.27837035059928894, 0.050441838800907135, -0.004407508764415979, 0.05112077668309212, 0.45835670828819275, 0.31994855403900146, 0.22579893469810486, -0.06841422617435455, 0.25540485978126526, -0.14936617016792297, -0.30230897665023804, -0.09619708359241486, -0.010134197771549225, -0.035088155418634415], [0.28205379843711853, 0.0020950057078152895, -0.2994118928909302, -0.11075975745916367, -0.02529832534492016, 0.242997944355011, -0.3687266409397125, 0.23757030069828033, 0.06517531722784042, 0.28185057640075684, 0.2025601714849472, 0.19803491234779358, -0.6722999811172485, -0.026793725788593292, -0.35492318868637085, -0.34864571690559387, 0.05372702330350876], [-0.04843919724225998, -0.16621296107769012, 0.30976468324661255, 0.29640132188796997, -0.022698819637298584, 0.026976848021149635, 0.024637265130877495, 0.006977409590035677, 0.16916215419769287, 0.054551322013139725, -0.0925287976861, 0.07279765605926514, 0.6975541114807129, 0.5022852420806885, -0.07674773782491684, -0.13738694787025452, -0.06514425575733185], [-0.23800407350063324, 0.4804309010505676, 0.41865551471710205, -0.4753318428993225, -0.19332176446914673, 0.008195379748940468, 0.29237180948257446, 0.23717375099658966, 0.1919700801372528, -0.011438967660069466, 0.009775962680578232, 0.22877375781536102, 0.6196578145027161, -0.9568209052085876, 0.11559028923511505, 0.2940490245819092, -0.028749454766511917], [0.20911920070648193, 0.4465975761413574, -0.3502962589263916, -0.45183423161506653, 0.039334844797849655, 0.10487484186887741, 0.10100828856229782, 0.8194053173065186, 0.08969417959451675, 0.3621963560581207, 0.020614830777049065, 0.3264223635196686, -0.3205181956291199, -1.216413140296936, 0.13218878209590912, 0.0913843885064125, -0.1269271969795227], [0.03686422109603882, -0.25966089963912964, 0.13281847536563873, 0.2508767545223236, 0.012432241812348366, -0.12460105866193771, 0.12713316082954407, 0.034619372338056564, -0.3315390646457672, 0.05906534940004349, 0.20250624418258667, 0.3308795392513275, 0.09564510732889175, 0.5753891468048096, 0.416119247674942, 0.06527191400527954, -0.07707694172859192], [-0.3527003228664398, -0.08898036926984787, -0.3005583882331848, -0.22708413004875183, 0.2697157561779022, -0.42836594581604004, -0.11018192023038864, -0.48796483874320984, -0.18736091256141663, 0.05281917378306389, 0.3087335228919983, 0.08007056266069412, -0.054717741906642914, 0.10443662106990814, -0.0006988985114730895, -0.27249282598495483, -0.40242525935173035], [-0.10474569350481033, -0.3854791224002838, 0.18109850585460663, -0.22188885509967804, 0.010535950772464275, -0.15056973695755005, -0.38294103741645813, 0.197135791182518, -0.10071968287229538, 0.04457186535000801, 0.06677322834730148, -0.33302393555641174, 0.42850643396377563, -0.10278965532779694, -0.03171899914741516, 0.18256482481956482, -0.03848870471119881], [-0.3060048222541809, -0.018070725724101067, -0.35393187403678894, 0.10530044883489609, 0.3518132269382477, -0.5113534331321716, -0.4099586606025696, -0.29024186730384827, -0.0372174046933651, -0.23736454546451569, -0.36352163553237915, -0.3711082935333252, -0.07838373631238937, -0.21611763536930084, -0.3570648729801178, 0.1949155628681183, -0.3868198096752167], [0.18523834645748138, 0.13054728507995605, 0.11636781692504883, 0.46264612674713135, 0.0074976603500545025, -0.21148927509784698, -0.12857389450073242, 0.006527228746563196, -0.26978257298469543, -0.18056698143482208, 0.57933109998703, -0.044622551649808884, 0.07517623901367188, 0.34294119477272034, -0.03410964831709862, 0.14075051248073578, 0.2556224465370178], [-0.008180864155292511, -0.21547085046768188, -0.3292050361633301, 0.1579112857580185, 0.020289825275540352, 0.1377144753932953, 0.13407549262046814, -0.21334686875343323, -0.4199993312358856, -0.5762448310852051, 0.17104879021644592, -0.4013846516609192, -0.21789856255054474, 0.4769398868083954, 0.21710868179798126, 0.21308200061321259, 0.061965931206941605], [-0.28997570276260376, -0.11777419596910477, -0.09221363812685013, -0.33195313811302185, 0.04176425188779831, -0.09524498879909515, -7.321435987250879e-06, 0.4352247416973114, -0.0987577959895134, 0.0608086995780468, -0.4442788362503052, 0.5049834251403809, 0.2588680684566498, -0.20157355070114136, -0.22036373615264893, 0.20854856073856354, 0.4841241240501404], [-0.42080748081207275, 0.29791709780693054, -0.6299249529838562, -0.17897966504096985, -0.049808211624622345, 0.06955549120903015, -0.17234158515930176, 0.08404360711574554, 0.1143004521727562, 0.22339558601379395, 0.19795003533363342, -0.052247144281864166, 0.05702392756938934, -0.27721089124679565, 0.039827123284339905, -0.2592872381210327, 0.19515933096408844], [-0.12720812857151031, 0.06365006417036057, 0.5250632762908936, -0.060414232313632965, 0.010776125825941563, 0.06919033080339432, 0.481261283159256, 0.1408480554819107, 0.12907949090003967, 0.08826205879449844, -0.12850245833396912, 0.4244820475578308, 1.4883121252059937, 0.26847487688064575, 0.5703388452529907, 0.2791018784046173, -0.013175898231565952], [0.3795812129974365, 0.016074227169156075, 0.09291409701108932, 0.06171457841992378, 0.09769675880670547, 0.3001933991909027, -0.2529630661010742, 0.14665979146957397, 0.5443554520606995, 0.2777897119522095, -0.023694651201367378, -0.08320153504610062, 0.061977680772542953, 0.35057249665260315, -0.27633368968963623, -0.17328661680221558, 0.35142982006073], [0.14136555790901184, -0.005909869447350502, -0.104202039539814, 0.3880324959754944, 0.19427314400672913, 0.4219219386577606, -0.34082144498825073, 0.31886857748031616, -0.3192663788795471, 0.12718766927719116, -0.1740839034318924, -0.17739839851856232, 0.03404807299375534, 0.3289761543273926, -0.10505504906177521, 0.2536301016807556, -0.0026730578392744064], [-0.4711468815803528, 0.014572970569133759, -0.40719860792160034, -0.22143419086933136, 0.13939155638217926, 0.1650073379278183, -0.2652455270290375, -0.08167868852615356, -0.23780322074890137, 0.14626531302928925, 0.28506627678871155, -0.07082365453243256, -0.1393309086561203, -0.3779584765434265, -0.09488080441951752, 0.09431957453489304, 0.3082151710987091], [-0.373977929353714, 0.3333965837955475, -0.544847846031189, -0.2652733623981476, -0.1483340710401535, 0.034293271601200104, 0.11345411837100983, 0.16558244824409485, 0.21279563009738922, 0.16996143758296967, 0.10245554149150848, 0.09436773508787155, -0.0310974083840847, -0.5033145546913147, 0.10199397802352905, 0.023524364456534386, 0.01428802590817213], [0.06751512736082077, -1.5617863027728163e-05, -0.022086840122938156, 0.0833677425980568, -0.09645801782608032, 0.49164724349975586, -0.12915082275867462, 0.28060004115104675, -0.5666817426681519, -0.02551717311143875, -0.3126359283924103, 0.17914645373821259, -0.3737196624279022, 0.14335285127162933, 0.18810944259166718, 0.2421320527791977, 0.05852154642343521], [-0.13353699445724487, -0.09237637370824814, 0.3437490165233612, -0.24394626915454865, 0.23133227229118347, 0.5057069659233093, 0.1926511526107788, 0.48906460404396057, 0.45581233501434326, -0.11717736721038818, 0.07464875280857086, 0.2683281898498535, 0.37834838032722473, -0.28721216320991516, -0.22571155428886414, 0.21792149543762207, 0.4672704041004181], [-0.24558721482753754, 0.08343318104743958, -0.21409958600997925, -0.1652865707874298, -0.12495555728673935, -0.04119851067662239, 0.1714504510164261, -0.8254088759422302, 0.5758336186408997, -0.013004262000322342, -0.7013932466506958, -0.4097898602485657, -0.20177718997001648, 0.04565354809165001, -0.27316394448280334, -0.4924188256263733, 0.10817353427410126], [0.015190929174423218, -0.43504461646080017, -0.00891973078250885, 0.2981218993663788, 0.06567461788654327, -0.19240403175354004, 0.30608823895454407, -0.2169768512248993, 0.32372188568115234, -0.0021292022429406643, 0.15071585774421692, -0.011385747231543064, -0.0006741795805282891, 0.7969293594360352, 0.1643460988998413, 0.08189059793949127, -0.13653050363063812], [0.2406771034002304, -0.479285329580307, -0.1588786095380783, -0.19750776886940002, -0.030680669471621513, 0.04065454751253128, -0.05783485993742943, -0.1742667555809021, 0.13440191745758057, 0.5316007733345032, 0.10908693075180054, -0.29152214527130127, -0.3788873851299286, 0.14546486735343933, -0.35236668586730957, -0.5157588124275208, -0.22629161179065704], [-0.06059398874640465, 0.3007068932056427, 0.012612047605216503, 0.2839221954345703, 0.21610189974308014, -0.3606877326965332, 0.24193435907363892, 0.17394188046455383, -0.05584603548049927, 0.22112783789634705, -0.06583752483129501, -0.07248348742723465, -0.06926260888576508, -0.20894171297550201, 0.345147043466568, -0.10739326477050781, 0.2429054081439972], [0.10446043312549591, -0.17727360129356384, 0.18696068227291107, 0.15577763319015503, -0.3055150508880615, 0.30456212162971497, -0.2562403380870819, 0.4786180257797241, -0.5338494777679443, -0.0010696920799091458, -0.30919528007507324, -0.358990341424942, 0.08354975283145905, 0.3137612044811249, 0.029786009341478348, 0.4602808654308319, -0.0033809926826506853], [0.03522094339132309, -0.22549396753311157, 0.20786446332931519, -0.025079375132918358, 0.122885562479496, -0.03043762408196926, 0.6326492428779602, -0.17399536073207855, 0.14219367504119873, 0.23929080367088318, -0.12637321650981903, 0.5068303346633911, 0.4916360676288605, 0.390390008687973, 0.14925554394721985, -0.037154581397771835, 0.10406932979822159], [0.2725578248500824, 0.22220994532108307, 0.08260635286569595, 0.3007594645023346, 0.20171959698200226, 0.137403666973114, 0.2077942192554474, -0.31531158089637756, -0.5992653965950012, -0.19779114425182343, -0.05537682771682739, -0.018259719014167786, 0.04931775480508804, 0.02142029069364071, 0.45729318261146545, -0.12368643283843994, 0.1646144986152649], [0.12719649076461792, 0.06227721646428108, 0.585597038269043, 0.15362142026424408, -0.06712238490581512, 0.10846219211816788, -0.00047864692169241607, -0.34421584010124207, 0.04075295850634575, 0.05815110355615616, -0.01923588663339615, -0.22995330393314362, 1.7566652297973633, 0.2800745368003845, -0.07447264343500137, -0.1171143651008606, 0.09892188757658005], [-0.48160797357559204, 0.3120901882648468, -0.3253445625305176, 0.22533175349235535, -0.011636354960501194, 0.3481288254261017, -0.3078644871711731, 0.2565663158893585, 0.10357686877250671, -0.38517993688583374, -0.21858687698841095, -0.06688185781240463, -0.3557699918746948, 0.29203468561172485, -0.4031505584716797, 0.40716445446014404, -0.07612129300832748], [-0.2383323758840561, 0.0061159441247582436, -0.322284072637558, 0.08578170835971832, -0.04343297705054283, -0.03913111239671707, -0.2029164880514145, -0.8850645422935486, 0.22369085252285004, -0.20738983154296875, -0.3428873121738434, -0.08528044074773788, -0.44576603174209595, -0.03778451681137085, -0.3976823389530182, -0.5390428900718689, -0.02326914854347706], [0.4408522844314575, -0.29290300607681274, 0.2691652476787567, 0.05062175914645195, 0.17476439476013184, 0.23624300956726074, 0.04877573996782303, -0.04419310763478279, 0.04806828871369362, -0.05453638732433319, 0.09126348793506622, 0.15987344086170197, -0.1793888509273529, 0.40948277711868286, -0.14357922971248627, -0.37582483887672424, 0.1947941929101944], [0.19243530929088593, 0.41884809732437134, 0.5358862280845642, 0.13075320422649384, -0.06582466512918472, 0.09376917779445648, 0.3571077883243561, -0.36477792263031006, -0.29292231798171997, -0.18833844363689423, 0.03554242476820946, -0.11767515540122986, 0.06490545719861984, -0.3752020001411438, 0.4229815900325775, 0.016885051503777504, 0.18653719127178192], [0.0948118045926094, 0.08042465150356293, 0.25477245450019836, -0.09785068035125732, -0.28643998503685, 0.3724752962589264, 0.6127343773841858, -0.09081941097974777, -0.19806765019893646, 0.002288410672917962, 0.0427907295525074, 0.19869324564933777, 0.26402196288108826, -0.5496740341186523, 0.34294846653938293, 0.005165176000446081, 0.07823508232831955], [-0.0296206995844841, 0.042903780937194824, -0.0550771988928318, -0.23105952143669128, 0.1810266226530075, -0.16561295092105865, 0.3147975504398346, 0.4316692352294922, -0.075623519718647, 0.25012263655662537, 0.5298054814338684, 0.36779680848121643, 0.21202605962753296, -0.8796703815460205, 0.2646574378013611, 0.08396733552217484, 0.0791517049074173], [0.12220215052366257, 0.25673556327819824, 0.546615481376648, -0.0725892037153244, -0.15897829830646515, 0.150825634598732, 0.32160186767578125, -0.5199077725410461, 0.1512991487979889, -0.2736710011959076, 0.1263715922832489, -0.38932323455810547, 0.22516970336437225, -0.7035978436470032, -0.02710677683353424, -0.2597087621688843, -0.042852673679590225], [0.054604336619377136, 0.26608988642692566, 0.08701695501804352, 0.08780927956104279, -0.018185416236519814, -0.3372045159339905, 0.1732204258441925, 0.1753469705581665, 0.24143972992897034, -0.2632595896720886, 0.24203598499298096, 0.10002730041742325, -0.10092271119356155, -0.08593207597732544, 0.06528215855360031, -0.30350935459136963, -0.2161952257156372], [0.0720459371805191, -0.3166862726211548, 0.41304782032966614, -0.2681681215763092, 0.22287587821483612, 0.1837628334760666, 0.031974490731954575, 0.2927362024784088, -0.12413414567708969, 0.28070950508117676, 0.13454222679138184, 0.1255958080291748, 1.0750343799591064, -0.009701195172965527, 0.34212616086006165, 0.08415503054857254, -0.10284610092639923], [-0.37883391976356506, -0.010771072469651699, -0.5095414519309998, -0.3684149384498596, 0.12950046360492706, -0.022761426866054535, 0.04388674348592758, 0.5214145183563232, 0.10901425778865814, -0.2860458493232727, 0.3921593129634857, 0.11655645817518234, -0.1909855157136917, -0.5600487589836121, -0.02752319723367691, 0.452796995639801, 0.29829955101013184], [-0.18646270036697388, 0.2733917236328125, 0.2100156843662262, -0.4557012915611267, -0.04520716890692711, -0.07023484259843826, 0.1946774423122406, 0.515487015247345, 0.15982897579669952, 0.045333150774240494, -0.045919883996248245, 0.3498718738555908, 0.8209019899368286, -1.0342066287994385, -0.06337746232748032, -0.0011999602429568768, -0.037104543298482895], [-0.32499346137046814, -0.33202970027923584, -0.045903053134679794, 0.06381464749574661, 0.005055910442024469, 0.046151354908943176, -0.1385309398174286, -0.5268130898475647, -0.24335917830467224, -0.18306344747543335, -0.17497140169143677, -1.099313497543335, -0.0114686144515872, 0.5537073016166687, 0.07059478014707565, -0.07981953024864197, -0.22955258190631866], [-0.22977063059806824, 0.5160477161407471, -0.27933040261268616, 0.06613263487815857, 0.09393417090177536, -0.07231271266937256, 0.1534879505634308, -0.42228439450263977, 0.5759887099266052, 0.4608129560947418, 0.06354065984487534, -0.0633191242814064, -0.3387933671474457, -0.12602566182613373, -0.2207198590040207, -0.5013914704322815, 0.01567084714770317], [0.3178063929080963, 0.09081702679395676, -0.042388543486595154, 0.0653141587972641, -0.2520480751991272, -0.018799081444740295, 0.10275056958198547, 0.13317519426345825, 0.15797124803066254, 0.18985740840435028, -0.01806652918457985, 0.1266798973083496, -0.2748313248157501, -0.06406275928020477, -0.0266793854534626, -0.08756949752569199, -0.01812455989420414], [0.2587127089500427, 0.11311375349760056, 0.36775872111320496, -0.1969871073961258, 0.17493753135204315, 0.6117786765098572, 0.13028982281684875, -0.1807355284690857, 0.641453742980957, -0.257901132106781, 0.3509272336959839, 0.5348765850067139, -0.02565307356417179, -0.221652090549469, -0.017604844644665718, 0.13577070832252502, 0.1487739384174347], [-0.007872099056839943, -0.024754077196121216, -0.11234407126903534, -0.24217256903648376, -0.11196643114089966, 0.386177122592926, 0.3587926924228668, 0.3480750322341919, 0.16968396306037903, -0.5633602142333984, -0.5968176126480103, -0.0007656917441636324, -0.03483353182673454, -0.07989417016506195, -0.013372468762099743, 0.40749290585517883, -0.3611346483230591], [0.11682930588722229, -0.2302636206150055, 0.07856704294681549, 0.3182106912136078, -0.04108506813645363, -0.24233120679855347, -0.03186885267496109, -0.2753656208515167, 0.14232657849788666, -0.12111969292163849, 0.16930246353149414, 0.16185262799263, -0.11582618951797485, 0.7809246182441711, 0.07711577415466309, -0.10855213552713394, 0.20844770967960358], [-0.09480272978544235, 0.05663686618208885, 0.7751245498657227, 0.18735630810260773, 0.06358320266008377, 0.008368645794689655, 0.009499159641563892, -0.2835361063480377, 0.19125322997570038, -0.14908604323863983, -0.0654536560177803, -0.47263580560684204, 1.3181291818618774, 0.2349555641412735, 0.15581654012203217, -0.24460308253765106, -0.035257358103990555], [0.19005835056304932, 0.3190542161464691, -0.142850860953331, -0.22121743857860565, 0.11730731278657913, -0.4728599786758423, 0.5630905628204346, -0.007213172968477011, -0.1897522509098053, -0.2365078181028366, -0.10473794490098953, -0.5953816771507263, 0.1920984387397766, -0.389250248670578, 0.7083040475845337, 0.22612163424491882, -0.1221497505903244], [0.5252934694290161, 0.04543045908212662, -0.08067751675844193, -0.45773500204086304, 0.23722530901432037, -0.18003344535827637, 0.5232906341552734, 0.2793733477592468, -0.1476486623287201, 0.046887900680303574, -0.1577100306749344, 0.17942355573177338, -0.4777687191963196, -0.40436890721321106, 0.31802013516426086, 0.08936689794063568, -0.21952123939990997], [-0.051863569766283035, 0.11439962685108185, -0.18209944665431976, -0.03366566821932793, -0.10265175998210907, -0.2034645974636078, -0.008889054879546165, -0.5316159725189209, -0.2961660325527191, -0.47240740060806274, 0.47014737129211426, -0.16939407587051392, -0.24251626431941986, 0.05535510554909706, 0.2699660360813141, 0.08388565480709076, 0.30792149901390076], [-0.196528822183609, 0.05938061326742172, -0.03055608458817005, 0.42897528409957886, -0.23786959052085876, -0.04548928886651993, 0.5316312313079834, 0.17630422115325928, 0.1751028150320053, 0.02164972573518753, 0.1163107380270958, -0.1770218312740326, 0.08379097282886505, 0.3427720069885254, -0.01011970080435276, -0.08989868313074112, -0.02156667411327362], [-0.36058351397514343, 0.0038938613142818213, -0.43822047114372253, 0.08438549935817719, 0.2158103585243225, 0.1767696887254715, -0.4564722180366516, -0.3501448333263397, 0.09781749546527863, 0.04184901714324951, -0.478948712348938, 0.6660783290863037, -0.04093620926141739, -0.26161476969718933, -0.09406029433012009, -0.16117455065250397, 0.09221385419368744], [-0.3869168758392334, 0.3854658901691437, -0.44624635577201843, -0.002115923212841153, 0.31367093324661255, -0.05903557315468788, -0.41690224409103394, -0.23217016458511353, -0.24826069176197052, 0.24274779856204987, 0.2255704253911972, 0.039270903915166855, -0.00733542162925005, -0.030615046620368958, -0.3338111340999603, -0.10441023856401443, 0.23074640333652496], [-0.3373725414276123, -0.2723850905895233, -0.06501159816980362, -0.3435575067996979, 0.13300704956054688, 0.18270976841449738, -0.08205445110797882, 0.15830668807029724, 0.7618163824081421, 0.16477380692958832, 0.34169501066207886, 0.31893524527549744, -0.08784455806016922, -0.04853606969118118, -0.5505508780479431, 0.08101370185613632, -0.10059880465269089], [0.22664959728717804, -0.0247451551258564, -0.1652948260307312, -0.2555403709411621, -0.015750890597701073, 0.27399587631225586, -0.33889809250831604, -0.19334016740322113, 0.07666383683681488, 0.1542959362268448, -0.014697018079459667, 0.28262653946876526, -0.09915565699338913, -0.23283326625823975, -0.27542027831077576, -0.22460806369781494, 0.07950697839260101], [0.03176675736904144, -0.29230430722236633, 0.5260924100875854, 0.10007312148809433, 0.2333318144083023, 0.023429598659276962, 0.47862017154693604, 0.04939628019928932, -0.4166354835033417, -0.013065764680504799, 0.32900699973106384, 0.3899526000022888, 0.7921649217605591, 0.39611855149269104, 0.3612689673900604, -0.003861901583150029, -0.03547895699739456], [0.24725770950317383, 0.0725545585155487, 0.03281509503722191, 0.09974820911884308, -0.08448862284421921, -0.05856521427631378, 0.4976992607116699, 0.06418132781982422, 0.4419918656349182, -0.4518478214740753, 0.023827586323022842, 0.4540744125843048, -0.11820422857999802, -0.05630868300795555, 0.17871128022670746, 0.4817871153354645, 0.09011205285787582], [-0.4684348702430725, 0.24846388399600983, -0.26624369621276855, -0.10904800891876221, 0.09957142174243927, -0.0009147828677669168, -0.4655873477458954, 0.1393737643957138, 0.20037536323070526, 0.11123590916395187, 0.32117605209350586, 0.3510434925556183, 0.22921326756477356, -0.40163469314575195, -0.3911328613758087, 0.028078213334083557, 0.28330138325691223], [-0.12229635566473007, 0.049892958253622055, -0.31797119975090027, 0.07155788689851761, -0.2052583545446396, 0.23783355951309204, 0.5933613181114197, 0.17284908890724182, 0.14544229209423065, -0.05736103281378746, 0.35107657313346863, -0.37975427508354187, 0.012268556281924248, 0.20216941833496094, 0.29746702313423157, -0.06608616560697556, -0.5108301043510437], [-0.02031911164522171, 0.117377869784832, -0.5419064164161682, 0.3352971374988556, 0.06879451870918274, 0.11414477974176407, 0.07373461127281189, -0.12944431602954865, 0.3898608088493347, 0.4704902768135071, 0.3486444652080536, -0.20062248408794403, -0.023355845361948013, 0.011443689465522766, -0.32799938321113586, -0.1981046199798584, -0.12837520241737366], [-0.18508775532245636, 0.416726678609848, 0.41617268323898315, -0.14483420550823212, -0.20087362825870514, -0.06928563117980957, 0.11913046985864639, 0.2939213812351227, -0.041627757251262665, 0.28178471326828003, 0.23606862127780914, 0.44500723481178284, 0.5034581422805786, -0.9205072522163391, 0.10562708973884583, -0.26005417108535767, -0.04967954382300377], [0.24229787290096283, -0.10637029260396957, 0.30967476963996887, -0.12175362557172775, -0.14232920110225677, -0.4897923171520233, -0.1280328780412674, 0.5693579912185669, -0.21022477746009827, -0.11347709596157074, -0.13186140358448029, -0.31036177277565, 0.027040574699640274, -0.17413122951984406, 0.11115387082099915, 0.11210345476865768, -0.2602539360523224], [-0.05925372615456581, 0.09183350205421448, 0.7394428849220276, -0.1460648775100708, -0.059884171932935715, 0.054834142327308655, 0.3378407061100006, 0.2639060914516449, 0.003280411008745432, -0.007237233687192202, -0.24175317585468292, 0.38294681906700134, 1.8113112449645996, -0.017623646184802055, -0.025631384924054146, 0.17521856725215912, 0.0740344300866127], [-0.08309385180473328, 0.39604416489601135, 0.3330366313457489, -0.07256562262773514, -0.0007384381606243551, 0.190745010972023, 0.34245699644088745, 0.13106811046600342, -0.27462589740753174, 0.3359532058238983, 0.37529391050338745, 0.13370785117149353, 0.3148190379142761, -0.6470774412155151, 0.3326999843120575, -0.051066070795059204, -0.1538253128528595], [-0.3030067980289459, 0.0779431089758873, -0.39811697602272034, 0.16692061722278595, -0.19466634094715118, -0.13570499420166016, -0.2417674958705902, -0.17646539211273193, 0.09715746343135834, -0.17627857625484467, 0.26334187388420105, -0.2039370983839035, -0.2766956090927124, 0.08765530586242676, -0.35295337438583374, -0.22233858704566956, -0.2832944095134735], [0.23870564997196198, -0.1015528216958046, -0.25450170040130615, -0.21976818144321442, 0.015812251716852188, 0.09000552445650101, -0.3374028503894806, -0.17601953446865082, -0.24725423753261566, 0.5126484632492065, 0.2721936106681824, 0.47763925790786743, -0.18518291413784027, -0.20539627969264984, -0.16222156584262848, -0.3981068432331085, -0.09218008816242218], [0.2429433912038803, -0.5163620114326477, 0.15839944779872894, -0.25491711497306824, 0.10627568513154984, -0.1630232334136963, 0.23907031118869781, -0.08900701999664307, -0.02015683427453041, 0.1752612292766571, -0.44290027022361755, 0.2248220145702362, -0.24478214979171753, 0.49483075737953186, 0.11452637612819672, -0.17997319996356964, 0.15070924162864685], [0.15944920480251312, 0.16515062749385834, -0.018947314471006393, 0.20082548260688782, 0.2107388824224472, 0.43390175700187683, -0.14421126246452332, 0.4882984757423401, 0.09021219611167908, 0.29204419255256653, -0.20508624613285065, -0.2553066909313202, -0.3294263184070587, -0.023256614804267883, 0.2518167495727539, -0.05460787191987038, 0.109937384724617], [-0.33463460206985474, 0.49174192547798157, 0.16323667764663696, -0.28504011034965515, -0.3798373341560364, -0.05630022659897804, -0.10255768895149231, -0.27865031361579895, 0.23498190939426422, 0.03697429969906807, -0.05646752566099167, -0.10077709704637527, 0.25203514099121094, -0.28018489480018616, -0.6095182299613953, -0.24066628515720367, 0.05142446979880333], [0.13129347562789917, 0.3180665075778961, 0.2588216960430145, 0.3022751212120056, 0.19694893062114716, 0.2175189107656479, -0.4240392744541168, 0.16409923136234283, -0.007528217509388924, 0.10985323786735535, -0.045143190771341324, -0.11356721073389053, -0.028612429276108742, 0.20418159663677216, -0.19884783029556274, -0.03213805332779884, 0.4057575762271881], [0.38075441122055054, -0.5964353084564209, 0.11271876841783524, 0.030945464968681335, -0.09484375268220901, -0.13416174054145813, -0.0006887337076477706, -0.03523927927017212, -0.050616711378097534, -0.03844728320837021, 0.09037293493747711, 0.6190786361694336, 0.013399695977568626, 0.8158106803894043, -0.2628621757030487, 0.11568553745746613, -0.19766391813755035], [0.26645714044570923, -0.3370376527309418, -0.029590681195259094, 0.1759716272354126, 0.04408065974712372, -0.09444361180067062, 0.1796874850988388, -0.0918077826499939, 0.483763188123703, -0.09055212885141373, -0.03040480799973011, 0.4090366065502167, -0.19350245594978333, 0.7624458074569702, -0.07304578274488449, -0.13717959821224213, 0.37888073921203613], [-0.18679265677928925, -0.3256455361843109, -0.20700649917125702, -0.17890192568302155, -0.08536777645349503, -0.13866813480854034, 0.599457323551178, -0.3112368881702423, 0.4146815538406372, -0.10182156413793564, 0.07613997161388397, -0.3188508152961731, -0.06755953282117844, 0.2898837924003601, 0.08768218010663986, 0.11604175716638565, 0.12115168571472168], [0.40684354305267334, -0.2946707308292389, -0.13113805651664734, -0.16428351402282715, 0.00933745689690113, -0.08779069781303406, -0.3637792468070984, -0.26005980372428894, -0.09570729732513428, 0.4428413212299347, 0.03163847699761391, 0.3064611554145813, -0.37583205103874207, 0.20495767891407013, -0.27392804622650146, -0.45704421401023865, -0.18515028059482574], [-0.16344168782234192, 0.26479145884513855, 0.3863303065299988, -0.1926826387643814, 0.11086181551218033, -0.1424971967935562, -0.22838671505451202, 0.05744895339012146, -0.10688035190105438, -0.1377830058336258, 0.4367052912712097, 0.2678706645965576, 1.0965319871902466, -0.6244129538536072, 0.32122141122817993, 0.15716861188411713, 0.23892076313495636], [-0.23140999674797058, -0.24386106431484222, 0.14732998609542847, -0.3885123133659363, -0.02294611744582653, -0.10598545521497726, 0.11682471632957458, -0.30222898721694946, 0.15199768543243408, -0.11357591301202774, -0.6202126741409302, -0.3112452030181885, 0.33730122447013855, -0.1644352227449417, 0.20528146624565125, -0.16032831370830536, -0.5130701661109924], [-0.21151039004325867, 0.31809282302856445, -0.12622177600860596, 0.11539629846811295, -0.14617159962654114, -0.3855341076850891, -0.06118327006697655, -0.5668892860412598, -0.086115263402462, -0.15918834507465363, -0.2975076735019684, -0.3629460334777832, -0.13087807595729828, -0.1514763981103897, 0.16135729849338531, -0.33316922187805176, -0.3400524854660034], [-0.07812588661909103, 0.041908685117959976, 0.4751006066799164, 0.13216836750507355, -0.09376132488250732, 0.12173676490783691, 0.05042119696736336, -0.21973863244056702, 0.08060505986213684, 0.1699669510126114, -0.3388926684856415, -0.14689433574676514, 1.8962842226028442, 0.2268570065498352, 0.0018550571985542774, -0.18099664151668549, 0.10908643901348114], [-0.20200695097446442, -0.14705529808998108, 0.28482526540756226, -0.04860755801200867, -0.15734729170799255, -0.07010030001401901, -0.05805760994553566, 0.33353859186172485, -0.030041469261050224, -0.05751701444387436, -0.1344773918390274, 0.6844022870063782, 0.8907483220100403, 0.7847543954849243, -0.0005545327439904213, 0.07045433670282364, 0.03414901718497276], [0.07357513159513474, 0.5102316737174988, 0.4877241253852844, 0.0896325558423996, 0.03711984306573868, -0.05824502184987068, 0.07745923101902008, -0.09497419744729996, -0.06235109269618988, -0.5948826670646667, -0.2566034495830536, -0.05718245357275009, 0.5772529244422913, -0.8562422394752502, 0.03874833881855011, -0.2569845914840698, -0.1178048700094223], [0.2127184420824051, -0.10113194584846497, 0.3220893144607544, -0.34784430265426636, -0.05968010425567627, -0.033640868961811066, -0.07548516988754272, 0.4214993715286255, 0.12363114207983017, -0.20125745236873627, -0.5096117854118347, -0.021540597081184387, 0.12306411564350128, -0.20916274189949036, -0.10637801140546799, 0.6298184394836426, -0.2041429728269577], [0.022939084097743034, 0.25874578952789307, 0.49740031361579895, 0.2997230589389801, -0.3309493362903595, -0.10713819414377213, -0.22553107142448425, -0.37184494733810425, 0.05349867790937424, -0.0574922040104866, 0.46293148398399353, 0.44438275694847107, 0.4398997724056244, -0.35381942987442017, -0.0963350459933281, 0.30484455823898315, 0.2144264429807663], [-0.26235198974609375, 0.11640488356351852, -0.08684835582971573, 0.3080236613750458, -0.04055982083082199, -0.05957411602139473, -0.1612406075000763, -0.2316817194223404, -0.31596049666404724, -0.002245475072413683, -0.238417848944664, -0.21919861435890198, 0.11737117171287537, 0.4547426104545593, 0.07472794502973557, -0.033775072544813156, -0.3443584144115448], [-0.3089156448841095, -0.12256063520908356, -0.36580178141593933, -0.13086718320846558, -0.0471496619284153, -0.0909184142947197, 0.3929630517959595, -0.39173343777656555, 0.5166109204292297, -0.36065059900283813, -0.26475661993026733, 0.12141994386911392, 0.3102365732192993, -0.23555490374565125, -0.42026543617248535, 0.36969077587127686, -0.022086596116423607], [-0.10404250025749207, -0.3854481279850006, -0.14118263125419617, -0.2431028038263321, 0.4122776985168457, -0.1584143489599228, 0.29386305809020996, 0.30490100383758545, -0.010261239483952522, 0.3242218494415283, 0.365020751953125, 0.20650605857372284, 0.1910431832075119, 0.1061825379729271, -0.04832633584737778, -0.08794490247964859, 0.4455505311489105], [0.12381786853075027, 0.2239965945482254, -0.20963047444820404, 0.05112089216709137, -0.19363266229629517, 0.286577433347702, 0.3881072998046875, -0.12720683217048645, 0.341490238904953, 0.20794066786766052, 0.6231423616409302, 0.2070249319076538, -0.1319655328989029, 0.15362480282783508, 0.14336521923542023, -0.08145345747470856, 0.2695871889591217]], "mlp_extractor.policy_net.0.bias": [0.0012008162448182702, -0.06517834961414337, -0.09450022131204605, 0.106303371489048, 0.14371143281459808, 0.04781915992498398, 0.034428004175424576, 0.16875937581062317, -0.0521652027964592, -0.08377799391746521, 0.07382401823997498, 0.07470608502626419, 0.004251380451023579, -0.08409576117992401, -0.11549600213766098, 0.1670745313167572, -0.012902774848043919, 0.1342589408159256, 0.061722949147224426, 0.17694565653800964, -0.16539683938026428, -0.2819356918334961, 0.05483317747712135, -0.09560121595859528, -0.02705884538590908, -0.11365043371915817, 0.034188009798526764, 0.13734836876392365, -0.1510666012763977, -0.03372300788760185, 0.20744822919368744, -0.12504330277442932, -0.10430765897035599, -0.01445954293012619, -0.051332056522369385, 0.055015671998262405, 0.14736086130142212, 0.1565077006816864, 0.09093818813562393, 0.05563843250274658, 0.05783892795443535, -0.14231446385383606, 0.17499539256095886, 0.19280166923999786, 0.09958480298519135, 0.009677286259829998, 0.039461955428123474, 0.06362263113260269, 0.05708663910627365, -0.17043833434581757, -0.11344221979379654, -0.07625056058168411, -0.07388537377119064, -0.11948572844266891, 0.07699016481637955, 0.026632506400346756, 0.05684204027056694, 0.10404480993747711, -0.09472788125276566, 0.11383930593729019, 0.16362009942531586, -0.018978837877511978, -0.07202915847301483, 0.014087102375924587, -0.10322463512420654, -0.1576547622680664, 0.1539750099182129, 0.09728295356035233, 0.04859226942062378, -0.011141002178192139, -0.03679618611931801, 0.04471110552549362, -0.06160755455493927, 0.05784459784626961, 0.011956938542425632, 0.12623707950115204, 0.12575843930244446, 0.04817134886980057, 0.14050252735614777, -0.02705700881779194, -0.08884558081626892, 0.06574657559394836, 0.07163654267787933, 0.030733047053217888, -0.012368503957986832, -0.06273690611124039, 0.0530024878680706, 0.04474335163831711, 0.0023860293440520763, 0.033526480197906494, 0.22694131731987, -0.1035284772515297, -0.02939247153699398, -0.05992773175239563, 0.14313435554504395, -0.02061140537261963, -0.265702486038208, 0.08349929004907608, 0.1907469630241394, -0.21677477657794952, -0.06485608965158463, 0.00397786358371377, -0.07696837931871414, 0.03336953744292259, 0.06463179737329483, -0.006950180046260357, 0.12874366343021393, -0.0933302491903305, 0.09441860765218735, 0.019311998039484024, 0.13091348111629486, -0.2559206783771515, 0.13142797350883484, -0.011179177090525627, 0.2916579842567444, -0.08717352896928787, 0.09371484071016312, -0.027512378990650177, 0.02455969713628292, 0.07910535484552383, -0.0009481007582508028, 0.09503840655088425, 0.11540310829877853, 0.1574152261018753, -0.4213118851184845, 0.07847939431667328, 0.015200234018266201, 0.20688718557357788], "mlp_extractor.policy_net.2.weight": [[-0.16582202911376953, 0.01879243180155754, -0.041207827627658844, -0.5150848031044006, -0.12586870789527893, -0.06036172807216644, 0.3457167148590088, 0.26060929894447327, -0.25889691710472107, -0.4697566628456116, -0.0183769091963768, -0.18722295761108398, 0.16599005460739136, -0.026887424290180206, 0.045479193329811096, -0.06131492927670479, 0.02830878645181656, -0.32963821291923523, 0.10056649148464203, -0.001226181397214532, 0.13172800838947296, 0.05519625172019005, -0.4936602711677551, -0.021039023995399475, -0.03185190632939339, 0.0011859714286401868, -0.031106410548090935, 0.07443508505821228, -0.20264235138893127, -0.2475464940071106, -0.23184563219547272, 0.02555389516055584, 0.05482727289199829, 0.23985007405281067, -0.04156287759542465, -0.2910940945148468, -0.10321855545043945, 0.16422520577907562, -0.25308018922805786, 0.20237381756305695, 0.020032834261655807, 0.06469191610813141, 0.17808577418327332, -0.062398895621299744, 0.040479548275470734, -0.04928084835410118, 0.27630630135536194, 0.05452563613653183, -0.12697377800941467, 0.28323373198509216, -0.21318161487579346, 0.23447197675704956, -0.30009588599205017, -0.007281761150807142, -0.2099558413028717, -0.22010675072669983, -0.2895784080028534, 0.06316822022199631, -0.13527803122997284, -0.24928157031536102, -0.06073559448122978, -0.11989548802375793, -0.30972978472709656, -0.35421842336654663, -0.17544618248939514, 0.0431210994720459, 0.05119134858250618, -0.13816511631011963, 0.15479928255081177, 0.0916784256696701, 0.10272776335477829, -0.32041051983833313, 0.01400784496217966, 0.2673010230064392, -0.1914561688899994, 0.26350411772727966, 0.23287294805049896, 0.21552054584026337, -0.07113510370254517, -0.24434824287891388, -0.20343877375125885, 0.12617696821689606, 0.08430974930524826, -0.37186577916145325, 0.01897405833005905, 0.4723949134349823, 0.12824119627475739, -0.07720338553190231, -0.08403176069259644, 0.18034185469150543, 0.27086520195007324, -0.05887937545776367, -0.22405016422271729, -0.6722373962402344, -0.3292349576950073, 0.34108710289001465, -0.23332926630973816, -0.41794049739837646, 0.27561548352241516, -0.14886392652988434, -0.30274540185928345, -0.22227853536605835, 0.2600509822368622, 0.1899036020040512, -0.3097308576107025, 0.3423508405685425, -0.40530943870544434, -0.06664219498634338, 0.2696080207824707, 0.048394810408353806, -0.023169759660959244, 0.13474085927009583, -0.06692327558994293, 0.22109322249889374, -0.004172720946371555, 0.22237463295459747, -0.1889028698205948, 0.18483297526836395, -0.19476385414600372, -0.40589359402656555, -0.2025730013847351, 0.17429189383983612, 0.11499159783124924, 0.1707756221294403, -0.2910889685153961, 0.14338096976280212, 0.11559765785932541, 0.2536366283893585], [-0.2577909529209137, 0.05381264165043831, 0.31904327869415283, 0.03241533041000366, 0.06417415291070938, 0.3920140266418457, 0.2115326225757599, 0.06422334909439087, 0.07998434454202652, 0.21110601723194122, 0.29478663206100464, -0.08396003395318985, -0.09542223811149597, 0.11380499601364136, 0.01258910819888115, 0.06184346228837967, 0.05056463181972504, 0.021806173026561737, -0.034391988068819046, -0.015978654846549034, -0.012536907568573952, -0.005834916606545448, 0.28749191761016846, -0.24932773411273956, 0.039201054722070694, 0.4433353841304779, -0.31402724981307983, 0.024874921888113022, 0.09263020753860474, 0.5146232843399048, -0.07170750945806503, 0.1361057162284851, -0.22351302206516266, -0.17239144444465637, 0.1363319307565689, -0.06874354928731918, -0.3138188421726227, 0.14004316926002502, 0.20009909570217133, -0.06739628314971924, 0.04185643792152405, 0.14084917306900024, -0.011976704932749271, 0.05591423064470291, 0.15988460183143616, 0.2379535287618637, 0.1989481896162033, 0.1452721655368805, 0.12817150354385376, 0.26954513788223267, -0.03069070726633072, 0.5145816802978516, 0.16903088986873627, -0.033574722707271576, 0.06412294507026672, -0.15922673046588898, 0.11382443457841873, -0.03883734717965126, -0.09796354174613953, -0.13747067749500275, -0.22211629152297974, -0.131284698843956, -0.05205083265900612, 0.2680513560771942, -0.0013498004991561174, 0.19647008180618286, -0.21522413194179535, -0.06736084818840027, -0.09166572988033295, 0.05220348387956619, 0.28988608717918396, 0.08840238302946091, 0.2038794904947281, -0.05467277020215988, 0.03647611662745476, 0.3846006989479065, 0.09192344546318054, 0.25375470519065857, 0.2716883420944214, -0.23590797185897827, 0.05383775755763054, 0.4133990406990051, 0.24784712493419647, -0.06782561540603638, -0.13232649862766266, 0.1612306535243988, -0.10021592676639557, -0.21689341962337494, 0.18637099862098694, 0.05272747576236725, -0.12302560359239578, 0.38677170872688293, -0.3848479092121124, 0.22577112913131714, 0.054950401186943054, 0.12063682824373245, 0.04864924028515816, -0.07881548255681992, -0.15886986255645752, 0.19142328202724457, -0.11547896265983582, 0.07576706260442734, 0.46981221437454224, 0.12340857833623886, 0.2832503020763397, 0.346343457698822, 0.09465771913528442, 0.1087503656744957, 0.19941098988056183, -0.22013059258460999, 0.2836657166481018, 0.35480356216430664, -0.35289573669433594, 0.0009481397573836148, 0.28353554010391235, 0.32927626371383667, 0.0036890103947371244, 0.3580632507801056, 0.2241775244474411, 0.1766044646501541, 0.04742465913295746, 0.11113148927688599, -0.05700048431754112, 0.17622822523117065, 0.2789319157600403, 0.38723814487457275, 0.22672298550605774, 0.1042889729142189], [0.3481132686138153, 0.08837337791919708, -0.21574316918849945, -0.07769379019737244, 0.39166080951690674, 0.21360601484775543, 0.0895131379365921, 0.11412408947944641, -0.27996304631233215, -0.22303104400634766, 0.16695959866046906, 0.2154238522052765, -0.07644543051719666, -0.1674014776945114, 0.2601277232170105, -0.06350057572126389, 0.1823521852493286, -0.11750432848930359, 0.2190071940422058, 0.11953964084386826, 0.276875764131546, 0.21037699282169342, -0.14706125855445862, 0.15956519544124603, 0.25792303681373596, 0.030062977224588394, 0.14296595752239227, 0.13583843410015106, 0.2739168107509613, 0.22011885046958923, -0.11304982751607895, -0.04830378666520119, -0.34429851174354553, -0.045975860208272934, 0.0534161701798439, -0.33741292357444763, -0.3059065639972687, 0.22650820016860962, -0.06732380390167236, 0.5304194092750549, 0.028008058667182922, 0.367496132850647, -0.03394649177789688, 0.04138140380382538, -0.0038219327107071877, 0.014473610557615757, 0.08074235916137695, 0.04912949353456497, 0.08396650850772858, -0.0467388778924942, -0.12653566896915436, 0.4877772927284241, 0.161342054605484, 0.1955489218235016, -0.03222208842635155, -0.21276113390922546, -0.4542486071586609, 0.2826414108276367, 0.11093408614397049, -0.025478113442659378, -0.32315897941589355, 0.0739959329366684, 0.24203407764434814, -0.02790714241564274, 0.10272680968046188, -0.15446022152900696, -0.1945728063583374, 0.022414283826947212, 0.2465180605649948, 0.16423429548740387, -0.2558106780052185, 0.09021206945180893, -0.13770762085914612, 0.03386900573968887, -0.2130858153104782, 0.4987391233444214, 0.30859020352363586, 0.08153348416090012, 0.021015191450715065, -0.09162317961454391, -0.02053692750632763, 0.2744353413581848, 0.326790988445282, -0.5751656889915466, 0.136394664645195, 0.6869425177574158, 0.11067996174097061, -0.03892819955945015, -0.04427994787693024, 0.29169294238090515, 0.08045221120119095, 0.11730644851922989, -0.059458475559949875, 0.015033177100121975, 0.10766563564538956, 0.04577331990003586, 0.028510598465800285, 0.09489519894123077, -0.12038730084896088, 0.2628256380558014, -0.24428898096084595, -0.29892316460609436, 0.4061272442340851, -0.077171690762043, -0.40328091382980347, -0.07630059868097305, -0.060595735907554626, -0.22479304671287537, 0.1878662109375, 0.00511792441830039, -0.09433122724294662, 0.21642550826072693, 0.07343139499425888, 0.044956788420677185, 0.2728314697742462, 0.059709757566452026, -0.31810665130615234, 0.212442085146904, -0.04678080230951309, -0.021120669320225716, -0.05065985769033432, -0.06517940759658813, 0.1320718228816986, 0.042980339378118515, 0.029283713549375534, 0.23885005712509155, 0.3293156325817108, -0.3203759491443634], [0.04432683810591698, 0.1847461462020874, 0.5658204555511475, 0.24930720031261444, 0.1316753476858139, 0.2712585926055908, -0.052979327738285065, -0.09797508269548416, -0.19218669831752777, 0.11438605934381485, 0.3904494643211365, 0.017080575227737427, -0.11724793910980225, 0.11454610526561737, -0.03805418685078621, -0.2608264982700348, -0.04760988801717758, -0.09435217827558517, -0.06897998601198196, -0.1415511816740036, -0.6847258806228638, 0.06477636098861694, 0.4247136116027832, 0.13744288682937622, -0.04180736839771271, 0.048402559012174606, 0.0037967064417898655, -0.20606639981269836, -0.09148043394088745, 0.1728697568178177, 0.016026660799980164, -0.10409970581531525, 0.2588832974433899, 0.05436044558882713, -0.5000861883163452, 0.2611829340457916, -0.10034848004579544, -0.05422515422105789, -0.0701884776353836, -0.29818132519721985, 0.3231460154056549, -0.10281569510698318, -0.16811810433864594, -0.1606418788433075, -0.08709033578634262, 0.15763965249061584, 0.1497803032398224, -0.1999456286430359, -0.6048702001571655, 0.24378465116024017, -0.30340129137039185, 0.30054402351379395, 0.2965884804725647, 0.2074204385280609, -0.5775517821311951, 0.009591810405254364, 0.19966712594032288, -0.4229140877723694, -0.33069396018981934, -0.27309221029281616, -0.2023817002773285, -0.2528421878814697, -0.1983436793088913, 0.5472981333732605, -0.027279943227767944, 0.04296739399433136, -0.3811335563659668, -0.30490168929100037, -0.3821307122707367, -0.12593547999858856, 0.4364909827709198, -0.09409552812576294, 0.5020192265510559, -0.26160547137260437, 0.21283502876758575, 0.012714545242488384, -0.19079071283340454, -0.0010229155886918306, -0.0068423510529100895, -0.1935407966375351, -0.024367820471525192, 0.042155928909778595, 0.49175649881362915, 0.14113907516002655, 0.24380141496658325, -0.06306593865156174, 0.05398482456803322, -0.4117701053619385, 0.6898426413536072, 0.18155430257320404, -0.29464492201805115, 0.047064248472452164, -0.006041333079338074, -0.17652755975723267, 0.14316630363464355, 0.19154678285121918, -0.0005191272357478738, -0.15652605891227722, -0.17773926258087158, 0.26551052927970886, 0.20584917068481445, 0.2718732953071594, 0.39770621061325073, -0.380974680185318, -0.07032429426908493, 0.4295710623264313, 0.06614918261766434, 0.13304255902767181, -0.44854655861854553, -0.393279105424881, 0.4638787508010864, 0.1646917164325714, 0.010184265673160553, -0.21703921258449554, 0.22846096754074097, 0.062470607459545135, 0.2680789530277252, 0.3371964693069458, 0.08845178782939911, 0.3802272081375122, -0.2002205103635788, 0.47889456152915955, -0.0820135772228241, 0.18896931409835815, 0.07570930570363998, 0.16525784134864807, -0.32926949858665466, -0.23092399537563324], [-0.3242352604866028, -0.23436693847179413, 0.31023988127708435, -0.2707545757293701, 0.40457823872566223, -0.08820609748363495, 0.31944113969802856, 0.11463718116283417, 0.02550523728132248, 0.4499206840991974, 0.036608219146728516, -0.26074206829071045, 0.16942186653614044, 0.0747353732585907, -0.09058879315853119, 0.22492630779743195, 0.5793960094451904, -0.09235307574272156, 0.03412695229053497, 0.23878027498722076, -0.26097482442855835, -0.1474260836839676, 0.7946149110794067, -0.016809670254588127, 0.09790163487195969, 0.24830110371112823, 0.12475363910198212, 0.1247563287615776, -0.19996218383312225, 0.23692700266838074, -0.26681458950042725, 0.08653539419174194, 0.026530958712100983, 0.19890516996383667, -0.08192850649356842, 0.08935946226119995, 0.051295507699251175, 0.15603697299957275, 0.10077250748872757, -0.35619595646858215, 0.5871354341506958, -0.2708915174007416, 0.0694781169295311, 0.15567852556705475, -0.14452730119228363, 0.22263897955417633, 0.6044266819953918, -0.019286954775452614, -0.14094728231430054, 0.09374778717756271, -0.24921974539756775, 0.08785269409418106, 0.16997940838336945, 0.05116566643118858, 0.3696468472480774, 0.48245736956596375, 0.3728298842906952, 0.1564885675907135, -0.551472544670105, 0.39829036593437195, 0.2958150804042816, -0.25635915994644165, 0.051622215658426285, 0.4519231617450714, 0.08046826720237732, -0.19865012168884277, 0.039941418915987015, -0.472830206155777, 0.11858879029750824, -0.12420213222503662, 0.46287214756011963, -0.2638623118400574, 0.4269779920578003, 0.07254479080438614, 0.18191663920879364, 0.09935403615236282, 0.27159157395362854, 0.10249730944633484, 0.1996421366930008, 0.09950366616249084, 0.13032197952270508, 0.29778149724006653, 0.4935862720012665, 0.1446412056684494, -0.12585043907165527, -0.21610264480113983, -0.15415461361408234, -0.028755489736795425, 0.4602827727794647, -0.062288906425237656, -0.006987887900322676, 0.03506366163492203, -0.16166570782661438, 0.07601908594369888, 0.4202549159526825, 0.09162581712007523, 0.08875913172960281, 0.14423897862434387, -0.3624480068683624, 0.4677371680736542, 0.2539280354976654, 0.18352870643138885, 0.5227347016334534, -0.04175138846039772, 0.41259345412254333, 0.3271591067314148, 0.14851173758506775, -0.10829118639230728, -0.08139100670814514, -0.371916800737381, 0.3074941635131836, -0.07151205092668533, -0.2444961667060852, -0.17636902630329132, 0.06855945289134979, -0.35054129362106323, 0.332536518573761, 0.07644680142402649, 0.2755896747112274, 0.48093751072883606, 0.2531583905220032, 0.38213077187538147, -0.1453663557767868, 0.41798657178878784, -0.1104213073849678, 0.29704490303993225, 0.07717911154031754, -0.42583349347114563], [-0.3129887282848358, 0.2654784321784973, 0.28837087750434875, -0.21241895854473114, 0.27595341205596924, -0.10080035030841827, 0.16427290439605713, 0.3530685603618622, -0.5830804109573364, 0.1749499887228012, 0.404180109500885, 0.06690588593482971, -0.053019408136606216, 0.08895443379878998, 0.13037356734275818, -0.08976829797029495, 0.2017040103673935, 0.11822488158941269, -0.1362971067428589, 0.07647006213665009, 0.20045477151870728, -0.11716601997613907, 0.0736038088798523, -0.34080418944358826, 0.0020895160268992186, 0.09508588910102844, -0.04948689788579941, 0.24153412878513336, -0.15215060114860535, 0.3624219298362732, 0.2658797800540924, -0.28534677624702454, -0.2569066286087036, 0.04010171815752983, -0.06082359328866005, -0.045406147837638855, -0.05258656293153763, 0.01969698816537857, 0.2631908059120178, 0.028848277404904366, 0.21307125687599182, -0.406311571598053, -0.21422018110752106, 0.026601150631904602, 0.0781741738319397, -0.06296052783727646, 0.22405879199504852, 0.23655706644058228, 0.040360014885663986, 0.04160221666097641, 0.09895571321249008, 0.38410186767578125, -0.2384343147277832, -0.008516755886375904, -0.17778030037879944, -0.07489252090454102, -0.04568619653582573, 0.37555402517318726, -0.39360740780830383, 0.009411540813744068, 0.17118443548679352, 0.11637615412473679, 0.12079734355211258, 0.020755793899297714, -0.4320811927318573, 0.11015363782644272, 0.23466381430625916, -0.041444920003414154, 0.06551423668861389, -0.1062207818031311, 0.1323636919260025, -0.5005530714988708, -0.010267563164234161, -0.13285166025161743, 0.3311673104763031, 0.39195454120635986, 0.48043423891067505, 0.3437367379665375, 0.12897858023643494, -0.24403677880764008, -0.21333765983581543, 0.19843755662441254, -0.03139917925000191, -0.08978249132633209, -0.08620171248912811, 0.12340083718299866, 0.044576194137334824, -0.3229196071624756, -0.21762391924858093, 0.506147027015686, -0.1050998866558075, -0.05198099836707115, 0.03217758983373642, 0.14953568577766418, 0.38963863253593445, 0.16352708637714386, -0.2781946659088135, -0.10364130139350891, -0.21538031101226807, 0.23756267130374908, -0.16857507824897766, 0.07411123067140579, 0.35264405608177185, 0.1934393048286438, 0.06655685603618622, 0.47340086102485657, -0.23578353226184845, 0.0742960050702095, -0.09106581658124924, -0.2952226996421814, 0.40342283248901367, -0.0033057997934520245, -0.22505128383636475, -0.3158842623233795, 0.09796160459518433, 0.07999475300312042, 0.4165574312210083, 0.40689200162887573, 0.2863007187843323, 0.14994730055332184, 0.14260464906692505, 0.5442335605621338, 0.03414400666952133, 0.23677818477153778, 0.059348929673433304, 0.22756028175354004, 0.20215508341789246, -0.04894517734646797], [-0.09638658165931702, -0.10503227263689041, 0.1751382201910019, 0.11757950484752655, 0.14568622410297394, -0.09028483182191849, 0.08063466846942902, 0.1666925996541977, -0.08729816973209381, -0.19001667201519012, 0.2780298888683319, -0.2069251388311386, 0.03221213072538376, 0.16876477003097534, 0.3567405939102173, 0.05497035011649132, -0.24622075259685516, -0.1033681258559227, 0.3134753704071045, -0.012337681837379932, -0.030652856454253197, 0.06850672513246536, -0.08462431281805038, -0.18012580275535583, -0.15196309983730316, 0.303385466337204, 0.09889774024486542, 0.3767893612384796, -0.14335203170776367, 0.38726863265037537, -0.007958374917507172, 0.033738069236278534, -0.08417289704084396, 0.1179966926574707, 0.058044251054525375, -0.10779298096895218, -0.1837037205696106, 0.2105071097612381, 0.07838006317615509, 0.2768992781639099, -0.22509582340717316, 0.36567771434783936, -0.17513513565063477, -0.2924552261829376, 0.04127319157123566, -0.12594439089298248, 0.25709161162376404, 0.48244544863700867, 0.011681215837597847, 0.27163970470428467, -0.012166534550487995, 0.35779690742492676, 0.06622464209794998, 0.22790294885635376, -0.040362123399972916, -0.1727660745382309, -0.02117607370018959, -0.0076635777950286865, -0.2548607885837555, -0.04332390055060387, -0.28314828872680664, 0.2300962656736374, 0.07114193588495255, -0.013317628763616085, -0.021907271817326546, 0.27226799726486206, -0.22504641115665436, -0.15555842220783234, 0.14396263659000397, 0.27692046761512756, 0.12624859809875488, -0.14680081605911255, 0.3971717357635498, 0.021616771817207336, -0.22321659326553345, 0.4651321470737457, 0.10181581974029541, 0.5182413458824158, 0.011244997382164001, -0.14026696979999542, -0.04297772794961929, 0.15349902212619781, 0.2548791170120239, -0.4402317702770233, 0.027822768315672874, 0.40958288311958313, 0.006537821609526873, 0.024217765778303146, -0.2914930582046509, 0.48396217823028564, 0.10938215255737305, 0.0793997198343277, -0.10220123827457428, -0.27619144320487976, 0.13976119458675385, 0.47270238399505615, 0.1031709611415863, -0.39710259437561035, -0.015183402225375175, 0.0857883095741272, -0.3958609700202942, 0.06008191779255867, 0.2672125995159149, 0.060249678790569305, -0.1417940855026245, 0.2114441841840744, -0.05925866961479187, 0.1948297619819641, 0.27150413393974304, -0.10234934091567993, 0.22590944170951843, -0.006549122277647257, 0.17613039910793304, 0.0033168981317430735, 0.14816445112228394, 0.15186645090579987, 0.16080331802368164, 0.08315766602754593, -0.0333554744720459, -0.13826142251491547, -0.12238959223031998, 0.00039960327558219433, 0.10787729173898697, 0.0775415301322937, 0.005312713328748941, 0.07043568789958954, 0.10369402915239334, 0.07198891043663025], [0.032939452677965164, -0.06737753748893738, 0.11996917426586151, -0.00339056015945971, 0.03027293086051941, -0.11894121766090393, 0.13750235736370087, 0.33359119296073914, 0.09067188948392868, -0.31032076478004456, -0.26532456278800964, -0.1928178071975708, 0.18906617164611816, -0.009731609374284744, 0.22394245862960815, -0.17807745933532715, -0.46953973174095154, 0.06311405450105667, -0.15363244712352753, 0.11577044427394867, 0.14637494087219238, 0.2220018208026886, -0.7036368250846863, 0.335851788520813, -0.09779873490333557, 0.09173903614282608, 0.012806754559278488, 0.4439738094806671, 0.31971481442451477, -0.004578900523483753, -0.17675846815109253, -0.040511175990104675, -0.3138566017150879, -0.0441553108394146, 0.06990928947925568, -0.07770262658596039, -0.4887545704841614, 0.16365286707878113, 0.04013567045331001, 0.17611709237098694, -0.381594717502594, 0.17601919174194336, -0.09307347238063812, -0.4474388659000397, -0.01689915917813778, 0.006509542930871248, -0.06536374241113663, 0.13905656337738037, -0.00015763574629090726, 0.1162710040807724, -0.26777613162994385, -0.021622002124786377, -0.026765871793031693, 0.03948391228914261, -0.00905677117407322, -0.7357733845710754, -0.5079392790794373, 0.31811198592185974, 0.12666627764701843, -0.6508106589317322, -0.21242058277130127, -0.010628044605255127, -0.21516048908233643, -0.2053741067647934, -0.3655190169811249, 0.2534165680408478, -0.12013277411460876, 0.07103980332612991, -0.01940380409359932, 0.08240558952093124, -0.4386517107486725, -0.04695937782526016, -0.4359685480594635, 0.33200833201408386, 0.09748931974172592, 0.2169199436903, -0.05112358555197716, 0.10428088903427124, -0.02229645662009716, -0.18354131281375885, -0.1546800285577774, -0.04024882987141609, -0.30315330624580383, -0.6193045973777771, -0.20559613406658173, 0.6794509887695312, 0.06474489718675613, -0.40999042987823486, -0.5375189781188965, 0.21343454718589783, 0.303311288356781, -0.3671835958957672, -0.1669570803642273, -0.4619842767715454, -0.5994643568992615, 0.16564106941223145, 0.23171058297157288, -0.4037252366542816, 0.3754631280899048, -0.031927987933158875, -0.2401796579360962, -0.4525953233242035, 0.0210812296718359, -0.04855886474251747, -0.819428563117981, -0.11927780508995056, -0.40644562244415283, -0.0837763324379921, 0.0025764331221580505, 0.10091828554868698, -0.1395876407623291, 0.31727975606918335, -0.10091859847307205, 0.27057966589927673, 0.04322988912463188, -0.04709846153855324, -0.2769775390625, -0.012323353439569473, -0.35519376397132874, -0.3584933578968048, -0.2341332584619522, 0.0030667732935398817, 0.16835850477218628, -0.2581787109375, 0.019771989434957504, -0.08902881294488907, -0.1959037482738495, 0.027037162333726883], [0.21822352707386017, 0.3275366425514221, -0.01843397319316864, 0.21807445585727692, -0.10385533422231674, -0.2663455605506897, -0.49638181924819946, 0.03685440123081207, 0.31391164660453796, -0.1358908861875534, -0.035013873130083084, 0.00042558732093311846, 0.3931574821472168, 0.24195869266986847, -0.3583635091781616, -0.20060060918331146, -0.048921216279268265, 0.1859559863805771, 0.24006550014019012, 0.22246398031711578, 0.058839015662670135, 0.10733228176832199, -0.26613616943359375, -0.4029271602630615, 0.13923893868923187, 0.06677424907684326, -0.12598615884780884, 0.4437585771083832, 0.21410290896892548, -0.45228704810142517, 0.051027972251176834, 0.3242647647857666, -0.2825925946235657, -0.08370836079120636, -0.25848281383514404, 0.16679005324840546, -0.16298913955688477, 0.06929077208042145, -0.2086363583803177, 0.08742447942495346, -0.13341036438941956, 0.3229222893714905, 0.1320830136537552, -0.5781660079956055, 0.04900556057691574, 0.1452416181564331, -0.8532450199127197, -0.5149461627006531, 0.08432906121015549, 0.30873343348503113, 0.25579988956451416, 0.02907574735581875, -0.21629998087882996, -0.2763950824737549, -0.2778830826282501, -0.33337435126304626, 0.004931676667183638, 0.3539687693119049, 0.06442520022392273, -0.18409134447574615, -0.5563310980796814, 0.19239264726638794, 0.008102918975055218, 0.17468298971652985, 0.008419763296842575, 0.09018099308013916, -0.03526743873953819, -0.014973909594118595, 0.13835015892982483, -0.14108183979988098, -0.2505366802215576, 0.10624020546674728, -0.2472752332687378, 0.4147278070449829, -0.41672366857528687, 0.054775893688201904, -0.14044615626335144, -0.07146724313497543, 0.1316843032836914, 0.1697409600019455, -0.33721986413002014, -0.6659626364707947, -0.25715696811676025, -0.11048869788646698, 0.11671218276023865, 0.11706936359405518, 0.22007152438163757, 0.2115173190832138, 0.1061893031001091, 0.07872522622346878, 0.31948602199554443, -0.1430090218782425, -0.12678812444210052, -0.14203669130802155, -0.6201069951057434, 0.23000359535217285, -0.06274304538965225, 0.014313936233520508, 0.453982412815094, -0.25764012336730957, -0.43297073245048523, -0.5053811073303223, -0.7379910945892334, 0.1803458034992218, 0.12725724279880524, -0.9458286166191101, -0.04544563964009285, -0.10109059512615204, 0.6600771546363831, 0.32964158058166504, -0.4007241129875183, 0.10603722184896469, 0.2973514199256897, 0.19857092201709747, 0.2955283522605896, 0.07545740902423859, -0.17544257640838623, -0.0055230651050806046, -0.19213512539863586, -0.5586399435997009, -0.2442047894001007, -0.3185585141181946, 0.4655272960662842, 0.12080348283052444, 0.06168156489729881, 0.2579564154148102, 0.14740395545959473, -0.09491021931171417], [0.012760949321091175, -0.19593918323516846, -0.3077387511730194, 0.024774882942438126, 0.22938057780265808, -0.1112028956413269, -0.45040059089660645, 0.19062666594982147, 0.37494590878486633, 0.2976682186126709, 0.20278269052505493, 0.23533760011196136, 0.3059733510017395, -0.27400463819503784, -0.22469788789749146, 0.1275569647550583, 0.4696865677833557, -0.08699122816324234, 0.07915206998586655, 0.2137126475572586, -0.04653669893741608, -0.08765862137079239, 0.22693201899528503, 0.41007763147354126, 0.05457976460456848, -0.014905888587236404, -0.26101791858673096, 0.32806628942489624, -0.19605737924575806, -0.20788100361824036, 0.21646778285503387, 0.03801902011036873, -0.29224473237991333, 0.2914140820503235, -0.3986496329307556, 0.37089306116104126, -0.08351542800664902, 0.3358331620693207, -0.5155864357948303, -0.07940828800201416, 0.1251756101846695, 0.017763542011380196, -0.014868374913930893, -0.07520125061273575, 0.0693925991654396, 0.25544580817222595, -0.4637739360332489, -0.6258384585380554, -0.06310634315013885, -0.0696757361292839, 0.17111407220363617, -0.09328639507293701, 0.2911699414253235, 0.13245448470115662, 0.42041540145874023, 0.07273822277784348, 0.3264353573322296, 0.0726403295993805, 0.033393874764442444, 0.3544791638851166, -0.05933613330125809, -0.0027193273417651653, 0.06996428221464157, -0.2614979147911072, 0.28631970286369324, -0.051895350217819214, 0.06606121361255646, -0.11143367737531662, 0.06328164041042328, 0.10166937112808228, 0.32981136441230774, 0.11244476586580276, -0.09381978958845139, 0.31754934787750244, 0.07491384446620941, -0.1529073268175125, 0.019458750262856483, 0.11928049474954605, 0.18850502371788025, 0.06038570776581764, 0.17186389863491058, -0.5675505995750427, -0.03958173096179962, 0.2766074538230896, 0.127833753824234, -0.4549740254878998, -0.11585486680269241, -0.0995192900300026, 0.04394832253456116, -0.3948668837547302, -0.35593289136886597, -0.011689514853060246, 0.3940449357032776, 0.2908163368701935, 0.22234080731868744, -0.0057151648215949535, -0.03798164054751396, 0.342954158782959, 0.03746117651462555, -0.11944807320833206, 0.0450914166867733, 0.3295193314552307, -0.5469133257865906, -0.1811279058456421, 0.37913355231285095, -0.523516058921814, -0.017523787915706635, -0.08280228078365326, 0.1225079819560051, -0.17463898658752441, 0.23243018984794617, -0.07381059974431992, 0.35083362460136414, 0.48240357637405396, 0.13789913058280945, -0.04648059234023094, -0.09908121079206467, -0.05702364072203636, -0.09225146472454071, 0.27215805649757385, 0.5213757157325745, -0.32749679684638977, -0.8337924480438232, 0.1639387458562851, 0.13711437582969666, -0.5534572601318359, 0.508612871170044, 0.13450241088867188], [0.1591988503932953, 0.18152552843093872, 0.025988666340708733, -0.01875896565616131, -0.21140259504318237, 0.4441029131412506, -0.12779010832309723, 0.01354860607534647, 0.25840312242507935, 0.025849876925349236, -0.29032009840011597, -0.27652058005332947, -0.20942071080207825, -0.11126826703548431, -0.5736417174339294, -0.6298618912696838, 0.203942209482193, -0.08067241311073303, 0.06983145326375961, -0.13335053622722626, -0.13907603919506073, -0.016565173864364624, 0.001914900727570057, 0.11687958240509033, 0.2964532971382141, -0.381273090839386, -0.1594022810459137, 0.22742758691310883, 0.25147801637649536, 0.33298084139823914, -0.004430119413882494, -0.29662877321243286, 0.0936364084482193, 0.1530252993106842, 0.07374098151922226, 0.14061057567596436, -0.35970982909202576, -0.09813687205314636, 0.37929365038871765, -0.34755101799964905, -0.09692922234535217, 0.09673309326171875, 0.423774391412735, -0.17861218750476837, -0.32807648181915283, 0.15284723043441772, 0.11924095451831818, -0.11586097627878189, -0.03767701983451843, -0.3615105450153351, 0.14265358448028564, 0.20503266155719757, -0.354765921831131, 0.28751832246780396, 0.15110789239406586, -0.0018568614032119513, 0.23083749413490295, -0.049139685928821564, 0.3905344307422638, 0.23083928227424622, 0.5144351720809937, 0.2777268886566162, -0.30532240867614746, -0.7012364268302917, 0.30624133348464966, -0.16713783144950867, -0.9060275554656982, 0.5156794190406799, 0.19360826909542084, -0.47338810563087463, 0.07703037559986115, 0.38839298486709595, -0.38050147891044617, -0.04822790250182152, -0.5798876881599426, -0.16525490581989288, -0.21565081179141998, -0.3223578929901123, -0.19813726842403412, 0.3753427267074585, 0.35706180334091187, 0.320279985666275, -0.07060684263706207, -0.010119148530066013, -0.09192772209644318, 0.17870363593101501, 0.37151461839675903, 0.1638028621673584, 0.5472958087921143, -0.7690934538841248, 0.3268103003501892, -0.21874231100082397, -0.22672903537750244, 0.0787227600812912, -0.07917153835296631, -0.06799256801605225, -0.06438381224870682, 0.43140658736228943, 0.16196945309638977, 0.17717988789081573, 0.21404320001602173, -0.1178337037563324, -0.3744310140609741, 0.16856634616851807, 0.3655802607536316, -0.5900537967681885, -0.05876100808382034, 0.038142867386341095, 0.1807490736246109, -0.5833325386047363, -0.27516263723373413, 0.16169649362564087, 0.24149616062641144, 0.10649485141038895, 0.014905204996466637, -0.11371826380491257, 0.2384764552116394, 0.232540100812912, -0.16888274252414703, 0.14543361961841583, 0.18420524895191193, -0.4113427400588989, 0.6130657196044922, -0.0678214356303215, -0.09554095566272736, 0.11300315707921982, -0.11008135974407196, -0.4714152216911316], [-0.15759345889091492, -0.2665845453739166, -1.0854740142822266, 0.12411016970872879, -0.7913290858268738, 0.27329203486442566, 0.11540478467941284, -0.027112048119306564, 0.04283658042550087, -0.18198156356811523, 0.15055052936077118, -0.2495875358581543, -0.08710473030805588, -0.02287161536514759, -0.3780418634414673, 0.3605331778526306, 0.09604053944349289, -0.01298749353736639, -0.14829616248607635, -0.39047256112098694, -0.06153903901576996, -0.43707501888275146, 0.4267827868461609, -0.04650336503982544, 0.17871364951133728, -0.29184457659721375, -0.5532076954841614, -0.2455551028251648, -0.38558661937713623, -0.002376400865614414, 0.17598170042037964, -0.512080192565918, 0.27776476740837097, 0.3549504578113556, -0.172582745552063, -0.13790445029735565, 0.4958799183368683, -0.20326414704322815, 0.16308057308197021, -0.2743884027004242, 0.5660934448242188, -0.5405154228210449, 0.36774685978889465, 0.22541674971580505, 0.16864147782325745, -0.32145586609840393, -0.05557969585061073, 0.1554342657327652, -0.4086802005767822, -0.39144167304039, -0.2083621770143509, -0.1967802494764328, 0.1976066380739212, -0.17909453809261322, 0.16091586649417877, 0.6229806542396545, 0.2726442813873291, -0.47321438789367676, -0.4121876060962677, 0.4464895725250244, 0.25788140296936035, -0.16610975563526154, 0.3814932703971863, 0.2683591842651367, -0.1857328563928604, -0.24444852769374847, 0.20038148760795593, -0.28543737530708313, -0.19275003671646118, -0.14352062344551086, -0.3446038067340851, 0.03999847546219826, 0.008478200994431973, -0.25709524750709534, -0.40777191519737244, -0.05700721591711044, 0.11026190966367722, -0.4364946484565735, 0.11010006815195084, -0.05143774673342705, 0.08575423061847687, 0.45858100056648254, 0.47008559107780457, 0.35177797079086304, 0.12371060252189636, -0.5533296465873718, -0.025974582880735397, -0.3400341868400574, 0.026702534407377243, -0.15809442102909088, 0.10359710454940796, -0.09110946953296661, 0.07071257382631302, 0.6085366606712341, 0.10576850175857544, 0.20500041544437408, -0.1500721275806427, 0.05985860526561737, 0.264530211687088, 0.4148346185684204, 0.3468765914440155, 0.3483670651912689, -0.11513667553663254, -0.03867489844560623, 0.3927878439426422, -0.13770276308059692, 0.312425822019577, -0.0053568691946566105, -0.0288077425211668, -0.17260122299194336, 0.45900341868400574, -0.2897987365722656, -0.5645390152931213, 0.11756325513124466, 0.300660640001297, -0.3720664083957672, 0.03786318004131317, 0.09752608835697174, 0.10151879489421844, 0.6505639553070068, 0.04533928632736206, -0.3991353213787079, -0.10118057578802109, -0.24074937403202057, -0.2539982497692108, 0.4094310402870178, 0.10700535774230957, 0.04231187701225281], [0.10356926172971725, -0.029321178793907166, -0.06981968134641647, -0.19300396740436554, 0.0575137659907341, -0.03687845170497894, -0.892101526260376, 0.2686085104942322, 0.269175261259079, 0.20133984088897705, 0.05729518085718155, -0.024096855893731117, -0.13828280568122864, -0.12973074615001678, -0.2872304320335388, -0.1585804671049118, 0.09861163794994354, -0.08318661153316498, -0.32219839096069336, 0.2902025282382965, 0.12250088900327682, 0.010541743598878384, 0.2192782312631607, 0.32336291670799255, -0.5514485239982605, -0.2708224654197693, 0.005544615443795919, -0.0773429349064827, -0.0744679868221283, -0.3094426393508911, 0.24737130105495453, -0.19149017333984375, -0.1384364515542984, -0.2854814827442169, -0.4338948726654053, 0.3135077655315399, -0.3349381983280182, -0.00024262082297354937, -0.8849918842315674, -0.35979676246643066, -0.08285662531852722, 0.04323616996407509, 0.5792568325996399, -0.309348464012146, -0.003822294995188713, -0.045560047030448914, -0.6051183938980103, -0.5649784207344055, -0.00893607921898365, -0.04921549931168556, 0.05179743468761444, -0.24188770353794098, 0.4891025424003601, -0.03932212293148041, -0.04518852382898331, -0.1990935206413269, 0.10983821749687195, 0.21734008193016052, 0.2843053340911865, -0.14484429359436035, -0.15510910749435425, 0.11849240958690643, -0.05796414241194725, -0.4755977988243103, -0.03036436252295971, -0.16429503262043, -0.3414239287376404, 0.3138383626937866, -0.06364798545837402, 0.02289440482854843, 0.08019361644983292, -0.14080175757408142, -0.4662925899028778, 0.1597687304019928, 0.1831914782524109, 0.10573899745941162, -0.14994317293167114, -0.430683970451355, -0.8421064615249634, 0.22959215939044952, -0.2725546061992645, -0.31405338644981384, 0.030808966606855392, -0.43777111172676086, -0.29359525442123413, -0.3547995388507843, 0.17611058056354523, 0.19277742505073547, 0.34408438205718994, -0.9162721037864685, 0.13685384392738342, -0.07701927423477173, 0.3740616738796234, 0.1204206719994545, -0.24669651687145233, -0.2818145751953125, -0.09645255655050278, -0.08039510995149612, -0.3385155200958252, -0.13349942862987518, 0.2504017949104309, -0.5677518844604492, -0.25226426124572754, -0.5111649632453918, 0.1624862402677536, -0.022455062717199326, -0.0742257609963417, 0.05574752390384674, 0.02449045144021511, -0.3698327839374542, 0.1122104600071907, 0.3906419575214386, -0.1441817432641983, -0.14736077189445496, -0.2631402909755707, -0.042533520609140396, -0.002013481454923749, -0.03175146505236626, -0.7602123618125916, 0.23224113881587982, 0.4181651473045349, -0.3282545804977417, -0.5182204842567444, -0.09621794521808624, 0.19119535386562347, -0.40652933716773987, -0.31785130500793457, -0.10378944128751755], [-0.286249577999115, -0.14088867604732513, -0.7384262084960938, 0.032353974878787994, -0.05834518373012543, -0.35603636503219604, -0.2913194000720978, -0.029411211609840393, 0.4196872115135193, -0.03536215424537659, -0.21474747359752655, 0.24100972712039948, -0.058098528534173965, -0.15937024354934692, 0.038898367434740067, -0.7917536497116089, 0.0813736692070961, -0.11266842484474182, 0.09114838391542435, -0.12182619422674179, 0.07323497533798218, -0.047815412282943726, -0.19536569714546204, 0.23920948803424835, 0.09889011085033417, 0.1569744199514389, -0.2078588753938675, 0.1686992645263672, -0.33431485295295715, -0.04313991963863373, -0.10016252845525742, 0.11327515542507172, -0.3032609820365906, 0.007863941602408886, -0.28142350912094116, 0.5147925019264221, 0.2676907479763031, 0.37811043858528137, -0.767184317111969, -0.07545024901628494, -0.01656019315123558, -0.24102336168289185, 0.3037281334400177, -0.2635937035083771, -0.5169745683670044, 0.0042760916985571384, -0.24043069779872894, -1.002588152885437, 0.40268629789352417, -0.11698656529188156, 0.2192230373620987, -0.08896058797836304, 0.04262428730726242, 0.2196555882692337, -0.09265269339084625, 0.12963861227035522, 0.32025495171546936, -0.35827454924583435, 0.10492946207523346, -0.2094087302684784, -0.07563631236553192, 0.10846634954214096, 0.3222036063671112, -0.4114557206630707, -0.1877736896276474, -0.578641951084137, -0.4156111776828766, 0.3660571575164795, 0.10394987463951111, 0.16082461178302765, 0.1595063954591751, 0.11277343332767487, 0.0010898159816861153, 0.16139397025108337, 0.18887625634670258, 0.21236006915569305, -0.005565976724028587, -0.15187177062034607, -0.37668344378471375, 0.3583608567714691, -0.5867236256599426, -0.174862340092659, 0.14748187363147736, -0.18166795372962952, -0.2543995976448059, 0.22561828792095184, -0.018882598727941513, 0.014197520911693573, -0.09941419214010239, -0.5726054310798645, 0.05900738015770912, 0.0420396625995636, -0.08577276021242142, -0.020989038050174713, 0.08838825672864914, -0.010654586367309093, -0.21751579642295837, 0.4152757227420807, -0.17245091497898102, -0.36137521266937256, -0.11444099247455597, -0.4744237959384918, -0.4312005937099457, -0.6326682567596436, 0.3178980052471161, -0.32502418756484985, 0.27223387360572815, -0.32504311203956604, 0.20407530665397644, -0.3436927795410156, -0.5954664945602417, -0.25106093287467957, -0.021023258566856384, 0.1445746123790741, -0.01839159056544304, -0.25797906517982483, -0.14149263501167297, 0.2620016038417816, -0.5418868660926819, -0.015570084564387798, 0.08913741260766983, -0.8410282135009766, -0.025614647194743156, 0.032512906938791275, -0.03536277264356613, -0.0511321984231472, 0.03306397795677185, -0.17731620371341705], [-0.04984617605805397, -0.12417110800743103, 0.14649541676044464, -0.2888907194137573, -0.13554613292217255, -0.27489373087882996, 0.363524854183197, 0.25769224762916565, -0.07010924816131592, -0.3906157314777374, 0.2274908423423767, 0.04244918376207352, 0.11096177250146866, 0.046793319284915924, -0.12282513827085495, -0.08104434609413147, -0.3277044892311096, -0.3276106119155884, 0.2202698439359665, 0.04396806284785271, 0.24904924631118774, 0.07231146097183228, -0.3192868232727051, -0.1687488555908203, 0.06277605891227722, 0.18698130548000336, -0.3068012297153473, 0.23309046030044556, 0.0933501347899437, 0.31310880184173584, -0.11482008546590805, 0.011328784748911858, -0.3010999262332916, 0.013014218769967556, 0.15022453665733337, -0.5447494387626648, -0.20485974848270416, -0.04058245196938515, 0.00023291418619919568, -0.03249909728765488, -0.10699743777513504, 0.22094084322452545, -0.05068305879831314, -0.24880452454090118, -0.18315467238426208, -0.033239103853702545, 0.10176403075456619, 0.27741193771362305, -0.05451588332653046, 0.10670910775661469, 0.10373006761074066, 0.3938632905483246, -0.1133112907409668, -0.12384059280157089, -0.14119085669517517, -0.38342639803886414, -0.5034263134002686, 0.10476724058389664, -0.44480305910110474, -0.46357461810112, 0.0016081092180684209, -0.2943417727947235, -0.16136009991168976, 0.016378751024603844, -0.18239013850688934, 0.1538211852312088, -0.17096400260925293, 0.127335324883461, 0.08041705936193466, 0.20111975073814392, -0.12982508540153503, -0.4215155839920044, -0.11568798869848251, 0.08142659813165665, 0.0851099044084549, 0.40867912769317627, 0.16130474209785461, 0.30259451270103455, 0.1448122262954712, -0.45842230319976807, 0.013402770273387432, -0.0955859050154686, 0.018298666924238205, -0.3557780385017395, 0.173414945602417, 0.6277551054954529, 0.32401561737060547, -0.058009807020425797, -0.29477444291114807, 0.3911820352077484, 0.14949433505535126, 0.007333744317293167, 0.17021702229976654, -0.3679920732975006, -0.11315479874610901, 0.37349826097488403, -0.15583665668964386, -0.5557148456573486, 0.18439394235610962, 0.08676309138536453, -0.3581562936306, -0.4521174132823944, -0.06469778716564178, 0.30416467785835266, -0.3486937880516052, -0.08067083358764648, -0.021220555528998375, 0.2797429859638214, 0.29646939039230347, -0.09261513501405716, -0.16809441149234772, -0.10801828652620316, 0.3947906792163849, 0.15935736894607544, 0.022449301555752754, 0.39081326127052307, -0.0053331851959228516, 0.33163246512413025, -0.310546875, -0.2276645451784134, -0.1770714521408081, 0.004347177688032389, 0.11828909069299698, -0.1573379933834076, 0.25686463713645935, 0.3636527955532074, -0.11929550021886826, -0.17222441732883453], [0.527466356754303, 0.3217394948005676, -0.2779596149921417, -0.3295849859714508, 0.1677853763103485, -0.459248423576355, -0.6740623116493225, 0.01160779595375061, 0.2236514538526535, -0.40982893109321594, -0.5775420069694519, 0.041911013424396515, 0.25496894121170044, 0.11151276528835297, -0.004464886151254177, 0.051905468106269836, -0.6063942909240723, -0.027476632967591286, 0.2372051626443863, 0.4233427345752716, 0.009255003184080124, 0.19601450860500336, -0.5685127973556519, -0.020928949117660522, 0.05873067304491997, -0.5421667695045471, 0.15463344752788544, 0.24565429985523224, 0.23463793098926544, -0.2557486593723297, -0.0767449364066124, 0.08342086523771286, -0.0637538805603981, -0.24976001679897308, 0.3928251266479492, 0.04694512486457825, -0.29749083518981934, 0.11106570810079575, -0.34843894839286804, 0.10964276641607285, -0.440251886844635, -0.13083511590957642, 0.007426864467561245, -0.5893453359603882, -0.12611974775791168, 0.11456805467605591, -0.5601653456687927, -0.5918734073638916, 0.06663984805345535, -0.3340277373790741, 0.4237194359302521, -0.19059710204601288, -0.027649130672216415, -0.1472548097372055, 0.015966618433594704, -0.28622034192085266, -0.4701768159866333, -0.21854767203330994, 0.07691573351621628, -0.25830674171447754, -0.3265058398246765, 0.021564865484833717, -0.20849524438381195, -0.06452691555023193, -0.4628099501132965, -0.33999037742614746, 0.2596423029899597, 0.09180241823196411, 0.007186027709394693, -0.11585450917482376, -0.2559567987918854, -0.26060473918914795, -0.48896265029907227, 0.21775685250759125, 0.12357394397258759, 0.2732482850551605, -0.47683945298194885, -0.012882482260465622, -0.14708656072616577, -0.14233961701393127, -0.3086530566215515, -0.894498884677887, -0.42258167266845703, -0.07901912182569504, -0.13642644882202148, -0.0491986945271492, 0.46835845708847046, 0.14192256331443787, -0.2387307584285736, -0.4137967526912689, -0.016581080853939056, -0.09155818819999695, 0.2657497227191925, -0.49597352743148804, -0.47675734758377075, -0.438287615776062, 0.08584842830896378, -0.09137871116399765, 0.375205397605896, -0.11523693799972534, -0.24664078652858734, -0.38584038615226746, -0.8349571228027344, 0.050199057906866074, -0.7084372043609619, -0.47124913334846497, -0.18981124460697174, -0.002518578665331006, 0.09589636325836182, 0.05174728482961655, -0.03952700272202492, 0.0005259579047560692, -0.24616669118404388, 0.25280889868736267, 0.1598987728357315, 0.027979310601949692, -0.07979849725961685, -0.10331164300441742, -0.37782666087150574, -0.38967958092689514, -0.09479863196611404, -0.3487016558647156, 0.06233600899577141, 0.5045253038406372, 0.13679753243923187, 0.13445450365543365, -0.6707050204277039, -0.010990554466843605], [0.04603736102581024, -0.1437619924545288, 0.34966984391212463, -0.07340838015079498, -0.026195067912340164, 0.08785994350910187, 0.4222428798675537, 0.1526097059249878, -0.012182003818452358, -0.3840036392211914, -0.01256747916340828, -0.16381901502609253, 0.20936959981918335, 0.17693333327770233, 0.09921154379844666, 0.24866364896297455, 0.01965722255408764, 0.2149745523929596, 0.2857454717159271, -0.056359123438596725, 0.18606522679328918, 0.07330399006605148, -0.2486402541399002, -0.3048727512359619, -0.15946802496910095, 0.1340867578983307, -0.21431316435337067, 0.219230055809021, -0.03433413803577423, 0.16771256923675537, -0.2050665020942688, -0.15339350700378418, -0.2841189205646515, -0.3885003328323364, -0.23689480125904083, -0.28410154581069946, -0.16106189787387848, 0.16134949028491974, 0.3973100781440735, 0.1831137090921402, -0.07861573994159698, -0.19210611283779144, 0.020058123394846916, 0.07743306457996368, -0.15283016860485077, -0.20611447095870972, 0.2424314171075821, 0.15692554414272308, -0.2512463927268982, -0.028342148289084435, 0.004876730963587761, 0.5154730677604675, -0.08708319067955017, -0.07536913454532623, -0.011414613574743271, -0.06135811284184456, -0.22398270666599274, -0.11460720002651215, 0.053301792591810226, -0.20412889122962952, -0.2244493067264557, -0.08963198214769363, 0.2660563886165619, 0.2431957870721817, -0.062216952443122864, 0.15689672529697418, 0.12276673316955566, -0.2539067268371582, 0.1996447890996933, 0.29494285583496094, 0.035877525806427, -0.1250978261232376, -0.006515531800687313, 0.01065780594944954, 0.27707409858703613, 0.4547470211982727, 0.35191377997398376, 0.4803028106689453, 0.14541631937026978, -0.14155957102775574, -0.2541353702545166, -0.054897673428058624, 0.2742503583431244, -0.24540530145168304, 0.04172436520457268, 0.5993735194206238, -0.07003196328878403, -0.1741369515657425, 0.02865249291062355, 0.41162797808647156, -0.09521827846765518, 0.2300948053598404, -0.23715612292289734, -0.15603294968605042, 0.5170349478721619, 0.09636522829532623, -0.10323838144540787, -0.10134159028530121, 0.17530417442321777, 0.07535693794488907, 0.20757059752941132, -0.3485274314880371, 0.3591601550579071, 0.12217052280902863, 0.000751816260162741, 0.556130051612854, 0.016869133338332176, 0.18221409618854523, -0.1013251543045044, -0.12112544476985931, 0.2882421314716339, 0.18970519304275513, 0.1072455495595932, -0.04790392518043518, 0.08333934843540192, 0.05126305669546127, 0.0646107867360115, 0.19389042258262634, 0.24829766154289246, 0.24515265226364136, -0.41931653022766113, 0.2308494746685028, -0.2110910564661026, 0.3235684931278229, -0.060934294015169144, 0.0896826982498169, 0.23150357604026794, 0.2688174545764923], [-0.20719289779663086, 0.041739195585250854, 0.1754174530506134, -0.026991887018084526, -0.005317194852977991, 0.09823375195264816, 0.20753778517246246, -0.36714911460876465, -0.41954898834228516, -0.217671737074852, -0.228323832154274, -0.2638757824897766, 0.19858461618423462, 0.25063544511795044, -0.1211332231760025, 0.2425655573606491, -0.07428842782974243, 0.18166238069534302, -0.166277214884758, 0.007111922837793827, -0.033088650554418564, -0.15412625670433044, 0.41120362281799316, 0.1575937718153, -0.13914373517036438, -0.13211509585380554, -0.09355758130550385, -0.09769012778997421, 0.2077302187681198, -0.2776700556278229, 0.13898563385009766, -0.06086008623242378, 0.21478384733200073, -0.10369879752397537, 0.15965424478054047, 0.05502646788954735, 0.28389671444892883, -0.3061032295227051, -0.27522924542427063, 0.34859269857406616, -0.0995725616812706, 0.09026145190000534, -0.1361202597618103, 0.24627140164375305, 0.15761809051036835, -0.23353540897369385, -0.5149344205856323, 0.2848964035511017, -0.47181835770606995, -0.15884874761104584, 0.10328251123428345, -0.007228691130876541, -0.13108232617378235, -0.47949978709220886, 0.12320846319198608, 0.24454766511917114, 0.0244908407330513, -0.0719384253025055, -0.061380449682474136, 0.4031555950641632, 0.26360538601875305, 0.18482860922813416, -0.42080700397491455, 0.38432320952415466, -0.15887001156806946, 0.13989970088005066, 0.31760990619659424, -0.06204436346888542, 0.16056549549102783, -0.35100606083869934, -0.07612361013889313, 0.031492918729782104, 0.2569676637649536, -0.19699181616306305, -0.19517217576503754, -0.3215298056602478, -0.1793738305568695, -0.5424789786338806, 0.19379688799381256, -0.18645215034484863, 0.0825861468911171, -0.4465715289115906, -0.21906226873397827, 0.3257240355014801, 0.18390727043151855, -0.2558826506137848, 0.030665885657072067, 0.10488096624612808, 0.3245643079280853, -0.11804893612861633, 0.0888184979557991, -0.14303888380527496, 0.2787173390388489, 0.23736006021499634, 0.1396206021308899, -0.36718693375587463, 0.2837202548980713, -0.0355270616710186, 0.2725106179714203, -0.5918647050857544, 0.6568618416786194, 0.21592086553573608, -0.41831693053245544, -0.1749057173728943, -0.16346557438373566, -0.5422632694244385, -0.05204764008522034, 0.09802620112895966, -0.4430423974990845, 0.047601792961359024, 0.1268404871225357, -0.2550791800022125, -0.3987652063369751, -0.1430986225605011, -0.40486472845077515, 0.09295693039894104, -0.052729569375514984, -0.14806918799877167, -0.11639951169490814, 0.17524510622024536, 0.014883521012961864, -0.10256733745336533, -0.03663642704486847, -0.14851446449756622, -0.3908894956111908, -0.024832600727677345, 0.18570448458194733, -0.06699331104755402], [-0.054469067603349686, -0.10094299912452698, 0.31893861293792725, 0.16292399168014526, -0.056411780416965485, 0.19893710315227509, 0.01578483358025551, -0.08226117491722107, -0.14046919345855713, 0.007600417360663414, -0.13357289135456085, -0.20017655193805695, 0.12124501168727875, -0.06448188424110413, -0.1893608123064041, 0.03991960361599922, -0.01583261229097843, 0.02375601977109909, -0.16600309312343597, 0.026409272104501724, 0.1705324649810791, 0.021566949784755707, 0.36877626180648804, 0.10436486452817917, 0.46929872035980225, -0.17013762891292572, 0.13469550013542175, -0.023244038224220276, -0.22183625400066376, -0.07079998403787613, 0.029540883377194405, -0.18151330947875977, 0.19687925279140472, -0.17334122955799103, 0.04751329496502876, 0.22057032585144043, 0.06174253672361374, -0.31214484572410583, 0.08621224761009216, -0.03335331007838249, 0.29616978764533997, -0.24929717183113098, -0.11139778047800064, 0.13828930258750916, 0.1959172934293747, -0.08666669577360153, 0.4271056056022644, 0.14382247626781464, -0.14503121376037598, -0.3749215304851532, 0.1643906980752945, 0.001300576375797391, 0.012856315821409225, -0.30381831526756287, 0.43245312571525574, 0.1768462210893631, 0.2024208903312683, -0.1599612683057785, 0.16870324313640594, 0.3424212336540222, 0.42315903306007385, 0.05219927802681923, 0.18176250159740448, 0.07804109156131744, -0.14138038456439972, -0.3730471134185791, 0.1850445568561554, 0.008900665678083897, -0.016503065824508667, -0.1573348343372345, 0.5192840695381165, 0.5161203742027283, 0.12294962257146835, -0.31821250915527344, -0.02392437681555748, -0.5451189875602722, 0.31633085012435913, -0.28429168462753296, 