{"log_std": [-1.3215184211730957, -1.7872024774551392], "mlp_extractor.policy_net.0.weight": [[-0.04061714932322502, -0.07336077839136124, 0.1902056336402893, 0.10736261308193207, 0.011256858706474304, 0.12107901275157928, -0.07237625122070312, 0.3581851124763489, -0.07526957243680954, -0.03656255081295967, 0.09333372116088867, 0.3094126880168915, 0.12516649067401886, 0.06539534777402878, -0.3662959337234497, 0.4057805836200714, 0.1610485315322876], [0.24408270418643951, 0.05205293372273445, -0.07258396595716476, -0.09823907911777496, -0.10104629397392273, 0.282418429851532, -0.2082219123840332, -0.13674981892108917, -0.08902588486671448, 0.015703784301877022, -0.11444561183452606, 0.1394854187965393, -0.28266477584838867, -0.35737770795822144, 0.1725040227174759, -0.19148185849189758, -0.13342930376529694], [0.17274342477321625, 0.1706053763628006, 0.20658543705940247, -0.01621314510703087, 0.24273763597011566, -0.14512468874454498, -0.06462400406599045, -0.20131906867027283, -0.22288037836551666, -0.0009582447819411755, -0.09228245168924332, -0.14986315369606018, 0.46793442964553833, -0.35846590995788574, -0.04330497607588768, -0.304416298866272, -0.004754230845719576], [-0.1610637754201889, 0.28031402826309204, -0.05502293258905411, 0.149895578622818, -0.20774385333061218, 0.15666592121124268, -0.17568250000476837, 0.05127095431089401, 0.19983379542827606, 0.20098745822906494, 0.04544283449649811, 0.26671046018600464, -0.06501182168722153, -0.18582895398139954, -0.201188862323761, 0.251303493976593, -0.49099457263946533], [0.17296364903450012, 0.0621618926525116, 0.12757159769535065, 0.2569222152233124, 0.15223345160484314, 0.01595900021493435, -0.18290305137634277, -0.22180962562561035, -0.1606598049402237, -0.09426728636026382, -0.27117520570755005, -0.3805968761444092, 0.09668052941560745, 0.32739201188087463, -0.03693678230047226, -0.03387104719877243, -0.1856202483177185], [-0.22557751834392548, 0.23080748319625854, -0.007793657016009092, 0.1382230967283249, 0.3552837073802948, 0.18245667219161987, -0.35001370310783386, 0.19177205860614777, -0.23327651619911194, 0.07658064365386963, 0.044323522597551346, 0.031554751098155975, 0.13324417173862457, -0.21239949762821198, -0.19856257736682892, 0.12623123824596405, -0.08269052952528], [0.05791180208325386, 0.45118454098701477, 0.1323329508304596, -0.2541886568069458, 0.01992174983024597, 0.11240216344594955, 0.4926268756389618, 0.2306174784898758, 0.22496633231639862, 0.3411223590373993, -0.2939014434814453, 0.09513472020626068, -0.03058396652340889, -0.5570717453956604, 0.04956277832388878, 0.1702740341424942, 0.038198523223400116], [-0.06487507373094559, -0.09067225456237793, 0.2438095211982727, -0.03586146980524063, -0.16619011759757996, 0.13735425472259521, 0.18603238463401794, 0.17748424410820007, -0.05863059684634209, 0.1539236158132553, 0.313863605260849, 0.1730014979839325, 0.6248459815979004, 0.08098740130662918, 0.07771816104650497, 0.1272275298833847, 0.047815654426813126], [-0.0376398079097271, -0.32478514313697815, 0.02474743314087391, -0.17776650190353394, 0.27317121624946594, -0.141514852643013, 0.3539249300956726, -0.2674165666103363, 0.07883942872285843, -0.4023560583591461, 0.005514404270797968, 0.4305327236652374, 0.3581688404083252, 0.06775438785552979, 0.16329114139080048, 0.023937245830893517, -0.03447241708636284], [-0.03518352657556534, -0.18720324337482452, 0.2275853008031845, 0.14098727703094482, -0.04959618300199509, 0.10362791270017624, 0.29420989751815796, 0.12675358355045319, 0.0366460382938385, -0.09819723665714264, 0.2610481083393097, -0.004997835960239172, 0.5653752088546753, 0.1293914020061493, 0.1424914449453354, -0.03197189420461655, 0.20424054563045502], [0.012494521215558052, -0.3474162817001343, -0.28500446677207947, 0.12891364097595215, -0.02533513680100441, -0.04637070372700691, -0.244839608669281, -0.20793135464191437, 0.17279869318008423, -0.10534025728702545, 0.20999744534492493, -0.05618070065975189, -0.22214214503765106, 0.34172287583351135, 0.04553413763642311, 0.16541624069213867, 0.01172119751572609], [-0.18322791159152985, -0.1575414091348648, 0.15781286358833313, 0.1224723756313324, -0.02417588420212269, 0.09195631742477417, -0.08921026438474655, 0.236643448472023, -0.12889380753040314, 0.006039505358785391, 0.6256900429725647, -0.050884198397397995, 0.27143749594688416, 0.19665558636188507, -0.026949213817715645, -0.005101000890135765, -0.20253655314445496], [0.44015932083129883, 0.038813866674900055, 0.02214258350431919, 0.09725534170866013, -0.05935889855027199, -0.04943827912211418, -0.01843961328268051, -0.07340775430202484, 0.16828107833862305, -0.07203169167041779, 0.13590753078460693, 0.0986204594373703, -0.06579148769378662, 0.028410520404577255, 0.04471437633037567, -0.03296436741948128, 0.10090792924165726], [0.17445069551467896, -0.09894277900457382, -0.08875330537557602, -0.12030817568302155, -0.11534299701452255, -0.28959858417510986, -0.363810271024704, -0.3481546938419342, 0.08657047152519226, -0.03670721501111984, 0.21038641035556793, -0.09302700310945511, -0.12908931076526642, 0.1785258650779724, -0.15106996893882751, -0.24261890351772308, 0.11205989867448807], [0.08888475596904755, 0.34695738554000854, 0.06850694864988327, -0.03466373682022095, 0.057435713708400726, 0.08376546949148178, 0.017437025904655457, -0.2447262704372406, -0.05020136386156082, -0.19207587838172913, -0.10607384145259857, -0.4422905147075653, 0.05204836279153824, -0.155295729637146, 0.1813536435365677, -0.03411484137177467, 0.10338062793016434], [-0.21483902633190155, 0.29509982466697693, -0.17183074355125427, 0.03354567661881447, -0.032704491168260574, -0.059898171573877335, -0.20927467942237854, -0.05899588391184807, 0.011017724871635437, 0.4195280969142914, -0.0568578764796257, -0.015844637528061867, 0.1280324012041092, -0.23471716046333313, -0.3164273798465729, -0.15270306169986725, 0.17096126079559326], [-0.23891733586788177, 0.012646347284317017, 0.18915358185768127, -0.0009874997194856405, -0.015250950120389462, 0.03029932826757431, 0.15718553960323334, 0.11227265000343323, 0.023885197937488556, -0.03604469075798988, 0.22524039447307587, 0.052582964301109314, 0.7602453827857971, 0.027274666354060173, 0.015456113032996655, -0.022992154583334923, 0.15996654331684113], [0.03928040713071823, 0.19358256459236145, 0.11089479178190231, -0.1353117972612381, -0.011469131335616112, 0.1318846493959427, -0.06658951193094254, 0.034316666424274445, 0.36414557695388794, 0.10686827450990677, 0.07332666963338852, -0.35185202956199646, -0.0014464666601270437, -0.3651339113712311, -0.08647159487009048, -0.2596638798713684, 0.0683479830622673], [0.3077794909477234, -0.1271674782037735, 0.21457968652248383, 0.03371953219175339, 0.08286712318658829, 0.11445403844118118, 0.08016583323478699, -0.19503529369831085, 0.20485232770442963, -0.14912034571170807, -0.0019473262364044785, -0.22282078862190247, -0.4051011800765991, 0.22396282851696014, -0.034429531544446945, 0.39195123314857483, 0.1733299344778061], [-0.0036571219097822905, -0.12985330820083618, 0.22682234644889832, 0.20318521559238434, -0.11267054826021194, 0.03208088129758835, 0.015301726758480072, -0.020790329203009605, 0.09649164229631424, 0.1721869707107544, -0.03928716108202934, -0.013884472660720348, 0.2178746610879898, 0.34794750809669495, 0.0962681770324707, 0.038907699286937714, 0.33392226696014404], [0.09982980042695999, 0.14654700458049774, -0.11595393717288971, -0.03689662367105484, 0.16679438948631287, 0.22085081040859222, 0.7213521003723145, 0.5019195079803467, -0.003764429595321417, 0.33244144916534424, -0.021355455741286278, -0.03434743732213974, -0.17031246423721313, -0.12226300686597824, 0.4354633092880249, 0.22582753002643585, 0.15757592022418976], [0.0972323939204216, 0.02045033872127533, 0.1581995189189911, -0.050684619694948196, -0.09994276612997055, 0.01114580873399973, -0.39039912819862366, 0.03520350158214569, 0.003174569457769394, 0.02109897881746292, -0.32409870624542236, -0.4308669865131378, -0.2289636880159378, 0.008588588796555996, -0.13095347583293915, 0.0814274400472641, 0.08604572713375092], [-0.6199653148651123, -0.23174427449703217, 0.12407843768596649, 0.2266877293586731, 0.09533346444368362, 0.05672292783856392, 0.35276925563812256, 0.07436221092939377, 0.2763095796108246, 0.14794477820396423, -0.4335981607437134, 0.08265109360218048, 0.0735263079404831, -0.010059081949293613, 0.17021934688091278, 0.00412666006013751, 0.08092126995325089], [-0.001999991713091731, 0.14601831138134003, 0.07231634110212326, 0.08646664768457413, 0.19475679099559784, 0.08999866992235184, -0.241543710231781, -0.1931176334619522, -0.15990978479385376, -0.2810806632041931, 0.21951836347579956, -0.39766183495521545, 0.09199369698762894, 0.39811980724334717, -0.23085850477218628, 0.010459471493959427, -0.13713997602462769], [0.11043449491262436, 0.05873772129416466, -0.04418210685253143, -0.22340799868106842, -0.12442774325609207, 0.07905436307191849, 0.04458906501531601, 0.05416616424918175, -0.061402421444654465, -0.114820197224617, -0.23899021744728088, 0.11788906902074814, 0.014508245512843132, -0.3376178741455078, -0.2043372243642807, 0.23758351802825928, 0.24381259083747864], [-0.13902853429317474, -0.21159107983112335, -0.13551099598407745, -0.06639605015516281, 0.12694494426250458, -0.23888562619686127, -0.21517369151115417, -0.00744757242500782, -0.025930825620889664, -0.20617994666099548, 0.09099365770816803, -0.0198720283806324, -0.3609597682952881, -0.11422881484031677, -0.28301090002059937, -0.054158978164196014, 0.18411384522914886], [0.27253827452659607, 0.23997990787029266, 0.18384799361228943, -0.042436208575963974, 0.055012863129377365, 0.17606008052825928, -0.3258211612701416, 0.053894925862550735, -0.22047829627990723, 0.13858914375305176, -0.1485818475484848, -0.35524970293045044, 0.009092207998037338, -0.2908865213394165, 0.23588743805885315, 0.017503950744867325, 0.029309004545211792], [0.21792477369308472, -0.11351476609706879, 0.13398230075836182, 0.08589266240596771, 0.002989741275086999, 0.025740977376699448, 0.05256425216794014, 0.08976652473211288, 0.04697300121188164, -0.03635729104280472, 0.046173498034477234, 0.24153338372707367, -0.002122330479323864, -0.19505062699317932, 0.0581020750105381, -0.04104943946003914, -0.038944557309150696], [0.15006409585475922, -0.20794357359409332, -0.054518867284059525, 0.012392714619636536, -0.1585172861814499, 0.0750364437699318, -0.47136878967285156, 0.03659941256046295, -0.4629773795604706, 0.2596551477909088, 0.173237144947052, -0.028364071622490883, -0.46030229330062866, 0.09828075766563416, -0.031477201730012894, -0.13419128954410553, -0.2399948090314865], [-0.34294646978378296, -0.12412433326244354, -0.25337475538253784, 0.06623809784650803, 0.04489368945360184, -0.28466469049453735, -0.24115900695323944, 0.21652089059352875, -0.41496577858924866, -0.05672645568847656, 0.1617724895477295, 0.06494427472352982, -0.2525898218154907, -0.07280812412500381, 0.06807483732700348, 0.2885291874408722, 0.10614625364542007], [-0.09692976623773575, -0.0003638558555394411, -0.09665674716234207, 0.12144686281681061, -0.17803551256656647, 0.14329735934734344, -0.05539379641413689, 0.06404661387205124, -0.3647416830062866, 0.19371655583381653, 0.31764668226242065, 0.23025086522102356, 0.19276690483093262, 0.2986518442630768, 0.1803002506494522, 0.027045907452702522, -0.03783390671014786], [0.31451845169067383, -0.15523093938827515, -0.034247986972332, 0.153559610247612, -0.020444752648472786, -0.1814238429069519, -0.22970125079154968, -0.3546338379383087, -0.08586951345205307, 0.04260186105966568, 0.0764773041009903, 0.17429892718791962, -0.23736023902893066, 0.18259242177009583, -0.10635995119810104, -0.13913270831108093, 0.07425817847251892], [-0.08888285607099533, 0.01879376918077469, -0.41607314348220825, 0.07039400190114975, -0.036052197217941284, 0.1418636590242386, 0.2766816020011902, -0.1832898110151291, 0.18724015355110168, 0.001538290991447866, 0.01683018170297146, 0.21978075802326202, -0.20664122700691223, -0.11367825418710709, 0.022024376317858696, 0.07819115370512009, -0.15246377885341644], [0.10509784519672394, -0.1626080572605133, -0.40561437606811523, -0.031939588487148285, -0.03059220500290394, -0.08810000121593475, 0.6279771327972412, -0.014218823052942753, -0.16301444172859192, 0.12402250617742538, 0.28342002630233765, -0.0840563103556633, 0.03248891606926918, 0.03270719572901726, 0.13756369054317474, -0.017304811626672745, 0.11511526256799698], [0.15177702903747559, -0.10561861842870712, -0.21415778994560242, -0.1361626833677292, 0.1517620086669922, 0.08485331386327744, -0.07697787135839462, 0.15021345019340515, 0.20331478118896484, 0.18224884569644928, 0.18864737451076508, 0.05948558449745178, -0.22295589745044708, -0.30049198865890503, 0.22179001569747925, 0.10249844193458557, 0.0472707636654377], [-0.16869361698627472, -0.33397600054740906, 0.2562237083911896, 0.1277502328157425, -0.13755787909030914, 0.11166060715913773, -0.1412329226732254, -0.13990235328674316, -0.10460659116506577, -0.01561388187110424, 0.1579468697309494, 0.22566662728786469, 0.556807279586792, 0.14651523530483246, 0.011459555476903915, 0.0919296145439148, -0.2830323576927185], [-0.2592615485191345, 0.10446622967720032, -0.29397857189178467, -0.06161048263311386, 0.1022678017616272, 0.19740386307239532, 0.183480903506279, -0.30701375007629395, -0.1284526288509369, 0.22889353334903717, 0.17185041308403015, 0.038922909647226334, -0.22651442885398865, -0.06731544435024261, 0.004719706252217293, -0.31354814767837524, 0.10045582801103592], [-0.04831622540950775, -0.39702656865119934, 0.038408488035202026, 0.09593267738819122, -0.04331196844577789, 0.23808754980564117, -0.0031044604256749153, -0.11372120678424835, 0.12242309004068375, -0.11211001873016357, 0.14041560888290405, 0.08352261781692505, 0.2727849781513214, 0.1142703965306282, 0.20885105431079865, -0.11622519046068192, 0.15755243599414825], [0.055045269429683685, 0.3828947842121124, 0.011187679134309292, -0.3359161615371704, 0.043786995112895966, -0.28024110198020935, 0.023632774129509926, 0.12035086005926132, -0.31351786851882935, 0.126263827085495, -0.022425740957260132, -0.07603733986616135, -0.15925297141075134, -0.507914125919342, -0.12231026589870453, 0.20629024505615234, 0.12323634326457977], [0.358622282743454, 0.260990172624588, -0.05301137641072273, -0.1654275804758072, 0.021585453301668167, 0.24195793271064758, 0.1529332548379898, -0.174989253282547, 0.2049703747034073, -0.17549346387386322, -0.29701468348503113, 0.03222225606441498, -0.24480995535850525, -0.15194788575172424, 0.08861690759658813, 0.025229129940271378, 0.012235825881361961], [-0.19922557473182678, -0.02321595698595047, 0.12698914110660553, -0.16437439620494843, -0.08806933462619781, -0.026478029787540436, -0.06143680587410927, -0.12868478894233704, -0.03539224714040756, -0.21029824018478394, 0.27773064374923706, -0.021176300942897797, 0.42604342103004456, 0.3355114161968231, 0.17356020212173462, 0.25527864694595337, -0.006761958356946707], [-0.023924486711621284, -0.10167882591485977, -0.22597090899944305, 0.4023462235927582, 0.03803514689207077, 0.026624415069818497, -0.46204674243927, -0.1276433914899826, -0.17404384911060333, -0.017252735793590546, 0.02385680191218853, 0.059048786759376526, -0.003942083101719618, 0.19783726334571838, -0.15765316784381866, 0.15573394298553467, 0.1372987926006317], [0.1742827445268631, -0.2840029001235962, 0.05167895928025246, -0.11674612760543823, 0.2173740416765213, -0.09774049371480942, 0.4581895172595978, 0.049487218260765076, -0.04897714778780937, 0.08976545184850693, -0.2224867194890976, 0.09801575541496277, 0.09989822655916214, -0.11014239490032196, 0.18502305448055267, 0.0732860267162323, -0.19325558841228485], [-0.03714367002248764, 0.12342782318592072, -0.4699793756008148, -0.11604524403810501, -0.011591566726565361, -0.003432752564549446, 0.14698776602745056, 0.30883824825286865, 0.1606445461511612, 0.3063822388648987, -0.15061141550540924, 0.04846195504069328, -0.1353897750377655, -0.25604012608528137, 0.10411898791790009, -0.1654142141342163, -0.019085709005594254], [0.2658805251121521, 0.06857180595397949, -0.20375265181064606, -0.1193438172340393, -0.07256118208169937, 0.06913059949874878, -0.2229115515947342, 0.059255994856357574, -0.17746134102344513, 0.08781811594963074, -0.017550628632307053, 0.31468668580055237, -0.5494926571846008, -0.11045628041028976, -0.08034656941890717, -0.3056406080722809, -0.05336308851838112], [-0.01895926520228386, -0.20784062147140503, 0.12668365240097046, 0.195468932390213, -0.10989760607481003, -0.025349516421556473, 0.03549392148852348, 0.054970353841781616, 0.06562626361846924, 0.035560332238674164, -0.06094497814774513, -0.03327925130724907, 0.4093790054321289, 0.4069781005382538, -0.008413515985012054, -0.09424412250518799, -0.09438341856002808], [-0.20138780772686005, 0.34932348132133484, 0.303759902715683, -0.30253127217292786, -0.0973481684923172, 0.019579952582716942, 0.20246709883213043, 0.2586973011493683, 0.2480223923921585, 0.1305786520242691, -0.032743651419878006, 0.004019445274025202, 0.4035360813140869, -0.4912320077419281, 0.01587519235908985, 0.17807118594646454, 0.04736727848649025], [0.11878907680511475, 0.20611640810966492, -0.18517427146434784, -0.31762340664863586, 0.029436923563480377, -0.17566296458244324, -0.00893737468868494, 0.5720165967941284, 0.16734154522418976, 0.34767550230026245, -0.186478391289711, -0.009823697619140148, -0.12744276225566864, -0.4840622842311859, -0.025136122480034828, -0.02833271399140358, -0.08836193382740021], [-0.03778095170855522, -0.2239169031381607, 0.07716618478298187, 0.129452645778656, 0.025581512600183487, -0.0007732750382274389, 0.02759273536503315, -0.028416451066732407, -0.1644040197134018, 0.1693497747182846, -0.13337914645671844, 0.15712691843509674, 0.12447301298379898, 0.4163711667060852, 0.20950554311275482, -0.047586195170879364, -0.034245990216732025], [-0.2552884519100189, -0.08865751326084137, -0.07728350907564163, -0.1591082066297531, 0.03638090193271637, -0.23426178097724915, -0.03163435310125351, -0.43442028760910034, 0.05825859308242798, -0.05814756453037262, 0.3928861916065216, 0.0727442055940628, 0.01528906635940075, 0.3048625588417053, -0.09677892923355103, -0.15796886384487152, -0.09224933385848999], [0.020976250991225243, -0.19622886180877686, 0.12078927457332611, 0.04895076900720596, -0.2135462611913681, -0.05255758762359619, -0.2138277292251587, 0.09556842595338821, 0.0966123566031456, 0.05368390679359436, -0.005040436517447233, -0.1819307506084442, 0.2759745419025421, 0.06860186904668808, -0.03960124030709267, 0.11643821001052856, 0.009017660282552242], [-0.1825447529554367, -0.11956857144832611, -0.19831493496894836, 0.04893863946199417, 0.13915105164051056, -0.3748030960559845, -0.40751925110816956, -0.16451077163219452, -0.3737905025482178, -0.20154404640197754, -0.2500135600566864, -0.11867155134677887, -0.05715414136648178, -0.21129347383975983, -0.16112108528614044, 0.2583906054496765, -0.12521781027317047], [0.023999756202101707, 0.02079685963690281, 0.022227108478546143, 0.37382134795188904, 0.10175949335098267, 0.10139024257659912, -0.3876749277114868, 0.07895901054143906, -0.23596498370170593, 0.075081966817379, 0.061785537749528885, 0.05045085772871971, 0.133133202791214, 0.26805374026298523, -0.303007572889328, 0.01837068237364292, 0.09549637138843536], [0.002466174541041255, -0.07280725240707397, -0.13961166143417358, 0.11873166263103485, 0.015613872557878494, 0.21501965820789337, 0.042030248790979385, -0.22213082015514374, -0.09750885516405106, -0.37384340167045593, -0.08241861313581467, -0.08145532011985779, -0.11513837426900864, 0.315658301115036, -0.03401518985629082, 0.009080135263502598, 0.16532392799854279], [-0.2432783842086792, 0.06926419585943222, 0.10567717254161835, -0.04310978204011917, 0.0517854206264019, 0.007819452323019505, 0.025784151628613472, 0.30959436297416687, -0.07528643310070038, 0.18780076503753662, -0.1908203661441803, 0.34837213158607483, 0.39080849289894104, -0.006136178504675627, -0.22270433604717255, -0.004596734885126352, 0.2810371518135071], [-0.2746318578720093, 0.23669485747814178, -0.46836796402931213, -0.11756087839603424, -0.06299728900194168, 0.11370473355054855, 0.113273486495018, 0.1203528344631195, 0.07508456707000732, 0.3533093333244324, 0.0007876141462475061, -0.052299000322818756, 0.07499322295188904, -0.15413138270378113, 0.29379764199256897, -0.318014919757843, 0.11086046695709229], [-0.10551265627145767, -0.03869763761758804, 0.30573123693466187, -0.05176122114062309, -0.038129668682813644, 0.03292234614491463, 0.2998284697532654, -0.12345118075609207, 0.1103956550359726, 0.17548398673534393, -0.09316825121641159, 0.1902206987142563, 1.0379886627197266, 0.42872726917266846, 0.45731693506240845, 0.019031189382076263, 0.04014567285776138], [0.1861649602651596, 0.09338557720184326, -0.027891971170902252, -0.27050626277923584, 0.18295526504516602, 0.039397384971380234, -0.2957622706890106, 0.14274851977825165, 0.32716166973114014, 0.18980495631694794, 0.35609811544418335, 0.10857433080673218, 0.13892076909542084, -0.16375258564949036, -0.14122550189495087, -0.08353237807750702, 0.2357543259859085], [0.17815668880939484, -0.1410089135169983, -0.06921037286520004, 0.27758970856666565, 0.1494285613298416, 0.2726442217826843, -0.3374936878681183, 0.19449560344219208, -0.20632214844226837, 0.33520999550819397, -0.0925096720457077, -0.053984031081199646, 0.013408677652478218, 0.33425769209861755, -0.1792076975107193, 0.02062007412314415, 0.08175208419561386], [-0.2797749936580658, -0.022141586989164352, -0.259890079498291, -0.14006535708904266, 0.11480832099914551, 0.06218504160642624, 0.05322587490081787, -0.12722575664520264, -0.2666676342487335, 0.42039671540260315, 0.19543559849262238, 0.17530092597007751, -0.13655368983745575, -0.27207082509994507, 0.16925586760044098, -0.15571995079517365, 0.25439903140068054], [-0.353071004152298, 0.2953107953071594, -0.26791834831237793, -0.2449718713760376, -0.08874858170747757, -0.04367801547050476, 0.18446169793605804, 0.1693723052740097, -0.12409419566392899, 0.2186250537633896, -0.016403356567025185, -0.25108954310417175, 0.12122099101543427, -0.44406941533088684, 0.4019347131252289, 0.0036897575482726097, -0.08449313044548035], [0.0466143824160099, 0.007276406046003103, 0.04166194796562195, 0.049064766615629196, -0.031816013157367706, 0.2481692135334015, -0.11112266778945923, 0.12175223231315613, -0.45708057284355164, -0.04347418621182442, -0.39129987359046936, -0.0038120204117149115, -0.3147135078907013, 0.0652092695236206, 0.13961294293403625, 0.17695418000221252, 0.15306372940540314], [-0.1422257274389267, -0.012421680614352226, 0.06667287647724152, -0.06671800464391708, 0.21239610016345978, 0.5745142698287964, 0.14624780416488647, 0.24107079207897186, -0.183698832988739, -0.07529693096876144, 0.14975382387638092, 0.17245079576969147, 0.1744215488433838, -0.11957653611898422, 0.19706091284751892, 0.03422881290316582, 0.2795061469078064], [-0.22043459117412567, 0.0902104601264, 0.13694748282432556, -0.11177649348974228, 0.011935288086533546, -0.1810368299484253, 0.2406989187002182, -0.7912615537643433, 0.19664917886257172, 0.052783384919166565, -0.4441711902618408, -0.3245173394680023, -0.0038937400095164776, 0.08606923371553421, 0.051833972334861755, -0.5422505736351013, 0.03773421794176102], [0.07633364945650101, -0.11854659020900726, -0.057101041078567505, 0.3101775646209717, -0.0029243729077279568, 0.21350619196891785, 0.00309741054661572, -0.011164243333041668, 0.3168828785419464, 0.05496698245406151, -0.09162925183773041, 0.17727939784526825, -0.0698125958442688, 0.45331141352653503, -0.09214236587285995, 0.16866205632686615, -0.08364640921354294], [0.24644337594509125, -0.13610458374023438, -0.20130829513072968, -0.1225796565413475, -0.030023612082004547, -0.05034556984901428, -0.07496931403875351, -0.23655134439468384, 0.06435097754001617, 0.06637488305568695, 0.02876061014831066, -0.2227802872657776, -0.43889549374580383, -0.17571184039115906, -0.31182384490966797, -0.17688201367855072, -0.09220142662525177], [-0.0538490004837513, 0.2109503448009491, -0.018538186326622963, 0.1344611942768097, 0.04113306850194931, -0.2705020606517792, 0.05685657262802124, 0.05799514055252075, 0.08288943022489548, 0.2761349678039551, 0.06078328564763069, 0.12746520340442657, -0.05393734201788902, -0.36411812901496887, 0.10550080239772797, -0.23208442330360413, 0.13051709532737732], [-0.0758788213133812, -0.20177863538265228, 0.1194516271352768, 0.13980717957019806, -0.17066241800785065, 0.14816604554653168, -0.14933669567108154, 0.41203516721725464, -0.44804519414901733, 0.2472890466451645, -0.1877736747264862, -0.428575336933136, 0.16925615072250366, 0.2713369131088257, 0.045712292194366455, 0.22416463494300842, -0.021106557920575142], [0.06516078114509583, -0.13412225246429443, 0.23640121519565582, -0.0283689983189106, 0.11034690588712692, 0.013736944645643234, 0.38263070583343506, -0.13568547368049622, 0.08178795129060745, 0.16078661382198334, -0.1280624121427536, 0.14285148680210114, 0.4767550230026245, 0.2486550509929657, 0.007185099646449089, 0.07405750453472137, 0.05816183239221573], [0.10289893299341202, 0.13699346780776978, -0.03343980014324188, 0.19912037253379822, 0.17648017406463623, 0.17020153999328613, -0.019074853509664536, -0.11518626660108566, -0.4957905411720276, -0.2050051987171173, -0.030009761452674866, -0.10884930193424225, 0.08859027922153473, -0.017952987924218178, 0.18850205838680267, 0.07052018493413925, 0.01896875910460949], [0.03496011346578598, 0.03682402893900871, 0.2098301500082016, 0.020875578746199608, 0.08946125954389572, -0.048144228756427765, 0.03162238374352455, -0.18146884441375732, 0.14875730872154236, 0.12362787127494812, -0.1100241169333458, -0.2672960162162781, 1.1241427659988403, 0.09381365776062012, -0.1748855710029602, -0.06951777637004852, 0.11828333139419556], [-0.3218895196914673, 0.13683202862739563, -0.22313417494297028, 0.12012393027544022, 0.002279101638123393, 0.14562290906906128, -0.16833820939064026, 0.17274239659309387, 0.2270037978887558, -0.1909308284521103, 0.0592317208647728, 0.11421498656272888, -0.3829103410243988, 0.2930501699447632, -0.39342862367630005, 0.19783015549182892, -0.03934016823768616], [-0.19135622680187225, 0.10939785093069077, -0.24040988087654114, 0.18860413134098053, -0.08009928464889526, 0.1359304040670395, 0.02292919158935547, -0.600561261177063, -0.07614149898290634, -0.26437440514564514, -0.07767748832702637, -0.003796845208853483, -0.4177763760089874, -0.014506719075143337, 0.02232300117611885, -0.3202500343322754, -0.1183253601193428], [0.3782890737056732, -0.15814776718616486, 0.11529383063316345, 0.07461743801832199, 0.1307877004146576, 0.11820127069950104, 0.023142801597714424, 0.025882896035909653, 0.06518447399139404, -0.12378091365098953, -0.039449986070394516, -0.021968917921185493, -0.24126207828521729, 0.2727324366569519, -0.16640177369117737, -0.26780351996421814, 0.2136058509349823], [0.022490646690130234, 0.23895873129367828, 0.23349282145500183, 0.03910921514034271, -0.07199516147375107, 0.13773304224014282, -0.14369122684001923, -0.25732332468032837, -0.3835378885269165, -0.08495461940765381, -0.15198568999767303, -0.2249395251274109, -0.010481959208846092, -0.2676776349544525, 0.04967575892806053, 0.02725262939929962, 0.11741209775209427], [-0.1190246045589447, 0.08088547736406326, 0.10034839063882828, -0.0446656160056591, -0.2574051320552826, 0.32987141609191895, 0.41635894775390625, 0.0241448525339365, -0.16233976185321808, -0.17162087559700012, 0.02220650017261505, 0.2599339485168457, 0.3118852972984314, -0.49492764472961426, 0.17424359917640686, 0.2339601367712021, -0.10747919231653214], [-0.0032843956723809242, 0.18882885575294495, -0.046699587255716324, -0.012591684237122536, 0.15495309233665466, 0.01638180762529373, 0.3067082166671753, 0.2692856788635254, -0.03853009268641472, 0.32585278153419495, 0.32630327343940735, 0.3469166159629822, 0.2572793960571289, -0.7059293389320374, 0.2217968851327896, -0.07573512941598892, 0.13058125972747803], [0.10147592425346375, 0.1545967310667038, 0.44579318165779114, 0.01489205751568079, -0.05610562488436699, 0.1128370612859726, 0.18423707783222198, -0.22765564918518066, 0.054510194808244705, 0.02995138056576252, 0.0956696942448616, -0.23365145921707153, 0.20689257979393005, -0.4692743420600891, -0.0656939223408699, -0.32043612003326416, -0.11078160256147385], [-0.021372810006141663, 0.2827458679676056, 0.02108142524957657, 0.0658523440361023, 0.014472919516265392, -0.2922947406768799, 0.1711280345916748, 0.2424163818359375, 0.0990571677684784, -0.27050212025642395, 0.15681810677051544, 0.08807343244552612, -0.09347434341907501, -0.11480092257261276, 0.1588771492242813, -0.24799853563308716, -0.12116171419620514], [0.036841124296188354, -0.20039907097816467, 0.17994651198387146, 0.016049303114414215, 0.10499768704175949, -0.016024630516767502, -0.08098441362380981, 0.08128655701875687, -0.07590081542730331, -0.08463070541620255, 0.1107024997472763, -0.3474345803260803, 0.6024802327156067, 0.3061501085758209, 0.23043352365493774, 0.2573435604572296, -0.2092588245868683], [-0.18622419238090515, -0.12097708135843277, -0.4315340220928192, -0.2320152074098587, -0.008630315773189068, -0.04695527255535126, -0.15969409048557281, 0.26605507731437683, -0.1207285076379776, -0.10505736619234085, 0.3253527283668518, 0.01621568761765957, -0.23810714483261108, -0.29351168870925903, -0.011297843419015408, 0.17180490493774414, 0.0703815221786499], [-0.23453369736671448, 0.25174394249916077, 0.08587174862623215, -0.14375804364681244, -0.14494413137435913, -0.0002503166033420712, 0.29409775137901306, 0.4555220603942871, 0.26665785908699036, -0.049433037638664246, -0.048831790685653687, 0.19394336640834808, 0.7759048342704773, -0.4729324281215668, -0.06560459733009338, 0.022381525486707687, 0.03681711480021477], [-0.280913382768631, -0.04772717505693436, 0.03488699346780777, -0.07330381870269775, 0.027515482157468796, 0.04337680712342262, -0.2281898856163025, -0.3750196099281311, -0.20572511851787567, -0.056695371866226196, 0.03375698998570442, -0.6228123307228088, 0.04118826612830162, 0.09021012485027313, -0.02979603409767151, -0.07757609337568283, -0.07769152522087097], [-0.33532702922821045, 0.33069565892219543, -0.3115808367729187, -0.04004242271184921, 0.021028026938438416, 0.11839250475168228, 0.18476980924606323, -0.3415847718715668, 0.23484724760055542, 0.17196722328662872, -0.05212751030921936, 0.15980710089206696, -0.2962932288646698, -0.0646873414516449, 0.053104594349861145, -0.19147557020187378, 0.043164707720279694], [0.2712433338165283, 0.05657883733510971, -0.09125425666570663, -0.032377634197473526, -0.2563226521015167, -0.12228333204984665, -0.013972324319183826, -0.03307203948497772, 0.1158723458647728, 0.12278537452220917, 0.005930655635893345, 0.11495188623666763, -0.26812219619750977, -0.1694875955581665, -0.08266225457191467, -0.15163660049438477, -0.051007021218538284], [0.025168003514409065, 0.0037593459710478783, -0.039280083030462265, -0.2531803250312805, 0.25461456179618835, 0.282407283782959, 0.12817230820655823, -0.047430697828531265, 0.4234473705291748, -0.1581125110387802, 0.44741499423980713, 0.16993345320224762, -0.11208713054656982, -0.17955568432807922, 0.13573580980300903, 0.14264343678951263, 0.07430967688560486], [-0.027186814695596695, -0.12978017330169678, -0.03468742221593857, -0.22554196417331696, -0.12671618163585663, 0.23515534400939941, 0.38281768560409546, 0.12125315517187119, 0.1745825707912445, -0.3761400282382965, -0.3908020853996277, -0.03555290400981903, 0.030932750552892685, 0.032625142484903336, -0.007702229078859091, 0.14054027199745178, -0.04976636543869972], [0.09207011759281158, -0.10002854466438293, -0.02997562475502491, 0.25352102518081665, 0.07780879735946655, -0.2099224030971527, -0.15434910356998444, -0.18951493501663208, 0.2507587969303131, 0.06299649178981781, 0.1439599096775055, 0.0523928664624691, -0.1632498949766159, 0.4973469376564026, -0.11811206489801407, -0.20797434449195862, -0.011789964511990547], [-0.11994891613721848, -0.1263231635093689, 0.45320090651512146, -0.0021254525054246187, 0.11430032551288605, -0.10171918570995331, -0.08363892883062363, -0.1235872432589531, 0.05522220954298973, -0.12046866118907928, -0.027940301224589348, -0.2696497142314911, 0.6759366393089294, 0.18695752322673798, 0.17853336036205292, -0.14988252520561218, -0.07967326045036316], [0.09468194097280502, 0.34215548634529114, -0.225486621260643, 0.018266748636960983, 0.20953314006328583, -0.2797797620296478, 0.4579945206642151, -0.10480952262878418, -0.05618467554450035, -0.20765842497348785, 0.01987290382385254, -0.5443640351295471, 0.20065371692180634, -0.08602893352508545, 0.5465877652168274, 0.16950112581253052, 0.02419249340891838], [0.2892453670501709, 0.06331320106983185, -0.10451056063175201, -0.32008954882621765, 0.28677859902381897, -0.0773317888379097, 0.37048691511154175, 0.33547478914260864, -0.1473011076450348, 0.24061326682567596, -0.10882020741701126, 0.24519459903240204, -0.32588130235671997, -0.27762570977211, 0.17229773104190826, -0.04206372797489166, -0.0929577648639679], [0.017342351377010345, -0.027248458936810493, 0.026246096938848495, 0.0044713616371154785, -0.020785119384527206, -0.1618160456418991, -0.14188697934150696, -0.37307971715927124, -0.1084025502204895, -0.19893330335617065, -0.05449062958359718, -0.21842797100543976, -0.14890190958976746, 0.19696982204914093, 0.057889919728040695, -0.078654445707798, 0.21567712724208832], [-0.15924705564975739, -0.028211474418640137, -0.0048421467654407024, 0.30476903915405273, -0.16205377876758575, 0.17077754437923431, 0.009908546693623066, 0.16112110018730164, 0.026342112571001053, 0.09577209502458572, -0.009968294762074947, -0.15052430331707, 0.06590259075164795, 0.20474757254123688, -0.32872557640075684, -0.14827829599380493, 0.14747557044029236], [-0.27364614605903625, -0.055429607629776, -0.26934677362442017, 0.13471142947673798, 0.21158336102962494, 0.24358981847763062, -0.4526958167552948, -0.05734898895025253, -0.08808185905218124, -0.013490122742950916, -0.3568083941936493, 0.6583759784698486, 0.03412505239248276, -0.15246082842350006, 0.037530574947595596, 0.0554097443819046, -0.06870858371257782], [-0.36260703206062317, 0.21210092306137085, -0.3204980194568634, -0.2051672488451004, 0.2266867309808731, -0.18351022899150848, -0.2446165829896927, 0.08941473066806793, -0.4461050033569336, 0.19901037216186523, 0.21519151329994202, -0.09100321680307388, 0.04781697690486908, -0.06817983090877533, -0.07374659925699234, 0.13343659043312073, 0.058577779680490494], [-0.2539966404438019, -0.20535583794116974, -0.04380422830581665, -0.2542930543422699, 0.12353185564279556, -0.059292759746313095, 0.019758576527237892, 0.06492801755666733, 0.5702415704727173, 0.05135473608970642, 0.3204655051231384, 0.19687864184379578, -0.13120858371257782, -0.012141823768615723, -0.3291487395763397, 0.08838924020528793, 0.039992064237594604], [0.21395635604858398, 0.04270990565419197, -0.23931914567947388, -0.08795392513275146, -0.24730628728866577, 0.099632628262043, -0.15452970564365387, -0.10889808088541031, 0.09003858268260956, -0.09172698110342026, -0.01692442037165165, 0.27764806151390076, -0.15466496348381042, -0.0636090561747551, -0.16348670423030853, 0.010013245977461338, 0.052332554012537], [0.006601550150662661, -0.291108101606369, 0.3834457993507385, 0.07086894661188126, 0.12678691744804382, 0.14890068769454956, 0.2792089581489563, -0.05127422884106636, -0.3498896360397339, 0.026223966851830482, 0.26303040981292725, 0.23766010999679565, 0.6531394124031067, 0.3068544268608093, 0.20849932730197906, -0.0795825943350792, -0.05480020493268967], [0.06487220525741577, 0.03489488735795021, -0.02574392408132553, -0.005155663006007671, -0.03526673465967178, -0.1688750833272934, 0.2998107373714447, 0.11679691821336746, 0.5061444640159607, -0.24847248196601868, 0.1103687435388565, 0.2986220419406891, -0.02950192801654339, -0.19800248742103577, -0.023376455530524254, 0.3426336348056793, -0.049241263419389725], [-0.33345168828964233, 0.1510803997516632, -0.2399882674217224, 0.0877438560128212, 0.1423293650150299, -0.011767889373004436, -0.36019593477249146, 0.12092859297990799, -0.058568309992551804, -0.15696047246456146, 0.30374231934547424, 0.11888469755649567, 0.18104812502861023, -0.009989961981773376, -0.14987488090991974, 0.22414177656173706, 0.04098540544509888], [-0.06950800865888596, 0.10687600821256638, -0.19447965919971466, -0.11477901041507721, -0.21977587044239044, 0.021724721416831017, 0.44929856061935425, 0.006264143623411655, 0.03498882055282593, -0.13540858030319214, 0.010578243993222713, -0.13483209908008575, 0.07348303496837616, -0.16276027262210846, 0.23223158717155457, -0.05781519040465355, -0.15340635180473328], [-0.06388682126998901, -0.029596885666251183, -0.4852283000946045, 0.17847590148448944, 0.056636735796928406, 0.12630513310432434, 0.09671255946159363, -0.15310736000537872, 0.2438305765390396, 0.14442788064479828, 0.1203455999493599, -0.09249313175678253, 0.036086589097976685, 0.007442426402121782, -0.20470380783081055, 0.023275960236787796, -0.04757501557469368], [-0.13047505915164948, 0.2849349081516266, 0.2686076760292053, -0.11083909869194031, -0.19808033108711243, 0.05065440759062767, 0.14181733131408691, -0.07460631430149078, 0.08972295373678207, -0.005345293786376715, 0.04281850531697273, 0.14852206408977509, 0.3087027072906494, -0.6790704131126404, 0.042609263211488724, -0.26092803478240967, -0.03901287168264389], [0.2336353361606598, 0.07650668174028397, 0.21303074061870575, -0.040395982563495636, -0.23607271909713745, -0.31478404998779297, -0.12259434908628464, 0.3372361958026886, -0.028183745220303535, -0.13445305824279785, -0.08480671793222427, -0.1427757441997528, -0.0017955225193873048, -0.2946584224700928, -0.049445003271102905, -0.0025341196451336145, 0.018592314794659615], [-0.12648005783557892, 0.05181552842259407, 0.3445158302783966, -0.16700473427772522, -0.018330972641706467, 0.05027400702238083, 0.3400985300540924, 0.021403422579169273, -0.23099550604820251, -0.03262361139059067, -0.07981950789690018, -0.22029736638069153, 1.0974993705749512, 0.04571979492902756, 0.18253304064273834, 0.015703940764069557, -0.020947597920894623], [-0.08514842391014099, 0.26668792963027954, 0.20850563049316406, -0.1110125482082367, -0.03007664903998375, 0.05852150544524193, 0.09103122353553772, -0.040860891342163086, -0.1638072431087494, 0.26682156324386597, 0.34625813364982605, -0.00444713095203042, 0.26930591464042664, -0.5294228792190552, 0.053762927651405334, -0.11093276739120483, -0.11776615679264069], [-0.16557660698890686, -0.025688624009490013, -0.10916255414485931, 0.1112527921795845, -0.15362094342708588, -0.01638881489634514, -0.12081754952669144, 0.010135144926607609, -0.029670516029000282, -0.12360289692878723, 0.3202323913574219, -0.0850129947066307, -0.1812427043914795, 0.12219881266355515, -0.1539696305990219, -0.13622747361660004, -0.37643665075302124], [0.2648059129714966, 0.09188848733901978, -0.04596073925495148, -0.14469192922115326, -0.04241513833403587, 0.07040023803710938, -0.4046362042427063, -0.017136916518211365, -0.2818341553211212, 0.25250500440597534, 0.017954939976334572, 0.2605230212211609, -0.05828753858804703, -0.3496117889881134, -0.19756446778774261, -0.08052142709493637, 0.07402515411376953], [-0.002923091873526573, -0.3258631229400635, 0.13602237403392792, -0.14653615653514862, 0.08963651210069656, -0.11661336570978165, 0.2318548709154129, 0.004827657248824835, 0.08732501417398453, 0.007546533830463886, -0.43901681900024414, 0.3206396996974945, -0.08187074214220047, 0.46810272336006165, 0.03806837275624275, 0.01611051894724369, 0.21912819147109985], [0.144329234957695, 0.04274933040142059, -0.1470957249403, 0.13986772298812866, 0.24679836630821228, 0.019118256866931915, 0.12307222187519073, 0.07372269034385681, 0.1573423445224762, 0.03759245574474335, 0.23834657669067383, -0.0011947739403694868, -0.39840269088745117, 0.007040549069643021, 0.41304367780685425, -0.11447440087795258, 0.08216572552919388], [-0.3493083417415619, 0.38894644379615784, 0.21494480967521667, -0.24574971199035645, -0.28306058049201965, -0.07643924653530121, -0.2158968299627304, -0.09344864636659622, 0.011296793818473816, 0.10346441715955734, -0.09423387795686722, 0.07350761443376541, 0.29169023036956787, -0.06753013283014297, -0.5403507351875305, -0.1560087502002716, -0.015768518671393394], [0.0802723839879036, 0.21969150006771088, 0.14277532696723938, 0.15460050106048584, 0.10544216632843018, -0.04974132776260376, -0.4127689003944397, 0.02981191873550415, -0.03580294921994209, -0.20401068031787872, -0.15953148901462555, -0.14265622198581696, -0.03803330659866333, 0.11627737432718277, -0.1810404658317566, 0.12618401646614075, 0.35989537835121155], [0.23794244229793549, -0.2888261675834656, 0.1808757185935974, 0.14168968796730042, -0.05607573688030243, 0.013266007415950298, 0.16966073215007782, -0.011996201239526272, -0.015201099216938019, -0.23224197328090668, 0.11622276902198792, 0.4044071137905121, 0.20385807752609253, 0.5955156087875366, -0.15472057461738586, 0.2925229072570801, -0.15562424063682556], [0.1584538370370865, -0.15388235449790955, 0.012888503260910511, 0.1655413955450058, 0.06791439652442932, 0.024499814957380295, 0.0451446957886219, 0.01620437391102314, 0.42365792393684387, -0.2530328929424286, -0.1018826961517334, 0.377599835395813, -0.047269273549318314, 0.5307620763778687, -0.15547852218151093, 0.05526962876319885, 0.18864819407463074], [-0.3148440420627594, -0.271850049495697, 0.011035668663680553, -0.3035353720188141, 0.025088248774409294, -0.1675610989332199, 0.32609450817108154, -0.1805063784122467, 0.2499680370092392, -0.12000722438097, 0.1379665732383728, 0.009021410718560219, 0.19793929159641266, 0.12468326091766357, 0.014420589432120323, 0.2187768667936325, -0.06382619589567184], [0.32663092017173767, -0.11646769940853119, -0.11368817090988159, -0.0819874033331871, -0.11200296133756638, -0.1112649068236351, -0.3963739275932312, -0.17151759564876556, -0.16097159683704376, 0.25327828526496887, -0.08327236026525497, 0.289354145526886, -0.3083382248878479, 0.13661131262779236, -0.2595939338207245, -0.24708400666713715, -0.056454744189977646], [0.015509816817939281, 0.16040223836898804, 0.32281172275543213, -0.15053090453147888, 0.042399924248456955, -0.03706936910748482, -0.2299731969833374, -0.19715191423892975, -0.06954970955848694, -0.07243701070547104, 0.24559421837329865, 0.22151228785514832, 0.6948358416557312, -0.3465365171432495, 0.2592485249042511, -0.07706250995397568, -0.027756843715906143], [-0.05645402520895004, -0.14292551577091217, 0.21295420825481415, -0.2557278275489807, -0.1044856384396553, 0.07310695946216583, -0.06603727489709854, -0.2609231173992157, 0.25938671827316284, -0.04353353753685951, -0.20472462475299835, 0.09654590487480164, 0.3216392397880554, -0.093976691365242, -0.02291392907500267, -0.17645175755023956, -0.12097567319869995], [-0.23190389573574066, 0.35273972153663635, -0.11703387647867203, 0.07191292941570282, -0.07637788355350494, -0.3160122334957123, 0.19085921347141266, -0.32159069180488586, 0.002711968496441841, -0.04640357568860054, -0.1669817864894867, 0.10655581951141357, -0.09368061274290085, -0.225766122341156, 0.3266940712928772, -0.24689717590808868, -0.11544932425022125], [-0.10899277031421661, -0.03537929803133011, 0.1698477417230606, -0.007999056950211525, -0.060036979615688324, -0.04075852036476135, 0.23785626888275146, -0.2059101015329361, -0.05905608832836151, 0.16788600385189056, -0.2432364970445633, -0.21816791594028473, 1.269495964050293, 0.08181311935186386, 0.2644493877887726, -0.1326398253440857, 0.01418828871101141], [-0.16804954409599304, 0.0396699532866478, 0.09301284700632095, -0.03984091430902481, -0.07176584005355835, -0.09663046151399612, -0.07607001811265945, 0.07037574797868729, -0.03840034082531929, 0.008218281902372837, 0.15712705254554749, 0.3513675630092621, 0.5190762877464294, 0.5273528695106506, -0.02166718803346157, -0.14032305777072906, 0.0367392897605896], [-0.025537904351949692, 0.27885231375694275, 0.24082860350608826, -0.022017814218997955, 0.12007825076580048, -0.18962150812149048, -0.014363875612616539, 0.09569278359413147, 0.024709388613700867, -0.4351743161678314, -0.09723830223083496, 0.21048791706562042, 0.42423996329307556, -0.7031998038291931, -0.11544903367757797, -0.27727434039115906, -0.19450728595256805], [0.013490045443177223, 0.04438428208231926, 0.14310838282108307, -0.19979314506053925, -0.01247052289545536, -0.08821442723274231, 0.0034152783919125795, 0.12192565947771072, 0.15747608244419098, -0.008306490257382393, -0.4961419105529785, 0.014182538725435734, 0.1926858127117157, -0.14430436491966248, -0.09926670789718628, 0.2727753520011902, 0.04263867810368538], [-0.19174741208553314, 0.029973268508911133, 0.3429851830005646, 0.15517012774944305, -0.08274909108877182, -0.24238964915275574, -0.09466712921857834, -0.2514536678791046, -0.03644376993179321, 0.021019717678427696, 0.3151816427707672, 0.19602492451667786, 0.5805661678314209, -0.2829376757144928, 0.09040190279483795, 0.3306114971637726, 0.05407813936471939], [-0.0072713373228907585, 0.09081947058439255, -0.20296335220336914, 0.10959043353796005, -0.22639457881450653, -0.18517789244651794, -0.1642119586467743, -0.11542454361915588, -0.4062706530094147, 0.022664327174425125, 0.04699718579649925, -0.13316719233989716, -0.149436816573143, 0.2109890729188919, 0.14501234889030457, 0.03494209051132202, -0.2221294641494751], [-0.2688562870025635, -0.21021287143230438, -0.11004479974508286, -0.07253636419773102, 0.039589352905750275, -0.18158940970897675, 0.3735012710094452, -0.3899456262588501, 0.2558145821094513, -0.29367169737815857, -0.3083329200744629, -0.1492859125137329, 0.4582522511482239, -0.14644941687583923, -0.23633351922035217, 0.29272571206092834, -0.12247081100940704], [-0.027219198644161224, 0.002191221807152033, -0.13704359531402588, 0.08022709935903549, 0.30031105875968933, 0.20189771056175232, 0.3701590299606323, 0.4112145006656647, -0.19764956831932068, 0.18790097534656525, 0.1550551950931549, 0.22807596623897552, 0.15075655281543732, 0.09241794049739838, 0.15978413820266724, 0.09170853346586227, 0.35856252908706665], [-0.0475362166762352, 0.08572801202535629, -0.16025814414024353, -0.027939453721046448, -0.03381657972931862, 0.3538609445095062, 0.1978241354227066, -0.1304045170545578, 0.22626404464244843, 0.31373926997184753, 0.6248014569282532, 0.13506808876991272, -0.005126184783875942, 0.19006690382957458, 0.08044321835041046, -0.16685210168361664, -0.04835055023431778]], "mlp_extractor.policy_net.0.bias": [-0.011100389063358307, 0.04059113934636116, -0.041036300361156464, 0.05177875980734825, 0.0400635302066803, -0.022381477057933807, -0.021983930841088295, 0.05464760586619377, -0.03657141327857971, -0.03265291079878807, 0.03018612042069435, 0.009475566446781158, -0.002085720421746373, -0.08150213956832886, -0.0878901332616806, 0.06807995587587357, 0.01609441451728344, -0.002993633970618248, 0.06778424978256226, 0.08971979469060898, -0.013229639269411564, -0.028441263362765312, -0.028966495767235756, -0.06823240965604782, -0.07593831419944763, 0.006222477648407221, -0.010396040976047516, 0.011867695488035679, 0.005784689914435148, -0.029325319454073906, 0.07091422379016876, 0.0062448992393910885, 0.048493411391973495, 0.04140044376254082, -0.081501804292202, 0.04154862090945244, 0.07713860273361206, -0.013482248410582542, -0.05678776651620865, 0.0679437443614006, 0.0579698272049427, -0.19883553683757782, 0.0659247487783432, 0.06529973447322845, 0.10901356488466263, 0.062268417328596115, 0.0008038573432713747, 0.04262125864624977, 0.08895298093557358, -0.06809721142053604, 0.09428451955318451, 0.04915314167737961, -0.06041136011481285, -0.09140495210886002, 0.051374517381191254, -0.00802982784807682, 0.0680675357580185, -0.0329674668610096, -0.06025686860084534, 0.08407828211784363, 0.04390721768140793, -0.055864252150058746, -0.022840363904833794, 0.003042372642084956, -0.08243865519762039, -0.04746278375387192, 0.13150092959403992, -0.022079532966017723, 0.0956132709980011, -0.014160264283418655, -0.0541447252035141, 0.0038632650393992662, -0.011269811540842056, 0.03622962534427643, -0.02214035764336586, 0.04112452641129494, 0.05252375081181526, 0.013878888450562954, 0.1455615758895874, 0.010259262286126614, -0.10902860760688782, 0.09944048523902893, 0.12358729541301727, 0.009985337033867836, -0.009036879986524582, -0.12095202505588531, 0.09491091221570969, -0.02896289713680744, 0.118399977684021, -0.015699148178100586, 0.038787972182035446, -0.005314841400831938, -0.06204382702708244, -0.05698800086975098, 0.13992555439472198, 0.00850495882332325, -0.07310018688440323, 0.10136115550994873, 0.03041837550699711, -0.114741750061512, -0.02546430565416813, 0.01840830221772194, 0.006096988450735807, -0.002129113767296076, 0.041388802230358124, -0.03907011076807976, 0.13772228360176086, 0.004088369198143482, 0.038749441504478455, 0.08480264991521835, -0.006566214375197887, -0.1745326668024063, 0.06083124876022339, -0.019063495099544525, 0.07964349538087845, 0.006628487724810839, 0.057254236191511154, 0.059009335935115814, -0.03758540004491806, 0.049537818878889084, -0.043226584792137146, 0.0010210297768935561, -0.011130326427519321, 0.009778457693755627, -0.1475450098514557, -0.028765352442860603, 0.03534575179219246, 0.008638023398816586], "mlp_extractor.policy_net.2.weight": [[0.03278994932770729, 0.12225290387868881, -0.04438882693648338, -0.18650902807712555, -0.045679349452257156, 0.1793416291475296, 0.15906310081481934, 0.13107706606388092, -0.18478573858737946, -0.20821791887283325, 0.1073625460267067, -0.28838393092155457, 0.11040233075618744, 0.07069002836942673, 0.019145308062434196, 0.06470069289207458, 0.14222277700901031, -0.18594399094581604, -0.016454877331852913, -0.028455469757318497, -0.07260093837976456, 0.14234207570552826, -0.2751758396625519, 0.09190085530281067, -0.059479840099811554, 0.0404917374253273, 0.12349168956279755, -0.06446622312068939, -0.009207012131810188, -0.05964553356170654, -0.08923645317554474, 0.139254629611969, 0.03338528424501419, 0.13505496084690094, -0.1819055825471878, -0.07559220492839813, 0.046816661953926086, 0.0901532843708992, -0.28059330582618713, 0.12611156702041626, 0.20581704378128052, -0.1667468398809433, 0.05719571188092232, -0.0580873042345047, 0.10918624699115753, 0.018426405265927315, 0.2066192477941513, -0.07126078754663467, -0.02835037000477314, 0.23018857836723328, -0.0860094353556633, 0.3043540418148041, -0.2123742401599884, 0.04930340126156807, 0.07071813941001892, -0.09320712089538574, -0.11926940828561783, 0.007686640601605177, -0.08242630213499069, -0.058156102895736694, -0.030839985236525536, 0.015176602639257908, -0.42363330721855164, -0.3454483151435852, -0.14010711014270782, -0.09917730838060379, 0.10698841512203217, 0.06156029552221298, 0.11373740434646606, 0.16620783507823944, 0.21896010637283325, -0.044027093797922134, 0.10175391286611557, 0.09441204369068146, -0.07445933669805527, 0.15179742872714996, 0.18631099164485931, 0.16681057214736938, -0.05272398516535759, -0.028503363952040672, -0.10360322892665863, 0.01829514466226101, 0.13156121969223022, -0.1945577710866928, 0.01775314472615719, 0.16399753093719482, 0.0002572314697317779, -0.04914942756295204, 0.09816238284111023, 0.03500976413488388, 0.09239428490400314, -0.01068401150405407, -0.11919873207807541, -0.10755693167448044, -0.05234633386135101, 0.17039161920547485, -0.15197893977165222, -0.2078406661748886, 0.10471254587173462, 0.025494413450360298, -0.08660797029733658, -0.08865727484226227, 0.12155633419752121, 0.22771644592285156, -0.10807176679372787, 0.32545799016952515, -0.167321115732193, 0.08261172473430634, 0.2677924633026123, 0.06321530044078827, 0.127458855509758, 0.04977744445204735, -0.16774789988994598, 0.10858872532844543, -0.00884294230490923, 0.2915711998939514, -0.035863056778907776, 0.1676459163427353, -0.02083684876561165, -0.1987140029668808, -0.021766552701592445, 0.15997371077537537, 0.08592348545789719, 0.17554360628128052, -0.12590183317661285, 0.10419750213623047, 0.05347956344485283, 0.2312842756509781], [-0.14111974835395813, 0.1003740131855011, 0.16506245732307434, 0.0829063206911087, -0.06848999112844467, 0.3234909474849701, 0.14011748135089874, -0.05284469947218895, 0.2057458460330963, 0.11600005626678467, 0.1750914454460144, -0.1433398574590683, -0.14409105479717255, 0.0911254733800888, 0.05272408202290535, 0.08487442880868912, -0.0757448598742485, 0.09233618527650833, -0.14836525917053223, -0.07920516282320023, -0.02697128616273403, 0.10249172151088715, 0.059190910309553146, -0.2656019926071167, 0.050060342997312546, 0.31853872537612915, -0.16939561069011688, -0.013221992179751396, 0.15759173035621643, 0.3148183524608612, -0.08280900120735168, 0.0385025218129158, -0.2088806927204132, -0.27594709396362305, 0.16306740045547485, -0.03889841586351395, -0.31849148869514465, -0.07784155756235123, 0.17900218069553375, 0.007573002018034458, -0.05406598374247551, 0.005082001909613609, -0.07100161910057068, 0.041922032833099365, 0.1889340728521347, 0.11445748060941696, 0.08066683262586594, 0.07540556788444519, 0.02887120097875595, 0.245246022939682, 0.065342977643013, 0.35478582978248596, 0.015165104530751705, -0.2436765730381012, 0.09249158948659897, -0.16338565945625305, 0.05332687869668007, 0.01934977062046528, -0.09840817749500275, -0.14306709170341492, -0.26456618309020996, -0.058696892112493515, -0.2353781908750534, 0.16085144877433777, -0.1964578479528427, 0.09698241949081421, -0.17549416422843933, -0.0253568347543478, -0.15578648447990417, -0.01925577223300934, 0.14539268612861633, 0.08733375370502472, -0.026762686669826508, -0.1468762904405594, -0.011462738737463951, 0.31367576122283936, 0.056541044265031815, 0.16901174187660217, 0.3433402180671692, 0.02349766716361046, 0.04942278563976288, 0.3166479766368866, 0.03629111126065254, 0.004748575389385223, -0.15530140697956085, 0.07543034851551056, -0.05409020557999611, -0.3972923755645752, 0.12441432476043701, -0.004895016551017761, -0.13788414001464844, 0.20773376524448395, -0.3492540121078491, 0.22991277277469635, 0.05059812590479851, 0.030559154227375984, -0.0196694266051054, -0.011743232607841492, -0.15917064249515533, -0.043100856244564056, -0.21733781695365906, -0.004460800904780626, 0.19832749664783478, 0.15070657432079315, 0.22027625143527985, 0.18887987732887268, 0.0271309781819582, 0.1612270027399063, 0.1618754267692566, -0.10419121384620667, 0.25764116644859314, 0.24977459013462067, -0.4038035273551941, -0.13085922598838806, 0.2226352095603943, 0.2553912103176117, -0.0017100588884204626, 0.29596075415611267, 0.14324308931827545, 0.08499812334775925, -0.07343514263629913, 0.06626024097204208, -0.014819089323282242, 0.0671091377735138, 0.18389858305454254, 0.30153000354766846, 0.27451878786087036, 0.06796176731586456], [0.23231452703475952, 0.07624121010303497, -0.18986563384532928, 0.03680036962032318, 0.4035775065422058, 0.15973778069019318, -0.013312107883393764, -0.0631280317902565, -0.2792440354824066, -0.08220916986465454, 0.17906664311885834, 0.05406128987669945, -0.10178619623184204, -0.12861651182174683, 0.19381508231163025, 0.057429708540439606, 0.20973271131515503, -0.01773199625313282, 0.11847076565027237, 0.057291965931653976, 0.1440514177083969, 0.16119840741157532, -0.11339043825864792, 0.33772724866867065, 0.23786284029483795, 0.008406351320445538, 0.21260188519954681, 0.02227046526968479, 0.15311327576637268, 0.04898566007614136, -0.1450241208076477, -0.08731143921613693, -0.16345559060573578, -0.14797450602054596, 0.012347511947154999, -0.17846986651420593, -0.1392170935869217, 0.1252034455537796, -0.05649196729063988, 0.4254658818244934, 0.024185223504900932, 0.1007261648774147, -0.26517587900161743, 0.05086237192153931, 0.018576238304376602, -0.060273684561252594, -0.02136247232556343, -0.07257051765918732, -0.03084767796099186, -0.14659731090068817, -0.05276310443878174, 0.3590063750743866, 0.031095093116164207, 0.1209481805562973, -0.012915346771478653, -0.07206041365861893, -0.36006173491477966, 0.2569142282009125, 0.004314625170081854, 0.1562747359275818, -0.290932297706604, 0.05409935116767883, 0.08558245748281479, -0.03800881281495094, 0.09513160586357117, -0.21278809010982513, -0.08890842646360397, -0.06358581781387329, 0.13863730430603027, 0.10976356267929077, -0.2432466447353363, 0.07137098163366318, -0.10476071387529373, -0.07364443689584732, -0.21757003664970398, 0.38738590478897095, 0.2532108724117279, 0.033969029784202576, 0.05309272184967995, 0.09672074764966965, 0.06779015809297562, 0.15260356664657593, 0.2873404026031494, -0.19739654660224915, 0.1603904366493225, 0.4214385747909546, 0.050655655562877655, -0.08942367136478424, 0.02354605682194233, 0.16207905113697052, -0.07021848857402802, 0.09321936219930649, -0.02222602441906929, 0.07190490514039993, 0.14178109169006348, -0.020305471494793892, 0.0479188971221447, 0.20910027623176575, -0.2308056801557541, 0.2566465139389038, -0.12061941623687744, -0.21127232909202576, 0.21591392159461975, -0.08454005420207977, -0.2995128929615021, -0.1475251466035843, 0.015580791980028152, -0.13079600036144257, 0.12218932062387466, 0.027257632464170456, 0.059854257851839066, 0.1091468557715416, -0.08086923509836197, -0.04467872902750969, 0.20114848017692566, 0.03174291178584099, -0.24072176218032837, 0.07309962064027786, 0.052127476781606674, 0.026024717837572098, 0.06578930467367172, -0.08033457398414612, 0.03476066514849663, -0.08049298822879791, 0.04249553009867668, 0.21158954501152039, 0.22858569025993347, -0.23616214096546173], [0.21396583318710327, 0.09605993330478668, 0.3522740602493286, 0.2251388281583786, -0.028875594958662987, 0.16878287494182587, 0.051565833389759064, -0.10503322631120682, 0.0993390753865242, -0.1315213441848755, 0.327902227640152, 0.13260804116725922, -0.11708516627550125, 0.12133853137493134, 0.13476236164569855, -0.1601221114397049, -0.1795901656150818, 0.035735391080379486, -0.08034849911928177, -0.06992413103580475, -0.3025738298892975, 0.22989976406097412, 0.22452770173549652, 0.13604846596717834, 0.0736786499619484, -0.05800176411867142, 0.10286582261323929, -0.09890768676996231, -0.013395569287240505, -0.01708742417395115, 0.10618684440851212, -0.19934751093387604, 0.23731248080730438, 0.04604969173669815, -0.11959335207939148, 0.2733592689037323, -0.0591098889708519, -0.11378213763237, 0.1132459044456482, -0.15315239131450653, 0.15553312003612518, -0.12858946621418, -0.06639371812343597, -0.10514882206916809, -0.012315471656620502, 0.013368572108447552, 0.30689653754234314, -0.13776333630084991, -0.46968621015548706, 0.2588350772857666, 0.021745475009083748, 0.21287468075752258, 0.17237721383571625, 0.08977704495191574, -0.22629491984844208, 0.07812120765447617, 0.11172175407409668, -0.2563653588294983, -0.2502044141292572, -0.20497718453407288, -0.10085369646549225, -0.11337102949619293, -0.08410325646400452, 0.3768868148326874, -0.18553631007671356, -0.05079558491706848, -0.13810276985168457, -0.1351725459098816, -0.2799660861492157, -0.03925612196326256, 0.07885611802339554, -0.11692988127470016, 0.26169151067733765, -0.2627962827682495, 0.13758951425552368, 0.16076302528381348, -0.022039007395505905, -0.08046901226043701, 0.2489675134420395, 0.05208947882056236, -0.009572070091962814, 0.3402344286441803, 0.24722720682621002, 0.13093309104442596, 0.29262614250183105, 0.10582315921783447, 0.19008885324001312, -0.5297976136207581, 0.44952183961868286, 0.3613116145133972, -0.07992605865001678, -0.06134172901511192, 0.08142717182636261, -0.16919369995594025, 0.14782528579235077, 0.24186371266841888, -0.03334458917379379, -0.05016592517495155, 0.010749045759439468, 0.02614297717809677, 0.0998503789305687, 0.16879653930664062, 0.32858285307884216, -0.10182223469018936, -0.15314587950706482, 0.49845436215400696, 0.013958289287984371, 0.2678167521953583, -0.30979791283607483, -0.13326294720172882, 0.42271101474761963, -0.031839169561862946, 0.08379970490932465, -0.21939806640148163, 0.20996618270874023, 0.04958607256412506, 0.2659856379032135, 0.3248933255672455, 0.01809549704194069, 0.0383840911090374, -0.057736415416002274, 0.4549681544303894, 0.17627635598182678, 0.13250434398651123, -0.1395285725593567, 0.12745139002799988, -0.006957726087421179, -0.16600921750068665], [-0.08052880316972733, -0.15804146230220795, 0.03216592222452164, -0.15912872552871704, 0.19872169196605682, -0.05061336234211922, 0.19931857287883759, 0.01152131613343954, 0.15432269871234894, 0.1792719066143036, -0.0243934728205204, -0.12001926451921463, 0.1089499220252037, 0.10974159091711044, -0.08477640151977539, 0.30954670906066895, 0.3282553553581238, -0.08623217046260834, -0.09305563569068909, 0.18390336632728577, -0.22227390110492706, 0.023174062371253967, 0.4549834728240967, -0.14805719256401062, 0.06925606727600098, 0.20928815007209778, 0.1656627506017685, 0.06307818740606308, 0.06857988238334656, 0.14939077198505402, -0.22872202098369598, 0.042605116963386536, 0.04301929846405983, 0.13669393956661224, 0.018237866461277008, 0.05760412663221359, 0.019786600023508072, 0.07569428533315659, 0.08426064997911453, -0.2988992929458618, 0.3379323482513428, -0.055207595229148865, 0.041096579283475876, 0.13982956111431122, -0.04911977797746658, 0.18517664074897766, 0.41831398010253906, -0.06768210232257843, -0.17716997861862183, 0.20788516104221344, -0.15696316957473755, -0.0037413809914141893, 0.11843035370111465, -0.11594989895820618, 0.24860341846942902, 0.43565037846565247, 0.1873396933078766, 0.2590499222278595, -0.33972519636154175, 0.3339645564556122, 0.3128485083580017, -0.11322575807571411, -0.2451183944940567, 0.34469082951545715, -0.0868058130145073, -0.2472710758447647, 0.04669035226106644, -0.3112434148788452, 0.04630521684885025, -0.17934730648994446, 0.16310781240463257, -0.08831152319908142, 0.21778270602226257, 0.014000569470226765, 0.02862602286040783, 0.07435274124145508, 0.18111687898635864, -0.018507298082113266, 0.2523764669895172, 0.30861371755599976, 0.12206828594207764, 0.18593306839466095, 0.21550634503364563, 0.14744238555431366, -0.14636528491973877, -0.14563880860805511, -0.0855034738779068, -0.13037602603435516, 0.24297021329402924, 0.007154547143727541, -0.01624644361436367, -0.08676674962043762, -0.1071016937494278, 0.09618914127349854, 0.4475656747817993, 0.061570536345243454, 0.11290542036294937, 0.08351729810237885, -0.34741997718811035, 0.16765917837619781, 0.02014712430536747, 0.1341533064842224, 0.20858938992023468, -0.06073993444442749, 0.20904214680194855, 0.15791651606559753, 0.13555391132831573, -0.03643910586833954, -0.09100878983736038, -0.20265606045722961, 0.23322391510009766, -0.09716566652059555, -0.15011566877365112, -0.2556532621383667, -0.023582903668284416, -0.2888183295726776, 0.22905507683753967, 0.040231991559267044, 0.21953488886356354, 0.2708970606327057, -0.016669105738401413, 0.2693155109882355, -0.08023975044488907, 0.3372769057750702, -0.1601056307554245, 0.25041356682777405, 0.0647379606962204, -0.4528910219669342], [-0.3133532702922821, 0.24757814407348633, 0.09010693430900574, -0.1466461420059204, 0.20046909153461456, -0.15104295313358307, 0.08696924895048141, 0.10852096974849701, -0.4183693528175354, 0.14523038268089294, 0.5413304567337036, -0.042797356843948364, -0.10951532423496246, 0.1397836059331894, -0.006851807236671448, -0.12409581243991852, -0.010134902782738209, 0.04939646273851395, -0.1670924723148346, 0.044521231204271317, 0.08280618488788605, -0.04113030061125755, 0.022981317713856697, -0.3516908586025238, -0.05037349462509155, 0.02240701951086521, -0.03694344684481621, 0.08221828192472458, -0.09636379778385162, 0.10916131734848022, 0.20071549713611603, -0.31502196192741394, -0.05872208997607231, -0.019371530041098595, -0.05059947445988655, -0.01804453320801258, 0.04601159319281578, -0.034904882311820984, 0.1798090785741806, 0.056964121758937836, 0.20621144771575928, -0.28585413098335266, -0.31839635968208313, -0.05261317268013954, 0.08120568841695786, -0.0711400955915451, 0.07200143486261368, 0.08303886651992798, -0.04101003706455231, 0.08325165510177612, 0.1132907047867775, 0.23488089442253113, -0.38126206398010254, 0.1542578786611557, -0.25824254751205444, -0.10744544863700867, -0.10881277918815613, 0.3286014497280121, -0.3220432996749878, 0.026449641212821007, 0.10097486525774002, 0.17933697998523712, -0.04569295048713684, 0.03248835727572441, -0.27494877576828003, 0.013635475188493729, 0.19859912991523743, -0.122749462723732, 0.0208941288292408, -0.15954403579235077, -0.02472951076924801, -0.5109687447547913, -0.07440419495105743, -0.175571009516716, 0.22741174697875977, 0.2691243290901184, 0.33987703919410706, 0.10692249238491058, 0.06465788930654526, -0.053906362503767014, -0.2112109214067459, 0.09624861925840378, 0.06570900976657867, 0.03509412333369255, -0.14622047543525696, -0.09307068586349487, 0.058563027530908585, -0.29515141248703003, -0.28829270601272583, 0.2857644855976105, -0.2565855383872986, -0.038278963416814804, -0.1336372047662735, 0.18420852720737457, 0.3418104350566864, 0.11107439547777176, -0.2446058690547943, -0.07738452404737473, -0.2247890830039978, -0.010251658968627453, -0.14246688783168793, 0.10487310588359833, 0.07975572347640991, 0.09842449426651001, -0.02203427255153656, 0.30477726459503174, -0.24090878665447235, 0.06421265751123428, -0.09008421003818512, -0.17384332418441772, 0.36233770847320557, 0.0455428883433342, -0.24387863278388977, -0.21195267140865326, 0.011018838733434677, 0.02988341636955738, 0.35583674907684326, 0.25895193219184875, 0.19014084339141846, 0.0450858511030674, 0.04239325970411301, 0.42394423484802246, -0.08431555330753326, 0.04709165543317795, -0.010927995666861534, 0.17118427157402039, 0.1502700001001358, -0.16209709644317627], [-0.08641810715198517, -0.06806518137454987, 0.15688234567642212, 0.23525606095790863, 0.14802666008472443, -0.05256586894392967, 0.0019919287879019976, 0.006948289927095175, 0.01112604234367609, -0.10314527899026871, 0.2561635673046112, -0.3389328420162201, 0.014492162503302097, 0.1363135576248169, 0.34400564432144165, 0.06643262505531311, -0.25308382511138916, -0.0431879386305809, 0.24552889168262482, -0.061511654406785965, -0.12769785523414612, 0.12569214403629303, -0.08621224015951157, 0.004028650466352701, -0.1511986404657364, 0.22509701550006866, 0.19905564188957214, 0.26439353823661804, -0.172350212931633, 0.20429594814777374, 0.013743417337536812, -0.009181038476526737, 0.0008619228610768914, 0.05571197345852852, 0.057571329176425934, -0.028095783665776253, -0.12327602505683899, 0.0967637151479721, 0.09356920421123505, 0.26504769921302795, -0.18200521171092987, 0.1904289871454239, -0.2817486524581909, -0.27649515867233276, 0.07324466854333878, -0.1749383807182312, 0.1585744321346283, 0.417136013507843, -0.0736725851893425, 0.1444384604692459, 0.10484179109334946, 0.22985246777534485, -0.015613457188010216, 0.15034352242946625, 0.04455522447824478, -0.12979699671268463, 0.05399659276008606, 0.016674229875206947, -0.2604201138019562, 0.019116444513201714, -0.2756892144680023, 0.2712983787059784, -0.06196274235844612, -0.07679387181997299, -0.009391960687935352, 0.16188067197799683, -0.19162634015083313, -0.14488860964775085, 0.09419605135917664, 0.22727501392364502, 0.14785775542259216, -0.03229508176445961, 0.31303414702415466, -0.060349080711603165, -0.24703915417194366, 0.36220884323120117, 0.03712986782193184, 0.4292541742324829, 0.09008018672466278, 0.07536742836236954, 0.049053680151700974, 0.04585513100028038, 0.2117396742105484, -0.2771463990211487, 0.03572538495063782, 0.1413726955652237, -0.0015744303818792105, -0.04284260794520378, -0.21112710237503052, 0.31546100974082947, 0.01020253449678421, -0.002258830703794956, -0.03722865879535675, -0.15253794193267822, 0.20082198083400726, 0.3577896058559418, 0.07459411770105362, -0.28287962079048157, -0.05496649071574211, 0.029398469254374504, -0.3134332001209259, 0.12860026955604553, 0.08128608018159866, 0.07651787251234055, -0.071024589240551, 0.10497697442770004, -0.013251081109046936, 0.24174799025058746, 0.22615845501422882, -0.017872003838419914, 0.2558736801147461, -0.08324500918388367, 0.08508548885583878, -0.060527730733156204, 0.11770837008953094, 0.0649145171046257, 0.22916430234909058, -0.008027365431189537, -0.05049121379852295, -0.12421990185976028, -0.07717607915401459, -0.00405443599447608, 0.09509103745222092, 0.00428463751450181, -0.009466869756579399, -0.03507988527417183, 0.08489516377449036, 0.05449393391609192], [-0.11050587892532349, -0.06308582425117493, -0.019685421139001846, 0.15562953054904938, 0.03859629109501839, -0.12296796590089798, 0.12709330022335052, 0.2643720209598541, 0.09454169869422913, 0.15273800492286682, -0.06944335252046585, -0.21408332884311676, 0.22683952748775482, 0.12713485956192017, 0.21043653786182404, 0.017317762598395348, -0.08475133776664734, 0.20084737241268158, -0.13513365387916565, 0.041992589831352234, -0.05808787792921066, 0.14111416041851044, -0.3307464122772217, 0.37200310826301575, -0.03093894198536873, 0.2243824005126953, 0.09685873240232468, 0.3560148775577545, 0.2252553552389145, 0.06921807676553726, -0.11782308667898178, 0.04018588736653328, -0.29570090770721436, -0.13413606584072113, -0.06859828531742096, 0.12766212224960327, -0.281217098236084, 0.09218597412109375, 0.12223798036575317, 0.09470707178115845, 0.05998418107628822, 0.1055736318230629, -0.19748416543006897, -0.36740610003471375, 0.05471797287464142, 0.03744181990623474, 0.009617462754249573, 0.10660801827907562, 0.013013776391744614, -0.055918991565704346, -0.08843402564525604, 0.10412492603063583, -0.19057543575763702, 0.1741389036178589, 0.11564404517412186, -0.43294471502304077, -0.1806357502937317, 0.2661627531051636, -0.03733770549297333, -0.25258734822273254, -0.09638247638940811, 0.03710848093032837, -0.219026580452919, -0.03632437810301781, -0.17160382866859436, 0.18469704687595367, -0.03440244868397713, 0.05525827035307884, -0.014447569847106934, 0.07682572305202484, -0.15266552567481995, 0.01567433960735798, -0.2223234474658966, 0.1840573251247406, 0.23066115379333496, 0.18676352500915527, -0.010238240472972393, 0.1959296315908432, 0.08757155388593674, 0.14119774103164673, -0.01479686051607132, -0.06114261597394943, 0.036246296018362045, -0.2614898681640625, -0.130607470870018, 0.38930195569992065, -0.06838773190975189, -0.23192059993743896, -0.1859074980020523, 0.17009399831295013, 0.19518382847309113, -0.1499556303024292, -0.10202914476394653, -0.2644880414009094, -0.28329208493232727, 0.007414158899337053, 0.23540657758712769, -0.16968633234500885, 0.2753901183605194, 0.061730097979307175, 0.1452759951353073, -0.3303206264972687, 0.057490911334753036, 0.004176557529717684, -0.374885231256485, -0.0035239008720964193, 0.014581733383238316, 0.08594637364149094, -0.010534137487411499, -0.002422313205897808, 0.12746259570121765, 0.11273801326751709, -0.21030257642269135, 0.2398144155740738, 0.10753178596496582, 0.006935456767678261, -0.08673357963562012, 0.08195618540048599, 0.07759024202823639, -0.03779635205864906, 0.06097160652279854, -0.059529680758714676, 0.07011811435222626, -0.25149381160736084, 0.10166026651859283, -0.06409098207950592, -0.2257603108882904, 0.05046583712100983], [0.12440011650323868, 0.08247958868741989, -0.002131551504135132, 0.2679041624069214, -0.004940895363688469, -0.08638853579759598, -0.2364395260810852, -0.0749666690826416, 0.1245267316699028, 0.06459523737430573, -0.15150755643844604, -0.04416071996092796, 0.24714602530002594, -0.03633883595466614, -0.36978012323379517, 0.02269451692700386, -0.039519041776657104, 0.11290052533149719, 0.053639840334653854, 0.1126105859875679, -0.20201396942138672, -0.15163248777389526, -0.10777275264263153, -0.06235089525580406, 0.03252163529396057, 0.016898799687623978, -0.3317737281322479, 0.26441407203674316, -0.07395760715007782, -0.23603667318820953, 0.11902959644794464, 0.14556655287742615, -0.2858794033527374, -0.21462462842464447, -0.10669275373220444, 0.09322049468755722, -0.12455601245164871, 0.016728859394788742, -0.21545982360839844, -0.12063997238874435, -0.044117849320173264, 0.2772669494152069, -0.01573009602725506, -0.43677622079849243, -0.0992673933506012, 0.11354811489582062, -0.6828065514564514, -0.31534749269485474, 0.01571573130786419, -0.07871781289577484, 0.042074233293533325, -0.05447293072938919, 0.03917297348380089, -0.1941230744123459, -0.12436407059431076, -0.019899463281035423, -0.0024160812608897686, 0.23327216506004333, 0.1332632601261139, -0.15541085600852966, -0.345185250043869, 0.15535351634025574, -0.02617807872593403, 0.08061008900403976, 0.1607641875743866, -0.0648556798696518, -0.019441848620772362, 0.07107269018888474, 0.012711059302091599, -0.12448793649673462, -0.1374993622303009, 0.16008645296096802, -0.20844805240631104, 0.24700546264648438, -0.4733351469039917, -0.0671522319316864, -0.16177095472812653, -0.1935042142868042, 0.044342853128910065, 0.058063775300979614, -0.2027132660150528, -0.5945048928260803, -0.17336168885231018, 0.005610283464193344, 0.007916602306067944, 0.008621670305728912, 0.08947954326868057, 0.1803871989250183, 0.15869839489459991, -0.011782815679907799, 0.15859240293502808, -0.2952071726322174, -0.006521397735923529, -0.19812068343162537, -0.6228948831558228, 0.08826445788145065, -0.12060511857271194, -0.07134436815977097, 0.2632048726081848, -0.0026753477286547422, -0.09084174782037735, -0.3319309949874878, -0.35764220356941223, -0.008315316401422024, 0.10149309039115906, -0.5433533191680908, -0.15262022614479065, -0.29850339889526367, 0.5044698119163513, 0.14608824253082275, -0.3116440176963806, 0.0862022191286087, 0.14014294743537903, 0.12878024578094482, 0.15543171763420105, -0.08696726709604263, -0.23604555428028107, -0.10312830656766891, -0.003734310856088996, -0.5046409368515015, -0.09492325037717819, -0.16818450391292572, 0.277620792388916, 0.023447329178452492, -0.09240855276584625, 0.15314818918704987, 0.02829115092754364, -0.10467067360877991], [0.15938130021095276, -0.018277129158377647, -0.1646142154932022, -0.05253107100725174, 0.09260350465774536, -0.10510092973709106, -0.12471432238817215, 0.16959571838378906, -0.03075607679784298, -0.07188896089792252, 0.09899434447288513, 0.23714445531368256, 0.2044043391942978, -0.3102903366088867, -0.1334725022315979, 0.12604348361492157, 0.137268528342247, -0.006825875956565142, -0.09870048612356186, 0.08674608170986176, 0.11885017901659012, -0.1542852520942688, -0.03048369102180004, 0.19944725930690765, 0.26110193133354187, -0.06427810341119766, -0.14335325360298157, 0.16534580290317535, -0.023132631555199623, -0.10032133758068085, 0.23506537079811096, -0.046941012144088745, -0.405449241399765, 0.10449803620576859, -0.0897488072514534, 0.36183595657348633, -0.10069591552019119, 0.15835259854793549, -0.23365093767642975, 0.08738089352846146, -0.09762509912252426, 0.15544185042381287, -0.23544864356517792, -0.09591730684041977, 0.08136826753616333, 0.06591609865427017, -0.1113872155547142, -0.32356536388397217, -0.16351626813411713, -0.1399826854467392, 0.09754686802625656, -0.11205396801233292, 0.3090108633041382, 0.10834305733442307, 0.27302059531211853, 0.13300363719463348, 0.006159412674605846, -0.017350628972053528, 0.15150998532772064, 0.2761015295982361, 0.031178249046206474, 0.14740988612174988, 0.019629813730716705, -0.28637996315956116, 0.1211099624633789, -0.14742131531238556, 0.07345836609601974, -0.00172260997351259, -0.22103697061538696, 0.12308311462402344, 0.17830835282802582, 0.08889851719141006, -0.07373673468828201, 0.18975159525871277, 0.08942317217588425, -0.2184343934059143, 0.0799294114112854, -0.059162482619285583, -0.045698754489421844, -0.07914865016937256, 0.19283495843410492, -0.290002703666687, -0.26469168066978455, 0.13641095161437988, 0.051993343979120255, -0.20882442593574524, -0.19646237790584564, -0.2323361486196518, -0.07584909349679947, -0.48309651017189026, -0.3426050543785095, -0.039304204285144806, 0.2476215958595276, 0.22873258590698242, 0.09981770068407059, -0.08283126354217529, 0.03074830211699009, 0.06696560978889465, -0.1763286590576172, -0.12303820252418518, -0.09837568551301956, 0.18518340587615967, -0.31914642453193665, -0.10365529358386993, 0.2028632014989853, -0.2505902349948883, -0.15537390112876892, -0.09289231896400452, -0.07066487520933151, -0.09593866020441055, 0.24518686532974243, -0.0075593553483486176, 0.15637041628360748, 0.20707762241363525, -0.26456889510154724, -0.06348146498203278, -0.19650577008724213, -0.019876914098858833, -0.014197133481502533, 0.21732130646705627, 0.15774540603160858, -0.14153285324573517, -0.5798599123954773, 0.10713363438844681, 0.07154673337936401, -0.5920022130012512, 0.36861881613731384, 0.035954687744379044], [-0.09733602404594421, -0.04098524898290634, -0.051845431327819824, -0.20169709622859955, 0.03558775782585144, 0.2573798596858978, -0.3674396872520447, 0.03774555027484894, 0.08758825063705444, 0.05981411784887314, -0.2861941158771515, -0.16294258832931519, -0.25996309518814087, -0.11724340170621872, -0.18051452934741974, -0.16177745163440704, 0.08958567678928375, -0.043653301894664764, -0.003986219875514507, 0.016284383833408356, -0.2110229730606079, 0.10999437421560287, 0.05752675607800484, 0.09439978748559952, -0.004752232693135738, -0.13543665409088135, -0.13530831038951874, 0.04166395217180252, 0.18027184903621674, 0.1619565784931183, -0.06891383975744247, -0.4554257392883301, -0.15806944668293, 0.1826402246952057, 0.07383322715759277, 0.06720101833343506, -0.358458548784256, -3.2919815566856414e-05, 0.13870179653167725, -0.3352559804916382, -0.1486695110797882, 0.2353481650352478, 0.26401636004447937, -0.17529849708080292, -0.3836654722690582, 0.16398882865905762, -0.053073327988386154, -0.267770379781723, -0.052219703793525696, -0.20643197000026703, -0.012850799597799778, 0.12698273360729218, -0.08215499669313431, 0.023403391242027283, 0.05816425755620003, 0.13680678606033325, 0.12876828014850616, 0.12347973138093948, 0.43484991788864136, 0.2806902825832367, 0.463853657245636, 0.22987569868564606, -0.26446533203125, -0.4037929177284241, 0.14043104648590088, -0.017206883057951927, -0.5278603434562683, 0.5012732744216919, 0.13379937410354614, -0.23217180371284485, -0.053196270018815994, -0.11169375479221344, -0.08551321178674698, -0.06903655081987381, -0.04331650584936142, -0.19989700615406036, -0.3792599141597748, -0.0950799435377121, -0.31658735871315, 0.19584323465824127, 0.165714293718338, 0.0671408474445343, -0.00038479253998957574, -0.07476277649402618, -0.10751698166131973, 0.018749527633190155, 0.13933156430721283, 0.24620214104652405, 0.3116789758205414, -0.42631763219833374, 0.09898363053798676, -0.17750050127506256, 0.09427264332771301, 0.10410357266664505, 0.05790277570486069, -0.04516983777284622, -0.05697854980826378, 0.39136815071105957, -0.057693976908922195, 0.07286188006401062, 0.309017539024353, -0.007016446907073259, -0.2926003038883209, -0.09837096184492111, 0.24095019698143005, -0.2553403377532959, -0.14732129871845245, -0.08422553539276123, 0.02925531566143036, -0.3792678415775299, -0.17494766414165497, 0.10550085455179214, 0.04654998332262039, 0.07995624095201492, -0.062213968485593796, -0.002082385355606675, 0.022942816838622093, -0.08171925693750381, -0.1598188877105713, 0.07701090723276138, 0.20920811593532562, -0.5970297455787659, 0.32002028822898865, -0.12118272483348846, -0.05915084108710289, 0.020151466131210327, -0.2644879221916199, -0.33464425802230835], [0.09545402228832245, -0.11629629880189896, -0.3839901089668274, 0.13607820868492126, -0.37209010124206543, 0.36090949177742004, 0.12698635458946228, 0.12835593521595, 0.08339259773492813, -0.17768029868602753, 0.05615618824958801, 0.030074339359998703, -0.08150588721036911, -0.033542193472385406, -0.1593782752752304, 0.3039326071739197, -0.00010506116086617112, 0.05623132362961769, -0.17297150194644928, -0.2185678482055664, -0.0005815643235109746, -0.12579861283302307, 0.26875942945480347, 0.005915147252380848, 0.15046155452728271, -0.2148357778787613, -0.2910533547401428, -0.12763555347919464, -0.10980406403541565, -0.07573701441287994, 0.22960706055164337, -0.3597927689552307, 0.24029317498207092, 0.27366921305656433, -0.017269853502511978, 0.002557172905653715, 0.3660888969898224, -0.10262594372034073, 0.1569284051656723, -0.15919129550457, 0.3125688135623932, -0.15922412276268005, 0.2590852975845337, 0.15301690995693207, 0.14071568846702576, -0.03837011754512787, -0.005341063719242811, 0.1231546550989151, -0.2235834300518036, -0.3331518769264221, -0.1328013688325882, 0.0424029603600502, 0.15167944133281708, -0.1444607973098755, 0.006822492461651564, 0.5168761014938354, 0.26638081669807434, -0.22982193529605865, -0.15243278443813324, 0.34996935725212097, 0.2481321394443512, -0.013643676415085793, 0.26720529794692993, 0.1903330385684967, -0.0924578532576561, -0.3119286000728607, 0.143352672457695, -0.10724572092294693, -0.10637492686510086, 0.03784213587641716, -0.3299926519393921, -0.0013555746991187334, -0.0924307331442833, -0.1003171056509018, -0.18565988540649414, 0.016819758340716362, 0.12053998559713364, -0.19108960032463074, 0.018980197608470917, 0.0823126807808876, -0.052788183093070984, 0.48718586564064026, 0.11443810164928436, 0.21533063054084778, 0.06800627708435059, -0.342140793800354, -0.022608816623687744, -0.24992269277572632, -0.019132321700453758, -0.12181370705366135, 0.06222543492913246, -0.13306191563606262, -0.04423021152615547, 0.4748810827732086, 0.0022494238801300526, 0.07688114047050476, -0.14012844860553741, 0.16206468641757965, 0.12784525752067566, 0.02847072295844555, -0.044259678572416306, 0.17566755414009094, -0.0662403330206871, -0.04849953576922417, 0.27241912484169006, -0.2138250470161438, 0.25993627309799194, -0.07352010905742645, -0.1316433995962143, -0.09924884140491486, 0.4327946603298187, -0.04344699904322624, -0.3126406669616699, 0.05211096629500389, 0.12999556958675385, -0.39114126563072205, 0.034648995846509933, -0.13047313690185547, 0.16634590923786163, 0.5471594333648682, -0.06802187114953995, -0.081339031457901, -0.052633125334978104, -0.17067775130271912, -0.1382269263267517, 0.24942713975906372, 0.09921872615814209, -0.07039504498243332], [0.2639642059803009, 0.08660727739334106, -0.12725941836833954, -0.1793689727783203, 0.024437712505459785, 0.051107872277498245, -0.4205775260925293, 0.13661153614521027, 0.16363684833049774, 0.30969351530075073, 0.014032257720828056, -0.04902617633342743, -0.1305791437625885, -0.0005229770904406905, -0.2741558849811554, -0.053119078278541565, 0.1102050170302391, -0.138718843460083, -0.21486815810203552, 0.16345097124576569, -0.050383515655994415, -0.004986794199794531, 0.2137734442949295, 0.11795980483293533, -0.20370227098464966, -0.23469026386737823, -0.08393153548240662, -0.12197010964155197, -0.11897594481706619, -0.18466174602508545, 0.2838329076766968, -0.20463111996650696, 0.10501261800527573, -0.1297493278980255, -0.25298213958740234, 0.31500211358070374, 0.1493287831544876, 0.01602042280137539, -0.21598607301712036, -0.07299695909023285, -0.004084159154444933, 0.07276169955730438, 0.44658976793289185, 0.041151437908411026, 0.08153624087572098, -0.11601801216602325, -0.43941783905029297, -0.38731950521469116, -0.07375767081975937, 0.05457795783877373, 0.14836008846759796, 0.011344090104103088, 0.44500377774238586, 0.053504493087530136, 0.22653591632843018, 0.047725651413202286, 0.06296271830797195, -0.0186163317412138, 0.19007864594459534, 0.04804186895489693, 0.10443615168333054, 0.13950319588184357, -0.029637575149536133, 0.10773058235645294, 0.12309819459915161, -0.0033935741521418095, -0.34698057174682617, 0.21882641315460205, -0.11245912313461304, -0.0066398875787854195, 0.04209720343351364, 0.031045064330101013, 0.10188451409339905, 0.038301981985569, 0.10837151110172272, 0.1335545927286148, 0.03142789751291275, -0.127207949757576, -0.7366487979888916, 0.2780400812625885, -0.03162635490298271, 0.041929423809051514, 0.10047760605812073, 0.04840627312660217, -0.29758739471435547, -0.11689738184213638, 0.2408359944820404, 0.3117857575416565, 0.3046896457672119, -0.6559631824493408, 0.15011534094810486, 0.05401250720024109, 0.14626304805278778, 0.26307398080825806, -0.1140817403793335, -0.1423214226961136, 0.1241883859038353, -0.15217207372188568, -0.2882828414440155, 0.15897966921329498, 0.07763355225324631, -0.22135217487812042, -0.10857617110013962, -0.32323917746543884, 0.06580841541290283, -0.06111539155244827, 0.08610928803682327, 0.16907663643360138, -0.08778992295265198, -0.43219050765037537, 0.19981838762760162, 0.3197069764137268, -0.13069310784339905, -0.11394240707159042, -0.02768542431294918, -0.03255121037364006, 0.15297919511795044, 0.046780262142419815, -0.10274334251880646, 0.16856756806373596, 0.46285292506217957, -0.28291893005371094, -0.21005089581012726, -0.01046678889542818, -0.029618676751852036, -0.08248460292816162, 0.055056314915418625, -0.059894587844610214], [-0.11368189752101898, 0.01674991101026535, -0.1958470642566681, 0.0819501131772995, -0.06570947170257568, -0.09170945733785629, 0.007270945236086845, -0.07231254130601883, 0.3510548770427704, -0.04741937294602394, -0.12667538225650787, 0.2458336353302002, -0.05371612682938576, -0.023550590500235558, 0.018662692978978157, -0.060829706490039825, -0.018348591402173042, -0.034908223897218704, 0.011515400372445583, -0.06094490364193916, 0.1452445387840271, 0.25268298387527466, -0.08152156323194504, 0.08387419581413269, 0.056216027587652206, 0.12129134684801102, -0.1100659891963005, 0.09445758908987045, -0.17356571555137634, -0.16516512632369995, -0.05672943964600563, 0.03210301697254181, -0.03538939356803894, -0.02458478882908821, 0.01763172261416912, 0.3080684244632721, 0.2798285484313965, 0.281290203332901, -0.3650180995464325, -0.03748410940170288, 0.0042901411652565, 0.05586858466267586, 0.243705153465271, -0.0671921968460083, -0.3405214846134186, 0.1498071253299713, -0.2209245264530182, -0.26274898648262024, 0.4082193672657013, 0.09646040946245193, 0.17186424136161804, -0.05659642070531845, 0.03317582607269287, -0.03912358731031418, -0.08990027010440826, 0.20122630894184113, 0.23305809497833252, -0.19118472933769226, 0.20986659824848175, -0.13712608814239502, 0.095290906727314, 0.09043112397193909, 0.164325550198555, -0.08929577469825745, -0.040597230195999146, -0.3194754719734192, -0.3181811571121216, 0.3282051384449005, 0.05800759419798851, 0.12202592194080353, 0.22565123438835144, 0.028638599440455437, 0.0698767900466919, 0.12276676297187805, 0.12128874659538269, 0.18852171301841736, 0.03826812654733658, -0.10104241967201233, -0.3624795377254486, 0.16599349677562714, -0.46834996342658997, -0.2592563033103943, 0.2515416443347931, 0.20266486704349518, -0.14920763671398163, -0.14625543355941772, 0.043945591896772385, 0.09156421571969986, -0.04594409838318825, -0.4290514290332794, 0.0887787714600563, -0.04707430303096771, 0.11500916630029678, 0.09374081343412399, -0.05694197863340378, 0.0624336302280426, -0.20735464990139008, 0.2978726029396057, -0.20209018886089325, -0.2530674934387207, 0.0681803897023201, -0.16907288134098053, -0.24760901927947998, -0.42002493143081665, 0.19057965278625488, -0.13474015891551971, 0.21981048583984375, -0.14489708840847015, 0.14219143986701965, -0.3453185558319092, -0.38824233412742615, 0.07133689522743225, -0.11061406880617142, 0.1233840063214302, -0.05710626766085625, -0.012823719531297684, -0.06441385298967361, 0.274109810590744, -0.4425300061702728, 0.06030034273862839, -0.11586382985115051, -0.2912886440753937, 0.018290823325514793, 0.051181718707084656, 0.017084909602999687, 0.06681158393621445, -0.0065261623822152615, -0.16615775227546692], [0.08947969973087311, 0.02921237051486969, 0.17979329824447632, -0.057765617966651917, 0.01380930095911026, 0.04550522565841675, 0.30435895919799805, 0.0887373834848404, -0.0019139830255880952, -0.08309164643287659, 0.22831732034683228, -0.1357428878545761, 0.15086621046066284, 0.0008790423744358122, -0.13747818768024445, -0.020767034962773323, -0.1889892965555191, -0.17661261558532715, 0.19617053866386414, 0.0365104004740715, 0.08577170222997665, -0.03705602511763573, -0.12764312326908112, 0.14938049018383026, 0.1489107757806778, 0.2091807872056961, 0.050504833459854126, 0.14508895576000214, 0.14251208305358887, 0.2649287283420563, -0.016907254233956337, 0.01427910104393959, -0.3101651668548584, -0.05172506347298622, 0.10537878423929214, -0.3193053603172302, -0.1350630223751068, -0.09591153264045715, 0.0617302842438221, -0.07843152433633804, 0.04435830935835838, 0.05092371255159378, -0.1732950657606125, -0.21894140541553497, -0.09318331629037857, -0.04763151705265045, 0.07955808192491531, 0.23162029683589935, -0.08168699592351913, -0.08894263952970505, 0.19519293308258057, 0.24399816989898682, -0.06839832663536072, -0.014420577324926853, 0.05266270041465759, -0.26628577709198, -0.31718340516090393, 0.17442704737186432, -0.28204384446144104, -0.2876269817352295, 0.06223073601722717, -0.11866085976362228, -0.17240755259990692, -0.017731154337525368, -0.16134338080883026, -0.0199295487254858, -0.17738056182861328, 0.29088830947875977, 0.07603567093610764, 0.25005266070365906, 0.11047478765249252, -0.15533055365085602, -0.11749687045812607, 0.04226197302341461, 0.17541827261447906, 0.29414740204811096, 0.15232226252555847, 0.24068884551525116, 0.17073696851730347, -0.15717609226703644, 0.1788540929555893, -0.10523112118244171, -0.041274573653936386, -0.15238046646118164, 0.2028488963842392, 0.33461523056030273, 0.25134313106536865, -0.06644326448440552, -0.05768829584121704, 0.19027651846408844, 0.06668200343847275, 0.047226231545209885, 0.17245107889175415, -0.10269901901483536, 0.04209045693278313, 0.3126111626625061, -0.09050750732421875, -0.3644619584083557, 0.08860129117965698, 0.24854888021945953, -0.08890022337436676, -0.3547940254211426, -0.09632042795419693, 0.3305186331272125, -0.10066813975572586, -0.03995868191123009, 0.07414913177490234, 0.3115779757499695, 0.27094659209251404, 0.019285349175333977, 0.03877470642328262, 0.07300616800785065, 0.26652979850769043, 0.0745023787021637, -0.006516870576888323, 0.32914620637893677, 0.2278999388217926, 0.2540450394153595, -0.24188682436943054, 0.030151396989822388, 0.03922400251030922, 0.026435771957039833, 0.1390952169895172, -0.13530346751213074, 0.0944548100233078, 0.2527276277542114, -0.15431557595729828, -0.18921953439712524], [0.31284299492836, 0.28641587495803833, -0.2953987121582031, -0.10830152779817581, 0.12444718182086945, -0.31349536776542664, -0.33356547355651855, -0.150401309132576, 0.1687493771314621, -0.019724834710359573, -0.33541661500930786, 0.09745488315820694, 0.2258790284395218, 0.06828200817108154, -0.11302981525659561, 0.1209770068526268, -0.12135840207338333, -0.05116690322756767, 0.22155529260635376, 0.3045973777770996, -0.17090316116809845, -0.004705878905951977, -0.30988335609436035, 0.01148252934217453, -0.051968228071928024, -0.13843117654323578, -0.0669986754655838, 0.18430639803409576, 0.22248530387878418, -0.09413540363311768, -0.08513522893190384, 0.08697033673524857, -0.08177465945482254, -0.10326342284679413, 0.3318403661251068, -0.08303909003734589, -0.2202785313129425, 0.05616426095366478, -0.12534752488136292, -0.11689800024032593, -0.16308294236660004, 0.13859933614730835, 0.0031807078048586845, -0.16463255882263184, -0.002600686624646187, -0.022835297510027885, -0.08861754834651947, -0.38825079798698425, 0.08303098380565643, -0.1603519767522812, 0.17286591231822968, -0.12844805419445038, 0.03372807055711746, 0.05688849464058876, 0.14135579764842987, -0.11946538090705872, -0.18788999319076538, -0.2060604989528656, 0.16268709301948547, 0.11129268258810043, -0.16783440113067627, -0.07980307936668396, 0.0649726390838623, -0.19894592463970184, -0.2810559868812561, -0.19941134750843048, 0.17329347133636475, -0.087899349629879, 0.05357500910758972, -0.1232403889298439, -0.13305148482322693, -0.1777379810810089, -0.17615480720996857, 0.17096763849258423, 0.029033323749899864, 0.15721172094345093, -0.14965124428272247, -0.2299491912126541, -0.14155259728431702, -0.19461418688297272, -0.037342362105846405, -0.48349905014038086, -0.04838922992348671, -0.11701536923646927, -0.09520460665225983, -0.03818060830235481, 0.31773483753204346, 0.24236701428890228, -0.22221623361110687, -0.3934727609157562, 0.05217387154698372, -0.06825913488864899, 0.05725589394569397, -0.23214484751224518, -0.12039417028427124, 0.0359305739402771, 0.12588824331760406, -0.10050573945045471, 0.3060026168823242, 0.022060900926589966, -0.2106250375509262, -0.10973590612411499, -0.37870705127716064, -0.0548468753695488, -0.36332640051841736, -0.438368558883667, 0.01735627092421055, 0.1298486888408661, 0.07608700543642044, -0.027799444273114204, -0.13678410649299622, 0.08155763149261475, -0.23063521087169647, 0.2615682780742645, 0.22220751643180847, 0.10210631787776947, -0.17402876913547516, -0.2190912663936615, -0.24841532111167908, -0.3479468822479248, 0.20802661776542664, -0.23379960656166077, 0.006266830023378134, 0.33966147899627686, 0.10853341221809387, 0.12452424317598343, -0.48827695846557617, -0.05667395144701004], [0.04587028548121452, -0.09602443128824234, 0.2756493091583252, -0.0316522940993309, 0.02156662382185459, 0.18135212361812592, 0.2977476119995117, -0.0005279184551909566, -0.035606686025857925, -0.20516884326934814, 0.02443987876176834, -0.21363595128059387, 0.12110644578933716, 0.11241664737462997, 0.04482737556099892, 0.1797027289867401, -0.11838534474372864, 0.20248068869113922, 0.2295205295085907, -0.10978453606367111, 0.0673893615603447, 0.048546917736530304, -0.211847186088562, -0.13234609365463257, -0.19509157538414001, 0.02186690643429756, -0.09587475657463074, 0.02116776630282402, -0.0015579508617520332, -0.07746263593435287, -0.15995116531848907, -0.23788532614707947, -0.2173651158809662, -0.46380695700645447, -0.16030478477478027, -0.1492602527141571, -0.05428575724363327, 0.07693637907505035, 0.3570302426815033, 0.14119090139865875, -0.08307661861181259, -0.26565104722976685, -0.17987631261348724, 0.06872022151947021, -0.10335859656333923, -0.28367218375205994, 0.15759672224521637, 0.07838365435600281, -0.36506178975105286, -0.22445270419120789, 0.033437009900808334, 0.3198941946029663, -0.10979510098695755, 0.06971276551485062, -0.011542519554495811, -0.05409056320786476, -0.25503572821617126, -0.11490178853273392, 0.17967259883880615, -0.16157563030719757, -0.2821907103061676, 0.05160995200276375, 0.055982597172260284, 0.13412292301654816, 0.07259263843297958, 0.060645781457424164, 0.06027152016758919, -0.13470493257045746, 0.058964233845472336, 0.34989622235298157, -0.018765205517411232, 0.02156773954629898, 0.0023912398610264063, -0.0830259770154953, 0.21790756285190582, 0.3258562982082367, 0.15113922953605652, 0.36517462134361267, 0.0771479606628418, 0.10996229946613312, -0.19668854773044586, -0.21508654952049255, 0.22185958921909332, -0.16869154572486877, -0.01828831247985363, 0.3214797079563141, -0.058177247643470764, -0.21287621557712555, 0.0667155310511589, 0.20708243548870087, -0.27105239033699036, 0.1371299773454666, -0.22217711806297302, -0.04470447078347206, 0.4975946545600891, -0.01668172888457775, -0.11701168864965439, 0.051473867148160934, 0.03654785081744194, -0.03818883001804352, 0.16870449483394623, -0.21022911369800568, 0.17947015166282654, 0.06045562028884888, -0.00774281844496727, 0.4556501507759094, 0.020176755264401436, 0.1746634691953659, -0.1968899965286255, 0.11028066277503967, 0.22822263836860657, 0.16043159365653992, -0.04298609867691994, -0.16011352837085724, -0.1109619289636612, -0.06437883526086807, 0.1194973886013031, 0.019105466082692146, 0.15603624284267426, 0.1813315451145172, -0.4117850661277771, 0.24777504801750183, -0.20917920768260956, 0.15149861574172974, -0.04985225945711136, -0.07612690329551697, 0.18816371262073517, 0.19898059964179993], [-0.0802498459815979, -0.01984996162354946, 0.13293975591659546, -0.10074707865715027, -0.012118241749703884, 0.10428997129201889, 0.1218438372015953, -0.05394500121474266, -0.18958698213100433, -0.24100254476070404, -0.2109813392162323, 0.029203500598669052, 0.12133175879716873, 0.2351839244365692, -0.1216113492846489, 0.13854409754276276, -0.09182105213403702, 0.05271337926387787, -0.1889595091342926, -0.028934478759765625, -0.1012401282787323, -0.2768838107585907, 0.021622801199555397, 0.06252433359622955, -0.18625694513320923, -0.10134153068065643, -0.11974872648715973, -0.020949427038431168, 0.2609931528568268, -0.0935862734913826, 0.1506774127483368, 0.021429160609841347, 0.04767462611198425, -0.15385667979717255, 0.020372562110424042, 0.2920459806919098, 0.21173697710037231, -0.08216051757335663, -0.272565633058548, 0.22761105000972748, -0.00026626919861882925, 0.19918926060199738, 0.029124287888407707, 0.11785124987363815, 0.06497155874967575, -0.015390751883387566, -0.29932886362075806, 0.2348884642124176, 0.04223250970244408, 0.05978965014219284, 0.22233225405216217, 0.026851573958992958, 0.02292100340127945, -0.2908329367637634, 0.12990719079971313, 0.12578508257865906, 0.15402673184871674, -0.13658557832241058, -0.024701479822397232, 0.2299281507730484, 0.22918224334716797, 0.1630716323852539, 0.04039151966571808, 0.3146357238292694, -0.20551826059818268, 0.07349549233913422, 0.23986293375492096, 0.036232855170965195, 0.11478692293167114, -0.12519462406635284, -0.049896661192178726, -0.04360828176140785, 0.31672394275665283, -0.1988290548324585, -0.09714431315660477, -0.2273968756198883, -0.08580810576677322, -0.3270280361175537, 0.0358542874455452, 0.10430774837732315, -0.005248453933745623, -0.30604514479637146, -0.25579047203063965, 0.1836899369955063, 0.1076226457953453, -0.23868221044540405, -0.12936744093894958, 0.2515515387058258, 0.3324814438819885, 0.11509659886360168, 0.09941384941339493, -0.025938721373677254, 0.0191116351634264, 0.17368446290493011, 0.01957291178405285, -0.35804304480552673, 0.17405065894126892, 0.07589118182659149, 0.0975794866681099, -0.5500745177268982, 0.44841161370277405, 0.11841761320829391, -0.14151780307292938, -0.04627123102545738, -0.037437476217746735, -0.21882304549217224, -0.028288159519433975, -0.009764505550265312, -0.3679933547973633, -0.10383735597133636, 0.049134597182273865, -0.16544046998023987, -0.1781425178050995, -0.17104914784431458, -0.3220045566558838, 0.0755205899477005, 0.12862443923950195, -0.04484589770436287, 0.011910519562661648, 0.22013747692108154, 0.44427061080932617, -0.17959672212600708, -0.08105253428220749, -0.04096701368689537, -0.19654634594917297, -0.03249353915452957, 0.016300268471240997, -0.14507059752941132], [-0.2292511910200119, -0.21934795379638672, 0.013663483783602715, 0.04294483736157417, -0.08478306978940964, -0.01280447281897068, -0.09629430621862411, -0.07725736498832703, 0.013276828452944756, 0.04237489402294159, -0.15866555273532867, -0.00023755733855068684, 0.06750039011240005, -0.030524343252182007, -0.09456659108400345, -0.05180283635854721, -0.117906354367733, -0.11386065185070038, -0.14804492890834808, 0.08545432984828949, 0.23669835925102234, -0.06755538284778595, 0.21759016811847687, -0.24279239773750305, 0.25318673253059387, -0.03433988243341446, -0.16050934791564941, 0.016017720103263855, -0.18009090423583984, 0.06068820506334305, -0.027529509738087654, -0.027309851720929146, 0.08879455924034119, 0.01673639751970768, 0.02725348249077797, -0.05429588630795479, 0.009940671734511852, -0.067625492811203, -0.02201627567410469, -0.10000699013471603, 0.16743767261505127, -0.04026714712381363, -0.014313345775008202, 0.12667211890220642, 0.14788863062858582, 0.07125924527645111, 0.2099018543958664, 