{"log_std": [-1.793981909751892, -2.937725305557251], "mlp_extractor.policy_net.0.weight": [[0.09944650530815125, -0.16137197613716125, 0.13854295015335083, 0.05913814157247543, -0.10896168649196625, 0.15702439844608307, -0.375837504863739, 0.41102755069732666, -0.21462662518024445, -0.2111121416091919, -0.004080129787325859, 0.20970845222473145, -0.034083057194948196, 0.11106402426958084, -0.48222872614860535, 0.5858129262924194, 0.06658792495727539], [0.23915013670921326, 0.07258310168981552, 0.06696704775094986, -0.12759366631507874, 0.11888338625431061, 0.5289993286132812, -0.32628360390663147, -0.06367606669664383, 0.0833163782954216, -0.11123340576887131, -0.21590200066566467, 0.4201027452945709, -0.1989876925945282, -0.4239516854286194, -0.02608795277774334, -0.044583193957805634, -0.4529622495174408], [0.048329491168260574, 0.46774420142173767, 0.2967715561389923, 0.12400464713573456, 0.3117605745792389, 0.02476843073964119, -0.02436295710504055, -0.3658783733844757, -0.34244489669799805, -0.2443356215953827, -0.4373668432235718, -0.1552865207195282, 0.712190568447113, -0.6019118428230286, 0.10478472709655762, -0.19516189396381378, -0.0073902178555727005], [-0.1932697296142578, 0.32385513186454773, -0.29814887046813965, 0.23239468038082123, -0.3162524402141571, 0.022461578249931335, -0.3049134612083435, -0.053904205560684204, 0.13814426958560944, 0.28877729177474976, -0.11896375566720963, 0.2780558168888092, -0.18044601380825043, -0.14550510048866272, -0.31501269340515137, 0.12310302257537842, -0.5301241278648376], [0.3284057676792145, 0.41588979959487915, 0.38214030861854553, 0.4501384496688843, -0.06715671718120575, -0.005633646156638861, -0.11222636699676514, -0.2612689137458801, -0.4127562642097473, -0.5567832589149475, -0.023082248866558075, -0.506456732749939, 0.17209671437740326, 0.16590289771556854, 0.19143614172935486, 0.3002426326274872, -0.13825714588165283], [-0.17980821430683136, 0.26148462295532227, -0.08507388085126877, 0.20083090662956238, 0.30504947900772095, 0.15891210734844208, -0.5954337120056152, 0.35039374232292175, -0.20109640061855316, -0.01512629259377718, 0.08699660748243332, 0.24621400237083435, 0.032567501068115234, -0.2826541066169739, -0.46744871139526367, 0.29722729325294495, 0.030307795852422714], [0.10384019464254379, 0.40611520409584045, -0.13551415503025055, -0.592223584651947, -0.09495057165622711, 0.11540999263525009, 0.343902051448822, 0.5377697944641113, 0.2076287418603897, 0.2966691851615906, 0.0005238294834271073, 0.17701806128025055, -0.2956017851829529, -1.1632213592529297, -0.06821134686470032, 0.37456682324409485, -0.07566457241773605], [0.19463713467121124, -0.0479712150990963, 0.6501485705375671, -0.19196896255016327, -0.1401342898607254, 0.20287850499153137, 0.3536660969257355, 0.3129603862762451, 0.10525109618902206, 0.4728452265262604, 0.3660653531551361, 0.4639655351638794, 0.5943235754966736, -0.1658364236354828, 0.08006683737039566, -0.055289044976234436, 0.18705689907073975], [-0.18176338076591492, -0.47031018137931824, -0.12138854712247849, -0.19383296370506287, 0.3852637708187103, -0.22281906008720398, 0.6047673225402832, -0.45379430055618286, 0.11504598706960678, 0.0715235248208046, 0.17855443060398102, 0.4386151134967804, 0.3956911265850067, 0.26985013484954834, 0.3550869822502136, -0.5109533667564392, 0.04070287570357323], [-0.12530334293842316, -0.1227777823805809, 0.4802361726760864, 0.24994710087776184, 0.06772501766681671, -0.01784932240843773, 0.414639949798584, 0.13794894516468048, -0.049760982394218445, 0.1486591249704361, 0.35146209597587585, 0.12911584973335266, 1.2545032501220703, 0.12064090371131897, 0.283346951007843, -0.2547690272331238, 0.07151370495557785], [0.03544599935412407, -0.38530051708221436, -0.3620290756225586, 0.23529699444770813, -0.02102626860141754, -0.12108946591615677, -0.3725442588329315, -0.3529091775417328, 0.1148436963558197, -0.048141125589609146, 0.17292042076587677, -0.2776365876197815, -0.2889583706855774, 0.48158687353134155, -0.04120977595448494, 0.03662215918302536, 0.014062435366213322], [-0.03942864388227463, -0.30077970027923584, 0.2642052471637726, 0.08209585398435593, -0.07397928088903427, -0.09231634438037872, -0.21584470570087433, 0.08488321304321289, -0.15591025352478027, 0.07156869769096375, 0.606124997138977, -0.21254843473434448, 0.2563391327857971, 0.43569156527519226, -0.10043163597583771, -0.15272745490074158, 0.01257369015365839], [0.5221835970878601, -0.013707881793379784, 0.17112721502780914, 0.13239899277687073, -0.049053847789764404, -0.058116406202316284, 0.0670662447810173, -0.048479121178388596, 0.23876811563968658, 0.09065547585487366, 0.10911234468221664, 0.14697636663913727, -0.033859193325042725, 0.11567815393209457, 0.06044019013643265, -0.14028535783290863, 0.1034383699297905], [0.25000283122062683, -0.2468157559633255, -0.1695745587348938, -0.21186889708042145, -0.19503365457057953, -0.3561880588531494, -0.26569879055023193, -0.4672926068305969, -0.003873024368658662, 0.0314868800342083, 0.29928064346313477, -0.04090505838394165, -0.20378555357456207, 0.17826148867607117, -0.03197604790329933, -0.3713749051094055, 0.06479955464601517], [0.155048668384552, 0.6747381091117859, 0.12069279700517654, -0.0021498259156942368, 0.01060536503791809, 0.17795901000499725, 0.22878137230873108, 0.04650707542896271, 0.08519195020198822, -0.208290696144104, -0.356903076171875, -0.12201230227947235, 0.034067053347826004, -0.4836216866970062, 0.2792198359966278, 0.19712314009666443, -0.01785867102444172], [-0.18504047393798828, 0.03994939848780632, -0.06971444934606552, -0.1450953334569931, -0.10864792764186859, -0.18325187265872955, -0.42140257358551025, -0.20375028252601624, 0.22506362199783325, 0.857731282711029, -0.2280385047197342, 0.1644490659236908, 0.15516312420368195, -0.16390013694763184, -0.6551068425178528, -0.5860589146614075, 0.39523473381996155], [-0.20750482380390167, 0.0026804630178958178, 0.5051698684692383, -0.009569280780851841, 0.06731292605400085, -0.12093256413936615, 0.4579521119594574, 0.2783692479133606, 0.24399949610233307, 0.05568034574389458, -0.03397364914417267, 0.10789565742015839, 1.362552523612976, -0.007871684618294239, 0.07214129716157913, 0.036008890718221664, 0.009634556248784065], [0.177276611328125, 0.11101657152175903, -0.02509406954050064, -0.16156154870986938, -0.2106076031923294, 0.21331535279750824, -0.32986927032470703, 0.1326581984758377, 0.25033625960350037, 0.33105623722076416, -0.05971640720963478, -0.3277361989021301, -0.16317380964756012, -0.3187297582626343, -0.21990974247455597, -0.3820115029811859, 0.3133357763290405], [0.36908456683158875, -0.2251434177160263, 0.24911148846149445, 0.03268633037805557, 0.06063550338149071, 0.08302527666091919, 0.2611769735813141, -0.3920433223247528, 0.06404031068086624, -0.14608913660049438, 0.20474615693092346, -0.32231640815734863, -0.41855350136756897, 0.3251635730266571, 0.20953567326068878, 0.2646028399467468, 0.17805925011634827], [0.0963529497385025, -0.050358738750219345, 0.2542433738708496, 0.30170702934265137, -0.18155129253864288, 0.08611802756786346, 0.10037118941545486, 0.09062154591083527, 0.13697095215320587, 0.21456070244312286, -0.21771717071533203, 0.04622100666165352, 0.14432501792907715, 0.39205867052078247, 0.13904458284378052, 0.05343293398618698, 0.3706672787666321], [-0.09639940410852432, 0.18002906441688538, -0.09579938650131226, -0.09244658797979355, 0.3453418016433716, 0.3899591267108917, 0.4959928095340729, 0.88229900598526, 0.08125156909227371, 0.45774713158607483, -0.2813587784767151, 0.0434899777173996, -0.03384273871779442, -0.16380427777767181, 0.22515910863876343, 0.3777889907360077, -0.04722563549876213], [-0.21762287616729736, -0.2040175497531891, 0.2974625527858734, -0.150380477309227, -0.05509364604949951, 0.05040564760565758, -0.4870430529117584, -0.09681610763072968, -0.2562282681465149, 0.29358017444610596, -0.007621882017701864, -0.2765440046787262, 0.08021030575037003, 0.1414421945810318, -0.03947450593113899, -0.2286026030778885, -0.275981068611145], [-0.593447208404541, -0.22434869408607483, 0.3902710974216461, 0.4723953604698181, -0.06754925847053528, 0.07863333821296692, 0.550273597240448, 0.19070538878440857, 0.2840309739112854, 0.15193799138069153, -0.3268870413303375, 0.42798319458961487, 0.2859475016593933, 0.24282066524028778, 0.35054677724838257, 0.07127656787633896, -0.1079096645116806], [-0.0463825985789299, 0.39780423045158386, 0.3029445707798004, 0.19473837316036224, 0.29305949807167053, 0.2240850329399109, -0.161854088306427, -0.08353106677532196, -0.19199375808238983, -0.5029013156890869, 0.1912553906440735, -0.6369910836219788, 0.29099947214126587, 0.2981061637401581, -0.11767631769180298, 0.2899572551250458, -0.16112670302391052], [0.17953883111476898, 0.11724395304918289, 0.1698683202266693, -0.4343220889568329, -0.060170240700244904, 0.12406790256500244, 0.14305424690246582, 0.018205050379037857, -0.17673876881599426, -0.23927074670791626, -0.06007954105734825, 0.08070077002048492, 0.11537091434001923, -0.7726135849952698, -0.02845916524529457, 0.33354344964027405, -0.0634123682975769], [-0.23778100311756134, -0.08851023763418198, -0.2093537449836731, 0.37371930480003357, 0.19998182356357574, 0.038305360823869705, -0.2793445885181427, -0.34444859623908997, 0.034295860677957535, -0.2599814832210541, 0.0273361224681139, -0.06427464634180069, -0.35675275325775146, 0.21695032715797424, -0.38744115829467773, -0.2197590470314026, 0.045507386326789856], [0.45176881551742554, 0.25722265243530273, 0.13526086509227753, 0.12930870056152344, 0.048981957137584686, 0.49192795157432556, -0.18473443388938904, 0.030431430786848068, -0.23690709471702576, 0.07534464448690414, -0.33745768666267395, -0.23780450224876404, -0.12397012114524841, -0.08840606361627579, 0.37260156869888306, 0.02775505557656288, -0.030589047819375992], [0.4295676052570343, -0.24591659009456635, 0.30543580651283264, -0.033825747668743134, -0.0031385254114866257, -0.10025043040513992, 0.21567608416080475, 0.019879158586263657, -0.06864321976900101, -0.016096733510494232, 0.14740365743637085, 0.3638439178466797, -0.04809819161891937, -0.19675908982753754, 0.2650843560695648, -0.10025487840175629, -0.004401892423629761], [0.1646425575017929, -0.1341383457183838, -0.16845110058784485, -0.06596651673316956, -0.06615068763494492, 0.1744956076145172, -0.5746060013771057, 0.47690722346305847, -0.48706328868865967, 0.018382644280791283, 0.13377390801906586, 0.11322449892759323, -0.5149974226951599, -0.07768471539020538, -0.08347343653440475, 0.3414077162742615, -0.5369567275047302], [-0.24873888492584229, -0.18276572227478027, -0.2169085592031479, 0.23704592883586884, 0.12824290990829468, -0.5954723358154297, -0.29564914107322693, 0.3923535943031311, -0.5939167141914368, -0.19454048573970795, 0.22073757648468018, 0.021756967529654503, -0.2788737118244171, 0.15116386115550995, 0.12940609455108643, 0.511380672454834, -0.09891662001609802], [-0.05548425763845444, 0.08817391097545624, -0.09179343283176422, 0.20050163567066193, -0.25370562076568604, 0.24257482588291168, -0.04247108846902847, 0.15695546567440033, -0.3270743489265442, 0.04163675382733345, 0.2001790553331375, 0.2546425461769104, 0.1706688553094864, 0.332771897315979, 0.1785646229982376, 0.19719238579273224, -0.13436253368854523], [0.3302665948867798, -0.17879031598567963, -0.1260184794664383, 0.13044750690460205, 0.007005684077739716, -0.1127060279250145, -0.14846906065940857, -0.30583733320236206, -0.42645981907844543, -0.2909054458141327, -0.06024125963449478, 0.3909101188182831, -0.27934136986732483, 0.1424449235200882, 0.1730862259864807, 0.16416476666927338, 0.012006968259811401], [-0.24332498013973236, -0.038979142904281616, -0.5234277844429016, -0.13341966271400452, 0.1187937930226326, 0.054497603327035904, 0.3315676748752594, -0.08831315487623215, 0.44083210825920105, 0.28422993421554565, 0.05076700076460838, 0.21065983176231384, -0.1940775215625763, -0.24213355779647827, -0.1361943632364273, -0.08557728677988052, -0.16319946944713593], [-0.07464390993118286, -0.29034411907196045, -0.35876768827438354, -0.01697382517158985, 0.2542589008808136, -0.24828748404979706, 0.6082045435905457, -0.13713489472866058, 0.20815306901931763, 0.005600575357675552, 0.08669362217187881, -0.12855413556098938, 0.13294275104999542, 0.3236048221588135, -0.130223348736763, -0.058289166539907455, 0.23258009552955627], [-0.1644526869058609, -0.10086723417043686, -0.24711741507053375, -0.20358595252037048, 0.2607819437980652, 0.4824552834033966, 0.304243803024292, 0.6287930607795715, 0.17491348087787628, 0.23683471977710724, 0.31784820556640625, 0.17625440657138824, -0.07104658335447311, -0.3408733606338501, 0.5164212584495544, 0.43210554122924805, -0.1682988405227661], [-0.21940764784812927, -0.38182303309440613, 0.3834581971168518, -0.028293108567595482, -0.110113225877285, 0.0843849927186966, -0.22231638431549072, 0.03456122428178787, -0.34808626770973206, -0.023693807423114777, 0.21022170782089233, 0.5638025403022766, 0.8443451523780823, -0.04848020523786545, 0.11968347430229187, 0.21604950726032257, -0.10148352384567261], [-0.31325265765190125, 0.1636749505996704, -0.4127276837825775, -0.04981571435928345, 0.09678813070058823, 0.05048023909330368, 0.2428477257490158, -0.2779669761657715, 0.0411495678126812, 0.0364183634519577, 0.2474377155303955, 0.07781241834163666, -0.2624857723712921, -0.12178858369588852, -0.08002573251724243, -0.1648002564907074, 0.2762937843799591], [0.23497042059898376, -0.32043489813804626, 0.03333981707692146, 0.18304231762886047, -0.17538267374038696, 0.46250221133232117, 0.35980281233787537, -0.28900396823883057, 0.4938763976097107, -0.07502280175685883, 0.49269479513168335, 0.24739372730255127, 0.09197736531496048, 0.1358892321586609, 0.20677123963832855, -0.2992577850818634, 0.4297182857990265], [0.22864818572998047, 0.3170166611671448, 0.014556323178112507, -0.6331838965415955, 0.06744103133678436, -0.2638666033744812, 0.033074960112571716, 0.5553789138793945, -0.20480363070964813, 0.2714466452598572, 0.015822511166334152, 0.1488713175058365, -0.29240041971206665, -1.0527586936950684, -0.1558559685945511, 0.3125194311141968, 0.008442265912890434], [0.3733660876750946, 0.4378482401371002, 0.06996554136276245, -0.15561379492282867, 0.16673406958580017, 0.33964988589286804, 0.42460116744041443, -0.029597586020827293, -0.03388471156358719, -0.13949960470199585, -0.4418466091156006, 0.25098198652267456, -0.19358865916728973, -0.3084409832954407, 0.4909539818763733, 0.12387339025735855, -0.15845443308353424], [-0.27085360884666443, -0.18987353146076202, 0.014823289588093758, -0.15115438401699066, -0.08570367842912674, -0.223856121301651, 0.2598339915275574, -0.3398174047470093, 0.14586161077022552, -0.4556014835834503, 0.33406344056129456, -0.31517547369003296, 0.36579465866088867, 0.566459596157074, 0.30689314007759094, 0.35862794518470764, 0.02211673930287361], [0.1959247589111328, -0.23648089170455933, -0.34644949436187744, 0.5078732371330261, -0.0976654663681984, 0.05658059939742088, -0.4259154498577118, 0.04061556234955788, -0.3629632890224457, 0.24563348293304443, -0.10074565559625626, -0.016641203314065933, -0.18231602013111115, 0.4501590430736542, -0.018749861046671867, 0.054143618792295456, 0.23783241212368011], [0.3754822611808777, -0.41025230288505554, 0.1054689809679985, -0.05313220992684364, 0.11216139048337936, -0.24364329874515533, 0.41747066378593445, 0.007169533055275679, -0.07491818070411682, 0.15760162472724915, -0.49443697929382324, 0.15280607342720032, -0.046539656817913055, 0.14266981184482574, 0.18328800797462463, -0.040849439799785614, -0.11825203150510788], [-0.10362033545970917, 0.010090488940477371, -0.5704103112220764, -0.267560750246048, 0.05699905753135681, 0.0006077959551475942, 0.07271439582109451, 0.43865200877189636, 0.32346585392951965, 0.21160127222537994, -0.061266589909791946, 0.26161909103393555, -0.16348643600940704, -0.31156039237976074, -0.08145244419574738, -0.01326952688395977, -0.016034837812185287], [0.26281437277793884, -0.03104555606842041, -0.3132005035877228, -0.13877063989639282, -0.02704661898314953, 0.21068786084651947, -0.36229193210601807, 0.23002800345420837, 0.053289443254470825, 0.25605496764183044, 0.22539971768856049, 0.19815342128276825, -0.6657882928848267, -0.024177156388759613, -0.34265661239624023, -0.335391640663147, 0.0530175156891346], [-0.04777449741959572, -0.1816129833459854, 0.3052614629268646, 0.29798126220703125, -0.009199720807373524, 0.05107862874865532, 0.028494706377387047, 0.002196771092712879, 0.18463757634162903, 0.07035769522190094, -0.05609139800071716, 0.07559515535831451, 0.685421884059906, 0.519506573677063, -0.08572829514741898, -0.15396983921527863, -0.08335364609956741], [-0.23086345195770264, 0.5030067563056946, 0.4082385301589966, -0.46376660466194153, -0.1884385645389557, 0.024399669840931892, 0.2936876714229584, 0.25502482056617737, 0.17597045004367828, -0.03230678662657738, 0.02848024107515812, 0.19551946222782135, 0.5971007347106934, -0.9717299938201904, 0.1264752894639969, 0.32572096586227417, -0.03680914640426636], [0.22749760746955872, 0.4506179094314575, -0.3240240812301636, -0.46023938059806824, 0.039603445678949356, 0.12372776865959167, 0.11337030678987503, 0.7821199893951416, 0.11264895647764206, 0.3537612855434418, -0.023198071867227554, 0.3209717273712158, -0.3206782937049866, -1.2426483631134033, 0.12882640957832336, 0.0745185911655426, -0.13392019271850586], [0.05302147939801216, -0.28416767716407776, 0.14189273118972778, 0.21194545924663544, -0.00972678605467081, -0.12984135746955872, 0.11648664623498917, 0.004961241502314806, -0.38647904992103577, 0.07158812135457993, 0.20098628103733063, 0.2789483070373535, 0.08439969271421432, 0.5493319630622864, 0.44210195541381836, 0.028668764978647232, -0.05043329298496246], [-0.34674811363220215, -0.14152275025844574, -0.295315682888031, -0.22118009626865387, 0.2394465059041977, -0.42802390456199646, -0.12942412495613098, -0.5094903707504272, -0.21706901490688324, 0.059798870235681534, 0.32739973068237305, 0.08232840150594711, -0.05624460428953171, 0.1659478396177292, 0.0018193196738138795, -0.2932569980621338, -0.34727826714515686], [-0.11949940770864487, -0.40790867805480957, 0.20325012505054474, -0.2650705873966217, 0.016514679417014122, -0.21862925589084625, -0.3281034231185913, 0.1559729427099228, -0.07030732929706573, 0.036425940692424774, 0.02440803125500679, -0.35245126485824585, 0.4713563024997711, -0.15804608166217804, -0.001369101577438414, 0.1548590064048767, -0.013669721782207489], [-0.2862981855869293, 0.0007913861772976816, -0.3973795473575592, 0.10934048146009445, 0.32233989238739014, -0.5204164385795593, -0.42240869998931885, -0.2771040201187134, -0.04806024953722954, -0.2282842993736267, -0.38073307275772095, -0.3535059690475464, -0.11176539212465286, -0.229614719748497, -0.3617842495441437, 0.1994660198688507, -0.36605194211006165], [0.1723557561635971, 0.18108797073364258, 0.13549701869487762, 0.4777050018310547, 0.05400386080145836, -0.18456807732582092, -0.09963062405586243, 0.029771070927381516, -0.22755256295204163, -0.15164944529533386, 0.605402410030365, -0.019863681867718697, 0.09433194994926453, 0.3181845247745514, -0.034281518310308456, 0.14225417375564575, 0.2511419653892517], [0.009251583367586136, -0.20825548470020294, -0.32155343890190125, 0.1541120558977127, 0.011945251375436783, 0.13398802280426025, 0.14499494433403015, -0.1936589777469635, -0.4150994122028351, -0.5561111569404602, 0.20877738296985626, -0.38375306129455566, -0.225677028298378, 0.46448764204978943, 0.2222815752029419, 0.2140801101922989, 0.10565808415412903], [-0.31258076429367065, -0.09375684708356857, -0.08218413591384888, -0.3231518566608429, 0.05890447273850441, -0.09801404923200607, -0.010004667565226555, 0.4447702467441559, -0.09283250570297241, 0.062081944197416306, -0.4373376667499542, 0.5388661623001099, 0.2819831967353821, -0.21850202977657318, -0.2313547432422638, 0.21716275811195374, 0.4674694836139679], [-0.42257893085479736, 0.29528942704200745, -0.6443727612495422, -0.1942240297794342, -0.05419497191905975, 0.04929467290639877, -0.1310802400112152, 0.11552824825048447, 0.10516338050365448, 0.24639762938022614, 0.2022181898355484, -0.04130718857049942, 0.05063165724277496, -0.292062371969223, 0.0756852924823761, -0.251758337020874, 0.18469752371311188], [-0.14259177446365356, 0.05775501951575279, 0.5036605000495911, -0.06375522166490555, 0.007248446810990572, 0.06376270204782486, 0.48856937885284424, 0.1577318161725998, 0.1434052288532257, 0.10161975026130676, -0.12509794533252716, 0.42300909757614136, 1.4860210418701172, 0.26942580938339233, 0.5677513480186462, 0.2841138243675232, -0.02956642396748066], [0.36772772669792175, 0.0017899095546454191, 0.08665942400693893, 0.03935724496841431, 0.10148119926452637, 0.2978183627128601, -0.2630755603313446, 0.14000549912452698, 0.5554773211479187, 0.2702023684978485, -0.05606437101960182, -0.09629601985216141, 0.0671614408493042, 0.33842262625694275, -0.29307135939598083, -0.17376625537872314, 0.36892423033714294], [0.14303813874721527, 0.0005371863371692598, -0.07742729783058167, 0.386380672454834, 0.19223685562610626, 0.4171813130378723, -0.3404736816883087, 0.3386964499950409, -0.3138287365436554, 0.13519878685474396, -0.1601167768239975, -0.18074704706668854, 0.04845023155212402, 0.31987327337265015, -0.10777486860752106, 0.2634434998035431, -0.01537093985825777], [-0.47173574566841125, 0.010830702260136604, -0.3989686965942383, -0.22542040050029755, 0.13345251977443695, 0.14549574255943298, -0.27251431345939636, -0.06886537373065948, -0.21541273593902588, 0.17256085574626923, 0.28080490231513977, -0.06294602900743484, -0.13518312573432922, -0.38033992052078247, -0.11277762800455093, 0.08528313785791397, 0.32255086302757263], [-0.37571874260902405, 0.3252728581428528, -0.5622491240501404, -0.25302183628082275, -0.16435645520687103, 0.0396214984357357, 0.1266850382089615, 0.1622917205095291, 0.20426058769226074, 0.17298726737499237, 0.1218356341123581, 0.06639566272497177, -0.038666319102048874, -0.47744375467300415, 0.11678215116262436, 0.01919981837272644, 0.0014782254584133625], [0.08692354708909988, -0.016848498955368996, -0.0462283119559288, 0.08128227293491364, -0.10385160148143768, 0.4704414904117584, -0.13636040687561035, 0.2903484106063843, -0.5776249766349792, -0.009157427586615086, -0.3046471178531647, 0.14401158690452576, -0.4016791582107544, 0.1600971519947052, 0.18784099817276, 0.2375427484512329, 0.05836768448352814], [-0.1325753778219223, -0.07655438780784607, 0.35836267471313477, -0.23738136887550354, 0.23576554656028748, 0.5076209902763367, 0.20742949843406677, 0.4974479079246521, 0.4499664604663849, -0.0958079844713211, 0.12228424847126007, 0.2632160484790802, 0.38822904229164124, -0.29658493399620056, -0.21065405011177063, 0.20908406376838684, 0.4616406261920929], [-0.21529324352741241, 0.04793383553624153, -0.21341955661773682, -0.18955376744270325, -0.13749167323112488, -0.03930242732167244, 0.15139667689800262, -0.8395654559135437, 0.578116238117218, -0.04063190519809723, -0.6991326212882996, -0.4096195697784424, -0.22227562963962555, 0.0544658824801445, -0.29060012102127075, -0.48364967107772827, 0.10673923045396805], [0.04338507354259491, -0.418708473443985, 0.020665504038333893, 0.31192296743392944, 0.04876089468598366, -0.20368266105651855, 0.3231784999370575, -0.19170179963111877, 0.342404305934906, 0.02410602942109108, 0.1430811583995819, -0.024614447727799416, -0.010031874291598797, 0.7981927394866943, 0.16905848681926727, 0.08470363169908524, -0.1317446231842041], [0.26139035820961, -0.4966851472854614, -0.12189243733882904, -0.22903227806091309, -0.05216788128018379, 0.03714284300804138, -0.07067389786243439, -0.19288721680641174, 0.13374578952789307, 0.5225796699523926, 0.05359300225973129, -0.2845611274242401, -0.3719116151332855, 0.12276393175125122, -0.3628361225128174, -0.5256805419921875, -0.1818380206823349], [-0.0789063349366188, 0.3059242367744446, -0.011706331744790077, 0.27442845702171326, 0.21926581859588623, -0.3579764664173126, 0.26927053928375244, 0.21290113031864166, -0.03591882437467575, 0.22739961743354797, -0.056929811835289, -0.05164662003517151, -0.06920482218265533, -0.2369634509086609, 0.3536042273044586, -0.07279255986213684, 0.2364208698272705], [0.11875075846910477, -0.16751815378665924, 0.17333146929740906, 0.16787415742874146, -0.31354618072509766, 0.300324946641922, -0.25919145345687866, 0.4761614203453064, -0.5253974199295044, -0.010114471428096294, -0.2951325476169586, -0.38472962379455566, 0.06262554228305817, 0.3177807927131653, 0.021465692669153214, 0.46388810873031616, 0.005889212712645531], [0.02913295291364193, -0.23827534914016724, 0.17765170335769653, -0.03161386772990227, 0.10949410498142242, -0.038014188408851624, 0.6463382244110107, -0.20409995317459106, 0.15244050323963165, 0.24829648435115814, -0.10885121673345566, 0.48326215147972107, 0.4622608423233032, 0.39457967877388, 0.15470926463603973, -0.07410318404436111, 0.09952570497989655], [0.2796519994735718, 0.21402916312217712, 0.05605379119515419, 0.3077230155467987, 0.21856234967708588, 0.13786625862121582, 0.21786358952522278, -0.3439817726612091, -0.5752679705619812, -0.17802201211452484, -0.036814797669649124, -0.01709163747727871, 0.028538359329104424, 0.04210978373885155, 0.4501775801181793, -0.16049496829509735, 0.16313733160495758], [0.13734811544418335, 0.05810682475566864, 0.5845871567726135, 0.1498405635356903, -0.05290091782808304, 0.11212976276874542, -0.003761208150535822, -0.355887770652771, 0.07986336201429367, 0.04927065595984459, -0.00047186974552460015, -0.27855193614959717, 1.7246466875076294, 0.27920401096343994, -0.10678607225418091, -0.12025221437215805, 0.09769202023744583], [-0.4675627052783966, 0.29987508058547974, -0.33302775025367737, 0.21990293264389038, -0.022652074694633484, 0.3327212929725647, -0.30571305751800537, 0.2587312161922455, 0.12233768403530121, -0.3955453038215637, -0.19591587781906128, -0.029425332322716713, -0.3675936460494995, 0.29533401131629944, -0.41212573647499084, 0.41476717591285706, -0.06103023514151573], [-0.23220501840114594, -0.0036212955601513386, -0.320529580116272, 0.10716146230697632, -0.036108892410993576, -0.024557145312428474, -0.2050447314977646, -0.8871924877166748, 0.24092258512973785, -0.21359747648239136, -0.3545984625816345, -0.09247224777936935, -0.447931170463562, -0.0033220381010323763, -0.40848103165626526, -0.5350108742713928, -0.010436463169753551], [0.43259868025779724, -0.28912821412086487, 0.30759382247924805, 0.06302350014448166, 0.17944945394992828, 0.2503925561904907, 0.046753961592912674, -0.042013656347990036, 0.06854772567749023, -0.044822730123996735, 0.08790101110935211, 0.1636238694190979, -0.14787228405475616, 0.42343658208847046, -0.15774229168891907, -0.3818376064300537, 0.21056358516216278], [0.1827058047056198, 0.40294715762138367, 0.5657504200935364, 0.13884156942367554, -0.022021394222974777, 0.09207110852003098, 0.3508222997188568, -0.3683665692806244, -0.28562965989112854, -0.1849481761455536, 0.014699110761284828, -0.1336333006620407, 0.09663746505975723, -0.34556564688682556, 0.4127875566482544, 0.011247066780924797, 0.16063520312309265], [0.08446837216615677, 0.07259351015090942, 0.27627885341644287, -0.10270534455776215, -0.2699156105518341, 0.38866427540779114, 0.5964494347572327, -0.08886732906103134, -0.17274807393550873, -0.018778732046484947, 0.019271492958068848, 0.22404435276985168, 0.28433525562286377, -0.5449442863464355, 0.3103587329387665, 0.025432372465729713, 0.04723796993494034], [-0.022963304072618484, 0.04701705649495125, -0.017015472054481506, -0.21470248699188232, 0.19898578524589539, -0.1599026918411255, 0.3322139084339142, 0.43320220708847046, -0.06894543766975403, 0.2552672326564789, 0.5061900019645691, 0.3596872091293335, 0.23015397787094116, -0.8588433265686035, 0.2740063965320587, 0.08217465877532959, 0.0739658996462822], [0.12692765891551971, 0.2768271863460541, 0.5607357621192932, -0.0785994753241539, -0.16388459503650665, 0.13977420330047607, 0.3162151873111725, -0.5111082196235657, 0.1543479859828949, -0.2737117409706116, 0.14537301659584045, -0.34527987241744995, 0.2301599532365799, -0.7330219745635986, -0.03367535024881363, -0.25195926427841187, -0.046882499009370804], [0.06138622388243675, 0.2945539057254791, 0.0771038830280304, 0.09850843250751495, -0.013923675753176212, -0.34327661991119385, 0.17161551117897034, 0.15987631678581238, 0.21780715882778168, -0.27085620164871216, 0.19879893958568573, 0.09658808261156082, -0.11361730843782425, -0.1031135842204094, 0.07814591377973557, -0.3127554953098297, -0.21739451587200165], [0.07990469038486481, -0.33096641302108765, 0.43820610642433167, -0.26111552119255066, 0.21068672835826874, 0.21072262525558472, 0.05077367648482323, 0.29794901609420776, -0.1094665378332138, 0.30895450711250305, 0.10128136724233627, 0.09811565279960632, 1.1117143630981445, 0.031319525092840195, 0.3509506583213806, 0.06213104724884033, -0.09975539147853851], [-0.3784615695476532, 0.021270599216222763, -0.493219792842865, -0.3461191952228546, 0.11782541126012802, 0.008076794445514679, 0.06584299355745316, 0.5291604399681091, 0.1093754768371582, -0.3258286118507385, 0.43025752902030945, 0.20118385553359985, -0.1825031191110611, -0.5651209950447083, -0.011192641220986843, 0.4856187105178833, 0.31034931540489197], [-0.19640569388866425, 0.23821291327476501, 0.19200792908668518, -0.48674166202545166, -0.04273974895477295, -0.07763291895389557, 0.20027360320091248, 0.5128160119056702, 0.15384642779827118, 0.039322081953287125, -0.04308953136205673, 0.36918291449546814, 0.8153287172317505, -1.0338332653045654, -0.05371632054448128, 0.002323597203940153, -0.04539037495851517], [-0.33254992961883545, -0.3677220344543457, -0.08138496428728104, 0.0230245403945446, 0.015572518110275269, 0.004736384842544794, -0.1324099451303482, -0.5330389142036438, -0.2640766203403473, -0.1812332272529602, -0.19817666709423065, -1.0724154710769653, -0.02534216083586216, 0.5412609577178955, 0.08865221589803696, -0.08735945075750351, -0.22597335278987885], [-0.2220594584941864, 0.5281808376312256, -0.2870597243309021, 0.07569993287324905, 0.09457133710384369, -0.07755182683467865, 0.14185450971126556, -0.421882301568985, 0.5593941807746887, 0.46091172099113464, 0.10024761408567429, -0.09355784207582474, -0.3474760055541992, -0.127908393740654, -0.22025349736213684, -0.5009140372276306, -0.003479920094832778], [0.31927189230918884, 0.09594953805208206, -0.028730100020766258, 0.051935337483882904, -0.24234797060489655, -0.03352217376232147, 0.10440123826265335, 0.13613581657409668, 0.1639871746301651, 0.19610890746116638, -0.03609893098473549, 0.10001032054424286, -0.26781466603279114, -0.08655780553817749, -0.028043167665600777, -0.09005635976791382, -0.03571438789367676], [0.2571603059768677, 0.12774044275283813, 0.35106444358825684, -0.1984277069568634, 0.15871819853782654, 0.6125112771987915, 0.12771135568618774, -0.20140311121940613, 0.6648245453834534, -0.27004170417785645, 0.29774120450019836, 0.5435100793838501, -0.03649565950036049, -0.24090361595153809, -0.033446893095970154, 0.1270003467798233, 0.1407579779624939], [-0.010628821328282356, 0.0015856920508667827, -0.11771371215581894, -0.23386986553668976, -0.10135579854249954, 0.38025474548339844, 0.36272507905960083, 0.3204452395439148, 0.16784927248954773, -0.5703510642051697, -0.6022159457206726, -0.012410392984747887, -0.034846432507038116, -0.09634009003639221, -0.00804960262030363, 0.39273637533187866, -0.41177040338516235], [0.11183550208806992, -0.23222748935222626, 0.06422006338834763, 0.30493250489234924, -0.044183846563100815, -0.25571396946907043, -0.027173694223165512, -0.26832443475723267, 0.16375106573104858, -0.11642049998044968, 0.16625887155532837, 0.1721188724040985, -0.12000065296888351, 0.7595970630645752, 0.069129578769207, -0.10637366771697998, 0.20238950848579407], [-0.07428723573684692, 0.06363918632268906, 0.7931990027427673, 0.18545034527778625, 0.06700453907251358, 0.025087492540478706, -0.01148274540901184, -0.3035784661769867, 0.17595456540584564, -0.17192284762859344, -0.064129538834095, -0.44589224457740784, 1.2991664409637451, 0.22426088154315948, 0.1470537781715393, -0.2440674602985382, -0.03728722408413887], [0.19077949225902557, 0.3322451710700989, -0.14034515619277954, -0.22036561369895935, 0.13787730038166046, -0.4790114462375641, 0.5549155473709106, -0.0004668347246479243, -0.17626862227916718, -0.26647403836250305, -0.10661013424396515, -0.6022180318832397, 0.1936372071504593, -0.40338829159736633, 0.6930573582649231, 0.25785312056541443, -0.13582830131053925], [0.5008799433708191, 0.04837905615568161, -0.06645312905311584, -0.46840357780456543, 0.2501569390296936, -0.17575256526470184, 0.5458831787109375, 0.25864335894584656, -0.12840677797794342, 0.03503406420350075, -0.1272449493408203, 0.1933499574661255, -0.44784173369407654, -0.42309096455574036, 0.3244877755641937, 0.08094695210456848, -0.2466794103384018], [-0.07282117009162903, 0.12468776851892471, -0.16534404456615448, 0.00903384666889906, -0.08304162323474884, -0.1612466722726822, 0.014766944572329521, -0.4990141689777374, -0.28458404541015625, -0.5058251619338989, 0.5000001788139343, -0.15417173504829407, -0.22264882922172546, 0.0828355923295021, 0.2823001742362976, 0.12823928892612457, 0.24851155281066895], [-0.20105047523975372, 0.058160390704870224, -0.03458460792899132, 0.4219849705696106, -0.23236212134361267, -0.06208236888051033, 0.554608166217804, 0.1936577707529068, 0.1473250687122345, 0.004250700585544109, 0.1281072050333023, -0.1978171020746231, 0.08484353870153427, 0.3326071798801422, 0.026508573442697525, -0.06277522444725037, -0.014742353931069374], [-0.3449823558330536, 0.023025933653116226, -0.43201538920402527, 0.10224469751119614, 0.2005072385072708, 0.18082770705223083, -0.4591495394706726, -0.360992431640625, 0.14214251935482025, 0.02887534908950329, -0.4380911886692047, 0.6932632923126221, -0.045995913445949554, -0.2651752233505249, -0.11866255849599838, -0.16093502938747406, 0.06727252155542374], [-0.3948693871498108, 0.380601167678833, -0.4527095854282379, -0.02727687358856201, 0.32199493050575256, -0.05573904141783714, -0.41180020570755005, -0.22709712386131287, -0.24405652284622192, 0.2461225986480713, 0.2600691318511963, 0.038748081773519516, -0.005806438159197569, -0.05330740660429001, -0.33146044611930847, -0.1030125841498375, 0.2062731385231018], [-0.36029767990112305, -0.2561820447444916, -0.07270800322294235, -0.3325227200984955, 0.162508025765419, 0.15983399748802185, -0.06910325586795807, 0.1424017995595932, 0.7520908713340759, 0.17607617378234863, 0.3559745252132416, 0.3062460720539093, -0.0777444988489151, -0.05063708499073982, -0.5374800562858582, 0.06094004958868027, -0.10631377249956131], [0.19457215070724487, -0.07303130626678467, -0.1546257734298706, -0.24947874248027802, 0.008436216041445732, 0.30213940143585205, -0.3116017282009125, -0.18394151329994202, 0.04418136179447174, 0.19314517080783844, -0.01549240667372942, 0.267316997051239, -0.06632523238658905, -0.18499094247817993, -0.23108334839344025, -0.24320535361766815, 0.06695658713579178], [0.01578354276716709, -0.311926007270813, 0.5319405794143677, 0.09092679619789124, 0.22919893264770508, 0.02671828866004944, 0.4856365919113159, 0.029633592814207077, -0.394665002822876, -0.008786137215793133, 0.29198089241981506, 0.3673229217529297, 0.8332194089889526, 0.4090253412723541, 0.3538815379142761, -0.02585757151246071, -0.04145132377743721], [0.25459131598472595, 0.0642610490322113, 0.026320533826947212, 0.07392936199903488, -0.09256676584482193, -0.0722583532333374, 0.49310004711151123, 0.05608401820063591, 0.4291498363018036, -0.46466487646102905, 0.023780841380357742, 0.44584107398986816, -0.12781597673892975, -0.08327456563711166, 0.18285773694515228, 0.48462262749671936, 0.07893306016921997], [-0.4676392078399658, 0.27989697456359863, -0.26231446862220764, -0.08748367428779602, 0.1217845156788826, 0.025456389412283897, -0.4557880759239197, 0.14779934287071228, 0.20136776566505432, 0.1271989643573761, 0.3371104300022125, 0.37057462334632874, 0.2306901514530182, -0.4125079810619354, -0.3840384781360626, 0.024028664454817772, 0.28691744804382324], [-0.11963418871164322, 0.029526831582188606, -0.29438984394073486, 0.06077714264392853, -0.20439496636390686, 0.23623856902122498, 0.6232069730758667, 0.1626310795545578, 0.16113504767417908, -0.08809006959199905, 0.34056466817855835, -0.38421404361724854, 0.024532614275813103, 0.21736635267734528, 0.3144126236438751, -0.05221721902489662, -0.5249931216239929], [-0.022198468446731567, 0.11848592013120651, -0.5471428632736206, 0.3513350486755371, 0.08226875215768814, 0.0994754210114479, 0.08849607408046722, -0.12198701500892639, 0.3820651173591614, 0.4632008671760559, 0.35599595308303833, -0.1803675889968872, -0.02488579973578453, 0.030185198411345482, -0.3146146237850189, -0.18692542612552643, -0.17447341978549957], [-0.17328320443630219, 0.41325023770332336, 0.4385458528995514, -0.15835349261760712, -0.19422785937786102, -0.07767951488494873, 0.12729844450950623, 0.2872285544872284, -0.06114671379327774, 0.24721193313598633, 0.247012197971344, 0.4549853205680847, 0.509972333908081, -0.9390214681625366, 0.12598079442977905, -0.23700833320617676, -0.035953111946582794], [0.24042288959026337, -0.09512240439653397, 0.32651036977767944, -0.11210735142230988, -0.13795563578605652, -0.4940727949142456, -0.15133555233478546, 0.5709642767906189, -0.21048404276371002, -0.12157166004180908, -0.14651446044445038, -0.3053479492664337, 0.04048909991979599, -0.17406296730041504, 0.09021321684122086, 0.11849384009838104, -0.25727927684783936], [-0.06459609419107437, 0.06280608475208282, 0.737800657749176, -0.16869144141674042, -0.060668494552373886, 0.04205356538295746, 0.33985310792922974, 0.2670355439186096, -0.0170154832303524, 0.0032070220913738012, -0.23715761303901672, 0.36739006638526917, 1.8230317831039429, -0.02110910229384899, -0.008997014723718166, 0.16967926919460297, 0.058903589844703674], [-0.08646834641695023, 0.4088388979434967, 0.33496955037117004, -0.06024935469031334, -0.017970798537135124, 0.20526206493377686, 0.32565850019454956, 0.15546606481075287, -0.289228230714798, 0.32386040687561035, 0.38249850273132324, 0.14625239372253418, 0.31922975182533264, -0.6455952525138855, 0.32755395770072937, -0.021659746766090393, -0.16612574458122253], [-0.30345845222473145, 0.08719213306903839, -0.4057430922985077, 0.1741928607225418, -0.1756243109703064, -0.16828884184360504, -0.24492856860160828, -0.15839189291000366, 0.10866356641054153, -0.18654446303844452, 0.2450961172580719, -0.16183924674987793, -0.279879093170166, 0.0857396274805069, -0.36288323998451233, -0.20119136571884155, -0.3233717083930969], [0.22970712184906006, -0.09718646109104156, -0.27123451232910156, -0.21672450006008148, 0.03007674589753151, 0.13292290270328522, -0.28613102436065674, -0.16345590353012085, -0.2313920110464096, 0.5624662041664124, 0.30697715282440186, 0.46405449509620667, -0.18710243701934814, -0.20412065088748932, -0.13331909477710724, -0.421095609664917, -0.11339349299669266], [0.25195202231407166, -0.521497905254364, 0.1748877763748169, -0.23710495233535767, 0.10489614307880402, -0.1635563224554062, 0.2373286932706833, -0.09277381747961044, -0.03375273570418358, 0.1786462664604187, -0.40204688906669617, 0.21749286353588104, -0.24102795124053955, 0.522325873374939, 0.12155362963676453, -0.18646834790706635, 0.16475126147270203], [0.14943630993366241, 0.14917096495628357, -0.03712212294340134, 0.184782013297081, 0.20810437202453613, 0.42695125937461853, -0.1567673534154892, 0.4835682213306427, 0.08694440126419067, 0.2898854911327362, -0.18662527203559875, -0.2720963656902313, -0.33357328176498413, -0.02383926883339882, 0.24383533000946045, -0.05812912806868553, 0.14177469909191132], [-0.32574859261512756, 0.4839092493057251, 0.16842448711395264, -0.288409948348999, -0.3635629713535309, -0.04077718034386635, -0.10763038694858551, -0.2880795896053314, 0.24895425140857697, 0.04305140674114227, -0.08537042886018753, -0.09030444175004959, 0.24781475961208344, -0.27402564883232117, -0.621901273727417, -0.2541184425354004, 0.046608030796051025], [0.1079971045255661, 0.3385423719882965, 0.254300057888031, 0.2975291907787323, 0.21545039117336273, 0.20895816385746002, -0.3908149003982544, 0.22455161809921265, -0.00016473238065373152, 0.12175223976373672, -0.03540864959359169, -0.12356812506914139, -0.016392819583415985, 0.17343127727508545, -0.17828841507434845, 0.008489062078297138, 0.43811658024787903], [0.3841749131679535, -0.5977198481559753, 0.11804097145795822, 0.03727095574140549, -0.1090179905295372, -0.13530990481376648, -0.013951710425317287, -0.025245117023587227, -0.055656589567661285, -0.03753165155649185, 0.06214430183172226, 0.6308158040046692, 0.014488788321614265, 0.8242407441139221, -0.2714041471481323, 0.12412898242473602, -0.17076633870601654], [0.26751187443733215, -0.359775573015213, -0.026980994269251823, 0.15852215886116028, 0.03208905830979347, -0.09659148007631302, 0.17452387511730194, -0.08603952080011368, 0.4671233296394348, -0.09614179283380508, -0.03293696045875549, 0.4312627911567688, -0.1937382072210312, 0.7606844902038574, -0.06741202622652054, -0.12782205641269684, 0.36943721771240234], [-0.20995433628559113, -0.329439640045166, -0.21996021270751953, -0.16621731221675873, -0.06457734107971191, -0.1616789847612381, 0.6099507808685303, -0.31243711709976196, 0.4153231084346771, -0.1057734340429306, 0.05540547892451286, -0.34814590215682983, -0.057470936328172684, 0.30588817596435547, 0.0962141752243042, 0.11812476813793182, 0.08980649709701538], [0.4032861888408661, -0.280262291431427, -0.11985994130373001, -0.17244191467761993, 0.005043691489845514, -0.0909927561879158, -0.3285660147666931, -0.2777947783470154, -0.046697743237018585, 0.4674602746963501, 0.0318840928375721, 0.3115907311439514, -0.3655554950237274, 0.18442635238170624, -0.2768193483352661, -0.49069392681121826, -0.18535414338111877], [-0.18299728631973267, 0.2537987232208252, 0.3506544828414917, -0.19800785183906555, 0.12513171136379242, -0.14916913211345673, -0.25333142280578613, 0.06336621940135956, -0.12728464603424072, -0.14888302981853485, 0.4741668999195099, 0.3154876232147217, 1.0824083089828491, -0.6151468753814697, 0.3138076663017273, 0.17213904857635498, 0.22070366144180298], [-0.276980996131897, -0.1993548572063446, 0.1499558836221695, -0.3356074094772339, -0.0003812659124378115, -0.11397384852170944, 0.11643850803375244, -0.2877306044101715, 0.14572428166866302, -0.12462152540683746, -0.6208641529083252, -0.3449481129646301, 0.37898457050323486, -0.14027844369411469, 0.2118968963623047, -0.1361684799194336, -0.5633534789085388], [-0.20307394862174988, 0.29761943221092224, -0.12072982639074326, 0.09361748397350311, -0.12123143672943115, -0.40888866782188416, -0.0566544272005558, -0.5881462693214417, -0.07091623544692993, -0.15298958122730255, -0.31510505080223083, -0.35520339012145996, -0.13461574912071228, -0.15286237001419067, 0.15720833837985992, -0.35841104388237, -0.32056671380996704], [-0.04721074551343918, 0.05287590250372887, 0.49252650141716003, 0.1430029720067978, -0.09508798271417618, 0.14275655150413513, 0.05952983349561691, -0.21615177392959595, 0.07291015237569809, 0.17981095612049103, -0.3522666394710541, -0.12533940374851227, 1.8443758487701416, 0.2298831194639206, 0.015938308089971542, -0.18578054010868073, 0.0963316410779953], [-0.1808895766735077, -0.13140569627285004, 0.31996631622314453, -0.026420144364237785, -0.15858201682567596, -0.06941528618335724, -0.07367052137851715, 0.34407737851142883, -0.014755484648048878, -0.03239445760846138, -0.10358985513448715, 0.6540564894676208, 0.9046452045440674, 0.799665093421936, -0.0282277949154377, 0.05873189866542816, 0.04949784278869629], [0.07716318219900131, 0.5249789953231812, 0.46942001581192017, 0.0889861136674881, 0.02731957845389843, -0.062192369252443314, 0.058764200657606125, -0.10038002580404282, -0.0725012719631195, -0.630014955997467, -0.2759369909763336, -0.051880013197660446, 0.5496521592140198, -0.8799804449081421, 0.028653647750616074, -0.22905199229717255, -0.11014480888843536], [0.21473738551139832, -0.09122540801763535, 0.33295151591300964, -0.3509717285633087, -0.074867844581604, -0.062104132026433945, -0.062198176980018616, 0.42333918809890747, 0.13565465807914734, -0.19602030515670776, -0.4989335238933563, -0.03866728022694588, 0.12820269167423248, -0.22725695371627808, -0.1024542897939682, 0.6262362599372864, -0.1831648349761963], [0.04093709588050842, 0.24768128991127014, 0.5484784841537476, 0.28091272711753845, -0.3073500394821167, -0.09928223490715027, -0.24226169288158417, -0.3802971839904785, 0.07314415276050568, -0.005360253155231476, 0.4185613989830017, 0.41863635182380676, 0.4560773968696594, -0.35789093375205994, -0.11924558132886887, 0.261636883020401, 0.2115975171327591], [-0.29898226261138916, 0.12432476133108139, -0.049870867282152176, 0.2934918701648712, -0.017034567892551422, -0.09737648069858551, -0.1495906412601471, -0.22136832773685455, -0.300027996301651, 0.03130386397242546, -0.24863573908805847, -0.21352463960647583, 0.15716856718063354, 0.44258221983909607, 0.07276136428117752, -0.03734985738992691, -0.35485586524009705], [-0.3591858148574829, -0.1416749209165573, -0.3416410982608795, -0.09128067642450333, -0.000719113857485354, -0.0594177208840847, 0.46749618649482727, -0.3907029330730438, 0.5108009576797485, -0.3608366549015045, -0.21902351081371307, 0.06613704562187195, 0.351947546005249, -0.18956823647022247, -0.3664466440677643, 0.37121036648750305, -0.046147994697093964], [-0.10800305753946304, -0.3382648527622223, -0.1450636088848114, -0.1848304271697998, 0.3861539363861084, -0.07418990135192871, 0.3490299582481384, 0.3516906797885895, -0.018575085327029228, 0.3708595633506775, 0.3523450791835785, 0.17956750094890594, 0.19085198640823364, 0.14835898578166962, -0.0018352947663515806, -0.08519016206264496, 0.45920711755752563], [0.13247697055339813, 0.22196726500988007, -0.21142493188381195, 0.06452587246894836, -0.20608662068843842, 0.28082039952278137, 0.38129210472106934, -0.1262727677822113, 0.3219141364097595, 0.1844717115163803, 0.603983998298645, 0.20069043338298798, -0.13898535072803497, 0.17135833203792572, 0.14942686259746552, -0.0644349604845047, 0.2453906387090683]], "mlp_extractor.policy_net.0.bias": [0.02891521342098713, -0.09340750426054001, -0.10057292133569717, 0.09854622930288315, 0.11022142320871353, 0.04103170335292816, 0.03523045778274536, 0.1664581447839737, -0.048746850341558456, -0.09558764100074768, 0.0715114027261734, 0.0721888318657875, 0.0068042827770113945, -0.10702923685312271, -0.11572002619504929, 0.17164596915245056, -0.024102957919239998, 0.13642816245555878, 0.06197880953550339, 0.17465899884700775, -0.16159184277057648, -0.29659274220466614, 0.062431201338768005, -0.07006842643022537, -0.022105747833848, -0.11819370836019516, 0.029218081384897232, 0.1325160712003708, -0.16833096742630005, -0.024168463423848152, 0.2005183845758438, -0.13236185908317566, -0.12127940356731415, 0.0047439094632864, -0.06614811718463898, 0.043597444891929626, 0.15003955364227295, 0.13190074265003204, 0.10597139596939087, 0.06324014812707901, 0.06204862892627716, -0.16272078454494476, 0.17904753983020782, 0.19369454681873322, 0.08331761509180069, 0.0012649589916691184, 0.03626302629709244, 0.06751835346221924, 0.07825394719839096, -0.14290571212768555, -0.09734603762626648, -0.050893303006887436, -0.10657434910535812, -0.12241113185882568, 0.06266023218631744, 0.02240072749555111, 0.04874720424413681, 0.09782738983631134, -0.10272534936666489, 0.11575765907764435, 0.1598791629076004, -0.01186293549835682, -0.07197679579257965, 0.03686127811670303, -0.09985873848199844, -0.1431688368320465, 0.1451425403356552, 0.10390814393758774, 0.04804668575525284, -0.003202651394531131, -0.04698541760444641, 0.04974354803562164, -0.06704831123352051, 0.049791235476732254, -0.01358597818762064, 0.12612532079219818, 0.1256987303495407, 0.059833019971847534, 0.13442295789718628, -0.01595335640013218, -0.07899462431669235, 0.06311123818159103, 0.07998419553041458, 0.034234900027513504, -0.02409861423075199, -0.05149450898170471, 0.04343033954501152, 0.0428478866815567, 0.013255591504275799, 0.02247771993279457, 0.21503466367721558, -0.12010722607374191, -0.03927699849009514, -0.03661850839853287, 0.1289103478193283, -0.033348627388477325, -0.3047525882720947, 0.08043524622917175, 0.1933046579360962, -0.22570644319057465, -0.0626908466219902, -0.009035537950694561, -0.06786030530929565, 0.03937600553035736, 0.05985170602798462, 0.017259536311030388, 0.11045698821544647, -0.12782441079616547, 0.10181974619626999, 0.019688986241817474, 0.1307820826768875, -0.2733877897262573, 0.14390790462493896, -0.006090449634939432, 0.26535242795944214, -0.10865288972854614, 0.07801567763090134, -0.07555477321147919, 0.026436856016516685, 0.08692517876625061, 0.016833007335662842, 0.09618555009365082, 0.12118277698755264, 0.16263918578624725, -0.4291684329509735, 0.024628574028611183, 0.02287125214934349, 0.21767310798168182], "mlp_extractor.policy_net.2.weight": [[-0.14735370874404907, 0.020581301301717758, -0.002650128910318017, -0.48827099800109863, -0.14407673478126526, -0.025145160034298897, 0.356279581785202, 0.26761987805366516, -0.2547556757926941, -0.46964573860168457, 0.011404963210225105, -0.17500287294387817, 0.17039144039154053, -0.026675676926970482, 0.022564303129911423, -0.06503232568502426, 0.02805277146399021, -0.3032931387424469, 0.10183820128440857, 0.003829754190519452, 0.1430100053548813, 0.03390174359083176, -0.4855853319168091, -0.039250608533620834, -0.016358818858861923, 0.004668849054723978, -0.03972551226615906, 0.07305006682872772, -0.1905684471130371, -0.24483007192611694, -0.25565195083618164, 0.008633485995233059, 0.0742032453417778, 0.2556445598602295, -0.04267648607492447, -0.28906574845314026, -0.09948807954788208, 0.16561783850193024, -0.23788869380950928, 0.19255772233009338, 0.03141713887453079, 0.04141971096396446, 0.17560511827468872, -0.05268716439604759, 0.054338302463293076, -0.04852757602930069, 0.27978628873825073, 0.06142065301537514, -0.13734567165374756, 0.3316604495048523, -0.203693687915802, 0.2538902163505554, -0.3121400773525238, -0.03175029158592224, -0.20995382964611053, -0.21971361339092255, -0.27569520473480225, 0.08727060258388519, -0.15230043232440948, -0.2226644903421402, -0.05423348397016525, -0.14684616029262543, -0.30639392137527466, -0.35803547501564026, -0.18447746336460114, 0.038533397018909454, 0.04522830992937088, -0.1475939154624939, 0.1612621545791626, 0.08176221698522568, 0.10296584665775299, -0.32285311818122864, 0.0026835878379642963, 0.2741817831993103, -0.20107147097587585, 0.25560271739959717, 0.23860307037830353, 0.21431487798690796, -0.07514584064483643, -0.2621263861656189, -0.2170250117778778, 0.12950852513313293, 0.08562580496072769, -0.36271339654922485, 0.015832025557756424, 0.47356829047203064, 0.13657063245773315, -0.07887014746665955, -0.07955367863178253, 0.17604891955852509, 0.2709738314151764, -0.05852726101875305, -0.23688863217830658, -0.8163357973098755, -0.31032994389533997, 0.341583251953125, -0.2634179890155792, -0.41236478090286255, 0.2727266848087311, -0.16563540697097778, -0.3257392942905426, -0.18872861564159393, 0.27422887086868286, 0.21316909790039062, -0.3082863688468933, 0.3494100570678711, -0.38526901602745056, -0.0756557509303093, 0.2627742886543274, 0.05704503133893013, 0.016548778861761093, 0.1912446767091751, -0.07372844964265823, 0.22057074308395386, -8.880868699634448e-05, 0.21191582083702087, -0.17709924280643463, 0.17862509191036224, -0.2238326370716095, -0.3949602246284485, -0.22105936706066132, 0.16957306861877441, 0.13816355168819427, 0.1879783570766449, -0.2862856984138489, 0.15316259860992432, 0.10575543344020844, 0.25305402278900146], [-0.253836065530777, 0.06288639456033707, 0.3347715735435486, 0.031107109040021896, 0.05832960456609726, 0.39675402641296387, 0.2072901874780655, 0.07036816328763962, 0.07022034376859665, 0.2037491500377655, 0.2948582172393799, -0.07845807075500488, -0.08791851997375488, 0.1070319190621376, 0.003170603886246681, 0.06277884542942047, 0.04816192016005516, 0.022442638874053955, -0.029911408200860023, -0.01224670559167862, -0.005724642891436815, 0.013321321457624435, 0.2913207411766052, -0.23582330346107483, 0.037435393780469894, 0.441891610622406, -0.3251347243785858, 0.023621799424290657, 0.1012871265411377, 0.5299168229103088, -0.0729193314909935, 0.12557758390903473, -0.2215248942375183, -0.1759081482887268, 0.13124923408031464, -0.06516025960445404, -0.3225369453430176, 0.1370311826467514, 0.19807028770446777, -0.0681041032075882, 0.040950872004032135, 0.13970337808132172, -0.012454529292881489, 0.05790361016988754, 0.1622207760810852, 0.22488491237163544, 0.19821780920028687, 0.13981378078460693, 0.13721314072608948, 0.29887816309928894, -0.026565367355942726, 0.5131927132606506, 0.17543992400169373, -0.033631425350904465, 0.06493747979402542, -0.15850581228733063, 0.11760995537042618, -0.04048134386539459, -0.10480424016714096, -0.13110753893852234, -0.22889229655265808, -0.13193410634994507, -0.059705737978219986, 0.2658140957355499, 0.022357767447829247, 0.1973121017217636, -0.22237558662891388, -0.06915353983640671, -0.08848550170660019, 0.048331476747989655, 0.29116225242614746, 0.0880444273352623, 0.20131954550743103, -0.04809858649969101, 0.033680230379104614, 0.378248929977417, 0.08077545464038849, 0.2595866620540619, 0.2794010639190674, -0.26617032289505005, 0.0403144545853138, 0.4049586057662964, 0.24803051352500916, -0.05859559774398804, -0.13575319945812225, 0.16694097220897675, -0.10179668664932251, -0.21152983605861664, 0.18855662643909454, 0.045106641948223114, -0.12800785899162292, 0.37774011492729187, -0.3925691843032837, 0.21044635772705078, 0.05271541327238083, 0.09839864820241928, 0.046479515731334686, -0.0697706937789917, -0.15569745004177094, 0.19562970101833344, -0.1266147494316101, 0.07576343417167664, 0.47919437289237976, 0.1295061707496643, 0.27945101261138916, 0.3529394865036011, 0.08932659775018692, 0.10696305334568024, 0.19860005378723145, -0.22372376918792725, 0.2800798714160919, 0.3452829420566559, -0.3541008234024048, 0.012670982629060745, 0.2755433917045593, 0.3269878327846527, 0.025318661704659462, 0.31858402490615845, 0.20449355244636536, 0.17727141082286835, 0.028531786054372787, 0.11801519989967346, -0.05076063051819801, 0.17379572987556458, 0.2785426378250122, 0.3864763081073761, 0.20491531491279602, 0.10253036767244339], [0.34904950857162476, 0.0950753465294838, -0.20175620913505554, -0.06567257642745972, 0.3931807577610016, 0.21738387644290924, 0.08282405883073807, 0.11266531050205231, -0.2878142297267914, -0.22691099345684052, 0.18125639855861664, 0.218200221657753, -0.07085149735212326, -0.16864898800849915, 0.2584954500198364, -0.05861968547105789, 0.18517924845218658, -0.10728689283132553, 0.2187492847442627, 0.12197215855121613, 0.28681913018226624, 0.24066641926765442, -0.1464042365550995, 0.17990025877952576, 0.2635501027107239, 0.04154829680919647, 0.14064863324165344, 0.12761560082435608, 0.2835708260536194, 0.21969452500343323, -0.12043479084968567, -0.05752800032496452, -0.324017733335495, -0.05259276553988457, 0.05116752162575722, -0.34039828181266785, -0.30872824788093567, 0.22444303333759308, -0.06899306923151016, 0.5290079116821289, 0.02324168011546135, 0.38121646642684937, -0.04131968319416046, 0.04404906556010246, 0.0036014351062476635, 0.005848132073879242, 0.08015750348567963, 0.0421246774494648, 0.08412571996450424, -0.008206743746995926, -0.10807199031114578, 0.5060524940490723, 0.15624088048934937, 0.20091034471988678, -0.036758966743946075, -0.20704805850982666, -0.4469687342643738, 0.29108744859695435, 0.11093779653310776, -0.017505893483757973, -0.33101052045822144, 0.07022061944007874, 0.22933974862098694, -0.01846250519156456, 0.10893406718969345, -0.14427198469638824, -0.20655301213264465, 0.02514636144042015, 0.24483413994312286, 0.1575493961572647, -0.2522532641887665, 0.1036582961678505, -0.12787234783172607, 0.04462498426437378, -0.2194349765777588, 0.48935437202453613, 0.29511937499046326, 0.07684043794870377, 0.02287125587463379, -0.11943475902080536, -0.03637390583753586, 0.26270341873168945, 0.3348594009876251, -0.5573431253433228, 0.13360023498535156, 0.6900639533996582, 0.10748082399368286, -0.033285174518823624, -0.042031172662973404, 0.2777070999145508, 0.06890226155519485, 0.1013455018401146, -0.0701114684343338, 0.007129780016839504, 0.1109079048037529, 0.03383820503950119, 0.039016131311655045, 0.10121773183345795, -0.12062235921621323, 0.25731161236763, -0.2721955180168152, -0.28232380747795105, 0.41083818674087524, -0.06333493441343307, -0.40088018774986267, -0.0710039734840393, -0.0496518649160862, -0.22650225460529327, 0.18588830530643463, 0.006418830249458551, -0.09549369663000107, 0.2174854278564453, 0.06869512796401978, 0.05982491001486778, 0.2575315833091736, 0.06694618612527847, -0.30615076422691345, 0.176029771566391, -0.06084123253822327, -0.011772126890718937, -0.06575261056423187, -0.04900249093770981, 0.14164751768112183, 0.03574274107813835, 0.02609589882194996, 0.2344287782907486, 0.3141106069087982, -0.32415008544921875], [0.08056782186031342, 0.18809014558792114, 0.5602481961250305, 0.24326878786087036, 0.15653455257415771, 0.2981540262699127, -0.07463125884532928, -0.09105537831783295, -0.22077026963233948, 0.1048746109008789, 0.397898405790329, 0.037273868918418884, -0.11187618225812912, 0.11621084809303284, -0.016832223162055016, -0.2562965452671051, -0.039081327617168427, -0.07925324887037277, -0.07031625509262085, -0.12494831532239914, -0.6670308709144592, 0.0926068127155304, 0.40549543499946594, 0.1773969829082489, -0.059589534997940063, 0.05328810587525368, 0.02279610000550747, -0.23413033783435822, -0.06720858067274094, 0.20632915198802948, 0.0380592979490757, -0.11115191876888275, 0.21037061512470245, 0.038207970559597015, -0.5045989155769348, 0.3072381615638733, -0.11419298499822617, -0.05403999611735344, -0.07525662332773209, -0.30586978793144226, 0.317356139421463, -0.08932094275951385, -0.2008102536201477, -0.17418423295021057, -0.08183406293392181, 0.17107942700386047, 0.1463223397731781, -0.2085670679807663, -0.6070104241371155, 0.2874322831630707, -0.3129497468471527, 0.28994476795196533, 0.33511918783187866, 0.20103555917739868, -0.5592276453971863, 0.014281955547630787, 0.18432766199111938, -0.4029387831687927, -0.3039184510707855, -0.24535679817199707, -0.20581935346126556, -0.220213383436203, -0.1378517597913742, 0.5429217219352722, -0.003908964339643717, 0.05321935936808586, -0.3943382203578949, -0.27576571702957153, -0.41023480892181396, -0.1328619420528412, 0.4424203336238861, -0.0793662816286087, 0.503040075302124, -0.251433402299881, 0.19665630161762238, -0.021245628595352173, -0.20877793431282043, -0.012403643690049648, -0.020809320732951164, -0.21353797614574432, -0.04406832158565521, 0.05245918035507202, 0.49568530917167664, 0.13591520488262177, 0.23819488286972046, -0.04442065209150314, 0.04705384373664856, -0.40101683139801025, 0.6895713806152344, 0.1642964631319046, -0.3468322455883026, 0.04174354672431946, -0.007399566937237978, -0.1981588751077652, 0.15604370832443237, 0.1824386864900589, -0.006995177362114191, -0.18627649545669556, -0.1844722181558609, 0.2893717288970947, 0.18069154024124146, 0.2613219618797302, 0.41474542021751404, -0.371144562959671, -0.06885028630495071, 0.4260523021221161, 0.06763170659542084, 0.13513420522212982, -0.45342370867729187, -0.3832135498523712, 0.46930834650993347, 0.18077540397644043, 0.021507471799850464, -0.20823892951011658, 0.2162628024816513, 0.060754965990781784, 0.2898333668708801, 0.2800241708755493, 0.07972120493650436, 0.36979907751083374, -0.17120477557182312, 0.48780298233032227, -0.05279693007469177, 0.20860329270362854, 0.06790389120578766, 0.15428204834461212, -0.35960859060287476, -0.2372172772884369], [-0.33285272121429443, -0.21188490092754364, 0.32663270831108093, -0.27808716893196106, 0.41758689284324646, -0.09276552498340607, 0.3210057020187378, 0.12065762281417847, 0.010822424665093422, 0.43739429116249084, 0.04006558284163475, -0.256577730178833, 0.18158365786075592, 0.08100854605436325, -0.07897181063890457, 0.22164218127727509, 0.5736027956008911, -0.08666366338729858, 0.04774193465709686, 0.23536820709705353, -0.2555614411830902, -0.1254749298095703, 0.8062564730644226, 0.020453467965126038, 0.08890282362699509, 0.24715003371238708, 0.13352011144161224, 0.12502411007881165, -0.18228426575660706, 0.24814365804195404, -0.27115899324417114, 0.0801103338599205, 0.034856490790843964, 0.20207910239696503, -0.08564870804548264, 0.10473144054412842, 0.05601498484611511, 0.15279807150363922, 0.10382236540317535, -0.33995693922042847, 0.5903403759002686, -0.27683335542678833, 0.07214218378067017, 0.1529085636138916, -0.13693740963935852, 0.20802469551563263, 0.597957968711853, -0.016965877264738083, -0.13903050124645233, 0.11960476636886597, -0.24674320220947266, 0.1101788803935051, 0.18856461346149445, 0.05877448245882988, 0.3592527508735657, 0.49134647846221924, 0.3742624521255493, 0.1471245437860489, -0.5810450315475464, 0.4014062285423279, 0.29890674352645874, -0.25432977080345154, 0.03239511325955391, 0.449643075466156, 0.1138005182147026, -0.190813809633255, 0.048462819308042526, -0.4762842655181885, 0.1218261644244194, -0.10548988729715347, 0.46186643838882446, -0.2880089581012726, 0.43112051486968994, 0.06799566745758057, 0.19304214417934418, 0.10337933152914047, 0.2583165168762207, 0.1135212630033493, 0.21159988641738892, 0.07404971122741699, 0.11032114177942276, 0.28976866602897644, 0.49962684512138367, 0.167597234249115, -0.11779109388589859, -0.21596458554267883, -0.15455710887908936, -0.03472602739930153, 0.4586201310157776, -0.04898795485496521, -0.0032523127738386393, 0.04687444120645523, -0.13949762284755707, 0.03155384212732315, 0.42358285188674927, 0.060022108256816864, 0.08660127222537994, 0.1535315364599228, -0.3607836961746216, 0.4484093189239502, 0.2942480444908142, 0.20708605647087097, 0.5339114665985107, -0.03762331232428551, 0.4045652151107788, 0.3381325900554657, 0.1517385095357895, -0.09608422219753265, -0.08646678179502487, -0.36451831459999084, 0.2999800741672516, -0.09230916202068329, -0.25207746028900146, -0.18498015403747559, 0.07060270011425018, -0.34404969215393066, 0.36550018191337585, 0.049034301191568375, 0.2804917097091675, 0.46718642115592957, 0.23162199556827545, 0.38747739791870117, -0.1398352086544037, 0.4165553152561188, -0.096845343708992, 0.3018859624862671, 0.045367371290922165, -0.41995689272880554], [-0.31623801589012146, 0.2777023911476135, 0.3008290231227875, -0.21463552117347717, 0.2751294672489166, -0.09981310367584229, 0.15815503895282745, 0.3587486743927002, -0.585639238357544, 0.16973084211349487, 0.42736372351646423, 0.08032117038965225, -0.03990717977285385, 0.10000167042016983, 0.13169293105602264, -0.06894576549530029, 0.2049541175365448, 0.13701577484607697, -0.1227354183793068, 0.08960632979869843, 0.21137294173240662, -0.08400291204452515, 0.08814405649900436, -0.3315165936946869, 0.0061205304227769375, 0.12255579233169556, -0.05010514333844185, 0.23773683607578278, -0.15380306541919708, 0.33951568603515625, 0.24950586259365082, -0.3039766550064087, -0.2501128911972046, 0.048955194652080536, -0.06752224266529083, -0.04317191243171692, -0.049101077020168304, 0.029347803443670273, 0.25972262024879456, 0.029012244194746017, 0.217287078499794, -0.3921032249927521, -0.211558997631073, 0.01936570554971695, 0.08722689002752304, -0.05531000345945358, 0.22527050971984863, 0.2275468409061432, 0.03767552599310875, 0.07066312432289124, 0.10348948836326599, 0.4011976718902588, -0.2435341626405716, -0.009007423184812069, -0.187556192278862, -0.07573428004980087, -0.03612436354160309, 0.3957463800907135, -0.3879372477531433, 0.02217661403119564, 0.15994098782539368, 0.10767746716737747, 0.1108769103884697, 0.05246864631772041, -0.3895651698112488, 0.13282139599323273, 0.23239541053771973, -0.0376921184360981, 0.07620775699615479, -0.10738500207662582, 0.13187022507190704, -0.500583291053772, 0.01960866153240204, -0.10595665127038956, 0.33226287364959717, 0.39090844988822937, 0.46902936697006226, 0.3548338711261749, 0.1285981982946396, -0.2734321355819702, -0.2416234314441681, 0.18782077729701996, -0.006680317223072052, -0.06620170921087265, -0.08941662311553955, 0.13188080489635468, 0.038450270891189575, -0.2983105480670929, -0.2169642150402069, 0.49949273467063904, -0.11598651111125946, -0.05471464619040489, 0.027409538626670837, 0.14063964784145355, 0.40106749534606934, 0.14837488532066345, -0.26331838965415955, -0.09231459349393845, -0.21669940650463104, 0.2350165694952011, -0.1861572116613388, 0.08970353752374649, 0.3616058826446533, 0.20236548781394958, 0.06830332428216934, 0.4810667634010315, -0.22949744760990143, 0.08176174759864807, -0.07957090437412262, -0.28990620374679565, 0.4124135375022888, -0.000295423116767779, -0.21809497475624084, -0.2853030264377594, 0.09991080313920975, 0.09647861868143082, 0.43626299500465393, 0.3701760470867157, 0.2845180928707123, 0.1559315323829651, 0.12621600925922394, 0.5569970011711121, 0.04538528993725777, 0.23332031071186066, 0.06804296374320984, 0.2412954419851303, 0.18181926012039185, -0.0501580610871315], [-0.09543081372976303, -0.09761027246713638, 0.19230768084526062, 0.12088821828365326, 0.14749783277511597, -0.08601896464824677, 0.08131684362888336, 0.16979563236236572, -0.09093523770570755, -0.1923052966594696, 0.279387891292572, -0.2037980854511261, 0.039795614778995514, 0.16172555088996887, 0.36307817697525024, 0.055648304522037506, -0.24259446561336517, -0.0947774201631546, 0.31726276874542236, -0.004808916710317135, -0.02093399502336979, 0.09278422594070435, -0.08230329304933548, -0.1580534428358078, -0.14154693484306335, 0.29969191551208496, 0.09953271597623825, 0.37439587712287903, -0.1387520134449005, 0.38646894693374634, -0.00922350399196148, 0.01802685484290123, -0.07621701806783676, 0.11802434921264648, 0.055323634296655655, -0.10984142869710922, -0.1813085675239563, 0.21594077348709106, 0.08107315003871918, 0.2800690233707428, -0.22879347205162048, 0.3662620186805725, -0.17660950124263763, -0.2904123067855835, 0.04361194744706154, -0.13367752730846405, 0.25816670060157776, 0.48095670342445374, 0.013028286397457123, 0.2943151891231537, -0.0014387889532372355, 0.35251882672309875, 0.065300352871418, 0.23192442953586578, -0.04152857884764671, -0.16983863711357117, -0.013333171606063843, -0.0014424070250242949, -0.2535615861415863, -0.03236297890543938, -0.28479570150375366, 0.23180942237377167, 0.05970873311161995, -0.011031992733478546, -0.01291463989764452, 0.26964449882507324, -0.22754724323749542, -0.15175625681877136, 0.14725203812122345, 0.27554851770401, 0.13132642209529877, -0.13710430264472961, 0.3938741385936737, 0.03547139838337898, -0.22249479591846466, 0.4609121084213257, 0.09575009346008301, 0.5266624689102173, 0.01811203360557556, -0.16706499457359314, -0.05551626533269882, 0.14229223132133484, 0.2537391483783722, -0.431475967168808, 0.025189455598592758, 0.4149664044380188, 0.0029579929541796446, 0.029698871076107025, -0.2875712513923645, 0.47963863611221313, 0.10360056161880493, 0.06973974406719208, -0.10837120562791824, -0.288276344537735, 0.1354961395263672, 0.45652884244918823, 0.10165829211473465, -0.3897620141506195, -0.011549565009772778, 0.08270911127328873, -0.4162684381008148, 0.06135806441307068, 0.2751099169254303, 0.07075969874858856, -0.13868583738803864, 0.2201712280511856, -0.06173410639166832, 0.18899737298488617, 0.2749951183795929, -0.09937509149312973, 0.22681297361850739, -0.009237011894583702, 0.173775315284729, 0.016382979229092598, 0.1381344050168991, 0.14819568395614624, 0.17526260018348694, 0.04285937175154686, -0.05326079949736595, -0.1276751011610031, -0.1366337090730667, 0.020385630428791046, 0.11724703758955002, 0.07634182274341583, 0.006107661873102188, 0.06521406024694443, 0.09348554909229279, 0.07535115629434586], [0.05010600760579109, -0.05338907986879349, 0.17377230525016785, 0.04167919233441353, 0.0857091099023819, -0.07615399360656738, 0.10805604606866837, 0.3120562434196472, 0.09748273342847824, -0.3727338910102844, -0.23095004260540009, -0.15894964337348938, 0.18976688385009766, -0.018990807235240936, 0.21458043158054352, -0.1948709338903427, -0.5007812976837158, 0.061459384858608246, -0.1416514366865158, 0.12248318642377853, 0.12188321352005005, 0.15424436330795288, -0.7263055443763733, 0.42516395449638367, -0.09891092777252197, 0.12367934733629227, 0.03559735417366028, 0.4412783086299896, 0.3334399163722992, 0.02882426045835018, -0.14934806525707245, 0.008168162778019905, -0.3013593852519989, -0.035382870584726334, 0.034712277352809906, -0.03476576507091522, -0.5123639106750488, 0.1634000837802887, 0.036246158182621, 0.17019660770893097, -0.3430575132369995, 0.19535425305366516, -0.093370221555233, -0.47372540831565857, -0.018576472997665405, 0.01280016079545021, -0.08964641392230988, 0.11808137595653534, 0.0021310532465577126, 0.1308608204126358, -0.268752783536911, 0.006778243463486433, 0.014413852244615555, 0.06729575991630554, 0.0008231439860537648, -0.7688126564025879, -0.5339047908782959, 0.3188284635543823, 0.14600348472595215, -0.6265931129455566, -0.24741174280643463, 0.006881532724946737, -0.2540051341056824, -0.17010977864265442, -0.39342236518859863, 0.1954694539308548, -0.12843094766139984, 0.08619331568479538, -0.00854857824742794, 0.12556111812591553, -0.42930445075035095, -0.015135269612073898, -0.4202411472797394, 0.35132694244384766, 0.11707005649805069, 0.20444703102111816, -0.07784797996282578, 0.113499715924263, -0.026882551610469818, -0.21218110620975494, -0.19873732328414917, -0.06173759326338768, -0.26574358344078064, -0.6414202451705933, -0.2282828837633133, 0.66070556640625, 0.05323782190680504, -0.38587072491645813, -0.5204365253448486, 0.1993734985589981, 0.28937244415283203, -0.32141441106796265, -0.19565853476524353, -0.4288252592086792, -0.5121076107025146, 0.15264283120632172, 0.20479150116443634, -0.39162150025367737, 0.37177982926368713, -0.02753608673810959, -0.2714413106441498, -0.4568876028060913, 0.020087577402591705, -0.03709382563829422, -0.842875599861145, -0.13487866520881653, -0.3581552505493164, -0.12133635580539703, 0.002507419791072607, 0.09982062876224518, -0.14528246223926544, 0.36104145646095276, -0.08918201178312302, 0.27137291431427, 0.03000262938439846, -0.08164738863706589, -0.19573107361793518, -0.017408831045031548, -0.32037901878356934, -0.3425106406211853, -0.22615370154380798, 0.05144430696964264, 0.17474694550037384, -0.20861893892288208, 0.02718128077685833, -0.06242751702666283, -0.21832233667373657, 0.019778074696660042], [0.22444969415664673, 0.3202987611293793, -0.0555318258702755, 0.22337114810943604, -0.11152882874011993, -0.25588542222976685, -0.5041455030441284, 0.03706188127398491, 0.33082765340805054, -0.09899067133665085, -0.017916571348905563, 0.011570394039154053, 0.3954314589500427, 0.26309266686439514, -0.3937769830226898, -0.16661186516284943, -0.04166276007890701, 0.19627895951271057, 0.24159559607505798, 0.2261737436056137, 0.00022077877656556666, 0.10269467532634735, -0.2755134105682373, -0.41493484377861023, 0.14296258985996246, 0.07364305108785629, -0.13890120387077332, 0.4543871581554413, 0.21841174364089966, -0.4606480896472931, 0.05090174451470375, 0.3429311513900757, -0.30164963006973267, -0.06933637708425522, -0.31394609808921814, 0.16271327435970306, -0.12509474158287048, 0.08292043209075928, -0.18027156591415405, 0.06144745275378227, -0.11704517155885696, 0.34706807136535645, 0.13735023140907288, -0.5634200572967529, 0.06014586240053177, 0.16229990124702454, -0.8566482663154602, -0.5097784996032715, 0.08522606641054153, 0.2931438386440277, 0.261459082365036, 0.022947657853364944, -0.23830467462539673, -0.2637631893157959, -0.2578478753566742, -0.30811807513237, -0.002533105667680502, 0.3623632788658142, 0.07142262905836105, -0.15049691498279572, -0.533585786819458, 0.19119210541248322, -0.01566147804260254, 0.1952672302722931, 0.001738612656481564, 0.10002735257148743, -0.011868350207805634, -0.01844785548746586, 0.1430811882019043, -0.14313483238220215, -0.2428044080734253, 0.11293633282184601, -0.23315584659576416, 0.41951262950897217, -0.41901150345802307, 0.05394557863473892, -0.10479667037725449, -0.07043489813804626, 0.12181127816438675, 0.18075107038021088, -0.34100455045700073, -0.6586401462554932, -0.24024367332458496, -0.10635978728532791, 0.1179606094956398, 0.08736548572778702, 0.17625440657138824, 0.22365589439868927, 0.11608980596065521, 0.09143713861703873, 0.3197620213031769, -0.1341926008462906, -0.11951261758804321, -0.09855278581380844, -0.597100555896759, 0.25041788816452026, -0.038114987313747406, 0.006560283247381449, 0.4464978575706482, -0.24632203578948975, -0.4690321981906891, -0.5051352381706238, -0.7057581543922424, 0.18535847961902618, 0.1235824003815651, -0.9622607231140137, -0.0336165688931942, -0.06895628571510315, 0.6754528284072876, 0.30775415897369385, -0.3780057430267334, 0.12052310258150101, 0.31229764223098755, 0.21297216415405273, 0.31192445755004883, 0.09462261199951172, -0.17432768642902374, 0.012982863001525402, -0.19021081924438477, -0.5536269545555115, -0.20931240916252136, -0.32428422570228577, 0.45537611842155457, 0.12455276399850845, 0.06661100685596466, 0.24813273549079895, 0.1972750574350357, -0.08726683259010315], [0.0029427623376250267, -0.21068111062049866, -0.3123452067375183, -0.006501596421003342, 0.21903105080127716, -0.12328434735536575, -0.4796016216278076, 0.18263164162635803, 0.3753916025161743, 0.2976071834564209, 0.1922542303800583, 0.23126579821109772, 0.2888033986091614, -0.28148266673088074, -0.2442285120487213, 0.09230517596006393, 0.4665635824203491, -0.124719999730587, 0.06815529614686966, 0.19337838888168335, -0.06983472406864166, -0.11911937594413757, 0.22738662362098694, 0.41718608140945435, 0.022536443546414375, -0.022083697840571404, -0.28099000453948975, 0.3219190239906311, -0.20640285313129425, -0.1805652379989624, 0.20335298776626587, 0.04300089552998543, -0.2814970016479492, 0.3011709749698639, -0.41209182143211365, 0.3479746878147125, -0.11417031288146973, 0.3122542202472687, -0.5429208278656006, -0.0915742963552475, 0.12499119341373444, -0.0024467268958687782, -0.004066284280270338, -0.09953559935092926, 0.04309837892651558, 0.2616059184074402, -0.4789208173751831, -0.6571705341339111, -0.06996387988328934, -0.1047542467713356, 0.17512066662311554, -0.08481843769550323, 0.28728464245796204, 0.12080896645784378, 0.4114104211330414, 0.026524387300014496, 0.3142377734184265, 0.04775191470980644, 0.017300475388765335, 0.32263097167015076, -0.09611357003450394, -0.026071686297655106, 0.08663396537303925, -0.2846275866031647, 0.2892584800720215, -0.0684942677617073, 0.05729741230607033, -0.1334201842546463, 0.06351302564144135, 0.0976327583193779, 0.3292995095252991, 0.07927579432725906, -0.1063842922449112, 0.2983967363834381, 0.06566997617483139, -0.16348661482334137, 0.0101662278175354, 0.10471942275762558, 0.1844821721315384, 0.0707540512084961, 0.1929856389760971, -0.566850483417511, -0.03651032969355583, 0.24953538179397583, 0.10825499892234802, -0.4605918526649475, -0.10464058816432953, -0.10780631005764008, 0.044019877910614014, -0.3921394646167755, -0.33811116218566895, -0.00761388661339879, 0.3901010751724243, 0.2834089696407318, 0.21179994940757751, -0.0033804296981543303, -0.07416500896215439, 0.3339816927909851, 0.026933949440717697, -0.13814851641654968, 0.061735112220048904, 0.30653876066207886, -0.5698172450065613, -0.18189740180969238, 0.3641190826892853, -0.5433098077774048, -0.027257602661848068, -0.10322950035333633, 0.11572772264480591, -0.19633254408836365, 0.19748470187187195, -0.07931766659021378, 0.35614272952079773, 0.4684372544288635, 0.14223095774650574, -0.06074779853224754, -0.1023343950510025, -0.02715795487165451, -0.07513788342475891, 0.25835976004600525, 0.5071645379066467, -0.3476065993309021, -0.8357628583908081, 0.1520450860261917, 0.13658922910690308, -0.5503806471824646, 0.5058243274688721, 0.11178728938102722], [0.16047950088977814, 0.19597776234149933, 0.04637037217617035, -0.00572173809632659, -0.20121747255325317, 0.4583604037761688, -0.13329929113388062, 0.0020702695474028587, 0.26169270277023315, 0.05556562915444374, -0.28382161259651184, -0.2927294671535492, -0.22029154002666473, -0.10342846065759659, -0.54543536901474, -0.6167863607406616, 0.21060258150100708, -0.0693875178694725, 0.07727955281734467, -0.13084381818771362, -0.17727725207805634, -0.01863241009414196, -0.002353706629946828, 0.11222340911626816, 0.2899341583251953, -0.40048980712890625, -0.137348011136055, 0.21317414939403534, 0.2537156939506531, 0.32281067967414856, -0.022028734907507896, -0.30417606234550476, 0.049210064113140106, 0.12972868978977203, 0.034193504601716995, 0.13696949183940887, -0.37115877866744995, -0.09623505175113678, 0.37778735160827637, -0.35210520029067993, -0.08833309262990952, 0.09467541426420212, 0.41855791211128235, -0.18000492453575134, -0.32236313819885254, 0.20245733857154846, 0.09523992985486984, -0.11746767163276672, -0.032109785825014114, -0.3441949486732483, 0.12344905734062195, 0.19849012792110443, -0.3759426176548004, 0.2692185044288635, 0.15534600615501404, 0.002833040663972497, 0.2394895702600479, -0.032599058002233505, 0.3989504873752594, 0.23501619696617126, 0.5174810290336609, 0.2772882580757141, -0.30022209882736206, -0.688440203666687, 0.3185563385486603, -0.16790907084941864, -0.9490727782249451, 0.5184529423713684, 0.19334988296031952, -0.4653981924057007, 0.13020160794258118, 0.4071134924888611, -0.37990739941596985, -0.04603779688477516, -0.5592287182807922, -0.16588091850280762, -0.24634136259555817, -0.3061010241508484, -0.24161788821220398, 0.40756240487098694, 0.34917494654655457, 0.30717259645462036, -0.07015687227249146, 0.02323821187019348, -0.08620459586381912, 0.17111383378505707, 0.3722209334373474, 0.16274340450763702, 0.59629225730896, -0.7855288982391357, 0.3103031516075134, -0.2164311408996582, -0.21532462537288666, 0.08445215970277786, -0.0644896849989891, -0.07991825044155121, -0.0389324314892292, 0.4411603808403015, 0.14183896780014038, 0.21443800628185272, 0.20643934607505798, -0.07946012169122696, -0.4097276031970978, 0.1596568077802658, 0.38072749972343445, -0.6067826151847839, -0.03234788402915001, 0.06930363923311234, 0.17856182157993317, -0.5766382217407227, -0.2542380094528198, 0.16239295899868011, 0.23037047684192657, 0.0854794979095459, 0.010842788964509964, -0.10944536328315735, 0.21911053359508514, 0.2556908428668976, -0.17815320193767548, 0.18701639771461487, 0.1869194060564041, -0.4099975824356079, 0.6133984327316284, -0.07338380813598633, -0.09596994519233704, 0.10867136716842651, -0.12417101114988327, -0.49812251329421997], [-0.15688009560108185, -0.2651653587818146, -1.0753040313720703, 0.12951526045799255, -0.8304362297058105, 0.2767622768878937, 0.11266743391752243, -0.020794110372662544, 0.0068870726972818375, -0.2026328593492508, 0.14887453615665436, -0.29306885600090027, -0.10218021273612976, -0.02611296996474266, -0.4074237644672394, 0.3658088445663452, 0.08462506532669067, -0.017233312129974365, -0.1925891935825348, -0.416715145111084, -0.07265125215053558, -0.4234543740749359, 0.38737228512763977, 0.00507402466610074, 0.1522487848997116, -0.26264265179634094, -0.5830932855606079, -0.274640291929245, -0.3752906322479248, -0.010038095526397228, 0.17352837324142456, -0.4963575303554535, 0.2756693363189697, 0.31215405464172363, -0.19370704889297485, -0.14335642755031586, 0.4888671040534973, -0.24710825085639954, 0.1532890796661377, -0.30008068680763245, 0.5075056552886963, -0.5365057587623596, 0.334002822637558, 0.22672317922115326, 0.17772261798381805, -0.36253589391708374, -0.037028152495622635, 0.15919548273086548, -0.45230016112327576, -0.37566134333610535, -0.2927490472793579, -0.16982871294021606, 0.15488527715206146, -0.24391955137252808, 0.15594317018985748, 0.6326732039451599, 0.27009522914886475, -0.48035869002342224, -0.4306199848651886, 0.4401630461215973, 0.26043635606765747, -0.17231296002864838, 0.3706115782260895, 0.28262028098106384, -0.245822936296463, -0.23335358500480652, 0.21262377500534058, -0.32149678468704224, -0.22599057853221893, -0.19416552782058716, -0.35944604873657227, 0.03116585500538349, 0.030881812795996666, -0.3034053146839142, -0.416331946849823, -0.08068414032459259, 0.10349230468273163, -0.46725475788116455, 0.09409689903259277, -0.10285652428865433, 0.08334116637706757, 0.4650488495826721, 0.4914575219154358, 0.3570934236049652, 0.12204714119434357, -0.5495543479919434, -0.042432572692632675, -0.3793187737464905, 0.00504386518150568, -0.19943185150623322, 0.07951398938894272, -0.1092258170247078, 0.004775017499923706, 0.6142143607139587, 0.12139146775007248, 0.18363159894943237, -0.1385711133480072, 0.06854448467493057, 0.24802939593791962, 0.39956405758857727, 0.2908223271369934, 0.36189910769462585, -0.062370993196964264, -0.06913989037275314, 0.3889090418815613, -0.12305658310651779, 0.32021963596343994, 0.01636989787220955, -0.0686848908662796, -0.17673799395561218, 0.4501160979270935, -0.29113873839378357, -0.6007809638977051, 0.09043242782354355, 0.2712600827217102, -0.3595130741596222, 0.0565325953066349, 0.1345100849866867, 0.1145244762301445, 0.6153087615966797, 0.04057249054312706, -0.35312554240226746, -0.1183427944779396, -0.23410804569721222, -0.26679161190986633, 0.42631158232688904, 0.08211758732795715, 0.02284446731209755], [0.09405305981636047, -0.06295020878314972, -0.1758960336446762, -0.22959336638450623, 0.030908647924661636, -0.05007972568273544, -0.8710796236991882, 0.30288827419281006, 0.26832816004753113, 0.20979736745357513, 0.07502329349517822, 0.04841999337077141, -0.11397183686494827, -0.029292209073901176, -0.384909451007843, -0.11129270493984222, 0.06577470898628235, -0.05810197442770004, -0.3203083574771881, 0.28602734208106995, 0.12513773143291473, 0.007719754707068205, 0.1718822419643402, 0.30355921387672424, -0.5593037009239197, -0.27171260118484497, -0.021871019154787064, -0.06829861551523209, -0.10426044464111328, -0.34627047181129456, 0.23593296110630035, -0.21814151108264923, -0.136298269033432, -0.29027676582336426, -0.4038110375404358, 0.35526934266090393, -0.28548306226730347, 0.03571934252977371, -0.8949970006942749, -0.46779078245162964, -0.059674281626939774, 0.04684992507100105, 0.556795597076416, -0.294288694858551, 0.03192000463604927, -0.048732876777648926, -0.6493126153945923, -0.5448790788650513, -0.0036934921517968178, -0.059221625328063965, 0.06979725509881973, -0.23149380087852478, 0.5265602469444275, -0.07122344523668289, -0.06788390874862671, -0.1963188648223877, 0.07055023312568665, 0.2420046478509903, 0.2714436650276184, -0.1275133490562439, -0.14578628540039062, 0.08589638024568558, -0.042190950363874435, -0.5462226867675781, -0.026199473068118095, -0.10270330309867859, -0.34856733679771423, 0.29516369104385376, -0.11338065564632416, -0.005082644056528807, 0.08251156657934189, -0.1920759677886963, -0.483845978975296, 0.18400536477565765, 0.1598520278930664, 0.0711902379989624, -0.1328091323375702, -0.46121567487716675, -0.8462969064712524, 0.24925465881824493, -0.31643417477607727, -0.33190855383872986, 0.004170710686594248, -0.37236592173576355, -0.2897188365459442, -0.34799593687057495, 0.10904791951179504, 0.2225271314382553, 0.3233223855495453, -0.9199137687683105, 0.1334356814622879, -0.07687447220087051, 0.38799136877059937, 0.07722323387861252, -0.21109089255332947, -0.29213598370552063, -0.03048790618777275, -0.11262768507003784, -0.3863363265991211, -0.06648413836956024, 0.24722091853618622, -0.4762449562549591, -0.26369068026542664, -0.5223049521446228, 0.11739509552717209, -0.02429516799747944, -0.11151182651519775, 0.1420907974243164, 0.022026345133781433, -0.37980976700782776, 0.13072867691516876, 0.4087940454483032, -0.12656565010547638, -0.1267281323671341, -0.2755993902683258, 0.01588793843984604, 0.04554637521505356, 0.025634977966547012, -0.8085896968841553, 0.19675280153751373, 0.41956132650375366, -0.4037054181098938, -0.5646475553512573, -0.07894736528396606, 0.22163155674934387, -0.41322144865989685, -0.25857773423194885, -0.06262965500354767], [-0.2948691248893738, -0.16644014418125153, -0.794834554195404, -0.025436952710151672, -0.08272886276245117, -0.3313741683959961, -0.30533361434936523, -0.015317249111831188, 0.4211138188838959, -0.005264622624963522, -0.21006065607070923, 0.27872133255004883, -0.03958231955766678, -0.12255591154098511, 0.024456284940242767, -0.7805323004722595, 0.09420926123857498, -0.05158856138586998, 0.09672506153583527, -0.1055222675204277, 0.08720075339078903, -0.05941192805767059, -0.1995459645986557, 0.20804354548454285, 0.07640133798122406, 0.03175290301442146, -0.20527532696723938, 0.18134787678718567, -0.3455020785331726, -0.04637642204761505, -0.12402646988630295, 0.12478774040937424, -0.2665109932422638, 0.00897432304918766, -0.2937981188297272, 0.5244519114494324, 0.23990915715694427, 0.38599199056625366, -0.7668307423591614, -0.10086209326982498, -0.016232404857873917, -0.27145519852638245, 0.32193925976753235, -0.26129043102264404, -0.5129415988922119, 0.026799991726875305, -0.2656770646572113, -1.0155360698699951, 0.4000110924243927, -0.11753977090120316, 0.28659623861312866, -0.14489741623401642, 0.01515340618789196, 0.19313529133796692, -0.08217241615056992, 0.1287764012813568, 0.2989982068538666, -0.3168085515499115, 0.09332641959190369, -0.2039262354373932, -0.1111045777797699, 0.10091836750507355, 0.37026628851890564, -0.3909735083580017, -0.1846374273300171, -0.5834903120994568, -0.43519484996795654, 0.3797575533390045, 0.10808403044939041, 0.13887456059455872, 0.18913495540618896, 0.09728629142045975, 0.021947743371129036, 0.18591299653053284, 0.183171346783638, 0.21053816378116608, -0.01563909649848938, -0.14501594007015228, -0.3964456021785736, 0.3906973898410797, -0.6067318320274353, -0.18082574009895325, 0.16950449347496033, -0.17152513563632965, -0.23060373961925507, 0.22928550839424133, -0.03347853198647499, 0.02180422469973564, -0.07116913050413132, -0.5989422798156738, 0.05904752016067505, 0.032069019973278046, -0.09132812172174454, 0.08455687016248703, 0.039050620049238205, -0.02799876406788826, -0.21588709950447083, 0.4156029522418976, -0.18147346377372742, -0.3593471646308899, -0.16146786510944366, -0.5146904587745667, -0.40851542353630066, -0.6041327714920044, 0.31511497497558594, -0.3354284167289734, 0.18431495130062103, -0.29773345589637756, 0.23194675147533417, -0.3204578757286072, -0.6038801074028015, -0.23175720870494843, -0.0005219122394919395, 0.16306020319461823, -0.011633582413196564, -0.24579663574695587, -0.11210373789072037, 0.2722969651222229, -0.5130105018615723, 0.0019495541928336024, 0.09967827051877975, -0.8630274534225464, -0.011525518260896206, 0.03237788379192352, -0.12262243777513504, -0.04722493514418602, 0.0638049840927124, -0.18153497576713562], [-0.05282845348119736, -0.1106344610452652, 0.1436711847782135, -0.2955932319164276, -0.1304844468832016, -0.26243215799331665, 0.37521812319755554, 0.2790510952472687, -0.07072154432535172, -0.36979904770851135, 0.23384197056293488, 0.07943983376026154, 0.1307176947593689, 0.05983901396393776, -0.12427696585655212, -0.06657340377569199, -0.31019091606140137, -0.30675625801086426, 0.23397287726402283, 0.061528999358415604, 0.26878052949905396, 0.11495783925056458, -0.306659072637558, -0.14499659836292267, 0.08100516349077225, 0.1697363555431366, -0.2867790162563324, 0.251358300447464, 0.11094272136688232, 0.3067942261695862, -0.09660759568214417, 0.01825162023305893, -0.26934176683425903, 0.02910294197499752, 0.159879669547081, -0.5213891863822937, -0.18067918717861176, -0.01705630123615265, 0.013905690051615238, -0.027198661118745804, -0.12127841264009476, 0.2364141345024109, -0.039408210664987564, -0.24662156403064728, -0.17327603697776794, -0.034817829728126526, 0.11188619583845139, 0.2854786217212677, -0.037279222160577774, 0.14651213586330414, 0.10314119607210159, 0.34699997305870056, -0.09073759615421295, -0.11195938289165497, -0.14110153913497925, -0.3778790831565857, -0.4757121205329895, 0.11244760453701019, -0.4502580761909485, -0.4426310360431671, 0.00863123033195734, -0.2836535573005676, -0.16416366398334503, -0.0018280853983014822, -0.17992264032363892, 0.15895456075668335, -0.1667064130306244, 0.14428135752677917, 0.09219282865524292, 0.20993395149707794, -0.11492149531841278, -0.4647219479084015, -0.12909625470638275, 0.11093974113464355, 0.08292107284069061, 0.41457822918891907, 0.1660243570804596, 0.305807888507843, 0.14349864423274994, -0.46866872906684875, -0.00019130148575641215, -0.09150004386901855, 0.009377297945320606, -0.346530944108963, 0.17802470922470093, 0.636599600315094, 0.32818278670310974, -0.04938574880361557, -0.2909541428089142, 0.38988545536994934, 0.15927031636238098, 0.014649677090346813, 0.16421271860599518, -0.41796359419822693, -0.09866537153720856, 0.3454132080078125, -0.1495293527841568, -0.536108672618866, 0.18585358560085297, 0.07103957235813141, -0.36911827325820923, -0.4559468626976013, -0.03420371562242508, 0.32373034954071045, -0.3314913213253021, -0.0548824742436409, -0.028820514678955078, 0.31025174260139465, 0.30861276388168335, -0.07878909260034561, -0.15289261937141418, -0.07573261857032776, 0.4034233093261719, 0.1648983657360077, 0.022264966741204262, 0.41144469380378723, 0.02317136898636818, 0.2918369472026825, -0.3400757908821106, -0.20559902489185333, -0.16885636746883392, 0.012666110880672932, 0.12973682582378387, -0.1236875131726265, 0.2923288941383362, 0.35924506187438965, -0.11178743094205856, -0.1532459706068039], [0.5288090705871582, 0.2941719591617584, -0.23242585361003876, -0.3289260268211365, 0.19035643339157104, -0.47910869121551514, -0.6719954013824463, -0.0006503348122350872, 0.19063428044319153, -0.38086333870887756, -0.5450674891471863, 0.05754241347312927, 0.27243736386299133, 0.10866878181695938, 0.03449413925409317, 0.066441610455513, -0.6097908020019531, -0.010214239358901978, 0.2552891969680786, 0.42352911829948425, -0.021873870864510536, 0.1645389199256897, -0.5575161576271057, 0.0035309356171637774, 0.08297431468963623, -0.5089222192764282, 0.16748222708702087, 0.24119795858860016, 0.2211569845676422, -0.2791944742202759, -0.0859290361404419, 0.11773804575204849, -0.04726734384894371, -0.3055732548236847, 0.3672541677951813, 0.02902587689459324, -0.31120142340660095, 0.11708112806081772, -0.3668088912963867, 0.14739462733268738, -0.4772144854068756, -0.10974893718957901, -0.002320445841178298, -0.6282985806465149, -0.11959987878799438, 0.12422768771648407, -0.515992283821106, -0.6500282883644104, 0.04631603881716728, -0.34874820709228516, 0.4153212606906891, -0.16443884372711182, -0.02240675874054432, -0.1188545897603035, -0.011318539269268513, -0.33827105164527893, -0.47480443120002747, -0.19479826092720032, 0.06163942441344261, -0.292420357465744, -0.35360896587371826, 0.011429722420871258, -0.17630286514759064, -0.0545063316822052, -0.49085816740989685, -0.3677479326725006, 0.2677946984767914, 0.08227242529392242, -0.007072880398482084, -0.0929257869720459, -0.2382313460111618, -0.26216238737106323, -0.44946491718292236, 0.23074086010456085, 0.1497366577386856, 0.28332841396331787, -0.514151930809021, 0.026325566694140434, -0.1192152202129364, -0.15071626007556915, -0.3492644727230072, -0.8787488341331482, -0.4232981503009796, -0.0697733610868454, -0.12571759521961212, -0.030538149178028107, 0.4925646483898163, 0.14965669810771942, -0.2143336683511734, -0.3923918306827545, -0.012127406895160675, -0.07677949965000153, 0.2703704237937927, -0.41870537400245667, -0.4713056683540344, -0.3862835168838501, 0.10674802958965302, -0.1054530069231987, 0.38402506709098816, -0.10228578746318817, -0.2313123494386673, -0.4010342061519623, -0.8738219738006592, 0.042154304683208466, -0.7080901265144348, -0.45605263113975525, -0.13947729766368866, -0.033156681805849075, 0.08461944013834, 0.03470379114151001, 0.006788564380258322, 0.018976667895913124, -0.2504948079586029, 0.2554073929786682, 0.13929052650928497, 0.030594883486628532, -0.06103501468896866, -0.10892923921346664, -0.3249491751194, -0.38192135095596313, -0.11342807114124298, -0.2983354330062866, 0.07121408730745316, 0.5200368762016296, 0.15664628148078918, 0.12779171764850616, -0.7354536056518555, -0.01285258773714304], [0.052146006375551224, -0.1264270395040512, 0.36628109216690063, -0.0662732869386673, -0.018984582275152206, 0.09588790684938431, 0.42653489112854004, 0.15770143270492554, -0.017823774367570877, -0.3865777552127838, -0.009813781827688217, -0.15715335309505463, 0.22206950187683105, 0.16916045546531677, 0.10967200249433517, 0.24868570268154144, 0.02269509620964527, 0.22689497470855713, 0.29406264424324036, -0.0460081584751606, 0.20139630138874054, 0.09240862727165222, -0.242240771651268, -0.27767136693000793, -0.15159033238887787, 0.12402932345867157, -0.20720256865024567, 0.21663174033164978, -0.017568295821547508, 0.17847374081611633, -0.20420384407043457, -0.17117245495319366, -0.2755654454231262, -0.3862917721271515, -0.23667453229427338, -0.2887771427631378, -0.16155609488487244, 0.1652870923280716, 0.4017840027809143, 0.19086171686649323, -0.07856958359479904, -0.1887502521276474, 0.020910033956170082, 0.08407004177570343, -0.1454145759344101, -0.21162238717079163, 0.24358510971069336, 0.16087700426578522, -0.24404530227184296, -0.0015039261197671294, 0.013538734056055546, 0.51130610704422, -0.08198631554841995, -0.07140199095010757, -0.017802638933062553, -0.06178460270166397, -0.21537208557128906, -0.1042218878865242, 0.06238757073879242, -0.20190775394439697, -0.22458764910697937, -0.08308981359004974, 0.25331932306289673, 0.2455449253320694, -0.04328086972236633, 0.15551437437534332, 0.1257086843252182, -0.24198609590530396, 0.2034166157245636, 0.2956559956073761, 0.04132235422730446, -0.1129063293337822, -0.010353216901421547, 0.02392565831542015, 0.2793422341346741, 0.45125168561935425, 0.3443470895290375, 0.4891485869884491, 0.15679630637168884, -0.1703759878873825, -0.2707371413707733, -0.06589056551456451, 0.2696656286716461, -0.23037241399288177, 0.047434478998184204, 0.6051584482192993, -0.06067998707294464, -0.17022804915905, 0.033833637833595276, 0.4078906178474426, -0.09623147547245026, 0.21916934847831726, -0.23377364873886108, -0.1821347177028656, 0.5066004991531372, 0.07908764481544495, -0.10523846745491028, -0.09218769520521164, 0.18253840506076813, 0.06664620339870453, 0.1983148157596588, -0.33920079469680786, 0.3678649365901947, 0.1463252305984497, 0.003177938051521778, 0.5644000768661499, 0.015487311407923698, 0.17713844776153564, -0.09782572835683823, -0.10562412440776825, 0.2888370156288147, 0.19086511433124542, 0.10682351142168045, -0.0345923937857151, 0.07581275701522827, 0.04759812727570534, 0.08232840150594711, 0.15182597935199738, 0.22996583580970764, 0.25268056988716125, -0.4383535385131836, 0.24798473715782166, -0.19215381145477295, 0.32126978039741516, -0.06476569920778275, 0.08576346188783646, 0.21846935153007507, 0.27411380410194397], [-0.21791809797286987, 0.02995457872748375, 0.16609244048595428, -0.03718351945281029, 0.003113098908215761, 0.07721717655658722, 0.20968462526798248, -0.3845028877258301, -0.42127618193626404, -0.22006016969680786, -0.23806346952915192, -0.2910609543323517, 0.17060399055480957, 0.24149399995803833, -0.13804738223552704, 0.2329452931880951, -0.0718943178653717, 0.16555872559547424, -0.17813904583454132, -0.015486921183764935, -0.0520678348839283, -0.16381336748600006, 0.4090555012226105, 0.1677977591753006, -0.1375581920146942, -0.13856372237205505, -0.10265292227268219, -0.1067095398902893, 0.1973808854818344, -0.26542556285858154, 0.12754206359386444, -0.037772588431835175, 0.22533029317855835, -0.11699669808149338, 0.15678295493125916, 0.024494051933288574, 0.2655729651451111, -0.3244527578353882, -0.27888023853302, 0.33578094840049744, -0.08542392402887344, 0.08127854764461517, -0.15779095888137817, 0.23838120698928833, 0.14394988119602203, -0.22281020879745483, -0.4874419569969177, 0.2858469486236572, -0.5134719610214233, -0.1737189143896103, 0.0665176585316658, 0.005387864075601101, -0.1273595243692398, -0.46355658769607544, 0.1274537593126297, 0.2394118756055832, 0.029823385179042816, -0.09633120149374008, -0.08982447534799576, 0.39537742733955383, 0.26286494731903076, 0.17389971017837524, -0.41332778334617615, 0.38459479808807373, -0.19220757484436035, 0.13633668422698975, 0.30496829748153687, -0.07799944281578064, 0.18308305740356445, -0.35114187002182007, -0.07629435509443283, 0.01058022491633892, 0.26154038310050964, -0.2285117357969284, -0.21625584363937378, -0.3156055808067322, -0.17588341236114502, -0.5738202333450317, 0.18572881817817688, -0.18307152390480042, 0.0860702246427536, -0.4091522991657257, -0.19387182593345642, 0.3072918653488159, 0.17551909387111664, -0.2528570890426636, 0.028833849355578423, 0.08385027199983597, 0.320902943611145, -0.13158205151557922, 0.08221788704395294, -0.13486258685588837, 0.2874141037464142, 0.240396186709404, 0.1250196397304535, -0.36724355816841125, 0.2861015200614929, -0.03665284812450409, 0.269775927066803, -0.6013111472129822, 0.6693477034568787, 0.20393404364585876, -0.40129393339157104, -0.1823391169309616, -0.179661825299263, -0.5607513785362244, -0.057046737521886826, 0.09104897826910019, -0.46344706416130066, 0.03451932966709137, 0.12548410892486572, -0.27495601773262024, -0.4135505259037018, -0.17388999462127686, -0.41224369406700134, 0.09058424085378647, -0.035990893840789795, -0.011137797497212887, -0.10845716297626495, 0.19703315198421478, -0.05983401834964752, -0.12158656865358353, -0.04037567228078842, -0.14044350385665894, -0.34691691398620605, 0.013849268667399883, 0.1496960073709488, -0.08524724841117859], [-0.06372714787721634, -0.11138904839754105, 0.2856732904911041, 0.15212710201740265, -0.09795444458723068, 0.19456258416175842, 0.011331395246088505, -0.08080441504716873, -0.16728608310222626, -0.018063215538859367, -0.16629917919635773, -0.25471699237823486, 0.09409879893064499, -0.0764891728758812, -0.19438104331493378, 0.026556257158517838, -0.028526652604341507, 0.0022767081391066313, -0.20710647106170654, -0.002537932014092803, 0.16301198303699493, -0.017878878861665726, 0.34613266587257385, 0.08936555683612823, 0.44515544176101685, -0.1776578724384308, 0.12147322297096252, -0.04755247011780739, -0.22625330090522766, -0.07338710874319077, 0.012520584277808666, -0.18559695780277252, 0.1711159348487854, -0.2201886624097824, 0.03829064965248108, 0.21224382519721985, 0.05782954767346382, -0.3420676589012146, 0.07940797507762909, -0.04891113564372063, 0.25028520822525024, -0.26195940375328064, -0.1475035399198532, 0.13139960169792175, 0.18664973974227905, -0.13525116443634033, 0.43223103880882263, 0.13912904262542725, -0.18267333507537842, -0.34627339243888855, 0.1260065734386444, -0.006286574527621269, 0.006503359414637089, -0.3427751958370209, 0.4407462775707245, 0.17336568236351013, 0.19316214323043823, -0.18799419701099396, 0.14919909834861755, 0.3336198925971985, 0.41847190260887146, 0.040913913398981094, 0.20127342641353607, 0.05135086551308632, -0.18952618539333344, -0.39329496026039124, 0.1751602292060852, -0.014452378265559673, -0.03675617277622223, -0.184937983751297, 0.470707505941391, 0.4956153631210327, 0.10547063499689102, -0.37547147274017334, -0.0483219139277935, -0.556705117225647, 0.3170522451400757, -0.31943219900131226, 0.052779365330934525, 0.36200058460235596, 