{"log_std": [1.333425521850586, 0.35316160321235657], "mlp_extractor.policy_net.0.weight": [[-0.056972701102495193, -0.2288251370191574, 0.1091214045882225, -0.025657588616013527, -0.07152239978313446, 0.18707223236560822, -0.3023243248462677, 0.4412565529346466, -0.15751086175441742, -0.19387026131153107, -0.004443788435310125, 0.26863452792167664, 0.0782967060804367, 0.08947306126356125, -0.46899110078811646, 0.583101212978363, 0.12943419814109802], [0.30763518810272217, 0.11158982664346695, -0.0583316870033741, -0.07412108778953552, -0.022695017978549004, 0.4377094507217407, -0.3346318006515503, -0.12616875767707825, -0.13228899240493774, -0.002297842875123024, -0.13300077617168427, 0.3444938361644745, -0.3135829269886017, -0.4118312895298004, 0.10235609114170074, -0.17106494307518005, -0.29460009932518005], [0.1142193153500557, 0.38005906343460083, 0.20199339091777802, 0.12125181406736374, 0.24518264830112457, -0.11619291454553604, -0.12907077372074127, -0.43490085005760193, -0.396992564201355, -0.17403219640254974, -0.29087772965431213, -0.21863619983196259, 0.4984743595123291, -0.4531266689300537, 0.04326479136943817, -0.3284085690975189, -0.02297385409474373], [-0.17414440214633942, 0.3869533836841583, -0.1838952898979187, 0.33519622683525085, -0.2828030586242676, 0.08054511994123459, -0.34466826915740967, -0.09135094285011292, 0.21991951763629913, 0.02070643939077854, -0.07572145760059357, 0.049691203981637955, -0.13410720229148865, -0.0749644860625267, -0.39464476704597473, 0.29971179366111755, -0.3477446138858795], [0.2793808579444885, 0.2950853705406189, 0.4558751881122589, 0.5551742911338806, 0.0516713410615921, 0.09473762661218643, -0.11677268892526627, -0.18028701841831207, -0.30383744835853577, -0.1883530467748642, -0.04619321972131729, -0.36470088362693787, 0.26500043272972107, 0.40732717514038086, 0.11915040016174316, 0.07853526622056961, -0.09973809123039246], [-0.22575566172599792, 0.2137290984392166, -0.19574536383152008, 0.16360068321228027, 0.3281645178794861, 0.1558208167552948, -0.5457095503807068, 0.19554182887077332, -0.2470393031835556, 0.047760266810655594, -0.13750383257865906, 0.16366833448410034, 3.6365381674841046e-06, -0.2535369396209717, -0.3960324823856354, 0.15089987218379974, -0.04672744870185852], [0.09083906561136246, 0.43430593609809875, -0.1015472561120987, -0.576932966709137, -0.09076676517724991, 0.05337982624769211, 0.344348281621933, 0.3907410502433777, 0.28945550322532654, 0.2751059830188751, -0.1135728508234024, 0.2234075516462326, -0.26489973068237305, -1.1993544101715088, -0.11607393622398376, 0.3032251000404358, -0.03924240916967392], [0.18982510268688202, 0.0020466281566768885, 0.4679568111896515, 0.007106158882379532, -0.1980496644973755, 0.3226108253002167, 0.35440385341644287, 0.29832375049591064, 0.09637725353240967, 0.40798693895339966, 0.34306567907333374, 0.4843340218067169, 0.5147541165351868, 0.004932862240821123, 0.09516019374132156, -0.0057434942573308945, 0.22958925366401672], [-0.10611940175294876, -0.4041253924369812, -0.013654214330017567, -0.15835484862327576, 0.36339402198791504, -0.2115437239408493, 0.6125906109809875, -0.37419039011001587, 0.06294974684715271, -0.07710886001586914, 0.16132336854934692, 0.40650078654289246, 0.3938502371311188, 0.17594000697135925, 0.3870125412940979, -0.34047648310661316, 0.00716837402433157], [-0.08235464990139008, -0.16611313819885254, 0.45685020089149475, 0.280030757188797, 0.05652119964361191, 0.0860530287027359, 0.3238990008831024, 0.19319072365760803, -0.053020600229501724, -0.01890629343688488, 0.20665384829044342, 0.08198179304599762, 1.0851764678955078, 0.2527030408382416, 0.20746943354606628, -0.06353385001420975, -0.10997596383094788], [0.002375940792262554, -0.3498859405517578, -0.32700884342193604, 0.26671281456947327, -0.016574792563915253, -0.1088654100894928, -0.3176790177822113, -0.3024090826511383, 0.18652363121509552, -0.0034992878790944815, 0.24427300691604614, -0.28333085775375366, -0.24781709909439087, 0.4839884638786316, -0.042496342211961746, 0.043636128306388855, -0.019299538806080818], [-0.010468726977705956, -0.32229796051979065, 0.2582986354827881, -0.0005117434775456786, -0.11818458884954453, -0.05520915985107422, -0.08522253483533859, 0.16367317736148834, -0.13632968068122864, 0.10698795318603516, 0.4361749291419983, -0.03767670691013336, 0.19536654651165009, 0.29141369462013245, -0.00731256976723671, -0.13954254984855652, -0.13037797808647156], [0.5569249391555786, 0.01797238364815712, 0.06999234110116959, 0.10890214890241623, -0.10450108349323273, -0.04214945062994957, -0.009423494338989258, -0.06584517657756805, 0.1822708696126938, -0.03840765357017517, 0.10098192095756531, 0.1087426170706749, -0.11534038931131363, 0.05740180239081383, 0.037906669080257416, -0.0592946819961071, 0.16490605473518372], [0.21047233045101166, -0.25970375537872314, -0.07732957601547241, -0.14310745894908905, -0.08153543621301651, -0.3647354543209076, -0.3172568082809448, -0.4835527837276459, 0.023083897307515144, 0.03843342885375023, 0.23009023070335388, -0.17784059047698975, -0.12518152594566345, 0.3080022931098938, -0.09122124314308167, -0.3904084861278534, -0.022113563492894173], [0.15791918337345123, 0.6461557745933533, 0.07270807027816772, 0.06998524069786072, 0.010960661806166172, 0.23875609040260315, 0.08767351508140564, -0.017084943130612373, 0.0679766908288002, 0.027416273951530457, -0.218366801738739, -0.23205715417861938, 0.0047722565941512585, -0.37553322315216064, 0.17516642808914185, -0.031557656824588776, -0.05437903478741646], [-0.17006337642669678, 0.18723894655704498, -0.21156056225299835, 0.023862458765506744, -0.10427727550268173, -0.10322153568267822, -0.5574498772621155, -0.07548274099826813, 0.2265346795320511, 0.5585161447525024, -0.18282432854175568, -0.1845771223306656, 0.06480951607227325, -0.14165303111076355, -0.7596292495727539, -0.27496618032455444, 0.2922872304916382], [-0.13520987331867218, 0.0721830278635025, 0.5151276588439941, 0.09816627204418182, -0.010163958184421062, 0.03106454201042652, 0.3555440306663513, 0.18394410610198975, 0.06282439827919006, -0.03814870864152908, 0.049776360392570496, 0.13864098489284515, 1.1719251871109009, 0.10195887833833694, 0.10034409165382385, 0.044088177382946014, -0.1774180680513382], [0.20503385365009308, -0.011276992037892342, 0.06714115291833878, -0.3145461976528168, -0.1383732706308365, 0.0011043453123420477, -0.3571796119213104, 0.03084864839911461, 0.3615070581436157, 0.346273273229599, -0.026421288028359413, -0.34651005268096924, -0.13083136081695557, -0.35102424025535583, -0.3022376298904419, -0.47008034586906433, 0.25586745142936707], [0.3717558979988098, -0.2892560362815857, 0.21560698747634888, -0.052665866911411285, 0.03778253495693207, 0.05961113050580025, 0.18188077211380005, -0.3544730246067047, 0.12169204652309418, -0.12009986490011215, 0.13281577825546265, -0.20713381469249725, -0.43597400188446045, 0.28324952721595764, 0.11908676475286484, 0.26721587777137756, 0.2295861840248108], [0.06330277770757675, -0.08697184920310974, 0.3088178038597107, 0.28288620710372925, -0.13192622363567352, 0.06011410057544708, 0.10928777605295181, 0.013866011053323746, 0.11536885052919388, 0.17079369723796844, -0.13349388539791107, 0.03482234850525856, 0.20072486996650696, 0.41340959072113037, 0.1586409956216812, 0.037871234118938446, 0.3970348834991455], [-0.04191213846206665, 0.12061569094657898, -0.17007474601268768, -0.17278648912906647, 0.2854021191596985, 0.2146734744310379, 0.5444844365119934, 0.7416577339172363, 0.0020023658871650696, 0.2974908649921417, -0.1272318959236145, -0.027257632464170456, -0.11788634955883026, -0.2463841289281845, 0.29961076378822327, 0.3960810601711273, -0.00992871169000864], [-0.06976449489593506, -0.07442717999219894, 0.3225206136703491, -0.01926102489233017, -0.017970595508813858, 0.04262080416083336, -0.5117545127868652, 0.017497988417744637, -0.3164592683315277, 0.026375656947493553, -0.27135470509529114, -0.3211832046508789, -0.02820880524814129, 0.12473782896995544, -0.022553931921720505, 0.04271190986037254, -0.10159225016832352], [-0.5955051183700562, -0.3171098828315735, 0.313030481338501, 0.3739277422428131, 0.007165438029915094, 0.01752529665827751, 0.46297159790992737, 0.15524373948574066, 0.2217274010181427, 0.20153479278087616, -0.29133695363998413, 0.2996097803115845, 0.21318821609020233, 0.2269846349954605, 0.31148838996887207, 0.0012368481839075685, -0.2550366222858429], [-0.029460899531841278, 0.38501855731010437, 0.1635640561580658, 0.14402826130390167, 0.224645733833313, 0.32973551750183105, -0.10980121046304703, 0.06421861797571182, -0.16999255120754242, -0.45067280530929565, 0.36732712388038635, -0.4175402522087097, 0.18525272607803345, 0.21693851053714752, -0.09256334602832794, 0.32917773723602295, -0.2112223505973816], [0.2845039665699005, 0.07120306044816971, 0.08656888455152512, -0.291277140378952, -0.19969812035560608, 0.05006213113665581, 0.059798773378133774, 0.07559073716402054, -0.04294077306985855, -0.1704263687133789, -0.11165516078472137, 0.33239036798477173, -0.02417069859802723, -0.4343157410621643, -0.1793731302022934, 0.3062264025211334, 0.10608337074518204], [-0.20065796375274658, -0.03870769590139389, -0.22859396040439606, 0.3052269518375397, 0.15032422542572021, 0.03408678248524666, -0.2520333528518677, -0.21733000874519348, 0.04733793064951897, -0.26786187291145325, -0.0037819345016032457, -0.07693400233983994, -0.3840135931968689, 0.08281323313713074, -0.37067919969558716, -0.11636435985565186, 0.08359711617231369], [0.39227592945098877, 0.29164576530456543, 0.2438804656267166, -0.03277383744716644, 0.056606460362672806, 0.3368314802646637, -0.3153265118598938, 0.08424267172813416, -0.20901894569396973, 0.1827441304922104, -0.3073064088821411, -0.29273486137390137, -0.02735607698559761, -0.3407323658466339, 0.25548794865608215, -0.0039283582009375095, -0.0177933219820261], [0.3965983986854553, -0.30350199341773987, 0.23806697130203247, 5.684779171133414e-05, -0.054962415248155594, -0.028084229677915573, 0.20344120264053345, 0.018985634669661522, 0.012314742431044579, 0.01797768659889698, 0.1432572305202484, 0.27095285058021545, -0.06162262707948685, -0.10975062102079391, 0.200270876288414, -0.12613579630851746, 0.03872738778591156], [0.20691722631454468, -0.15071021020412445, -0.08213914930820465, 0.07183389365673065, -0.0974109023809433, 0.2391907423734665, -0.6745561957359314, 0.23364730179309845, -0.5116547346115112, 0.07072000205516815, 0.04907223582267761, -0.13741743564605713, -0.4945531189441681, 0.12118055671453476, -0.15418541431427002, 0.12903988361358643, -0.4669272005558014], [-0.29083436727523804, -0.1933014839887619, -0.2560150623321533, 0.1713610738515854, 0.0816982090473175, -0.4068553149700165, -0.25024688243865967, 0.3568885922431946, -0.4261159300804138, -0.25518888235092163, 0.08759178966283798, 0.06915705651044846, -0.27519530057907104, 0.06851658970117569, 0.054426904767751694, 0.5253688097000122, 0.005373707506805658], [-0.03328767791390419, 0.11615246534347534, -0.06754694133996964, 0.18673361837863922, -0.2351582944393158, 0.2177405208349228, 0.00907809566706419, 0.14930130541324615, -0.34190481901168823, 0.053815748542547226, 0.31097060441970825, 0.2994433045387268, 0.1663922667503357, 0.26898193359375, 0.22532086074352264, 0.1720382273197174, 0.0003417546395212412], [0.3310706913471222, -0.2684246599674225, 0.03170338645577431, 0.10010339319705963, 0.027263972908258438, -0.22978295385837555, -0.16274894773960114, -0.37459877133369446, -0.27591344714164734, -0.009877296164631844, 0.06598150730133057, 0.19076281785964966, -0.19292163848876953, 0.23263326287269592, 0.07509856671094894, -0.11360162496566772, 0.03413035720586777], [-0.23798632621765137, 0.08071385324001312, -0.4520156681537628, 0.03683716803789139, 0.1011083573102951, 0.10800370573997498, 0.2639632821083069, -0.16532428562641144, 0.3660050928592682, -0.024340037256479263, 0.21586380898952484, 0.24603307247161865, -0.1580079346895218, -0.19272692501544952, -0.13755479454994202, 0.08684708178043365, -0.146320179104805], [-0.0033094636164605618, -0.1535222977399826, -0.5803545713424683, -0.12121287733316422, -0.005042654927819967, -0.1463582068681717, 0.4583739638328552, 0.04798252880573273, -0.07668769359588623, 0.10632633417844772, 0.21830421686172485, -0.12386579811573029, -0.01397259347140789, -0.03310360014438629, -0.06284784525632858, 0.0301040168851614, 0.26359322667121887], [-0.030052829533815384, -0.05599408596754074, -0.24021880328655243, -0.167491152882576, 0.23004835844039917, 0.33323171734809875, 0.13480697572231293, 0.530420184135437, 0.10225320607423782, 0.25211092829704285, 0.0817144513130188, 0.21362759172916412, -0.1446472853422165, -0.359129399061203, 0.43441498279571533, 0.3375757038593292, -0.20214012265205383], [-0.0833103284239769, -0.3579772710800171, 0.41540467739105225, 0.03565935418009758, -0.25323837995529175, 0.13127973675727844, -0.14345023036003113, 0.09866920858621597, -0.16790229082107544, 0.06643830239772797, 0.17967163026332855, 0.6056601405143738, 0.6620279550552368, 0.041727591305971146, 0.05655398219823837, 0.17679619789123535, -0.17449848353862762], [-0.24452616274356842, 0.15747731924057007, -0.37815332412719727, -0.057175494730472565, 0.0749199166893959, 0.14398878812789917, 0.19103467464447021, -0.25000354647636414, 0.003084760159254074, 0.12635087966918945, 0.25185948610305786, -0.0948122963309288, -0.28486397862434387, -0.12246053665876389, -0.09191177040338516, -0.20410355925559998, 0.2683962881565094], [0.22843815386295319, -0.45314404368400574, 0.05496025085449219, 0.21791782975196838, -0.16429288685321808, 0.41489535570144653, 0.370989590883255, -0.19260090589523315, 0.40439727902412415, 0.07708735764026642, 0.40540841221809387, 0.20738539099693298, 0.10850098729133606, 0.33265870809555054, 0.2715964615345001, -0.35914164781570435, 0.2774365246295929], [0.18077340722084045, 0.3426320552825928, -0.03945121541619301, -0.5901108980178833, 0.019559038802981377, -0.23468630015850067, 0.11937058717012405, 0.4852225184440613, -0.2963845729827881, 0.2116781324148178, 0.11820462346076965, 0.2104666382074356, -0.2806805372238159, -0.9675636887550354, -0.038833171129226685, 0.32457229495048523, 0.08891987800598145], [0.3745986521244049, 0.46124786138534546, -0.04195529222488403, -0.16780424118041992, 0.11820121854543686, 0.36071082949638367, 0.28836026787757874, -0.15808646380901337, 0.04690837115049362, -0.2596574127674103, -0.33308836817741394, 0.13577963411808014, -0.26171696186065674, -0.36854076385498047, 0.328556627035141, 0.13298586010932922, 0.026900481432676315], [-0.21373113989830017, -0.09257818013429642, 0.09446928650140762, -0.13208557665348053, -0.1716350018978119, -0.1804734468460083, 0.09924814850091934, -0.34237921237945557, 0.02059287205338478, -0.3233979344367981, 0.34147223830223083, -0.3211115300655365, 0.37374207377433777, 0.4614478051662445, 0.2661989629268646, 0.23298746347427368, -0.05354304984211922], [0.14665673673152924, -0.2680892050266266, -0.37058383226394653, 0.39012062549591064, -0.03635408356785774, -0.09706781804561615, -0.3583577871322632, 0.0691298097372055, -0.19744868576526642, 0.4449455142021179, 0.04064834117889404, 0.07344476133584976, -0.16792002320289612, 0.3505147695541382, -0.05830523371696472, -0.08006677776575089, 0.24640396237373352], [0.3032795190811157, -0.4215557277202606, 0.09659544378519058, -0.1291128545999527, 0.12360072135925293, -0.24543076753616333, 0.3951054513454437, 0.04966623708605766, -0.07099682837724686, 0.21807774901390076, -0.47454342246055603, 0.08151641488075256, 0.012211169116199017, 0.05153645947575569, 0.16290049254894257, -0.05299253761768341, -0.08142241835594177], [-0.040210381150245667, 0.020339515060186386, -0.6095433831214905, -0.22002391517162323, -0.009063146077096462, -0.0031927337404340506, 0.04400832578539848, 0.3787885308265686, 0.3181092441082001, 0.26626235246658325, -0.05245421081781387, 0.09255316853523254, -0.221497043967247, -0.2578319311141968, -0.10531407594680786, -0.09656540304422379, -0.004457645583897829], [0.3379454016685486, 0.1020764410495758, -0.36258262395858765, -0.03892076015472412, -0.045875199139118195, 0.23663410544395447, -0.3329046368598938, 0.15008579194545746, -0.08948034793138504, 0.23837605118751526, 0.059890247881412506, 0.273470401763916, -0.7516348361968994, -0.04389970377087593, -0.22334210574626923, -0.3755651116371155, -0.02562735788524151], [-0.030741458758711815, -0.2221062332391739, 0.17887601256370544, 0.24572859704494476, -0.1102573573589325, -0.06739586591720581, 0.1401880383491516, -0.14014680683612823, -0.09217104315757751, -0.09880474209785461, -0.027191706001758575, -0.021274462342262268, 0.4748086631298065, 0.4968585968017578, 0.19400522112846375, -0.10305482149124146, -0.08836083859205246], [-0.21144820749759674, 0.40887123346328735, 0.46644216775894165, -0.47688591480255127, -0.11449366062879562, -0.03471071273088455, 0.2650454640388489, 0.24354267120361328, 0.2157295197248459, -0.02059459313750267, -0.12066621333360672, 0.1649451106786728, 0.6424189209938049, -0.8409071564674377, 0.07631240040063858, 0.3141009509563446, 0.03792732208967209], [0.20742715895175934, 0.430732786655426, -0.34308668971061707, -0.42139434814453125, 0.04140705242753029, 0.0046363999135792255, 0.09504494816064835, 0.7945189476013184, 0.1946272850036621, 0.29374557733535767, 0.052325353026390076, 0.273124635219574, -0.31388917565345764, -1.09037446975708, 0.060244228690862656, 0.12777549028396606, -0.09092462807893753], [0.06813941895961761, -0.39120733737945557, 0.11959580332040787, 0.004664653446525335, -0.04053528979420662, -0.10384313762187958, 0.011474678292870522, 0.020080476999282837, -0.2523985803127289, 0.17093701660633087, 0.04397761449217796, 0.2488652914762497, 0.06619244813919067, 0.4144168794155121, 0.2709583640098572, -0.024219920858740807, 0.047203198075294495], [-0.29063960909843445, -0.15014179050922394, -0.29267919063568115, -0.15349838137626648, 0.19747991859912872, -0.38535091280937195, -0.004540399182587862, -0.4567848742008209, -0.002059285994619131, 0.04919103533029556, 0.43394389748573303, -0.11086326837539673, -0.08207234740257263, 0.34813687205314636, -0.04205341637134552, -0.23381854593753815, -0.1342969387769699], [-0.046452850103378296, -0.3169719874858856, 0.2131085842847824, -0.07696495950222015, -0.18124441802501678, -0.17997394502162933, -0.24992279708385468, 0.26788410544395447, 0.026278316974639893, -0.1271417886018753, -0.04024643078446388, -0.20765069127082825, 0.40151187777519226, 0.03504699841141701, -0.013245628215372562, 0.35678747296333313, -0.11256743967533112], [-0.26248374581336975, -0.05385499820113182, -0.3003665804862976, 0.1344332993030548, 0.28543809056282043, -0.45027244091033936, -0.398538202047348, -0.3051144480705261, -0.181581512093544, -0.14689776301383972, -0.2903229296207428, -0.3809276521205902, -0.07132819294929504, -0.1431201547384262, -0.28196752071380615, 0.1358974426984787, -0.2157856822013855], [0.03442602604627609, 0.2653251886367798, 0.04226567968726158, 0.4990518093109131, 0.11185935884714127, 0.1427370011806488, -0.24882203340530396, 0.14106668531894684, -0.3802967667579651, -0.04506724327802658, 0.0839676782488823, -0.0079646622762084, 0.14731724560260773, 0.18363751471042633, -0.06302868574857712, 0.14956578612327576, 0.17793205380439758], [-0.117094025015831, -0.13744063675403595, -0.21890273690223694, 0.22599159181118011, 0.06654532998800278, 0.21009856462478638, 0.062420427799224854, -0.3167089521884918, -0.3284369707107544, -0.5314148664474487, 0.012901484034955502, -0.295877069234848, -0.09675329923629761, 0.48137882351875305, 0.12084812670946121, 0.10519328713417053, -0.041752032935619354], [-0.1672041267156601, -0.038517095148563385, -0.052854910492897034, -0.30345362424850464, -0.0384821742773056, -0.02133900858461857, -0.03100401721894741, 0.4472047686576843, -0.06865799427032471, 0.16388975083827972, -0.37649744749069214, 0.5783216953277588, 0.19774673879146576, -0.25136399269104004, -0.2663259506225586, 0.12404941767454147, 0.4373803734779358], [-0.32680344581604004, 0.2449265867471695, -0.5201575756072998, -0.27272576093673706, -0.08834917098283768, -0.003163625719025731, 0.0006647020927630365, 0.14327573776245117, 0.10265565663576126, 0.28583914041519165, 0.22747324407100677, 0.08080670237541199, 0.06489361077547073, -0.33055222034454346, 0.165275439620018, -0.2614244818687439, 0.2205878049135208], [-0.07697723805904388, 0.05784333124756813, 0.5284847617149353, -0.029918000102043152, 0.005301525350660086, 0.02935895323753357, 0.4348227083683014, 0.022737547755241394, 0.14270734786987305, 0.11673182249069214, -0.11641882359981537, 0.4866032004356384, 1.3842532634735107, 0.33613350987434387, 0.5211848616600037, 0.16121788322925568, -0.09331017732620239], [0.34522321820259094, 0.07668023556470871, 0.12702792882919312, 0.06951414793729782, 0.22783330082893372, 0.20859068632125854, -0.28630003333091736, 0.16959905624389648, 0.5320751070976257, 0.2972053289413452, 0.09339351207017899, 0.0495678186416626, 0.11616380512714386, 0.28555208444595337, -0.2939949631690979, -0.16575688123703003, 0.34990936517715454], [0.17688165605068207, -0.09521672129631042, -0.050222381949424744, 0.2959054708480835, 0.16231562197208405, 0.35715746879577637, -0.3719269633293152, 0.2936065196990967, -0.2699792981147766, 0.21690182387828827, -0.23527565598487854, -0.06990814954042435, 0.039308082312345505, 0.3210335671901703, -0.16114234924316406, 0.1650114804506302, 0.04725734889507294], [-0.3851466774940491, 0.032534729689359665, -0.3680388629436493, -0.17628921568393707, 0.14331379532814026, 0.02696399763226509, -0.15926755964756012, -0.11908157169818878, -0.17187383770942688, 0.12016409635543823, 0.21064631640911102, 0.0960492193698883, -0.16067729890346527, -0.35584568977355957, -0.051494576036930084, 0.09294874966144562, 0.3468279242515564], [-0.3369238078594208, 0.2830992341041565, -0.45621103048324585, -0.2847956120967865, -0.17692714929580688, 0.053801942616701126, 0.15391521155834198, 0.231851726770401, 0.07508920878171921, 0.19373881816864014, 0.22145086526870728, -0.03665420040488243, -0.005463356152176857, -0.46458062529563904, 0.22007687389850616, 0.055467404425144196, 0.03678647056221962], [0.07169253379106522, 0.030992500483989716, -0.09786821901798248, 0.028297018259763718, -0.12355964630842209, 0.4144083857536316, -0.17759905755519867, 0.2727107107639313, -0.5336256623268127, 0.134524405002594, -0.3932526111602783, 0.06314130872488022, -0.42041683197021484, 0.018490824848413467, 0.1323825716972351, 0.11625854671001434, 0.11622542887926102], [-0.03564446419477463, -0.1844121515750885, 0.3148239254951477, -0.2334410846233368, 0.21269945800304413, 0.5453266501426697, 0.15988010168075562, 0.5291740298271179, 0.022578498348593712, -0.013879493810236454, 0.02262553945183754, 0.21200604736804962, 0.2563970386981964, -0.14849284291267395, 0.05748523399233818, 0.16763357818126678, 0.3973013460636139], [-0.20723208785057068, 0.07477499544620514, -0.17858149111270905, -0.08057381212711334, -0.17752619087696075, 0.0060790833085775375, 0.07337982952594757, -0.8909639120101929, 0.5196298956871033, -0.08797113597393036, -0.6048775315284729, -0.5160961747169495, -0.2050965577363968, 0.1553572118282318, -0.31283390522003174, -0.4888799488544464, 0.24163122475147247], [0.04520799592137337, -0.21493111550807953, -0.07818020135164261, 0.4610055387020111, 0.007331738714128733, -0.055789679288864136, 0.23913301527500153, -0.17186583578586578, 0.22740884125232697, 0.07437043637037277, 0.13002407550811768, -0.030335690826177597, -0.06749513745307922, 0.7710413932800293, 0.15843349695205688, 0.0452471598982811, -0.1410522758960724], [0.3290567994117737, -0.3646261990070343, -0.08293261379003525, -0.2030651569366455, -0.006402626633644104, -0.01496938243508339, -0.12446008622646332, -0.14745241403579712, 0.15607549250125885, 0.44083601236343384, -0.01562601886689663, -0.2691875994205475, -0.404354065656662, -0.03155488520860672, -0.42097288370132446, -0.4320276975631714, -0.24701838195323944], [-0.04588202387094498, 0.3483046889305115, -0.035857487469911575, 0.22610259056091309, 0.1281743198633194, -0.22714005410671234, -0.05479191988706589, 0.11671401560306549, -0.019822916015982628, 0.2618594169616699, 0.0003235542681068182, -0.05109205096960068, -0.10946326702833176, -0.39893487095832825, 0.0960979238152504, -0.18024414777755737, 0.3770659863948822], [0.004991005174815655, -0.16688695549964905, 0.10810008645057678, 0.118618905544281, -0.293815016746521, 0.28948700428009033, -0.24662472307682037, 0.5141722559928894, -0.48903220891952515, 0.12269991636276245, -0.2837168574333191, -0.40323349833488464, 0.10977423191070557, 0.24770843982696533, 0.010355743579566479, 0.38817691802978516, -0.04438094049692154], [0.10555793344974518, -0.26802003383636475, 0.26381826400756836, -0.043518178164958954, 0.0728849396109581, -0.07351444661617279, 0.6063512563705444, -0.13548746705055237, 0.2116953283548355, 0.3425615429878235, -0.17718954384326935, 0.32195597887039185, 0.46305131912231445, 0.41280901432037354, 0.09064245969057083, -0.08435233682394028, 0.1392369270324707], [0.22524476051330566, 0.12199750542640686, -0.057056281715631485, 0.21262766420841217, 0.2209402471780777, 0.1830345094203949, 0.2613317370414734, -0.07339002937078476, -0.6717144250869751, 0.07007856667041779, -0.021790340542793274, -0.20913365483283997, 0.005912451539188623, 0.03312091901898384, 0.5420402884483337, -0.1667107492685318, 0.05957086756825447], [0.10595322400331497, 0.030569853261113167, 0.5127003788948059, 0.10234643518924713, -0.04213240370154381, 0.017026105895638466, 0.025561776012182236, -0.28665870428085327, 0.014258899725973606, -0.0191971343010664, -0.15903934836387634, -0.20382662117481232, 1.6324480772018433, 0.231286883354187, -0.03625814989209175, -0.004251259379088879, 0.16293416917324066], [-0.45131009817123413, 0.35573017597198486, -0.2921068072319031, 0.2269405722618103, 0.0009156244341284037, 0.3060814440250397, -0.29666033387184143, 0.15050138533115387, 0.02082199417054653, -0.48169219493865967, -0.07133959233760834, -0.04370426759123802, -0.3596537113189697, 0.22251753509044647, -0.3412518799304962, 0.401965469121933, -0.062355369329452515], [-0.2530398964881897, -0.0516304112970829, -0.3735024631023407, 0.05115172639489174, -0.062255941331386566, -0.06361044943332672, -0.1643037050962448, -0.8424971103668213, 0.14685803651809692, -0.19440077245235443, -0.2070005238056183, 0.0011971702333539724, -0.4632379412651062, -0.026390379294753075, -0.32316505908966064, -0.512346088886261, -0.07783477008342743], [0.46688756346702576, -0.26549509167671204, 0.20517103374004364, 0.021037282422184944, 0.11181429773569107, 0.1534300446510315, 0.10857969522476196, 0.02218921296298504, 0.012252971529960632, -0.051469720900058746, -0.001307429512962699, 0.03659449890255928, -0.23363478481769562, 0.3249536156654358, -0.07494751363992691, -0.3336866497993469, 0.25701969861984253], [0.21820561587810516, 0.42805352807044983, 0.3395974934101105, 0.21332427859306335, -0.11319461464881897, 0.2636835277080536, 0.21470312774181366, -0.26199212670326233, -0.331708163022995, -0.11471770703792572, -0.1612556427717209, -0.16118688881397247, -0.07418544590473175, -0.2981836199760437, 0.32169151306152344, 0.039045438170433044, 0.19735665619373322], [0.06476674228906631, 0.052394162863492966, 0.23515570163726807, -0.10890551656484604, -0.2962096929550171, 0.3438793122768402, 0.623489499092102, 0.008118147030472755, -0.17795073986053467, -0.007927687838673592, 0.04333190247416496, 0.3057398796081543, 0.2691171169281006, -0.5343450307846069, 0.3391854763031006, 0.08849988877773285, 0.029395027086138725], [-0.004029710777103901, -0.08710064738988876, -0.13946124911308289, -0.35869431495666504, 0.09004339575767517, -0.11144807189702988, 0.2145184874534607, 0.3276574909687042, -0.02639360912144184, 0.29328951239585876, 0.45100831985473633, 0.35176312923431396, 0.15029039978981018, -0.8630322217941284, 0.1599215716123581, -0.017137907445430756, 0.17447209358215332], [0.07779134809970856, 0.3202207684516907, 0.461570680141449, 0.014854506589472294, -0.10353036969900131, 0.1806715577840805, 0.3824045956134796, -0.4108506739139557, 0.10581343621015549, -0.06769242882728577, 0.011377300135791302, -0.23756705224514008, 0.21954084932804108, -0.6699286699295044, 0.056003596633672714, -0.3468147814273834, 0.04191616550087929], [0.07069608569145203, 0.2722897529602051, 0.03684858977794647, 0.07375913113355637, -0.07760439813137054, -0.21786324679851532, 0.17173530161380768, 0.21078480780124664, 0.19758829474449158, -0.18505801260471344, 0.17713455855846405, 0.06701363623142242, -0.14101196825504303, -0.10963872075080872, 0.09188658744096756, -0.3365660607814789, -0.1300293207168579], [0.062187712639570236, -0.17802897095680237, 0.38581007719039917, -0.09089401364326477, 0.19487611949443817, 0.10099291801452637, -0.05870642513036728, 0.1896374225616455, -0.06283965706825256, 0.11815382540225983, -0.03730028122663498, -0.0324033759534359, 1.0381114482879639, 0.11392342299222946, 0.21326851844787598, 0.1525813788175583, -0.21750053763389587], [-0.25526919960975647, 0.02819679118692875, -0.5321084260940552, -0.30527248978614807, 0.0052907150238752365, 0.0001534071925561875, -0.029904071241617203, 0.5364750623703003, 0.025416934862732887, -0.17385995388031006, 0.3274362087249756, 0.11200132966041565, -0.26599183678627014, -0.5336240530014038, -0.02503703348338604, 0.38616204261779785, 0.2527295649051666], [-0.16664326190948486, 0.2513413727283478, 0.23480600118637085, -0.34672313928604126, -0.15314853191375732, 0.012512891553342342, 0.23285751044750214, 0.6052983999252319, 0.17745065689086914, -4.539313886198215e-05, 0.026098541915416718, 0.34295058250427246, 0.8280822038650513, -0.8024499416351318, -0.0510304756462574, 0.09063800424337387, 0.05098271742463112], [-0.42213356494903564, -0.13864105939865112, 0.06800760328769684, 0.14216066896915436, 0.1393980085849762, -0.04653351381421089, -0.14510825276374817, -0.5105271339416504, -0.26802095770835876, -0.11878912150859833, -0.10402242839336395, -0.9575859308242798, 0.1268254518508911, 0.45665138959884644, 0.08254233002662659, -0.10755404829978943, -0.13766446709632874], [-0.28073233366012573, 0.42103850841522217, -0.3232448399066925, 0.018997598439455032, 0.08110217750072479, 0.002618675120174885, 0.19534452259540558, -0.35736238956451416, 0.5144376754760742, 0.31983914971351624, 0.01882770098745823, -0.14024847745895386, -0.33221423625946045, -0.0896683931350708, -0.1487792432308197, -0.353866845369339, 0.08128414303064346], [0.3763290345668793, 0.08633697032928467, -0.10883311182260513, -0.0007966100820340216, -0.28463461995124817, -0.053338635712862015, 0.06849808245897293, 0.0377933494746685, 0.11559830605983734, 0.18792159855365753, 0.031128138303756714, 0.08491687476634979, -0.3569628596305847, -0.16480965912342072, -0.022613128647208214, -0.15802320837974548, 0.031263139098882675], [0.24601635336875916, 0.1441812664270401, 0.2080416977405548, -0.21694602072238922, 0.1967761069536209, 0.4601149559020996, 0.23199672996997833, -0.07541392743587494, 0.5198327898979187, -0.25502562522888184, 0.4631519019603729, 0.3518823981285095, -0.1096462681889534, -0.280743807554245, 0.14965610206127167, 0.2197432667016983, 0.17087465524673462], [-0.025786999613046646, -0.04863271489739418, -0.040954750031232834, -0.2675706148147583, -0.20210207998752594, 0.39168256521224976, 0.4657225012779236, 0.37033703923225403, 0.013829580508172512, -0.43760961294174194, -0.4415632486343384, 0.0446653738617897, 0.015782350674271584, -0.10352285951375961, 0.18108662962913513, 0.3352518379688263, -0.2855934500694275], [0.14080417156219482, -0.2099718600511551, 0.019002238288521767, 0.2617358863353729, -0.045794527977705, -0.23585441708564758, -0.03339158371090889, -0.3070403039455414, 0.14217618107795715, -0.09704433381557465, 0.15145957469940186, 0.08913314342498779, -0.1746263951063156, 0.6455643773078918, 0.07434891164302826, -0.1510700285434723, 0.17751674354076385], [-0.15398022532463074, -0.0120624965056777, 0.6804000735282898, 0.1548536717891693, 0.04875930771231651, -0.019363414496183395, -0.013961919583380222, -0.237777978181839, 0.09616942703723907, -0.13714776933193207, -0.1704971045255661, -0.4222660958766937, 1.2621442079544067, 0.27076709270477295, 0.20909763872623444, -0.22007131576538086, -0.11199551075696945], [0.16092267632484436, 0.3819831311702728, -0.08090556412935257, -0.11879116296768188, 0.15437555313110352, -0.3666912615299225, 0.5150600671768188, 0.0594484768807888, -0.14301759004592896, -0.3073565363883972, -0.058816585689783096, -0.550667405128479, 0.2510499954223633, -0.31887614727020264, 0.6488290429115295, 0.3364325761795044, -0.019105855375528336], [0.45654165744781494, 0.015542201697826385, -0.17151421308517456, -0.4670514762401581, 0.21619603037834167, -0.13774803280830383, 0.5184800028800964, 0.38916608691215515, -0.2517238259315491, -0.008934148587286472, -0.13167867064476013, 0.31037968397140503, -0.4810895323753357, -0.3754599392414093, 0.3778422176837921, 0.20722340047359467, -0.08223751932382584], [-0.0015616628807038069, 0.015148141421377659, -0.131446972489357, -0.022327382117509842, -0.10086571425199509, -0.20984897017478943, -0.046856384724378586, -0.45850417017936707, -0.1020527333021164, -0.4084448516368866, 0.12189898639917374, -0.4022189676761627, -0.2430042326450348, 0.14468184113502502, 0.11727658659219742, 0.08799787610769272, 0.40124019980430603], [-0.08031845837831497, 0.09409280866384506, 0.011815305799245834, 0.40036097168922424, -0.23860163986682892, 0.01463787630200386, 0.4683593809604645, 0.1781594455242157, 0.1852385550737381, -0.026279466226696968, 0.15281036496162415, -0.21252767741680145, 0.026268575340509415, 0.23758885264396667, -0.055896565318107605, -0.05088239163160324, -0.01983014866709709], [-0.3722591996192932, -0.11660359054803848, -0.3589630722999573, 0.11455485969781876, 0.19513501226902008, 0.2501317262649536, -0.548495352268219, -0.1611078530550003, -0.02864053286612034, -0.07025675475597382, -0.5260502696037292, 0.6584106087684631, 0.007702902890741825, -0.09460436552762985, -0.09828214347362518, 0.05022277683019638, 0.090211883187294], [-0.3269256353378296, 0.27309539914131165, -0.44651761651039124, -0.12122273445129395, 0.19522976875305176, -0.17828866839408875, -0.39491280913352966, -0.1263085901737213, -0.33239635825157166, 0.20713502168655396, 0.0636361837387085, -0.2248573899269104, -0.0400802306830883, -0.051423534750938416, -0.2681402862071991, 0.006749661639332771, 0.18902449309825897], [-0.2464916855096817, -0.2511296570301056, -0.04613145813345909, -0.21886418759822845, 0.07207134366035461, 0.08036351203918457, -0.07513491064310074, 0.1513264775276184, 0.770729660987854, 0.06915488839149475, 0.29940372705459595, 0.315500944852829, -0.1318279355764389, 0.061744268983602524, -0.5472656488418579, 0.15806454420089722, -0.16666735708713531], [0.35605886578559875, -0.06850335747003555, -0.1762785017490387, -0.11748772859573364, -0.22832655906677246, 0.3025883734226227, -0.24589700996875763, -0.16471178829669952, 0.08088473975658417, 0.1509767770767212, 0.0871771052479744, 0.4099891781806946, -0.20991942286491394, -0.011559737846255302, -0.21114866435527802, -0.20985755324363708, 0.07814808934926987], [0.02216310426592827, -0.2525516152381897, 0.4880945086479187, 0.1258014440536499, 0.2373453676700592, 0.08673122525215149, 0.5164053440093994, 0.1004704013466835, -0.21598586440086365, 0.06408949941396713, 0.42635461688041687, 0.4014674425125122, 0.7514200210571289, 0.37521377205848694, 0.2741485834121704, -0.020276401191949844, -0.12164440006017685], [0.2095448076725006, 0.07001795619726181, -0.014321460388600826, 0.036632467061281204, -0.0977519154548645, -0.06978940218687057, 0.43640783429145813, 0.052873775362968445, 0.4708541929721832, -0.43614450097084045, 0.07344908267259598, 0.4822594225406647, -0.11909785866737366, -0.15401926636695862, 0.11597640067338943, 0.45811426639556885, 0.14821910858154297], [-0.37903735041618347, 0.1898026466369629, -0.3214566111564636, -0.007357950322329998, 0.12087442725896835, -0.05674680322408676, -0.42247068881988525, 0.2519753575325012, 0.2693948447704315, -0.013304597698152065, 0.34713035821914673, 0.060793910175561905, 0.15070559084415436, -0.2690730392932892, -0.393322229385376, 0.2047577202320099, 0.17826886475086212], [-0.11830659210681915, 0.09765288978815079, -0.17309008538722992, 0.024125639349222183, -0.120052769780159, 0.24142427742481232, 0.5980270504951477, 0.25442472100257874, 0.16871972382068634, -0.0360921174287796, 0.18578293919563293, -0.40382540225982666, 0.08710047602653503, 0.044898636639118195, 0.2879020869731903, -0.02075638622045517, -0.43216338753700256], [0.01968258060514927, 0.10468539595603943, -0.5508091449737549, 0.33270859718322754, -0.008563423529267311, 0.06363502889871597, 0.05491574481129646, -0.19375266134738922, 0.3660872280597687, 0.2568843364715576, 0.1763012707233429, -0.3219527304172516, -0.050411928445100784, 0.023369677364826202, -0.3231085538864136, -0.07838550209999084, -0.02039070799946785], [-0.16665944457054138, 0.3364635705947876, 0.3473449945449829, -0.15975169837474823, -0.17734675109386444, 0.0670044869184494, 0.21626053750514984, 0.14415954053401947, 0.08605354279279709, 0.12699204683303833, 0.2745124399662018, 0.43067246675491333, 0.4415818750858307, -0.8186568021774292, 0.11048787087202072, -0.24263250827789307, -0.0895850881934166], [0.24121606349945068, -0.07435615360736847, 0.31026244163513184, -0.13674499094486237, -0.1831117421388626, -0.46143025159835815, -0.08054230362176895, 0.5002915859222412, -0.13760998845100403, -0.2537457048892975, -0.09664863348007202, -0.13520848751068115, 0.03394381329417229, -0.24951395392417908, 0.0987999439239502, 0.18414084613323212, -0.229344442486763], [-0.07541463524103165, 0.11426340788602829, 0.6236847639083862, -0.09138008952140808, -0.041610363870859146, 0.045920033007860184, 0.40936827659606934, 0.17700615525245667, -0.013743429444730282, 0.11502833664417267, -0.13645489513874054, 0.2736935317516327, 1.5784541368484497, 0.07305961102247238, 0.04680759087204933, -0.02071722410619259, 0.07686080038547516], [-0.1201077476143837, 0.319902628660202, 0.25700244307518005, -0.11200311779975891, -0.055187489837408066, 0.18742188811302185, 0.24747489392757416, 0.015862945467233658, -0.2816409766674042, 0.18467816710472107, 0.4109616279602051, 0.03532771021127701, 0.3086059093475342, -0.5999548435211182, 0.2678641080856323, 0.005245136562734842, -0.09889087080955505], [-0.2755124270915985, 0.10088726878166199, -0.27759626507759094, 0.2173849642276764, -0.16867002844810486, -0.03485051915049553, -0.16793254017829895, -0.2012760192155838, 0.18966877460479736, -0.15404054522514343, 0.34720301628112793, -0.3885852098464966, -0.23403789103031158, 0.11704754084348679, -0.36303991079330444, -0.25050610303878784, -0.1925271451473236], [0.26841792464256287, 0.0050097317434847355, -0.2819477319717407, -0.13414666056632996, 0.017035139724612236, 0.12063541263341904, -0.3896946907043457, 0.05688352882862091, -0.2856581211090088, 0.4441571533679962, 0.33112552762031555, 0.24930517375469208, -0.2238955944776535, -0.25289082527160645, -0.1689511239528656, -0.20574194192886353, -0.13321581482887268], [0.19442036747932434, -0.5362081527709961, 0.13995197415351868, -0.3076997399330139, 0.000556221988517791, -0.18431881070137024, 0.1593313217163086, -0.07009562104940414, -0.033691566437482834, 0.13867799937725067, -0.4645724296569824, 0.2381627857685089, -0.22230446338653564, 0.4620935618877411, 0.05852801352739334, -0.1396416425704956, 0.23911158740520477], [0.18114648759365082, 0.2080078423023224, -0.146831214427948, 0.12380564212799072, 0.20562879741191864, 0.26030588150024414, -0.1201150119304657, 0.2838006913661957, 0.06064010038971901, 0.32738518714904785, -0.1058802381157875, -0.053442589938640594, -0.40916141867637634, -0.20094254612922668, 0.28536495566368103, -0.2054814249277115, 0.14734753966331482], [-0.32544630765914917, 0.5090848207473755, 0.22543422877788544, -0.190744087100029, -0.3439696133136749, -0.05662158504128456, -0.09085772186517715, -0.25615546107292175, 0.1907215565443039, 0.057347994297742844, -0.026813378557562828, -0.1349433809518814, 0.285031259059906, -0.16265855729579926, -0.5656823515892029, -0.23419350385665894, 0.04245571792125702], [0.1254495233297348, 0.2542538642883301, 0.2026098519563675, 0.24026133120059967, 0.09585098177194595, 0.0370367094874382, -0.5412642955780029, 0.15811219811439514, -0.16751404106616974, -0.05366770178079605, 0.10761541873216629, -0.11357101798057556, -0.04933718591928482, 0.1904437243938446, -0.19899946451187134, 0.07851714640855789, 0.31976985931396484], [0.2254714071750641, -0.5579743981361389, 0.18255235254764557, 0.021792007610201836, -0.06031129136681557, -0.14014528691768646, 0.007414742838591337, -0.049526020884513855, -0.17797555029392242, -0.20120589435100555, 0.07388515770435333, 0.5177041292190552, 0.2012915313243866, 0.7699131965637207, -0.1757972240447998, 0.2295101433992386, -0.27833375334739685], [0.20637723803520203, -0.29124197363853455, -0.005915037356317043, 0.1521294116973877, 0.028702683746814728, -0.13940797746181488, 0.20248861610889435, -0.10162150114774704, 0.4025915265083313, -0.11652958393096924, -0.0550711564719677, 0.3563274145126343, -0.12762778997421265, 0.6665277481079102, -0.009907559491693974, -0.14372393488883972, 0.35251685976982117], [-0.15520945191383362, -0.33873704075813293, -0.10807157307863235, -0.29703640937805176, -0.13094930350780487, -0.28390365839004517, 0.5686296224594116, -0.29726535081863403, 0.4492966830730438, -0.1343732476234436, 0.11356723308563232, -0.1296517699956894, -0.036609575152397156, 0.18573512136936188, 0.04396049305796623, 0.1566719114780426, 0.16940587759017944], [0.33219245076179504, -0.1933499276638031, -0.200911745429039, -0.0847952589392662, -0.057331591844558716, -0.10308099538087845, -0.5106627941131592, -0.20257389545440674, -0.23419222235679626, 0.3103918135166168, -0.01187259890139103, 0.24249127507209778, -0.3635801076889038, 0.19432877004146576, -0.28157761693000793, -0.31701305508613586, -0.2799481451511383], [-0.04013891890645027, 0.18655455112457275, 0.4578930139541626, -0.2413070648908615, 0.005958343856036663, -0.05110595002770424, -0.23211395740509033, -0.08985269069671631, -0.20394381880760193, -0.10423476994037628, 0.30851855874061584, 0.28019729256629944, 0.9490109086036682, -0.5410031676292419, 0.3887469470500946, 0.02034037373960018, 0.06423966586589813], [-0.17999103665351868, -0.26264673471450806, 0.07530543208122253, -0.4895135462284088, -0.11004173010587692, -0.2870533764362335, 0.005182864144444466, -0.02700091525912285, 0.03803299739956856, 0.02549026906490326, -0.277263343334198, -0.037571340799331665, 0.2706124484539032, -0.27083879709243774, 0.20299172401428223, -0.08500868827104568, -0.17419059574604034], [-0.18227852880954742, 0.3368057608604431, -0.19186274707317352, 0.08984247595071793, -0.18405462801456451, -0.48275625705718994, -0.09543982148170471, -0.48463428020477295, -0.0007969413418322802, -0.2372061014175415, -0.37983468174934387, -0.3275142014026642, -0.18266436457633972, -0.22195793688297272, 0.08421170711517334, -0.20675918459892273, -0.22564925253391266], [-0.08619744330644608, 0.05859215185046196, 0.44467076659202576, 0.10024060308933258, -0.13949978351593018, 0.010624688118696213, 0.03663904592394829, -0.17013466358184814, 0.03285985067486763, 0.10742078721523285, -0.28167277574539185, -0.23083904385566711, 1.8313214778900146, 0.13859857618808746, 0.016092834994196892, -0.0707148090004921, 0.05009140074253082], [-0.12092616409063339, -0.10373964160680771, 0.12344128638505936, -0.08409786224365234, -0.20601850748062134, -0.09549549967050552, -0.05797488987445831, 0.27406173944473267, -0.0985616147518158, -0.07356122136116028, 0.013892337679862976, 0.7816925644874573, 0.5439776182174683, 0.6489256024360657, 0.04271236062049866, 0.05568515881896019, 0.06271366029977798], [0.02622746117413044, 0.37009960412979126, 0.40766531229019165, -0.026082277297973633, 0.012413508258759975, -0.18558061122894287, 0.03028181940317154, -0.09723702073097229, -0.06328906118869781, -0.4668639302253723, -0.3954068422317505, 0.12149839848279953, 0.5751550793647766, -0.8343919515609741, -0.005480469204485416, -0.38503414392471313, -0.0024050890933722258], [0.25398629903793335, -0.07852252572774887, 0.2697010338306427, -0.33995240926742554, -0.11140429973602295, -0.09351848065853119, -0.06658418476581573, 0.4029179513454437, 0.18763183057308197, -0.14333616197109222, -0.4799801707267761, 0.0535530224442482, 0.05984979867935181, -0.21553930640220642, -0.14372657239437103, 0.5757480263710022, -0.05157536268234253], [0.06742912530899048, 0.15169435739517212, 0.48476308584213257, 0.35116255283355713, -0.35939621925354004, -0.14751045405864716, -0.11222522705793381, -0.3588239848613739, 0.02526163123548031, -0.126303568482399, 0.5742548704147339, 0.3979196846485138, 0.4065503478050232, -0.2165314257144928, 0.009245576336979866, 0.36535367369651794, 0.27447402477264404], [0.025837287306785583, 0.05795678496360779, -0.03770752251148224, 0.2385411262512207, -0.19852608442306519, -0.1121867448091507, -0.17962786555290222, -0.20461136102676392, -0.5226641297340393, 0.12877579033374786, -0.06860765814781189, -0.349765807390213, -0.05184168368577957, 0.42430177330970764, 0.20095811784267426, -0.10273624211549759, -0.19007033109664917], [-0.1409209966659546, -0.20539700984954834, -0.46776407957077026, -0.19782117009162903, -0.2054932415485382, -0.27915987372398376, 0.3480871915817261, -0.36946195363998413, 0.5619903206825256, -0.34781476855278015, 0.02686369977891445, 0.06900409609079361, 0.16447295248508453, -0.2365770787000656, -0.48361897468566895, 0.3739307224750519, 0.01627407595515251], [-0.04837774485349655, -0.3950812816619873, -0.19810226559638977, -0.2489452213048935, 0.29174715280532837, -0.028948917984962463, 0.31910476088523865, 0.42938438057899475, -0.12767967581748962, 0.3440033793449402, 0.25553038716316223, 0.21751798689365387, 0.12290939688682556, 0.11591586470603943, 0.054193057119846344, -0.01804303750395775, 0.41119280457496643], [0.10671938955783844, 0.2183808833360672, -0.15960343182086945, 0.028443608433008194, -0.12487617880105972, 0.38039013743400574, 0.30855417251586914, -0.2074718475341797, 0.2290405035018921, 0.2475428283214569, 0.6859554052352905, 0.0877016931772232, -0.09516098350286484, 0.13142526149749756, 0.17408010363578796, -0.17462873458862305, 0.22872377932071686]], "mlp_extractor.policy_net.0.bias": [0.08694758266210556, 0.024439511820673943, -0.04929058998823166, 0.15223556756973267, 0.1220642477273941, -0.01829862780869007, 0.0512179434299469, 0.21214225888252258, -0.012624210678040981, -0.06433714181184769, 0.030650094151496887, 0.08572545647621155, 0.0820302665233612, -0.10952602326869965, -0.0793081745505333, 0.16447681188583374, -0.013684256933629513, 0.1450490951538086, 0.11465971916913986, 0.1684201955795288, -0.1548340767621994, -0.22806549072265625, 0.08273550122976303, -0.06450892239809036, 0.06328845769166946, -0.07023400813341141, 0.021382832899689674, 0.1694801300764084, -0.11663670837879181, -0.036340098828077316, 0.21519438922405243, -0.05580475553870201, -0.11991947889328003, 0.0567096546292305, -0.1514914631843567, 0.12170781940221786, 0.13634830713272095, 0.12957756221294403, 0.11528059840202332, 0.08308801800012589, 0.036316435784101486, -0.13520704209804535, 0.15458093583583832, 0.13731561601161957, 0.12810996174812317, 0.11756410449743271, 0.05411539971828461, 0.04273945093154907, 0.13355523347854614, -0.08727028220891953, -0.0061527444049716, -0.04965052008628845, -0.03671756386756897, -0.1082073375582695, 0.11302943527698517, 0.038495294749736786, 0.05432073026895523, 0.0208114180713892, -0.04070292040705681, 0.056477226316928864, 0.15523362159729004, 0.04022432118654251, -0.0010486914543434978, 0.10775832831859589, -0.09089266508817673, -0.11942208558320999, 0.21126487851142883, 0.07765786349773407, 0.0951097384095192, 0.018562883138656616, 0.04204411059617996, 0.058126747608184814, -0.07834882289171219, 0.07459240406751633, 0.04932591691613197, 0.1423858255147934, 0.1666514277458191, 0.053209464997053146, 0.21974706649780273, -0.03766074776649475, -0.03528831899166107, 0.10077283531427383, -0.00455879420042038, 0.028010372072458267, 0.05382281914353371, -0.08320622146129608, 0.10781064629554749, 0.06051895022392273, 0.04149541258811951, 0.02928142622113228, 0.2217729240655899, -0.05136973783373833, 0.0478542223572731, -0.002815810265019536, 0.18555976450443268, -0.011799510568380356, -0.0922510027885437, 0.05798657611012459, 0.18330775201320648, -0.1908070594072342, -0.07070142030715942, 0.07278487831354141, -0.05039412900805473, 0.05750781670212746, 0.06587070971727371, -0.028728555887937546, 0.15146642923355103, -0.06638540327548981, 0.14952994883060455, -0.003693449543789029, 0.16036617755889893, -0.23528066277503967, 0.0722876563668251, 0.0003594648151192814, 0.32726141810417175, -0.1092199757695198, 0.08441830426454544, 0.09321065992116928, 0.03724784404039383, 0.11814680695533752, 0.05061684921383858, 0.07269685715436935, 0.15380582213401794, 0.2503020167350769, -0.17933492362499237, 0.16530317068099976, 0.05408802255988121, 0.16928723454475403], "mlp_extractor.policy_net.2.weight": [[-0.04794678837060928, 0.09778331220149994, -0.012073380872607231, -0.38581225275993347, -0.059948571026325226, -0.09249554574489594, 0.30920159816741943, 0.21401070058345795, -0.23833638429641724, -0.27472949028015137, 0.13792821764945984, -0.25154969096183777, 0.17092905938625336, 0.11104881018400192, 0.08685959875583649, -0.04254783317446709, 0.021752920001745224, -0.33587759733200073, 0.12670035660266876, 0.003937643487006426, 0.06813357025384903, 0.05068642273545265, -0.41334182024002075, 0.04909520223736763, -0.026372307911515236, 0.032633937895298004, 0.07336119562387466, 0.07825010269880295, -0.04607028141617775, -0.08606278896331787, -0.1530168354511261, 0.14687979221343994, 0.08278430253267288, 0.23664359748363495, -0.15352894365787506, -0.25246506929397583, -0.0036645550280809402, 0.2112092822790146, -0.2950633764266968, 0.24071110785007477, 0.10140569508075714, -0.0288110189139843, 0.12559175491333008, -0.06289485841989517, 0.10454166680574417, 0.04781586676836014, 0.23447285592556, 0.02356191724538803, -0.0240628682076931, 0.2794385254383087, -0.2245730459690094, 0.30330511927604675, -0.16578973829746246, 0.0773092582821846, -0.163625568151474, -0.20490649342536926, -0.30666863918304443, -0.023944424465298653, -0.1027785912156105, -0.12055155634880066, -0.06677666306495667, -0.022770676761865616, -0.39618468284606934, -0.3629337549209595, -0.11595775187015533, 0.02825787663459778, 0.0884140208363533, -0.054754339158535004, 0.08040454238653183, 0.2504887580871582, 0.1554093360900879, -0.16959740221500397, 0.1391793191432953, 0.2196623831987381, -0.09023595601320267, 0.2753749489784241, 0.2055845856666565, 0.25574207305908203, -0.0390406958758831, -0.15249188244342804, -0.15200485289096832, 0.04675135761499405, 0.08774328976869583, -0.3081970512866974, 0.03943433240056038, 0.3888622522354126, 0.11582303047180176, -0.01630886271595955, -0.023581312969326973, 0.1578696370124817, 0.2419559210538864, 0.022140303626656532, -0.13542820513248444, -0.45325610041618347, -0.2267267405986786, 0.29803940653800964, -0.09276130050420761, -0.4087403416633606, 0.2680026590824127, -0.1279851496219635, -0.2365754097700119, -0.13226647675037384, 0.17529059946537018, 0.20080246031284332, -0.2870398461818695, 0.37953275442123413, -0.27991217374801636, -0.010429896414279938, 0.2760595381259918, 0.08428110927343369, -0.0645250454545021, 0.1924903690814972, -0.08646223694086075, 0.20686215162277222, -0.011475513689219952, 0.3320499658584595, -0.1305634081363678, 0.1361967772245407, -0.11608710139989853, -0.3354799449443817, -0.21510525047779083, 0.12375370413064957, 0.09974583983421326, 0.2238534539937973, -0.11629992723464966, 0.17840637266635895, 0.10540454089641571, 0.27314209938049316], [-0.26489078998565674, 0.06490489840507507, 0.3593407869338989, 0.052084729075431824, 0.09051137417554855, 0.388584166765213, 0.22666852176189423, 0.04961545765399933, 0.11269272863864899, 0.32920530438423157, 0.32740527391433716, -0.09676124900579453, -0.10251901298761368, 0.13709409534931183, 0.04595918953418732, 0.06864183396100998, 0.012884230352938175, -0.002562753390520811, -0.025953074917197227, -0.018666250631213188, -0.03503553941845894, 0.020412074401974678, 0.2502468526363373, -0.18714994192123413, 0.051177337765693665, 0.4105008840560913, -0.22714027762413025, 0.02752080373466015, 0.10899259150028229, 0.4415115416049957, -0.03691030666232109, 0.13189180195331573, -0.12380550056695938, -0.18085578083992004, 0.11567746847867966, -0.05996929109096527, -0.3282068073749542, 0.14013129472732544, 0.20387353003025055, -0.042428694665431976, 0.03575954586267471, 0.10509489476680756, -0.017822470515966415, 0.05978064984083176, 0.17885632812976837, 0.2206043303012848, 0.19116729497909546, 0.15075187385082245, 0.17607849836349487, 0.29285481572151184, 0.007897733710706234, 0.44044801592826843, 0.1495596319437027, -0.021136876195669174, 0.054211847484111786, -0.18313464522361755, 0.08999724686145782, -0.054941918700933456, -0.09212841838598251, -0.10919632762670517, -0.2298884093761444, -0.09302335232496262, -0.09958550333976746, 0.2758810222148895, -0.002057483186945319, 0.18228639662265778, -0.21286140382289886, -0.04611390829086304, -0.12115316092967987, 0.14092014729976654, 0.29942381381988525, 0.11844301968812943, 0.21116650104522705, -0.07756222784519196, 0.031064357608556747, 0.40523502230644226, 0.07529064267873764, 0.23734155297279358, 0.31828323006629944, -0.07604335248470306, 0.05809935927391052, 0.38915011286735535, 0.224618598818779, -0.03405420854687691, -0.12539255619049072, 0.1430969536304474, -0.06178870424628258, -0.22444775700569153, 0.20077526569366455, 0.06489348411560059, -0.1240246593952179, 0.39100027084350586, -0.31772521138191223, 0.19597764313220978, 0.04064197093248367, 0.14078383147716522, 0.0482860691845417, -0.05779777094721794, -0.14342884719371796, 0.19195568561553955, -0.10409937053918839, 0.1273217350244522, 0.3767912983894348, 0.13941572606563568, 0.2832038402557373, 0.31959331035614014, 0.11412076652050018, 0.12003503739833832, 0.20172829926013947, -0.18953566253185272, 0.30429983139038086, 0.3723139762878418, -0.3572761118412018, -0.01515840645879507, 0.26475685834884644, 0.3366992175579071, 0.042090438306331635, 0.31646019220352173, 0.29132142663002014, 0.1966991126537323, -0.0073974537663161755, 0.11792699247598648, -0.05154576525092125, 0.17517802119255066, 0.3786815106868744, 0.4042856693267822, 0.24964120984077454, 0.11256391555070877], [0.28020891547203064, 0.031725723296403885, -0.1081916019320488, -0.1397140771150589, 0.388568639755249, 0.16185247898101807, 0.08363869041204453, 0.07343048602342606, -0.2354227602481842, -0.07772794365882874, 0.16879914700984955, 0.19535601139068604, -0.09531699866056442, -0.15978792309761047, 0.22483646869659424, -0.08107883483171463, 0.17039339244365692, -0.16404598951339722, 0.22862529754638672, 0.10156036168336868, 0.24511653184890747, 0.1438780426979065, -0.17449910938739777, 0.25063130259513855, 0.23566026985645294, -0.038158517330884933, 0.1846258044242859, 0.13707193732261658, 0.20038734376430511, 0.1488245576620102, -0.1431029886007309, -0.08698122203350067, -0.20681782066822052, -0.06206678971648216, 0.011849994771182537, -0.3616980016231537, -0.30225005745887756, 0.25379806756973267, -0.060800664126873016, 0.510025680065155, 0.04193885996937752, 0.2760050296783447, -0.07684139162302017, -0.018135739490389824, -0.03752657398581505, 0.03858090192079544, 0.09178207814693451, 0.014613497070968151, 0.10844701528549194, -0.08957483619451523, -0.1095338761806488, 0.41954901814460754, 0.11992121487855911, 0.16164754331111908, -0.06272531300783157, -0.2683127522468567, -0.4653621315956116, 0.23344098031520844, 0.036923278123140335, 0.08085384219884872, -0.3730939030647278, 0.04536031186580658, 0.20568647980690002, -0.00019822803733404726, 0.1364297866821289, -0.1906459480524063, -0.18844617903232574, -0.042788200080394745, 0.19712069630622864, 0.21240833401679993, -0.20833826065063477, -0.007327341474592686, -0.15280313789844513, 0.016873404383659363, -0.23714934289455414, 0.5043683648109436, 0.3046133816242218, 0.09800511598587036, 0.043098386377096176, 0.05903993919491768, 0.001801392063498497, 0.23940350115299225, 0.3219413757324219, -0.5176048278808594, 0.09926874190568924, 0.6077714562416077, 0.08899809420108795, -0.03372279182076454, 0.00024005939485505223, 0.3090056777000427, 0.06115458160638809, 0.11960315704345703, -0.03945836424827576, -0.07106685638427734, 0.05174501985311508, -0.0011430163867771626, -0.0203389972448349, 0.0998486876487732, -0.15659324824810028, 0.3300495147705078, -0.20647647976875305, -0.33756962418556213, 0.3361123502254486, -0.07791703194379807, -0.36837172508239746, -0.09733476489782333, -0.10705552250146866, -0.21985606849193573, 0.1676470935344696, -0.02121426910161972, -0.08804149180650711, 0.2453259974718094, 0.047898560762405396, 0.044225867837667465, 0.25051337480545044, 0.052673958241939545, -0.29285258054733276, 0.11085954308509827, -0.02401658520102501, -0.002359979785978794, -0.06715889275074005, -0.0572742260992527, 0.0790625810623169, 0.04088040441274643, 0.12022431939840317, 0.23215509951114655, 0.34105387330055237, -0.3150891065597534], [0.02643480896949768, 0.030080055817961693, 0.5772843360900879, 0.24349378049373627, 0.113326795399189, 0.246975839138031, 0.08666490763425827, -0.10048871487379074, 0.04423278942704201, 0.11846334487199783, 0.46223634481430054, 0.06511331349611282, -0.07449568808078766, 0.18802528083324432, 0.08502022176980972, -0.14198744297027588, -0.08160454034805298, -0.0825779139995575, -0.02078995853662491, -0.1053137555718422, -0.41177448630332947, 0.14127416908740997, 0.462258517742157, 0.20177678763866425, 0.015850044786930084, 0.052462607622146606, 0.05493408441543579, -0.10222470760345459, -0.09174186736345291, 0.1600956916809082, 0.09607934206724167, -0.09516923129558563, 0.380713552236557, 0.13834048807621002, -0.31690165400505066, 0.27537018060684204, 0.012954143807291985, -0.02570611797273159, 0.12184155732393265, -0.22809948027133942, 0.34808114171028137, -0.08874297142028809, -0.06091128662228584, -0.08714094758033752, -0.021826246753335, 0.08655374497175217, 0.3153928220272064, -0.08552032709121704, -0.42795202136039734, 0.38624846935272217, -0.1129714772105217, 0.2846772372722626, 0.2870461046695709, 0.2953355014324188, -0.404401957988739, 0.12132909893989563, 0.20990225672721863, -0.41980114579200745, -0.33557984232902527, -0.12721052765846252, -0.05856690928339958, -0.20816418528556824, -0.14695581793785095, 0.5592036843299866, -0.011135345324873924, 0.029527243226766586, -0.15861570835113525, -0.26611360907554626, -0.3012242615222931, 0.03602259233593941, 0.3069337010383606, -0.06222176551818848, 0.5368985533714294, -0.2953285872936249, 0.2160903960466385, 0.1083829402923584, -0.06745210289955139, -0.03152353689074516, 0.17293530702590942, -0.003154141129925847, 0.040784306824207306, 0.2144012302160263, 0.44610312581062317, 0.19414563477039337, 0.34862220287323, -0.03796285018324852, 0.08976003527641296, -0.3654544949531555, 0.6109159588813782, 0.3981994390487671, -0.10888280719518661, 0.13879434764385223, 0.1001058965921402, -0.17857323586940765, 0.2083262950181961, 0.3106820285320282, 0.019645031541585922, -0.06728921830654144, -0.03776320442557335, 0.31878021359443665, 0.31369510293006897, 0.36685651540756226, 0.452510803937912, -0.1341567188501358, -0.06409779191017151, 0.5711644291877747, 0.09942155331373215, 0.2538995146751404, -0.35677939653396606, -0.27989867329597473, 0.5031915903091431, 0.1186273843050003, 0.05453551560640335, -0.1850426197052002, 0.267192006111145, 0.12644867599010468, 0.33352071046829224, 0.3797685205936432, 0.21821826696395874, 0.2647055387496948, -0.07368837296962738, 0.5136122107505798, 0.05694040283560753, 0.17026981711387634, 0.09514062851667404, 0.24711370468139648, -0.16411924362182617, -0.15450245141983032], [-0.2787318229675293, -0.17450588941574097, 0.2541739344596863, -0.18199267983436584, 0.3913416564464569, -0.06427368521690369, 0.3389999270439148, 0.1400611251592636, 0.03927142918109894, 0.5099787712097168, 0.10089517384767532, -0.24155932664871216, 0.16849224269390106, 0.11171667277812958, -0.06683648377656937, 0.2997676134109497, 0.5333627462387085, -0.07818644493818283, -0.0018525762716308236, 0.2646428048610687, -0.23279568552970886, -0.08077078312635422, 0.7706248164176941, -0.03976965323090553, 0.09774965047836304, 0.30422261357307434, 0.20177358388900757, 0.1246330663561821, -0.09445887058973312, 0.15246953070163727, -0.19421550631523132, 0.1063612774014473, 0.15308402478694916, 0.18058457970619202, -0.015470237471163273, 0.11783207952976227, 0.047945860773324966, 0.15442754328250885, 0.11262678354978561, -0.3703058063983917, 0.5614781975746155, -0.18306848406791687, 0.07062307000160217, 0.2064584493637085, -0.06790883094072342, 0.2208365947008133, 0.6013272404670715, 0.018175963312387466, -0.09095873683691025, 0.23712356388568878, -0.20708046853542328, 0.05017755180597305, 0.14536049962043762, 0.04459918662905693, 0.3579905033111572, 0.4798280596733093, 0.34228044748306274, 0.2192043960094452, -0.42721298336982727, 0.39160674810409546, 0.3114496171474457, -0.1859392374753952, -0.017961472272872925, 0.48599761724472046, 0.07893918454647064, -0.1987207978963852, 0.033896975219249725, -0.3871011435985565, 0.11154211312532425, -0.0673593208193779, 0.42373567819595337, -0.14752629399299622, 0.4900144040584564, 0.07302199304103851, 0.13564875721931458, 0.11281710863113403, 0.27333879470825195, 0.07304176688194275, 0.2304026037454605, 0.2408296912908554, 0.15503884851932526, 0.30789363384246826, 0.46297353506088257, 0.17855079472064972, -0.10255853831768036, -0.15985846519470215, -0.13131219148635864, -0.032111506909132004, 0.4281254708766937, -0.07675955444574356, -0.0208686962723732, 0.039728980511426926, -0.09336228668689728, 0.14008089900016785, 0.4447280764579773, 0.17953187227249146, 0.1556369960308075, 0.16570256650447845, -0.3614559769630432, 0.37160539627075195, 0.2408594787120819, 0.3034593164920807, 0.45540499687194824, -0.03790472075343132, 0.3888223469257355, 0.316824734210968, 0.2229589968919754, -0.050004761666059494, -0.062339313328266144, -0.2735319435596466, 0.3497118651866913, -0.0675998404622078, -0.19265897572040558, -0.18297924101352692, 0.03729376569390297, -0.26998645067214966, 0.37084102630615234, 0.07395946234464645, 0.3317326307296753, 0.4973619878292084, 0.16874244809150696, 0.38059332966804504, -0.12978670001029968, 0.4089912176132202, -0.059033673256635666, 0.3244685232639313, 0.07423516362905502, -0.3977595865726471], [-0.33923307061195374, 0.21261189877986908, 0.33815640211105347, -0.25848984718322754, 0.324288934469223, -0.10208076983690262, 0.16029539704322815, 0.33320340514183044, -0.4846188724040985, 0.31929826736450195, 0.46181297302246094, 0.11154676228761673, -0.08521996438503265, 0.10695192962884903, 0.10431624948978424, -0.12152886390686035, 0.17854540050029755, 0.04661449044942856, -0.10656745731830597, 0.10653864592313766, 0.20001770555973053, -0.10748254507780075, 0.1058567687869072, -0.24654754996299744, -0.04780453070998192, -0.0057004280388355255, 0.0191961657255888, 0.22951634228229523, -0.15387074649333954, 0.2697887122631073, 0.307637095451355, -0.28691527247428894, -0.1428600549697876, 0.08726722002029419, -0.05656934529542923, -0.08948786556720734, -0.06086505576968193, 0.05345187708735466, 0.2518441379070282, -0.001402446418069303, 0.29457104206085205, -0.421343058347702, -0.20902276039123535, -0.03150588274002075, 0.045134834945201874, 0.06065969541668892, 0.21533462405204773, 0.2252008616924286, 0.12699103355407715, 0.07057556509971619, 0.1041012778878212, 0.2736433446407318, -0.18335583806037903, 0.09526469558477402, -0.22565118968486786, -0.10573750734329224, -0.0588344931602478, 0.32695987820625305, -0.32070350646972656, 0.06004337593913078, 0.15252208709716797, 0.15388526022434235, 0.05497565492987633, -0.006236421409994364, -0.23060356080532074, 0.08809629827737808, 0.23870021104812622, 0.02616622857749462, 0.07191026210784912, 0.0050129396840929985, 0.16014014184474945, -0.5104659795761108, -0.05335504189133644, -0.13286200165748596, 0.3251238763332367, 0.40902572870254517, 0.4524767994880676, 0.3213706612586975, 0.15010817348957062, -0.0804840624332428, -0.21306109428405762, 0.16531910002231598, 0.1374344378709793, -0.11648605763912201, -0.1269044429063797, 0.04598990082740784, 0.06224340945482254, -0.2713797986507416, -0.1920570731163025, 0.4908612370491028, -0.1338292509317398, -0.016337227076292038, 0.09164377301931381, 0.032652635127305984, 0.3657192587852478, 0.13779784739017487, -0.34445875883102417, -0.07275103032588959, -0.2514801323413849, 0.2331322431564331, -0.14771023392677307, 0.07386187463998795, 0.2604139447212219, 0.19706593453884125, 0.07712345570325851, 0.45065051317214966, -0.259730726480484, 0.06305557489395142, -0.06606337428092957, -0.27805420756340027, 0.35935476422309875, 0.04333560913801193, -0.23274557292461395, -0.28821220993995667, 0.10678308457136154, 0.06928157061338425, 0.4447553753852844, 0.3400685787200928, 0.32296255230903625, 0.16420117020606995, 0.08507708460092545, 0.5381112694740295, 0.008528620935976505, 0.23548990488052368, 0.14764994382858276, 0.1979682296514511, 0.24953356385231018, -0.061811164021492004], [-0.0915176123380661, -0.09417833387851715, 0.2607577443122864, 0.13105596601963043, 0.1590241640806198, -0.07243899255990982, 0.09713350236415863, 0.13563840091228485, -0.0431445948779583, -0.043782804161310196, 0.2938160002231598, -0.22455726563930511, 0.02077365852892399, 0.17883172631263733, 0.3463990390300751, 0.057002630084753036, -0.25861451029777527, -0.12255818396806717, 0.3192347288131714, -0.034076347947120667, -0.07223427295684814, 0.09192973375320435, -0.10186513513326645, -0.09380972385406494, -0.15793845057487488, 0.2500571310520172, 0.17722278833389282, 0.3704063892364502, -0.1438286453485489, 0.3111686408519745, 0.008863129653036594, 0.011232946068048477, -0.01778976246714592, 0.1310863047838211, 0.019342653453350067, -0.12669502198696136, -0.19955559074878693, 0.21604815125465393, 0.08812952041625977, 0.26626068353652954, -0.1990443766117096, 0.2944437861442566, -0.19921404123306274, -0.3029581904411316, 0.05096893012523651, -0.1250726282596588, 0.24956545233726501, 0.4872077703475952, 0.039786048233509064, 0.19410395622253418, 0.0477813258767128, 0.27374956011772156, 0.04713140428066254, 0.19658823311328888, -0.03738648444414139, -0.19759395718574524, -0.03537721186876297, -0.025032244622707367, -0.2853241562843323, 0.015020281076431274, -0.2935132086277008, 0.23204490542411804, 0.03368575498461723, -0.026594320312142372, -0.017810791730880737, 0.2610871493816376, -0.22898054122924805, -0.1646978110074997, 0.09969110786914825, 0.3275802433490753, 0.16718025505542755, -0.1430841088294983, 0.3759833872318268, -0.012424611486494541, -0.2498462200164795, 0.46875596046447754, 0.07103732973337173, 0.5098733305931091, 0.059412118047475815, 0.010012030601501465, -0.017202986404299736, 0.10956937074661255, 0.25724464654922485, -0.41057121753692627, 0.02450720965862274, 0.3502075672149658, 0.006287263706326485, 0.010263949632644653, -0.25049781799316406, 0.4721233546733856, 0.09500755369663239, 0.051117729395627975, -0.06445851922035217, -0.3357781171798706, 0.1333727091550827, 0.47709158062934875, 0.0916648656129837, -0.3889486789703369, -0.024684466421604156, 0.1554642617702484, -0.3916958272457123, 0.0786692202091217, 0.19269149005413055, 0.08453057706356049, -0.1131729781627655, 0.20301729440689087, -0.06019868701696396, 0.2118859738111496, 0.2610069811344147, -0.11034461110830307, 0.24994799494743347, 0.020973986014723778, 0.15012750029563904, -0.009681697934865952, 0.12847717106342316, 0.15697622299194336, 0.1914539784193039, 0.021679742261767387, 0.012112751603126526, -0.1246386468410492, -0.14118467271327972, -0.0011890939204022288, 0.10360054671764374, 0.0965108647942543, 0.08916375041007996, 0.06770901381969452, 0.13138814270496368, 0.06755441427230835], [0.0023616596590727568, -0.05841292813420296, -0.050354037433862686, 0.10361059010028839, -0.015650616958737373, -0.34146758913993835, 0.18984530866146088, 0.33917713165283203, 0.1523604840040207, -0.06661707162857056, -0.017875641584396362, -0.10489322245121002, 0.2712351679801941, 0.15291669964790344, 0.21793541312217712, -0.09778296202421188, -0.34945663809776306, 0.13111743330955505, -0.021752428263425827, 0.07458005845546722, 0.10952602326869965, 0.13807064294815063, -0.6109951138496399, 0.25349169969558716, -0.044956788420677185, 0.19841298460960388, 0.05335904657840729, 0.5004343390464783, 0.35732537508010864, -0.01642841286957264, -0.14080506563186646, 0.006789286620914936, -0.19113188982009888, 0.03092622198164463, -0.0026243419852107763, -0.1003456562757492, -0.33331772685050964, 0.25426018238067627, 0.06489874422550201, 0.23553384840488434, -0.21401746571063995, 0.25753095746040344, -0.06348131597042084, -0.3615722060203552, 0.0966164618730545, 0.09742867201566696, -0.01397658046334982, 0.16426508128643036, 0.06064895540475845, 0.02715451456606388, -0.10722745954990387, -0.05500061437487602, -0.12638121843338013, 0.13288041949272156, -0.002028306946158409, -0.558110237121582, -0.4481552541255951, 0.3365911841392517, 0.07083813101053238, -0.3787568211555481, -0.11487793177366257, 0.022991526871919632, -0.24011358618736267, 0.003959796857088804, -0.14444659650325775, 0.3714396059513092, -0.09107689559459686, 0.07456296682357788, -0.037475354969501495, 0.1363707333803177, -0.32214221358299255, -0.03316420316696167, -0.19499830901622772, 0.3393755257129669, 0.14465530216693878, 0.302010715007782, -0.01272750087082386, 0.23882754147052765, 0.09243366122245789, -0.008688737638294697, -0.05530596897006035, -0.07905875146389008, -0.1449161022901535, -0.38306909799575806, -0.09153355658054352, 0.6382156014442444, 0.1316003054380417, -0.2450307309627533, -0.39800694584846497, 0.31868496537208557, 0.3553437888622284, -0.2590438723564148, -0.09542571008205414, -0.5210900902748108, -0.5413181185722351, 0.17069394886493683, 0.2966710329055786, -0.3797239363193512, 0.42223647236824036, -0.029743144288659096, -0.052109263837337494, -0.3104974627494812, 0.03289860486984253, -0.027872858569025993, -0.6682337522506714, -0.027376921847462654, -0.10802917927503586, 0.011106250807642937, 0.06424880027770996, 0.09826400130987167, -0.07292598485946655, 0.19256149232387543, -0.05484355241060257, 0.35628175735473633, 0.16689999401569366, 0.07502720504999161, -0.24785216152668, 0.07299291342496872, -0.11499094218015671, -0.26330244541168213, -0.15077856183052063, -0.11425166577100754, 0.12807480990886688, -0.24644707143306732, 0.041169993579387665, 0.05197979137301445, -0.20482473075389862, 0.127756267786026], [0.3185558617115021, 0.4180789589881897, 0.05498197674751282, 0.3429388105869293, -0.027502516284585, -0.19812285900115967, -0.46831753849983215, -0.02200312167406082, 0.2967057526111603, -0.21974845230579376, -0.060363005846738815, -0.0067663127556443214, 0.4382026195526123, 0.20595316588878632, -0.2920721471309662, -0.19061870872974396, -0.06111054867506027, 0.21818311512470245, 0.23161965608596802, 0.2218109518289566, -0.1171289011836052, 0.08766289055347443, -0.26947450637817383, -0.21797330677509308, 0.1888665407896042, 0.09399475902318954, -0.11792419105768204, 0.43525710701942444, 0.30979955196380615, -0.3078363537788391, 0.18702644109725952, 0.3412807583808899, -0.2286938726902008, -0.08964212983846664, -0.2541269361972809, 0.19127561151981354, -0.04159104451537132, 0.09532200545072556, -0.16161665320396423, 0.1449551284313202, -0.10455790162086487, 0.4013635516166687, 0.08868487179279327, -0.5334218740463257, 0.12353672832250595, 0.1818101555109024, -0.8685286641120911, -0.405314177274704, 0.09514665603637695, 0.11797615885734558, 0.2655673027038574, -0.020241843536496162, -0.08784614503383636, -0.26110514998435974, -0.2509382963180542, -0.1053733229637146, 0.008122341707348824, 0.34112274646759033, 0.10314743220806122, -0.08115606009960175, -0.4098825454711914, 0.2824518382549286, -0.017735488712787628, 0.15585656464099884, 0.03061547502875328, 0.13014784455299377, 0.024382272735238075, 0.07284583151340485, 0.08263856172561646, -0.13573166728019714, -0.2338906228542328, 0.11836118251085281, -0.2566433548927307, 0.4185638725757599, -0.33937370777130127, 0.06822600960731506, -0.1527186632156372, -0.06924498081207275, 0.19244202971458435, 0.09006533771753311, -0.22441165149211884, -0.7382643818855286, -0.24907386302947998, -0.04120396822690964, 0.17499472200870514, 0.08595883846282959, 0.23333168029785156, 0.24832169711589813, 0.13359549641609192, 0.072616808116436, 0.3307671844959259, -0.19219881296157837, -0.14170929789543152, -0.08752095699310303, -0.5182370543479919, 0.23203618824481964, 0.022092752158641815, 0.006862425711005926, 0.4831230342388153, -0.07889603823423386, -0.40931710600852966, -0.47079402208328247, -0.6243719458580017, 0.1854342520236969, 0.16282235085964203, -0.7751854658126831, -0.013271579518914223, -0.00990394875407219, 0.6419812440872192, 0.3200625777244568, -0.43687301874160767, 0.09807644784450531, 0.3219144940376282, 0.24523693323135376, 0.2810536324977875, 0.1387835144996643, -0.10521657019853592, -0.05565356835722923, -0.25312963128089905, -0.5867032408714294, -0.12290391325950623, -0.2616945803165436, 0.47529470920562744, 0.22930818796157837, -0.034425001591444016, 0.2504371404647827, 0.0763787254691124, -0.039877939969301224], [0.00245114229619503, -0.24625352025032043, -0.393371045589447, 0.04337471351027489, 0.21332359313964844, -0.1069284975528717, -0.44615933299064636, 0.13652491569519043, 0.3255813717842102, 0.16653989255428314, 0.1538768857717514, 0.1649063378572464, 0.2260911911725998, -0.33519676327705383, -0.16864827275276184, 0.09826891124248505, 0.34918904304504395, -0.13135331869125366, 0.016827622428536415, 0.196949765086174, 0.1077655479311943, -0.18500444293022156, 0.2147694081068039, 0.3431856036186218, 0.046350106596946716, 0.022429654374718666, -0.2913205027580261, 0.24757373332977295, -0.11122704297304153, -0.035108257085084915, 0.2348698228597641, -0.013558190315961838, -0.39212918281555176, 0.2037944793701172, -0.1347305029630661, 0.3424758315086365, -0.11840248107910156, 0.24942255020141602, -0.49899822473526, -0.02105715684592724, 0.10897695273160934, 0.05761414021253586, -0.06315144151449203, -0.08156298100948334, 0.021031305193901062, 0.21892984211444855, -0.5520328283309937, -0.5547672510147095, -0.10588914155960083, -0.023589670658111572, 0.11529549956321716, -0.008913489058613777, 0.27808403968811035, 0.20028765499591827, 0.3601246774196625, 0.0840204730629921, 0.2952914535999298, -0.027387410402297974, 0.12391698360443115, 0.2367914319038391, 0.019694462418556213, 0.08469598740339279, -0.017039643600583076, -0.2866465151309967, 0.31652969121932983, -0.13644282519817352, 0.06619798392057419, -0.015205700881779194, 0.06229561194777489, 0.15217937529087067, 0.21378958225250244, 0.19196876883506775, -0.08457068353891373, 0.2365235835313797, 0.09823792427778244, -0.1867629885673523, 0.021195223554968834, 0.011577463708817959, 0.09166925400495529, -0.04703395441174507, 0.27292755246162415, -0.5712264776229858, -0.15225689113140106, 0.19777701795101166, 0.07662615925073624, -0.504470705986023, -0.09919534623622894, -0.1416742354631424, -0.03688555583357811, -0.30361926555633545, -0.3708215057849884, 0.03010554052889347, 0.37513667345046997, 0.35671329498291016, 0.21488097310066223, -0.08479249477386475, -0.07734687626361847, 0.36670008301734924, -0.007577500771731138, -0.1758556067943573, 0.11235133558511734, 0.30931735038757324, -0.5383087396621704, -0.18479511141777039, 0.26132065057754517, -0.4445740878582001, -0.006971121300011873, -0.23478685319423676, 0.05985638499259949, -0.08571706712245941, 0.1644255369901657, -0.13124188780784607, 0.28695979714393616, 0.40557196736335754, 0.12465573847293854, -0.1581694334745407, -0.2188965380191803, -0.02441457286477089, -0.13857340812683105, 0.21310630440711975, 0.34699809551239014, -0.4022596776485443, -0.8532633781433105, 0.08419174700975418, 0.04019816592335701, -0.5272571444511414, 0.4421732425689697, 0.07802491635084152], [0.09291329234838486, 0.09232161939144135, -0.037732623517513275, -0.032726824283599854, -0.16558419167995453, 0.3406469523906708, -0.19258242845535278, 0.052638109773397446, 0.162794828414917, 0.005652341526001692, -0.2734391987323761, -0.23507215082645416, -0.2602711021900177, -0.21464012563228607, -0.4721941351890564, -0.5647760033607483, 0.2427489459514618, -0.08574149012565613, -0.003963589668273926, -0.10127108544111252, -0.0380166731774807, 0.08386388421058655, 0.09895917028188705, -0.16472378373146057, 0.19582457840442657, -0.3042382299900055, -0.20713108777999878, 0.14469842612743378, 0.20433169603347778, 0.32175618410110474, 0.027310367673635483, -0.459820419549942, -0.025933288037776947, 0.11900842934846878, 0.16186285018920898, 0.11919564753770828, -0.3038342297077179, -0.12005852162837982, 0.2956378757953644, -0.26416683197021484, -0.17518818378448486, 0.24025747179985046, 0.35521331429481506, -0.22270028293132782, -0.34236234426498413, 0.15151263773441315, 0.1178031787276268, -0.14198583364486694, -0.042936623096466064, -0.4018988013267517, 0.09354163706302643, 0.18991507589817047, -0.25395116209983826, 0.2899797558784485, 0.07769390940666199, 0.0610957071185112, 0.2893739640712738, -0.029429469257593155, 0.3064810335636139, 0.17007718980312347, 0.522445559501648, 0.2599804997444153, -0.29723450541496277, -0.7038773894309998, 0.1516866236925125, -0.2516332268714905, -0.6592826843261719, 0.48193979263305664, 0.21147310733795166, -0.3676314353942871, -0.011934884823858738, 0.3209824860095978, -0.16891048848628998, -0.13092730939388275, -0.35020527243614197, -0.1233704686164856, -0.3121781349182129, -0.21710586547851562, -0.19395647943019867, 0.35516098141670227, 0.2545819878578186, 0.2923464775085449, -0.05556691810488701, 0.040761008858680725, -0.10514184832572937, 0.10841973125934601, 0.3551361858844757, 0.1637624353170395, 0.48006200790405273, -0.7012938857078552, 0.2675490379333496, -0.3111453056335449, -0.1327163428068161, 0.13988858461380005, -0.020749391987919807, -0.10042224079370499, -0.11124616116285324, 0.4910600483417511, 0.1403115689754486, 0.06403527408838272, 0.34620270133018494, -0.014210299588739872, -0.3026970326900482, 0.11857044696807861, 0.3909659683704376, -0.29268673062324524, -0.037919241935014725, -0.0035662073642015457, 0.08540841192007065, -0.5590664148330688, -0.2913009226322174, -0.01171641331166029, 0.1824823021888733, 0.07388465106487274, -0.05408995598554611, -0.11576175689697266, 0.22382953763008118, 0.12307591736316681, -0.37328287959098816, 0.13042643666267395, 0.1694435030221939, -0.4448276460170746, 0.5453715920448303, -0.09070949256420135, -0.13277819752693176, -0.020646337419748306, -0.23898105323314667, -0.49253231287002563], [0.014248711057007313, -0.1284295618534088, -0.8902740478515625, 0.20190542936325073, -0.5425959825515747, 0.3692036271095276, 0.14210227131843567, 0.036045607179403305, 0.06473133713006973, -0.13619589805603027, 0.20329387485980988, -0.15663407742977142, -0.05869348347187042, -0.02340705506503582, -0.20982107520103455, 0.3980332612991333, 0.04025140404701233, 0.009248616173863411, -0.18796755373477936, -0.27640610933303833, 1.1159729183418676e-05, -0.281260222196579, 0.5363831520080566, 0.11038016527891159, 0.2354535311460495, -0.1449427455663681, -0.39532268047332764, -0.22923915088176727, -0.19046369194984436, 0.03153342008590698, 0.33419060707092285, -0.40873008966445923, 0.3549676239490509, 0.352801650762558, -0.07271838933229446, 0.007359525188803673, 0.5106279850006104, -0.2032056748867035, 0.17292284965515137, -0.16939328610897064, 0.4309386610984802, -0.37274181842803955, 0.30155816674232483, 0.24683256447315216, 0.20736487209796906, -0.2659527361392975, -0.04926184564828873, 0.20609624683856964, -0.2775353491306305, -0.2580495774745941, -0.12691037356853485, -0.10303299129009247, 0.22211235761642456, -0.03653913736343384, 0.18062801659107208, 0.6374706625938416, 0.2953627109527588, -0.41191592812538147, -0.06616272777318954, 0.45772793889045715, 0.29207149147987366, 0.051523588597774506, 0.3262483775615692, 0.31663233041763306, -0.004392765928059816, -0.2896873652935028, 0.2304987609386444, -0.0680876225233078, -0.14820171892642975, 0.015380239114165306, -0.4251236617565155, 0.18477347493171692, 0.06938394904136658, -0.18088620901107788, -0.18560652434825897, 0.01511727087199688, 0.1611682027578354, -0.3353396952152252, 0.1016102284193039, -0.04061008244752884, 0.12229133397340775, 0.5361295938491821, 0.45058852434158325, 0.3385433852672577, 0.1329781711101532, -0.4184330105781555, 0.0680810958147049, -0.31197798252105713, -0.023022638633847237, -0.1622910350561142, 0.08536002784967422, -0.011626234278082848, 0.07931011915206909, 0.6570430397987366, 0.1305573284626007, 0.20565012097358704, -0.07320450991392136, 0.13016988337039948, 0.269803911447525, 0.2251923829317093, 0.30329692363739014, 0.3738260865211487, -0.026061534881591797, -0.07309021800756454, 0.30656421184539795, -0.18975554406642914, 0.373992919921875, -0.013902916572988033, -0.0756801888346672, -0.04548386484384537, 0.5458952784538269, -0.13735513389110565, -0.4907072186470032, 0.03821646422147751, 0.23528257012367249, -0.37393718957901, -0.05465473234653473, 0.0035640739370137453, 0.10643032938241959, 0.6187097430229187, 0.016513891518115997, -0.30111539363861084, -0.0629303902387619, -0.2325567901134491, -0.09728468954563141, 0.3569899797439575, 0.14981508255004883, 0.06361832469701767], [0.2421678751707077, 0.11713790148496628, -0.16885684430599213, -0.15005137026309967, 0.001845021266490221, 0.07009146362543106, -0.6047534942626953, 0.04229314625263214, 0.17251239717006683, 0.22434356808662415, -0.05176524817943573, -0.06133158504962921, -0.2137756496667862, -0.0872027650475502, -0.3073178231716156, -0.04734784737229347, 0.11346371471881866, -0.02194194681942463, -0.30608075857162476, 0.1663200706243515, -0.040425319224596024, 0.17222212255001068, 0.3130769729614258, 0.28118300437927246, -0.28355687856674194, -0.24645580351352692, -0.00990081112831831, -0.18959420919418335, 0.0029666833579540253, -0.11741016805171967, 0.22864310443401337, -0.29593604803085327, -0.08776852488517761, -0.16795134544372559, -0.28774493932724, 0.3051157593727112, -0.22978657484054565, -0.18351617455482483, -0.2841954827308655, -0.21307401359081268, -0.11411367356777191, -0.07293496280908585, 0.4669434130191803, -0.0027217569295316935, 0.05611493065953255, -0.17611655592918396, -0.39142847061157227, -0.3955322504043579, -0.2283051609992981, -0.04540267214179039, 0.365631639957428, -0.09364030510187149, 0.44731563329696655, -0.10381489992141724, 0.14198531210422516, 0.011958133429288864, -0.01642932929098606, 0.13406306505203247, 0.2624194920063019, -0.04473383352160454, 0.1264607161283493, 0.10346860438585281, -0.06831387430429459, -0.070518858730793, 0.017745211720466614, -0.03123505972325802, -0.4413638412952423, 0.31293338537216187, -0.1456991732120514, 0.043796438723802567, -0.023106129840016365, 0.0008577981498092413, -0.19643978774547577, 0.04134736582636833, 0.15279525518417358, 0.08815626055002213, 0.06149071827530861, -0.20931045711040497, -0.9008909463882446, 0.3689188063144684, -0.0717756599187851, 0.05250822752714157, 0.051381442695856094, -0.22105003893375397, -0.3775905668735504, -0.1855163425207138, 0.3293028175830841, 0.025087296962738037, 0.3987714648246765, -0.7257580757141113, 0.14996427297592163, -0.12491221725940704, 0.12648117542266846, 0.20953291654586792, -0.09007653594017029, -0.15218740701675415, 0.09113886207342148, -0.21674564480781555, -0.2714380621910095, 0.02176409400999546, 0.16843785345554352, -0.5522081851959229, -0.1338730901479721, -0.3459915220737457, 0.007682743016630411, -0.06356007605791092, -0.03899582847952843, 0.164565309882164, -0.1463823914527893, -0.45239725708961487, 0.1993834525346756, 0.3253515660762787, -0.30114108324050903, -0.35772112011909485, -0.011765718460083008, -0.04871640354394913, 0.13193225860595703, -0.005597062408924103, -0.41398414969444275, 0.14710170030593872, 0.2693152129650116, -0.29254624247550964, -0.28535017371177673, -0.17575831711292267, -0.1078125536441803, -0.4203735589981079, -0.21534572541713715, -0.24756073951721191], [-0.10350068658590317, -0.007253151852637529, -0.6174749135971069, 0.3018423616886139, -0.1313866823911667, -0.20342904329299927, -0.21681706607341766, -0.12471704185009003, 0.4344692826271057, -0.1413898915052414, -0.24598373472690582, 0.2205650508403778, -0.06788882613182068, -0.08256043493747711, -0.03309774771332741, -0.269353985786438, -0.006051005329936743, 0.012045808136463165, 0.023332560434937477, -0.09109661728143692, 0.1143878698348999, 0.1741304099559784, -0.10905567556619644, 0.16285784542560577, -0.09143777191638947, 0.0541108176112175, -0.13199461996555328, 0.13094483315944672, -0.19958366453647614, -0.11319854110479355, -0.051746513694524765, 0.04706669971346855, -0.04849792271852493, -0.02956148236989975, -0.2898557186126709, 0.38191068172454834, 0.314292311668396, 0.2836683690547943, -0.6225796341896057, -0.04356718808412552, -0.08038856834173203, -0.1571677178144455, 0.36191797256469727, -0.26448994874954224, -0.3572746813297272, 0.06294089555740356, -0.4290120303630829, -0.6933395862579346, 0.4046606123447418, 0.04001452773809433, 0.24267065525054932, 0.016553929075598717, -0.007240289822220802, 0.10947023332118988, -0.09791340678930283, 0.09114328771829605, 0.27230536937713623, -0.4262920618057251, 0.19878222048282623, -0.20114228129386902, -0.10954736918210983, 0.22652649879455566, 0.140888512134552, -0.2582613527774811, -0.09852513670921326, -0.4180261790752411, -0.3118845522403717, 0.4582885205745697, 0.12578453123569489, 0.17654702067375183, 0.017307601869106293, 0.20408114790916443, 0.05183754116296768, 0.11414771527051926, 0.11891056597232819, 0.15137682855129242, -0.059168022125959396, -0.24531376361846924, -0.33052608370780945, 0.2602660655975342, -0.6956565976142883, -0.3529234826564789, 0.21774539351463318, 0.2815471589565277, -0.15301857888698578, -0.2661215364933014, 0.05075817182660103, -0.01409178227186203, -0.18831950426101685, -0.5085729360580444, 0.10137951374053955, -0.03309156373143196, 0.07599746435880661, 0.22618694603443146, 0.11253165453672409, -0.31620270013809204, -0.3403356969356537, 0.32459408044815063, -0.22729642689228058, -0.29991939663887024, 0.009157820604741573, -0.2734183371067047, -0.5745810866355896, -0.47665131092071533, 0.18579992651939392, -0.4311332702636719, 0.19568981230258942, -0.23801210522651672, 0.2242395430803299, -0.26688066124916077, -0.7336764335632324, -0.2022743672132492, -0.12140484899282455, 0.10608690977096558, -0.0024003663565963507, -0.1687711775302887, -0.2882740795612335, 0.272905558347702, -0.4468631446361542, -0.018854791298508644, 0.023049797862768173, -0.7887946367263794, 0.020468326285481453, -0.10783727467060089, 0.03955589234828949, -0.08023180067539215, 0.002944327425211668, -0.18265748023986816], [0.1036214530467987, 0.023245209828019142, 0.17059609293937683, -0.1493537276983261, -0.08281804621219635, -0.06800065189599991, 0.3976110816001892, 0.194392591714859, -0.043017126619815826, -0.22009922564029694, 0.25200778245925903, -0.0013259097468107939, 0.17114311456680298, 0.045614201575517654, -0.11609917134046555, -0.05709562450647354, -0.35121405124664307, -0.26158708333969116, 0.26555177569389343, 0.02586102858185768, 0.1940944939851761, -0.027805270627141, -0.36435243487358093, -0.03886214271187782, 0.1421518623828888, 0.14622925221920013, -0.003326922422274947, 0.24921543896198273, 0.20374490320682526, 0.3265526294708252, -0.022474927827715874, 0.01966363564133644, -0.2596387267112732, 0.033182140439748764, 0.10847277194261551, -0.5538331270217896, -0.17654778063297272, -0.011014388874173164, 0.035992857068777084, 0.01647641509771347, -0.10617554187774658, 0.19865648448467255, -0.09843649715185165, -0.21747492253780365, -0.06258994340896606, -0.033792734146118164, 0.09029016643762589, 0.32151487469673157, -0.02896575815975666, -0.020202703773975372, 0.12561921775341034, 0.2545473575592041, -0.041891857981681824, -0.06268391013145447, -0.10632660239934921, -0.33627671003341675, -0.5430067777633667, 0.14539746940135956, -0.29833462834358215, -0.3316405117511749, 0.01880912482738495, -0.12337072938680649, -0.15249794721603394, -0.014843086712062359, -0.1917102187871933, 0.1303577572107315, -0.1997225135564804, 0.24752481281757355, 0.014002354815602303, 0.3122609853744507, -0.020996371284127235, -0.23677854239940643, -0.10815303772687912, 0.11048160493373871, 0.14342081546783447, 0.4073159992694855, 0.14323540031909943, 0.2949286997318268, 0.1630154401063919, -0.29081249237060547, 0.13454507291316986, -0.11501438915729523, -0.0977180078625679, -0.2736896276473999, 0.23564434051513672, 0.590180516242981, 0.293015718460083, -0.06485647708177567, -0.2315801978111267, 0.3170095980167389, 0.1697809398174286, 0.006119878962635994, 0.13396063446998596, -0.3685241639614105, -0.06206710264086723, 0.39787349104881287, -0.05353042483329773, -0.5584540963172913, 0.1631881147623062, 0.34516578912734985, -0.33705195784568787, -0.37376299500465393, -0.09216875582933426, 0.3246414363384247, -0.2755002975463867, -0.04267542436718941, 0.0038875644095242023, 0.304537832736969, 0.28776758909225464, 0.019402334466576576, -0.11462796479463577, 0.13592085242271423, 0.3399222493171692, 0.13882622122764587, -0.019364040344953537, 0.4229007959365845, 0.10452307760715485, 0.25910043716430664, -0.33865541219711304, -0.1396462768316269, -0.21588671207427979, -0.05237336456775665, 0.1539238840341568, -0.10069362819194794, 0.1714669018983841, 0.3450877368450165, -0.11877153813838959, -0.16274546086788177], [0.6543014049530029, 0.4435468316078186, -0.2121644914150238, -0.12331155687570572, 0.17088471353054047, -0.3637416362762451, -0.4932394325733185, -0.011866956017911434, 0.4269959628582001, -0.33772847056388855, -0.3942362666130066, 0.15902799367904663, 0.31733331084251404, 0.11000122129917145, -0.015506488271057606, 0.10515068471431732, -0.3087749183177948, 0.04892699792981148, 0.30944395065307617, 0.46881386637687683, -0.15966719388961792, 0.1705753058195114, -0.4511309862136841, -0.0014305687509477139, 0.056786954402923584, -0.25926899909973145, 0.1433553844690323, 0.32426324486732483, 0.45173099637031555, -0.06461096554994583, -0.029140112921595573, 0.14070568978786469, -0.10629359632730484, -0.08392573148012161, 0.28861403465270996, 0.028795748949050903, -0.22305911779403687, 0.17622950673103333, -0.2726553976535797, 0.14507871866226196, -0.2243897169828415, 0.15731889009475708, 0.09136749058961868, -0.21799296140670776, 0.061186935752630234, 0.13161516189575195, -0.34450849890708923, -0.4863630533218384, 0.20163990557193756, -0.08041518181562424, 0.3636954724788666, -0.1729392111301422, 0.08697570860385895, -0.07599741220474243, 0.09979347884654999, -0.14459271728992462, -0.22124187648296356, -0.14314597845077515, 0.2626211643218994, -0.019499026238918304, -0.2649463713169098, 0.07582340389490128, -0.07891219109296799, -0.11869104206562042, -0.3995169699192047, -0.18941259384155273, 0.18877442181110382, 0.12602874636650085, 0.14230889081954956, -0.17812174558639526, -0.2734573781490326, -0.168303981423378, -0.45587873458862305, 0.2800048589706421, 0.1012081429362297, 0.3033027648925781, -0.38972482085227966, -0.04943465441465378, -0.10460904240608215, -0.19952917098999023, -0.08270540088415146, -0.6788227558135986, -0.2472861111164093, -0.10591048747301102, -0.03416893258690834, 0.042868416756391525, 0.6053844094276428, 0.2549161911010742, -0.24203652143478394, -0.4210847318172455, 0.10115008801221848, -0.07864037901163101, 0.1769343912601471, -0.36752137541770935, -0.12205533683300018, 0.03878559172153473, 0.16783617436885834, -0.021743856370449066, 0.4979449510574341, -0.0450013093650341, -0.36439675092697144, -0.23488488793373108, -0.6548026204109192, 0.12085030972957611, -0.4607539772987366, -0.5355936884880066, 0.019750047475099564, 0.19637241959571838, 0.18094919621944427, 0.0828183963894844, -0.10765957832336426, 0.1271974742412567, -0.05039025843143463, 0.3742130398750305, 0.30774611234664917, 0.13814005255699158, -0.1268116682767868, -0.0364818200469017, -0.44495952129364014, -0.4885442554950714, 0.08421508967876434, -0.29725876450538635, 0.21479639410972595, 0.5232995748519897, -0.009474781341850758, 0.31798481941223145, -0.4785178601741791, 0.03258798271417618], [0.08354543894529343, -0.1485927850008011, 0.4233522117137909, -0.04112415015697479, -0.010332620702683926, 0.1653485745191574, 0.4366122782230377, 0.08960207551717758, 0.025385910645127296, -0.2437957376241684, -0.008502248674631119, -0.2044076770544052, 0.1564943492412567, 0.146926611661911, 0.12421264499425888, 0.23276883363723755, -0.013398836366832256, 0.16812272369861603, 0.2613671123981476, -0.1041722446680069, 0.18613138794898987, 0.02002134919166565, -0.2706873118877411, -0.20855560898780823, -0.1681397557258606, 0.05679534375667572, -0.11417212337255478, 0.16223716735839844, -0.006816409528255463, 0.09919287264347076, -0.17315241694450378, -0.252170592546463, -0.20355181396007538, -0.374296098947525, -0.23592941462993622, -0.3434675335884094, -0.1888466328382492, 0.1209399476647377, 0.3967972695827484, 0.19115129113197327, -0.047639839351177216, -0.29159972071647644, -0.032770801335573196, 0.05603688210248947, -0.15740616619586945, -0.22876954078674316, 0.23497185111045837, 0.17238640785217285, -0.27300864458084106, -0.07759804278612137, 0.020344629883766174, 0.4084801971912384, -0.07343794405460358, -0.07897619903087616, -0.045794595032930374, -0.10141655802726746, -0.2574233114719391, -0.17496967315673828, 0.08832255005836487, -0.18323057889938354, -0.2351958304643631, -0.05287368595600128, 0.20777268707752228, 0.21631817519664764, -0.07411468029022217, 0.11733874678611755, 0.12385694682598114, -0.2072712481021881, 0.1483168601989746, 0.35122594237327576, 0.03177960589528084, -0.038074471056461334, -0.046975020319223404, -0.08079588413238525, 0.26323938369750977, 0.4564022123813629, 0.3061070740222931, 0.4682367742061615, 0.1728571206331253, -0.0035775217693299055, -0.22640272974967957, -0.08741670101881027, 0.28374990820884705, -0.24274130165576935, 0.013021646998822689, 0.5220728516578674, -0.027929333969950676, -0.23968470096588135, 0.03799144923686981, 0.3853406012058258, -0.13484980165958405, 0.19432473182678223, -0.1900077760219574, -0.23059330880641937, 0.5055625438690186, 0.08042336255311966, -0.1445000320672989, -0.0959291085600853, 0.14958347380161285, 0.11316162347793579, 0.24296815693378448, -0.33154335618019104, 0.27793529629707336, 0.12408667057752609, 0.007254098076373339, 0.5374840497970581, 0.017202507704496384, 0.15292346477508545, -0.1486215442419052, -0.08644283562898636, 0.2909710705280304, 0.2125672996044159, 0.008822968229651451, -0.11707849055528641, 0.05072670429944992, 0.016004761680960655, 0.09082483500242233, 0.08745326101779938, 0.2838074266910553, 0.22748462855815887, -0.497584730386734, 0.2346549928188324, -0.20037013292312622, 0.2971392273902893, -0.04080023244023323, 0.06704159080982208, 0.25096040964126587, 0.23426856100559235], [-0.14230237901210785, 0.04699481278657913, 0.11450836062431335, -0.04018339142203331, 0.02298589237034321, 0.10209483653306961, 0.20320336520671844, -0.3617475926876068, -0.14844189584255219, -0.2930387854576111, -0.2067469209432602, -0.15976831316947937, 0.21774087846279144, 0.26179102063179016, -0.13074728846549988, 0.26271331310272217, -0.2955116033554077, 0.21097908914089203, -0.10982242226600647, 0.007069072220474482, -0.009621773846447468, -0.16525979340076447, 0.19687806069850922, 0.12485788017511368, -0.08297526091337204, -0.06811634451150894, -0.08932524919509888, -0.08228355646133423, 0.23777876794338226, -0.20158275961875916, 0.126611590385437, 0.013706088066101074, 0.13769033551216125, -0.12953482568264008, 0.13991650938987732, 0.2520381808280945, 0.3144087493419647, -0.3412088453769684, -0.23425062000751495, 0.3607608675956726, 0.0298431608825922, 0.14377470314502716, -0.12078636884689331, 0.23489230871200562, 0.1449398696422577, -0.16956889629364014, -0.4274616241455078, 0.2856174111366272, -0.3831755816936493, 0.0763506293296814, 0.16187064349651337, 0.009796977043151855, -0.0014044123236089945, -0.3825426995754242, 0.16599485278129578, 0.2579133212566376, -0.102760449051857, -0.036033883690834045, 0.028804559260606766, 0.33896446228027344, 0.27612510323524475, 0.21234621107578278, -0.29539069533348083, 0.3711757957935333, -0.14992669224739075, 0.1128036230802536, 0.3421715199947357, 0.01624828390777111, -0.03733256459236145, -0.2683227062225342, 0.08499299734830856, 0.04842895269393921, 0.28538978099823, -0.12198581546545029, -0.06446682661771774, -0.2913072109222412, -0.04362014681100845, -0.3885740339756012, 0.1399707943201065, 0.058446165174245834, 0.10265466570854187, -0.31824561953544617, -0.19633609056472778, 0.3141612410545349, 0.16471481323242188, -0.20360690355300903, -0.028762349858880043, 0.13993291556835175, 0.43885016441345215, 0.055718712508678436, 0.14414077997207642, -0.0039845979772508144, 0.18815843760967255, 0.2977091372013092, 0.13773031532764435, -0.43379831314086914, 0.27946174144744873, -0.055797889828681946, 0.253280907869339, -0.6788380146026611, 0.6201729774475098, 0.20294702053070068, -0.30126655101776123, -0.12262089550495148, -0.3216414749622345, -0.43917956948280334, -0.039710305631160736, 0.09153367578983307, -0.40235254168510437, 0.05330880358815193, 0.10411055386066437, -0.17665743827819824, -0.41214519739151, -0.17757822573184967, -0.36757510900497437, 0.09301082789897919, 0.16649416089057922, 0.06611935049295425, -0.10509344190359116, 0.24466286599636078, 0.2507260739803314, -0.13239626586437225, -0.01805022731423378, -0.09361257404088974, -0.27875182032585144, -0.026192791759967804, 0.18725819885730743, -0.08098828047513962], [-0.07128722220659256, -0.0716104730963707, 0.18934106826782227, 0.15247096121311188, -0.07199954241514206, 0.13792167603969574, 0.0004891724092885852, -0.11853713542222977, -0.1598030924797058, -0.08709298074245453, -0.036178670823574066, -0.2184729278087616, 0.10818547755479813, -0.03366166353225708, -0.1790422648191452, 0.031033338978886604, -0.04995374381542206, 0.016480274498462677, -0.19021327793598175, -0.0038305558264255524, 0.17221876978874207, 0.032824452966451645, 0.20302194356918335, -0.15346316993236542, 0.46875637769699097, -0.0064712343737483025, 0.04159213602542877, -0.027547884732484818, -0.16958363354206085, 0.08260919898748398, -0.010051819495856762, -0.03585772588849068, 0.14904159307479858, -0.13980858027935028, 0.057122450321912766, 0.2067997008562088, 0.02998819760978222, -0.39734506607055664, 0.0888473242521286, -0.024076227098703384, 0.15828731656074524, -0.09878446906805038, -0.05760188028216362, 0.17574836313724518, 0.22540327906608582, -0.15020015835762024, 0.42181792855262756, 0.12777233123779297, -0.11426633596420288, -0.15323406457901, 0.11016546189785004, 0.06414761394262314, 0.0034519797191023827, -0.1682550609111786, 0.4326948821544647, 0.17905303835868835, 0.1431664675474167, -0.1791456937789917, 0.1953435093164444, 0.27105632424354553, 0.4089059829711914, 0.08074018359184265, 0.13430500030517578, 0.1293099969625473, 0.04622999578714371, -0.3050728440284729, 0.15805475413799286, 0.013220367021858692, 0.0002448803570587188, -0.1444331407546997, 0.4060520529747009, 0.5301600694656372, 